{
    "n_features": 6,
    "constraints": [
        0,
        0,
        -1,
        -1,
        -1,
        -1
    ],
    "rescale_min": [
        0.0,
        0.012707611545920372,
        -9.967638728623625,
        -4.9982336081929795,
        -4.996816148580615,
        -4.991728288316517
    ],
    "rescale_max": [
        1.4997204542160034,
        2.499988317489624,
        2.7477328859183916,
        0.41461895048543823,
        0.36598278535921014,
        9.469097929753055
    ],
    "sigmanet.sigma": [
        2.0999999046325684
    ],
    "sigmanet.nn.0.bias": [
        -0.040434304624795914,
        2.175701379776001,
        1.4791181087493896,
        2.08945631980896,
        1.9219049215316772,
        -1.0843690633773804,
        -1.0201178789138794,
        0.6185336709022522,
        -1.4394071102142334,
        0.8667516112327576,
        -1.127798318862915,
        0.5430054068565369
    ],
    "sigmanet.nn.0.sigma": [
        2.0999999046325684
    ],
    "sigmanet.nn.0.weight_orig": [
        [
            1.0165371894836426,
            2.0999999046325684,
            -1.6784549951553345,
            -0.6619263291358948,
            0.033432092517614365,
            0.013017047196626663
        ],
        [
            0.7402507066726685,
            -2.0999999046325684,
            -1.9193352460861206,
            -0.8363573551177979,
            -0.14980995655059814,
            0.01663956046104431
        ],
        [
            -2.0999999046325684,
            2.0999999046325684,
            0.3029181957244873,
            -0.6708405613899231,
            -2.077136516571045,
            -0.6100640296936035
        ],
        [
            -0.8684592247009277,
            -1.5564601421356201,
            -2.0999999046325684,
            0.04513561725616455,
            0.5221425890922546,
            -0.47259876132011414
        ],
        [
            -2.0999999046325684,
            2.0999999046325684,
            -1.6204501390457153,
            0.17392224073410034,
            -1.6071735620498657,
            -0.3058355450630188
        ],
        [
            2.0999999046325684,
            2.0999999046325684,
            -2.0999999046325684,
            1.3626766204833984,
            -0.08378587663173676,
            -0.12273406237363815
        ],
        [
            0.31826403737068176,
            -2.0999999046325684,
            1.2075724601745605,
            1.5081297159194946,
            2.0999999046325684,
            -2.0999999046325684
        ],
        [
            0.9219393730163574,
            -2.0999999046325684,
            1.2608975172042847,
            -1.446141242980957,
            -1.7097158432006836,
            2.0999999046325684
        ],
        [
            2.0999999046325684,
            -0.8733533620834351,
            1.9460194110870361,
            0.27760234475135803,
            -0.5741292834281921,
            -0.7899203896522522
        ],
        [
            -2.0999999046325684,
            -1.0921381711959839,
            1.1925833225250244,
            -0.022151323035359383,
            -0.26003244519233704,
            0.4558432102203369
        ],
        [
            -0.8643422722816467,
            -2.0999999046325684,
            2.0999999046325684,
            0.10375716537237167,
            1.0831913948059082,
            0.2608855366706848
        ],
        [
            -1.008082389831543,
            -2.0999999046325684,
            -2.0999999046325684,
            1.3341180086135864,
            1.0695067644119263,
            0.7481244206428528
        ]
    ],
    "sigmanet.nn.1.bias": [
        -0.6294999718666077,
        -1.0079981088638306,
        0.1068812757730484,
        -1.1327763795852661,
        0.8070777654647827,
        -0.6335991621017456,
        0.9120582938194275,
        0.9456132054328918,
        1.1394083499908447,
        -1.1782548427581787,
        1.1083283424377441,
        0.47792738676071167
    ],
    "sigmanet.nn.1.sigma": [
        2.0999999046325684
    ],
    "sigmanet.nn.1.weight_orig": [
        [
            -0.3119884729385376,
            0.0018719923682510853,
            -0.0004715941031463444,
            6.350994954118505e-05,
            0.0007493058801628649,
            0.0005242233746685088,
            -0.002002222230657935,
            0.0009940556483343244,
            -0.0032821521162986755,
            1.1304607391357422,
            -0.001901224604807794,
            0.6456900238990784
        ],
        [
            -0.11221152544021606,
            0.0011868264991790056,
            -1.723732352256775,
            0.002577709499746561,
            -0.0055605159141123295,
            -0.005478605628013611,
            0.002456430345773697,
            0.053178198635578156,
            0.0071938904002308846,
            0.0005233449628576636,
            0.0024084157776087523,
            0.18349221348762512
        ],
        [
            0.0009583876235410571,
            -0.18270021677017212,
            0.6719627380371094,
            0.014458215795457363,
            0.003801957704126835,
            -0.3876231610774994,
            -0.006773412227630615,
            0.0026398086920380592,
            -0.1257251501083374,
            0.11398503929376602,
            -0.356333464384079,
            0.2330382913351059
        ],
        [
            -1.2348573207855225,
            0.04321853071451187,
            -0.005811322946101427,
            0.0030670801643282175,
            0.002834032289683819,
            -0.00175228132866323,
            0.002521541668102145,
            0.40217095613479614,
            0.00084072130266577,
            0.00024555184063501656,
            -0.002407144056633115,
            0.40027326345443726
        ],
        [
            0.9424105286598206,
            -0.0041283173486590385,
            0.001578807015903294,
            -0.0005386995617300272,
            -0.0005324733792804182,
            0.09807059913873672,
            0.0005926665617153049,
            -0.29537394642829895,
            2.9893220926169306e-05,
            -0.0008046591538004577,
            0.004150794353336096,
            -0.7517884969711304
        ],
        [
            -0.05222686007618904,
            0.7893571853637695,
            -0.003860874567180872,
            -0.1501486599445343,
            -0.17122098803520203,
            -0.4884425699710846,
            0.0050649503245949745,
            0.22176335752010345,
            0.010555597022175789,
            0.0031232901383191347,
            0.1554832011461258,
            -0.04875245317816734
        ],
        [
            1.038662075996399,
            -0.004338881466537714,
            0.0026767102535814047,
            -0.0020801573991775513,
            -0.001840056967921555,
            0.0023236549459397793,
            0.00442501250654459,
            -0.10608995705842972,
            -0.0019459972390905023,
            -0.0036146112252026796,
            4.893824007012881e-05,
            -0.9319536685943604
        ],
        [
            1.0625386238098145,
            -0.00619490584358573,
            0.0009776842780411243,
            -0.0034093561116605997,
            0.000579851446673274,
            0.02475028857588768,
            -0.0009725018753670156,
            -0.09963361918926239,
            -0.002132150111719966,
            -0.002715615089982748,
            -0.00026040172087959945,
            -0.8958349227905273
        ],
        [
            0.325736403465271,
            -1.1306898593902588,
            0.0013354260008782148,
            0.0028504887595772743,
            0.000936267722863704,
            -0.0012276223860681057,
            -0.000523913826327771,
            -0.0029123369604349136,
            0.3359944522380829,
            -0.11932224780321121,
            0.0022812564857304096,
            -0.17618964612483978
        ],
        [
            -0.56943678855896,
            0.1752764880657196,
            -0.00840291753411293,
            -0.006301902700215578,
            0.0045033954083919525,
            -0.07953086495399475,
            -0.167657732963562,
            0.22382928431034088,
            -0.0017482041148468852,
            0.4346953332424164,
            -0.00481062987819314,
            0.42380642890930176
        ],
        [
            0.20059439539909363,
            -0.002673397772014141,
            0.9272621870040894,
            -5.924226115894271e-06,
            0.0036853584460914135,
            -0.0003945443022530526,
            0.0005450755706988275,
            -0.5510348677635193,
            -0.0005533508956432343,
            0.000266429444309324,
            0.003036720212548971,
            -0.4099476933479309
        ],
        [
            0.26202842593193054,
            0.0003881027805618942,
            -0.0016054946463555098,
            -0.002379123354330659,
            -0.14414331316947937,
            0.0025328020565211773,
            0.035455092787742615,
            -0.0001713960082270205,
            0.24470224976539612,
            -1.181822657585144,
            0.04110337048768997,
            -0.18366780877113342
        ]
    ],
    "sigmanet.nn.2.bias": [
        -0.8561391830444336,
        0.7529308795928955,
        0.11801132559776306,
        -0.6491432785987854,
        0.4391927123069763,
        -0.18730922043323517,
        -0.659714937210083,
        0.30190420150756836,
        0.6094831228256226,
        0.4989171028137207,
        -0.27249085903167725,
        0.5834578275680542
    ],
    "sigmanet.nn.2.sigma": [
        2.0999999046325684
    ],
    "sigmanet.nn.2.weight_orig": [
        [
            0.5256661176681519,
            0.0008683708147145808,
            0.25779131054878235,
            0.0002064650325337425,
            0.0007457000319845974,
            -0.04793978109955788,
            -0.1525581032037735,
            -0.25806254148483276,
            0.00013104088429827243,
            8.070962940109894e-05,
            -0.0005377380293793976,
            -0.8554120063781738
        ],
        [
            -0.5706465840339661,
            -2.2376540073310025e-05,
            -0.4482392370700836,
            -0.0002696813317015767,
            9.395631786901504e-05,
            0.1812027245759964,
            0.04057718813419342,
            0.24363471567630768,
            -0.0008167392225004733,
            0.0005610404768958688,
            -0.0004959243815392256,
            0.6134397387504578
        ],
        [
            -0.22480234503746033,
            0.0011140137212350965,
            -0.7648411393165588,
            0.0005115285166539252,
            -0.0006701082456856966,
            -0.003587688086554408,
            -0.00034400224103592336,
            8.808954589767382e-05,
            -0.650858998298645,
            0.31680670380592346,
            -0.004916802980005741,
            0.13145840167999268
        ],
        [
            0.3491555452346802,
            0.0005475744837895036,
            0.6934846043586731,
            0.0009548038360662758,
            0.0004484826931729913,
            -0.39564627408981323,
            -0.011981653980910778,
            -0.00360464327968657,
            -0.0003791821945924312,
            -0.0003422191657591611,
            0.00042019892134703696,
            -0.6430345177650452
        ],
        [
            -0.5297850966453552,
            0.00032250970252789557,
            -0.4229593575000763,
            -0.0005670377286151052,
            -0.001818598946556449,
            0.2090797871351242,
            0.056216392666101456,
            0.04409763589501381,
            -7.460880442522466e-05,
            0.0009571411646902561,
            -0.0017165800090879202,
            0.8324050903320312
        ],
        [
            0.28992122411727905,
            -0.0022590120788663626,
            0.398210346698761,
            0.0006737018702551723,
            0.0014748520916327834,
            -0.0030143088661134243,
            -0.011965167708694935,
            -0.006125195883214474,
            0.20961083471775055,
            -1.0068250894546509,
            0.003232615301385522,
            -0.16668760776519775
        ],
        [
            0.22004744410514832,
            0.00021650134294759482,
            0.6584641933441162,
            0.0002411843161098659,
            0.0013769177021458745,
            -0.7241052985191345,
            -0.0014580354327335954,
            -0.0014366275863721967,
            0.001112010795623064,
            -0.0011636557755991817,
            7.23520788596943e-05,
            -0.49030569195747375
        ],
        [
            -0.001957342028617859,
            0.001554979244247079,
            -0.7835748791694641,
            -0.0005188579671084881,
            -0.19126372039318085,
            0.2782411277294159,
            0.0007093437016010284,
            0.00037034941487945616,
            -0.00014987723261583596,
            0.48929736018180847,
            -0.0019001075997948647,
            0.35046207904815674
        ],
        [
            -0.3250766098499298,
            0.00024663525982759893,
            -0.7244638204574585,
            -0.0006939839804545045,
            -0.0015418874099850655,
            0.7784812450408936,
            0.0021174661815166473,
            0.00205894373357296,
            -0.0014632039237767458,
            0.001105658826418221,
            -0.00045623924233950675,
            0.26229438185691833
        ],
        [
            -0.2745390832424164,
            -0.00011179512512171641,
            -0.7201056480407715,
            -0.0005799808423034847,
            -0.0014945853035897017,
            0.6659396886825562,
            0.0017356695607304573,
            0.0020135536324232817,
            -0.0009926091879606247,
            0.0014638330321758986,
            -0.0005684641073457897,
            0.43045496940612793
        ],
        [
            0.35594895482063293,
            -0.0013730494538322091,
            0.34271153807640076,
            0.0011717427987605333,
            0.0016039315378293395,
            -0.003264057682827115,
            -0.01946919783949852,
            -0.01089209783822298,
            -0.0005072971689514816,
            -1.311322569847107,
            0.0011042485712096095,
            -0.0506310798227787
        ],
        [
            -0.47593966126441956,
            -0.000537792278919369,
            -0.5915888547897339,
            -0.00043485438800416887,
            -0.00024038951960392296,
            0.5620556473731995,
            0.001014196895994246,
            0.0007285087485797703,
            -0.00048090179916471243,
            0.0011765327071771026,
            7.133920735213906e-05,
            0.4657313823699951
        ]
    ],
    "sigmanet.nn.3.bias": [
        0.42632925510406494,
        0.30151909589767456,
        0.3734131455421448,
        0.3455733358860016,
        -0.5546087622642517,
        0.1262246072292328,
        0.35344815254211426,
        0.340905100107193,
        0.21495969593524933,
        -0.23705635964870453,
        0.12865746021270752,
        0.020416442304849625
    ],
    "sigmanet.nn.3.sigma": [
        2.0999999046325684
    ],
    "sigmanet.nn.3.weight_orig": [
        [
            0.4068603515625,
            -0.5994077324867249,
            0.0004251819627825171,
            -0.0009143039933405817,
            0.0021652800496667624,
            -0.0019338957499712706,
            0.27849122881889343,
            -0.0012164997169747949,
            -0.35083746910095215,
            -0.3342258930206299,
            0.0018596126465126872,
            -0.12166256457567215
        ],
        [
            0.28789979219436646,
            -0.4113556742668152,
            0.005236194934695959,
            -0.0009581812773831189,
            0.0005148922209627926,
            -0.0024284329265356064,
            0.39658647775650024,
            -0.002533895429223776,
            -0.3481317460536957,
            -0.50070720911026,
            0.00037419324507936835,
            -0.14327335357666016
        ],
        [
            0.2705234885215759,
            -0.539565920829773,
            0.0004049799754284322,
            -0.000504347204696387,
            0.00048615015111863613,
            -0.0029113353230059147,
            0.3320397436618805,
            -0.002773884916678071,
            -0.39948320388793945,
            -0.44373300671577454,
            0.002857096027582884,
            -0.10471684485673904
        ],
        [
            0.2811104357242584,
            -0.6045863032341003,
            0.0032372395507991314,
            0.0015590438852086663,
            0.002400574740022421,
            -0.0022907941602170467,
            0.2587915360927582,
            -0.0009391243220306933,
            -0.385574072599411,
            -0.4342271387577057,
            0.003404459450393915,
            -0.1218792200088501
        ],
        [
            0.003422368783503771,
            0.0012201247736811638,
            0.6416074633598328,
            -0.00230619078502059,
            -0.0015990159008651972,
            -1.4315776824951172,
            0.00571256410330534,
            -0.0010837248992174864,
            -0.003586850594729185,
            -0.004070417955517769,
            4.827992961509153e-05,
            -0.0037653313484042883
        ],
        [
            -0.002321671461686492,
            0.0025665536522865295,
            -0.2980755567550659,
            0.0008361696964129806,
            -0.0012775426730513573,
            0.2562757730484009,
            -0.2320716828107834,
            0.0005445842980407178,
            0.5376067757606506,
            0.36226603388786316,
            -0.0007294189999811351,
            0.40542837977409363
        ],
        [
            0.3141621947288513,
            -0.5741434097290039,
            0.000380289857275784,
            -0.0005340880597941577,
            0.0010411065304651856,
            -0.00168535893317312,
            0.28968656063079834,
            -0.0010588577715680003,
            -0.40567198395729065,
            -0.42066267132759094,
            0.0005763089284300804,
            -0.0903971716761589
        ],
        [
            0.21350307762622833,
            -0.4619396924972534,
            0.0018684676615521312,
            -0.00040432714740745723,
            0.0007703661685809493,
            -0.002342206658795476,
            0.3096211552619934,
            -0.0005020322860218585,
            -0.4467298984527588,
            -0.5829459428787231,
            0.0013818714069202542,
            -0.07799083739519119
        ],
        [
            -0.0020767878741025925,
            0.001978127518668771,
            -0.5313336849212646,
            0.00012241024523973465,
            -0.0012133336858823895,
            0.5622038841247559,
            -0.300662100315094,
            0.0007686185417696834,
            0.2532173693180084,
            0.21318243443965912,
            -0.0003952991683036089,
            0.23284581303596497
        ],
        [
            0.0023582198191434145,
            -0.0018703823443502188,
            0.5241643190383911,
            -0.0003932463005185127,
            0.00112672068644315,
            -0.5819674730300903,
            0.23862531781196594,
            -0.0007840433972887695,
            -0.22444413602352142,
            -0.17315703630447388,
            0.00032621051650494337,
            -0.3507827818393707
        ],
        [
            0.0099404351785779,
            -0.008818564005196095,
            0.0029320940375328064,
            -0.0012287328718230128,
            1.0326504707336426,
            -0.006194810848683119,
            0.0048211924731731415,
            -0.0029558930546045303,
            -0.0030199852772057056,
            -0.0020736546721309423,
            1.023679256439209,
            -0.0016847230726853013
        ],
        [
            0.3318338394165039,
            -0.5166851878166199,
            0.0037454506382346153,
            -0.0012286194832995534,
            0.0002649542293511331,
            -0.0027972767129540443,
            0.2889324128627777,
            -0.00028735361411236227,
            -0.3334575295448303,
            -0.5049550533294678,
            0.0006626945687457919,
            -0.11514955013990402
        ]
    ],
    "sigmanet.nn.4.bias": [
        -0.0784812867641449
    ],
    "sigmanet.nn.4.sigma": [
        2.0999999046325684
    ],
    "sigmanet.nn.4.weight_orig": [
        [
            -0.012005992233753204,
            -0.0023101887200027704,
            -0.002504170872271061,
            -0.0030780574306845665,
            -0.004742371384054422,
            0.3084995746612549,
            -0.008862861432135105,
            -0.004704094026237726,
            -0.25924885272979736,
            0.27609387040138245,
            -0.0002522462164051831,
            -1.2176975011825562
        ]
    ],
    "nominal_cut": 0.9
}
