{"n_features": 6, "constraints": [0, 0, -1, -1, -1, -1], "rescale_min": [0.0, 0.019576940685510635, -9.967638728623625, -4.996047528900929, -4.996816148580615, -2.9929434499138843], "rescale_max": [1.7967907190322876, 2.1998016834259033, 2.124419440650319, 0.37722801884986557, 0.2210370802868239, 9.495070802576809], "sigmanet.sigma": [2.299999952316284], "sigmanet.nn.0.bias": [-1.06624436378479, 0.5750585198402405, -1.1806617975234985, -0.5550356507301331, 0.6737323999404907, 0.48465996980667114, -0.5870184302330017, 1.3728585243225098, -0.15605032444000244, -0.024901574477553368, 0.2671233117580414, -0.8454411625862122], "sigmanet.nn.0.sigma": [2.299999952316284], "sigmanet.nn.0.weight_orig": [[0.14765731990337372, -0.7411929965019226, 0.6447840332984924, 0.14144130051136017, 0.7484272718429565, 0.3331174850463867], [-0.1417764276266098, 0.1379891335964203, -1.1450480222702026, -0.25643616914749146, 1.105520248413086, -0.48307979106903076], [1.1158018112182617, -1.1181647777557373, 1.125852346420288, 0.28105396032333374, 0.17348229885101318, 0.046976275742053986], [-1.1933798789978027, -1.4580941200256348, 0.8392825126647949, 0.6869935989379883, 0.6125500202178955, 0.5690262913703918], [-0.27368348836898804, 0.25601330399513245, -1.6717673540115356, 0.6120826601982117, -0.06611336767673492, 0.2761813700199127], [0.4426410496234894, -0.463113397359848, -1.9725666046142578, 0.6188566088676453, 0.3882383704185486, 0.39490145444869995], [-0.19200067222118378, 1.5630788803100586, -0.198374405503273, 0.1105981320142746, -0.11518022418022156, -0.04682972654700279], [-0.13921202719211578, -2.299999952316284, -0.41559821367263794, -0.21670345962047577, -0.15478946268558502, 0.13929100334644318], [0.078400619328022, -1.680065393447876, 0.006543879862874746, 0.34484800696372986, 0.7363603115081787, -0.012250274419784546], [-0.07808490842580795, 0.05753878131508827, -0.04859854280948639, 0.39730408787727356, -0.10706103593111038, -0.08387495577335358], [-1.1917260885238647, -0.27584758400917053, 1.0410373210906982, -0.12687288224697113, -0.4690791666507721, 0.1371370553970337], [1.920634388923645, 0.6136258244514465, -0.3050903379917145, 0.35178104043006897, 0.5480596423149109, -0.3401486277580261]], "sigmanet.nn.1.bias": [0.15135885775089264, -0.17605550587177277, -0.38639897108078003, -0.06934086978435516, 0.35726720094680786, -0.7313456535339355, 0.7116122245788574, -1.195786476135254, -0.2265220433473587, 0.7415652275085449, -0.9215375185012817, 0.055424802005290985], "sigmanet.nn.1.sigma": [2.299999952316284], "sigmanet.nn.1.weight_orig": [[-0.949669599533081, 0.3162032961845398, -1.6679643392562866, 0.2672273814678192, -0.8354396820068359, -0.5928083062171936, 0.8196674585342407, -0.5497449636459351, -0.13058479130268097, 0.21189159154891968, 0.6116304993629456, -0.7444652318954468], [0.21009008586406708, 0.9303723573684692, 1.8530738353729248, 0.31644096970558167, 0.24168601632118225, -0.3357160985469818, -1.2888349294662476, 0.03644225001335144, 0.9327348470687866, -0.036437273025512695, -0.04231629520654678, 0.6608842015266418], [0.5648642778396606, -0.2202584147453308, -0.12151918560266495, 0.7376834750175476, 0.5472327470779419, 0.28526532649993896, -0.9110872149467468, 0.7408232092857361, 0.2543620467185974, 0.017211779952049255, -0.4129234254360199, -0.19939875602722168], [0.621267557144165, 1.1362143754959106, -1.3969091176986694, 0.6342733502388, 0.9108980298042297, 0.3650765120983124, 0.18177616596221924, -0.542620837688446, 0.09611348807811737, 0.061921946704387665, 0.2692784070968628, -0.1686827689409256], [-0.31815534830093384, 0.961353600025177, -0.08877358585596085, -0.5972305536270142, 0.004358698148280382, 0.5855317115783691, 0.5119494199752808, -0.7817501425743103, -0.22555002570152283, 0.7615351676940918, 0.10731171071529388, 0.6848838925361633], [0.7902501225471497, -0.6786113977432251, -0.4247150719165802, 0.8588467240333557, -0.4636151194572449, -0.33628520369529724, -0.2424064427614212, 1.3791879415512085, 0.20671433210372925, -0.1844891607761383, -0.3486177921295166, -0.6135894060134888], [-0.2757874131202698, -1.007474422454834, 0.05687945708632469, -0.45842283964157104, -0.30446356534957886, 0.07945045828819275, -0.41362708806991577, 0.6696391701698303, -0.4593518376350403, 0.11545921862125397, 0.1555977612733841, 0.04228348657488823], [0.10848349332809448, 0.6689876317977905, -0.11691903322935104, 1.6103019714355469, 0.02046307362616062, -0.34970319271087646, -0.20316050946712494, 0.11651317030191422, 0.23088794946670532, 0.20827239751815796, -0.04361257702112198, -0.33073148131370544], [0.1784505546092987, -0.192086324095726, 0.9592338800430298, 0.29994145035743713, -2.299999952316284, -1.0784879922866821, -0.42416825890541077, -1.5898778438568115, -0.6188694834709167, 0.11667188256978989, 0.06070036441087723, 0.09065664559602737], [0.14021524786949158, -0.0803908109664917, -0.657657265663147, -0.7183719873428345, 1.8745416402816772, 0.7310924530029297, 0.6696085333824158, 0.6689750552177429, 0.5876790881156921, 0.09711708873510361, -0.4301179349422455, -0.532494068145752], [-0.2007167786359787, -0.03361540660262108, -0.226928249001503, 1.1960961818695068, -0.8709772229194641, -0.4645024538040161, -0.6569312214851379, 0.9497578740119934, -0.22889681160449982, 0.2742770314216614, -0.2844529449939728, 0.07399690896272659], [-1.065888524055481, 0.39349186420440674, 1.4447650909423828, 2.106052875518799, -0.09879903495311737, -0.40642544627189636, -0.3041282594203949, 0.516372799873352, 0.5323179960250854, 0.14531727135181427, 1.5367289781570435, -0.6561757922172546]], "sigmanet.nn.2.bias": [-0.1644669622182846, 0.8778320550918579, 0.6072654128074646, -0.5286069512367249, -1.1282676458358765, 1.1537184715270996, -0.5537093877792358, 0.20943838357925415, -0.9581050872802734, -0.6114748120307922, 0.6800811290740967, -0.7230731844902039], "sigmanet.nn.2.sigma": [2.299999952316284], "sigmanet.nn.2.weight_orig": [[0.1910342425107956, -0.2423878312110901, 1.2213211059570312, 0.14309941232204437, 0.3937389850616455, 0.028340725228190422, -0.5370206236839294, 0.36078280210494995, -0.14139960706233978, -0.03902672603726387, 0.5954276323318481, -0.465410977602005], [-0.6615881323814392, 0.5673425793647766, -0.644429624080658, 0.177998885512352, -0.3836236894130707, 0.27535954117774963, -0.5998682975769043, -0.11168564110994339, 0.5602607131004333, -0.37807559967041016, -0.365579217672348, -0.7082152962684631], [0.9908334016799927, -0.06489422172307968, 0.019453728571534157, 0.45154982805252075, 0.11610227078199387, 0.2514047920703888, 0.3004162013530731, -0.5111289024353027, 0.17683754861354828, 0.05536876991391182, -0.09410326927900314, -0.014798255637288094], [-1.068062663078308, 0.05934768170118332, -0.3357343375682831, -0.387382835149765, -0.0012983375927433372, -0.21791596710681915, -0.14044319093227386, 0.4555526375770569, -0.15713728964328766, -0.04392116889357567, 0.06789740175008774, -0.16118685901165009], [0.014013577252626419, 0.2613997161388397, -1.3503572940826416, 0.0994456559419632, 0.01156647689640522, -0.13517257571220398, 0.04656728729605675, -0.08904828131198883, -0.6305977702140808, 0.9185765981674194, 0.45447519421577454, -0.10877900570631027], [-0.08071720600128174, -0.0706862360239029, 0.5765005946159363, -0.13882671296596527, 0.0070520867593586445, -0.12168025225400925, -0.09463980048894882, -0.43514391779899597, 0.728751540184021, -0.5497555136680603, -0.6827219128608704, 0.462630957365036], [0.33322873711586, -0.7848190665245056, 0.2914978563785553, -0.3141573965549469, -0.45260781049728394, 0.15103261172771454, -0.10653037577867508, 0.4895881712436676, -0.36116519570350647, -0.6788548231124878, -0.05533899366855621, -0.09630601108074188], [-0.24559104442596436, 0.6517156362533569, 0.35407575964927673, 0.2245151400566101, 0.1979822814464569, -0.27527835965156555, 0.011584318242967129, -0.011725873686373234, -0.22461166977882385, -0.006843273062258959, 0.08590468019247055, 0.16057199239730835], [0.8741652965545654, -0.3198471963405609, -0.17123036086559296, -0.053576428443193436, 0.5211318731307983, -0.46299219131469727, 0.7427898645401001, -0.3479171097278595, -0.5333274602890015, 0.6866502165794373, 0.21379323303699493, 1.2692632675170898], [0.5399352312088013, -0.023127960041165352, 0.10347538441419601, -0.12957583367824554, 0.394300639629364, -0.2637072205543518, 0.37964558601379395, -0.2993571162223816, -0.5541654825210571, 0.3668971657752991, -0.22758391499519348, 1.2551052570343018], [-0.16319505870342255, 0.8913325667381287, -0.7598927617073059, -0.6244171857833862, -0.36247241497039795, -0.36768966913223267, 0.4509917199611664, -1.253110408782959, -0.10675152391195297, 0.8097591400146484, -0.27034980058670044, -0.12795189023017883], [0.33461761474609375, -0.9064087867736816, -0.3487107455730438, -0.07613003998994827, 0.4458934962749481, 0.06914566457271576, -0.17834056913852692, 0.8304947018623352, -0.2196594625711441, -0.21350787580013275, 0.3591209053993225, 0.40878212451934814]], "sigmanet.nn.3.bias": [-1.0654491186141968, -1.2389084100723267, 0.12219004333019257, -0.27332398295402527, -0.005962482187896967, 0.12889134883880615, -0.1587086319923401, -1.1212997436523438, 1.240404486656189, 0.7264330387115479, 0.21126526594161987, -0.13279840350151062], "sigmanet.nn.3.sigma": [2.299999952316284], "sigmanet.nn.3.weight_orig": [[-0.12194118648767471, -0.5184318423271179, -0.2633684575557709, 0.6760362982749939, -0.28131207823753357, 0.33763694763183594, -0.14622029662132263, -0.16517561674118042, 0.7417530417442322, 0.4272698163986206, 0.38643866777420044, -0.09493725746870041], [0.5807697772979736, -0.34483033418655396, -0.1110803633928299, 0.2693368196487427, -0.1553136259317398, -0.14760419726371765, 0.6043661832809448, -0.2361803501844406, 0.5294548869132996, 0.23430413007736206, -0.006235097534954548, 0.017364593222737312], [0.18945907056331635, 0.21022211015224457, 0.11603305488824844, -0.16946105659008026, -0.13216981291770935, -0.1463235467672348, 0.32455727458000183, 0.011263460852205753, 0.040620993822813034, -0.025201035663485527, -0.007588861044496298, 0.17711807787418365], [0.12676043808460236, 0.1780606061220169, 0.0690474882721901, 0.20566023886203766, 0.14983893930912018, 0.18113717436790466, -0.32156985998153687, -0.004895471036434174, 0.1543538123369217, 0.11738210171461105, -0.03641999885439873, -0.027539096772670746], [-0.1268465220928192, -0.18113785982131958, 0.026556456461548805, 0.07922328263521194, 0.19092921912670135, 0.19362857937812805, 0.06096440553665161, 0.0311676524579525, -0.0498480424284935, -0.06641186773777008, -0.1324412226676941, -0.08427708595991135], [-0.0955900177359581, -0.1257103979587555, -0.09716730564832687, -0.11159748584032059, 0.1813078224658966, 0.1841231882572174, 0.15360696613788605, 0.0997873917222023, 0.017505215480923653, -0.15063048899173737, -0.08427805453538895, -0.13890497386455536], [0.09504222869873047, 0.12394511699676514, -0.0535927340388298, -0.08332416415214539, 0.5970088243484497, -0.028019636869430542, -0.5740537643432617, 0.13911661505699158, 0.06804552674293518, -0.510789155960083, 0.2191791534423828, 0.6271095275878906], [-0.01934320479631424, -0.2126811444759369, -0.5822228193283081, 0.1585899293422699, -0.6985710859298706, 0.5213685035705566, 0.358394056558609, -0.2354898601770401, 0.4673132598400116, 0.06816846877336502, -0.20390772819519043, -0.2862842381000519], [0.05399537459015846, 0.3662239909172058, 0.39705023169517517, -0.10971132665872574, -0.24952466785907745, -0.26964160799980164, 0.09335034340620041, 0.12307952344417572, -0.5293257236480713, -0.3555304706096649, -0.41999271512031555, 0.08564003556966782], [-0.2572302222251892, -0.3221164047718048, -0.14095601439476013, 0.17605413496494293, -0.004666614346206188, -0.045398566871881485, -0.01202164776623249, -0.33935508131980896, 0.03267281875014305, 0.07511261850595474, 0.3738524615764618, 0.49282005429267883], [0.4241165220737457, -0.14150989055633545, 0.025988150388002396, -0.19845178723335266, 0.1701560914516449, -0.11060918122529984, -0.027928082272410393, 0.5403674840927124, 0.10537707805633545, -0.03278727829456329, -0.3517760634422302, -0.011422861367464066], [-0.5658105611801147, -0.06158045679330826, -0.1322336196899414, 0.09066293388605118, -0.04537807032465935, 0.2472834438085556, 0.05137808248400688, -0.41054052114486694, -0.08086157590150833, -0.19155845046043396, 0.2663840055465698, -0.07270676642656326]], "sigmanet.nn.4.bias": [1.5692217350006104], "sigmanet.nn.4.sigma": [2.299999952316284], "sigmanet.nn.4.weight_orig": [[-0.3108904957771301, -0.6122147440910339, 0.06812381744384766, -0.056414488703012466, 0.0029983457643538713, 0.0008793922024779022, -0.3228435218334198, 0.1145092099905014, -0.05740661546587944, 0.47906494140625, 0.10074847936630249, -0.10419339686632156]], "nominal_cut": 0.9}