{
    "n_features": 6,
    "constraints": [
        0,
        0,
        -1,
        -1,
        -1,
        -1
    ],
    "rescale_min": [
        0.0,
        0.010958615690469742,
        -9.999591479980442,
        -4.999993985627144,
        -4.999652482665442,
        -4.994869651581282
    ],
    "rescale_max": [
        1.499985933303833,
        2.499988317489624,
        2.7477328859183916,
        0.4460207193533987,
        0.4409453089904343,
        9.591570619155009
    ],
    "sigmanet.sigma": [
        2.5999999046325684
    ],
    "sigmanet.nn.0.bias": [
        -2.6273891925811768,
        3.6967360973358154,
        -0.07241590321063995,
        0.3286744952201843,
        -0.7174418568611145,
        2.250386953353882,
        2.2078158855438232,
        4.166288375854492,
        -2.3227133750915527,
        0.02261429838836193,
        1.4397449493408203,
        4.826732158660889
    ],
    "sigmanet.nn.0.sigma": [
        2.5999999046325684
    ],
    "sigmanet.nn.0.weight_orig": [
        [
            2.5999999046325684,
            -1.7030558586120605,
            -2.5999999046325684,
            2.5999999046325684,
            2.5999999046325684,
            0.1730678379535675
        ],
        [
            -2.145869255065918,
            2.5999999046325684,
            -2.5999996662139893,
            -1.6592026948928833,
            -1.4350730180740356,
            0.15019434690475464
        ],
        [
            -2.6000001430511475,
            -2.5999999046325684,
            2.5999999046325684,
            -0.46304744482040405,
            1.2832242250442505,
            0.31685397028923035
        ],
        [
            -2.1423795223236084,
            -2.5999999046325684,
            -2.5999999046325684,
            2.487194299697876,
            2.0286483764648438,
            0.5894448757171631
        ],
        [
            2.5999999046325684,
            1.7161206007003784,
            -2.5999999046325684,
            -0.8345300555229187,
            1.2411187887191772,
            0.20241223275661469
        ],
        [
            -2.5999999046325684,
            2.5999999046325684,
            -2.5999996662139893,
            -0.9140858054161072,
            -0.05461592972278595,
            0.486023485660553
        ],
        [
            2.5999999046325684,
            -2.6000001430511475,
            -2.5999999046325684,
            -0.1453544944524765,
            2.2805795669555664,
            -2.1280882358551025
        ],
        [
            1.1151924133300781,
            -2.6000001430511475,
            -1.9323924779891968,
            -1.4705451726913452,
            -0.06366816908121109,
            -2.5999999046325684
        ],
        [
            -1.324767827987671,
            -2.5999999046325684,
            2.5999999046325684,
            0.37831246852874756,
            -0.11071723699569702,
            2.5999999046325684
        ],
        [
            -1.7211174964904785,
            -2.5999996662139893,
            2.5999999046325684,
            1.9353190660476685,
            1.3704496622085571,
            -2.5999999046325684
        ],
        [
            2.5999999046325684,
            -2.5999999046325684,
            -1.7896473407745361,
            -0.7729957699775696,
            -1.3283611536026,
            2.041887044906616
        ],
        [
            -2.052046775817871,
            -2.6000001430511475,
            -1.382148265838623,
            -2.280721664428711,
            -2.5999999046325684,
            1.8894786834716797
        ]
    ],
    "sigmanet.nn.1.bias": [
        0.35917478799819946,
        -0.33359211683273315,
        0.2203504890203476,
        -0.22787226736545563,
        0.7775627374649048,
        0.16731931269168854,
        -0.08119963854551315,
        -0.5339787602424622,
        -0.26743432879447937,
        0.43871092796325684,
        -0.555648148059845,
        -0.08718505501747131
    ],
    "sigmanet.nn.1.sigma": [
        2.5999999046325684
    ],
    "sigmanet.nn.1.weight_orig": [
        [
            -0.0049687717109918594,
            -0.005252378527075052,
            -0.15877915918827057,
            -0.0012352862395346165,
            -0.8831954002380371,
            0.30700162053108215,
            0.48436224460601807,
            -0.12708750367164612,
            0.00227555725723505,
            -0.0008140236604958773,
            0.6158720254898071,
            0.00915596354752779
        ],
        [
            0.30646562576293945,
            -0.1817980855703354,
            0.0036154163535684347,
            0.9096946120262146,
            0.007062014192342758,
            -0.393384724855423,
            0.005750304087996483,
            0.06369636952877045,
            0.5585229992866516,
            -0.019918914884328842,
            -0.016688406467437744,
            -0.13340283930301666
        ],
        [
            0.24594646692276,
            0.21802738308906555,
            1.1922061443328857,
            -0.09088427573442459,
            0.5735558867454529,
            -0.0018493887037038803,
            0.18969227373600006,
            0.0065164146944880486,
            0.0011952288914471865,
            -0.07287320494651794,
            0.002733596134930849,
            -0.004519750829786062
        ],
        [
            -0.2858538329601288,
            -0.011829802766442299,
            -0.0596853606402874,
            -0.12414608895778656,
            -0.2144288867712021,
            -0.02467220090329647,
            -0.05556528642773628,
            -0.13638989627361298,
            0.6525653004646301,
            -0.37799710035324097,
            0.36808428168296814,
            0.2887818217277527
        ],
        [
            0.3403865396976471,
            -0.14933153986930847,
            0.02820824645459652,
            -0.4155161678791046,
            0.006922743748873472,
            -0.8069130182266235,
            0.0006403380539268255,
            0.17296193540096283,
            -0.0016721209976822138,
            0.3156997859477997,
            -0.009068375453352928,
            0.35267919301986694
        ],
        [
            0.0022463644854724407,
            -0.006390355061739683,
            0.7275546193122864,
            0.11485728621482849,
            -0.05052673816680908,
            -0.004619440529495478,
            0.7837357521057129,
            0.6849789619445801,
            0.0026167759206146,
            0.1230783462524414,
            0.0957404226064682,
            0.003654822241514921
        ],
        [
            -0.0033204476349055767,
            -0.0005472329794429243,
            0.29720693826675415,
            0.6003102660179138,
            0.0009997286833822727,
            -0.40499404072761536,
            0.10074593871831894,
            0.004664689302444458,
            0.20274846255779266,
            0.15231211483478546,
            0.7543124556541443,
            0.07783756405115128
        ],
        [
            -0.008545990101993084,
            -0.000981875229626894,
            -0.6837979555130005,
            -0.00036954309325665236,
            -0.018013758584856987,
            0.20697982609272003,
            -0.3747798204421997,
            -0.19844095408916473,
            0.0646325945854187,
            -0.2648860216140747,
            -0.5036023855209351,
            -0.2749691605567932
        ],
        [
            -0.018031565472483635,
            0.03222593292593956,
            0.19997072219848633,
            0.03750808537006378,
            -0.31521159410476685,
            -0.08231330662965775,
            0.5069209337234497,
            0.15823766589164734,
            0.029013674706220627,
            0.06149912625551224,
            0.22946631908416748,
            0.9296008944511414
        ],
        [
            -0.1448725312948227,
            0.8989540338516235,
            0.026757800951600075,
            -0.6869409084320068,
            -0.0056203026324510574,
            0.5048360824584961,
            -0.0038756828289479017,
            0.016179682686924934,
            -0.29782840609550476,
            0.0010341478046029806,
            -0.011574940755963326,
            -0.0015252334997057915
        ],
        [
            -0.004190606996417046,
            -0.26418060064315796,
            -0.5128969550132751,
            0.7863697409629822,
            0.004309425596147776,
            -0.26453524827957153,
            0.003757126396521926,
            -0.042941175401210785,
            0.615680456161499,
            -0.01164279691874981,
            0.0037494946736842394,
            -0.08574627339839935
        ],
        [
            -0.11282319575548172,
            -0.0008496798109263182,
            -0.24658825993537903,
            0.12472796440124512,
            -0.4614591896533966,
            0.03889322280883789,
            0.16493475437164307,
            0.0025840229354798794,
            -0.3218274712562561,
            0.8196683526039124,
            -0.2995970547199249,
            0.006046495866030455
        ]
    ],
    "sigmanet.nn.2.bias": [
        -0.803124725818634,
        0.7276886105537415,
        -0.9219343066215515,
        -1.0176990032196045,
        0.06150640547275543,
        1.7016191482543945,
        -1.5857566595077515,
        1.0959440469741821,
        -0.3394107520580292,
        0.8452078104019165,
        0.05531640723347664,
        -0.6857044100761414
    ],
    "sigmanet.nn.2.sigma": [
        2.5999999046325684
    ],
    "sigmanet.nn.2.weight_orig": [
        [
            -0.5313459634780884,
            -0.18074871599674225,
            0.05350401997566223,
            -0.03612988069653511,
            -0.2544299066066742,
            0.6843487024307251,
            0.03958718478679657,
            -0.21682538092136383,
            0.1004476323723793,
            0.21375922858715057,
            -0.28085657954216003,
            0.008016908541321754
        ],
        [
            -0.22035042941570282,
            0.04335992410778999,
            -0.1356779932975769,
            -0.0022045860532671213,
            0.5493910312652588,
            -0.007237904239445925,
            0.06561445444822311,
            -0.8106832504272461,
            0.0012608935358002782,
            0.5304642915725708,
            -0.22164352238178253,
            -0.012111539021134377
        ],
        [
            -0.006679571699351072,
            -0.003646458499133587,
            -1.098374605178833,
            -0.0006686216802336276,
            -0.0023900449741631746,
            -0.19039905071258545,
            -0.001811666996218264,
            -0.025987152010202408,
            -0.2208878993988037,
            0.004280575085431337,
            -0.004363020416349173,
            1.0405112504959106
        ],
        [
            0.5264860987663269,
            -0.022010372951626778,
            -0.7848654389381409,
            0.00711452541872859,
            -0.0035911009181290865,
            -0.25008711218833923,
            -0.0021546948701143265,
            0.1402312070131302,
            -0.28898054361343384,
            -0.11701931804418564,
            0.25450655817985535,
            0.20295289158821106
        ],
        [
            0.0014264269266277552,
            0.10452661663293839,
            0.002134564332664013,
            -0.003683126298710704,
            0.15920065343379974,
            1.092487096786499,
            -0.4090459942817688,
            0.008151941932737827,
            0.42722180485725403,
            -0.19889746606349945,
            0.0013822846813127398,
            0.19184187054634094
        ],
        [
            -0.01320941187441349,
            -0.25106924772262573,
            0.0032837451435625553,
            -0.004577564541250467,
            -0.07620387524366379,
            -0.001581914839334786,
            0.5714645981788635,
            -1.1581645011901855,
            -0.46702465415000916,
            -0.002681586192920804,
            -0.0013912973226979375,
            -0.04934736713767052
        ],
        [
            0.7366034984588623,
            -0.005562432110309601,
            -0.009738304652273655,
            0.3336736559867859,
            0.003475148929283023,
            -0.015456225723028183,
            -0.08867057412862778,
            0.7777380347251892,
            0.0002447595470584929,
            -0.004531010054051876,
            0.6135857105255127,
            -0.010720601305365562
        ],
        [
            -0.40263447165489197,
            -0.001185431843623519,
            0.004469173960387707,
            -0.8010389804840088,
            0.004227976314723492,
            -0.12574456632137299,
            0.22137373685836792,
            -0.740484356880188,
            -0.0009133516578003764,
            -0.0003840868885163218,
            -0.2891474664211273,
            0.008396373130381107
        ],
        [
            -0.004862254951149225,
            -0.8375451564788818,
            -0.6062480807304382,
            0.0013714850647374988,
            -0.21220174431800842,
            0.3907434642314911,
            -0.0016722280997782946,
            0.0021623934153467417,
            -0.3607287108898163,
            -0.0899682268500328,
            -0.026728777214884758,
            -0.0657675564289093
        ],
        [
            0.007878792472183704,
            0.21271833777427673,
            -0.38619759678840637,
            -0.135887011885643,
            0.4836233854293823,
            -0.15800662338733673,
            0.3864079415798187,
            -0.5089747309684753,
            0.05773615464568138,
            0.0756942629814148,
            0.017909329384565353,
            0.16896545886993408
        ],
        [
            -0.5033411979675293,
            -0.0020016557537019253,
            0.7356155514717102,
            -0.08674848824739456,
            0.10761759430170059,
            0.002183362375944853,
            -0.00429206807166338,
            -0.2973718047142029,
            0.03774106502532959,
            0.46429580450057983,
            -0.35776883363723755,
            0.001022413605824113
        ],
        [
            -0.8913816809654236,
            0.06465105712413788,
            0.264030396938324,
            -0.2982056140899658,
            -0.0014207015046849847,
            -0.22467850148677826,
            0.0032522480469197035,
            -0.00534747913479805,
            -0.0050350516103208065,
            0.8139510750770569,
            0.0008698363672010601,
            0.027176370844244957
        ]
    ],
    "sigmanet.nn.3.bias": [
        -1.9412074089050293,
        2.1887316703796387,
        2.243386745452881,
        -2.1038506031036377,
        0.7321460843086243,
        2.0232956409454346,
        1.8833670616149902,
        -1.5409821271896362,
        -1.2237519025802612,
        0.017957894131541252,
        0.5361368656158447,
        -2.0059762001037598
    ],
    "sigmanet.nn.3.sigma": [
        2.5999999046325684
    ],
    "sigmanet.nn.3.weight_orig": [
        [
            0.005845231004059315,
            -0.5444544553756714,
            0.0023377954494208097,
            0.09037629514932632,
            -0.415426641702652,
            0.18310807645320892,
            -0.0013664969010278583,
            -0.0030980578158050776,
            0.24296900629997253,
            -0.32378000020980835,
            -0.6304528713226318,
            -0.15678462386131287
        ],
        [
            -0.0023889350704848766,
            0.6020963191986084,
            -0.002279851585626602,
            1.4654033293481916e-05,
            0.4830612242221832,
            -0.19648168981075287,
            -0.10182361304759979,
            0.0002511473430786282,
            -0.18775445222854614,
            0.2044597566127777,
            0.6650558114051819,
            0.1543324887752533
        ],
        [
            0.0008757353061810136,
            0.5534836053848267,
            -0.0018712253076955676,
            -0.020851127803325653,
            0.5078516006469727,
            -0.18947476148605347,
            -0.04833931848406792,
            0.001081218128092587,
            -0.21094970405101776,
            0.22960162162780762,
            0.6715532541275024,
            0.16406702995300293
        ],
        [
            -0.0008637975552119315,
            -0.6832345724105835,
            0.0022947872057557106,
            -0.00013570123701356351,
            -0.4552982747554779,
            0.1574505865573883,
            0.0035361116752028465,
            0.0016910427948459983,
            0.16789954900741577,
            -0.1945277750492096,
            -0.7365237474441528,
            -0.19654403626918793
        ],
        [
            -0.004420716315507889,
            0.005303510930389166,
            -0.004902942571789026,
            0.0011575412936508656,
            0.004153127782046795,
            -0.2288225293159485,
            -0.23479236662387848,
            0.4434110224246979,
            -0.11152125149965286,
            0.005096445791423321,
            1.5550779104232788,
            0.0013402622425928712
        ],
        [
            0.15540951490402222,
            0.28805822134017944,
            -0.046400733292102814,
            -0.26019054651260376,
            0.727547824382782,
            0.17964109778404236,
            -0.12330680340528488,
            -0.02396324835717678,
            0.3692948520183563,
            0.04516499117016792,
            -0.3597356975078583,
            -0.0212863702327013
        ],
        [
            -0.0062148692086339,
            0.004938443191349506,
            -0.002929691458120942,
            0.007848593406379223,
            1.6275725364685059,
            -0.5295155644416809,
            -0.10937917232513428,
            0.08148110657930374,
            -0.006576076149940491,
            0.21879439055919647,
            0.003184532281011343,
            0.0015651155263185501
        ],
        [
            0.2135014832019806,
            -0.004063108470290899,
            -0.017991846427321434,
            -0.009397264569997787,
            -1.358359694480896,
            0.5448095798492432,
            -0.0010546508710831404,
            -0.011557557620108128,
            0.0049308245070278645,
            -0.3605582118034363,
            0.028990134596824646,
            -0.044785525649785995
        ],
        [
            0.0022267301101237535,
            0.0028716514352709055,
            0.5963035225868225,
            1.1734763383865356,
            0.05810059979557991,
            -0.006074347533285618,
            -0.00488794781267643,
            0.164205402135849,
            0.5754742622375488,
            0.0030933551024645567,
            0.002021250082179904,
            0.011264733970165253
        ],
        [
            -0.0014420185470953584,
            -0.06025610491633415,
            0.0012962720356881618,
            -0.9849974513053894,
            -0.6112186312675476,
            0.27372434735298157,
            0.23425006866455078,
            -0.3331100046634674,
            0.00279732677154243,
            -0.005103869363665581,
            -0.08854438364505768,
            -0.003259822726249695
        ],
        [
            -0.0026555159129202366,
            -0.24658240377902985,
            0.36757877469062805,
            -0.0015397419920191169,
            -0.006798647344112396,
            -0.0005790546420030296,
            0.30162858963012695,
            -0.0026774799916893244,
            0.03229448199272156,
            -0.005476662889122963,
            -1.3056681156158447,
            -0.32652008533477783
        ],
        [
            0.07532701641321182,
            -0.11471947282552719,
            -0.1192367821931839,
            -0.6136460304260254,
            -0.6188055872917175,
            0.7107738852500916,
            0.14945533871650696,
            -0.04157160222530365,
            -0.04536495357751846,
            -0.0687197744846344,
            0.014998010359704494,
            0.027381572872400284
        ]
    ],
    "sigmanet.nn.4.bias": [
        2.3373167514801025
    ],
    "sigmanet.nn.4.sigma": [
        2.5999999046325684
    ],
    "sigmanet.nn.4.weight_orig": [
        [
            -0.08313482999801636,
            0.19242271780967712,
            -0.1920788437128067,
            0.16586846113204956,
            0.5283750891685486,
            0.002679150551557541,
            -0.08199405670166016,
            0.19811448454856873,
            0.04366142675280571,
            -0.4937399625778198,
            -0.0016534755704924464,
            -0.616277277469635
        ]
    ],
    "nominal_cut": 0.9
}