{
    "n_features": 7,
    "constraints": [
        0,
        0,
        0,
        -1,
        -1,
        -1,
        -1
    ],
    "rescale_min": [
        0.0,
        0.012453386560082436,
        0.0,
        -0.9958299398422241,
        4.0069966316223145,
        4.005071640014648,
        -3.995535135269165
    ],
    "rescale_max": [
        1.7977101802825928,
        2.199580192565918,
        1.0,
        11.552099227905273,
        9.61594009399414,
        9.662875175476074,
        9.549403190612793
    ],
    "sigmanet.sigma": [
        1.2999999523162842
    ],
    "sigmanet.nn.0.bias": [
        -0.16139748692512512,
        -0.7427324652671814,
        -0.7945654392242432,
        0.3274754285812378,
        -1.2379779815673828,
        -0.6490598320960999,
        -0.42475834488868713,
        -0.08885092288255692,
        -0.11550258100032806,
        -0.23962630331516266,
        -0.2622658312320709,
        -0.7138943672180176,
        1.2514724731445312,
        -0.26161450147628784
    ],
    "sigmanet.nn.0.sigma": [
        1.2999999523162842
    ],
    "sigmanet.nn.0.weight_orig": [
        [
            -1.4054856300354004,
            -1.36380934715271,
            0.09685993939638138,
            0.829525887966156,
            0.2835806608200073,
            0.2108781784772873,
            0.13755513727664948
        ],
        [
            -0.6340815424919128,
            1.1324617862701416,
            -0.11390046030282974,
            0.3437032401561737,
            0.6437585949897766,
            0.40272819995880127,
            -0.2726714611053467
        ],
        [
            -0.6392545700073242,
            1.0586202144622803,
            0.010231233201920986,
            1.3557801246643066,
            0.30035942792892456,
            0.1788664311170578,
            -0.7054286599159241
        ],
        [
            -1.3151893615722656,
            0.8093377947807312,
            0.17963774502277374,
            -1.3110448122024536,
            1.2306143045425415,
            0.8738726377487183,
            -0.953540027141571
        ],
        [
            1.3471729755401611,
            -0.6786134839057922,
            -0.14208240807056427,
            0.8538823127746582,
            1.344558835029602,
            0.8700632452964783,
            -0.23723766207695007
        ],
        [
            -0.2064913511276245,
            -0.029572317376732826,
            -0.06915562599897385,
            1.2079582214355469,
            -0.8354499936103821,
            0.6974836587905884,
            0.06727311760187149
        ],
        [
            -1.3742858171463013,
            -0.7253786325454712,
            -0.1366882175207138,
            0.5821040868759155,
            0.8243802189826965,
            0.9911671280860901,
            -0.14127063751220703
        ],
        [
            1.3636656999588013,
            -1.3067309856414795,
            0.19079835712909698,
            -0.48056018352508545,
            0.5462921857833862,
            0.699476957321167,
            0.04840851202607155
        ],
        [
            -0.8513013124465942,
            -0.2621844708919525,
            0.24158897995948792,
            -0.26108989119529724,
            1.3481955528259277,
            -1.3105546236038208,
            0.7127484679222107
        ],
        [
            -0.6135507822036743,
            -0.3970077633857727,
            0.2324276715517044,
            -0.2187441885471344,
            -1.1329158544540405,
            1.3782819509506226,
            0.7776743769645691
        ],
        [
            1.3354806900024414,
            -0.7643840312957764,
            -0.1584024876356125,
            -0.7043102979660034,
            0.4536053240299225,
            0.5609664916992188,
            0.017723053693771362
        ],
        [
            1.0315543413162231,
            1.351472020149231,
            -0.05794577673077583,
            -1.082163691520691,
            -0.00804031640291214,
            -0.16221953928470612,
            1.3044462203979492
        ],
        [
            -0.5974177122116089,
            -1.3391169309616089,
            -0.2616890072822571,
            -0.5839025378227234,
            0.24159668385982513,
            0.15756133198738098,
            -0.2119068205356598
        ],
        [
            -0.46100592613220215,
            1.3748056888580322,
            -0.2838633954524994,
            -0.2682964503765106,
            0.17412486672401428,
            0.022057918831706047,
            0.11122817546129227
        ]
    ],
    "sigmanet.nn.1.bias": [
        0.29507705569267273,
        -0.6886702179908752,
        0.23409627377986908,
        -0.14434795081615448,
        -0.9514259696006775,
        -0.43483179807662964,
        0.24047350883483887,
        -1.1667605638504028,
        -0.8805608153343201,
        0.27030134201049805,
        -0.8005118370056152,
        2.230748176574707,
        0.7290823459625244,
        0.1656409651041031
    ],
    "sigmanet.nn.1.sigma": [
        1.2999999523162842
    ],
    "sigmanet.nn.1.weight_orig": [
        [
            0.21892887353897095,
            -0.14274175465106964,
            0.7986341714859009,
            -1.3032912015914917,
            -0.7818508148193359,
            0.024212244898080826,
            0.31011447310447693,
            0.7841069102287292,
            -0.7352927923202515,
            0.8552718162536621,
            0.6771768927574158,
            0.010156440548598766,
            0.6185942888259888,
            0.4527827501296997
        ],
        [
            -1.3254467248916626,
            1.1850697994232178,
            1.1581189632415771,
            0.15895217657089233,
            -0.21719671785831451,
            0.7655751705169678,
            -0.4379148483276367,
            -0.5645646452903748,
            -0.922685444355011,
            0.7873400449752808,
            -0.46661293506622314,
            1.1823920011520386,
            1.408767580986023,
            -1.328300952911377
        ],
        [
            -1.3085383176803589,
            -0.07519177347421646,
            1.304592490196228,
            0.6648839116096497,
            0.4850940406322479,
            -0.11840521544218063,
            0.656545102596283,
            0.6492596864700317,
            -0.21450990438461304,
            0.3730100691318512,
            1.0991194248199463,
            0.9710162281990051,
            1.318792462348938,
            -1.330725073814392
        ],
        [
            -0.7681575417518616,
            0.3440665602684021,
            0.7973692417144775,
            -1.3238269090652466,
            0.31980934739112854,
            -1.3060252666473389,
            0.1810620278120041,
            -0.3555525839328766,
            0.6205570697784424,
            0.16610561311244965,
            -0.08870425075292587,
            0.6558422446250916,
            -1.3319077491760254,
            0.7433096766471863
        ],
        [
            0.13736985623836517,
            0.5589057207107544,
            -0.3637614846229553,
            -0.41995713114738464,
            0.039595507085323334,
            1.360133171081543,
            -0.21098478138446808,
            1.3208831548690796,
            -0.29249846935272217,
            1.1950849294662476,
            1.216797947883606,
            0.16308026015758514,
            -0.6282082796096802,
            0.9610360860824585
        ],
        [
            0.603891909122467,
            0.3874486982822418,
            0.766004741191864,
            -0.02807713858783245,
            -0.8844839930534363,
            -0.6689348220825195,
            -0.4039316177368164,
            -1.3149168491363525,
            0.07328493893146515,
            1.3012679815292358,
            -0.5849238038063049,
            0.7752699851989746,
            1.3043224811553955,
            0.14298781752586365
        ],
        [
            -0.1291310042142868,
            -0.33574530482292175,
            -0.2575969099998474,
            0.22528043389320374,
            0.07076313346624374,
            -0.4415731430053711,
            0.1747114211320877,
            0.21245932579040527,
            0.38864341378211975,
            -0.30839288234710693,
            0.3676292598247528,
            -0.24085243046283722,
            -0.7789781093597412,
            1.320518970489502
        ],
        [
            1.3294451236724854,
            0.07125542312860489,
            -0.7846992015838623,
            1.3017160892486572,
            0.5920052528381348,
            1.34317147731781,
            1.30830979347229,
            0.42082807421684265,
            -0.75288987159729,
            0.13485461473464966,
            1.0356276035308838,
            -0.35378745198249817,
            -1.3354403972625732,
            -0.20269110798835754
        ],
        [
            0.666782796382904,
            0.27175769209861755,
            -0.8680819869041443,
            -0.6882365345954895,
            -0.1269311159849167,
            0.3184472620487213,
            0.22550179064273834,
            -0.30558016896247864,
            0.4980177581310272,
            1.30631685256958,
            -0.4076375961303711,
            1.167762041091919,
            -1.380155086517334,
            0.47725677490234375
        ],
        [
            -0.34501737356185913,
            -0.33750709891319275,
            -0.08688158541917801,
            -0.0023231040686368942,
            -0.465933620929718,
            0.11704426258802414,
            -0.17177143692970276,
            0.34679916501045227,
            -0.9122488498687744,
            -0.5980560779571533,
            0.21187591552734375,
            -1.0354341268539429,
            1.31999671459198,
            -0.2753208577632904
        ],
        [
            -1.354192852973938,
            -0.1744052618741989,
            -0.31353580951690674,
            -1.3114863634109497,
            0.10077519714832306,
            0.46852633357048035,
            -1.3774927854537964,
            0.2407056838274002,
            -0.6921842098236084,
            0.07776721566915512,
            0.21710094809532166,
            0.7192660570144653,
            -0.6234154105186462,
            -1.3011504411697388
        ],
        [
            -0.10475686937570572,
            0.09485440701246262,
            0.07388942688703537,
            -0.3587135672569275,
            0.07426062971353531,
            -1.0522937774658203,
            0.4372255504131317,
            -0.725874125957489,
            -0.1812097132205963,
            0.7322131991386414,
            -0.15710774064064026,
            0.6887527704238892,
            1.3326878547668457,
            -1.0125540494918823
        ],
        [
            -1.21896231174469,
            -0.4346524775028229,
            0.2823053300380707,
            -0.7202946543693542,
            -0.26458460092544556,
            -0.26469650864601135,
            0.6470603942871094,
            -1.0685120820999146,
            1.3149420022964478,
            -0.699786901473999,
            0.477716326713562,
            0.5587725639343262,
            1.320153832435608,
            -0.14700712263584137
        ],
        [
            1.3152071237564087,
            -0.06733981519937515,
            -0.48854926228523254,
            -0.43162697553634644,
            -0.3403453528881073,
            -0.7928526997566223,
            -0.07969041168689728,
            0.8109003901481628,
            1.331700086593628,
            -0.7300000786781311,
            -0.008769483305513859,
            -0.7959908246994019,
            -0.4385569989681244,
            1.3122401237487793
        ]
    ],
    "sigmanet.nn.2.bias": [
        0.521817147731781,
        0.47610098123550415,
        0.25084009766578674,
        1.2616286277770996,
        -0.8961867690086365,
        0.03417215496301651,
        0.8880983591079712,
        1.2607536315917969,
        1.2453010082244873,
        -1.1280142068862915,
        1.222524642944336,
        0.15087561309337616,
        -0.27654388546943665,
        1.006269931793213
    ],
    "sigmanet.nn.2.sigma": [
        1.2999999523162842
    ],
    "sigmanet.nn.2.weight_orig": [
        [
            0.21222630143165588,
            0.539535403251648,
            -0.8131127953529358,
            0.051693666726350784,
            1.356276035308838,
            -1.3279974460601807,
            0.17098237574100494,
            -1.0781673192977905,
            -0.2127685844898224,
            0.1434914618730545,
            -0.5465145111083984,
            0.5916516780853271,
            -0.3620983362197876,
            -0.6941287517547607
        ],
        [
            -1.04031503200531,
            -0.46114781498908997,
            0.43469300866127014,
            -1.0281168222427368,
            -1.3113667964935303,
            1.0938282012939453,
            -0.2988917827606201,
            -0.18459948897361755,
            -0.19635416567325592,
            0.9491676688194275,
            1.314262866973877,
            -0.7467413544654846,
            0.004662972874939442,
            0.5077081918716431
        ],
        [
            -1.3194011449813843,
            -0.7831991910934448,
            0.37888115644454956,
            -1.2075151205062866,
            -0.509713351726532,
            -1.311631202697754,
            -1.301304578781128,
            0.07323936372995377,
            0.05302015319466591,
            -0.28976622223854065,
            0.0018865321762859821,
            0.5800323486328125,
            0.4632917642593384,
            -0.5848870277404785
        ],
        [
            -0.412609338760376,
            -0.026037536561489105,
            -0.08534413576126099,
            0.43392327427864075,
            -0.563007652759552,
            0.4375510811805725,
            1.3075785636901855,
            -0.1618494838476181,
            0.33074888586997986,
            -0.34411540627479553,
            -0.032697491347789764,
            -0.22005581855773926,
            0.19253499805927277,
            -1.0785480737686157
        ],
        [
            -0.32562127709388733,
            -0.17954863607883453,
            0.30603983998298645,
            -0.3679483234882355,
            -0.14637696743011475,
            -0.42332133650779724,
            -0.32221218943595886,
            -0.7170945405960083,
            0.19600898027420044,
            -0.5205169916152954,
            -1.305663824081421,
            1.321905493736267,
            0.477444052696228,
            -0.14055177569389343
        ],
        [
            -1.3071725368499756,
            -0.13303552567958832,
            0.3795696198940277,
            -0.2117433249950409,
            0.25153878331184387,
            0.03418305888772011,
            0.01254583615809679,
            0.917313277721405,
            -0.152642160654068,
            0.4464038908481598,
            1.3055568933486938,
            -0.9623773097991943,
            -0.46627774834632874,
            -0.31379687786102295
        ],
        [
            0.6161932945251465,
            0.14744016528129578,
            -0.6048120856285095,
            0.9968940615653992,
            0.6567561030387878,
            -1.3339593410491943,
            0.6582303643226624,
            0.7212238311767578,
            0.5041207671165466,
            -0.611240565776825,
            -0.1905563622713089,
            0.7279664874076843,
            -0.4876440465450287,
            -1.380877137184143
        ],
        [
            -0.19968290627002716,
            0.18892842531204224,
            -0.2763203978538513,
            -1.3317927122116089,
            -1.3357210159301758,
            0.7698485255241394,
            0.037494949996471405,
            -0.7353844046592712,
            -0.21049010753631592,
            0.043364524841308594,
            0.6065669059753418,
            -0.5088211894035339,
            1.3188608884811401,
            0.08529144525527954
        ],
        [
            0.6608119606971741,
            -0.2253134846687317,
            0.9910856485366821,
            0.6938645243644714,
            0.3627467453479767,
            -1.3073186874389648,
            0.6865292191505432,
            -1.3058098554611206,
            -0.7987481355667114,
            0.30401018261909485,
            1.0377373695373535,
            0.7798889875411987,
            0.15840590000152588,
            0.7476062178611755
        ],
        [
            1.3086223602294922,
            -0.39715275168418884,
            -0.6009138822555542,
            0.0621555857360363,
            -0.013002605177462101,
            1.3232557773590088,
            -0.28755560517311096,
            1.0491679906845093,
            0.14825081825256348,
            0.6761479377746582,
            1.1320823431015015,
            -0.5496835708618164,
            -0.592602550983429,
            0.32069194316864014
        ],
        [
            0.7184475660324097,
            -0.5681057572364807,
            0.3585403263568878,
            0.05568186193704605,
            -0.6405817866325378,
            -0.41423144936561584,
            -0.0113433338701725,
            -1.3586715459823608,
            -0.645504891872406,
            0.2781289517879486,
            1.3251124620437622,
            0.23380263149738312,
            -0.3941134810447693,
            -0.2630578279495239
        ],
        [
            0.07563041150569916,
            -0.24544073641300201,
            0.4024425148963928,
            -0.4682285487651825,
            0.5070921182632446,
            1.0901576280593872,
            -0.7559956312179565,
            -0.8139020204544067,
            -0.16925159096717834,
            -0.5727959871292114,
            0.7420356273651123,
            -0.3608860969543457,
            0.1220201924443245,
            -0.054201554507017136
        ],
        [
            -1.313166618347168,
            0.9423223733901978,
            0.5901928544044495,
            -0.6328341364860535,
            -0.3586869239807129,
            -0.33477941155433655,
            0.046060528606176376,
            0.8025347590446472,
            0.8055396676063538,
            -1.307619333267212,
            -1.3100064992904663,
            0.0403556190431118,
            0.6475375294685364,
            -1.301780343055725
        ],
        [
            -0.646905779838562,
            -1.0894463062286377,
            -0.46144378185272217,
            0.17208197712898254,
            -0.38398241996765137,
            -0.7185255289077759,
            0.6997756361961365,
            0.14211435616016388,
            -0.2912435829639435,
            0.3722294569015503,
            0.11989109963178635,
            0.3564446270465851,
            0.5037678480148315,
            0.7666735053062439
        ]
    ],
    "sigmanet.nn.3.bias": [
        -0.02753891423344612,
        -0.08195720613002777,
        -1.0816365480422974,
        0.9126921892166138,
        -0.06434506922960281,
        -0.0889335572719574,
        0.47447389364242554,
        -0.43745318055152893,
        0.04916548356413841,
        0.09160908311605453,
        -1.6024787425994873,
        1.3968592882156372,
        0.29966405034065247,
        -0.21198797225952148
    ],
    "sigmanet.nn.3.sigma": [
        1.2999999523162842
    ],
    "sigmanet.nn.3.weight_orig": [
        [
            -0.030795108526945114,
            -0.017762426286935806,
            0.04364653304219246,
            -0.008439099416136742,
            -0.010049743577837944,
            0.049704115837812424,
            0.02279824949800968,
            0.005160419270396233,
            0.04045099765062332,
            0.02661834843456745,
            0.027064507827162743,
            -0.0701386034488678,
            -0.07457518577575684,
            0.07040201127529144
        ],
        [
            -0.02205582521855831,
            -0.07164019346237183,
            0.11755849421024323,
            0.07504510134458542,
            -0.057265348732471466,
            -0.022698529064655304,
            -0.034098729491233826,
            -0.03786645084619522,
            0.04503929615020752,
            0.037954557687044144,
            -0.008267519064247608,
            -0.09285295754671097,
            -0.17971132695674896,
            0.02134650945663452
        ],
        [
            -0.014855260029435158,
            -0.6853619813919067,
            -0.15396641194820404,
            -0.2435353398323059,
            0.21744148433208466,
            -0.5411936044692993,
            -0.4280356764793396,
            -0.12722696363925934,
            -0.09839776158332825,
            0.32302606105804443,
            -0.12008102238178253,
            -0.9720045924186707,
            -0.14607559144496918,
            -0.0007104369578883052
        ],
        [
            0.6429060101509094,
            -0.5712956786155701,
            0.844836950302124,
            -0.1647569239139557,
            -0.35772058367729187,
            0.144276425242424,
            1.074508547782898,
            0.002137599978595972,
            -1.3268787860870361,
            0.5673986673355103,
            0.42975664138793945,
            -0.802193284034729,
            0.5637246370315552,
            0.5828115940093994
        ],
        [
            0.022765811532735825,
            -0.06517355889081955,
            0.04141140729188919,
            0.005611761473119259,
            -0.13501890003681183,
            -0.14424189925193787,
            -0.12540435791015625,
            -0.06211305037140846,
            0.018440715968608856,
            -0.0035422046203166246,
            0.038313549011945724,
            0.08008698374032974,
            0.07781625539064407,
            0.11507311463356018
        ],
        [
            0.013032626360654831,
            -0.07396738976240158,
            -0.009070693515241146,
            -0.023969432339072227,
            -0.0012621566420421004,
            0.0043868739157915115,
            -0.034544847905635834,
            0.03672562539577484,
            0.051812998950481415,
            0.01123147364705801,
            -0.0030019099358469248,
            0.032673291862010956,
            -0.020687364041805267,
            0.08844184875488281
        ],
        [
            -0.23503334820270538,
            0.9998763799667358,
            0.12897126376628876,
            -0.13585855066776276,
            0.34002479910850525,
            -0.5604382753372192,
            -0.06081297621130943,
            0.7933330535888672,
            -0.08735870569944382,
            -0.10269007086753845,
            -0.1456037014722824,
            -0.27765974402427673,
            -0.053869593888521194,
            -0.04522649571299553
        ],
        [
            0.2437133491039276,
            -0.9226338267326355,
            -0.088548943400383,
            0.10960863530635834,
            -0.386458158493042,
            0.542125940322876,
            0.18930548429489136,
            -0.6468826532363892,
            0.16808345913887024,
            0.30449482798576355,
            0.0033126825001090765,
            0.11508005112409592,
            0.10636790096759796,
            -0.06662162393331528
        ],
        [
            -0.029504355043172836,
            -0.010484980419278145,
            -0.0392778180539608,
            -0.04624255374073982,
            0.02588559314608574,
            0.05110606923699379,
            0.07132847607135773,
            -0.01975186914205551,
            -0.03873194754123688,
            -0.022610845044255257,
            0.03309647738933563,
            0.004309633281081915,
            -0.05665597319602966,
            0.0019081206992268562
        ],
        [
            -0.039786532521247864,
            0.003293730318546295,
            -0.09061284363269806,
            -0.12129731476306915,
            0.052581075578927994,
            0.08755159378051758,
            0.0810016542673111,
            -0.012063290923833847,
            -0.034053366631269455,
            -0.051480889320373535,
            0.05880407616496086,
            0.07340046018362045,
            0.0077304355800151825,
            0.028307965025305748
        ],
        [
            0.33454272150993347,
            -0.7386919856071472,
            0.4115438163280487,
            -0.5786932706832886,
            0.2704027593135834,
            -0.26573020219802856,
            0.33190640807151794,
            -0.5541257858276367,
            -0.9577703475952148,
            0.058732982724905014,
            -0.35877397656440735,
            -0.6080292463302612,
            0.6794539093971252,
            -0.5783705115318298
        ],
        [
            -0.024576101452112198,
            -0.1593516319990158,
            0.14561325311660767,
            0.32626786828041077,
            0.17995114624500275,
            -0.186972975730896,
            -0.017555726692080498,
            0.4801558256149292,
            0.4269455373287201,
            0.00923080649226904,
            0.8708350658416748,
            -0.528329610824585,
            -0.37036874890327454,
            0.7279008030891418
        ],
        [
            -0.28306105732917786,
            -0.4303096532821655,
            0.6105433106422424,
            -0.8994492888450623,
            -0.42221274971961975,
            -0.2692185938358307,
            0.5107253789901733,
            0.5920295715332031,
            -0.31236183643341064,
            0.6590784788131714,
            -0.18015040457248688,
            -0.24871909618377686,
            0.022526230663061142,
            -0.2018440067768097
        ],
        [
            0.1458999365568161,
            0.2675290107727051,
            -0.6802839040756226,
            0.6258735060691833,
            0.4591127932071686,
            0.39876699447631836,
            -0.05243176966905594,
            -0.30358245968818665,
            0.26102307438850403,
            -0.5334261655807495,
            0.16179420053958893,
            0.07706918567419052,
            -0.11651305854320526,
            0.1120411604642868
        ]
    ],
    "sigmanet.nn.4.bias": [
        1.4186772108078003
    ],
    "sigmanet.nn.4.sigma": [
        1.2999999523162842
    ],
    "sigmanet.nn.4.weight_orig": [
        [
            0.005855816416442394,
            0.0007626632577739656,
            -0.054854124784469604,
            -0.4181552231311798,
            0.003306696191430092,
            -0.0009087324142456055,
            0.1684916466474533,
            -0.17637899518013,
            0.014086625538766384,
            0.006057928781956434,
            -0.37872225046157837,
            0.06730039417743683,
            0.23115380108356476,
            -0.29679954051971436
        ]
    ],
    "nominal_cut": 0.9
}
