{"metadata": {"version": 1, "features": ["BestMatchChi2", "BestMatchPoE", "BestMatchTrackType", "TotalMatchChi2", "TotalMatchPoE", "NumberOfMatches", "LogClusterE", "ClusterEta"]}, "_stack.Linear_0.weight": [[0.39292198419570923, -0.47789251804351807, 0.30172958970069885, 0.06977529078722, -0.7159962058067322, 0.09051238000392914, -0.03157644718885422, 0.3571077585220337], [0.032035116106271744, -0.48977765440940857, 0.0013241019332781434, 0.018302056938409805, -1.1173651218414307, 0.049611467868089676, -0.15209774672985077, 0.4052486717700958], [-0.012462736107409, -0.05393592268228531, 0.11028800904750824, 0.015392142347991467, 0.2739368975162506, 0.023930352181196213, -0.5263448357582092, 0.48363062739372253], [-0.5144462585449219, 0.14711551368236542, -0.10371547192335129, -0.2461855560541153, 0.2990559935569763, -0.36284008622169495, -0.43059012293815613, 0.3841703236103058], [0.0546451173722744, 0.12197387218475342, -0.29565754532814026, 0.1243637204170227, 0.304892897605896, 0.028712309896945953, -0.2653452754020691, 0.3591304421424866], [-0.03541295975446701, -0.2910242974758148, -0.3004871606826782, 0.02950986474752426, -0.12235647439956665, -0.06940343230962753, -0.3339653015136719, 0.09372507035732269], [-0.1496461182832718, 0.04452494904398918, 0.5430528521537781, -0.04403045400977135, 0.28070592880249023, 0.09477180987596512, 0.3486325442790985, -0.8542270064353943], [0.0880836695432663, 0.019535260275006294, 0.33872878551483154, 7.837274461053312e-05, -0.03200611099600792, 0.43901947140693665, 0.0942332074046135, -0.524200975894928], [0.32007962465286255, 0.2784813642501831, -0.14757204055786133, 0.017762944102287292, -0.06754662841558456, 0.0542207732796669, 0.1452193558216095, -0.3293335437774658], [-0.2021722048521042, 0.025370487943291664, -0.2463115155696869, 0.0485992431640625, 0.30606523156166077, -0.4250754415988922, 0.4929889142513275, 0.17953179776668549], [0.2964290380477905, 0.014564771205186844, -0.32963278889656067, -0.2601046562194824, -0.05690090358257294, 0.07781043648719788, 0.003063684795051813, -0.09978730976581573], [-0.10471442341804504, 0.29046058654785156, 0.14775291085243225, 0.20663994550704956, 0.06077450513839722, 0.012092933990061283, -0.2184225171804428, -0.47094330191612244], [0.10553855448961258, 0.17956040799617767, 0.2376520335674286, 0.044846061617136, 0.21582750976085663, -0.8894655108451843, 0.16281412541866302, -0.015163009986281395]], "_stack.Linear_0.bias": [-0.23548734188079834, 0.7721852660179138, -1.0031427145004272, 0.5068243741989136, -0.5515949726104736, 0.1515764445066452, 0.4586710035800934, 0.22430358827114105, 0.9325211644172668, 0.7702140212059021, 0.0989326685667038, 0.3937676250934601, -1.4016326665878296], "_stack.Linear_2.weight": [[0.2793380320072174, 0.7676409482955933, -0.22143766283988953, -0.366322785615921, -0.43609926104545593, 0.201753169298172, 0.7240880727767944, 0.2876777946949005, -0.1880134791135788, 0.06521236896514893, -0.17336367070674896, 0.05280397832393646, 0.35445448756217957], [-0.0309454333037138, -0.5744902491569519, -0.1679110825061798, -0.18116553127765656, 0.2087264209985733, -0.03099651262164116, -0.3730393052101135, 0.13842912018299103, 0.016931284219026566, 0.3270873427391052, -0.1719755083322525, -0.24608926475048065, 0.1078602597117424], [0.25637882947921753, 1.0991235971450806, 0.028894729912281036, -0.12297767400741577, 0.07462605088949203, 0.26167166233062744, 0.31220901012420654, 0.21206508576869965, 0.24590593576431274, 0.17089654505252838, 0.17226894199848175, -0.011685716919600964, -0.1162501871585846], [-0.01584099605679512, -0.8349860906600952, -0.4749898314476013, 0.3755940794944763, -0.25386205315589905, 0.039505328983068466, 0.04020816460251808, -0.21926017105579376, 0.2561488747596741, -0.18869906663894653, 0.1268438845872879, -0.08338931947946548, 0.1561029702425003], [-0.18456438183784485, -0.45901191234588623, -0.08198603987693787, 0.26925894618034363, -0.018818574026226997, 0.14629225432872772, -0.1023520678281784, 0.29901689291000366, 0.28842461109161377, 0.2274109423160553, 0.16176508367061615, 0.16976279020309448, -0.49731817841529846], [-0.30256304144859314, -0.9054739475250244, -1.0891399383544922, 0.28974881768226624, -0.17206275463104248, 0.19449104368686676, 0.46162885427474976, 0.170125350356102, 0.3662557601928711, -0.20353375375270844, 0.05175590142607689, 0.31652307510375977, -0.9894574880599976], [0.20925207436084747, 1.2875118255615234, 0.10784363746643066, -0.3605634272098541, 0.0468844436109066, -0.03663450479507446, 0.4155835509300232, 0.3858003616333008, 0.07076869904994965, -0.1870134174823761, 0.17072471976280212, -0.017543161287903786, -0.015983829274773598], [0.08806638419628143, -0.7618642449378967, -0.17361824214458466, 0.38851380348205566, 0.15491294860839844, 0.09688712656497955, 0.098421610891819, -0.07855286449193954, 0.12913423776626587, 0.16506227850914001, 0.07696719467639923, -0.006231967359781265, -0.416861355304718], [-0.20920205116271973, -0.7513749599456787, -0.8393147587776184, 0.319293349981308, -0.2146938592195511, 0.22515453398227692, 0.27079781889915466, -0.01238764077425003, 0.24237215518951416, 0.3123052716255188, 0.2570897340774536, 0.07927831262350082, -1.0373437404632568], [-0.14690878987312317, 0.1456567347049713, 0.2686804234981537, 0.01364064123481512, -0.1686328798532486, 0.22286556661128998, -0.2052295207977295, -0.05166773870587349, -0.2588306963443756, -0.13082876801490784, 0.16945655643939972, 0.04666142538189888, 0.2441282421350479], [0.30371370911598206, 0.3742711544036865, -0.04572559893131256, -1.1943957805633545, 0.0025998123455792665, -0.07649937272071838, -0.3109469413757324, 0.016847435384988785, -0.4593152105808258, -0.2649690806865692, 0.07133176177740097, 0.021575530990958214, 0.5089460611343384], [-0.48288002610206604, -0.3638191521167755, -0.20753134787082672, 0.20070397853851318, 0.0736662819981575, 0.06050994619727135, 0.20998387038707733, -0.005808702670037746, 0.12865063548088074, 0.15444086492061615, 0.10611102730035782, 0.16527967154979706, -0.9180793166160583], [-0.21695590019226074, -0.8077130317687988, -0.6622687578201294, 0.2581101953983307, -0.2536841928958893, -0.17577418684959412, 0.07246644049882889, 0.4068130552768707, 0.4693971276283264, -0.22517813742160797, -0.1757539063692093, -0.10449787974357605, -0.08263256400823593]], "_stack.Linear_2.bias": [-0.26832115650177, 0.3273300230503082, -0.3227982223033905, 0.5530247092247009, 0.3005022704601288, 0.6196538209915161, -0.23230652511119843, 0.3652895390987396, 0.8635584712028503, -0.9736423492431641, -0.8911858797073364, 0.816809356212616, 0.4228103756904602], "_stack.Linear_4.weight": [[0.5819117426872253, -0.11428199708461761, 0.1277814656496048, -0.049418091773986816, -0.1246408075094223, -1.3324395418167114, 0.269420325756073, -0.058054689317941666, -1.1088409423828125, 0.006444519851356745, -1.034273386001587, -0.9700285792350769, -0.5109079480171204]], "_stack.Linear_4.bias": [0.11120033264160156]}