<MethodSetup Method="BDT::BDT"><Variables NVar="12"><Variable VarIndex="0" Type="F" Expression="M3_region_0" Label="M3_region_0" Title="M3_region_0" Unit="" Internal="M3_region_0" Min="0.0e+00" Max="0.0e+00" /><Variable VarIndex="1" Type="F" Expression="M3_region_1" Label="M3_region_1" Title="M3_region_1" Unit="" Internal="M3_region_1" Min="0.0e+00" Max="0.0e+00" /><Variable VarIndex="2" Type="F" Expression="M3_region_2" Label="M3_region_2" Title="M3_region_2" Unit="" Internal="M3_region_2" Min="0.0e+00" Max="0.0e+00" /><Variable VarIndex="3" Type="F" Expression="M3_region_3" Label="M3_region_3" Title="M3_region_3" Unit="" Internal="M3_region_3" Min="0.0e+00" Max="0.0e+00" /><Variable VarIndex="4" Type="F" Expression="M4_region_0" Label="M4_region_0" Title="M4_region_0" Unit="" Internal="M4_region_0" Min="0.0e+00" Max="0.0e+00" /><Variable VarIndex="5" Type="F" Expression="M4_region_1" Label="M4_region_1" Title="M4_region_1" Unit="" Internal="M4_region_1" Min="0.0e+00" Max="0.0e+00" /><Variable VarIndex="6" Type="F" Expression="M4_region_2" Label="M4_region_2" Title="M4_region_2" Unit="" Internal="M4_region_2" Min="0.0e+00" Max="0.0e+00" /><Variable VarIndex="7" Type="F" Expression="M4_region_3" Label="M4_region_3" Title="M4_region_3" Unit="" Internal="M4_region_3" Min="0.0e+00" Max="0.0e+00" /><Variable VarIndex="8" Type="F" Expression="M5_region_0" Label="M5_region_0" Title="M5_region_0" Unit="" Internal="M5_region_0" Min="0.0e+00" Max="0.0e+00" /><Variable VarIndex="9" Type="F" Expression="M5_region_1" Label="M5_region_1" Title="M5_region_1" Unit="" Internal="M5_region_1" Min="0.0e+00" Max="0.0e+00" /><Variable VarIndex="10" Type="F" Expression="M5_region_2" Label="M5_region_2" Title="M5_region_2" Unit="" Internal="M5_region_2" Min="0.0e+00" Max="0.0e+00" /><Variable VarIndex="11" Type="F" Expression="M5_region_3" Label="M5_region_3" Title="M5_region_3" Unit="" Internal="M5_region_3" Min="0.0e+00" Max="0.0e+00" /></Variables><GeneralInfo><Info name="Creator" value="xgboost2TMVA" /><Info name="AnalysisType" value="Classification" /></GeneralInfo><Options><Option name="NodePurityLimit" modified="No">5.00e-01</Option><Option name="BoostType" modified="Yes">Grad</Option></Options><Weights NTrees="1000" AnalysisType="1"><BinaryTree type="DecisionTree" boostWeight="1.0e+00" itree="0"><Node pos="s" depth="0" NCoef="0" IVar="7" Cut="5.5" cType="1" res="0.0e+00" rms="0.0e+00" purity="0.0e+00" nType="0"><Node pos="l" depth="1" NCoef="0" IVar="10" Cut="16.5" cType="1" res="0.0e+00" rms="0.0e+00" purity="0.0e+00" nType="0"><Node pos="l" depth="2" NCoef="0" IVar="2" Cut="32.5" cType="1" res="0.0e+00" rms="0.0e+00" purity="0.0e+00" nType="0"><Node pos="l" depth="3" NCoef="0" IVar="3" Cut="18.5" cType="1" res="0.0e+00" rms="0.0e+00" purity="0.0e+00" nType="0"><Node pos="l" depth="4" NCoef="0" IVar="-1" Cut="0.0e+00" cType="1" res="-0.00638933154" rms="0.0e+00" purity="0.0e+00" nType="-99" /><Node pos="r" depth="4" NCoef="0" IVar="-1" Cut="0.0e+00" cType="1" res="0.00760438619" rms="0.0e+00" purity="0.0e+00" nType="-99" /></Node><Node pos="r" depth="3" NCoef="0" IVar="2" Cut="46.5" cType="1" res="0.0e+00" rms="0.0e+00" purity="0.0e+00" nType="0"><Node pos="l" depth="4" NCoef="0" IVar="-1" Cut="0.0e+00" cType="1" res="0.00371345039" rms="0.0e+00" purity="0.0e+00" nType="-99" /><Node pos="r" depth="4" NCoef="0" IVar="-1" Cut="0.0e+00" cType="1" res="0.00956906471" rms="0.0e+00" purity="0.0e+00" nType="-99" /></Node></Node><Node pos="r" depth="2" NCoef="0" IVar="10" Cut="21.5" cType="1" res="0.0e+00" rms="0.0e+00" purity="0.0e+00" nType="0"><Node pos="l" depth="3" NCoef="0" IVar="6" Cut="12.5" cType="1" res="0.0e+00" rms="0.0e+00" purity="0.0e+00" nType="0"><Node pos="l" depth="4" NCoef="0" IVar="-1" Cut="0.0e+00" cType="1" res="0.0021649485" rms="0.0e+00" purity="0.0e+00" nType="-99" /><Node pos="r" depth="4" NCoef="0" IVar="-1" Cut="0.0e+00" cType="1" res="0.00927007291" rms="0.0e+00" purity="0.0e+00" nType="-99" /></Node><Node pos="r" depth="3" NCoef="0" IVar="10" Cut="26.5" cType="1" res="0.0e+00" rms="0.0e+00" purity="0.0e+00" nType="0"><Node pos="l" depth="4" NCoef="0" IVar="-1" Cut="0.0e+00" cType="1" res="0.00820193626" rms="0.0e+00" purity="0.0e+00" nType="-99" /><Node pos="r" depth="4" NCoef="0" IVar="-1" Cut="0.0e+00" cType="1" res="0.00977549143" rms="0.0e+00" purity="0.0e+00" nType="-99" /></Node></Node></Node><Node pos="r" depth="1" NCoef="0" IVar="7" Cut="7.5" cType="1" res="0.0e+00" rms="0.0e+00" purity="0.0e+00" nType="0"><Node pos="l" depth="2" NCoef="0" IVar="3" Cut="16.5" cType="1" res="0.0e+00" rms="0.0e+00" purity="0.0e+00" nType="0"><Node pos="l" depth="3" NCoef="0" IVar="6" Cut="11.5" cType="1" res="0.0e+00" rms="0.0e+00" purity="0.0e+00" nType="0"><Node pos="l" depth="4" NCoef="0" IVar="-1" Cut="0.0e+00" cType="1" res="-0.00143529417" rms="0.0e+00" purity="0.0e+00" nType="-99" /><Node pos="r" depth="4" NCoef="0" IVar="-1" Cut="0.0e+00" cType="1" res="0.00868965499" rms="0.0e+00" purity="0.0e+00" nType="-99" /></Node><Node pos="r" depth="3" NCoef="0" IVar="3" Cut="19.5" cType="1" res="0.0e+00" rms="0.0e+00" purity="0.0e+00" nType="0"><Node pos="l" depth="4" NCoef="0" IVar="-1" Cut="0.0e+00" cType="1" res="0.00499999989" rms="0.0e+00" purity="0.0e+00" nType="-99" /><Node pos="r" depth="4" NCoef="0" IVar="-1" Cut="0.0e+00" cType="1" res="0.00960297696" rms="0.0e+00" purity="0.0e+00" nType="-99" /></Node></Node><Node pos="r" depth="2" NCoef="0" IVar="7" Cut="9.5" cType="1" res="0.0e+00" rms="0.0e+00" purity="0.0e+00" nType="0"><Node pos="l" depth="3" NCoef="0" IVar="3" Cut="16.5" cType="1" res="0.0e+00" rms="0.0e+00" purity="0.0e+00" nType="0"><Node pos="l" depth="4" NCoef="0" IVar="-1" Cut="0.0e+00" cType="1" res="0.00523178792" rms="0.0e+00" purity="0.0e+00" nType="-99" /><Node pos="r" depth="4" NCoef="0" IVar="-1" Cut="0.0e+00" cType="1" res="0.00954248384" rms="0.0e+00" purity="0.0e+00" nType="-99" /></Node><Node pos="r" depth="3" NCoef="0" IVar="7" Cut="11.5" cType="1" res="0.0e+00" rms="0.0e+00" purity="0.0e+00" nType="0"><Node pos="l" depth="4" NCoef="0" IVar="-1" Cut="0.0e+00" cType="1" res="0.00853591133" rms="0.0e+00" purity="0.0e+00" nType="-99" /><Node pos="r" depth="4" NCoef="0" IVar="-1" Cut="0.0e+00" cType="1" res="0.00982787088" rms="0.0e+00" purity="0.0e+00" nType="-99" /></Node></Node></Node></Node></BinaryTree><BinaryTree type="DecisionTree" boostWeight="1.0e+00" itree="1"><Node pos="s" depth="0" NCoef="0" IVar="7" Cut="5.5" cType="1" res="0.0e+00" rms="0.0e+00" purity="0.0e+00" nType="0"><Node pos="l" depth="1" NCoef="0" IVar="10" Cut="16.5" cType="1" res="0.0e+00" rms="0.0e+00" purity="0.0e+00" nType="0"><Node pos="l" depth="2" NCoef="0" IVar="2" Cut="32.5" cType="1" res="0.0e+00" rms="0.0e+00" purity="0.0e+00" nType="0"><Node pos="l" depth="3" NCoef="0" IVar="3" Cut="16.5" cType="1" res="0.0e+00" rms="0.0e+00" purity="0.0e+00" nType="0"><Node pos="l" depth="4" NCoef="0" IVar="-1" Cut="0.0e+00" cType="1" res="-0.00638355222" rms="0.0e+00" purity="0.0e+00" nType="-99" /><Node pos="r" depth="4" NCoef="0" IVar="-1" Cut="0.0e+00" cType="1" res="0.00683531864" rms="0.0e+00" purity="0.0e+00" nType="-99" /></Node><Node pos="r" depth="3" NCoef="0" IVar="2" Cut="48.5" cType="1" res="0.0e+00" rms="0.0e+00" purity="0.0e+00" nType="0"><Node pos="l" depth="4" NCoef="0" IVar="-1" Cut="0.0e+00" cType="1" res="0.0039388868" rms="0.0e+00" purity="0.0e+00" nType="-99" /><Node pos="r" depth="4" NCoef="0" IVar="-1" Cut="0.0e+00" cType="1" res="0.00958995987" rms="0.0e+00" purity="0.0e+00" nType="-99" /></Node></Node><Node pos="r" depth="2" NCoef="0" IVar="10" Cut="21.5" cType="1" res="0.0e+00" rms="0.0e+00" purity="0.0e+00" nType="0"><Node pos="l" depth="3" NCoef="0" IVar="6" Cut="12.5" cType="1" res="0.0e+00" rms="0.0e+00" purity="0.0e+00" nType="0"><Node pos="l" depth="4" NCoef="0" IVar="-1" Cut="0.0e+00" cType="1" res="0.00215418148" rms="0.0e+00" purity="0.0e+00" nType="-99" /><Node pos="r" depth="4" NCoef="0" IVar="-1" Cut="0.0e+00" cType="1" res="0.00922459457" rms="0.0e+00" purity="0.0e+00" nType="-99" /></Node><Node pos="r" depth="3" NCoef="0" IVar="10" Cut="26.5" cType="1" res="0.0e+00" rms="0.0e+00" purity="0.0e+00" nType="0"><Node pos="l" depth="4" NCoef="0" IVar="-1" Cut="0.0e+00" cType="1" res="0.00816128869" rms="0.0e+00" purity="0.0e+00" nType="-99" /><Node pos="r" depth="4" NCoef="0" IVar="-1" Cut="0.0e+00" cType="1" res="0.00972693693" rms="0.0e+00" purity="0.0e+00" nType="-99" /></Node></Node></Node><Node pos="r" depth="1" NCoef="0" IVar="7" Cut="8.5" cType="1" res="0.0e+00" rms="0.0e+00" purity="0.0e+00" nType="0"><Node pos="l" depth="2" NCoef="0" IVar="3" Cut="16.5" cType="1" res="0.0e+00" rms="0.0e+00" purity="0.0e+00" nType="0"><Node pos="l" depth="3" NCoef="0" IVar="6" Cut="11.5" cType="1" res="0.0e+00" rms="0.0e+00" purity="0.0e+00" nType="0"><Node pos="l" depth="4" NCoef="0" IVar="-1" Cut="0.0e+00" cType="1" res="-0.000481718133" rms="0.0e+00" purity="0.0e+00" nType="-99" /><Node pos="r" depth="4" NCoef="0" IVar="-1" Cut="0.0e+00" cType="1" res="0.00871082861" rms="0.0e+00" purity="0.0e+00" nType="-99" /></Node><Node pos="r" depth="3" NCoef="0" IVar="3" Cut="19.5" cType="1" res="0.0e+00" rms="0.0e+00" purity="0.0e+00" nType="0"><Node pos="l" depth="4" NCoef="0" IVar="-1" Cut="0.0e+00" cType="1" res="0.00535634859" rms="0.0e+00" purity="0.0e+00" nType="-99" /><Node pos="r" depth="4" NCoef="0" IVar="-1" Cut="0.0e+00" cType="1" res="0.00963120442" rms="0.0e+00" purity="0.0e+00" nType="-99" /></Node></Node><Node pos="r" depth="2" NCoef="0" IVar="7" Cut="10.5" cType="1" res="0.0e+00" rms="0.0e+00" purity="0.0e+00" nType="0"><Node pos="l" depth="3" NCoef="0" IVar="11" Cut="8.5" cType="1" res="0.0e+00" rms="0.0e+00" purity="0.0e+00" nType="0"><Node pos="l" depth="4" NCoef="0" IVar="-1" Cut="0.0e+00" cType="1" res="0.0087194629" rms="0.0e+00" purity="0.0e+00" nType="-99" /><Node pos="r" depth="4" NCoef="0" IVar="-1" Cut="0.0e+00" cType="1" res="0.00587685313" rms="0.0e+00" purity="0.0e+00" nType="-99" /></Node><Node pos="r" depth="3" NCoef="0" IVar="-1" Cut="0.0e+00" cType="1" res="0.00970026758" rms="0.0e+00" purity="0.0e+00" nType="-99" /></Node></Node></Node></BinaryTree><BinaryTree type="DecisionTree" boostWeight="1.0e+00" itree="2"><Node pos="s" depth="0" NCoef="0" IVar="7" Cut="5.5" cType="1" res="0.0e+00" rms="0.0e+00" purity="0.0e+00" nType="0"><Node pos="l" depth="1" NCoef="0" IVar="6" Cut="12.5" cType="1" res="0.0e+00" rms="0.0e+00" purity="0.0e+00" nType="0"><Node pos="l" depth="2" NCoef="0" IVar="10" Cut="17.5" cType="1" res="0.0e+00" rms="0.0e+00" purity="0.0e+00" nType="0"><Node pos="l" depth="3" NCoef="0" IVar="3" Cut="15.5" cType="1" res="0.0e+00" rms="0.0e+00" purity="0.0e+00" nType="0"><Node pos="l" depth="4" NCoef="0" IVar="-1" Cut="0.0e+00" cType="1" res="-0.00632986845" rms="0.0e+00" purity="0.0e+00" nType="-99" /><Node pos="r" depth="4" NCoef="0" IVar="-1" Cut="0.0e+00" cType="1" res="0.00679727225" rms="0.0e+00" purity="0.0e+00" nType="-99" /></Node><Node pos="r" depth="3" NCoef="0" IVar="10" Cut="22.5" cType="1" res="0.0e+00" rms="0.0e+00" purity="0.0e+00" nType="0"><Node pos="l" depth="4" NCoef="0" IVar="-1" Cut="0.0e+00" cType="1" res="0.0034353307" rms="0.0e+00" purity="0.0e+00" nType="-99" /><Node pos="r" depth="4" NCoef="0" IVar="-1" Cut="0.0e+00" cType="1" res="0.00934596919" rms="0.0e+00" purity="0.0e+00" nType="-99" /></Node></Node><Node pos="r" depth="2" NCoef="0" IVar="6" Cut="16.5" cType="1" res="0.0e+00" rms="0.0e+00" purity="0.0e+00" nType="0"><Node pos="l" depth="3" NCoef="0" IVar="2" Cut="28.5" cType="1" res="0.0e+00" rms="0.0e+00" purity="0.0e+00" nType="0"><Node pos="l" depth="4" NCoef="0" IVar="-1" Cut="0.0e+00" cType="1" res="0.000870434858" rms="0.0e+00" purity="0.0e+00" nType="-99" /><Node pos="r" depth="4" NCoef="0" IVar="-1" Cut="0.0e+00" cType="1" res="0.00926795322" rms="0.0e+00" purity="0.0e+00" nType="-99" /></Node><Node pos="r" depth="3" NCoef="0" IVar="6" Cut="25.5" cType="1" res="0.0e+00" rms="0.0e+00" purity="0.0e+00" nType="0"><Node pos="l" depth="4" NCoef="0" IVar="-1" Cut="0.0e+00" cType="1" res="0.00777989114" rms="0.0e+00" purity="0.0e+00" nType="-99" /><Node pos="r" depth="4" NCoef="0" IVar="-1" Cut="0.0e+00" cType="1" res="0.00980422087" rms="0.0e+00" purity="0.0e+00" nType="-99" /></Node></Node></Node><Node pos="r" depth="1" NCoef="0" IVar="7" Cut="7.5" cType="1" res="0.0e+00" rms="0.0e+00" purity="0.0e+00" nType="0"><Node pos="l" depth="2" NCoef="0" IVar="3" Cut="16.5" cType="1" res="0.0e+00" rms="0.0e+00" purity="0.0e+00" nType="0"><Node pos="l" depth="3" NCoef="0" IVar="6" Cut="11.5" cType="1" res="0.0e+00" rms="0.0e+00" purity="0.0e+00" nType="0"><Node pos="l" depth="4" NCoef="0" IVar="-1" Cut="0.0e+00" cType="1" res="-0.00142574066" rms="0.0e+00" purity="0.0e+00" nType="-99" /><Node pos="r" depth="4" NCoef="0" IVar="-1" Cut="0.0e+00" cType="1" res="0.00860449672" rms="0.0e+00" purity="0.0e+00" nType="-99" /></Node><Node pos="r" depth="3" NCoef="0" IVar="3" Cut="19.5" cType="1" res="0.0e+00" rms="0.0e+00" purity="0.0e+00" nType="0"><Node pos="l" depth="4" NCoef="0" IVar="-1" Cut="0.0e+00" cType="1" res="0.00495351665" rms="0.0e+00" purity="0.0e+00" nType="-99" /><Node pos="r" depth="4" NCoef="0" IVar="-1" Cut="0.0e+00" cType="1" res="0.00950863585" rms="0.0e+00" purity="0.0e+00" nType="-99" /></Node></Node><Node pos="r" depth="2" NCoef="0" IVar="7" Cut="9.5" cType="1" res="0.0e+00" rms="0.0e+00" purity="0.0e+00" nType="0"><Node pos="l" depth="3" NCoef="0" IVar="3" Cut="16.5" cType="1" res="0.0e+00" rms="0.0e+00" purity="0.0e+00" nType="0"><Node pos="l" depth="4" NCoef="0" IVar="-1" Cut="0.0e+00" cType="1" res="0.00518536242" rms="0.0e+00" purity="0.0e+00" nType="-99" /><Node pos="r" depth="4" NCoef="0" IVar="-1" Cut="0.0e+00" cType="1" res="0.00945273321" rms="0.0e+00" purity="0.0e+00" nType="-99" /></Node><Node pos="r" depth="3" NCoef="0" IVar="7" Cut="11.5" cType="1" res="0.0e+00" rms="0.0e+00" purity="0.0e+00" nType="0"><Node pos="l" depth="4" NCoef="0" IVar="-1" Cut="0.0e+00" cType="1" res="0.00845172908" rms="0.0e+00" purity="0.0e+00" nType="-99" /><Node pos="r" depth="4" NCoef="0" IVar="-1" Cut="0.0e+00" cType="1" res="0.00973128993" rms="0.0e+00" purity="0.0e+00" nType="-99" /></Node></Node></Node></Node></BinaryTree><BinaryTree type="DecisionTree" boostWeight="1.0e+00" itree="3"><Node pos="s" depth="0" NCoef="0" IVar="7" Cut="5.5" cType="1" res="0.0e+00" rms="0.0e+00" purity="0.0e+00" nType="0"><Node pos="l" depth="1" NCoef="0" IVar="6" Cut="12.5" cType="1" res="0.0e+00" rms="0.0e+00" purity="0.0e+00" nType="0"><Node pos="l" depth="2" NCoef="0" IVar="10" Cut="17.5" cType="1" res="0.0e+00" rms="0.0e+00" purity="0.0e+00" nType="0"><Node pos="l" depth="3" NCoef="0" IVar="3" Cut="15.5" cType="1" res="0.0e+00" rms="0.0e+00" purity="0.0e+00" nType="0"><Node pos="l" depth="4" NCoef="0" IVar="-1" Cut="0.0e+00" cType="1" res="-0.00629852293" rms="0.0e+00" purity="0.0e+00" nType="-99" /><Node pos="r" depth="4" NCoef="0" IVar="-1" Cut="0.0e+00" cType="1" res="0.00676368829" rms="0.0e+00" purity="0.0e+00" nType="-99" /></Node><Node pos="r" depth="3" NCoef="0" IVar="10" Cut="22.5" cType="1" res="0.0e+00" rms="0.0e+00" purity="0.0e+00" nType="0"><Node pos="l" depth="4" NCoef="0" IVar="-1" Cut="0.0e+00" cType="1" res="0.00341830566" rms="0.0e+00" purity="0.0e+00" nType="-99" /><Node pos="r" depth="4" NCoef="0" IVar="-1" Cut="0.0e+00" cType="1" res="0.00930035301" rms="0.0e+00" purity="0.0e+00" nType="-99" /></Node></Node><Node pos="r" depth="2" NCoef="0" IVar="6" Cut="16.5" cType="1" res="0.0e+00" rms="0.0e+00" purity="0.0e+00" nType="0"><Node pos="l" depth="3" NCoef="0" IVar="2" Cut="28.5" cType="1" res="0.0e+00" rms="0.0e+00" purity="0.0e+00" nType="0"><Node pos="l" depth="4" NCoef="0" IVar="-1" Cut="0.0e+00" cType="1" res="0.000866108225" rms="0.0e+00" purity="0.0e+00" nType="-99" /><Node pos="r" depth="4" NCoef="0" IVar="-1" Cut="0.0e+00" cType="1" res="0.00922312494" rms="0.0e+00" purity="0.0e+00" nType="-99" /></Node><Node pos="r" depth="3" NCoef="0" IVar="6" Cut="25.5" cType="1" res="0.0e+00" rms="0.0e+00" purity="0.0e+00" nType="0"><Node pos="l" depth="4" NCoef="0" IVar="-1" Cut="0.0e+00" cType="1" res="0.00774133252" rms="0.0e+00" purity="0.0e+00" nType="-99" /><Node pos="r" depth="4" NCoef="0" IVar="-1" Cut="0.0e+00" cType="1" res="0.00975571107" rms="0.0e+00" purity="0.0e+00" nType="-99" /></Node></Node></Node><Node pos="r" depth="1" NCoef="0" IVar="7" Cut="7.5" cType="1" res="0.0e+00" rms="0.0e+00" purity="0.0e+00" nType="0"><Node pos="l" depth="2" NCoef="0" IVar="3" Cut="16.5" cType="1" res="0.0e+00" rms="0.0e+00" purity="0.0e+00" nType="0"><Node pos="l" depth="3" NCoef="0" IVar="6" Cut="11.5" cType="1" res="0.0e+00" rms="0.0e+00" purity="0.0e+00" nType="0"><Node pos="l" depth="4" NCoef="0" IVar="-1" Cut="0.0e+00" cType="1" res="-0.00141863711" rms="0.0e+00" purity="0.0e+00" nType="-99" /><Node pos="r" depth="4" NCoef="0" IVar="-1" Cut="0.0e+00" cType="1" res="0.00856285822" rms="0.0e+00" purity="0.0e+00" nType="-99" /></Node><Node pos="r" depth="3" NCoef="0" IVar="3" Cut="19.5" cType="1" res="0.0e+00" rms="0.0e+00" purity="0.0e+00" nType="0"><Node pos="l" depth="4" NCoef="0" IVar="-1" Cut="0.0e+00" cType="1" res="0.004931367" rms="0.0e+00" purity="0.0e+00" nType="-99" /><Node pos="r" depth="4" NCoef="0" IVar="-1" Cut="0.0e+00" cType="1" res="0.0094626341" rms="0.0e+00" purity="0.0e+00" nType="-99" /></Node></Node><Node pos="r" depth="2" NCoef="0" IVar="7" Cut="9.5" cType="1" res="0.0e+00" rms="0.0e+00" purity="0.0e+00" nType="0"><Node pos="l" depth="3" NCoef="0" IVar="3" Cut="16.5" cType="1" res="0.0e+00" rms="0.0e+00" purity="0.0e+00" nType="0"><Node pos="l" depth="4" NCoef="0" IVar="-1" Cut="0.0e+00" cType="1" res="0.00515973242" rms="0.0e+00" purity="0.0e+00" nType="-99" /><Node pos="r" depth="4" NCoef="0" IVar="-1" Cut="0.0e+00" cType="1" res="0.00940710213" rms="0.0e+00" purity="0.0e+00" nType="-99" /></Node><Node pos="r" depth="3" NCoef="0" IVar="7" Cut="11.5" cType="1" res="0.0e+00" rms="0.0e+00" purity="0.0e+00" nType="0"><Node pos="l" depth="4" NCoef="0" IVar="-1" Cut="0.0e+00" cType="1" res="0.00841045752" rms="0.0e+00" purity="0.0e+00" nType="-99" /><Node pos="r" depth="4" NCoef="0" IVar="-1" Cut="0.0e+00" cType="1" res="0.00968384743" rms="0.0e+00" purity="0.0e+00" nType="-99" /></Node></Node></Node></Node></BinaryTree><BinaryTree type="DecisionTree" boostWeight="1.0e+00" itree="4"><Node pos="s" depth="0" NCoef="0" IVar="7" Cut="5.5" cType="1" res="0.0e+00" rms="0.0e+00" purity="0.0e+00" nType="0"><Node pos="l" depth="1" NCoef="0" IVar="6" Cut="12.5" cType="1" res="0.0e+00" rms="0.0e+00" purity="0.0e+00" nType="0"><Node pos="l" depth="2" NCoef="0" IVar="10" Cut="17.5" cType="1" res="0.0e+00" rms="0.0e+00" purity="0.0e+00" nType="0"><Node pos="l" depth="3" NCoef="0" IVar="3" Cut="15.5" cType="1" res="0.0e+00" rms="0.0e+00" purity="0.0e+00" nType="0"><Node pos="l" depth="4" NCoef="0" IVar="-1" Cut="0.0e+00" cType="1" res="-0.00626745448" rms="0.0e+00" purity="0.0e+00" nType="-99" /><Node pos="r" depth="4" NCoef="0" IVar="-1" Cut="0.0e+00" cType="1" res="0.00673042284" rms="0.0e+00" purity="0.0e+00" nType="-99" /></Node><Node pos="r" depth="3" NCoef="0" IVar="10" Cut="22.5" cType="1" res="0.0e+00" rms="0.0e+00" purity="0.0e+00" nType="0"><Node pos="l" depth="4" NCoef="0" IVar="-1" Cut="0.0e+00" cType="1" res="0.00340138609" rms="0.0e+00" purity="0.0e+00" nType="-99" /><Node pos="r" depth="4" NCoef="0" IVar="-1" Cut="0.0e+00" cType="1" res="0.00925535616" rms="0.0e+00" purity="0.0e+00" nType="-99" /></Node></Node><Node pos="r" depth="2" NCoef="0" IVar="6" Cut="16.5" cType="1" res="0.0e+00" rms="0.0e+00" purity="0.0e+00" nType="0"><Node pos="l" depth="3" NCoef="0" IVar="2" Cut="28.5" cType="1" res="0.0e+00" rms="0.0e+00" purity="0.0e+00" nType="0"><Node pos="l" depth="4" NCoef="0" IVar="-1" Cut="0.0e+00" cType="1" res="0.000861802779" rms="0.0e+00" purity="0.0e+00" nType="-99" /><Node pos="r" depth="4" NCoef="0" IVar="-1" Cut="0.0e+00" cType="1" res="0.0091788983" rms="0.0e+00" purity="0.0e+00" nType="-99" /></Node><Node pos="r" depth="3" NCoef="0" IVar="6" Cut="25.5" cType="1" res="0.0e+00" rms="0.0e+00" purity="0.0e+00" nType="0"><Node pos="l" depth="4" NCoef="0" IVar="-1" Cut="0.0e+00" cType="1" res="0.00770319626" rms="0.0e+00" purity="0.0e+00" nType="-99" /><Node pos="r" depth="4" NCoef="0" IVar="-1" Cut="0.0e+00" cType="1" res="0.00970790349" rms="0.0e+00" purity="0.0e+00" nType="-99" /></Node></Node></Node><Node pos="r" depth="1" NCoef="0" IVar="7" Cut="7.5" cType="1" res="0.0e+00" rms="0.0e+00" purity="0.0e+00" nType="0"><Node pos="l" depth="2" NCoef="0" IVar="3" Cut="16.5" cType="1" res="0.0e+00" rms="0.0e+00" purity="0.0e+00" nType="0"><Node pos="l" depth="3" NCoef="0" IVar="6" Cut="11.5" cType="1" res="0.0e+00" rms="0.0e+00" purity="0.0e+00" nType="0"><Node pos="l" depth="4" NCoef="0" IVar="-1" Cut="0.0e+00" cType="1" res="-0.00141157047" rms="0.0e+00" purity="0.0e+00" nType="-99" /><Node pos="r" depth="4" NCoef="0" IVar="-1" Cut="0.0e+00" cType="1" res="0.00852172635" rms="0.0e+00" purity="0.0e+00" nType="-99" /></Node><Node pos="r" depth="3" NCoef="0" IVar="3" Cut="19.5" cType="1" res="0.0e+00" rms="0.0e+00" purity="0.0e+00" nType="0"><Node pos="l" depth="4" NCoef="0" IVar="-1" Cut="0.0e+00" cType="1" res="0.00490936963" rms="0.0e+00" purity="0.0e+00" nType="-99" /><Node pos="r" depth="4" NCoef="0" IVar="-1" Cut="0.0e+00" cType="1" res="0.00941727124" rms="0.0e+00" purity="0.0e+00" nType="-99" /></Node></Node><Node pos="r" depth="2" NCoef="0" IVar="7" Cut="9.5" cType="1" res="0.0e+00" rms="0.0e+00" purity="0.0e+00" nType="0"><Node pos="l" depth="3" NCoef="0" IVar="3" Cut="16.5" cType="1" res="0.0e+00" rms="0.0e+00" purity="0.0e+00" nType="0"><Node pos="l" depth="4" NCoef="0" IVar="-1" Cut="0.0e+00" cType="1" res="0.00513429753" rms="0.0e+00" purity="0.0e+00" nType="-99" /><Node pos="r" depth="4" NCoef="0" IVar="-1" Cut="0.0e+00" cType="1" res="0.00936209783" rms="0.0e+00" purity="0.0e+00" nType="-99" /></Node><Node pos="r" depth="3" NCoef="0" IVar="7" Cut="11.5" cType="1" res="0.0e+00" rms="0.0e+00" purity="0.0e+00" nType="0"><Node pos="l" depth="4" NCoef="0" IVar="-1" Cut="0.0e+00" cType="1" res="0.00836967956" rms="0.0e+00" purity="0.0e+00" nType="-99" /><Node pos="r" depth="4" NCoef="0" IVar="-1" Cut="0.0e+00" cType="1" res="0.00963708572" rms="0.0e+00" purity="0.0e+00" nType="-99" /></Node></Node></Node></Node></BinaryTree><BinaryTree type="DecisionTree" boostWeight="1.0e+00" itree="5"><Node pos="s" depth="0" NCoef="0" IVar="7" Cut="5.5" cType="1" res="0.0e+00" rms="0.0e+00" purity="0.0e+00" nType="0"><Node pos="l" depth="1" NCoef="0" IVar="10" Cut="16.5" cType="1" res="0.0e+00" rms="0.0e+00" purity="0.0e+00" nType="0"><Node pos="l" depth="2" NCoef="0" IVar="2" Cut="32.5" cType="1" res="0.0e+00" rms="0.0e+00" purity="0.0e+00" nType="0"><Node pos="l" depth="3" NCoef="0" IVar="3" Cut="18.5" cType="1" res="0.0e+00" rms="0.0e+00" purity="0.0e+00" nType="0"><Node pos="l" depth="4" NCoef="0" IVar="-1" Cut="0.0e+00" cType="1" res="-0.00623940676" rms="0.0e+00" purity="0.0e+00" nType="-99" /><Node pos="r" depth="4" NCoef="0" IVar="-1" Cut="0.0e+00" cType="1" res="0.00743325101" rms="0.0e+00" purity="0.0e+00" nType="-99" /></Node><Node pos="r" depth="3" NCoef="0" IVar="2" Cut="46.5" cType="1" res="0.0e+00" rms="0.0e+00" purity="0.0e+00" nType="0"><Node pos="l" depth="4" NCoef="0" IVar="-1" Cut="0.0e+00" cType="1" res="0.00370939425" rms="0.0e+00" purity="0.0e+00" nType="-99" /><Node pos="r" depth="4" NCoef="0" IVar="-1" Cut="0.0e+00" cType="1" res="0.00946688838" rms="0.0e+00" purity="0.0e+00" nType="-99" /></Node></Node><Node pos="r" depth="2" NCoef="0" IVar="10" Cut="21.5" cType="1" res="0.0e+00" rms="0.0e+00" purity="0.0e+00" nType="0"><Node pos="l" depth="3" NCoef="0" IVar="6" Cut="12.5" cType="1" res="0.0e+00" rms="0.0e+00" purity="0.0e+00" nType="0"><Node pos="l" depth="4" NCoef="0" IVar="-1" Cut="0.0e+00" cType="1" res="0.00213268143" rms="0.0e+00" purity="0.0e+00" nType="-99" /><Node pos="r" depth="4" NCoef="0" IVar="-1" Cut="0.0e+00" cType="1" res="0.00906113349" rms="0.0e+00" purity="0.0e+00" nType="-99" /></Node><Node pos="r" depth="3" NCoef="0" IVar="10" Cut="26.5" cType="1" res="0.0e+00" rms="0.0e+00" purity="0.0e+00" nType="0"><Node pos="l" depth="4" NCoef="0" IVar="-1" Cut="0.0e+00" cType="1" res="0.00800203532" rms="0.0e+00" purity="0.0e+00" nType="-99" /><Node pos="r" depth="4" NCoef="0" IVar="-1" Cut="0.0e+00" cType="1" res="0.00954736304" rms="0.0e+00" purity="0.0e+00" nType="-99" /></Node></Node></Node><Node pos="r" depth="1" NCoef="0" IVar="7" Cut="8.5" cType="1" res="0.0e+00" rms="0.0e+00" purity="0.0e+00" nType="0"><Node pos="l" depth="2" NCoef="0" IVar="3" Cut="16.5" cType="1" res="0.0e+00" rms="0.0e+00" purity="0.0e+00" nType="0"><Node pos="l" depth="3" NCoef="0" IVar="6" Cut="11.5" cType="1" res="0.0e+00" rms="0.0e+00" purity="0.0e+00" nType="0"><Node pos="l" depth="4" NCoef="0" IVar="-1" Cut="0.0e+00" cType="1" res="-0.000477996073" rms="0.0e+00" purity="0.0e+00" nType="-99" /><Node pos="r" depth="4" NCoef="0" IVar="-1" Cut="0.0e+00" cType="1" res="0.00855488423" rms="0.0e+00" purity="0.0e+00" nType="-99" /></Node><Node pos="r" depth="3" NCoef="0" IVar="3" Cut="19.5" cType="1" res="0.0e+00" rms="0.0e+00" purity="0.0e+00" nType="0"><Node pos="l" depth="4" NCoef="0" IVar="-1" Cut="0.0e+00" cType="1" res="0.00524895079" rms="0.0e+00" purity="0.0e+00" nType="-99" /><Node pos="r" depth="4" NCoef="0" IVar="-1" Cut="0.0e+00" cType="1" res="0.00944782421" rms="0.0e+00" purity="0.0e+00" nType="-99" /></Node></Node><Node pos="r" depth="2" NCoef="0" IVar="7" Cut="10.5" cType="1" res="0.0e+00" rms="0.0e+00" purity="0.0e+00" nType="0"><Node pos="l" depth="3" NCoef="0" IVar="11" Cut="8.5" cType="1" res="0.0e+00" rms="0.0e+00" purity="0.0e+00" nType="0"><Node pos="l" depth="4" NCoef="0" IVar="-1" Cut="0.0e+00" cType="1" res="0.00856781844" rms="0.0e+00" purity="0.0e+00" nType="-99" /><Node pos="r" depth="4" NCoef="0" IVar="-1" Cut="0.0e+00" cType="1" res="0.0057464391" rms="0.0e+00" purity="0.0e+00" nType="-99" /></Node><Node pos="r" depth="3" NCoef="0" IVar="-1" Cut="0.0e+00" cType="1" res="0.0095138764" rms="0.0e+00" purity="0.0e+00" nType="-99" /></Node></Node></Node></BinaryTree><BinaryTree type="DecisionTree" boostWeight="1.0e+00" itree="6"><Node pos="s" depth="0" NCoef="0" IVar="7" Cut="5.5" cType="1" res="0.0e+00" rms="0.0e+00" purity="0.0e+00" nType="0"><Node pos="l" depth="1" NCoef="0" IVar="6" Cut="12.5" cType="1" res="0.0e+00" rms="0.0e+00" purity="0.0e+00" nType="0"><Node pos="l" depth="2" NCoef="0" IVar="10" Cut="17.5" cType="1" res="0.0e+00" rms="0.0e+00" purity="0.0e+00" nType="0"><Node pos="l" depth="3" NCoef="0" IVar="3" Cut="15.5" cType="1" res="0.0e+00" rms="0.0e+00" purity="0.0e+00" nType="0"><Node pos="l" depth="4" NCoef="0" IVar="-1" Cut="0.0e+00" cType="1" res="-0.00620812085" rms="0.0e+00" purity="0.0e+00" nType="-99" /><Node pos="r" depth="4" NCoef="0" IVar="-1" Cut="0.0e+00" cType="1" res="0.00666969223" rms="0.0e+00" purity="0.0e+00" nType="-99" /></Node><Node pos="r" depth="3" NCoef="0" IVar="10" Cut="22.5" cType="1" res="0.0e+00" rms="0.0e+00" purity="0.0e+00" nType="0"><Node pos="l" depth="4" NCoef="0" IVar="-1" Cut="0.0e+00" cType="1" res="0.00336944684" rms="0.0e+00" purity="0.0e+00" nType="-99" /><Node pos="r" depth="4" NCoef="0" IVar="-1" Cut="0.0e+00" cType="1" res="0.00916699413" rms="0.0e+00" purity="0.0e+00" nType="-99" /></Node></Node><Node pos="r" depth="2" NCoef="0" IVar="6" Cut="16.5" cType="1" res="0.0e+00" rms="0.0e+00" purity="0.0e+00" nType="0"><Node pos="l" depth="3" NCoef="0" IVar="2" Cut="28.5" cType="1" res="0.0e+00" rms="0.0e+00" purity="0.0e+00" nType="0"><Node pos="l" depth="4" NCoef="0" IVar="-1" Cut="0.0e+00" cType="1" res="0.000873884594" rms="0.0e+00" purity="0.0e+00" nType="-99" /><Node pos="r" depth="4" NCoef="0" IVar="-1" Cut="0.0e+00" cType="1" res="0.00909591746" rms="0.0e+00" purity="0.0e+00" nType="-99" /></Node><Node pos="r" depth="3" NCoef="0" IVar="6" Cut="25.5" cType="1" res="0.0e+00" rms="0.0e+00" purity="0.0e+00" nType="0"><Node pos="l" depth="4" NCoef="0" IVar="-1" Cut="0.0e+00" cType="1" res="0.00765913539" rms="0.0e+00" purity="0.0e+00" nType="-99" /><Node pos="r" depth="4" NCoef="0" IVar="-1" Cut="0.0e+00" cType="1" res="0.00965277199" rms="0.0e+00" purity="0.0e+00" nType="-99" /></Node></Node></Node><Node pos="r" depth="1" NCoef="0" IVar="7" Cut="7.5" cType="1" res="0.0e+00" rms="0.0e+00" purity="0.0e+00" nType="0"><Node pos="l" depth="2" NCoef="0" IVar="3" Cut="16.5" cType="1" res="0.0e+00" rms="0.0e+00" purity="0.0e+00" nType="0"><Node pos="l" depth="3" NCoef="0" IVar="6" Cut="11.5" cType="1" res="0.0e+00" rms="0.0e+00" purity="0.0e+00" nType="0"><Node pos="l" depth="4" NCoef="0" IVar="-1" Cut="0.0e+00" cType="1" res="-0.00140215934" rms="0.0e+00" purity="0.0e+00" nType="-99" /><Node pos="r" depth="4" NCoef="0" IVar="-1" Cut="0.0e+00" cType="1" res="0.00844059885" rms="0.0e+00" purity="0.0e+00" nType="-99" /></Node><Node pos="r" depth="3" NCoef="0" IVar="3" Cut="19.5" cType="1" res="0.0e+00" rms="0.0e+00" purity="0.0e+00" nType="0"><Node pos="l" depth="4" NCoef="0" IVar="-1" Cut="0.0e+00" cType="1" res="0.00486422377" rms="0.0e+00" purity="0.0e+00" nType="-99" /><Node pos="r" depth="4" NCoef="0" IVar="-1" Cut="0.0e+00" cType="1" res="0.00932805054" rms="0.0e+00" purity="0.0e+00" nType="-99" /></Node></Node><Node pos="r" depth="2" NCoef="0" IVar="7" Cut="9.5" cType="1" res="0.0e+00" rms="0.0e+00" purity="0.0e+00" nType="0"><Node pos="l" depth="3" NCoef="0" IVar="3" Cut="16.5" cType="1" res="0.0e+00" rms="0.0e+00" purity="0.0e+00" nType="0"><Node pos="l" depth="4" NCoef="0" IVar="-1" Cut="0.0e+00" cType="1" res="0.00508925412" rms="0.0e+00" purity="0.0e+00" nType="-99" /><Node pos="r" depth="4" NCoef="0" IVar="-1" Cut="0.0e+00" cType="1" res="0.00927709322" rms="0.0e+00" purity="0.0e+00" nType="-99" /></Node><Node pos="r" depth="3" NCoef="0" IVar="7" Cut="11.5" cType="1" res="0.0e+00" rms="0.0e+00" purity="0.0e+00" nType="0"><Node pos="l" depth="4" NCoef="0" IVar="-1" Cut="0.0e+00" cType="1" res="0.0082894545" rms="0.0e+00" purity="0.0e+00" nType="-99" /><Node pos="r" depth="4" NCoef="0" IVar="-1" Cut="0.0e+00" cType="1" res="0.00954590552" rms="0.0e+00" purity="0.0e+00" nType="-99" /></Node></Node></Node></Node></BinaryTree><BinaryTree type="DecisionTree" boostWeight="1.0e+00" itree="7"><Node pos="s" depth="0" NCoef="0" IVar="7" Cut="5.5" cType="1" res="0.0e+00" rms="0.0e+00" purity="0.0e+00" nType="0"><Node pos="l" depth="1" NCoef="0" IVar="6" Cut="12.5" cType="1" res="0.0e+00" rms="0.0e+00" purity="0.0e+00" nType="0"><Node pos="l" depth="2" NCoef="0" IVar="10" Cut="17.5" cType="1" res="0.0e+00" rms="0.0e+00" purity="0.0e+00" nType="0"><Node pos="l" depth="3" NCoef="0" IVar="3" Cut="15.5" cType="1" res="0.0e+00" rms="0.0e+00" purity="0.0e+00" nType="0"><Node pos="l" depth="4" NCoef="0" IVar="-1" Cut="0.0e+00" cType="1" res="-0.00617784588" rms="0.0e+00" purity="0.0e+00" nType="-99" /><Node pos="r" depth="4" NCoef="0" IVar="-1" Cut="0.0e+00" cType="1" res="0.00663730735" rms="0.0e+00" purity="0.0e+00" nType="-99" /></Node><Node pos="r" depth="3" NCoef="0" IVar="10" Cut="22.5" cType="1" res="0.0e+00" rms="0.0e+00" purity="0.0e+00" nType="0"><Node pos="l" depth="4" NCoef="0" IVar="-1" Cut="0.0e+00" cType="1" res="0.0033528225" rms="0.0e+00" purity="0.0e+00" nType="-99" /><Node pos="r" depth="4" NCoef="0" IVar="-1" Cut="0.0e+00" cType="1" res="0.0091237817" rms="0.0e+00" purity="0.0e+00" nType="-99" /></Node></Node><Node pos="r" depth="2" NCoef="0" IVar="6" Cut="16.5" cType="1" res="0.0e+00" rms="0.0e+00" purity="0.0e+00" nType="0"><Node pos="l" depth="3" NCoef="0" IVar="2" Cut="28.5" cType="1" res="0.0e+00" rms="0.0e+00" purity="0.0e+00" nType="0"><Node pos="l" depth="4" NCoef="0" IVar="-1" Cut="0.0e+00" cType="1" res="0.000869539857" rms="0.0e+00" purity="0.0e+00" nType="-99" /><Node pos="r" depth="4" NCoef="0" IVar="-1" Cut="0.0e+00" cType="1" res="0.00905336998" rms="0.0e+00" purity="0.0e+00" nType="-99" /></Node><Node pos="r" depth="3" NCoef="0" IVar="6" Cut="25.5" cType="1" res="0.0e+00" rms="0.0e+00" purity="0.0e+00" nType="0"><Node pos="l" depth="4" NCoef="0" IVar="-1" Cut="0.0e+00" cType="1" res="0.007621889" rms="0.0e+00" purity="0.0e+00" nType="-99" /><Node pos="r" depth="4" NCoef="0" IVar="-1" Cut="0.0e+00" cType="1" res="0.00960644241" rms="0.0e+00" purity="0.0e+00" nType="-99" /></Node></Node></Node><Node pos="r" depth="1" NCoef="0" IVar="7" Cut="7.5" cType="1" res="0.0e+00" rms="0.0e+00" purity="0.0e+00" nType="0"><Node pos="l" depth="2" NCoef="0" IVar="3" Cut="16.5" cType="1" res="0.0e+00" rms="0.0e+00" purity="0.0e+00" nType="0"><Node pos="l" depth="3" NCoef="0" IVar="6" Cut="11.5" cType="1" res="0.0e+00" rms="0.0e+00" purity="0.0e+00" nType="0"><Node pos="l" depth="4" NCoef="0" IVar="-1" Cut="0.0e+00" cType="1" res="-0.00139517675" rms="0.0e+00" purity="0.0e+00" nType="-99" /><Node pos="r" depth="4" NCoef="0" IVar="-1" Cut="0.0e+00" cType="1" res="0.00840093568" rms="0.0e+00" purity="0.0e+00" nType="-99" /></Node><Node pos="r" depth="3" NCoef="0" IVar="3" Cut="19.5" cType="1" res="0.0e+00" rms="0.0e+00" purity="0.0e+00" nType="0"><Node pos="l" depth="4" NCoef="0" IVar="-1" Cut="0.0e+00" cType="1" res="0.00484268367" rms="0.0e+00" purity="0.0e+00" nType="-99" /><Node pos="r" depth="4" NCoef="0" IVar="-1" Cut="0.0e+00" cType="1" res="0.00928452518" rms="0.0e+00" purity="0.0e+00" nType="-99" /></Node></Node><Node pos="r" depth="2" NCoef="0" IVar="7" Cut="9.5" cType="1" res="0.0e+00" rms="0.0e+00" purity="0.0e+00" nType="0"><Node pos="l" depth="3" NCoef="0" IVar="3" Cut="16.5" cType="1" res="0.0e+00" rms="0.0e+00" purity="0.0e+00" nType="0"><Node pos="l" depth="4" NCoef="0" IVar="-1" Cut="0.0e+00" cType="1" res="0.00506434683" rms="0.0e+00" purity="0.0e+00" nType="-99" /><Node pos="r" depth="4" NCoef="0" IVar="-1" Cut="0.0e+00" cType="1" res="0.00923385005" rms="0.0e+00" purity="0.0e+00" nType="-99" /></Node><Node pos="r" depth="3" NCoef="0" IVar="7" Cut="11.5" cType="1" res="0.0e+00" rms="0.0e+00" purity="0.0e+00" nType="0"><Node pos="l" depth="4" NCoef="0" IVar="-1" Cut="0.0e+00" cType="1" res="0.00825010333" rms="0.0e+00" purity="0.0e+00" nType="-99" /><Node pos="r" depth="4" NCoef="0" IVar="-1" Cut="0.0e+00" cType="1" res="0.00950109214" rms="0.0e+00" purity="0.0e+00" nType="-99" /></Node></Node></Node></Node></BinaryTree><BinaryTree type="DecisionTree" boostWeight="1.0e+00" itree="8"><Node pos="s" depth="0" NCoef="0" IVar="7" Cut="5.5" cType="1" res="0.0e+00" rms="0.0e+00" purity="0.0e+00" nType="0"><Node pos="l" depth="1" NCoef="0" IVar="6" Cut="12.5" cType="1" res="0.0e+00" rms="0.0e+00" purity="0.0e+00" nType="0"><Node pos="l" depth="2" NCoef="0" IVar="10" Cut="17.5" cType="1" res="0.0e+00" rms="0.0e+00" purity="0.0e+00" nType="0"><Node pos="l" depth="3" NCoef="0" IVar="3" Cut="15.5" cType="1" res="0.0e+00" rms="0.0e+00" purity="0.0e+00" nType="0"><Node pos="l" depth="4" NCoef="0" IVar="-1" Cut="0.0e+00" cType="1" res="-0.00614783447" rms="0.0e+00" purity="0.0e+00" nType="-99" /><Node pos="r" depth="4" NCoef="0" IVar="-1" Cut="0.0e+00" cType="1" res="0.00660522096" rms="0.0e+00" purity="0.0e+00" nType="-99" /></Node><Node pos="r" depth="3" NCoef="0" IVar="10" Cut="22.5" cType="1" res="0.0e+00" rms="0.0e+00" purity="0.0e+00" nType="0"><Node pos="l" depth="4" NCoef="0" IVar="-1" Cut="0.0e+00" cType="1" res="0.00333629828" rms="0.0e+00" purity="0.0e+00" nType="-99" /><Node pos="r" depth="4" NCoef="0" IVar="-1" Cut="0.0e+00" cType="1" res="0.00908114016" rms="0.0e+00" purity="0.0e+00" nType="-99" /></Node></Node><Node pos="r" depth="2" NCoef="0" IVar="6" Cut="16.5" cType="1" res="0.0e+00" rms="0.0e+00" purity="0.0e+00" nType="0"><Node pos="l" depth="3" NCoef="0" IVar="2" Cut="28.5" cType="1" res="0.0e+00" rms="0.0e+00" purity="0.0e+00" nType="0"><Node pos="l" depth="4" NCoef="0" IVar="-1" Cut="0.0e+00" cType="1" res="0.000865217706" rms="0.0e+00" purity="0.0e+00" nType="-99" /><Node pos="r" depth="4" NCoef="0" IVar="-1" Cut="0.0e+00" cType="1" res="0.00901137758" rms="0.0e+00" purity="0.0e+00" nType="-99" /></Node><Node pos="r" depth="3" NCoef="0" IVar="6" Cut="25.5" cType="1" res="0.0e+00" rms="0.0e+00" purity="0.0e+00" nType="0"><Node pos="l" depth="4" NCoef="0" IVar="-1" Cut="0.0e+00" cType="1" res="0.00758503936" rms="0.0e+00" purity="0.0e+00" nType="-99" /><Node pos="r" depth="4" NCoef="0" IVar="-1" Cut="0.0e+00" cType="1" res="0.00956076849" rms="0.0e+00" purity="0.0e+00" nType="-99" /></Node></Node></Node><Node pos="r" depth="1" NCoef="0" IVar="7" Cut="7.5" cType="1" res="0.0e+00" rms="0.0e+00" purity="0.0e+00" nType="0"><Node pos="l" depth="2" NCoef="0" IVar="3" Cut="16.5" cType="1" res="0.0e+00" rms="0.0e+00" purity="0.0e+00" nType="0"><Node pos="l" depth="3" NCoef="0" IVar="6" Cut="11.5" cType="1" res="0.0e+00" rms="0.0e+00" purity="0.0e+00" nType="0"><Node pos="l" depth="4" NCoef="0" IVar="-1" Cut="0.0e+00" cType="1" res="-0.00138823164" rms="0.0e+00" purity="0.0e+00" nType="-99" /><Node pos="r" depth="4" NCoef="0" IVar="-1" Cut="0.0e+00" cType="1" res="0.0083617419" rms="0.0e+00" purity="0.0e+00" nType="-99" /></Node><Node pos="r" depth="3" NCoef="0" IVar="3" Cut="19.5" cType="1" res="0.0e+00" rms="0.0e+00" purity="0.0e+00" nType="0"><Node pos="l" depth="4" NCoef="0" IVar="-1" Cut="0.0e+00" cType="1" res="0.0048212898" rms="0.0e+00" purity="0.0e+00" nType="-99" /><Node pos="r" depth="4" NCoef="0" IVar="-1" Cut="0.0e+00" cType="1" res="0.00924158655" rms="0.0e+00" purity="0.0e+00" nType="-99" /></Node></Node><Node pos="r" depth="2" NCoef="0" IVar="7" Cut="9.5" cType="1" res="0.0e+00" rms="0.0e+00" purity="0.0e+00" nType="0"><Node pos="l" depth="3" NCoef="0" IVar="3" Cut="16.5" cType="1" res="0.0e+00" rms="0.0e+00" purity="0.0e+00" nType="0"><Node pos="l" depth="4" NCoef="0" IVar="-1" Cut="0.0e+00" cType="1" res="0.00503962347" rms="0.0e+00" purity="0.0e+00" nType="-99" /><Node pos="r" depth="4" NCoef="0" IVar="-1" Cut="0.0e+00" cType="1" res="0.0091911843" rms="0.0e+00" purity="0.0e+00" nType="-99" /></Node><Node pos="r" depth="3" NCoef="0" IVar="7" Cut="11.5" cType="1" res="0.0e+00" rms="0.0e+00" purity="0.0e+00" nType="0"><Node pos="l" depth="4" NCoef="0" IVar="-1" Cut="0.0e+00" cType="1" res="0.00821120944" rms="0.0e+00" purity="0.0e+00" nType="-99" /><Node pos="r" depth="4" NCoef="0" IVar="-1" Cut="0.0e+00" cType="1" res="0.00945690274" rms="0.0e+00" purity="0.0e+00" nType="-99" /></Node></Node></Node></Node></BinaryTree><BinaryTree type="DecisionTree" boostWeight="1.0e+00" itree="9"><Node pos="s" depth="0" NCoef="0" IVar="7" Cut="5.5" cType="1" res="0.0e+00" rms="0.0e+00" purity="0.0e+00" nType="0"><Node pos="l" depth="1" NCoef="0" IVar="6" Cut="12.5" cType="1" res="0.0e+00" rms="0.0e+00" purity="0.0e+00" nType="0"><Node pos="l" depth="2" NCoef="0" IVar="10" Cut="17.5" cType="1" res="0.0e+00" rms="0.0e+00" purity="0.0e+00" nType="0"><Node pos="l" depth="3" NCoef="0" IVar="3" Cut="15.5" cType="1" res="0.0e+00" rms="0.0e+00" purity="0.0e+00" nType="0"><Node pos="l" depth="4" NCoef="0" IVar="-1" Cut="0.0e+00" cType="1" res="-0.00611808011" rms="0.0e+00" purity="0.0e+00" nType="-99" /><Node pos="r" depth="4" NCoef="0" IVar="-1" Cut="0.0e+00" cType="1" res="0.00657342793" rms="0.0e+00" purity="0.0e+00" nType="-99" /></Node><Node pos="r" depth="3" NCoef="0" IVar="10" Cut="22.5" cType="1" res="0.0e+00" rms="0.0e+00" purity="0.0e+00" nType="0"><Node pos="l" depth="4" NCoef="0" IVar="-1" Cut="0.0e+00" cType="1" res="0.00331987371" rms="0.0e+00" purity="0.0e+00" nType="-99" /><Node pos="r" depth="4" NCoef="0" IVar="-1" Cut="0.0e+00" cType="1" res="0.00903905742" rms="0.0e+00" purity="0.0e+00" nType="-99" /></Node></Node><Node pos="r" depth="2" NCoef="0" IVar="6" Cut="16.5" cType="1" res="0.0e+00" rms="0.0e+00" purity="0.0e+00" nType="0"><Node pos="l" depth="3" NCoef="0" IVar="2" Cut="28.5" cType="1" res="0.0e+00" rms="0.0e+00" purity="0.0e+00" nType="0"><Node pos="l" depth="4" NCoef="0" IVar="-1" Cut="0.0e+00" cType="1" res="0.000860916451" rms="0.0e+00" purity="0.0e+00" nType="-99" /><Node pos="r" depth="4" NCoef="0" IVar="-1" Cut="0.0e+00" cType="1" res="0.00896992628" rms="0.0e+00" purity="0.0e+00" nType="-99" /></Node><Node pos="r" depth="3" NCoef="0" IVar="6" Cut="25.5" cType="1" res="0.0e+00" rms="0.0e+00" purity="0.0e+00" nType="0"><Node pos="l" depth="4" NCoef="0" IVar="-1" Cut="0.0e+00" cType="1" res="0.00754857948" rms="0.0e+00" purity="0.0e+00" nType="-99" /><Node pos="r" depth="4" NCoef="0" IVar="-1" Cut="0.0e+00" cType="1" res="0.00951573718" rms="0.0e+00" purity="0.0e+00" nType="-99" /></Node></Node></Node><Node pos="r" depth="1" NCoef="0" IVar="7" Cut="7.5" cType="1" res="0.0e+00" rms="0.0e+00" purity="0.0e+00" nType="0"><Node pos="l" depth="2" NCoef="0" IVar="3" Cut="16.5" cType="1" res="0.0e+00" rms="0.0e+00" purity="0.0e+00" nType="0"><Node pos="l" depth="3" NCoef="0" IVar="6" Cut="11.5" cType="1" res="0.0e+00" rms="0.0e+00" purity="0.0e+00" nType="0"><Node pos="l" depth="4" NCoef="0" IVar="-1" Cut="0.0e+00" cType="1" res="-0.00138132181" rms="0.0e+00" purity="0.0e+00" nType="-99" /><Node pos="r" depth="4" NCoef="0" IVar="-1" Cut="0.0e+00" cType="1" res="0.00832300913" rms="0.0e+00" purity="0.0e+00" nType="-99" /></Node><Node pos="r" depth="3" NCoef="0" IVar="3" Cut="19.5" cType="1" res="0.0e+00" rms="0.0e+00" purity="0.0e+00" nType="0"><Node pos="l" depth="4" NCoef="0" IVar="-1" Cut="0.0e+00" cType="1" res="0.00480003841" rms="0.0e+00" purity="0.0e+00" nType="-99" /><Node pos="r" depth="4" NCoef="0" IVar="-1" Cut="0.0e+00" cType="1" res="0.00919922348" rms="0.0e+00" purity="0.0e+00" nType="-99" /></Node></Node><Node pos="r" depth="2" NCoef="0" IVar="7" Cut="9.5" cType="1" res="0.0e+00" rms="0.0e+00" purity="0.0e+00" nType="0"><Node pos="l" depth="3" NCoef="0" IVar="3" Cut="16.5" cType="1" res="0.0e+00" rms="0.0e+00" purity="0.0e+00" nType="0"><Node pos="l" depth="4" NCoef="0" IVar="-1" Cut="0.0e+00" cType="1" res="0.00501508359" rms="0.0e+00" purity="0.0e+00" nType="-99" /><Node pos="r" depth="4" NCoef="0" IVar="-1" Cut="0.0e+00" cType="1" res="0.0091490848" rms="0.0e+00" purity="0.0e+00" nType="-99" /></Node><Node pos="r" depth="3" NCoef="0" IVar="7" Cut="11.5" cType="1" res="0.0e+00" rms="0.0e+00" purity="0.0e+00" nType="0"><Node pos="l" depth="4" NCoef="0" IVar="-1" Cut="0.0e+00" cType="1" res="0.00817276351" rms="0.0e+00" purity="0.0e+00" nType="-99" /><Node pos="r" depth="4" NCoef="0" IVar="-1" Cut="0.0e+00" cType="1" res="0.00941332709" rms="0.0e+00" purity="0.0e+00" nType="-99" /></Node></Node></Node></Node></BinaryTree><BinaryTree type="DecisionTree" boostWeight="1.0e+00" itree="10"><Node pos="s" depth="0" NCoef="0" IVar="7" Cut="5.5" cType="1" res="0.0e+00" rms="0.0e+00" purity="0.0e+00" nType="0"><Node pos="l" depth="1" NCoef="0" IVar="6" Cut="12.5" cType="1" res="0.0e+00" rms="0.0e+00" purity="0.0e+00" nType="0"><Node pos="l" depth="2" NCoef="0" IVar="10" Cut="17.5" cType="1" res="0.0e+00" rms="0.0e+00" purity="0.0e+00" nType="0"><Node pos="l" depth="3" NCoef="0" IVar="3" Cut="15.5" cType="1" res="0.0e+00" rms="0.0e+00" purity="0.0e+00" nType="0"><Node pos="l" depth="4" NCoef="0" IVar="-1" Cut="0.0e+00" cType="1" res="-0.00608857861" rms="0.0e+00" purity="0.0e+00" nType="-99" /><Node pos="r" depth="4" NCoef="0" IVar="-1" Cut="0.0e+00" cType="1" res="0.00654192455" rms="0.0e+00" purity="0.0e+00" nType="-99" /></Node><Node pos="r" depth="3" NCoef="0" IVar="10" Cut="22.5" cType="1" res="0.0e+00" rms="0.0e+00" purity="0.0e+00" nType="0"><Node pos="l" depth="4" NCoef="0" IVar="-1" Cut="0.0e+00" cType="1" res="0.00330354692" rms="0.0e+00" purity="0.0e+00" nType="-99" /><Node pos="r" depth="4" NCoef="0" IVar="-1" Cut="0.0e+00" cType="1" res="0.00899752323" rms="0.0e+00" purity="0.0e+00" nType="-99" /></Node></Node><Node pos="r" depth="2" NCoef="0" IVar="6" Cut="16.5" cType="1" res="0.0e+00" rms="0.0e+00" purity="0.0e+00" nType="0"><Node pos="l" depth="3" NCoef="0" IVar="2" Cut="28.5" cType="1" res="0.0e+00" rms="0.0e+00" purity="0.0e+00" nType="0"><Node pos="l" depth="4" NCoef="0" IVar="-1" Cut="0.0e+00" cType="1" res="0.000856638304" rms="0.0e+00" purity="0.0e+00" nType="-99" /><Node pos="r" depth="4" NCoef="0" IVar="-1" Cut="0.0e+00" cType="1" res="0.00892900955" rms="0.0e+00" purity="0.0e+00" nType="-99" /></Node><Node pos="r" depth="3" NCoef="0" IVar="6" Cut="25.5" cType="1" res="0.0e+00" rms="0.0e+00" purity="0.0e+00" nType="0"><Node pos="l" depth="4" NCoef="0" IVar="-1" Cut="0.0e+00" cType="1" res="0.0075125033" rms="0.0e+00" purity="0.0e+00" nType="-99" /><Node pos="r" depth="4" NCoef="0" IVar="-1" Cut="0.0e+00" cType="1" res="0.00947133452" rms="0.0e+00" purity="0.0e+00" nType="-99" /></Node></Node></Node><Node pos="r" depth="1" NCoef="0" IVar="7" Cut="8.5" cType="1" res="0.0e+00" rms="0.0e+00" purity="0.0e+00" nType="0"><Node pos="l" depth="2" NCoef="0" IVar="3" Cut="16.5" cType="1" res="0.0e+00" rms="0.0e+00" purity="0.0e+00" nType="0"><Node pos="l" depth="3" NCoef="0" IVar="6" Cut="11.5" cType="1" res="0.0e+00" rms="0.0e+00" purity="0.0e+00" nType="0"><Node pos="l" depth="4" NCoef="0" IVar="-1" Cut="0.0e+00" cType="1" res="-0.000473867316" rms="0.0e+00" purity="0.0e+00" nType="-99" /><Node pos="r" depth="4" NCoef="0" IVar="-1" Cut="0.0e+00" cType="1" res="0.00837087631" rms="0.0e+00" purity="0.0e+00" nType="-99" /></Node><Node pos="r" depth="3" NCoef="0" IVar="3" Cut="19.5" cType="1" res="0.0e+00" rms="0.0e+00" purity="0.0e+00" nType="0"><Node pos="l" depth="4" NCoef="0" IVar="-1" Cut="0.0e+00" cType="1" res="0.00511857541" rms="0.0e+00" purity="0.0e+00" nType="-99" /><Node pos="r" depth="4" NCoef="0" IVar="-1" Cut="0.0e+00" cType="1" res="0.00923247822" rms="0.0e+00" purity="0.0e+00" nType="-99" /></Node></Node><Node pos="r" depth="2" NCoef="0" IVar="7" Cut="10.5" cType="1" res="0.0e+00" rms="0.0e+00" purity="0.0e+00" nType="0"><Node pos="l" depth="3" NCoef="0" IVar="11" Cut="8.5" cType="1" res="0.0e+00" rms="0.0e+00" purity="0.0e+00" nType="0"><Node pos="l" depth="4" NCoef="0" IVar="-1" Cut="0.0e+00" cType="1" res="0.00838917959" rms="0.0e+00" purity="0.0e+00" nType="-99" /><Node pos="r" depth="4" NCoef="0" IVar="-1" Cut="0.0e+00" cType="1" res="0.00558844395" rms="0.0e+00" purity="0.0e+00" nType="-99" /></Node><Node pos="r" depth="3" NCoef="0" IVar="-1" Cut="0.0e+00" cType="1" res="0.00929516088" rms="0.0e+00" purity="0.0e+00" nType="-99" /></Node></Node></Node></BinaryTree><BinaryTree type="DecisionTree" boostWeight="1.0e+00" itree="11"><Node pos="s" depth="0" NCoef="0" IVar="7" Cut="5.5" cType="1" res="0.0e+00" rms="0.0e+00" purity="0.0e+00" nType="0"><Node pos="l" depth="1" NCoef="0" IVar="6" Cut="12.5" cType="1" res="0.0e+00" rms="0.0e+00" purity="0.0e+00" nType="0"><Node pos="l" depth="2" NCoef="0" IVar="10" Cut="17.5" cType="1" res="0.0e+00" rms="0.0e+00" purity="0.0e+00" nType="0"><Node pos="l" depth="3" NCoef="0" IVar="3" Cut="15.5" cType="1" res="0.0e+00" rms="0.0e+00" purity="0.0e+00" nType="0"><Node pos="l" depth="4" NCoef="0" IVar="-1" Cut="0.0e+00" cType="1" res="-0.00605932856" rms="0.0e+00" purity="0.0e+00" nType="-99" /><Node pos="r" depth="4" NCoef="0" IVar="-1" Cut="0.0e+00" cType="1" res="0.00651070522" rms="0.0e+00" purity="0.0e+00" nType="-99" /></Node><Node pos="r" depth="3" NCoef="0" IVar="10" Cut="22.5" cType="1" res="0.0e+00" rms="0.0e+00" purity="0.0e+00" nType="0"><Node pos="l" depth="4" NCoef="0" IVar="-1" Cut="0.0e+00" cType="1" res="0.003287317" rms="0.0e+00" purity="0.0e+00" nType="-99" /><Node pos="r" depth="4" NCoef="0" IVar="-1" Cut="0.0e+00" cType="1" res="0.00895652547" rms="0.0e+00" purity="0.0e+00" nType="-99" /></Node></Node><Node pos="r" depth="2" NCoef="0" IVar="6" Cut="16.5" cType="1" res="0.0e+00" rms="0.0e+00" purity="0.0e+00" nType="0"><Node pos="l" depth="3" NCoef="0" IVar="2" Cut="28.5" cType="1" res="0.0e+00" rms="0.0e+00" purity="0.0e+00" nType="0"><Node pos="l" depth="4" NCoef="0" IVar="-1" Cut="0.0e+00" cType="1" res="0.000852381112" rms="0.0e+00" purity="0.0e+00" nType="-99" /><Node pos="r" depth="4" NCoef="0" IVar="-1" Cut="0.0e+00" cType="1" res="0.00888861436" rms="0.0e+00" purity="0.0e+00" nType="-99" /></Node><Node pos="r" depth="3" NCoef="0" IVar="6" Cut="25.5" cType="1" res="0.0e+00" rms="0.0e+00" purity="0.0e+00" nType="0"><Node pos="l" depth="4" NCoef="0" IVar="-1" Cut="0.0e+00" cType="1" res="0.00747680245" rms="0.0e+00" purity="0.0e+00" nType="-99" /><Node pos="r" depth="4" NCoef="0" IVar="-1" Cut="0.0e+00" cType="1" res="0.00942754745" rms="0.0e+00" purity="0.0e+00" nType="-99" /></Node></Node></Node><Node pos="r" depth="1" NCoef="0" IVar="7" Cut="7.5" cType="1" res="0.0e+00" rms="0.0e+00" purity="0.0e+00" nType="0"><Node pos="l" depth="2" NCoef="0" IVar="3" Cut="16.5" cType="1" res="0.0e+00" rms="0.0e+00" purity="0.0e+00" nType="0"><Node pos="l" depth="3" NCoef="0" IVar="6" Cut="11.5" cType="1" res="0.0e+00" rms="0.0e+00" purity="0.0e+00" nType="0"><Node pos="l" depth="4" NCoef="0" IVar="-1" Cut="0.0e+00" cType="1" res="-0.00137209089" rms="0.0e+00" purity="0.0e+00" nType="-99" /><Node pos="r" depth="4" NCoef="0" IVar="-1" Cut="0.0e+00" cType="1" res="0.00824649911" rms="0.0e+00" purity="0.0e+00" nType="-99" /></Node><Node pos="r" depth="3" NCoef="0" IVar="3" Cut="19.5" cType="1" res="0.0e+00" rms="0.0e+00" purity="0.0e+00" nType="0"><Node pos="l" depth="4" NCoef="0" IVar="-1" Cut="0.0e+00" cType="1" res="0.00475647068" rms="0.0e+00" purity="0.0e+00" nType="-99" /><Node pos="r" depth="4" NCoef="0" IVar="-1" Cut="0.0e+00" cType="1" res="0.00911584031" rms="0.0e+00" purity="0.0e+00" nType="-99" /></Node></Node><Node pos="r" depth="2" NCoef="0" IVar="7" Cut="9.5" cType="1" res="0.0e+00" rms="0.0e+00" purity="0.0e+00" nType="0"><Node pos="l" depth="3" NCoef="0" IVar="3" Cut="16.5" cType="1" res="0.0e+00" rms="0.0e+00" purity="0.0e+00" nType="0"><Node pos="l" depth="4" NCoef="0" IVar="-1" Cut="0.0e+00" cType="1" res="0.00497166533" rms="0.0e+00" purity="0.0e+00" nType="-99" /><Node pos="r" depth="4" NCoef="0" IVar="-1" Cut="0.0e+00" cType="1" res="0.00906952191" rms="0.0e+00" purity="0.0e+00" nType="-99" /></Node><Node pos="r" depth="3" NCoef="0" IVar="7" Cut="11.5" cType="1" res="0.0e+00" rms="0.0e+00" purity="0.0e+00" nType="0"><Node pos="l" depth="4" NCoef="0" IVar="-1" Cut="0.0e+00" cType="1" res="0.00809707027" rms="0.0e+00" purity="0.0e+00" nType="-99" /><Node pos="r" depth="4" NCoef="0" IVar="-1" Cut="0.0e+00" cType="1" res="0.00932830106" rms="0.0e+00" purity="0.0e+00" nType="-99" /></Node></Node></Node></Node></BinaryTree><BinaryTree type="DecisionTree" boostWeight="1.0e+00" itree="12"><Node pos="s" depth="0" NCoef="0" IVar="7" Cut="5.5" cType="1" res="0.0e+00" rms="0.0e+00" purity="0.0e+00" nType="0"><Node pos="l" depth="1" NCoef="0" IVar="6" Cut="12.5" cType="1" res="0.0e+00" rms="0.0e+00" purity="0.0e+00" nType="0"><Node pos="l" depth="2" NCoef="0" IVar="10" Cut="17.5" cType="1" res="0.0e+00" rms="0.0e+00" purity="0.0e+00" nType="0"><Node pos="l" depth="3" NCoef="0" IVar="3" Cut="15.5" cType="1" res="0.0e+00" rms="0.0e+00" purity="0.0e+00" nType="0"><Node pos="l" depth="4" NCoef="0" IVar="-1" Cut="0.0e+00" cType="1" res="-0.00603032345" rms="0.0e+00" purity="0.0e+00" nType="-99" /><Node pos="r" depth="4" NCoef="0" IVar="-1" Cut="0.0e+00" cType="1" res="0.00647976482" rms="0.0e+00" purity="0.0e+00" nType="-99" /></Node><Node pos="r" depth="3" NCoef="0" IVar="10" Cut="22.5" cType="1" res="0.0e+00" rms="0.0e+00" purity="0.0e+00" nType="0"><Node pos="l" depth="4" NCoef="0" IVar="-1" Cut="0.0e+00" cType="1" res="0.00327118416" rms="0.0e+00" purity="0.0e+00" nType="-99" /><Node pos="r" depth="4" NCoef="0" IVar="-1" Cut="0.0e+00" cType="1" res="0.00891605578" rms="0.0e+00" purity="0.0e+00" nType="-99" /></Node></Node><Node pos="r" depth="2" NCoef="0" IVar="6" Cut="16.5" cType="1" res="0.0e+00" rms="0.0e+00" purity="0.0e+00" nType="0"><Node pos="l" depth="3" NCoef="0" IVar="2" Cut="28.5" cType="1" res="0.0e+00" rms="0.0e+00" purity="0.0e+00" nType="0"><Node pos="l" depth="4" NCoef="0" IVar="-1" Cut="0.0e+00" cType="1" res="0.000848144584" rms="0.0e+00" purity="0.0e+00" nType="-99" /><Node pos="r" depth="4" NCoef="0" IVar="-1" Cut="0.0e+00" cType="1" res="0.00884873234" rms="0.0e+00" purity="0.0e+00" nType="-99" /></Node><Node pos="r" depth="3" NCoef="0" IVar="6" Cut="21.5" cType="1" res="0.0e+00" rms="0.0e+00" purity="0.0e+00" nType="0"><Node pos="l" depth="4" NCoef="0" IVar="-1" Cut="0.0e+00" cType="1" res="0.00692308042" rms="0.0e+00" purity="0.0e+00" nType="-99" /><Node pos="r" depth="4" NCoef="0" IVar="-1" Cut="0.0e+00" cType="1" res="0.00917019416" rms="0.0e+00" purity="0.0e+00" nType="-99" /></Node></Node></Node><Node pos="r" depth="1" NCoef="0" IVar="7" Cut="7.5" cType="1" res="0.0e+00" rms="0.0e+00" purity="0.0e+00" nType="0"><Node pos="l" depth="2" NCoef="0" IVar="3" Cut="16.5" cType="1" res="0.0e+00" rms="0.0e+00" purity="0.0e+00" nType="0"><Node pos="l" depth="3" NCoef="0" IVar="6" Cut="11.5" cType="1" res="0.0e+00" rms="0.0e+00" purity="0.0e+00" nType="0"><Node pos="l" depth="4" NCoef="0" IVar="-1" Cut="0.0e+00" cType="1" res="-0.00136526488" rms="0.0e+00" purity="0.0e+00" nType="-99" /><Node pos="r" depth="4" NCoef="0" IVar="-1" Cut="0.0e+00" cType="1" res="0.00820910092" rms="0.0e+00" purity="0.0e+00" nType="-99" /></Node><Node pos="r" depth="3" NCoef="0" IVar="3" Cut="19.5" cType="1" res="0.0e+00" rms="0.0e+00" purity="0.0e+00" nType="0"><Node pos="l" depth="4" NCoef="0" IVar="-1" Cut="0.0e+00" cType="1" res="0.00473565003" rms="0.0e+00" purity="0.0e+00" nType="-99" /><Node pos="r" depth="4" NCoef="0" IVar="-1" Cut="0.0e+00" cType="1" res="0.00907513965" rms="0.0e+00" purity="0.0e+00" nType="-99" /></Node></Node><Node pos="r" depth="2" NCoef="0" IVar="7" Cut="9.5" cType="1" res="0.0e+00" rms="0.0e+00" purity="0.0e+00" nType="0"><Node pos="l" depth="3" NCoef="0" IVar="3" Cut="16.5" cType="1" res="0.0e+00" rms="0.0e+00" purity="0.0e+00" nType="0"><Node pos="l" depth="4" NCoef="0" IVar="-1" Cut="0.0e+00" cType="1" res="0.00494762044" rms="0.0e+00" purity="0.0e+00" nType="-99" /><Node pos="r" depth="4" NCoef="0" IVar="-1" Cut="0.0e+00" cType="1" res="0.00902901869" rms="0.0e+00" purity="0.0e+00" nType="-99" /></Node><Node pos="r" depth="3" NCoef="0" IVar="7" Cut="11.5" cType="1" res="0.0e+00" rms="0.0e+00" purity="0.0e+00" nType="0"><Node pos="l" depth="4" NCoef="0" IVar="-1" Cut="0.0e+00" cType="1" res="0.00805992167" rms="0.0e+00" purity="0.0e+00" nType="-99" /><Node pos="r" depth="4" NCoef="0" IVar="-1" Cut="0.0e+00" cType="1" res="0.00928648375" rms="0.0e+00" purity="0.0e+00" nType="-99" /></Node></Node></Node></Node></BinaryTree><BinaryTree type="DecisionTree" boostWeight="1.0e+00" itree="13"><Node pos="s" depth="0" NCoef="0" IVar="7" Cut="5.5" cType="1" res="0.0e+00" rms="0.0e+00" purity="0.0e+00" nType="0"><Node pos="l" depth="1" NCoef="0" IVar="2" Cut="32.5" cType="1" res="0.0e+00" rms="0.0e+00" purity="0.0e+00" nType="0"><Node pos="l" depth="2" NCoef="0" IVar="10" Cut="16.5" cType="1" res="0.0e+00" rms="0.0e+00" purity="0.0e+00" nType="0"><Node pos="l" depth="3" NCoef="0" IVar="3" Cut="18.5" cType="1" res="0.0e+00" rms="0.0e+00" purity="0.0e+00" nType="0"><Node pos="l" depth="4" NCoef="0" IVar="-1" Cut="0.0e+00" cType="1" res="-0.00601743907" rms="0.0e+00" purity="0.0e+00" nType="-99" /><Node pos="r" depth="4" NCoef="0" IVar="-1" Cut="0.0e+00" cType="1" res="0.00717835594" rms="0.0e+00" purity="0.0e+00" nType="-99" /></Node><Node pos="r" depth="3" NCoef="0" IVar="10" Cut="21.5" cType="1" res="0.0e+00" rms="0.0e+00" purity="0.0e+00" nType="0"><Node pos="l" depth="4" NCoef="0" IVar="-1" Cut="0.0e+00" cType="1" res="0.00349925715" rms="0.0e+00" purity="0.0e+00" nType="-99" /><Node pos="r" depth="4" NCoef="0" IVar="-1" Cut="0.0e+00" cType="1" res="0.00883836113" rms="0.0e+00" purity="0.0e+00" nType="-99" /></Node></Node><Node pos="r" depth="2" NCoef="0" IVar="2" Cut="48.5" cType="1" res="0.0e+00" rms="0.0e+00" purity="0.0e+00" nType="0"><Node pos="l" depth="3" NCoef="0" IVar="11" Cut="8.5" cType="1" res="0.0e+00" rms="0.0e+00" purity="0.0e+00" nType="0"><Node pos="l" depth="4" NCoef="0" IVar="-1" Cut="0.0e+00" cType="1" res="0.00650227536" rms="0.0e+00" purity="0.0e+00" nType="-99" /><Node pos="r" depth="4" NCoef="0" IVar="-1" Cut="0.0e+00" cType="1" res="-0.000922157196" rms="0.0e+00" purity="0.0e+00" nType="-99" /></Node><Node pos="r" depth="3" NCoef="0" IVar="2" Cut="60.5" cType="1" res="0.0e+00" rms="0.0e+00" purity="0.0e+00" nType="0"><Node pos="l" depth="4" NCoef="0" IVar="-1" Cut="0.0e+00" cType="1" res="0.0080561908" rms="0.0e+00" purity="0.0e+00" nType="-99" /><Node pos="r" depth="4" NCoef="0" IVar="-1" Cut="0.0e+00" cType="1" res="0.00968785398" rms="0.0e+00" purity="0.0e+00" nType="-99" /></Node></Node></Node><Node pos="r" depth="1" NCoef="0" IVar="7" Cut="8.5" cType="1" res="0.0e+00" rms="0.0e+00" purity="0.0e+00" nType="0"><Node pos="l" depth="2" NCoef="0" IVar="3" Cut="16.5" cType="1" res="0.0e+00" rms="0.0e+00" purity="0.0e+00" nType="0"><Node pos="l" depth="3" NCoef="0" IVar="6" Cut="11.5" cType="1" res="0.0e+00" rms="0.0e+00" purity="0.0e+00" nType="0"><Node pos="l" depth="4" NCoef="0" IVar="-1" Cut="0.0e+00" cType="1" res="-0.000470635074" rms="0.0e+00" purity="0.0e+00" nType="-99" /><Node pos="r" depth="4" NCoef="0" IVar="-1" Cut="0.0e+00" cType="1" res="0.0082639344" rms="0.0e+00" purity="0.0e+00" nType="-99" /></Node><Node pos="r" depth="3" NCoef="0" IVar="3" Cut="19.5" cType="1" res="0.0e+00" rms="0.0e+00" purity="0.0e+00" nType="0"><Node pos="l" depth="4" NCoef="0" IVar="-1" Cut="0.0e+00" cType="1" res="0.00504401" rms="0.0e+00" purity="0.0e+00" nType="-99" /><Node pos="r" depth="4" NCoef="0" IVar="-1" Cut="0.0e+00" cType="1" res="0.00910989009" rms="0.0e+00" purity="0.0e+00" nType="-99" /></Node></Node><Node pos="r" depth="2" NCoef="0" IVar="7" Cut="10.5" cType="1" res="0.0e+00" rms="0.0e+00" purity="0.0e+00" nType="0"><Node pos="l" depth="3" NCoef="0" IVar="11" Cut="8.5" cType="1" res="0.0e+00" rms="0.0e+00" purity="0.0e+00" nType="0"><Node pos="l" depth="4" NCoef="0" IVar="-1" Cut="0.0e+00" cType="1" res="0.00828458928" rms="0.0e+00" purity="0.0e+00" nType="-99" /><Node pos="r" depth="4" NCoef="0" IVar="-1" Cut="0.0e+00" cType="1" res="0.005498935" rms="0.0e+00" purity="0.0e+00" nType="-99" /></Node><Node pos="r" depth="3" NCoef="0" IVar="-1" Cut="0.0e+00" cType="1" res="0.00917083863" rms="0.0e+00" purity="0.0e+00" nType="-99" /></Node></Node></Node></BinaryTree><BinaryTree type="DecisionTree" boostWeight="1.0e+00" itree="14"><Node pos="s" depth="0" NCoef="0" IVar="7" Cut="5.5" cType="1" res="0.0e+00" rms="0.0e+00" purity="0.0e+00" nType="0"><Node pos="l" depth="1" NCoef="0" IVar="6" Cut="12.5" cType="1" res="0.0e+00" rms="0.0e+00" purity="0.0e+00" nType="0"><Node pos="l" depth="2" NCoef="0" IVar="10" Cut="17.5" cType="1" res="0.0e+00" rms="0.0e+00" purity="0.0e+00" nType="0"><Node pos="l" depth="3" NCoef="0" IVar="3" Cut="15.5" cType="1" res="0.0e+00" rms="0.0e+00" purity="0.0e+00" nType="0"><Node pos="l" depth="4" NCoef="0" IVar="-1" Cut="0.0e+00" cType="1" res="-0.00597489392" rms="0.0e+00" purity="0.0e+00" nType="-99" /><Node pos="r" depth="4" NCoef="0" IVar="-1" Cut="0.0e+00" cType="1" res="0.00642295834" rms="0.0e+00" purity="0.0e+00" nType="-99" /></Node><Node pos="r" depth="3" NCoef="0" IVar="10" Cut="22.5" cType="1" res="0.0e+00" rms="0.0e+00" purity="0.0e+00" nType="0"><Node pos="l" depth="4" NCoef="0" IVar="-1" Cut="0.0e+00" cType="1" res="0.00323357456" rms="0.0e+00" purity="0.0e+00" nType="-99" /><Node pos="r" depth="4" NCoef="0" IVar="-1" Cut="0.0e+00" cType="1" res="0.00883700699" rms="0.0e+00" purity="0.0e+00" nType="-99" /></Node></Node><Node pos="r" depth="2" NCoef="0" IVar="6" Cut="16.5" cType="1" res="0.0e+00" rms="0.0e+00" purity="0.0e+00" nType="0"><Node pos="l" depth="3" NCoef="0" IVar="2" Cut="28.5" cType="1" res="0.0e+00" rms="0.0e+00" purity="0.0e+00" nType="0"><Node pos="l" depth="4" NCoef="0" IVar="-1" Cut="0.0e+00" cType="1" res="0.000860994973" rms="0.0e+00" purity="0.0e+00" nType="-99" /><Node pos="r" depth="4" NCoef="0" IVar="-1" Cut="0.0e+00" cType="1" res="0.00877330638" rms="0.0e+00" purity="0.0e+00" nType="-99" /></Node><Node pos="r" depth="3" NCoef="0" IVar="6" Cut="25.5" cType="1" res="0.0e+00" rms="0.0e+00" purity="0.0e+00" nType="0"><Node pos="l" depth="4" NCoef="0" IVar="-1" Cut="0.0e+00" cType="1" res="0.00739906821" rms="0.0e+00" purity="0.0e+00" nType="-99" /><Node pos="r" depth="4" NCoef="0" IVar="-1" Cut="0.0e+00" cType="1" res="0.00933704898" rms="0.0e+00" purity="0.0e+00" nType="-99" /></Node></Node></Node><Node pos="r" depth="1" NCoef="0" IVar="7" Cut="7.5" cType="1" res="0.0e+00" rms="0.0e+00" purity="0.0e+00" nType="0"><Node pos="l" depth="2" NCoef="0" IVar="3" Cut="16.5" cType="1" res="0.0e+00" rms="0.0e+00" purity="0.0e+00" nType="0"><Node pos="l" depth="3" NCoef="0" IVar="6" Cut="11.5" cType="1" res="0.0e+00" rms="0.0e+00" purity="0.0e+00" nType="0"><Node pos="l" depth="4" NCoef="0" IVar="-1" Cut="0.0e+00" cType="1" res="-0.00135613279" rms="0.0e+00" purity="0.0e+00" nType="-99" /><Node pos="r" depth="4" NCoef="0" IVar="-1" Cut="0.0e+00" cType="1" res="0.00813516974" rms="0.0e+00" purity="0.0e+00" nType="-99" /></Node><Node pos="r" depth="3" NCoef="0" IVar="3" Cut="19.5" cType="1" res="0.0e+00" rms="0.0e+00" purity="0.0e+00" nType="0"><Node pos="l" depth="4" NCoef="0" IVar="-1" Cut="0.0e+00" cType="1" res="0.00469298335" rms="0.0e+00" purity="0.0e+00" nType="-99" /><Node pos="r" depth="4" NCoef="0" IVar="-1" Cut="0.0e+00" cType="1" res="0.00899499375" rms="0.0e+00" purity="0.0e+00" nType="-99" /></Node></Node><Node pos="r" depth="2" NCoef="0" IVar="7" Cut="9.5" cType="1" res="0.0e+00" rms="0.0e+00" purity="0.0e+00" nType="0"><Node pos="l" depth="3" NCoef="0" IVar="3" Cut="16.5" cType="1" res="0.0e+00" rms="0.0e+00" purity="0.0e+00" nType="0"><Node pos="l" depth="4" NCoef="0" IVar="-1" Cut="0.0e+00" cType="1" res="0.00490512326" rms="0.0e+00" purity="0.0e+00" nType="-99" /><Node pos="r" depth="4" NCoef="0" IVar="-1" Cut="0.0e+00" cType="1" res="0.00895245653" rms="0.0e+00" purity="0.0e+00" nType="-99" /></Node><Node pos="r" depth="3" NCoef="0" IVar="7" Cut="11.5" cType="1" res="0.0e+00" rms="0.0e+00" purity="0.0e+00" nType="0"><Node pos="l" depth="4" NCoef="0" IVar="-1" Cut="0.0e+00" cType="1" res="0.00798675511" rms="0.0e+00" purity="0.0e+00" nType="-99" /><Node pos="r" depth="4" NCoef="0" IVar="-1" Cut="0.0e+00" cType="1" res="0.00920485891" rms="0.0e+00" purity="0.0e+00" nType="-99" /></Node></Node></Node></Node></BinaryTree><BinaryTree type="DecisionTree" boostWeight="1.0e+00" itree="15"><Node pos="s" depth="0" NCoef="0" IVar="7" Cut="5.5" cType="1" res="0.0e+00" rms="0.0e+00" purity="0.0e+00" nType="0"><Node pos="l" depth="1" NCoef="0" IVar="2" Cut="32.5" cType="1" res="0.0e+00" rms="0.0e+00" purity="0.0e+00" nType="0"><Node pos="l" depth="2" NCoef="0" IVar="10" Cut="16.5" cType="1" res="0.0e+00" rms="0.0e+00" purity="0.0e+00" nType="0"><Node pos="l" depth="3" NCoef="0" IVar="3" Cut="18.5" cType="1" res="0.0e+00" rms="0.0e+00" purity="0.0e+00" nType="0"><Node pos="l" depth="4" NCoef="0" IVar="-1" Cut="0.0e+00" cType="1" res="-0.00596260699" rms="0.0e+00" purity="0.0e+00" nType="-99" /><Node pos="r" depth="4" NCoef="0" IVar="-1" Cut="0.0e+00" cType="1" res="0.00711506652" rms="0.0e+00" purity="0.0e+00" nType="-99" /></Node><Node pos="r" depth="3" NCoef="0" IVar="10" Cut="21.5" cType="1" res="0.0e+00" rms="0.0e+00" purity="0.0e+00" nType="0"><Node pos="l" depth="4" NCoef="0" IVar="-1" Cut="0.0e+00" cType="1" res="0.00347129884" rms="0.0e+00" purity="0.0e+00" nType="-99" /><Node pos="r" depth="4" NCoef="0" IVar="-1" Cut="0.0e+00" cType="1" res="0.00876166299" rms="0.0e+00" purity="0.0e+00" nType="-99" /></Node></Node><Node pos="r" depth="2" NCoef="0" IVar="2" Cut="48.5" cType="1" res="0.0e+00" rms="0.0e+00" purity="0.0e+00" nType="0"><Node pos="l" depth="3" NCoef="0" IVar="11" Cut="8.5" cType="1" res="0.0e+00" rms="0.0e+00" purity="0.0e+00" nType="0"><Node pos="l" depth="4" NCoef="0" IVar="-1" Cut="0.0e+00" cType="1" res="0.00647549517" rms="0.0e+00" purity="0.0e+00" nType="-99" /><Node pos="r" depth="4" NCoef="0" IVar="-1" Cut="0.0e+00" cType="1" res="-0.000904560904" rms="0.0e+00" purity="0.0e+00" nType="-99" /></Node><Node pos="r" depth="3" NCoef="0" IVar="2" Cut="60.5" cType="1" res="0.0e+00" rms="0.0e+00" purity="0.0e+00" nType="0"><Node pos="l" depth="4" NCoef="0" IVar="-1" Cut="0.0e+00" cType="1" res="0.00802272931" rms="0.0e+00" purity="0.0e+00" nType="-99" /><Node pos="r" depth="4" NCoef="0" IVar="-1" Cut="0.0e+00" cType="1" res="0.00963826198" rms="0.0e+00" purity="0.0e+00" nType="-99" /></Node></Node></Node><Node pos="r" depth="1" NCoef="0" IVar="7" Cut="7.5" cType="1" res="0.0e+00" rms="0.0e+00" purity="0.0e+00" nType="0"><Node pos="l" depth="2" NCoef="0" IVar="3" Cut="16.5" cType="1" res="0.0e+00" rms="0.0e+00" purity="0.0e+00" nType="0"><Node pos="l" depth="3" NCoef="0" IVar="6" Cut="11.5" cType="1" res="0.0e+00" rms="0.0e+00" purity="0.0e+00" nType="0"><Node pos="l" depth="4" NCoef="0" IVar="-1" Cut="0.0e+00" cType="1" res="-0.00134938839" rms="0.0e+00" purity="0.0e+00" nType="-99" /><Node pos="r" depth="4" NCoef="0" IVar="-1" Cut="0.0e+00" cType="1" res="0.00809903536" rms="0.0e+00" purity="0.0e+00" nType="-99" /></Node><Node pos="r" depth="3" NCoef="0" IVar="3" Cut="19.5" cType="1" res="0.0e+00" rms="0.0e+00" purity="0.0e+00" nType="0"><Node pos="l" depth="4" NCoef="0" IVar="-1" Cut="0.0e+00" cType="1" res="0.00467257621" rms="0.0e+00" purity="0.0e+00" nType="-99" /><Node pos="r" depth="4" NCoef="0" IVar="-1" Cut="0.0e+00" cType="1" res="0.00895586051" rms="0.0e+00" purity="0.0e+00" nType="-99" /></Node></Node><Node pos="r" depth="2" NCoef="0" IVar="7" Cut="9.5" cType="1" res="0.0e+00" rms="0.0e+00" purity="0.0e+00" nType="0"><Node pos="l" depth="3" NCoef="0" IVar="3" Cut="16.5" cType="1" res="0.0e+00" rms="0.0e+00" purity="0.0e+00" nType="0"><Node pos="l" depth="4" NCoef="0" IVar="-1" Cut="0.0e+00" cType="1" res="0.00488155475" rms="0.0e+00" purity="0.0e+00" nType="-99" /><Node pos="r" depth="4" NCoef="0" IVar="-1" Cut="0.0e+00" cType="1" res="0.00891346112" rms="0.0e+00" purity="0.0e+00" nType="-99" /></Node><Node pos="r" depth="3" NCoef="0" IVar="7" Cut="11.5" cType="1" res="0.0e+00" rms="0.0e+00" purity="0.0e+00" nType="0"><Node pos="l" depth="4" NCoef="0" IVar="-1" Cut="0.0e+00" cType="1" res="0.007950834" rms="0.0e+00" purity="0.0e+00" nType="-99" /><Node pos="r" depth="4" NCoef="0" IVar="-1" Cut="0.0e+00" cType="1" res="0.00916469935" rms="0.0e+00" purity="0.0e+00" nType="-99" /></Node></Node></Node></Node></BinaryTree><BinaryTree type="DecisionTree" boostWeight="1.0e+00" itree="16"><Node pos="s" depth="0" NCoef="0" IVar="7" Cut="5.5" cType="1" res="0.0e+00" rms="0.0e+00" purity="0.0e+00" nType="0"><Node pos="l" depth="1" NCoef="0" IVar="6" Cut="12.5" cType="1" res="0.0e+00" rms="0.0e+00" purity="0.0e+00" nType="0"><Node pos="l" depth="2" NCoef="0" IVar="10" Cut="17.5" cType="1" res="0.0e+00" rms="0.0e+00" purity="0.0e+00" nType="0"><Node pos="l" depth="3" NCoef="0" IVar="3" Cut="15.5" cType="1" res="0.0e+00" rms="0.0e+00" purity="0.0e+00" nType="0"><Node pos="l" depth="4" NCoef="0" IVar="-1" Cut="0.0e+00" cType="1" res="-0.00592036359" rms="0.0e+00" purity="0.0e+00" nType="-99" /><Node pos="r" depth="4" NCoef="0" IVar="-1" Cut="0.0e+00" cType="1" res="0.00636712834" rms="0.0e+00" purity="0.0e+00" nType="-99" /></Node><Node pos="r" depth="3" NCoef="0" IVar="10" Cut="22.5" cType="1" res="0.0e+00" rms="0.0e+00" purity="0.0e+00" nType="0"><Node pos="l" depth="4" NCoef="0" IVar="-1" Cut="0.0e+00" cType="1" res="0.00319641456" rms="0.0e+00" purity="0.0e+00" nType="-99" /><Node pos="r" depth="4" NCoef="0" IVar="-1" Cut="0.0e+00" cType="1" res="0.00875992328" rms="0.0e+00" purity="0.0e+00" nType="-99" /></Node></Node><Node pos="r" depth="2" NCoef="0" IVar="6" Cut="16.5" cType="1" res="0.0e+00" rms="0.0e+00" purity="0.0e+00" nType="0"><Node pos="l" depth="3" NCoef="0" IVar="2" Cut="28.5" cType="1" res="0.0e+00" rms="0.0e+00" purity="0.0e+00" nType="0"><Node pos="l" depth="4" NCoef="0" IVar="-1" Cut="0.0e+00" cType="1" res="0.000873638841" rms="0.0e+00" purity="0.0e+00" nType="-99" /><Node pos="r" depth="4" NCoef="0" IVar="-1" Cut="0.0e+00" cType="1" res="0.00869961176" rms="0.0e+00" purity="0.0e+00" nType="-99" /></Node><Node pos="r" depth="3" NCoef="0" IVar="6" Cut="21.5" cType="1" res="0.0e+00" rms="0.0e+00" purity="0.0e+00" nType="0"><Node pos="l" depth="4" NCoef="0" IVar="-1" Cut="0.0e+00" cType="1" res="0.00684278039" rms="0.0e+00" purity="0.0e+00" nType="-99" /><Node pos="r" depth="4" NCoef="0" IVar="-1" Cut="0.0e+00" cType="1" res="0.00907720439" rms="0.0e+00" purity="0.0e+00" nType="-99" /></Node></Node></Node><Node pos="r" depth="1" NCoef="0" IVar="7" Cut="7.5" cType="1" res="0.0e+00" rms="0.0e+00" purity="0.0e+00" nType="0"><Node pos="l" depth="2" NCoef="0" IVar="3" Cut="16.5" cType="1" res="0.0e+00" rms="0.0e+00" purity="0.0e+00" nType="0"><Node pos="l" depth="3" NCoef="0" IVar="6" Cut="11.5" cType="1" res="0.0e+00" rms="0.0e+00" purity="0.0e+00" nType="0"><Node pos="l" depth="4" NCoef="0" IVar="-1" Cut="0.0e+00" cType="1" res="-0.00134267821" rms="0.0e+00" purity="0.0e+00" nType="-99" /><Node pos="r" depth="4" NCoef="0" IVar="-1" Cut="0.0e+00" cType="1" res="0.00806330517" rms="0.0e+00" purity="0.0e+00" nType="-99" /></Node><Node pos="r" depth="3" NCoef="0" IVar="3" Cut="19.5" cType="1" res="0.0e+00" rms="0.0e+00" purity="0.0e+00" nType="0"><Node pos="l" depth="4" NCoef="0" IVar="-1" Cut="0.0e+00" cType="1" res="0.00465230085" rms="0.0e+00" purity="0.0e+00" nType="-99" /><Node pos="r" depth="4" NCoef="0" IVar="-1" Cut="0.0e+00" cType="1" res="0.00891722832" rms="0.0e+00" purity="0.0e+00" nType="-99" /></Node></Node><Node pos="r" depth="2" NCoef="0" IVar="7" Cut="9.5" cType="1" res="0.0e+00" rms="0.0e+00" purity="0.0e+00" nType="0"><Node pos="l" depth="3" NCoef="0" IVar="3" Cut="16.5" cType="1" res="0.0e+00" rms="0.0e+00" purity="0.0e+00" nType="0"><Node pos="l" depth="4" NCoef="0" IVar="-1" Cut="0.0e+00" cType="1" res="0.00485815294" rms="0.0e+00" purity="0.0e+00" nType="-99" /><Node pos="r" depth="4" NCoef="0" IVar="-1" Cut="0.0e+00" cType="1" res="0.00887495931" rms="0.0e+00" purity="0.0e+00" nType="-99" /></Node><Node pos="r" depth="3" NCoef="0" IVar="7" Cut="11.5" cType="1" res="0.0e+00" rms="0.0e+00" purity="0.0e+00" nType="0"><Node pos="l" depth="4" NCoef="0" IVar="-1" Cut="0.0e+00" cType="1" res="0.00791530591" rms="0.0e+00" purity="0.0e+00" nType="-99" /><Node pos="r" depth="4" NCoef="0" IVar="-1" Cut="0.0e+00" cType="1" res="0.00912507251" rms="0.0e+00" purity="0.0e+00" nType="-99" /></Node></Node></Node></Node></BinaryTree><BinaryTree type="DecisionTree" boostWeight="1.0e+00" itree="17"><Node pos="s" depth="0" NCoef="0" IVar="7" Cut="5.5" cType="1" res="0.0e+00" rms="0.0e+00" purity="0.0e+00" nType="0"><Node pos="l" depth="1" NCoef="0" IVar="2" Cut="32.5" cType="1" res="0.0e+00" rms="0.0e+00" purity="0.0e+00" nType="0"><Node pos="l" depth="2" NCoef="0" IVar="10" Cut="16.5" cType="1" res="0.0e+00" rms="0.0e+00" purity="0.0e+00" nType="0"><Node pos="l" depth="3" NCoef="0" IVar="3" Cut="18.5" cType="1" res="0.0e+00" rms="0.0e+00" purity="0.0e+00" nType="0"><Node pos="l" depth="4" NCoef="0" IVar="-1" Cut="0.0e+00" cType="1" res="-0.00590866199" rms="0.0e+00" purity="0.0e+00" nType="-99" /><Node pos="r" depth="4" NCoef="0" IVar="-1" Cut="0.0e+00" cType="1" res="0.00705293892" rms="0.0e+00" purity="0.0e+00" nType="-99" /></Node><Node pos="r" depth="3" NCoef="0" IVar="10" Cut="22.5" cType="1" res="0.0e+00" rms="0.0e+00" purity="0.0e+00" nType="0"><Node pos="l" depth="4" NCoef="0" IVar="-1" Cut="0.0e+00" cType="1" res="0.00379720004" rms="0.0e+00" purity="0.0e+00" nType="-99" /><Node pos="r" depth="4" NCoef="0" IVar="-1" Cut="0.0e+00" cType="1" res="0.0088256076" rms="0.0e+00" purity="0.0e+00" nType="-99" /></Node></Node><Node pos="r" depth="2" NCoef="0" IVar="2" Cut="48.5" cType="1" res="0.0e+00" rms="0.0e+00" purity="0.0e+00" nType="0"><Node pos="l" depth="3" NCoef="0" IVar="11" Cut="9.5" cType="1" res="0.0e+00" rms="0.0e+00" purity="0.0e+00" nType="0"><Node pos="l" depth="4" NCoef="0" IVar="-1" Cut="0.0e+00" cType="1" res="0.00604643999" rms="0.0e+00" purity="0.0e+00" nType="-99" /><Node pos="r" depth="4" NCoef="0" IVar="-1" Cut="0.0e+00" cType="1" res="-0.00204763748" rms="0.0e+00" purity="0.0e+00" nType="-99" /></Node><Node pos="r" depth="3" NCoef="0" IVar="2" Cut="60.5" cType="1" res="0.0e+00" rms="0.0e+00" purity="0.0e+00" nType="0"><Node pos="l" depth="4" NCoef="0" IVar="-1" Cut="0.0e+00" cType="1" res="0.00798969343" rms="0.0e+00" purity="0.0e+00" nType="-99" /><Node pos="r" depth="4" NCoef="0" IVar="-1" Cut="0.0e+00" cType="1" res="0.00958965719" rms="0.0e+00" purity="0.0e+00" nType="-99" /></Node></Node></Node><Node pos="r" depth="1" NCoef="0" IVar="7" Cut="8.5" cType="1" res="0.0e+00" rms="0.0e+00" purity="0.0e+00" nType="0"><Node pos="l" depth="2" NCoef="0" IVar="3" Cut="16.5" cType="1" res="0.0e+00" rms="0.0e+00" purity="0.0e+00" nType="0"><Node pos="l" depth="3" NCoef="0" IVar="6" Cut="11.5" cType="1" res="0.0e+00" rms="0.0e+00" purity="0.0e+00" nType="0"><Node pos="l" depth="4" NCoef="0" IVar="-1" Cut="0.0e+00" cType="1" res="-0.000466984609" rms="0.0e+00" purity="0.0e+00" nType="-99" /><Node pos="r" depth="4" NCoef="0" IVar="-1" Cut="0.0e+00" cType="1" res="0.00812796503" rms="0.0e+00" purity="0.0e+00" nType="-99" /></Node><Node pos="r" depth="3" NCoef="0" IVar="3" Cut="19.5" cType="1" res="0.0e+00" rms="0.0e+00" purity="0.0e+00" nType="0"><Node pos="l" depth="4" NCoef="0" IVar="-1" Cut="0.0e+00" cType="1" res="0.00494609773" rms="0.0e+00" purity="0.0e+00" nType="-99" /><Node pos="r" depth="4" NCoef="0" IVar="-1" Cut="0.0e+00" cType="1" res="0.00895388331" rms="0.0e+00" purity="0.0e+00" nType="-99" /></Node></Node><Node pos="r" depth="2" NCoef="0" IVar="7" Cut="10.5" cType="1" res="0.0e+00" rms="0.0e+00" purity="0.0e+00" nType="0"><Node pos="l" depth="3" NCoef="0" IVar="11" Cut="8.5" cType="1" res="0.0e+00" rms="0.0e+00" purity="0.0e+00" nType="0"><Node pos="l" depth="4" NCoef="0" IVar="-1" Cut="0.0e+00" cType="1" res="0.00815209188" rms="0.0e+00" purity="0.0e+00" nType="-99" /><Node pos="r" depth="4" NCoef="0" IVar="-1" Cut="0.0e+00" cType="1" res="0.00538126379" rms="0.0e+00" purity="0.0e+00" nType="-99" /></Node><Node pos="r" depth="3" NCoef="0" IVar="-1" Cut="0.0e+00" cType="1" res="0.00901267398" rms="0.0e+00" purity="0.0e+00" nType="-99" /></Node></Node></Node></BinaryTree><BinaryTree type="DecisionTree" boostWeight="1.0e+00" itree="18"><Node pos="s" depth="0" NCoef="0" IVar="7" Cut="5.5" cType="1" res="0.0e+00" rms="0.0e+00" purity="0.0e+00" nType="0"><Node pos="l" depth="1" NCoef="0" IVar="6" Cut="12.5" cType="1" res="0.0e+00" rms="0.0e+00" purity="0.0e+00" nType="0"><Node pos="l" depth="2" NCoef="0" IVar="10" Cut="17.5" cType="1" res="0.0e+00" rms="0.0e+00" purity="0.0e+00" nType="0"><Node pos="l" depth="3" NCoef="0" IVar="3" Cut="15.5" cType="1" res="0.0e+00" rms="0.0e+00" purity="0.0e+00" nType="0"><Node pos="l" depth="4" NCoef="0" IVar="-1" Cut="0.0e+00" cType="1" res="-0.00586671382" rms="0.0e+00" purity="0.0e+00" nType="-99" /><Node pos="r" depth="4" NCoef="0" IVar="-1" Cut="0.0e+00" cType="1" res="0.00631221803" rms="0.0e+00" purity="0.0e+00" nType="-99" /></Node><Node pos="r" depth="3" NCoef="0" IVar="10" Cut="22.5" cType="1" res="0.0e+00" rms="0.0e+00" purity="0.0e+00" nType="0"><Node pos="l" depth="4" NCoef="0" IVar="-1" Cut="0.0e+00" cType="1" res="0.00316193164" rms="0.0e+00" purity="0.0e+00" nType="-99" /><Node pos="r" depth="4" NCoef="0" IVar="-1" Cut="0.0e+00" cType="1" res="0.00868417509" rms="0.0e+00" purity="0.0e+00" nType="-99" /></Node></Node><Node pos="r" depth="2" NCoef="0" IVar="6" Cut="16.5" cType="1" res="0.0e+00" rms="0.0e+00" purity="0.0e+00" nType="0"><Node pos="l" depth="3" NCoef="0" IVar="2" Cut="28.5" cType="1" res="0.0e+00" rms="0.0e+00" purity="0.0e+00" nType="0"><Node pos="l" depth="4" NCoef="0" IVar="-1" Cut="0.0e+00" cType="1" res="0.00088614627" rms="0.0e+00" purity="0.0e+00" nType="-99" /><Node pos="r" depth="4" NCoef="0" IVar="-1" Cut="0.0e+00" cType="1" res="0.00862728618" rms="0.0e+00" purity="0.0e+00" nType="-99" /></Node><Node pos="r" depth="3" NCoef="0" IVar="6" Cut="21.5" cType="1" res="0.0e+00" rms="0.0e+00" purity="0.0e+00" nType="0"><Node pos="l" depth="4" NCoef="0" IVar="-1" Cut="0.0e+00" cType="1" res="0.0068049687" rms="0.0e+00" purity="0.0e+00" nType="-99" /><Node pos="r" depth="4" NCoef="0" IVar="-1" Cut="0.0e+00" cType="1" res="0.00903178938" rms="0.0e+00" purity="0.0e+00" nType="-99" /></Node></Node></Node><Node pos="r" depth="1" NCoef="0" IVar="7" Cut="7.5" cType="1" res="0.0e+00" rms="0.0e+00" purity="0.0e+00" nType="0"><Node pos="l" depth="2" NCoef="0" IVar="3" Cut="16.5" cType="1" res="0.0e+00" rms="0.0e+00" purity="0.0e+00" nType="0"><Node pos="l" depth="3" NCoef="0" IVar="6" Cut="11.5" cType="1" res="0.0e+00" rms="0.0e+00" purity="0.0e+00" nType="0"><Node pos="l" depth="4" NCoef="0" IVar="-1" Cut="0.0e+00" cType="1" res="-0.00133368222" rms="0.0e+00" purity="0.0e+00" nType="-99" /><Node pos="r" depth="4" NCoef="0" IVar="-1" Cut="0.0e+00" cType="1" res="0.00799259357" rms="0.0e+00" purity="0.0e+00" nType="-99" /></Node><Node pos="r" depth="3" NCoef="0" IVar="3" Cut="19.5" cType="1" res="0.0e+00" rms="0.0e+00" purity="0.0e+00" nType="0"><Node pos="l" depth="4" NCoef="0" IVar="-1" Cut="0.0e+00" cType="1" res="0.00461078621" rms="0.0e+00" purity="0.0e+00" nType="-99" /><Node pos="r" depth="4" NCoef="0" IVar="-1" Cut="0.0e+00" cType="1" res="0.00884111319" rms="0.0e+00" purity="0.0e+00" nType="-99" /></Node></Node><Node pos="r" depth="2" NCoef="0" IVar="7" Cut="9.5" cType="1" res="0.0e+00" rms="0.0e+00" purity="0.0e+00" nType="0"><Node pos="l" depth="3" NCoef="0" IVar="3" Cut="16.5" cType="1" res="0.0e+00" rms="0.0e+00" purity="0.0e+00" nType="0"><Node pos="l" depth="4" NCoef="0" IVar="-1" Cut="0.0e+00" cType="1" res="0.00481683016" rms="0.0e+00" purity="0.0e+00" nType="-99" /><Node pos="r" depth="4" NCoef="0" IVar="-1" Cut="0.0e+00" cType="1" res="0.00880215969" rms="0.0e+00" purity="0.0e+00" nType="-99" /></Node><Node pos="r" depth="3" NCoef="0" IVar="7" Cut="11.5" cType="1" res="0.0e+00" rms="0.0e+00" purity="0.0e+00" nType="0"><Node pos="l" depth="4" NCoef="0" IVar="-1" Cut="0.0e+00" cType="1" res="0.0078452928" rms="0.0e+00" purity="0.0e+00" nType="-99" /><Node pos="r" depth="4" NCoef="0" IVar="-1" Cut="0.0e+00" cType="1" res="0.00904768612" rms="0.0e+00" purity="0.0e+00" nType="-99" /></Node></Node></Node></Node></BinaryTree><BinaryTree type="DecisionTree" boostWeight="1.0e+00" itree="19"><Node pos="s" depth="0" NCoef="0" IVar="7" Cut="5.5" cType="1" res="0.0e+00" rms="0.0e+00" purity="0.0e+00" nType="0"><Node pos="l" depth="1" NCoef="0" IVar="2" Cut="32.5" cType="1" res="0.0e+00" rms="0.0e+00" purity="0.0e+00" nType="0"><Node pos="l" depth="2" NCoef="0" IVar="10" Cut="16.5" cType="1" res="0.0e+00" rms="0.0e+00" purity="0.0e+00" nType="0"><Node pos="l" depth="3" NCoef="0" IVar="3" Cut="18.5" cType="1" res="0.0e+00" rms="0.0e+00" purity="0.0e+00" nType="0"><Node pos="l" depth="4" NCoef="0" IVar="-1" Cut="0.0e+00" cType="1" res="-0.00585557753" rms="0.0e+00" purity="0.0e+00" nType="-99" /><Node pos="r" depth="4" NCoef="0" IVar="-1" Cut="0.0e+00" cType="1" res="0.00699193031" rms="0.0e+00" purity="0.0e+00" nType="-99" /></Node><Node pos="r" depth="3" NCoef="0" IVar="10" Cut="21.5" cType="1" res="0.0e+00" rms="0.0e+00" purity="0.0e+00" nType="0"><Node pos="l" depth="4" NCoef="0" IVar="-1" Cut="0.0e+00" cType="1" res="0.00341453822" rms="0.0e+00" purity="0.0e+00" nType="-99" /><Node pos="r" depth="4" NCoef="0" IVar="-1" Cut="0.0e+00" cType="1" res="0.00861447398" rms="0.0e+00" purity="0.0e+00" nType="-99" /></Node></Node><Node pos="r" depth="2" NCoef="0" IVar="2" Cut="48.5" cType="1" res="0.0e+00" rms="0.0e+00" purity="0.0e+00" nType="0"><Node pos="l" depth="3" NCoef="0" IVar="11" Cut="8.5" cType="1" res="0.0e+00" rms="0.0e+00" purity="0.0e+00" nType="0"><Node pos="l" depth="4" NCoef="0" IVar="-1" Cut="0.0e+00" cType="1" res="0.00642476976" rms="0.0e+00" purity="0.0e+00" nType="-99" /><Node pos="r" depth="4" NCoef="0" IVar="-1" Cut="0.0e+00" cType="1" res="-0.000874837919" rms="0.0e+00" purity="0.0e+00" nType="-99" /></Node><Node pos="r" depth="3" NCoef="0" IVar="2" Cut="60.5" cType="1" res="0.0e+00" rms="0.0e+00" purity="0.0e+00" nType="0"><Node pos="l" depth="4" NCoef="0" IVar="-1" Cut="0.0e+00" cType="1" res="0.00795712415" rms="0.0e+00" purity="0.0e+00" nType="-99" /><Node pos="r" depth="4" NCoef="0" IVar="-1" Cut="0.0e+00" cType="1" res="0.00954204518" rms="0.0e+00" purity="0.0e+00" nType="-99" /></Node></Node></Node><Node pos="r" depth="1" NCoef="0" IVar="7" Cut="7.5" cType="1" res="0.0e+00" rms="0.0e+00" purity="0.0e+00" nType="0"><Node pos="l" depth="2" NCoef="0" IVar="3" Cut="16.5" cType="1" res="0.0e+00" rms="0.0e+00" purity="0.0e+00" nType="0"><Node pos="l" depth="3" NCoef="0" IVar="6" Cut="11.5" cType="1" res="0.0e+00" rms="0.0e+00" purity="0.0e+00" nType="0"><Node pos="l" depth="4" NCoef="0" IVar="-1" Cut="0.0e+00" cType="1" res="-0.00132705248" rms="0.0e+00" purity="0.0e+00" nType="-99" /><Node pos="r" depth="4" NCoef="0" IVar="-1" Cut="0.0e+00" cType="1" res="0.00795803685" rms="0.0e+00" purity="0.0e+00" nType="-99" /></Node><Node pos="r" depth="3" NCoef="0" IVar="3" Cut="19.5" cType="1" res="0.0e+00" rms="0.0e+00" purity="0.0e+00" nType="0"><Node pos="l" depth="4" NCoef="0" IVar="-1" Cut="0.0e+00" cType="1" res="0.00459090667" rms="0.0e+00" purity="0.0e+00" nType="-99" /><Node pos="r" depth="4" NCoef="0" IVar="-1" Cut="0.0e+00" cType="1" res="0.008803932" rms="0.0e+00" purity="0.0e+00" nType="-99" /></Node></Node><Node pos="r" depth="2" NCoef="0" IVar="7" Cut="9.5" cType="1" res="0.0e+00" rms="0.0e+00" purity="0.0e+00" nType="0"><Node pos="l" depth="3" NCoef="0" IVar="3" Cut="16.5" cType="1" res="0.0e+00" rms="0.0e+00" purity="0.0e+00" nType="0"><Node pos="l" depth="4" NCoef="0" IVar="-1" Cut="0.0e+00" cType="1" res="0.00479388237" rms="0.0e+00" purity="0.0e+00" nType="-99" /><Node pos="r" depth="4" NCoef="0" IVar="-1" Cut="0.0e+00" cType="1" res="0.00876505673" rms="0.0e+00" purity="0.0e+00" nType="-99" /></Node><Node pos="r" depth="3" NCoef="0" IVar="7" Cut="11.5" cType="1" res="0.0e+00" rms="0.0e+00" purity="0.0e+00" nType="0"><Node pos="l" depth="4" NCoef="0" IVar="-1" Cut="0.0e+00" cType="1" res="0.00781090604" rms="0.0e+00" purity="0.0e+00" nType="-99" /><Node pos="r" depth="4" NCoef="0" IVar="-1" Cut="0.0e+00" cType="1" res="0.0090095913" rms="0.0e+00" purity="0.0e+00" nType="-99" /></Node></Node></Node></Node></BinaryTree><BinaryTree type="DecisionTree" boostWeight="1.0e+00" itree="20"><Node pos="s" depth="0" NCoef="0" IVar="7" Cut="5.5" cType="1" res="0.0e+00" rms="0.0e+00" purity="0.0e+00" nType="0"><Node pos="l" depth="1" NCoef="0" IVar="6" Cut="12.5" cType="1" res="0.0e+00" rms="0.0e+00" purity="0.0e+00" nType="0"><Node pos="l" depth="2" NCoef="0" IVar="10" Cut="17.5" cType="1" res="0.0e+00" rms="0.0e+00" purity="0.0e+00" nType="0"><Node pos="l" depth="3" NCoef="0" IVar="3" Cut="15.5" cType="1" res="0.0e+00" rms="0.0e+00" purity="0.0e+00" nType="0"><Node pos="l" depth="4" NCoef="0" IVar="-1" Cut="0.0e+00" cType="1" res="-0.00581390783" rms="0.0e+00" purity="0.0e+00" nType="-99" /><Node pos="r" depth="4" NCoef="0" IVar="-1" Cut="0.0e+00" cType="1" res="0.00625825487" rms="0.0e+00" purity="0.0e+00" nType="-99" /></Node><Node pos="r" depth="3" NCoef="0" IVar="10" Cut="22.5" cType="1" res="0.0e+00" rms="0.0e+00" purity="0.0e+00" nType="0"><Node pos="l" depth="4" NCoef="0" IVar="-1" Cut="0.0e+00" cType="1" res="0.00312563381" rms="0.0e+00" purity="0.0e+00" nType="-99" /><Node pos="r" depth="4" NCoef="0" IVar="-1" Cut="0.0e+00" cType="1" res="0.00861081295" rms="0.0e+00" purity="0.0e+00" nType="-99" /></Node></Node><Node pos="r" depth="2" NCoef="0" IVar="6" Cut="16.5" cType="1" res="0.0e+00" rms="0.0e+00" purity="0.0e+00" nType="0"><Node pos="l" depth="3" NCoef="0" IVar="2" Cut="28.5" cType="1" res="0.0e+00" rms="0.0e+00" purity="0.0e+00" nType="0"><Node pos="l" depth="4" NCoef="0" IVar="-1" Cut="0.0e+00" cType="1" res="0.000898388214" rms="0.0e+00" purity="0.0e+00" nType="-99" /><Node pos="r" depth="4" NCoef="0" IVar="-1" Cut="0.0e+00" cType="1" res="0.00855688937" rms="0.0e+00" purity="0.0e+00" nType="-99" /></Node><Node pos="r" depth="3" NCoef="0" IVar="6" Cut="25.5" cType="1" res="0.0e+00" rms="0.0e+00" purity="0.0e+00" nType="0"><Node pos="l" depth="4" NCoef="0" IVar="-1" Cut="0.0e+00" cType="1" res="0.00727778021" rms="0.0e+00" purity="0.0e+00" nType="-99" /><Node pos="r" depth="4" NCoef="0" IVar="-1" Cut="0.0e+00" cType="1" res="0.0091999257" rms="0.0e+00" purity="0.0e+00" nType="-99" /></Node></Node></Node><Node pos="r" depth="1" NCoef="0" IVar="7" Cut="8.5" cType="1" res="0.0e+00" rms="0.0e+00" purity="0.0e+00" nType="0"><Node pos="l" depth="2" NCoef="0" IVar="3" Cut="16.5" cType="1" res="0.0e+00" rms="0.0e+00" purity="0.0e+00" nType="0"><Node pos="l" depth="3" NCoef="0" IVar="6" Cut="11.5" cType="1" res="0.0e+00" rms="0.0e+00" purity="0.0e+00" nType="0"><Node pos="l" depth="4" NCoef="0" IVar="-1" Cut="0.0e+00" cType="1" res="-0.00046378767" rms="0.0e+00" purity="0.0e+00" nType="-99" /><Node pos="r" depth="4" NCoef="0" IVar="-1" Cut="0.0e+00" cType="1" res="0.00802891981" rms="0.0e+00" purity="0.0e+00" nType="-99" /></Node><Node pos="r" depth="3" NCoef="0" IVar="3" Cut="19.5" cType="1" res="0.0e+00" rms="0.0e+00" purity="0.0e+00" nType="0"><Node pos="l" depth="4" NCoef="0" IVar="-1" Cut="0.0e+00" cType="1" res="0.00487528974" rms="0.0e+00" purity="0.0e+00" nType="-99" /><Node pos="r" depth="4" NCoef="0" IVar="-1" Cut="0.0e+00" cType="1" res="0.00884193182" rms="0.0e+00" purity="0.0e+00" nType="-99" /></Node></Node><Node pos="r" depth="2" NCoef="0" IVar="7" Cut="10.5" cType="1" res="0.0e+00" rms="0.0e+00" purity="0.0e+00" nType="0"><Node pos="l" depth="3" NCoef="0" IVar="11" Cut="8.5" cType="1" res="0.0e+00" rms="0.0e+00" purity="0.0e+00" nType="0"><Node pos="l" depth="4" NCoef="0" IVar="-1" Cut="0.0e+00" cType="1" res="0.00805510953" rms="0.0e+00" purity="0.0e+00" nType="-99" /><Node pos="r" depth="4" NCoef="0" IVar="-1" Cut="0.0e+00" cType="1" res="0.00529672904" rms="0.0e+00" purity="0.0e+00" nType="-99" /></Node><Node pos="r" depth="3" NCoef="0" IVar="-1" Cut="0.0e+00" cType="1" res="0.00889929943" rms="0.0e+00" purity="0.0e+00" nType="-99" /></Node></Node></Node></BinaryTree><BinaryTree type="DecisionTree" boostWeight="1.0e+00" itree="21"><Node pos="s" depth="0" NCoef="0" IVar="7" Cut="5.5" cType="1" res="0.0e+00" rms="0.0e+00" purity="0.0e+00" nType="0"><Node pos="l" depth="1" NCoef="0" IVar="2" Cut="32.5" cType="1" res="0.0e+00" rms="0.0e+00" purity="0.0e+00" nType="0"><Node pos="l" depth="2" NCoef="0" IVar="10" Cut="16.5" cType="1" res="0.0e+00" rms="0.0e+00" purity="0.0e+00" nType="0"><Node pos="l" depth="3" NCoef="0" IVar="3" Cut="18.5" cType="1" res="0.0e+00" rms="0.0e+00" purity="0.0e+00" nType="0"><Node pos="l" depth="4" NCoef="0" IVar="-1" Cut="0.0e+00" cType="1" res="-0.00580332428" rms="0.0e+00" purity="0.0e+00" nType="-99" /><Node pos="r" depth="4" NCoef="0" IVar="-1" Cut="0.0e+00" cType="1" res="0.00693200156" rms="0.0e+00" purity="0.0e+00" nType="-99" /></Node><Node pos="r" depth="3" NCoef="0" IVar="10" Cut="21.5" cType="1" res="0.0e+00" rms="0.0e+00" purity="0.0e+00" nType="0"><Node pos="l" depth="4" NCoef="0" IVar="-1" Cut="0.0e+00" cType="1" res="0.00338751427" rms="0.0e+00" purity="0.0e+00" nType="-99" /><Node pos="r" depth="4" NCoef="0" IVar="-1" Cut="0.0e+00" cType="1" res="0.00854311604" rms="0.0e+00" purity="0.0e+00" nType="-99" /></Node></Node><Node pos="r" depth="2" NCoef="0" IVar="2" Cut="48.5" cType="1" res="0.0e+00" rms="0.0e+00" purity="0.0e+00" nType="0"><Node pos="l" depth="3" NCoef="0" IVar="11" Cut="8.5" cType="1" res="0.0e+00" rms="0.0e+00" purity="0.0e+00" nType="0"><Node pos="l" depth="4" NCoef="0" IVar="-1" Cut="0.0e+00" cType="1" res="0.0063988748" rms="0.0e+00" purity="0.0e+00" nType="-99" /><Node pos="r" depth="4" NCoef="0" IVar="-1" Cut="0.0e+00" cType="1" res="-0.000857903913" rms="0.0e+00" purity="0.0e+00" nType="-99" /></Node><Node pos="r" depth="3" NCoef="0" IVar="2" Cut="60.5" cType="1" res="0.0e+00" rms="0.0e+00" purity="0.0e+00" nType="0"><Node pos="l" depth="4" NCoef="0" IVar="-1" Cut="0.0e+00" cType="1" res="0.00792505872" rms="0.0e+00" purity="0.0e+00" nType="-99" /><Node pos="r" depth="4" NCoef="0" IVar="-1" Cut="0.0e+00" cType="1" res="0.00949542783" rms="0.0e+00" purity="0.0e+00" nType="-99" /></Node></Node></Node><Node pos="r" depth="1" NCoef="0" IVar="7" Cut="7.5" cType="1" res="0.0e+00" rms="0.0e+00" purity="0.0e+00" nType="0"><Node pos="l" depth="2" NCoef="0" IVar="3" Cut="16.5" cType="1" res="0.0e+00" rms="0.0e+00" purity="0.0e+00" nType="0"><Node pos="l" depth="3" NCoef="0" IVar="6" Cut="11.5" cType="1" res="0.0e+00" rms="0.0e+00" purity="0.0e+00" nType="0"><Node pos="l" depth="4" NCoef="0" IVar="-1" Cut="0.0e+00" cType="1" res="-0.00131815474" rms="0.0e+00" purity="0.0e+00" nType="-99" /><Node pos="r" depth="4" NCoef="0" IVar="-1" Cut="0.0e+00" cType="1" res="0.00788959768" rms="0.0e+00" purity="0.0e+00" nType="-99" /></Node><Node pos="r" depth="3" NCoef="0" IVar="3" Cut="19.5" cType="1" res="0.0e+00" rms="0.0e+00" purity="0.0e+00" nType="0"><Node pos="l" depth="4" NCoef="0" IVar="-1" Cut="0.0e+00" cType="1" res="0.00455021812" rms="0.0e+00" purity="0.0e+00" nType="-99" /><Node pos="r" depth="4" NCoef="0" IVar="-1" Cut="0.0e+00" cType="1" res="0.00873064622" rms="0.0e+00" purity="0.0e+00" nType="-99" /></Node></Node><Node pos="r" depth="2" NCoef="0" IVar="7" Cut="9.5" cType="1" res="0.0e+00" rms="0.0e+00" purity="0.0e+00" nType="0"><Node pos="l" depth="3" NCoef="0" IVar="3" Cut="16.5" cType="1" res="0.0e+00" rms="0.0e+00" purity="0.0e+00" nType="0"><Node pos="l" depth="4" NCoef="0" IVar="-1" Cut="0.0e+00" cType="1" res="0.00475339871" rms="0.0e+00" purity="0.0e+00" nType="-99" /><Node pos="r" depth="4" NCoef="0" IVar="-1" Cut="0.0e+00" cType="1" res="0.00869489182" rms="0.0e+00" purity="0.0e+00" nType="-99" /></Node><Node pos="r" depth="3" NCoef="0" IVar="7" Cut="11.5" cType="1" res="0.0e+00" rms="0.0e+00" purity="0.0e+00" nType="0"><Node pos="l" depth="4" NCoef="0" IVar="-1" Cut="0.0e+00" cType="1" res="0.00774311693" rms="0.0e+00" purity="0.0e+00" nType="-99" /><Node pos="r" depth="4" NCoef="0" IVar="-1" Cut="0.0e+00" cType="1" res="0.00893517397" rms="0.0e+00" purity="0.0e+00" nType="-99" /></Node></Node></Node></Node></BinaryTree><BinaryTree type="DecisionTree" boostWeight="1.0e+00" itree="22"><Node pos="s" depth="0" NCoef="0" IVar="7" Cut="5.5" cType="1" res="0.0e+00" rms="0.0e+00" purity="0.0e+00" nType="0"><Node pos="l" depth="1" NCoef="0" IVar="6" Cut="12.5" cType="1" res="0.0e+00" rms="0.0e+00" purity="0.0e+00" nType="0"><Node pos="l" depth="2" NCoef="0" IVar="3" Cut="13.5" cType="1" res="0.0e+00" rms="0.0e+00" purity="0.0e+00" nType="0"><Node pos="l" depth="3" NCoef="0" IVar="10" Cut="18.5" cType="1" res="0.0e+00" rms="0.0e+00" purity="0.0e+00" nType="0"><Node pos="l" depth="4" NCoef="0" IVar="-1" Cut="0.0e+00" cType="1" res="-0.00578132877" rms="0.0e+00" purity="0.0e+00" nType="-99" /><Node pos="r" depth="4" NCoef="0" IVar="-1" Cut="0.0e+00" cType="1" res="0.00767240906" rms="0.0e+00" purity="0.0e+00" nType="-99" /></Node><Node pos="r" depth="3" NCoef="0" IVar="3" Cut="24.5" cType="1" res="0.0e+00" rms="0.0e+00" purity="0.0e+00" nType="0"><Node pos="l" depth="4" NCoef="0" IVar="-1" Cut="0.0e+00" cType="1" res="0.00167674467" rms="0.0e+00" purity="0.0e+00" nType="-99" /><Node pos="r" depth="4" NCoef="0" IVar="-1" Cut="0.0e+00" cType="1" res="0.00860823039" rms="0.0e+00" purity="0.0e+00" nType="-99" /></Node></Node><Node pos="r" depth="2" NCoef="0" IVar="6" Cut="16.5" cType="1" res="0.0e+00" rms="0.0e+00" purity="0.0e+00" nType="0"><Node pos="l" depth="3" NCoef="0" IVar="2" Cut="28.5" cType="1" res="0.0e+00" rms="0.0e+00" purity="0.0e+00" nType="0"><Node pos="l" depth="4" NCoef="0" IVar="-1" Cut="0.0e+00" cType="1" res="0.00091043592" rms="0.0e+00" purity="0.0e+00" nType="-99" /><Node pos="r" depth="4" NCoef="0" IVar="-1" Cut="0.0e+00" cType="1" res="0.00848805998" rms="0.0e+00" purity="0.0e+00" nType="-99" /></Node><Node pos="r" depth="3" NCoef="0" IVar="6" Cut="21.5" cType="1" res="0.0e+00" rms="0.0e+00" purity="0.0e+00" nType="0"><Node pos="l" depth="4" NCoef="0" IVar="-1" Cut="0.0e+00" cType="1" res="0.00672830688" rms="0.0e+00" purity="0.0e+00" nType="-99" /><Node pos="r" depth="4" NCoef="0" IVar="-1" Cut="0.0e+00" cType="1" res="0.00894421246" rms="0.0e+00" purity="0.0e+00" nType="-99" /></Node></Node></Node><Node pos="r" depth="1" NCoef="0" IVar="7" Cut="7.5" cType="1" res="0.0e+00" rms="0.0e+00" purity="0.0e+00" nType="0"><Node pos="l" depth="2" NCoef="0" IVar="3" Cut="16.5" cType="1" res="0.0e+00" rms="0.0e+00" purity="0.0e+00" nType="0"><Node pos="l" depth="3" NCoef="0" IVar="6" Cut="11.5" cType="1" res="0.0e+00" rms="0.0e+00" purity="0.0e+00" nType="0"><Node pos="l" depth="4" NCoef="0" IVar="-1" Cut="0.0e+00" cType="1" res="-0.00131160417" rms="0.0e+00" purity="0.0e+00" nType="-99" /><Node pos="r" depth="4" NCoef="0" IVar="-1" Cut="0.0e+00" cType="1" res="0.00785615295" rms="0.0e+00" purity="0.0e+00" nType="-99" /></Node><Node pos="r" depth="3" NCoef="0" IVar="3" Cut="19.5" cType="1" res="0.0e+00" rms="0.0e+00" purity="0.0e+00" nType="0"><Node pos="l" depth="4" NCoef="0" IVar="-1" Cut="0.0e+00" cType="1" res="0.00453071995" rms="0.0e+00" purity="0.0e+00" nType="-99" /><Node pos="r" depth="4" NCoef="0" IVar="-1" Cut="0.0e+00" cType="1" res="0.00869483594" rms="0.0e+00" purity="0.0e+00" nType="-99" /></Node></Node><Node pos="r" depth="2" NCoef="0" IVar="7" Cut="9.5" cType="1" res="0.0e+00" rms="0.0e+00" purity="0.0e+00" nType="0"><Node pos="l" depth="3" NCoef="0" IVar="3" Cut="16.5" cType="1" res="0.0e+00" rms="0.0e+00" purity="0.0e+00" nType="0"><Node pos="l" depth="4" NCoef="0" IVar="-1" Cut="0.0e+00" cType="1" res="0.00473089004" rms="0.0e+00" purity="0.0e+00" nType="-99" /><Node pos="r" depth="4" NCoef="0" IVar="-1" Cut="0.0e+00" cType="1" res="0.00865911134" rms="0.0e+00" purity="0.0e+00" nType="-99" /></Node><Node pos="r" depth="3" NCoef="0" IVar="7" Cut="11.5" cType="1" res="0.0e+00" rms="0.0e+00" purity="0.0e+00" nType="0"><Node pos="l" depth="4" NCoef="0" IVar="-1" Cut="0.0e+00" cType="1" res="0.00770981051" rms="0.0e+00" purity="0.0e+00" nType="-99" /><Node pos="r" depth="4" NCoef="0" IVar="-1" Cut="0.0e+00" cType="1" res="0.00889852922" rms="0.0e+00" purity="0.0e+00" nType="-99" /></Node></Node></Node></Node></BinaryTree><BinaryTree type="DecisionTree" boostWeight="1.0e+00" itree="23"><Node pos="s" depth="0" NCoef="0" IVar="7" Cut="5.5" cType="1" res="0.0e+00" rms="0.0e+00" purity="0.0e+00" nType="0"><Node pos="l" depth="1" NCoef="0" IVar="2" Cut="32.5" cType="1" res="0.0e+00" rms="0.0e+00" purity="0.0e+00" nType="0"><Node pos="l" depth="2" NCoef="0" IVar="10" Cut="16.5" cType="1" res="0.0e+00" rms="0.0e+00" purity="0.0e+00" nType="0"><Node pos="l" depth="3" NCoef="0" IVar="3" Cut="18.5" cType="1" res="0.0e+00" rms="0.0e+00" purity="0.0e+00" nType="0"><Node pos="l" depth="4" NCoef="0" IVar="-1" Cut="0.0e+00" cType="1" res="-0.00575184869" rms="0.0e+00" purity="0.0e+00" nType="-99" /><Node pos="r" depth="4" NCoef="0" IVar="-1" Cut="0.0e+00" cType="1" res="0.00686987909" rms="0.0e+00" purity="0.0e+00" nType="-99" /></Node><Node pos="r" depth="3" NCoef="0" IVar="10" Cut="22.5" cType="1" res="0.0e+00" rms="0.0e+00" purity="0.0e+00" nType="0"><Node pos="l" depth="4" NCoef="0" IVar="-1" Cut="0.0e+00" cType="1" res="0.00370210339" rms="0.0e+00" purity="0.0e+00" nType="-99" /><Node pos="r" depth="4" NCoef="0" IVar="-1" Cut="0.0e+00" cType="1" res="0.00861281157" rms="0.0e+00" purity="0.0e+00" nType="-99" /></Node></Node><Node pos="r" depth="2" NCoef="0" IVar="2" Cut="48.5" cType="1" res="0.0e+00" rms="0.0e+00" purity="0.0e+00" nType="0"><Node pos="l" depth="3" NCoef="0" IVar="11" Cut="9.5" cType="1" res="0.0e+00" rms="0.0e+00" purity="0.0e+00" nType="0"><Node pos="l" depth="4" NCoef="0" IVar="-1" Cut="0.0e+00" cType="1" res="0.00597779686" rms="0.0e+00" purity="0.0e+00" nType="-99" /><Node pos="r" depth="4" NCoef="0" IVar="-1" Cut="0.0e+00" cType="1" res="-0.00198483537" rms="0.0e+00" purity="0.0e+00" nType="-99" /></Node><Node pos="r" depth="3" NCoef="0" IVar="2" Cut="60.5" cType="1" res="0.0e+00" rms="0.0e+00" purity="0.0e+00" nType="0"><Node pos="l" depth="4" NCoef="0" IVar="-1" Cut="0.0e+00" cType="1" res="0.0078931516" rms="0.0e+00" purity="0.0e+00" nType="-99" /><Node pos="r" depth="4" NCoef="0" IVar="-1" Cut="0.0e+00" cType="1" res="0.00944927614" rms="0.0e+00" purity="0.0e+00" nType="-99" /></Node></Node></Node><Node pos="r" depth="1" NCoef="0" IVar="7" Cut="8.5" cType="1" res="0.0e+00" rms="0.0e+00" purity="0.0e+00" nType="0"><Node pos="l" depth="2" NCoef="0" IVar="3" Cut="16.5" cType="1" res="0.0e+00" rms="0.0e+00" purity="0.0e+00" nType="0"><Node pos="l" depth="3" NCoef="0" IVar="6" Cut="11.5" cType="1" res="0.0e+00" rms="0.0e+00" purity="0.0e+00" nType="0"><Node pos="l" depth="4" NCoef="0" IVar="-1" Cut="0.0e+00" cType="1" res="-0.000460605166" rms="0.0e+00" purity="0.0e+00" nType="-99" /><Node pos="r" depth="4" NCoef="0" IVar="-1" Cut="0.0e+00" cType="1" res="0.00793298613" rms="0.0e+00" purity="0.0e+00" nType="-99" /></Node><Node pos="r" depth="3" NCoef="0" IVar="3" Cut="19.5" cType="1" res="0.0e+00" rms="0.0e+00" purity="0.0e+00" nType="0"><Node pos="l" depth="4" NCoef="0" IVar="-1" Cut="0.0e+00" cType="1" res="0.00480597559" rms="0.0e+00" purity="0.0e+00" nType="-99" /><Node pos="r" depth="4" NCoef="0" IVar="-1" Cut="0.0e+00" cType="1" res="0.00873412564" rms="0.0e+00" purity="0.0e+00" nType="-99" /></Node></Node><Node pos="r" depth="2" NCoef="0" IVar="7" Cut="10.5" cType="1" res="0.0e+00" rms="0.0e+00" purity="0.0e+00" nType="0"><Node pos="l" depth="3" NCoef="0" IVar="11" Cut="8.5" cType="1" res="0.0e+00" rms="0.0e+00" purity="0.0e+00" nType="0"><Node pos="l" depth="4" NCoef="0" IVar="-1" Cut="0.0e+00" cType="1" res="0.00796112977" rms="0.0e+00" purity="0.0e+00" nType="-99" /><Node pos="r" depth="4" NCoef="0" IVar="-1" Cut="0.0e+00" cType="1" res="0.00521414867" rms="0.0e+00" purity="0.0e+00" nType="-99" /></Node><Node pos="r" depth="3" NCoef="0" IVar="-1" Cut="0.0e+00" cType="1" res="0.00879018474" rms="0.0e+00" purity="0.0e+00" nType="-99" /></Node></Node></Node></BinaryTree><BinaryTree type="DecisionTree" boostWeight="1.0e+00" itree="24"><Node pos="s" depth="0" NCoef="0" IVar="7" Cut="5.5" cType="1" res="0.0e+00" rms="0.0e+00" purity="0.0e+00" nType="0"><Node pos="l" depth="1" NCoef="0" IVar="6" Cut="12.5" cType="1" res="0.0e+00" rms="0.0e+00" purity="0.0e+00" nType="0"><Node pos="l" depth="2" NCoef="0" IVar="3" Cut="13.5" cType="1" res="0.0e+00" rms="0.0e+00" purity="0.0e+00" nType="0"><Node pos="l" depth="3" NCoef="0" IVar="10" Cut="17.5" cType="1" res="0.0e+00" rms="0.0e+00" purity="0.0e+00" nType="0"><Node pos="l" depth="4" NCoef="0" IVar="-1" Cut="0.0e+00" cType="1" res="-0.00574695878" rms="0.0e+00" purity="0.0e+00" nType="-99" /><Node pos="r" depth="4" NCoef="0" IVar="-1" Cut="0.0e+00" cType="1" res="0.00714306347" rms="0.0e+00" purity="0.0e+00" nType="-99" /></Node><Node pos="r" depth="3" NCoef="0" IVar="3" Cut="24.5" cType="1" res="0.0e+00" rms="0.0e+00" purity="0.0e+00" nType="0"><Node pos="l" depth="4" NCoef="0" IVar="-1" Cut="0.0e+00" cType="1" res="0.00166356936" rms="0.0e+00" purity="0.0e+00" nType="-99" /><Node pos="r" depth="4" NCoef="0" IVar="-1" Cut="0.0e+00" cType="1" res="0.00854086317" rms="0.0e+00" purity="0.0e+00" nType="-99" /></Node></Node><Node pos="r" depth="2" 