{"sigmanet.sigma": [2.0], "sigmanet.nn.0.bias": [0.5206652283668518, -2.366267442703247, -0.9154062867164612, 0.9729861617088318, -0.9017170667648315, 3.675436019897461, 3.430645227432251, 0.49404820799827576, -3.373781204223633, 0.04277462139725685, -1.8224127292633057, 1.0097776651382446, -0.9421036243438721, -4.081305503845215, 1.2167298793792725, -1.5055166482925415, 1.3404194116592407, -1.1754835844039917, 0.9998877048492432, -1.1976618766784668], "sigmanet.nn.0.parametrizations.weight.original": [[1.2599210739135742, -1.2599210739135742, -1.2599210739135742, -1.2599210739135742, -1.2599210739135742, -1.2599210739135742], [1.2599210739135742, 1.2599210739135742, 0.22756823897361755, -1.2599210739135742, -1.2599210739135742, -1.2599210739135742], [-1.2599210739135742, -1.2599210739135742, 0.16236497461795807, 1.2599210739135742, 1.2599210739135742, 1.2599210739135742], [1.2599210739135742, 1.2599210739135742, -0.1572800874710083, -1.2599210739135742, -1.2599210739135742, -1.2599210739135742], [-1.2599210739135742, -1.2599210739135742, 0.16443151235580444, 1.2599210739135742, 1.2599210739135742, 1.2599210739135742], [1.2599210739135742, 1.2599210739135742, 1.2599210739135742, -1.2599210739135742, -1.2599210739135742, -1.2599210739135742], [1.2599210739135742, 1.2599210739135742, 0.4575207829475403, -1.2599210739135742, -1.2599210739135742, -1.2599210739135742], [1.2599210739135742, 1.2599211931228638, -0.08834777772426605, 1.2599210739135742, -1.2599210739135742, -1.2599210739135742], [1.2599210739135742, -0.41281402111053467, -1.2599210739135742, 1.2599210739135742, -1.2599210739135742, -1.2599210739135742], [1.2599210739135742, 1.2599210739135742, -0.4954410195350647, -1.2599210739135742, -1.2599210739135742, -1.2599210739135742], [-1.2599210739135742, -1.2599210739135742, 0.07419673353433609, 1.2599210739135742, 1.2599210739135742, 1.2599210739135742], [1.2599210739135742, 1.2599209547042847, -0.1507795751094818, -1.2599209547042847, -1.2599210739135742, -1.2599210739135742], [-1.2599210739135742, -1.2599210739135742, 0.15896955132484436, 1.2599211931228638, 1.2599210739135742, 1.2599211931228638], [1.2599210739135742, 1.2599210739135742, -1.2599210739135742, -1.2599210739135742, -1.2599210739135742, -1.2599210739135742], [1.2599210739135742, 1.2599211931228638, -0.13420537114143372, -1.2599210739135742, -1.2599210739135742, -1.2599210739135742], [-1.2599210739135742, -1.2599210739135742, 0.10600801557302475, 1.2599210739135742, 1.2599210739135742, 1.2599210739135742], [1.2599210739135742, 1.2599210739135742, -0.12110517174005508, -1.2599210739135742, -1.2599210739135742, -1.2599210739135742], [-1.2599210739135742, -1.2599210739135742, 0.13564880192279816, 1.2599210739135742, 1.2599210739135742, 1.2599210739135742], [1.2599210739135742, 1.2599209547042847, -0.155514195561409, -1.2599210739135742, -1.2599210739135742, -1.2599210739135742], [-1.2599210739135742, -1.2599210739135742, 0.135470911860466, 1.2599210739135742, 1.2599210739135742, 1.2599210739135742]], "sigmanet.nn.2.bias": [1.3867645263671875, -1.9284948110580444, 1.9667162895202637, -1.025547742843628, -0.9279680848121643, -0.6834306716918945, 1.63491952419281, -2.0909314155578613, 0.48064523935317993, -0.36388489603996277, -1.446355938911438, 1.5307122468948364, -0.3877420127391815, 1.0901840925216675, 0.8588975667953491, -0.33425039052963257, -0.4679620862007141, 0.3686732351779938, -0.4726046919822693, 0.8962329030036926], "sigmanet.nn.2.parametrizations.weight.original": [[0.0031805923208594322, 0.16947655379772186, -0.003501158906146884, 0.0028459597378969193, -0.0027582633774727583, 0.2937893867492676, 0.0005104899173602462, 0.20060068368911743, 0.0007026497041806579, 0.183630108833313, -0.0018541988683864474, 0.0030509119387716055, -0.0025665846187621355, 0.3739558458328247, -0.0030950624495744705, 0.0026358235627412796, -0.002813827944919467, 0.0030179298482835293, -0.0029757048469036818, 0.0029592900536954403], [0.0005637469002977014, 0.3723791837692261, -0.0003250142326578498, 0.0005121048307046294, -0.0005611040396615863, 0.10627224296331406, 0.0005451802280731499, 0.2747696340084076, 0.00017159577691927552, 0.4999367892742157, -0.0005281750345602632, 0.0002406270505161956, -0.00025783132878132164, 0.0003164993831887841, -0.0004651709459722042, 0.00020554095681291074, -0.0004034352023154497, 0.00023378958576358855, -0.0006028519128449261, 0.0006306153372861445], [0.014408987015485764, 0.17962296307086945, -0.003375438740476966, 0.002980724675580859, -0.0028974798042327166, 0.31739312410354614, 0.0004869131080340594, 0.13381421566009521, 0.0005140676512382925, 0.20633578300476074, -0.0013290770584717393, 0.0026613741647452116, -0.001863806857727468, 0.37730729579925537, -0.0025280010886490345, 0.0025818331632763147, -0.0023646194022148848, 0.0024323344696313143, -0.002899167826399207, 0.002123819664120674], [0.0007350678206421435, 0.4374481439590454, -0.0005165170296095312, 0.00022433086996898055, -0.0005982355796732008, 0.14136207103729248, 0.0008123975130729377, 0.2058013379573822, 0.0002055603836197406, 0.46748045086860657, -0.000549191317986697, 0.0006790041225031018, -0.00046994161675684154, 0.00018407536845188588, -0.0003811768547166139, 0.00047952716704458, -0.0006741977413184941, 0.00018580193864181638, -0.0004904156667180359, 0.0006437411648221314], [-0.0006351643824018538, -0.2713702917098999, 0.0002350666472921148, -0.00018573943816591054, 0.0006319612730294466, -0.2758767902851105, -0.0003360111149959266, -0.16238275170326233, -0.000318635196890682, -0.254927396774292, 0.0003372466890141368, -0.0005424728733487427, 0.00021432308130897582, -0.28995487093925476, 0.0005411976599134505, -0.000365159910870716, 0.0005191693780943751, -0.00014386496332008392, 0.0002602839085739106, -0.0001425722730346024], [-0.0012716517085209489, -0.29825329780578613, 0.00038152141496539116, -0.0006834814557805657, 0.00041544073610566556, -0.24660544097423553, -0.0003998533939011395, -0.16983629763126373, -0.0002907492162194103, -0.32132387161254883, 0.0005009821616113186, -0.00033264406374655664, 0.0004638978571165353, -0.21603834629058838, 0.00027465258608572185, -0.0007716019754298031, 0.0003917591238860041, -0.0007635880610905588, 0.00038194379885680974, -0.0005400749505497515], [0.0008929893956519663, 0.261689156293869, -0.0013589445734396577, 0.0014809616841375828, -0.001262986334040761, 0.3127164840698242, 0.0006610469426959753, 0.13694676756858826, 0.0006925769266672432, 0.11908458918333054, -0.0017817929619923234, 0.0012870525242760777, -0.0018716504564508796, 0.4087916910648346, -0.0009924366604536772, 0.0012719581136479974, -0.0013382502365857363, 0.002098374767228961, -0.001782499486580491, 0.0019187936559319496], [0.00044520164374262094, 0.4374306797981262, -0.00028269761241972446, 0.00010112151358043775, -0.00026758533203974366, 0.10393219441175461, 0.00045369219151325524, 0.21390996873378754, 0.0005076551460660994, 0.4993933439254761, -0.00035503064282238483, 0.0005256786243990064, -0.00035114356433041394, 8.632638491690159e-05, -0.0004318455758038908, 0.0002900234831031412, -0.00022349796199705452, 0.00035791523987427354, -0.0003157110477332026, 0.00025986606488004327], [0.0008727307431399822, 0.20760475099086761, -0.0008773738518357277, 0.00045098134432919323, -0.0005345706013031304, 0.25301897525787354, 0.00034393780515529215, 0.197105273604393, 0.00039469663170166314, 0.3648090362548828, -0.00034061408950947225, 0.00012928144133184105, -0.0008368106209672987, 0.2284279763698578, -0.0004643133725039661, 0.0006099112797528505, -0.0008178509306162596, 0.000680532306432724, -0.0008022355032153428, 0.0007993285544216633], [-0.0007131057209335268, -0.2254699319601059, 0.0008382220985367894, -0.00048827589489519596, 0.0006494856788776815, -0.2515842318534851, -0.00037689125747419894, -0.1686934530735016, -0.00040899423765949905, -0.3644547164440155, 0.0006857486441731453, -0.00027465494349598885, 0.0005804250249639153, -0.241226926445961, 0.00042661477345973253, -0.0004931602743454278, 0.0005722592468373477, -0.0006179359625093639, 0.0008177603012882173, -0.00054834911134094], [-0.0008231744868680835, -0.3249482214450836, 0.0018825412262231112, -0.0023434364702552557, 0.0029310323297977448, -0.2871357500553131, -0.0004285300674382597, -0.12683561444282532, -0.0005540283164009452, -0.09376462548971176, 0.0031992020085453987, -0.002394221257418394, 0.0028225178830325603, -0.39432939887046814, 0.002929073991253972, -0.0026325059588998556, 0.0026781950145959854, -0.002812509424984455, 0.0021144631318747997, -0.0023620971478521824], [-0.0004111075249966234, -0.4854481518268585, 0.0005417598295025527, -0.0003834651142824441, 0.0002113554801326245, -0.12365855276584625, -0.0003568517859093845, -0.1716427206993103, -0.0001463788066757843, -0.46437761187553406, 0.0005500614643096924, -0.00028991035651415586, 0.0003700907982420176, -0.009779791347682476, 0.0003336590016260743, -0.00033002719283103943, 0.00012247382255736738, -0.00035194700467400253, 0.00027622992638498545, -0.0003388967888895422], [0.004046648275107145, 0.3527793884277344, 0.00025621175882406533, 0.0007000177283771336, -0.0004714539390988648, 0.1759415715932846, 0.0030682310461997986, 0.23889869451522827, 0.00020217770361341536, 0.3759467601776123, -0.00046084928908385336, 0.00034869040246121585, -0.00045314838644117117, 0.10425575822591782, -0.0002551164070609957, 0.00026368742692284286, -0.00044408865505829453, 0.0003423411981202662, -0.0004406481748446822, 0.00034556948230601847], [0.010416035540401936, 0.25990569591522217, -0.002066804328933358, 0.002011263510212302, -0.0022965280804783106, 0.25855323672294617, 0.0006242422969080508, 0.18183790147304535, 0.0005156390834599733, 0.2541571855545044, -0.0021449364721775055, 0.0027941016014665365, -0.0022061264608055353, 0.26611247658729553, -0.0026078836526721716, 0.002103721024468541, -0.002631345298141241, 0.0025144952815026045, -0.0020922317635267973, 0.0023292284458875656], [0.00044133575283922255, 0.1809946894645691, -0.000540802488103509, 0.0003091028775088489, -0.0003019706055056304, 0.14192302525043488, 0.05526754632592201, 0.1587243527173996, 0.27945640683174133, 0.26438164710998535, -0.00042245080112479627, 0.000606014858931303, -0.00033062699367292225, 0.1739872246980667, -0.0006692296010442078, 0.00020028666767757386, -0.000312231743009761, 0.0004995164345018566, -0.00022505762171931565, 0.0003275976050645113], [0.03181710094213486, 0.21282365918159485, -0.039848994463682175, 0.034520041197538376, -0.038733772933483124, 0.17107515037059784, 0.00018338106747251004, 0.08751531690359116, 8.335334132425487e-05, 0.1399173140525818, -0.028752382844686508, 0.02927633561193943, -0.03049289435148239, 0.21116819977760315, -0.034165289252996445, 0.032374415546655655, -0.03395656496286392, 0.03229251503944397, -0.0343082919716835, 0.03661615774035454], [-0.0005891600740142167, -0.2431952953338623, 0.0007127314456738532, -0.0007398058660328388, 0.0005982138100080192, -0.2780766785144806, -0.0003347048768773675, -0.11245940625667572, -0.0005103760049678385, -0.35345640778541565, 0.0006128221284598112, -0.0006069957744330168, 0.00035107930307276547, -0.2652512490749359, 0.0003473551769275218, -0.0004981869133189321, 0.0004787674406543374, -0.00040177098708227277, 0.00048650099779479206, -0.0002136013936251402], [0.0006488716462627053, 0.23025265336036682, -0.00027009088080376387, 0.000697870331350714, -0.0004878048493992537, 0.26152491569519043, 0.0003229705907870084, 0.13557538390159607, 0.0005406391574069858, 0.37980037927627563, -0.0003552217094693333, 0.0007219478720799088, -0.0003810677444562316, 0.2451307624578476, -0.0006178373005241156, 0.0006824263255111873, -0.0006142182974144816, 0.0002963461447507143, -0.0005433748010545969, 0.00045629855594597757], [-0.000722420634701848, -0.24561339616775513, 0.0006379635306075215, -0.0006384601001627743, 0.0006112987757660449, -0.2544533312320709, -0.0004098285862710327, -0.1691647171974182, -0.0005697515443898737, -0.34473153948783875, 0.0006023392197676003, -0.00033466206514276564, 0.0006813041982240975, -0.23763634264469147, 0.0004114695475436747, -0.0004601411637850106, 0.0004431545385159552, -0.0006003607995808125, 0.0004968239809386432, -0.0007016630261205137], [0.000804026669356972, 0.2347402572631836, -0.00048042632988654077, 0.0004299072897993028, -0.00037255079951137304, 0.28836721181869507, 0.0006343798013404012, 0.12197554856538773, 0.0005947722238488495, 0.36561867594718933, -0.0005539847770705819, 0.0005297734751366079, -0.0006739660166203976, 0.24053674936294556, -0.00010065249807666987, 0.0008766319369897246, -0.0003445341717451811, 0.0009019215358421206, -0.0007522875093854964, 0.0006326626753434539]], "sigmanet.nn.4.bias": [-0.503736138343811], "sigmanet.nn.4.parametrizations.weight.original": [[-5.753457662649453e-05, -0.07882317900657654, -0.00010089713032357395, -0.06253878027200699, 9.898153075482696e-05, 8.417913340963423e-05, -7.598720549140126e-05, -0.10826466977596283, 0.09018939733505249, -0.08231081068515778, 0.08798032253980637, 0.0001212936476804316, -0.00012947684444952756, -0.01179829053580761, -8.353888551937416e-05, -0.038306087255477905, 0.32839882373809814, -0.15797516703605652, 0.12155532836914062, -0.0910283625125885]]}