<?xml version="1.0"?>
<MethodSetup Method="BDT::BDT">
  <GeneralInfo>
    <Info name="TMVA Release" value="4.2.1 [262657]"/>
    <Info name="ROOT Release" value="6.28/00 [400384]"/>
    <Info name="Creator" value="martorel"/>
    <Info name="Date" value="Thu Mar 13 14:27:15 2025"/>
    <Info name="Host" value="Linux 5c69bacf21f2 5.15.0-1033-azure #40-Ubuntu SMP Mon Jan 23 20:36:59 UTC 2023 x86_64 x86_64 x86_64 GNU/Linux"/>
    <Info name="Dir" value="/afs/cern.ch/work/m/martorel/radincl"/>
    <Info name="Training events" value="170233"/>
    <Info name="TrainingTime" value="2.30270228e+01"/>
    <Info name="AnalysisType" value="Classification"/>
  </GeneralInfo>
  <Options>
    <Option name="V" modified="No">False</Option>
    <Option name="VerbosityLevel" modified="No">Default</Option>
    <Option name="VarTransform" modified="No">None</Option>
    <Option name="H" modified="No">False</Option>
    <Option name="CreateMVAPdfs" modified="Yes">True</Option>
    <Option name="IgnoreNegWeightsInTraining" modified="No">False</Option>
    <Option name="NTrees" modified="Yes">400</Option>
    <Option name="MaxDepth" modified="Yes">2</Option>
    <Option name="MinNodeSize" modified="No">5%</Option>
    <Option name="nCuts" modified="No">20</Option>
    <Option name="BoostType" modified="No">AdaBoost</Option>
    <Option name="AdaBoostR2Loss" modified="No">quadratic</Option>
    <Option name="UseBaggedBoost" modified="No">False</Option>
    <Option name="Shrinkage" modified="No">1.000000e+00</Option>
    <Option name="AdaBoostBeta" modified="No">5.000000e-01</Option>
    <Option name="UseRandomisedTrees" modified="No">False</Option>
    <Option name="UseNvars" modified="No">3</Option>
    <Option name="UsePoissonNvars" modified="No">True</Option>
    <Option name="BaggedSampleFraction" modified="No">6.000000e-01</Option>
    <Option name="UseYesNoLeaf" modified="No">True</Option>
    <Option name="NegWeightTreatment" modified="No">inverseboostnegweights</Option>
    <Option name="Css" modified="No">1.000000e+00</Option>
    <Option name="Cts_sb" modified="No">1.000000e+00</Option>
    <Option name="Ctb_ss" modified="No">1.000000e+00</Option>
    <Option name="Cbb" modified="No">1.000000e+00</Option>
    <Option name="NodePurityLimit" modified="No">5.000000e-01</Option>
    <Option name="SeparationType" modified="No">giniindex</Option>
    <Option name="RegressionLossFunctionBDTG" modified="No">huber</Option>
    <Option name="HuberQuantile" modified="No">7.000000e-01</Option>
    <Option name="DoBoostMonitor" modified="No">False</Option>
    <Option name="UseFisherCuts" modified="No">False</Option>
    <Option name="MinLinCorrForFisher" modified="No">8.000000e-01</Option>
    <Option name="UseExclusiveVars" modified="No">False</Option>
    <Option name="DoPreselection" modified="No">False</Option>
    <Option name="SigToBkgFraction" modified="No">1.000000e+00</Option>
    <Option name="PruneMethod" modified="No">nopruning</Option>
    <Option name="PruneStrength" modified="No">0.000000e+00</Option>
    <Option name="PruningValFraction" modified="No">5.000000e-01</Option>
    <Option name="SkipNormalization" modified="No">False</Option>
    <Option name="nEventsMin" modified="No">0</Option>
    <Option name="UseBaggedGrad" modified="No">False</Option>
    <Option name="GradBaggingFraction" modified="No">6.000000e-01</Option>
    <Option name="UseNTrainEvents" modified="No">0</Option>
    <Option name="NNodesMax" modified="No">0</Option>
  </Options>
  <Variables NVar="6">
    <Variable VarIndex="0" Expression="B_fdchi2" Label="B_fdchi2" Title="B_fdchi2" Unit="" Internal="B_fdchi2" Type="F" Min="2.70610237e+00" Max="8.91282959e+01"/>
    <Variable VarIndex="1" Expression="B_ipchi2" Label="B_ipchi2" Title="B_ipchi2" Unit="" Internal="B_ipchi2" Type="F" Min="-9.67006207e+00" Max="8.91282959e+01"/>
    <Variable VarIndex="2" Expression="B_ipchi2_min" Label="B_ipchi2_min" Title="B_ipchi2_min" Unit="" Internal="B_ipchi2_min" Type="F" Min="-8.57143402e+00" Max="1.25761709e+01"/>
    <Variable VarIndex="3" Expression="B_vtx_chi2" Label="B_vtx_chi2" Title="B_vtx_chi2" Unit="" Internal="B_vtx_chi2" Type="F" Min="-2.58340931e+01" Max="2.19719052e+00"/>
    <Variable VarIndex="4" Expression="B_doca" Label="B_doca" Title="B_doca" Unit="" Internal="B_doca" Type="F" Min="1.76369834e-08" Max="4.75306523e+04"/>
    <Variable VarIndex="5" Expression="B_gamma_pt" Label="B_gamma_pt" Title="B_gamma_pt" Unit="" Internal="B_gamma_pt" Type="F" Min="2.00000037e+03" Max="4.44193984e+04"/>
  </Variables>
  <Spectators NSpec="0"/>
  <Classes NClass="2">
    <Class Name="Signal" Index="0"/>
    <Class Name="Background" Index="1"/>
  </Classes>
  <Transformations NTransformations="0"/>
  <MVAPdfs>
    <PDF Name="BDT_PDFSig" MinNSmooth="0" MaxNSmooth="0" InterpolMethod="2" KDE_type="1" KDE_iter="1" KDE_border="1" KDE_finefactor="1.0000000000000000e+00">
      <Histogram Name="BDT_tr_S_original" NBins="3404" XMin="-5.4180639982223511e-01" XMax="5.9619534015655518e-01" HasEquidistantBins="1">
        0.00000000e+00 0.00000000e+00 0.00000000e+00 0.00000000e+00 0.00000000e+00 0.00000000e+00 0.00000000e+00 0.00000000e+00 0.00000000e+00 0.00000000e+00 0.00000000e+00 0.00000000e+00 0.00000000e+00 0.00000000e+00 0.00000000e+00 0.00000000e+00 0.00000000e+00 0.00000000e+00 0.00000000e+00 0.00000000e+00 0.00000000e+00 0.00000000e+00 0.00000000e+00 0.00000000e+00 0.00000000e+00 0.00000000e+00 0.00000000e+00 0.00000000e+00 0.00000000e+00 0.00000000e+00 0.00000000e+00 0.00000000e+00 0.00000000e+00 0.00000000e+00 0.00000000e+00 0.00000000e+00 0.00000000e+00 0.00000000e+00 0.00000000e+00 0.00000000e+00 0.00000000e+00 0.00000000e+00 0.00000000e+00 0.00000000e+00 0.00000000e+00 0.00000000e+00 0.00000000e+00 0.00000000e+00 0.00000000e+00 0.00000000e+00 0.00000000e+00 0.00000000e+00 0.00000000e+00 0.00000000e+00 0.00000000e+00 0.00000000e+00 0.00000000e+00 0.00000000e+00 0.00000000e+00 0.00000000e+00 0.00000000e+00 0.00000000e+00 0.00000000e+00 0.00000000e+00 0.00000000e+00 0.00000000e+00 0.00000000e+00 0.00000000e+00 0.00000000e+00 0.00000000e+00 0.00000000e+00 0.00000000e+00 0.00000000e+00 0.00000000e+00 0.00000000e+00 0.00000000e+00 0.00000000e+00 0.00000000e+00 0.00000000e+00 0.00000000e+00 0.00000000e+00 0.00000000e+00 0.00000000e+00 0.00000000e+00 0.00000000e+00 0.00000000e+00 0.00000000e+00 0.00000000e+00 0.00000000e+00 0.00000000e+00 0.00000000e+00 0.00000000e+00 0.00000000e+00 0.00000000e+00 0.00000000e+00 0.00000000e+00 0.00000000e+00 0.00000000e+00 0.00000000e+00 0.00000000e+00 0.00000000e+00 0.00000000e+00 0.00000000e+00 0.00000000e+00 0.00000000e+00 0.00000000e+00 0.00000000e+00 0.00000000e+00 0.00000000e+00 0.00000000e+00 0.00000000e+00 0.00000000e+00 0.00000000e+00 0.00000000e+00 0.00000000e+00 0.00000000e+00 0.00000000e+00 0.00000000e+00 0.00000000e+00 0.00000000e+00 0.00000000e+00 0.00000000e+00 0.00000000e+00 0.00000000e+00 0.00000000e+00 0.00000000e+00 0.00000000e+00 0.00000000e+00 0.00000000e+00 0.00000000e+00 0.00000000e+00 0.00000000e+00 0.00000000e+00 0.00000000e+00 0.00000000e+00 0.00000000e+00 0.00000000e+00 0.00000000e+00 0.00000000e+00 0.00000000e+00 0.00000000e+00 0.00000000e+00 0.00000000e+00 0.00000000e+00 0.00000000e+00 0.00000000e+00 0.00000000e+00 0.00000000e+00 0.00000000e+00 0.00000000e+00 0.00000000e+00 0.00000000e+00 0.00000000e+00 0.00000000e+00 0.00000000e+00 0.00000000e+00 0.00000000e+00 0.00000000e+00 0.00000000e+00 0.00000000e+00 0.00000000e+00 0.00000000e+00 0.00000000e+00 0.00000000e+00 0.00000000e+00 0.00000000e+00 0.00000000e+00 0.00000000e+00 0.00000000e+00 0.00000000e+00 0.00000000e+00 0.00000000e+00 0.00000000e+00 2.27503156e-02 0.00000000e+00 0.00000000e+00 0.00000000e+00 0.00000000e+00 0.00000000e+00 0.00000000e+00 0.00000000e+00 0.00000000e+00 0.00000000e+00 0.00000000e+00 0.00000000e+00 0.00000000e+00 0.00000000e+00 0.00000000e+00 0.00000000e+00 0.00000000e+00 0.00000000e+00 0.00000000e+00 0.00000000e+00 0.00000000e+00 0.00000000e+00 0.00000000e+00 0.00000000e+00 0.00000000e+00 0.00000000e+00 0.00000000e+00 0.00000000e+00 0.00000000e+00 0.00000000e+00 0.00000000e+00 0.00000000e+00 0.00000000e+00 0.00000000e+00 0.00000000e+00 0.00000000e+00 0.00000000e+00 0.00000000e+00 0.00000000e+00 0.00000000e+00 0.00000000e+00 0.00000000e+00 0.00000000e+00 0.00000000e+00 0.00000000e+00 0.00000000e+00 0.00000000e+00 0.00000000e+00 0.00000000e+00 0.00000000e+00 0.00000000e+00 0.00000000e+00 0.00000000e+00 0.00000000e+00 0.00000000e+00 0.00000000e+00 0.00000000e+00 0.00000000e+00 0.00000000e+00 0.00000000e+00 0.00000000e+00 0.00000000e+00 0.00000000e+00 0.00000000e+00 0.00000000e+00 0.00000000e+00 0.00000000e+00 0.00000000e+00 0.00000000e+00 0.00000000e+00 0.00000000e+00 0.00000000e+00 0.00000000e+00 0.00000000e+00 0.00000000e+00 0.00000000e+00 0.00000000e+00 0.00000000e+00 0.00000000e+00 0.00000000e+00 0.00000000e+00 0.00000000e+00 0.00000000e+00 0.00000000e+00 0.00000000e+00 0.00000000e+00 0.00000000e+00 0.00000000e+00 0.00000000e+00 0.00000000e+00 0.00000000e+00 0.00000000e+00 0.00000000e+00 0.00000000e+00 0.00000000e+00 0.00000000e+00 0.00000000e+00 0.00000000e+00 0.00000000e+00 0.00000000e+00 0.00000000e+00 0.00000000e+00 0.00000000e+00 0.00000000e+00 0.00000000e+00 0.00000000e+00 0.00000000e+00 0.00000000e+00 0.00000000e+00 0.00000000e+00 0.00000000e+00 0.00000000e+00 0.00000000e+00 0.00000000e+00 0.00000000e+00 0.00000000e+00 0.00000000e+00 0.00000000e+00 0.00000000e+00 0.00000000e+00 0.00000000e+00 0.00000000e+00 0.00000000e+00 0.00000000e+00 0.00000000e+00 0.00000000e+00 0.00000000e+00 0.00000000e+00 0.00000000e+00 0.00000000e+00 0.00000000e+00 0.00000000e+00 0.00000000e+00 0.00000000e+00 0.00000000e+00 0.00000000e+00 0.00000000e+00 0.00000000e+00 0.00000000e+00 0.00000000e+00 0.00000000e+00 0.00000000e+00 0.00000000e+00 0.00000000e+00 0.00000000e+00 0.00000000e+00 0.00000000e+00 0.00000000e+00 0.00000000e+00 0.00000000e+00 0.00000000e+00 0.00000000e+00 0.00000000e+00 0.00000000e+00 0.00000000e+00 0.00000000e+00 0.00000000e+00 0.00000000e+00 0.00000000e+00 0.00000000e+00 0.00000000e+00 0.00000000e+00 0.00000000e+00 0.00000000e+00 0.00000000e+00 0.00000000e+00 0.00000000e+00 0.00000000e+00 3.97203217e-02 0.00000000e+00 0.00000000e+00 0.00000000e+00 0.00000000e+00 0.00000000e+00 0.00000000e+00 0.00000000e+00 0.00000000e+00 0.00000000e+00 0.00000000e+00 0.00000000e+00 0.00000000e+00 0.00000000e+00 0.00000000e+00 0.00000000e+00 0.00000000e+00 0.00000000e+00 0.00000000e+00 0.00000000e+00 0.00000000e+00 0.00000000e+00 0.00000000e+00 0.00000000e+00 0.00000000e+00 0.00000000e+00 0.00000000e+00 0.00000000e+00 1.05292341e-01 0.00000000e+00 0.00000000e+00 0.00000000e+00 0.00000000e+00 0.00000000e+00 0.00000000e+00 0.00000000e+00 0.00000000e+00 0.00000000e+00 0.00000000e+00 0.00000000e+00 0.00000000e+00 0.00000000e+00 0.00000000e+00 0.00000000e+00 0.00000000e+00 0.00000000e+00 0.00000000e+00 0.00000000e+00 0.00000000e+00 0.00000000e+00 0.00000000e+00 0.00000000e+00 0.00000000e+00 0.00000000e+00 0.00000000e+00 0.00000000e+00 0.00000000e+00 0.00000000e+00 0.00000000e+00 0.00000000e+00 0.00000000e+00 0.00000000e+00 0.00000000e+00 0.00000000e+00 0.00000000e+00 0.00000000e+00 0.00000000e+00 0.00000000e+00 0.00000000e+00 0.00000000e+00 0.00000000e+00 0.00000000e+00 0.00000000e+00 0.00000000e+00 0.00000000e+00 0.00000000e+00 0.00000000e+00 5.88646137e-02 0.00000000e+00 5.88646137e-02 0.00000000e+00 0.00000000e+00 0.00000000e+00 0.00000000e+00 0.00000000e+00 0.00000000e+00 0.00000000e+00 0.00000000e+00 0.00000000e+00 0.00000000e+00 0.00000000e+00 0.00000000e+00 0.00000000e+00 0.00000000e+00 0.00000000e+00 0.00000000e+00 0.00000000e+00 0.00000000e+00 0.00000000e+00 0.00000000e+00 0.00000000e+00 0.00000000e+00 0.00000000e+00 0.00000000e+00 0.00000000e+00 0.00000000e+00 0.00000000e+00 0.00000000e+00 0.00000000e+00 0.00000000e+00 0.00000000e+00 0.00000000e+00 0.00000000e+00 0.00000000e+00 0.00000000e+00 0.00000000e+00 0.00000000e+00 0.00000000e+00 0.00000000e+00 0.00000000e+00 0.00000000e+00 0.00000000e+00 0.00000000e+00 4.17489646e-02 2.27503156e-02 0.00000000e+00 0.00000000e+00 0.00000000e+00 0.00000000e+00 0.00000000e+00 0.00000000e+00 0.00000000e+00 1.05292341e-01 0.00000000e+00 0.00000000e+00 0.00000000e+00 0.00000000e+00 0.00000000e+00 0.00000000e+00 0.00000000e+00 0.00000000e+00 0.00000000e+00 0.00000000e+00 0.00000000e+00 0.00000000e+00 0.00000000e+00 0.00000000e+00 0.00000000e+00 0.00000000e+00 0.00000000e+00 0.00000000e+00 0.00000000e+00 5.88646137e-02 0.00000000e+00 0.00000000e+00 0.00000000e+00 0.00000000e+00 0.00000000e+00 0.00000000e+00 0.00000000e+00 0.00000000e+00 0.00000000e+00 0.00000000e+00 0.00000000e+00 0.00000000e+00 0.00000000e+00 0.00000000e+00 0.00000000e+00 0.00000000e+00 0.00000000e+00 0.00000000e+00 0.00000000e+00 0.00000000e+00 0.00000000e+00 0.00000000e+00 0.00000000e+00 0.00000000e+00 0.00000000e+00 0.00000000e+00 0.00000000e+00 0.00000000e+00 0.00000000e+00 0.00000000e+00 0.00000000e+00 0.00000000e+00 0.00000000e+00 0.00000000e+00 5.88646137e-02 0.00000000e+00 1.05292341e-01 0.00000000e+00 0.00000000e+00 0.00000000e+00 0.00000000e+00 0.00000000e+00 0.00000000e+00 0.00000000e+00 0.00000000e+00 0.00000000e+00 0.00000000e+00 0.00000000e+00 0.00000000e+00 0.00000000e+00 0.00000000e+00 0.00000000e+00 0.00000000e+00 0.00000000e+00 0.00000000e+00 0.00000000e+00 0.00000000e+00 0.00000000e+00 0.00000000e+00 3.97203217e-02 0.00000000e+00 0.00000000e+00 0.00000000e+00 0.00000000e+00 5.88646137e-02 0.00000000e+00 1.05292341e-01 0.00000000e+00 3.37718407e-02 0.00000000e+00 0.00000000e+00 0.00000000e+00 0.00000000e+00 1.05292341e-01 0.00000000e+00 0.00000000e+00 0.00000000e+00 0.00000000e+00 4.17489646e-02 2.27503156e-02 0.00000000e+00 0.00000000e+00 0.00000000e+00 0.00000000e+00 0.00000000e+00 0.00000000e+00 0.00000000e+00 0.00000000e+00 2.27503156e-02 0.00000000e+00 0.00000000e+00 0.00000000e+00 0.00000000e+00 0.00000000e+00 0.00000000e+00 0.00000000e+00 0.00000000e+00 0.00000000e+00 0.00000000e+00 0.00000000e+00 1.39064182e-01 0.00000000e+00 0.00000000e+00 0.00000000e+00 0.00000000e+00 1.05292341e-01 0.00000000e+00 5.88646137e-02 2.27503156e-02 0.00000000e+00 0.00000000e+00 0.00000000e+00 0.00000000e+00 0.00000000e+00 0.00000000e+00 0.00000000e+00 5.88646137e-02 0.00000000e+00 0.00000000e+00 5.88646137e-02 0.00000000e+00 0.00000000e+00 0.00000000e+00 0.00000000e+00 0.00000000e+00 0.00000000e+00 0.00000000e+00 0.00000000e+00 0.00000000e+00 1.05292341e-01 0.00000000e+00 0.00000000e+00 0.00000000e+00 0.00000000e+00 0.00000000e+00 2.27503156e-02 0.00000000e+00 0.00000000e+00 0.00000000e+00 0.00000000e+00 0.00000000e+00 2.27503156e-02 0.00000000e+00 0.00000000e+00 0.00000000e+00 0.00000000e+00 0.00000000e+00 0.00000000e+00 0.00000000e+00 0.00000000e+00 0.00000000e+00 0.00000000e+00 0.00000000e+00 0.00000000e+00 0.00000000e+00 0.00000000e+00 0.00000000e+00 0.00000000e+00 4.17489646e-02 5.88646137e-02 0.00000000e+00 0.00000000e+00 0.00000000e+00 0.00000000e+00 0.00000000e+00 0.00000000e+00 0.00000000e+00 0.00000000e+00 1.17729227e-01 0.00000000e+00 0.00000000e+00 0.00000000e+00 1.64156955e-01 4.17489646e-02 2.27503156e-02 0.00000000e+00 0.00000000e+00 0.00000000e+00 5.88646137e-02 0.00000000e+00 0.00000000e+00 1.64156955e-01 0.00000000e+00 0.00000000e+00 0.00000000e+00 0.00000000e+00 0.00000000e+00 0.00000000e+00 0.00000000e+00 0.00000000e+00 0.00000000e+00 0.00000000e+00 0.00000000e+00 0.00000000e+00 0.00000000e+00 0.00000000e+00 0.00000000e+00 0.00000000e+00 0.00000000e+00 0.00000000e+00 0.00000000e+00 5.88646137e-02 0.00000000e+00 5.88646137e-02 0.00000000e+00 0.00000000e+00 0.00000000e+00 2.27503156e-02 5.88646137e-02 0.00000000e+00 0.00000000e+00 0.00000000e+00 0.00000000e+00 2.27503156e-02 5.88646137e-02 1.28042657e-01 5.88646137e-02 0.00000000e+00 5.88646137e-02 0.00000000e+00 1.05292341e-01 0.00000000e+00 0.00000000e+00 0.00000000e+00 0.00000000e+00 5.88646137e-02 5.88646137e-02 5.88646137e-02 5.88646137e-02 0.00000000e+00 0.00000000e+00 3.97203217e-02 0.00000000e+00 0.00000000e+00 5.88646137e-02 0.00000000e+00 4.17489646e-02 0.00000000e+00 0.00000000e+00 0.00000000e+00 0.00000000e+00 0.00000000e+00 0.00000000e+00 0.00000000e+00 0.00000000e+00 0.00000000e+00 0.00000000e+00 1.05292341e-01 0.00000000e+00 0.00000000e+00 3.37718407e-02 3.97203217e-02 1.40479543e-01 5.88646137e-02 0.00000000e+00 0.00000000e+00 0.00000000e+00 0.00000000e+00 0.00000000e+00 0.00000000e+00 8.16149294e-02 0.00000000e+00 5.88646137e-02 0.00000000e+00 3.37718407e-02 0.00000000e+00 1.05292341e-01 2.27503156e-02 0.00000000e+00 0.00000000e+00 0.00000000e+00 5.88646137e-02 0.00000000e+00 0.00000000e+00 0.00000000e+00 1.00613578e-01 5.88646137e-02 0.00000000e+00 5.88646137e-02 0.00000000e+00 0.00000000e+00 0.00000000e+00 0.00000000e+00 0.00000000e+00 0.00000000e+00 1.05292341e-01 1.05292341e-01 5.88646137e-02 0.00000000e+00 0.00000000e+00 0.00000000e+00 5.88646137e-02 0.00000000e+00 0.00000000e+00 0.00000000e+00 0.00000000e+00 0.00000000e+00 0.00000000e+00 1.05292341e-01 0.00000000e+00 0.00000000e+00 0.00000000e+00 5.88646137e-02 0.00000000e+00 0.00000000e+00 1.05292341e-01 1.17729227e-01 0.00000000e+00 0.00000000e+00 0.00000000e+00 5.88646137e-02 0.00000000e+00 0.00000000e+00 0.00000000e+00 5.88646137e-02 0.00000000e+00 5.88646137e-02 0.00000000e+00 3.37718407e-02 0.00000000e+00 1.00613578e-01 0.00000000e+00 0.00000000e+00 1.05292341e-01 0.00000000e+00 0.00000000e+00 0.00000000e+00 0.00000000e+00 0.00000000e+00 1.05292341e-01 0.00000000e+00 2.27503156e-02 1.05292341e-01 5.88646137e-02 1.17729227e-01 0.00000000e+00 0.00000000e+00 5.88646137e-02 0.00000000e+00 2.23021568e-01 0.00000000e+00 0.00000000e+00 5.88646137e-02 0.00000000e+00 5.88646137e-02 5.88646137e-02 0.00000000e+00 0.00000000e+00 0.00000000e+00 0.00000000e+00 0.00000000e+00 0.00000000e+00 0.00000000e+00 1.17729227e-01 5.88646137e-02 3.37718407e-02 0.00000000e+00 0.00000000e+00 0.00000000e+00 0.00000000e+00 0.00000000e+00 5.88646137e-02 0.00000000e+00 0.00000000e+00 0.00000000e+00 5.88646137e-02 0.00000000e+00 1.21335251e-01 0.00000000e+00 5.88646137e-02 0.00000000e+00 5.88646137e-02 5.88646137e-02 5.88646137e-02 3.97203217e-02 0.00000000e+00 5.88646137e-02 0.00000000e+00 5.88646137e-02 0.00000000e+00 0.00000000e+00 0.00000000e+00 5.88646137e-02 0.00000000e+00 0.00000000e+00 5.33467913e-01 5.88646137e-02 0.00000000e+00 5.88646137e-02 5.88646137e-02 0.00000000e+00 0.00000000e+00 5.88646137e-02 5.58560686e-01 0.00000000e+00 1.47041305e-01 0.00000000e+00 0.00000000e+00 0.00000000e+00 0.00000000e+00 0.00000000e+00 0.00000000e+00 0.00000000e+00 5.88646137e-02 0.00000000e+00 0.00000000e+00 0.00000000e+00 5.88646137e-02 5.88646137e-02 1.17729227e-01 5.58560686e-01 2.27503156e-02 5.88646137e-02 2.18342806e-01 0.00000000e+00 0.00000000e+00 1.76593841e-01 6.17425300e-01 9.85849354e-02 5.88646137e-02 5.88646137e-02 1.05292341e-01 0.00000000e+00 0.00000000e+00 5.88646137e-02 0.00000000e+00 2.23021568e-01 1.76593841e-01 0.00000000e+00 0.00000000e+00 0.00000000e+00 1.17729227e-01 0.00000000e+00 0.00000000e+00 1.17729227e-01 5.88646137e-02 2.23021568e-01 5.88646137e-02 5.88646137e-02 1.76593841e-01 5.88646137e-02 0.00000000e+00 5.88646137e-02 5.88646137e-02 0.00000000e+00 1.17729227e-01 5.88646137e-02 1.76593841e-01 1.47041305e-01 9.26364545e-02 0.00000000e+00 1.17729227e-01 5.88646137e-02 1.00613578e-01 1.17729227e-01 5.88646137e-02 1.17729227e-01 9.85849354e-02 1.99344157e-01 1.17729227e-01 5.88646137e-02 5.88646137e-02 1.17729227e-01 1.40479543e-01 1.17729227e-01 1.17729227e-01 0.00000000e+00 5.88646137e-02 0.00000000e+00 1.76593841e-01 0.00000000e+00 0.00000000e+00 1.76593841e-01 4.12052296e-01 0.00000000e+00 5.88646137e-02 1.64156955e-01 1.00613578e-01 1.17729227e-01 0.00000000e+00 9.85849354e-02 1.39064182e-01 1.57449549e-01 1.05292341e-01 1.17729227e-01 7.57904843e-01 2.52333646e-01 5.88646137e-02 8.16149294e-02 0.00000000e+00 5.88646137e-02 2.23021568e-01 0.00000000e+00 3.37718407e-02 2.18342806e-01 1.17729227e-01 5.88646137e-02 0.00000000e+00 0.00000000e+00 0.00000000e+00 0.00000000e+00 0.00000000e+00 0.00000000e+00 5.88646137e-02 9.26364545e-02 0.00000000e+00 5.88646137e-02 1.17729227e-01 5.88646137e-02 1.17729227e-01 2.23021568e-01 1.40479543e-01 0.00000000e+00 1.51501068e-01 3.97203217e-02 5.88646137e-02 1.45012663e-01 0.00000000e+00 1.64156955e-01 5.88646137e-02 0.00000000e+00 3.97203217e-02 6.97039877e-01 0.00000000e+00 1.17729227e-01 0.00000000e+00 1.05292341e-01 5.88646137e-02 1.64156955e-01 1.76593841e-01 5.88646137e-02 1.64156955e-01 3.40750796e-01 0.00000000e+00 1.17729227e-01 1.17729227e-01 1.17729227e-01 2.92199611e-01 5.88646137e-02 1.05292341e-01 6.76289913e-01 0.00000000e+00 1.34385419e-01 1.17729227e-01 1.05292341e-01 6.63853027e-01 1.17729227e-01 1.17729227e-01 1.17729227e-01 6.67727799e-01 5.88646137e-02 1.17729227e-01 5.88646137e-02 3.10979260e-01 5.88646137e-02 5.88646137e-02 2.10365682e-01 5.88646137e-02 6.08863185e-01 7.26592413e-01 2.18342806e-01 1.17729227e-01 2.27503156e-02 0.00000000e+00 1.05292341e-01 2.35458455e-01 0.00000000e+00 5.88646137e-02 1.76593841e-01 1.17729227e-01 1.76593841e-01 0.00000000e+00 2.27503156e-02 2.35458455e-01 2.35458455e-01 1.17729227e-01 9.85849354e-02 4.99696072e-01 2.81886182e-01 1.17729227e-01 1.85272909e-01 0.00000000e+00 2.35458455e-01 1.76593841e-01 0.00000000e+00 2.41093121e-01 1.64156955e-01 1.17729227e-01 2.81886182e-01 6.76289913e-01 2.07877582e-01 6.40175615e-01 2.35458455e-01 4.17489646e-02 1.17729227e-01 1.47041305e-01 2.19920186e-01 4.17489646e-02 0.00000000e+00 5.88646137e-02 7.35154527e-01 2.35458455e-01 1.17729227e-01 1.40333900e-01 3.04490855e-01 5.88646137e-02 6.17425300e-01 5.88646137e-02 5.88646137e-02 7.28352307e-01 2.27503156e-02 2.94323069e-01 9.85849354e-02 7.94019141e-01 1.17729227e-01 5.81311002e-01 3.14899098e-01 0.00000000e+00 6.63853027e-01 1.76593841e-01 2.23021568e-01 5.88646137e-02 4.17489646e-02 6.55290912e-01 0.00000000e+00 7.55208054e-02 7.26592413e-01 1.76593841e-01 3.28313909e-01 1.17729227e-01 1.29371521e+00 6.31613501e-01 5.88646137e-02 2.69230296e-01 7.95770455e-01 8.99311482e-01 3.40750796e-01 3.36072033e-01 1.22628848e+00 0.00000000e+00 6.34081491e-01 0.00000000e+00 1.00613578e-01 1.17729227e-01 7.35154527e-01 4.34802612e-01 5.88646137e-02 1.64156955e-01 9.26364545e-02 3.99615409e-01 4.46043137e-01 0.00000000e+00 5.88646137e-02 5.64195353e-01 2.23021568e-01 3.87178523e-01 5.88646137e-02 7.26592413e-01 5.88646137e-02 5.88646137e-02 7.22717641e-01 1.17729227e-01 3.87178523e-01 3.92908004e-01 2.10365682e-01 3.82499760e-01 1.76593841e-01 1.17729227e-01 4.46043137e-01 1.17729227e-01 1.64277909e+00 5.88646137e-02 1.29920424e+00 1.17729227e-01 1.76593841e-01 1.64156955e-01 2.35458455e-01 0.00000000e+00 3.34043390e-01 1.76593841e-01 3.10979260e-01 1.00613578e-01 3.97203217e-02 3.21606504e-01 5.98281008e-01 1.17729227e-01 2.35458455e-01 2.23021568e-01 2.94323069e-01 0.00000000e+00 1.97928795e-01 5.88646137e-02 1.17729227e-01 7.02836546e-01 2.35458455e-01 1.17729227e-01 1.64156955e-01 2.99957735e-01 4.67159091e-01 1.20529806e+00 1.00613578e-01 0.00000000e+00 1.76593841e-01 1.45012663e-01 2.69230296e-01 3.40750796e-01 2.75178777e-01 9.26364545e-02 1.17729227e-01 3.11198260e-01 2.81886182e-01 2.94323069e-01 4.99696072e-01 2.64770533e-01 2.58208770e-01 6.76406867e-01 4.99696072e-01 1.76593841e-01 2.16314163e-01 4.19569962e-01 2.58208770e-01 1.17729227e-01 3.34043390e-01 3.97203217e-02 5.88646137e-02 4.17489646e-02 2.58208770e-01 1.76593841e-01 2.81886182e-01 2.18342806e-01 0.00000000e+00 3.53187682e-01 3.42722458e-01 1.57449549e-01 4.12052296e-01 1.76593841e-01 1.64156955e-01 3.99615409e-01 2.58208770e-01 1.76593841e-01 1.17729227e-01 3.40750796e-01 1.99198514e-01 9.26364545e-02 2.45771884e-01 3.04636498e-01 2.81886182e-01 1.45012663e-01 3.53187682e-01 1.17729227e-01 6.76289913e-01 2.69449295e-01 3.08950617e-01 1.64156955e-01 3.99615409e-01 2.35458455e-01 2.18342806e-01 1.40479543e-01 1.76593841e-01 1.76593841e-01 1.61814497e-01 4.33387250e-01 4.14461958e-01 1.76593841e-01 1.64156955e-01 1.17729227e-01 6.40175615e-01 4.12052296e-01 2.94323069e-01 5.88646137e-02 3.21606504e-01 3.92908004e-01 1.76593841e-01 2.10365682e-01 1.76593841e-01 1.76593841e-01 3.21606504e-01 6.86603343e-01 3.94936647e-01 5.17344637e-01 2.23021568e-01 2.18342806e-01 5.88646137e-02 3.56793706e-01 2.16314163e-01 8.31884753e-01 1.76593841e-01 5.29781523e-01 2.47654884e-01 5.50357553e-01 9.26364545e-02 4.87792101e-01 4.12052296e-01 1.17729227e-01 2.58208770e-01 2.35458455e-01 1.01704071e+00 1.97169871e-01 1.76593841e-01 2.85492206e-01 2.77207419e-01 2.52114647e-01 1.76593841e-01 9.58176095e-01 3.40750796e-01 5.88646137e-02 2.94323069e-01 1.76593841e-01 1.64156955e-01 9.13499683e-01 2.35458455e-01 2.94323069e-01 3.82499760e-01 3.40750796e-01 8.08646690e-01 8.52883755e-01 8.16149294e-02 6.21031323e-01 4.09928838e-01 9.87488174e-01 1.17729227e-01 6.81501591e-01 2.94323069e-01 4.58480023e-01 4.51677803e-01 1.64156955e-01 3.62085750e-01 9.26364545e-02 4.41364374e-01 1.76593841e-01 7.35154527e-01 4.33387250e-01 3.87178523e-01 8.84041962e-01 4.39335731e-01 3.40750796e-01 2.85492206e-01 1.17729227e-01 1.76593841e-01 1.34385419e-01 5.88646137e-02 1.17729227e-01 4.58480023e-01 8.70532319e-01 0.00000000e+00 5.88646137e-02 3.36072033e-01 9.85849354e-02 4.98200345e-01 1.82228508e-01 2.80813443e-01 4.68793452e-01 1.17729227e-01 4.46043137e-01 1.51501068e-01 1.51501068e-01 1.97169871e-01 5.51116478e-01 3.75937998e-01 5.26023705e-01 3.87178523e-01 1.76593841e-01 7.45467956e-01 2.81886182e-01 2.64770533e-01 5.04907750e-01 2.35458455e-01 4.42066318e-01 8.33739463e-01 2.53692027e-01 1.07122656e+00 4.99696072e-01 3.90565547e-01 3.28313909e-01 3.34043390e-01 4.53801261e-01 1.97928795e-01 5.88646137e-02 8.52883755e-01 1.59478192e-01 5.38679591e-01 2.23021568e-01 6.31613501e-01 1.99344157e-01 3.94936647e-01 3.40750796e-01 0.00000000e+00 2.91834968e-01 5.00228988e-01 2.35458455e-01 3.40750796e-01 2.35458455e-01 3.58822349e-01 1.08100707e+00 8.40446868e-01 2.35458455e-01 7.25586861e-01 4.92251864e-01 3.42722458e-01 8.99311482e-01 2.81886182e-01 5.52386196e-01 3.24898713e-01 1.17729227e-01 1.59478192e-01 2.73449601e-01 3.23635147e-01 2.18342806e-01 4.54722204e-01 1.40479543e-01 6.22636978e-01 5.34000829e-01 3.16927741e-01 4.33387250e-01 1.76593841e-01 4.58480023e-01 6.68845705e-01 2.16314163e-01 1.00438482e+00 3.50845225e-01 4.58480023e-01 5.40094952e-01 4.38408635e-01 3.39823700e-01 5.76209251e-01 2.44137523e-01 2.35458455e-01 4.28927487e-01 6.30395102e-01 3.53187682e-01 2.23021568e-01 9.13499683e-01 2.77207419e-01 5.48993020e-01 8.15354095e-01 2.10365682e-01 3.15658023e-01 1.01680025e+00 7.38242748e-01 4.12052296e-01 4.45824137e-01 5.34000829e-01 4.81230339e-01 1.36328053e+00 2.16314163e-01 2.81426725e-01 6.39293169e-01 1.00635514e+00 2.94323069e-01 3.99615409e-01 5.97763205e-01 4.55678108e-01 5.17344637e-01 1.93250033e-01 9.72218654e-01 3.99615409e-01 1.06324944e+00 1.17729227e-01 1.76593841e-01 4.62086047e-01 7.52410839e-01 8.50760297e-01 9.03530787e-01 1.02486604e+00 2.18342806e-01 6.40708531e-01 4.33606250e-01 1.76593841e-01 1.05292341e-01 3.74522636e-01 1.33545560e+00 5.19535299e-01 4.92251864e-01 1.82228508e-01 9.79511050e-01 3.63501111e-01 2.18342806e-01 3.23635147e-01 5.08294774e-01 6.28052644e-01 3.99615409e-01 2.77207419e-01 2.23021568e-01 1.76593841e-01 3.87178523e-01 2.69230296e-01 3.53187682e-01 5.03835011e-01 2.64770533e-01 1.74251384e-01 2.16314163e-01 8.74218709e-01 2.94323069e-01 7.95770455e-01 5.04907750e-01 1.51501068e-01 2.35458455e-01 7.08785027e-01 3.34043390e-01 1.76593841e-01 7.68341377e-01 5.10396774e-01 4.39335731e-01 3.92813189e-01 2.35458455e-01 6.43241816e-01 8.02836842e-01 3.77361540e-01 2.69230296e-01 6.21709882e-01 5.10323417e-01 1.76134384e-01 7.07448121e-01 7.79772712e-01 2.81886182e-01 1.64156955e-01 2.94323069e-01 5.75749793e-01 6.10200091e-01 9.53497333e-01 4.98200345e-01 4.34656969e-01 3.84690422e-01 4.09709839e-01 3.80471117e-01 3.63501111e-01 7.68341377e-01 6.45241650e-01 7.27929319e-01 4.68590829e-01 5.34219828e-01 1.40479543e-01 6.31316045e-01 5.08294774e-01 3.10979260e-01 2.35458455e-01 4.64114690e-01 4.33387250e-01 3.86959523e-01 4.56137566e-01 1.47898812e+00 1.17651890e+00 2.66887838e-01 6.19535596e-01 1.09397688e+00 5.37606852e-01 7.46000872e-01 3.99615409e-01 5.56970144e-01 5.46285920e-01 8.15354095e-01 1.39064182e-01 5.93734727e-01 1.27037375e+00 3.34043390e-01 5.38679591e-01 4.59429775e-01 4.58020566e-01 4.81230339e-01 5.67991669e-01 5.77165155e-01 3.99615409e-01 7.16688794e-01 3.75937998e-01 7.94019141e-01 7.90180956e-01 8.52883755e-01 1.40479543e-01 6.73065010e-01 5.87589774e-01 6.37264526e-01 6.30243307e-01 2.50086004e-01 3.25971452e-01 7.35154527e-01 5.44409072e-01 4.58020566e-01 6.64385942e-01 4.79595977e-01 5.39022214e-01 4.97032791e-01 1.32356776e-01 3.99615409e-01 3.39678057e-01 1.73480226e+00 6.03273686e-01 4.41869016e-01 4.11592839e-01 1.20194763e+00 4.05250076e-01 4.81230339e-01 4.64114690e-01 3.74770445e-01 1.14290908e+00 5.76209251e-01 4.14242958e-01 4.55064827e-01 2.77207419e-01 4.79814977e-01 2.33115998e-01 5.48774020e-01 1.06941702e+00 5.35416190e-01 3.11198260e-01 5.65744026e-01 6.47270293e-01 4.25971749e-01 2.03877276e-01 7.34921624e-02 4.14242958e-01 1.99344157e-01 8.63197184e-01 5.50262739e-01 6.68605247e-01 6.32052848e-01 1.60937324e+00 9.21916154e-01 4.15658320e-01 4.65692070e-01 1.97928795e-01 3.15658023e-01 5.55335783e-01 3.03002136e-01 1.04395335e+00 5.84888318e-01 6.15082842e-01 5.40651253e-01 3.74522636e-01 5.10542417e-01 5.21563942e-01 4.71378396e-01 8.48540945e-01 4.95857887e-01 2.23977472e-01 4.36993274e-01 7.05601992e-01 1.26703190e+00 5.72451432e-01 7.01960786e-01 4.87573101e-01 6.66357605e-01 5.92157346e-01 4.74428119e-01 2.16314163e-01 3.51064225e-01 5.13586818e-01 5.27198609e-01 3.99615409e-01 5.88646137e-02 1.74251384e-01 1.32540634e+00 3.16927741e-01 1.01491725e+00 3.32562022e-01 8.33280005e-01 6.45168294e-01 2.79398082e-01 5.07974808e-01 6.44708735e-01 1.00367673e+00 9.45520209e-01 1.23793882e+00 9.91239840e-01 1.16565940e+00 4.90157215e-01 2.55866313e-01 1.15241127e-01 1.31269455e+00 6.35073864e-01 4.95931244e-01 4.87792101e-01 1.37159361e+00 4.68793452e-01 4.41364374e-01 9.76678416e-01 5.02346293e-01 9.39031803e-01 3.58822349e-01 4.92251864e-01 7.00990535e-01 1.50122680e+00 5.36118134e-01 1.81937293e+00 1.35621414e+00 1.12605603e+00 7.07706135e-01 7.08471212e-01 4.86719362e-01 8.34120583e-01 6.07857634e-01 5.16885179e-01 4.53801261e-01 4.73107572e-01 1.15647580e+00 1.02888645e+00 1.26668737e+00 7.51810719e-01 5.00228988e-01 1.26144242e+00 7.91091693e-01 6.08200256e-01 9.14377131e-01 3.53743153e-01 8.37250773e-01 2.82842086e-01 1.17624157e+00 4.34416511e-01 2.41795065e-01 7.48883271e-01 1.31119562e+00 6.42635026e-01 3.67501417e-01 1.31212272e+00 9.21202007e-01 9.22135255e-01 8.44980089e-01 1.34079281e+00 5.64525644e-01 7.86289825e-01 5.89764060e-01 1.04225044e+00 9.88312392e-01 8.78481833e-01 1.60060968e+00 3.04265703e-01 2.91834968e-01 8.18520771e-01 3.04177040e-01 4.66450995e-01 4.98807474e-01 1.00760475e+00 1.18778208e+00 1.80166614e+00 1.16583333e+00 9.00969330e-01 6.10228899e-01 5.04688750e-01 1.50249035e+00 5.52453401e-01 3.48268462e-01 2.99812092e-01 1.90084221e+00 1.30802895e+00 8.03079329e-01 1.65149311e+00 9.78657311e-01 7.61527344e-01 5.29315914e-01 1.41926119e+00 3.28313909e-01 9.23858279e-01 4.39832178e-01 1.01177080e+00 7.08325569e-01 4.79056053e-01 6.76289913e-01 3.37189956e-01 8.00084575e-01 4.05952020e-01 9.49418691e-01 1.30404512e+00 8.07056148e-01 1.56535517e+00 8.14281356e-01 2.40947478e-01 1.13269792e+00 4.42941755e-01 5.65430212e-01 8.89802162e-01 5.12659722e-01 5.43241519e-01 6.60970746e-01 7.61365223e-01 7.39309842e-01 5.07441035e-01 3.72741802e-01 5.96617109e-01 1.21370606e+00 3.15658023e-01 1.61212552e+00 7.37804748e-01 5.73407336e-01 7.25441218e-01 2.28656235e-01 3.86959523e-01 6.83692254e-01 2.21948829e-01 6.50870165e-01 6.71036367e-01 9.51878517e-01 6.73626633e-01 4.30585335e-01 9.98115518e-01 7.14200693e-01 1.07719718e+00 8.24863534e-01 5.27658066e-01 4.08294477e-01 9.63972781e-01 6.59998483e-01 8.79497591e-01 6.76671034e-01 2.83149748e-01 1.18434423e+00 8.10742638e-01 7.71795589e-01 1.53295684e+00 6.20142725e-01 6.53212622e-01 1.28042657e-01 7.71868945e-01 2.83544030e-01 6.46972855e-01 1.16715522e+00 5.83042308e-01 7.30559447e-01 1.29689837e+00 4.26927653e-01 1.45352936e+00 7.36951009e-01 1.02120303e+00 7.07398473e-01 2.58208770e-01 8.32840658e-01 6.97304044e-01 5.25315609e-01 1.09653845e+00 1.33138554e+00 4.71158566e-01 3.12950092e-01 1.54816616e+00 1.30850353e+00 7.62286268e-01 9.66147067e-01 4.47306703e-01 1.04432425e+00 4.80400086e-01 7.00545425e-01 1.46232695e+00 5.30191351e-01 8.53293582e-01 3.77669203e-01 7.02938711e-01 1.40384844e+00 1.29351134e+00 1.24676980e+00 5.61620734e-01 1.99544418e+00 7.30856885e-01 6.60402972e-01 1.27565931e+00 8.25070720e-01 3.96514028e-01 3.33016158e-01 4.91786254e-01 1.42605883e+00 6.59898007e-01 5.25564247e-01 1.16290108e+00 6.89669543e-01 1.06112598e+00 9.13450036e-01 5.29731893e-01 9.22999218e-01 8.22566244e-01 1.72171521e+00 1.98884699e-01 1.06490645e+00 4.28927487e-01 7.08106569e-01 8.97328023e-01 1.63229859e-01 7.73672436e-01 8.54389807e-01 8.94749672e-01 7.74394035e-01 6.21250424e-01 1.11142848e+00 8.07463932e-01 1.12009276e+00 1.56879918e+00 5.75041697e-01 2.61669151e-01 6.01055414e-01 3.84617066e-01 1.02534815e+00 8.99546959e-01 5.68277311e-01 1.22432715e+00 7.60476625e-01 1.07846075e+00 1.73911638e+00 3.31919933e-01 7.84211017e-01 1.67056917e+00 2.28283171e+00 1.87882265e+00 1.55897361e+00 1.04001014e+00 1.25349358e+00 2.35458455e-01 8.02113218e-01 3.76887750e-01 9.24720199e-01 1.09585372e+00 1.99866908e+00 1.21276570e+00 8.92919190e-01 6.59584193e-01 5.87640603e-01 1.49052779e+00 4.27943411e-01 1.02279233e+00 1.75208863e+00 1.09170778e+00 8.62737726e-01 9.88060121e-01 1.58341814e+00 1.02417442e+00 1.19160794e+00 1.18440420e+00 3.58984368e-01 2.02241307e+00 1.33926061e+00 1.62963545e+00 5.15492474e-01 4.23848291e-01 9.20011798e-01 1.93668161e+00 9.55593181e-01 5.04755955e-01 3.10827465e-01 3.22870070e-01 1.43624874e+00 1.28480601e+00 8.80935609e-01 1.56177796e+00 1.57977885e+00 1.55649572e+00 6.38585073e-01 2.57575568e+00 8.10500152e-01 2.18909330e+00 2.64293242e+00 2.31701409e+00 1.31924005e+00 1.06292246e+00 6.19069986e-01 1.19495522e+00 9.57484477e-01 1.62604497e+00 2.09559830e+00 2.13472573e+00 1.08092874e+00 8.32734030e-01 1.54231127e+00 1.50036701e+00 6.01960489e-01 3.46385462e-01 8.09895052e-01 1.37151410e+00 1.50160792e+00 8.73000327e-01 1.14683468e+00 9.39485227e-01 1.23886603e+00 2.02240347e+00 1.75333530e+00 1.50675942e+00 6.52950144e-01 4.17680810e-01 7.39754953e-01 9.23428359e-01 2.09307034e+00 1.26841857e+00 7.46040734e-01 1.54686075e+00 1.35429787e+00 8.21531901e-01 7.01393012e-01 1.15425888e+00 1.61022116e+00 1.42547384e+00 7.47477794e-01 7.69555296e-01 8.68948803e-01 4.07783361e-01 1.84224262e+00 2.73328945e+00 4.18798734e-01 2.69443223e+00 2.20591191e+00 1.41205083e+00 8.68285875e-01 1.14851506e+00 6.57715526e-01 1.83775841e+00 1.80736733e+00 1.09872911e+00 1.47583669e+00 1.80979015e+00 1.77815932e+00 8.16947953e-01 5.38781756e-01 2.23544808e+00 1.14601058e+00 1.51127170e+00 9.70877166e-01 7.47877719e-01 1.11244593e+00 2.06780206e+00 1.29214733e+00 1.65374280e+00 7.73920244e-01 5.35264395e-01 1.03299913e+00 1.03361241e+00 1.21420656e+00 1.74300176e+00 7.32339451e-01 7.90422612e-01 1.04284278e+00 9.22488102e-01 1.47944272e+00 1.56882310e+00 3.80319322e-01 1.08128168e+00 1.31233691e+00 9.37318274e-01 7.62505268e-01 1.85588899e+00 6.58008855e-01 2.77001002e+00 6.59235418e-01 8.46848773e-01 2.53162546e+00 1.21834338e+00 8.19837686e-01 1.96736855e+00 1.74206150e+00 1.33139385e+00 4.67261256e-01 2.50488315e+00 1.65658372e+00 1.18950511e+00 2.03558664e+00 1.07202452e+00 9.23028027e-01 1.65905132e+00 7.24143327e-01 1.46939335e+00 9.18713907e-01 6.32630948e-01 1.77858241e+00 1.27180049e+00 8.86891073e-01 1.15444101e+00 9.01934601e-01 1.57973420e+00 1.21620355e+00 7.40872876e-01 1.08022679e+00 2.98171579e-01 1.07662494e+00 8.47974860e-01 8.51170226e-01 1.43689219e+00 7.97489016e-01 1.94072467e+00 1.49809056e+00 9.04351373e-01 1.32832182e+00 1.99876625e+00 6.90137181e-01 1.84270220e+00 1.48243495e+00 1.19243831e+00 1.34852384e+00 1.01432780e+00 7.63877152e-01 1.21793474e+00 2.20424802e+00 1.41014157e+00 8.13427718e-01 1.02232841e+00 3.00785454e+00 2.90211289e+00 2.24283043e+00 1.33053191e+00 1.16752404e+00 1.32334241e+00 1.08936011e+00 1.90234827e+00 7.43535427e-01 1.78602124e+00 1.07672508e+00 1.30115669e+00 9.06332820e-01 1.45061381e+00 2.51659748e+00 1.25262803e+00 1.56831103e+00 1.15362510e+00 3.47475805e+00 1.51017004e+00 4.61957738e-01 1.88358924e+00 8.96328234e-01 6.64825408e-01 1.45001435e+00 1.62559425e+00 9.31809259e-01 2.14084911e+00 2.04844357e+00 1.21258357e+00 2.39732871e+00 2.67442037e+00 1.32950265e+00 3.55329977e+00 1.17505605e+00 3.25912403e+00 1.16136378e+00 2.31767065e+00 2.52379398e+00 1.62117018e+00 1.35148990e+00 1.28451356e+00 7.93760836e-01 1.06995250e+00 1.91977773e+00 2.10696162e+00 2.43569065e+00 2.54618689e+00 1.08389895e+00 1.91749237e+00 1.54186202e+00 1.02432707e+00 1.57218833e+00 2.89828015e+00 1.76824266e+00 1.52225783e+00 7.81643085e-01 1.63757072e+00 1.71976044e+00 1.83263043e+00 2.20210914e+00 1.15739194e+00 9.17444189e-01 9.42127152e-01 3.51025291e+00 2.83450823e+00 1.32513357e+00 1.22751888e+00 1.77754616e+00 9.58916214e-01 1.73262927e+00 1.23345834e+00 6.94160143e-01 2.12735513e+00 1.53489202e+00 1.49842703e+00 9.59047510e-01 3.56840378e+00 1.20824691e+00 7.62753076e-01 2.25447876e+00 1.02272056e+00 2.74921969e+00 1.10094241e+00 2.41314764e+00 2.36788567e+00 8.70257537e-01 1.63818452e+00 2.08051661e+00 1.72980365e+00 1.39442694e+00 1.26491877e+00 2.97813060e+00 1.62913414e+00 2.52569868e+00 1.57764239e+00 2.50916898e+00 1.90004896e+00 1.28536075e+00 4.54160494e+00 1.93670522e+00 1.82551641e+00 1.18039943e+00 3.26941375e+00 3.52733366e+00 1.36556720e+00 1.35368057e+00 1.56564211e+00 1.36212247e+00 1.24167060e+00 1.25182191e+00 9.35464812e-01 1.13104414e+00 1.31714623e+00 1.76652665e+00 1.65216554e+00 1.23285611e+00 1.05602606e+00 2.24232378e+00 1.98523665e+00 3.38775999e+00 2.70549289e+00 1.50917161e+00 1.26943551e+00 1.85392283e+00 8.43412102e-01 1.70609402e+00 1.33479470e+00 2.22851924e+00 1.39934650e+00 2.71103930e+00 2.78432618e+00 2.05917137e+00 1.65703596e+00 2.64120646e+00 3.12305952e+00 2.04770355e+00 1.86003854e+00 2.81197986e+00 1.06909876e+00 1.08923000e+00 2.34322366e+00 1.09615704e+00 2.30468247e+00 9.32346537e-01 2.61768785e+00 2.16946380e+00 3.44428298e+00 2.13904945e+00 1.08314120e+00 8.31444320e-01 2.55381332e+00 3.59918814e+00 3.43016606e+00 2.80891455e+00 2.05984288e+00 8.52544983e-01 1.82248517e+00 1.10690727e+00 2.41140982e+00 1.29582754e+00 1.50372523e+00 1.88308087e+00 2.00527371e+00 9.97300811e-01 1.94763939e+00 3.17222621e+00 1.42784150e+00 2.15894449e+00 2.75730585e+00 1.77157502e+00 3.18682664e+00 2.58971104e+00 1.78387576e+00 1.02347948e+00 2.03618813e+00 1.96611116e+00 1.57214689e+00 2.13778673e+00 3.25135867e+00 1.41805269e+00 1.17966881e+00 1.79453953e+00 1.82287933e+00 2.29376299e+00 4.08427186e+00 1.67922007e+00 2.05910874e+00 1.91305767e+00 2.00720420e+00 3.70740929e+00 2.55749522e+00 2.13475617e+00 1.88062531e+00 1.78305730e+00 1.21628571e+00 1.17723852e+00 1.91270551e+00 3.88671769e+00 1.97498596e+00 2.62995114e+00 2.11200585e+00 1.09621402e+00 1.07149492e+00 3.16134076e+00 2.75471724e+00 1.60608366e+00 1.50453103e+00 2.23423100e+00 2.76635988e+00 1.76230950e+00 2.14106160e+00 1.88063104e+00 9.94564903e-01 2.25365465e+00 2.24870504e+00 2.06820007e+00 1.36443143e+00 3.08515342e+00 7.92305612e-01 2.99169774e+00 2.85101838e+00 2.88843566e+00 1.72479215e+00 2.02753987e+00 3.01437174e+00 2.79498235e+00 2.94279450e+00 2.64809447e+00 2.55819395e+00 3.72378887e+00 2.36045847e+00 8.20779256e-01 3.02600497e+00 2.04120495e+00 9.93885615e-01 1.99114707e+00 2.34986026e+00 2.21518356e+00 2.73465285e+00 1.85885843e+00 1.07603432e+00 1.61841260e+00 1.08017918e+00 1.56691588e+00 2.59787285e+00 1.45686443e+00 2.76339139e+00 2.60190878e+00 8.11635410e-01 2.53675307e+00 1.59405878e+00 2.40149402e+00 1.58359824e+00 1.31154411e+00 2.00559185e+00 3.54196413e+00 1.80968364e+00 1.91062668e+00 1.98972470e+00 1.78179132e+00 2.18035979e+00 2.10449617e+00 2.68136303e+00 1.45593683e+00 1.66783966e+00 2.05068651e+00 5.35164724e+00 3.52917408e+00 2.33751322e+00 1.69499180e+00 1.97984606e+00 2.88689888e+00 2.64266004e+00 2.40885605e+00 2.62474403e+00 1.65472592e+00 1.71604163e+00 2.03601243e+00 4.15247473e+00 2.24370575e+00 2.14304276e+00 3.65502680e+00 2.45064071e+00 1.87600757e+00 2.37281295e+00 2.62074913e+00 3.86064201e+00 1.48286177e+00 3.05655319e+00 3.06949950e+00 4.22353533e+00 3.53454902e+00 1.95349306e+00 1.64544823e+00 2.81062493e+00 1.44346960e+00 3.21645010e+00 4.93664618e+00 2.49121629e+00 2.13528961e+00 1.18766314e+00 2.83900990e+00 1.61191081e+00 1.73276153e+00 1.95256262e+00 2.64131494e+00 3.47063192e+00 2.23809457e+00 2.06264621e+00 3.07632054e+00 1.73475741e+00 2.02503287e+00 3.09905786e+00 2.44799754e+00 9.12977951e-01 3.16636590e+00 2.42587256e+00 3.78304587e+00 2.21090590e+00 4.79358534e+00 2.49420538e+00 3.17951990e+00 1.30933282e+00 4.54982167e+00 1.57830644e+00 2.07926678e+00 1.82516527e+00 2.40986329e+00 2.15978347e+00 2.73205440e+00 2.33842932e+00 2.32101984e+00 3.62877615e+00 2.26344391e+00 2.14760915e+00 1.91075797e+00 2.16174883e+00 2.27950900e+00 2.23665839e+00 2.72886881e+00 1.75844205e+00 1.69695432e+00 1.33826509e+00 2.05266926e+00 2.71748468e+00 2.13536595e+00 2.63524787e+00 2.00220422e+00 1.42406570e+00 3.22802016e+00 1.88625019e+00 2.58844635e+00 1.88567445e+00 2.95941093e+00 1.57429781e+00 1.29017419e+00 2.76612453e+00 4.11835111e+00 2.17353760e+00 1.80797011e+00 2.43710154e+00 3.23751727e+00 2.71051172e+00 1.50928378e+00 1.40135599e+00 1.96389971e+00 3.20283873e+00 1.92621336e+00 1.04271565e+00 1.48532988e+00 1.50818871e+00 1.72129234e+00 1.41962593e+00 2.90076869e+00 2.06832690e+00 1.85794271e+00 2.07869359e+00 2.62650510e+00 3.15286370e+00 1.61948919e+00 3.76398694e+00 2.49806669e+00 2.06383132e+00 1.76264138e+00 2.21825783e+00 3.05663509e+00 1.39749518e+00 1.68542668e+00 2.58129441e+00 2.78940804e+00 2.81398719e+00 2.17159675e+00 1.08659722e+00 1.04234814e+00 3.28792521e+00 1.79409572e+00 3.33456471e+00 1.57285352e+00 1.62014031e+00 1.87548872e+00 2.06979310e+00 2.57074655e+00 2.34353853e+00 2.11860123e+00 1.72707265e+00 2.53510809e+00 1.11253374e+00 2.46482613e+00 3.49831833e+00 2.71459048e+00 1.41507186e+00 1.58596950e+00 1.54154374e+00 1.87230409e+00 3.08722779e+00 3.41442877e+00 9.02097578e-01 3.40566308e+00 2.05554122e+00 1.83100725e+00 4.02682165e+00 1.57155840e+00 1.09398276e+00 1.98947656e+00 2.55092731e+00 3.63584169e+00 2.61943521e+00 2.38785970e+00 1.43763231e+00 2.66218716e+00 2.74685181e+00 1.26000934e+00 2.21873920e+00 2.39758643e+00 2.78549238e+00 2.74315668e+00 1.78237643e+00 1.90993133e+00 2.29772676e+00 1.61054765e+00 1.99755427e+00 1.94712911e+00 3.78815710e+00 3.90937583e+00 1.49827693e+00 2.06964213e+00 3.82823780e+00 2.48024524e+00 2.25377330e+00 2.54326158e+00 3.19088162e+00 1.51318141e+00 3.50345493e+00 1.47867201e+00 3.05184242e+00 4.19673830e+00 1.29363541e+00 2.03002279e+00 2.54530551e+00 3.16114391e+00 1.84273167e+00 1.77127239e+00 2.25747542e+00 2.12720005e+00 2.09882759e+00 2.44460825e+00 2.52391179e+00 2.06245793e+00 1.92478862e+00 4.48990359e+00 1.69241154e+00 1.48219682e+00 2.88664590e+00 1.41321235e+00 2.39945442e+00 1.03718411e+00 3.25731427e+00 2.09565349e+00 2.20935988e+00 1.10279301e+00 2.74956073e+00 3.09796291e+00 1.77440214e+00 3.85414596e+00 4.50107131e+00 2.94420708e+00 1.94436538e+00 1.76550825e+00 2.13867007e+00 1.71787715e+00 1.24503052e+00 1.64178005e+00 1.67713010e+00 3.19168382e+00 2.50388027e+00 3.36228460e+00 2.34286744e+00 1.38544610e+00 3.53169341e+00 3.05812896e+00 2.89493962e+00 1.87753584e+00 2.69910072e+00 2.47252476e+00 2.29463408e+00 1.93417483e+00 1.13038751e+00 1.80848123e+00 2.89389769e+00 2.25677952e+00 2.49815035e+00 2.84690580e+00 2.69789633e+00 1.89690128e+00 1.79714398e+00 2.81881987e+00 1.82223334e+00 3.09072017e+00 2.96223141e+00 1.55717252e+00 2.07848768e+00 2.84244199e+00 1.39412312e+00 2.52505824e+00 3.21090326e+00 2.91345253e+00 1.70259284e+00 1.49759149e+00 2.40460372e+00 2.18986318e+00 1.85980022e+00 2.27331605e+00 2.48116559e+00 2.81224399e+00 2.90977785e+00 4.44679717e+00 1.25962121e+00 3.14738264e+00 3.28483330e+00 1.57447715e+00 2.23073588e+00 2.06512638e+00 2.90529206e+00 2.65588888e+00 1.26186789e+00 1.12516146e+00 3.47102033e+00 2.52846598e+00 2.12268829e+00 2.53081340e+00 3.53273167e+00 1.85639299e+00 2.09885917e+00 2.90098263e+00 2.39627533e+00 1.81291284e+00 1.98613038e+00 2.74956276e+00 2.24758788e+00 2.72809351e+00 1.32873311e+00 3.28262578e+00 3.98211105e+00 1.93423649e+00 2.35563008e+00 2.62454762e+00 2.03499115e+00 1.68668003e+00 3.04351949e+00 3.00349342e+00 1.99324605e+00 2.74196140e+00 1.70536690e+00 2.70346596e+00 2.37952315e+00 3.21599524e+00 3.13534752e+00 2.41308294e+00 1.11194599e+00 3.95112034e+00 1.64427102e+00 3.05788118e+00 1.01384836e+00 2.41130185e+00 2.12587951e+00 2.62666291e+00 1.36996351e+00 3.29712987e+00 3.17639344e+00 2.26078424e+00 2.20452933e+00 2.90307982e+00 3.90285830e+00 3.44980680e+00 2.77909508e+00 1.84720686e+00 1.88822953e+00 2.87103645e+00 2.27893667e+00 2.15737839e+00 2.74492833e+00 2.60918036e+00 3.00344922e+00 2.38066141e+00 1.98612507e+00 3.10141686e+00 3.73715507e+00 1.57692177e+00 1.72385444e+00 1.66126081e+00 2.66027888e+00 3.71118286e+00 2.12150818e+00 2.45319381e+00 2.09416812e+00 1.80542876e+00 2.74823798e+00 4.29896827e+00 1.64519525e+00 1.99356916e+00 2.59639531e+00 2.23426567e+00 2.39759024e+00 2.42422052e+00 2.01416986e+00 2.25797489e+00 9.93047182e-01 2.04554959e+00 3.04653419e+00 2.64181591e+00 9.85828982e-01 2.01760358e+00 2.53422873e+00 1.39599383e+00 2.28508266e+00 3.65910805e+00 2.76779214e+00 2.59889991e+00 2.70543124e+00 1.77464147e+00 3.61780430e+00 3.36158036e+00 1.59164318e+00 1.67451435e+00 1.19494100e+00 2.30748402e+00 3.25834886e+00 1.73764272e+00 1.70168910e+00 2.32001199e+00 2.57350967e+00 3.28547815e+00 2.13145314e+00 1.41381675e+00 2.50894822e+00 2.19328181e+00 3.49935244e+00 1.70682828e+00 1.70873830e+00 2.65164904e+00 1.44681879e+00 1.92351942e+00 2.28067658e+00 6.83837119e+00 2.17802215e+00 2.16018926e+00 3.99260460e+00 3.14876995e+00 2.41600846e+00 2.28364264e+00 1.21738110e+00 2.03377118e+00 1.21892935e+00 2.38683419e+00 2.26600514e+00 2.78874699e+00 1.44698132e+00 1.10154307e+00 1.44205147e+00 2.64288951e+00 2.78984898e+00 2.04919985e+00 3.02952693e+00 2.32247191e+00 2.18254794e+00 2.51675121e+00 2.27581489e+00 2.16682703e+00 2.38804811e+00 2.40602895e+00 2.74764542e+00 2.07288354e+00 1.75953181e+00 1.80920091e+00 2.88227564e+00 1.31889565e+00 2.59595800e+00 2.41592280e+00 2.34081125e+00 3.52046611e+00 2.47394898e+00 4.01320403e+00 2.08525921e+00 1.89684298e+00 2.24070201e+00 1.90604030e+00 2.54251925e+00 2.23714149e+00 3.02676214e+00 2.15260809e+00 3.03831900e+00 8.34188423e-01 3.18805355e+00 2.36577126e+00 2.98440142e+00 1.32887344e+00 1.99903407e+00 2.45177367e+00 2.37776553e+00 2.16441121e+00 1.67114429e+00 2.31700672e+00 1.90700271e+00 3.10131796e+00 1.92221450e+00 2.86960913e+00 4.50618263e+00 2.39542415e+00 1.56181479e+00 2.90442471e+00 2.43261517e+00 2.37434829e+00 2.23801000e+00 2.54449623e+00 2.55578823e+00 2.76482045e+00 1.52022497e+00 2.90259580e+00 1.47918614e+00 1.63981658e+00 4.16387573e+00 9.29614488e-01 2.12579448e+00 1.84769499e+00 2.36235447e+00 1.34040492e+00 3.48308151e+00 1.92165279e+00 1.84771392e+00 2.69449141e+00 1.51854747e+00 1.65187448e+00 2.88943275e+00 9.11988553e-01 4.08979551e+00 2.73665304e+00 3.34085001e+00 1.78031059e+00 2.13434586e+00 2.39071967e+00 2.98723699e+00 1.95548374e+00 2.62423919e+00 1.86865800e+00 2.81490039e+00 2.41808676e+00 2.16308920e+00 3.10371264e+00 2.83088554e+00 1.82138961e+00 2.20178825e+00 1.50948123e+00 2.39923768e+00 1.74101527e+00 2.35736168e+00 1.95563758e+00 2.19818305e+00 3.50560240e+00 2.80398377e+00 2.52480192e+00 1.66955739e+00 1.74045282e+00 2.68509806e+00 2.14800487e+00 3.00129673e+00 2.98499234e+00 3.54145293e+00 1.60430738e+00 2.14777685e+00 1.93516455e+00 4.10970844e+00 2.04612856e+00 1.92588870e+00 2.80832202e+00 2.53477237e+00 2.59225236e+00 2.21365736e+00 2.51759880e+00 3.26516486e+00 1.59873307e+00 1.77538606e+00 1.63479520e+00 3.41519340e+00 1.63693312e+00 3.58120058e+00 1.51060529e+00 2.38787865e+00 1.58913267e+00 2.05919093e+00 2.21087244e+00 2.34615882e+00 2.33247972e+00 2.11690460e+00 2.89226477e+00 3.28237982e+00 1.50565727e+00 1.81291489e+00 2.57930231e+00 1.99678473e+00 2.14894258e+00 2.75022908e+00 1.55487225e+00 1.60471600e+00 1.66405657e+00 1.66194182e+00 1.64976550e+00 2.35074411e+00 2.04443351e+00 1.31272106e+00 1.96168791e+00 2.77735827e+00 3.18068855e+00 3.02419887e+00 1.41538389e+00 8.59925329e-01 2.22715506e+00 4.55541592e+00 1.76678733e+00 3.00663578e+00 2.13329154e+00 2.42788904e+00 1.13055036e+00 4.04538895e+00 2.39159979e+00 3.64769872e+00 1.66769141e+00 1.97732676e+00 1.08959445e+00 1.47479047e+00 1.75231456e+00 1.77926985e+00 7.42085741e-01 2.23485069e+00 2.77643206e+00 1.14158540e+00 2.66143766e+00 1.97249234e+00 1.71696238e+00 2.30702963e+00 2.67445144e+00 1.97443893e+00 2.64004149e+00 2.04667986e+00 2.63794082e+00 2.97383119e+00 2.39965620e+00 2.43440862e+00 2.08452667e+00 1.60240972e+00 2.13422723e+00 2.09711448e+00 2.36337534e+00 1.17615931e+00 2.56800515e+00 3.05434576e+00 1.33425382e+00 1.75178816e+00 6.45309491e-01 9.86558776e-01 8.86171308e-01 2.01503482e+00 1.20636258e+00 2.02075014e+00 2.08676578e+00 8.52259146e-01 1.96624102e+00 4.42771882e+00 1.15700068e+00 1.82213789e+00 8.86658938e-01 1.56737380e+00 8.64105602e-01 1.71189389e+00 7.05189032e-01 1.10865295e+00 9.30824352e-01 9.24649761e-01 1.72199346e+00 2.05280600e+00 7.38903892e-01 1.17139476e+00 2.04496716e+00 1.05723265e+00 8.43012303e-01 1.45492362e+00 1.45570507e+00 3.07896729e+00 1.58072682e+00 2.56028305e+00 8.89614482e-01 2.82512770e+00 1.67126445e+00 2.80242204e+00 1.22383723e+00 1.62735685e+00 1.28461269e+00 8.90820940e-01 1.91901013e+00 1.19063233e+00 2.64049552e+00 1.49765115e+00 2.91768962e-01 7.63988470e-01 1.06092650e+00 1.71620346e+00 1.57487245e+00 1.61520305e+00 2.28360367e+00 9.91651475e-01 1.23942055e+00 2.53644145e+00 1.52040146e+00 1.93742551e+00 1.49601666e+00 9.16810085e-01 1.94372678e+00 2.40467600e+00 1.32733911e+00 2.01088970e+00 1.50751947e+00 2.51900587e+00 1.96693359e+00 1.65173703e+00 2.00826947e+00 8.67200509e-01 1.77799681e+00 1.95691950e+00 1.34313551e+00 5.90028372e-01 1.39054614e+00 7.21990867e-01 1.63620696e+00 8.55982963e-01 8.03235001e-01 8.67200509e-01 2.74771845e+00 6.53988559e-01 1.70264333e+00 9.49714684e-01 1.70914655e+00 8.40056565e-01 7.20895600e-01 1.14487569e+00 1.19809949e+00 5.09740142e-01 7.13246623e-01 7.28421461e-01 1.33349234e+00 7.12772833e-01 1.25030740e+00 1.47556979e+00 1.12750596e+00 6.99015399e-01 1.31148015e+00 5.02946948e-01 7.65745818e-01 1.41782237e+00 1.90872672e+00 9.43882716e-01 1.63330447e+00 1.28878681e+00 7.32787240e-01 4.13503162e+00 3.38453523e-01 5.65024134e-01 1.08209412e+00 1.52255997e+00 8.48178501e-01 6.99803004e-01 3.03553472e+00 6.56017201e-01 8.75936557e-01 5.97298231e-01 7.87614223e-01 1.41081451e+00 2.13633934e+00 4.51497836e-01 7.83352593e-01 6.22955500e-01 5.94424874e-01 1.19572605e+00 1.58966529e+00 3.69720056e-01 1.04152235e+00 2.47717940e+00 1.59033445e+00 1.31392560e+00 2.01773455e+00 1.43622154e+00 2.91631514e-01 1.23150041e+00 1.39704289e+00 5.46418936e-01 9.90164800e-01 4.24359213e-01 1.77995331e+00 1.52837929e+00 1.17498370e+00 8.34581874e-01 1.04040200e+00 8.12847317e-01 8.18233345e-01 2.14219514e-01 1.56336868e+00 4.18433260e-01 1.23023601e+00 6.02122636e-01 8.26838225e-01 1.21538331e+00 6.40770219e-01 5.11229691e-01 1.00538938e+00 5.89489278e-01 6.10193744e-01 9.45429373e-01 5.13800302e-01 1.36603497e+00 3.58299759e-01 7.99708486e-01 1.56316318e+00 9.54983877e-01 3.86830384e-01 6.65468710e-01 4.63226626e-01 5.56176064e-01 6.42967033e-01 1.13218568e+00 2.77705909e-01 8.31363852e-01 5.44841555e-01 4.85129355e-01 1.26905837e+00 1.22927061e+00 5.65563228e-01 1.61323509e+00 1.41462701e+00 2.25241039e-01 5.55468799e-01 1.66907796e+00 3.51198072e-01 1.39094492e+00 6.31157776e-01 6.22310664e-01 4.33206452e-01 1.73190375e+00 4.92998162e-01 1.53624353e+00 6.21069626e-01 8.17999870e-01 3.77135558e-01 7.66586931e-01 3.09811707e-01 1.20645512e+00 4.59788774e-01 8.78755807e-01 2.73954242e-01 1.14684927e+00 3.99740231e-01 4.85976942e-01 8.24627767e-01 1.23558554e+00 7.19363276e-01 5.18259234e-01 6.10895688e-01 2.91463343e-01 1.15888368e+00 5.31843046e-01 8.73281116e-01 4.23820119e-01 7.42858183e-01 2.91463343e-01 4.53446011e-01 8.22524106e-01 2.89740319e-01 2.36969829e-01 5.35871202e-01 6.25266275e-01 8.86652463e-01 6.63666178e-01 9.87032694e-01 1.17666842e+00 1.34865686e+00 3.37132145e-01 1.81463431e-01 5.59774723e-01 3.95032660e-01 2.32744372e-01 3.91625659e-01 1.08348067e+00 9.58364621e-01 2.78011528e-01 7.59201390e-01 1.56568730e+00 7.54521797e-01 7.29742839e-01 5.06698614e-01 4.71203750e-01 4.50176458e-01 1.37991443e-01 4.59474959e-01 7.24810116e-01 9.84921541e-01 6.90504503e-01 1.03605875e+00 4.46256620e-01 4.80421784e-01 2.42790990e+00 1.74496309e+00 2.45087275e-01 2.64793189e-01 4.78056798e-01 8.72495959e-02 5.78670377e-01 2.12728107e+00 2.27503156e-02 2.00293909e-01 7.59682546e-01 2.17409558e-01 2.33218163e-01 1.72427054e+00 1.95220865e-01 8.52209530e-02 1.05300719e+00 6.06830079e-01 1.18992794e-01 4.92998162e-01 2.15067100e-01 1.09292646e-01 1.08548018e+00 5.46185461e-01 5.45768651e-01 2.97411824e-01 1.64661596e-01 4.13806157e-01 9.05024314e-01 5.82051248e-01 5.33651859e-01 2.27503156e-02 9.46773279e-01 1.35794628e-01 1.23187133e+00 6.86102551e-01 2.93491986e-01 2.32912543e-01 2.94507744e-01 1.49720233e-01 1.30225825e+00 4.35235095e-01 1.57976067e+00 3.57452172e-01 8.24006290e-01 1.57135735e-01 1.70747525e-01 6.06998378e-01 1.22001738e+00 3.37718407e-02 4.55006313e-02 1.12590245e+00 1.41911281e-01 8.65358843e-01 1.08019247e+00 6.61660063e-01 2.14219514e-01 7.25371611e-01 1.54961449e-01 8.58034134e-01 2.53771664e-01 1.14966565e+00 6.24706373e-02 5.84079891e-01 4.01939918e-01 9.62424781e-02 3.63939747e-01 7.26690115e-01 1.64661596e-01 1.23228814e+00 3.21483517e-01 2.27503156e-02 6.16530227e-01 1.30721584e-01 5.86139258e-01 5.41960004e-01 1.40745629e+00 3.97203217e-02 9.49985851e-01 1.24941275e-01 3.17797154e-01 8.07934249e-01 1.29579854e+00 1.13044313e-01 1.93024050e-01 4.57278145e-01 2.78413175e-01 9.22593268e-01 1.04978834e+00 3.37718407e-02 2.91463343e-01 1.41750324e+00 2.91463343e-01 1.04219602e-01 8.64624577e-01 4.55006313e-02 0.00000000e+00 3.42037018e-01 1.04342272e+00 1.07971269e-01 2.36969829e-01 1.17269770e-01 2.23212396e-01 7.82849671e-01 1.10315213e+00 0.00000000e+00 5.65221564e-02 1.02022788e-01 4.55006313e-02 1.75683121e-01 1.28373725e+00 2.72770313e-01 0.00000000e+00 1.47691590e-01 0.00000000e+00 2.27503156e-02 1.18513786e+00 8.69453445e-01 0.00000000e+00 1.24941275e-01 4.55006313e-02 3.97203217e-02 2.09286791e-01 1.04700077e+00 0.00000000e+00 0.00000000e+00 2.19999823e-01 2.27503156e-02 1.13212484e-01 1.94513599e-01 3.37718407e-02 2.23044224e-01 7.92724720e-02 0.00000000e+00 0.00000000e+00 3.97203217e-02 4.00901632e-01 0.00000000e+00 2.89266528e-01 3.13563373e-01 0.00000000e+00 0.00000000e+00 6.44992803e-02 0.00000000e+00 1.04219602e-01 3.23512160e-01 0.00000000e+00 0.00000000e+00 0.00000000e+00 0.00000000e+00 1.92233306e+00 2.40014230e-01 2.15403443e-01 0.00000000e+00 4.55006313e-02 0.00000000e+00 1.26969918e-01 1.32094682e+00 0.00000000e+00 0.00000000e+00 0.00000000e+00 0.00000000e+00 2.27503156e-02 1.86740021e+00 0.00000000e+00 0.00000000e+00 0.00000000e+00 2.27503156e-02 2.27503156e-02 2.20308316e-01 6.75081026e-01 0.00000000e+00 0.00000000e+00 6.44992803e-02 2.27503156e-02 7.34921624e-02 6.62813269e-01 0.00000000e+00 3.14213658e-01 0.00000000e+00 0.00000000e+00 0.00000000e+00 1.52764634e-01 0.00000000e+00 0.00000000e+00 2.96704558e-01 0.00000000e+00 0.00000000e+00 0.00000000e+00 3.97203217e-02 0.00000000e+00 2.38153759e-01 0.00000000e+00 0.00000000e+00 0.00000000e+00 0.00000000e+00 0.00000000e+00 0.00000000e+00 
      </Histogram>
    </PDF>
    <PDF Name="BDT_PDFBkg" MinNSmooth="0" MaxNSmooth="0" InterpolMethod="2" KDE_type="1" KDE_iter="1" KDE_border="1" KDE_finefactor="1.0000000000000000e+00">
      <Histogram Name="BDT_tr_B_original" NBins="3404" XMin="-5.4180639982223511e-01" XMax="5.9619534015655518e-01" HasEquidistantBins="1">
        5.27596451e-02 0.00000000e+00 0.00000000e+00 0.00000000e+00 0.00000000e+00 0.00000000e+00 0.00000000e+00 0.00000000e+00 0.00000000e+00 0.00000000e+00 0.00000000e+00 0.00000000e+00 0.00000000e+00 0.00000000e+00 0.00000000e+00 0.00000000e+00 0.00000000e+00 0.00000000e+00 0.00000000e+00 0.00000000e+00 0.00000000e+00 5.27596451e-02 3.16557871e-01 2.11038580e-01 0.00000000e+00 0.00000000e+00 0.00000000e+00 0.00000000e+00 0.00000000e+00 0.00000000e+00 0.00000000e+00 0.00000000e+00 0.00000000e+00 0.00000000e+00 0.00000000e+00 0.00000000e+00 1.05519290e-01 0.00000000e+00 0.00000000e+00 0.00000000e+00 0.00000000e+00 0.00000000e+00 0.00000000e+00 2.37418403e-01 1.31899113e-01 0.00000000e+00 0.00000000e+00 5.27596451e-02 2.63798226e-02 0.00000000e+00 0.00000000e+00 1.05519290e-01 0.00000000e+00 2.63798226e-02 0.00000000e+00 0.00000000e+00 0.00000000e+00 1.05519290e-01 2.63798226e-02 0.00000000e+00 0.00000000e+00 1.05519290e-01 0.00000000e+00 0.00000000e+00 0.00000000e+00 0.00000000e+00 0.00000000e+00 0.00000000e+00 0.00000000e+00 0.00000000e+00 0.00000000e+00 2.63798226e-01 7.91394677e-02 2.63798226e-02 5.27596451e-02 0.00000000e+00 2.63798226e-02 1.84658758e-01 1.31899113e-01 0.00000000e+00 0.00000000e+00 0.00000000e+00 2.63798226e-02 0.00000000e+00 0.00000000e+00 2.63798226e-02 0.00000000e+00 0.00000000e+00 0.00000000e+00 0.00000000e+00 0.00000000e+00 7.91394677e-02 7.91394677e-02 4.74836806e-01 0.00000000e+00 0.00000000e+00 2.63798226e-02 7.91394677e-02 1.31899113e-01 7.91394677e-02 0.00000000e+00 2.63798226e-02 0.00000000e+00 0.00000000e+00 2.63798226e-02 0.00000000e+00 2.63798226e-02 0.00000000e+00 0.00000000e+00 0.00000000e+00 3.95697338e-01 5.27596451e-01 5.27596451e-02 0.00000000e+00 3.69317516e-01 2.63798226e-02 2.63798226e-02 0.00000000e+00 2.63798226e-02 0.00000000e+00 0.00000000e+00 2.90178048e-01 0.00000000e+00 0.00000000e+00 5.27596451e-02 0.00000000e+00 2.90178048e-01 5.01216629e-01 2.63798226e-02 0.00000000e+00 0.00000000e+00 7.91394677e-02 3.69317516e-01 1.84658758e-01 0.00000000e+00 7.91394677e-02 1.05519290e-01 3.69317516e-01 1.05519290e-01 0.00000000e+00 2.11038580e-01 2.90178048e-01 1.05519290e-01 1.31899113e-01 2.63798226e-02 0.00000000e+00 5.27596451e-02 1.31899113e-01 2.11038580e-01 1.05519290e-01 7.91394677e-02 7.91394677e-02 5.01216629e-01 0.00000000e+00 2.63798226e-02 5.27596451e-01 2.63798226e-01 0.00000000e+00 2.90178048e-01 2.90178048e-01 5.27596451e-02 3.95697338e-01 0.00000000e+00 1.05519290e-01 0.00000000e+00 2.11038580e-01 2.11038580e-01 0.00000000e+00 2.63798226e-02 2.63798226e-01 3.69317516e-01 1.08157273e+00 3.42937693e-01 7.91394677e-01 4.22077161e-01 5.27596451e-01 2.37418403e-01 2.37418403e-01 1.05519290e-01 1.31899113e-01 2.11038580e-01 2.63798226e-01 1.05519290e-01 1.31899113e-01 3.16557871e-01 1.05519290e-01 2.11038580e-01 5.27596451e-02 4.48456984e-01 3.95697338e-01 3.69317516e-01 3.42937693e-01 7.38635032e-01 1.31899113e-01 9.49673612e-01 2.11038580e-01 3.69317516e-01 9.23293790e-01 7.91394677e-01 5.01216629e-01 0.00000000e+00 1.58278935e-01 1.84658758e-01 0.00000000e+00 5.27596451e-01 5.53976274e-01 1.05519290e-01 3.95697338e-01 5.01216629e-01 5.01216629e-01 8.44154322e-01 4.74836806e-01 5.80356096e-01 1.84658758e-01 8.44154322e-01 3.95697338e-01 9.76053435e-01 1.31899113e-01 7.91394677e-01 6.59495564e-01 4.22077161e-01 3.42937693e-01 1.58278935e-01 5.01216629e-01 2.11038580e-01 4.48456984e-01 7.91394677e-01 7.38635032e-01 3.42937693e-01 7.91394677e-01 3.95697338e-01 5.80356096e-01 1.31899113e-01 2.90178048e-01 3.95697338e-01 6.59495564e-01 3.95697338e-01 8.44154322e-01 2.63798226e-01 5.53976274e-01 2.37418403e-01 6.33115741e-01 6.33115741e-01 5.01216629e-01 7.65014854e-01 4.74836806e-01 8.17774499e-01 3.42937693e-01 5.53976274e-01 6.85875387e-01 3.95697338e-01 1.05519290e-01 1.39813060e+00 3.16557871e-01 9.76053435e-01 3.16557871e-01 1.37175077e+00 4.74836806e-01 8.17774499e-01 1.31899113e-01 9.76053435e-01 4.48456984e-01 6.06735919e-01 5.01216629e-01 4.22077161e-01 7.65014854e-01 6.06735919e-01 7.38635032e-01 9.49673612e-01 7.12255209e-01 2.11038580e-01 8.17774499e-01 1.58278935e-01 1.39813060e+00 6.59495564e-01 1.60916918e+00 8.17774499e-01 1.23985166e+00 4.74836806e-01 6.59495564e-01 5.80356096e-01 2.63798226e-01 0.00000000e+00 6.59495564e-01 6.33115741e-01 1.16071219e+00 9.23293790e-01 4.74836806e-01 8.70534145e-01 1.39813060e+00 1.74106829e+00 7.38635032e-01 5.53976274e-01 7.91394677e-01 3.16557871e-01 4.74836806e-01 7.12255209e-01 1.58278935e-01 8.44154322e-01 1.10795255e+00 1.31899113e-01 9.76053435e-01 1.45089024e+00 1.05519290e+00 1.21347184e+00 1.00243326e+00 1.37175077e+00 1.31899113e+00 6.59495564e-01 8.44154322e-01 6.59495564e-01 7.91394677e-01 1.60916918e+00 5.80356096e-01 1.82020776e+00 8.17774499e-01 8.44154322e-01 1.68830864e+00 1.08157273e+00 8.70534145e-01 5.80356096e-01 8.96913967e-01 4.74836806e-01 1.42451042e+00 1.00243326e+00 8.44154322e-01 9.49673612e-01 1.39813060e+00 4.22077161e-01 7.91394677e-01 1.02881308e+00 8.44154322e-01 1.39813060e+00 1.21347184e+00 8.44154322e-01 1.23985166e+00 8.96913967e-01 8.44154322e-01 1.16071219e+00 9.76053435e-01 1.21347184e+00 1.47727006e+00 8.96913967e-01 9.76053435e-01 7.38635032e-01 1.47727006e+00 2.84902084e+00 1.10795255e+00 8.17774499e-01 1.26623148e+00 1.13433237e+00 1.34537095e+00 6.06735919e-01 6.33115741e-01 1.18709202e+00 8.44154322e-01 2.53246297e+00 1.00243326e+00 2.34780421e+00 8.70534145e-01 1.39813060e+00 7.91394677e-01 1.23985166e+00 2.42694368e+00 8.96913967e-01 1.55640953e+00 1.42451042e+00 2.42694368e+00 1.05519290e+00 1.26623148e+00 7.65014854e-01 2.24228492e+00 1.60916918e+00 1.92572705e+00 1.68830864e+00 9.49673612e-01 1.18709202e+00 1.34537095e+00 5.27596451e-01 1.13433237e+00 1.18709202e+00 1.47727006e+00 1.26623148e+00 1.21347184e+00 2.50608314e+00 1.39813060e+00 1.55640953e+00 1.71468847e+00 1.55640953e+00 2.11038580e+00 1.92572705e+00 1.00243326e+00 1.08157273e+00 2.45332350e+00 1.37175077e+00 3.19195853e+00 1.10795255e+00 7.91394677e-01 1.55640953e+00 1.13433237e+00 2.03124634e+00 1.53002971e+00 1.42451042e+00 2.24228492e+00 2.66436208e+00 9.23293790e-01 1.60916918e+00 1.42451042e+00 1.87296740e+00 1.00243326e+00 1.08157273e+00 7.65014854e-01 1.71468847e+00 1.68830864e+00 1.50364989e+00 1.34537095e+00 3.61403569e+00 1.47727006e+00 3.40299711e+00 1.31899113e+00 1.08157273e+00 1.53002971e+00 1.63554900e+00 1.82020776e+00 8.44154322e-01 1.21347184e+00 1.21347184e+00 1.82020776e+00 1.31899113e+00 8.44154322e-01 2.16314545e+00 1.45089024e+00 2.11038580e+00 1.58278935e+00 1.29261131e+00 1.21347184e+00 2.18952527e+00 1.00243326e+00 1.31899113e+00 3.95697338e+00 1.60916918e+00 1.42451042e+00 1.13433237e+00 1.45089024e+00 8.17774499e-01 2.42694368e+00 1.55640953e+00 7.91394677e-01 1.76744811e+00 1.02881308e+00 3.00729977e+00 2.18952527e+00 7.65014854e-01 2.24228492e+00 2.42694368e+00 2.63798226e+00 9.49673612e-01 1.26623148e+00 1.26623148e+00 1.97848669e+00 1.76744811e+00 1.63554900e+00 2.08400598e+00 1.68830864e+00 1.92572705e+00 1.95210687e+00 1.97848669e+00 2.90178048e+00 1.55640953e+00 1.84658758e+00 1.58278935e+00 1.95210687e+00 1.71468847e+00 2.08400598e+00 1.95210687e+00 1.87296740e+00 1.71468847e+00 2.03124634e+00 2.63798226e+00 1.39813060e+00 1.50364989e+00 2.08400598e+00 2.13676563e+00 1.37175077e+00 2.18952527e+00 2.69074190e+00 2.00486651e+00 1.76744811e+00 1.34537095e+00 2.08400598e+00 2.42694368e+00 1.58278935e+00 1.74106829e+00 3.00729977e+00 2.47970332e+00 1.02881308e+00 2.40056385e+00 2.87540066e+00 1.66192882e+00 3.32385764e+00 2.74350155e+00 2.50608314e+00 2.66436208e+00 2.00486651e+00 2.55884279e+00 1.95210687e+00 2.18952527e+00 2.21590510e+00 2.05762616e+00 1.23985166e+00 1.26623148e+00 2.37418403e+00 1.26623148e+00 3.64041551e+00 1.42451042e+00 1.42451042e+00 2.84902084e+00 3.08643924e+00 1.50364989e+00 2.74350155e+00 2.90178048e+00 3.42937693e+00 5.22320487e+00 2.32142439e+00 1.71468847e+00 1.29261131e+00 2.00486651e+00 1.47727006e+00 1.21347184e+00 1.55640953e+00 2.71712172e+00 2.45332350e+00 1.87296740e+00 1.37175077e+00 3.48213658e+00 3.00729977e+00 3.11281906e+00 3.08643924e+00 1.97848669e+00 2.21590510e+00 1.31899113e+00 1.63554900e+00 1.82020776e+00 1.58278935e+00 2.26866474e+00 2.74350155e+00 1.84658758e+00 2.37418403e+00 1.95210687e+00 4.16801196e+00 2.11038580e+00 2.13676563e+00 1.42451042e+00 1.89934722e+00 2.84902084e+00 1.45089024e+00 1.50364989e+00 2.79626119e+00 1.71468847e+00 2.32142439e+00 1.63554900e+00 1.37175077e+00 2.71712172e+00 1.95210687e+00 2.87540066e+00 2.03124634e+00 2.11038580e+00 1.68830864e+00 3.21833835e+00 1.76744811e+00 2.42694368e+00 2.24228492e+00 1.76744811e+00 2.29504456e+00 1.39813060e+00 1.92572705e+00 1.63554900e+00 3.50851640e+00 2.40056385e+00 1.89934722e+00 1.92572705e+00 1.97848669e+00 1.79382793e+00 1.97848669e+00 1.71468847e+00 2.26866474e+00 1.76744811e+00 2.08400598e+00 1.50364989e+00 2.29504456e+00 1.89934722e+00 3.37661729e+00 2.58522261e+00 2.61160243e+00 2.16314545e+00 4.82750753e+00 2.95454013e+00 2.63798226e+00 1.79382793e+00 2.05762616e+00 2.34780421e+00 3.48213658e+00 1.97848669e+00 3.58765587e+00 3.42937693e+00 2.16314545e+00 2.21590510e+00 2.05762616e+00 1.60916918e+00 1.76744811e+00 2.40056385e+00 2.45332350e+00 2.32142439e+00 1.79382793e+00 1.55640953e+00 1.37175077e+00 3.00729977e+00 4.51094966e+00 3.03367959e+00 2.37418403e+00 2.08400598e+00 1.79382793e+00 2.29504456e+00 2.11038580e+00 2.32142439e+00 3.69317516e+00 2.11038580e+00 4.85388735e+00 1.68830864e+00 1.95210687e+00 2.05762616e+00 2.98091995e+00 2.26866474e+00 2.55884279e+00 2.18952527e+00 2.76988137e+00 1.95210687e+00 2.11038580e+00 3.16557871e+00 3.69317516e+00 1.58278935e+00 1.82020776e+00 2.13676563e+00 2.90178048e+00 2.21590510e+00 2.87540066e+00 2.45332350e+00 2.42694368e+00 3.69317516e+00 2.82264101e+00 5.90908025e+00 2.32142439e+00 2.16314545e+00 2.87540066e+00 2.69074190e+00 2.29504456e+00 1.10795255e+00 1.74106829e+00 2.40056385e+00 2.50608314e+00 2.32142439e+00 2.26866474e+00 4.77474788e+00 2.40056385e+00 2.26866474e+00 1.87296740e+00 4.40543037e+00 1.58278935e+00 2.63798226e+00 1.50364989e+00 2.71712172e+00 4.00973303e+00 2.13676563e+00 1.68830864e+00 3.50851640e+00 2.53246297e+00 1.58278935e+00 5.61890221e+00 2.08400598e+00 2.79626119e+00 2.03124634e+00 2.45332350e+00 1.89934722e+00 4.06249267e+00 1.42451042e+00 3.00729977e+00 1.76744811e+00 3.35023747e+00 2.74350155e+00 2.45332350e+00 1.58278935e+00 2.76988137e+00 3.32385764e+00 1.47727006e+00 2.34780421e+00 2.37418403e+00 1.92572705e+00 1.84658758e+00 5.56614256e+00 5.35510398e+00 2.53246297e+00 3.16557871e+00 1.76744811e+00 2.08400598e+00 3.06005942e+00 2.29504456e+00 2.69074190e+00 2.63798226e+00 1.68830864e+00 1.16071219e+00 2.92816030e+00 1.23985166e+00 3.00729977e+00 3.00729977e+00 4.56370930e+00 2.16314545e+00 3.35023747e+00 3.06005942e+00 1.55640953e+00 2.37418403e+00 3.69317516e+00 2.87540066e+00 2.16314545e+00 2.16314545e+00 2.37418403e+00 3.29747782e+00 2.24228492e+00 1.37175077e+00 2.98091995e+00 4.16801196e+00 1.66192882e+00 5.06492593e+00 2.53246297e+00 3.11281906e+00 3.35023747e+00 1.92572705e+00 2.03124634e+00 2.24228492e+00 2.74350155e+00 3.16557871e+00 1.95210687e+00 2.92816030e+00 2.37418403e+00 5.77718114e+00 2.92816030e+00 3.35023747e+00 5.17044522e+00 2.53246297e+00 1.58278935e+00 3.53489622e+00 1.92572705e+00 2.71712172e+00 1.92572705e+00 3.95697338e+00 6.22563812e+00 2.05762616e+00 2.69074190e+00 2.29504456e+00 3.08643924e+00 1.84658758e+00 2.53246297e+00 2.16314545e+00 3.16557871e+00 2.03124634e+00 2.29504456e+00 2.69074190e+00 5.93546008e+00 2.61160243e+00 2.71712172e+00 4.37905055e+00 4.43181019e+00 1.68830864e+00 3.48213658e+00 1.82020776e+00 2.03124634e+00 3.32385764e+00 1.92572705e+00 4.88026717e+00 1.84658758e+00 2.53246297e+00 3.35023747e+00 8.41516340e+00 2.53246297e+00 2.13676563e+00 2.42694368e+00 3.13919888e+00 2.05762616e+00 2.71712172e+00 2.71712172e+00 3.66679534e+00 2.63798226e+00 2.18952527e+00 1.79382793e+00 2.16314545e+00 2.26866474e+00 2.71712172e+00 4.14163214e+00 2.76988137e+00 2.26866474e+00 3.42937693e+00 3.48213658e+00 2.63798226e+00 3.32385764e+00 2.63798226e+00 2.84902084e+00 2.84902084e+00 2.29504456e+00 2.00486651e+00 3.03367959e+00 2.50608314e+00 2.11038580e+00 3.00729977e+00 3.13919888e+00 2.79626119e+00 2.24228492e+00 2.90178048e+00 3.40299711e+00 2.55884279e+00 3.71955498e+00 2.29504456e+00 2.50608314e+00 3.98335321e+00 2.40056385e+00 2.53246297e+00 1.97848669e+00 2.71712172e+00 2.47970332e+00 3.82507427e+00 2.79626119e+00 2.63798226e+00 3.42937693e+00 2.29504456e+00 1.92572705e+00 3.32385764e+00 1.87296740e+00 2.63798226e+00 4.14163214e+00 2.47970332e+00 3.69317516e+00 2.92816030e+00 2.61160243e+00 3.03367959e+00 3.64041551e+00 2.87540066e+00 1.76744811e+00 2.32142439e+00 2.45332350e+00 2.90178048e+00 2.18952527e+00 3.50851640e+00 2.34780421e+00 2.98091995e+00 2.16314545e+00 3.74593480e+00 1.58278935e+00 3.42937693e+00 2.42694368e+00 2.32142439e+00 1.95210687e+00 1.66192882e+00 3.40299711e+00 3.13919888e+00 3.21833835e+00 2.92816030e+00 2.42694368e+00 2.11038580e+00 2.11038580e+00 3.13919888e+00 1.97848669e+00 2.79626119e+00 3.58765587e+00 3.37661729e+00 2.79626119e+00 2.84902084e+00 2.32142439e+00 4.56370930e+00 2.87540066e+00 2.92816030e+00 1.50364989e+00 3.06005942e+00 2.66436208e+00 2.42694368e+00 3.19195853e+00 3.11281906e+00 3.16557871e+00 3.40299711e+00 2.18952527e+00 3.45575676e+00 2.45332350e+00 2.37418403e+00 3.35023747e+00 3.35023747e+00 2.13676563e+00 2.92816030e+00 3.16557871e+00 2.79626119e+00 2.00486651e+00 3.37661729e+00 2.63798226e+00 3.21833835e+00 3.00729977e+00 3.58765587e+00 3.40299711e+00 3.13919888e+00 3.16557871e+00 3.42937693e+00 2.90178048e+00 4.80112771e+00 3.06005942e+00 2.84902084e+00 2.58522261e+00 2.76988137e+00 2.34780421e+00 2.98091995e+00 2.82264101e+00 2.63798226e+00 2.63798226e+00 2.82264101e+00 3.42937693e+00 3.35023747e+00 3.11281906e+00 3.64041551e+00 3.48213658e+00 2.61160243e+00 2.74350155e+00 3.27109800e+00 1.45089024e+00 3.11281906e+00 2.82264101e+00 3.13919888e+00 5.09130575e+00 3.06005942e+00 2.95454013e+00 2.98091995e+00 3.50851640e+00 3.37661729e+00 2.79626119e+00 3.03367959e+00 3.42937693e+00 2.40056385e+00 3.77231463e+00 2.95454013e+00 5.17044522e+00 3.50851640e+00 4.48456984e+00 3.50851640e+00 4.11525232e+00 2.66436208e+00 2.84902084e+00 2.71712172e+00 3.85145409e+00 2.40056385e+00 3.29747782e+00 2.34780421e+00 2.84902084e+00 3.79869445e+00 2.26866474e+00 5.17044522e+00 2.45332350e+00 3.85145409e+00 2.32142439e+00 2.87540066e+00 2.61160243e+00 2.32142439e+00 4.06249267e+00 4.56370930e+00 2.47970332e+00 2.66436208e+00 3.27109800e+00 2.92816030e+00 2.53246297e+00 3.13919888e+00 3.03367959e+00 2.63798226e+00 3.29747782e+00 3.27109800e+00 3.66679534e+00 3.42937693e+00 2.82264101e+00 2.87540066e+00 3.82507427e+00 3.03367959e+00 2.74350155e+00 3.06005942e+00 2.37418403e+00 2.87540066e+00 3.29747782e+00 3.40299711e+00 3.53489622e+00 2.98091995e+00 3.16557871e+00 3.21833835e+00 3.37661729e+00 3.11281906e+00 2.03124634e+00 2.26866474e+00 2.47970332e+00 3.45575676e+00 3.45575676e+00 3.69317516e+00 2.58522261e+00 3.69317516e+00 2.47970332e+00 2.34780421e+00 2.84902084e+00 3.24471818e+00 2.74350155e+00 2.87540066e+00 2.90178048e+00 2.03124634e+00 3.93059356e+00 3.13919888e+00 2.00486651e+00 3.11281906e+00 3.11281906e+00 2.47970332e+00 2.84902084e+00 2.74350155e+00 3.32385764e+00 2.61160243e+00 3.21833835e+00 3.19195853e+00 2.69074190e+00 2.90178048e+00 2.50608314e+00 2.03124634e+00 3.56127605e+00 2.21590510e+00 2.92816030e+00 3.11281906e+00 3.06005942e+00 4.16801196e+00 2.50608314e+00 2.08400598e+00 2.66436208e+00 1.89934722e+00 3.00729977e+00 3.40299711e+00 2.55884279e+00 2.26866474e+00 2.87540066e+00 2.74350155e+00 2.76988137e+00 4.00973303e+00 2.87540066e+00 2.90178048e+00 2.63798226e+00 3.61403569e+00 2.66436208e+00 2.42694368e+00 2.50608314e+00 2.95454013e+00 3.08643924e+00 2.58522261e+00 3.35023747e+00 2.98091995e+00 2.58522261e+00 2.08400598e+00 2.21590510e+00 3.11281906e+00 3.13919888e+00 3.95697338e+00 2.95454013e+00 2.63798226e+00 3.45575676e+00 2.71712172e+00 2.47970332e+00 2.18952527e+00 3.13919888e+00 2.87540066e+00 3.21833835e+00 2.42694368e+00 2.05762616e+00 2.24228492e+00 2.69074190e+00 3.53489622e+00 3.48213658e+00 2.84902084e+00 2.16314545e+00 2.32142439e+00 2.98091995e+00 3.48213658e+00 3.00729977e+00 3.37661729e+00 2.13676563e+00 3.61403569e+00 2.61160243e+00 2.08400598e+00 2.32142439e+00 2.63798226e+00 4.06249267e+00 2.69074190e+00 3.24471818e+00 3.98335321e+00 2.40056385e+00 2.95454013e+00 2.71712172e+00 3.58765587e+00 3.53489622e+00 2.16314545e+00 3.21833835e+00 2.55884279e+00 2.66436208e+00 2.05762616e+00 2.34780421e+00 3.45575676e+00 2.53246297e+00 3.24471818e+00 2.08400598e+00 3.37661729e+00 2.92816030e+00 3.13919888e+00 3.16557871e+00 2.18952527e+00 2.50608314e+00 2.69074190e+00 2.47970332e+00 2.66436208e+00 2.18952527e+00 2.11038580e+00 2.95454013e+00 3.40299711e+00 2.55884279e+00 1.66192882e+00 3.45575676e+00 2.84902084e+00 2.50608314e+00 2.34780421e+00 2.32142439e+00 2.13676563e+00 2.08400598e+00 2.37418403e+00 2.76988137e+00 2.45332350e+00 2.63798226e+00 2.45332350e+00 2.95454013e+00 2.69074190e+00 2.50608314e+00 3.13919888e+00 3.13919888e+00 1.50364989e+00 2.05762616e+00 2.69074190e+00 2.61160243e+00 2.03124634e+00 2.71712172e+00 3.00729977e+00 2.45332350e+00 2.71712172e+00 2.50608314e+00 2.50608314e+00 2.18952527e+00 2.08400598e+00 2.03124634e+00 2.45332350e+00 2.40056385e+00 2.08400598e+00 2.58522261e+00 3.11281906e+00 2.45332350e+00 2.08400598e+00 2.74350155e+00 2.90178048e+00 2.82264101e+00 2.45332350e+00 2.26866474e+00 2.08400598e+00 2.34780421e+00 1.55640953e+00 1.97848669e+00 2.03124634e+00 2.87540066e+00 2.26866474e+00 2.71712172e+00 2.29504456e+00 1.84658758e+00 2.32142439e+00 1.66192882e+00 2.79626119e+00 3.06005942e+00 2.87540066e+00 2.55884279e+00 2.42694368e+00 2.08400598e+00 2.50608314e+00 1.66192882e+00 3.19195853e+00 2.55884279e+00 2.40056385e+00 2.21590510e+00 3.35023747e+00 2.03124634e+00 2.18952527e+00 2.61160243e+00 1.82020776e+00 2.11038580e+00 2.29504456e+00 2.18952527e+00 2.90178048e+00 1.84658758e+00 1.50364989e+00 2.66436208e+00 2.95454013e+00 2.66436208e+00 2.98091995e+00 1.71468847e+00 2.76988137e+00 1.89934722e+00 2.66436208e+00 1.42451042e+00 2.11038580e+00 2.05762616e+00 1.71468847e+00 3.08643924e+00 1.92572705e+00 2.61160243e+00 1.92572705e+00 3.00729977e+00 2.34780421e+00 3.11281906e+00 2.08400598e+00 2.47970332e+00 1.50364989e+00 2.26866474e+00 1.82020776e+00 3.00729977e+00 2.24228492e+00 2.05762616e+00 1.76744811e+00 2.42694368e+00 1.92572705e+00 2.32142439e+00 2.18952527e+00 1.71468847e+00 2.61160243e+00 1.53002971e+00 1.95210687e+00 2.24228492e+00 1.95210687e+00 1.68830864e+00 1.95210687e+00 2.11038580e+00 2.00486651e+00 2.21590510e+00 1.95210687e+00 2.29504456e+00 1.84658758e+00 1.21347184e+00 1.95210687e+00 2.21590510e+00 2.82264101e+00 1.58278935e+00 1.63554900e+00 2.16314545e+00 1.74106829e+00 1.82020776e+00 2.00486651e+00 2.18952527e+00 1.71468847e+00 1.84658758e+00 1.92572705e+00 2.34780421e+00 1.37175077e+00 1.92572705e+00 1.50364989e+00 2.50608314e+00 1.55640953e+00 1.95210687e+00 1.74106829e+00 1.79382793e+00 1.58278935e+00 1.92572705e+00 2.53246297e+00 1.39813060e+00 1.95210687e+00 1.37175077e+00 1.84658758e+00 1.84658758e+00 1.55640953e+00 1.18709202e+00 1.87296740e+00 1.87296740e+00 1.23985166e+00 1.74106829e+00 1.63554900e+00 2.03124634e+00 1.34537095e+00 1.63554900e+00 1.74106829e+00 1.87296740e+00 1.13433237e+00 1.74106829e+00 1.58278935e+00 1.29261131e+00 1.84658758e+00 1.53002971e+00 1.76744811e+00 1.47727006e+00 1.02881308e+00 1.76744811e+00 1.92572705e+00 1.26623148e+00 1.53002971e+00 1.47727006e+00 1.42451042e+00 1.60916918e+00 1.47727006e+00 1.66192882e+00 2.32142439e+00 1.60916918e+00 1.55640953e+00 1.87296740e+00 1.82020776e+00 1.31899113e+00 1.13433237e+00 1.71468847e+00 1.29261131e+00 1.89934722e+00 1.16071219e+00 1.60916918e+00 1.58278935e+00 1.89934722e+00 2.00486651e+00 2.32142439e+00 1.76744811e+00 1.84658758e+00 1.45089024e+00 1.23985166e+00 1.34537095e+00 9.76053435e-01 1.18709202e+00 1.31899113e+00 1.29261131e+00 1.55640953e+00 1.66192882e+00 1.50364989e+00 1.58278935e+00 1.47727006e+00 1.71468847e+00 1.89934722e+00 1.68830864e+00 1.31899113e+00 1.31899113e+00 1.58278935e+00 1.18709202e+00 1.58278935e+00 1.05519290e+00 1.79382793e+00 8.70534145e-01 1.50364989e+00 1.63554900e+00 1.47727006e+00 1.87296740e+00 8.70534145e-01 2.45332350e+00 1.29261131e+00 1.79382793e+00 1.50364989e+00 1.29261131e+00 1.08157273e+00 9.49673612e-01 1.31899113e+00 1.87296740e+00 1.76744811e+00 1.23985166e+00 1.26623148e+00 1.60916918e+00 1.50364989e+00 1.13433237e+00 1.92572705e+00 1.23985166e+00 1.39813060e+00 7.65014854e-01 1.02881308e+00 1.13433237e+00 1.10795255e+00 1.34537095e+00 1.29261131e+00 1.71468847e+00 1.42451042e+00 1.34537095e+00 1.53002971e+00 1.50364989e+00 1.13433237e+00 1.08157273e+00 1.31899113e+00 1.34537095e+00 1.29261131e+00 1.26623148e+00 1.47727006e+00 1.34537095e+00 1.18709202e+00 1.18709202e+00 1.42451042e+00 1.10795255e+00 1.34537095e+00 1.13433237e+00 1.02881308e+00 8.17774499e-01 6.33115741e-01 1.63554900e+00 1.02881308e+00 1.18709202e+00 1.50364989e+00 1.74106829e+00 8.17774499e-01 1.37175077e+00 1.16071219e+00 1.39813060e+00 1.50364989e+00 1.10795255e+00 1.29261131e+00 1.10795255e+00 1.00243326e+00 1.13433237e+00 1.29261131e+00 1.79382793e+00 1.08157273e+00 1.23985166e+00 1.05519290e+00 1.68830864e+00 1.10795255e+00 1.34537095e+00 1.00243326e+00 7.38635032e-01 9.76053435e-01 1.31899113e+00 8.44154322e-01 1.37175077e+00 9.49673612e-01 7.65014854e-01 1.74106829e+00 1.13433237e+00 1.05519290e+00 8.17774499e-01 1.13433237e+00 1.00243326e+00 1.42451042e+00 1.31899113e+00 8.70534145e-01 8.17774499e-01 9.49673612e-01 7.38635032e-01 8.96913967e-01 9.49673612e-01 1.05519290e+00 1.23985166e+00 9.76053435e-01 7.91394677e-01 7.65014854e-01 6.33115741e-01 7.91394677e-01 8.17774499e-01 8.44154322e-01 6.33115741e-01 6.33115741e-01 5.53976274e-01 6.33115741e-01 1.37175077e+00 8.96913967e-01 8.96913967e-01 5.80356096e-01 6.85875387e-01 1.13433237e+00 1.13433237e+00 9.76053435e-01 9.23293790e-01 9.23293790e-01 8.44154322e-01 1.00243326e+00 6.33115741e-01 7.12255209e-01 7.91394677e-01 6.33115741e-01 6.06735919e-01 4.48456984e-01 8.96913967e-01 6.85875387e-01 6.59495564e-01 1.31899113e+00 7.12255209e-01 1.00243326e+00 1.00243326e+00 6.59495564e-01 1.37175077e+00 8.70534145e-01 6.85875387e-01 6.06735919e-01 5.53976274e-01 6.06735919e-01 9.76053435e-01 8.44154322e-01 5.80356096e-01 7.65014854e-01 7.12255209e-01 1.39813060e+00 5.01216629e-01 5.53976274e-01 9.23293790e-01 1.05519290e+00 7.38635032e-01 6.85875387e-01 6.85875387e-01 8.17774499e-01 6.06735919e-01 4.48456984e-01 7.65014854e-01 5.27596451e-01 9.23293790e-01 7.65014854e-01 8.17774499e-01 5.27596451e-01 8.96913967e-01 6.33115741e-01 6.85875387e-01 9.49673612e-01 9.76053435e-01 7.38635032e-01 7.38635032e-01 7.91394677e-01 1.00243326e+00 8.44154322e-01 8.70534145e-01 8.44154322e-01 5.53976274e-01 7.38635032e-01 5.01216629e-01 5.27596451e-01 8.17774499e-01 7.91394677e-01 9.76053435e-01 1.31899113e+00 1.18709202e+00 7.65014854e-01 1.00243326e+00 6.59495564e-01 5.27596451e-01 8.44154322e-01 6.59495564e-01 8.44154322e-01 1.02881308e+00 5.27596451e-01 7.38635032e-01 8.17774499e-01 6.59495564e-01 8.17774499e-01 7.38635032e-01 6.85875387e-01 7.65014854e-01 6.06735919e-01 5.01216629e-01 5.80356096e-01 7.91394677e-01 6.59495564e-01 5.80356096e-01 8.17774499e-01 9.49673612e-01 7.38635032e-01 5.80356096e-01 7.12255209e-01 8.17774499e-01 6.33115741e-01 8.96913967e-01 8.17774499e-01 5.01216629e-01 5.27596451e-01 8.17774499e-01 8.44154322e-01 6.06735919e-01 5.53976274e-01 6.06735919e-01 6.85875387e-01 5.53976274e-01 5.80356096e-01 6.59495564e-01 8.96913967e-01 4.48456984e-01 7.12255209e-01 5.27596451e-01 6.33115741e-01 7.91394677e-01 1.02881308e+00 7.91394677e-01 6.85875387e-01 8.96913967e-01 7.12255209e-01 6.85875387e-01 7.12255209e-01 5.80356096e-01 5.80356096e-01 9.76053435e-01 6.85875387e-01 7.91394677e-01 5.53976274e-01 4.48456984e-01 6.85875387e-01 7.65014854e-01 5.53976274e-01 4.74836806e-01 5.01216629e-01 6.85875387e-01 6.59495564e-01 5.01216629e-01 6.85875387e-01 8.17774499e-01 5.53976274e-01 9.23293790e-01 7.91394677e-01 9.49673612e-01 5.27596451e-01 5.53976274e-01 6.59495564e-01 4.74836806e-01 5.27596451e-01 4.74836806e-01 5.01216629e-01 6.59495564e-01 3.42937693e-01 3.42937693e-01 7.65014854e-01 6.33115741e-01 7.12255209e-01 4.48456984e-01 6.06735919e-01 5.01216629e-01 6.06735919e-01 3.16557871e-01 8.44154322e-01 8.96913967e-01 5.01216629e-01 5.53976274e-01 6.06735919e-01 5.27596451e-01 7.91394677e-01 7.91394677e-01 3.16557871e-01 5.80356096e-01 4.48456984e-01 5.01216629e-01 5.01216629e-01 3.69317516e-01 7.12255209e-01 2.90178048e-01 5.27596451e-01 2.37418403e-01 3.69317516e-01 2.90178048e-01 7.12255209e-01 7.12255209e-01 5.01216629e-01 7.38635032e-01 5.01216629e-01 5.80356096e-01 2.90178048e-01 4.22077161e-01 4.74836806e-01 6.33115741e-01 4.22077161e-01 5.53976274e-01 3.69317516e-01 6.85875387e-01 5.53976274e-01 4.48456984e-01 4.48456984e-01 3.42937693e-01 6.85875387e-01 3.95697338e-01 5.27596451e-01 4.48456984e-01 5.53976274e-01 2.63798226e-01 4.48456984e-01 6.06735919e-01 5.53976274e-01 5.01216629e-01 3.95697338e-01 1.84658758e-01 5.80356096e-01 4.74836806e-01 5.01216629e-01 7.38635032e-01 3.95697338e-01 5.01216629e-01 4.48456984e-01 2.63798226e-01 4.74836806e-01 5.01216629e-01 3.95697338e-01 5.53976274e-01 5.80356096e-01 3.69317516e-01 3.95697338e-01 5.27596451e-01 5.53976274e-01 5.53976274e-01 5.27596451e-01 6.33115741e-01 4.74836806e-01 5.27596451e-01 5.01216629e-01 2.63798226e-01 4.22077161e-01 2.63798226e-01 4.74836806e-01 3.16557871e-01 3.95697338e-01 7.38635032e-01 2.63798226e-01 4.74836806e-01 3.42937693e-01 5.01216629e-01 5.01216629e-01 5.01216629e-01 3.42937693e-01 3.16557871e-01 5.27596451e-01 5.01216629e-01 1.84658758e-01 4.48456984e-01 4.74836806e-01 5.01216629e-01 6.06735919e-01 3.42937693e-01 2.90178048e-01 3.95697338e-01 3.16557871e-01 4.22077161e-01 3.42937693e-01 5.27596451e-01 2.90178048e-01 3.42937693e-01 2.37418403e-01 2.90178048e-01 2.37418403e-01 4.48456984e-01 4.22077161e-01 4.22077161e-01 4.22077161e-01 4.74836806e-01 3.69317516e-01 2.63798226e-01 4.74836806e-01 1.84658758e-01 5.27596451e-01 2.63798226e-01 4.22077161e-01 3.42937693e-01 3.95697338e-01 2.90178048e-01 3.95697338e-01 3.69317516e-01 3.69317516e-01 3.16557871e-01 5.27596451e-01 5.27596451e-01 5.27596451e-01 4.48456984e-01 3.42937693e-01 2.37418403e-01 2.90178048e-01 2.63798226e-01 3.95697338e-01 2.11038580e-01 1.58278935e-01 4.48456984e-01 4.48456984e-01 3.42937693e-01 3.42937693e-01 3.69317516e-01 1.31899113e-01 2.63798226e-01 1.05519290e-01 2.90178048e-01 1.05519290e-01 3.16557871e-01 4.22077161e-01 1.84658758e-01 5.27596451e-01 3.69317516e-01 2.11038580e-01 3.95697338e-01 1.84658758e-01 2.90178048e-01 3.69317516e-01 4.74836806e-01 6.59495564e-01 1.05519290e-01 2.90178048e-01 4.22077161e-01 6.33115741e-01 2.63798226e-01 3.16557871e-01 3.69317516e-01 3.42937693e-01 5.27596451e-01 2.11038580e-01 2.63798226e-01 3.95697338e-01 4.22077161e-01 2.11038580e-01 1.31899113e-01 3.16557871e-01 3.69317516e-01 2.11038580e-01 1.58278935e-01 2.63798226e-01 3.42937693e-01 5.53976274e-01 2.90178048e-01 4.22077161e-01 3.42937693e-01 3.42937693e-01 3.95697338e-01 2.11038580e-01 2.90178048e-01 3.42937693e-01 1.84658758e-01 5.01216629e-01 2.11038580e-01 2.37418403e-01 1.58278935e-01 2.37418403e-01 6.06735919e-01 2.63798226e-01 3.69317516e-01 2.90178048e-01 3.69317516e-01 3.69317516e-01 3.95697338e-01 1.84658758e-01 3.16557871e-01 2.63798226e-01 1.58278935e-01 2.11038580e-01 4.48456984e-01 4.22077161e-01 4.74836806e-01 2.11038580e-01 3.42937693e-01 3.16557871e-01 5.53976274e-01 2.11038580e-01 7.91394677e-02 3.16557871e-01 4.22077161e-01 2.37418403e-01 4.74836806e-01 2.11038580e-01 3.95697338e-01 1.84658758e-01 3.95697338e-01 5.53976274e-01 2.37418403e-01 1.58278935e-01 3.95697338e-01 4.22077161e-01 4.48456984e-01 2.90178048e-01 2.63798226e-01 2.11038580e-01 1.84658758e-01 3.16557871e-01 2.63798226e-01 2.90178048e-01 1.58278935e-01 3.16557871e-01 3.42937693e-01 4.74836806e-01 3.42937693e-01 2.63798226e-01 1.84658758e-01 2.90178048e-01 2.90178048e-01 1.84658758e-01 3.16557871e-01 1.05519290e-01 4.74836806e-01 2.37418403e-01 1.58278935e-01 3.69317516e-01 2.90178048e-01 1.58278935e-01 5.01216629e-01 3.95697338e-01 1.84658758e-01 7.91394677e-02 2.37418403e-01 2.37418403e-01 4.22077161e-01 2.63798226e-01 2.37418403e-01 1.58278935e-01 1.31899113e-01 2.37418403e-01 3.69317516e-01 3.42937693e-01 2.63798226e-01 2.63798226e-01 2.90178048e-01 2.90178048e-01 1.58278935e-01 2.37418403e-01 1.58278935e-01 2.63798226e-01 2.37418403e-01 1.05519290e-01 2.63798226e-01 1.84658758e-01 2.37418403e-01 1.84658758e-01 1.05519290e-01 2.37418403e-01 2.63798226e-01 1.58278935e-01 2.63798226e-01 2.37418403e-01 1.31899113e-01 1.31899113e-01 3.69317516e-01 3.42937693e-01 2.63798226e-01 2.90178048e-01 3.16557871e-01 1.05519290e-01 2.63798226e-02 1.58278935e-01 2.37418403e-01 1.58278935e-01 2.90178048e-01 2.37418403e-01 3.95697338e-01 2.90178048e-01 1.84658758e-01 0.00000000e+00 1.31899113e-01 1.84658758e-01 3.42937693e-01 2.63798226e-01 1.84658758e-01 2.37418403e-01 2.90178048e-01 2.90178048e-01 1.84658758e-01 1.31899113e-01 2.37418403e-01 1.58278935e-01 2.90178048e-01 1.84658758e-01 2.11038580e-01 1.31899113e-01 1.84658758e-01 2.11038580e-01 1.84658758e-01 7.91394677e-02 2.37418403e-01 2.37418403e-01 2.37418403e-01 3.42937693e-01 1.84658758e-01 2.37418403e-01 1.05519290e-01 1.84658758e-01 1.84658758e-01 3.69317516e-01 1.58278935e-01 1.84658758e-01 2.37418403e-01 1.31899113e-01 7.91394677e-02 1.05519290e-01 1.84658758e-01 2.37418403e-01 7.91394677e-02 1.84658758e-01 5.27596451e-02 2.63798226e-01 2.11038580e-01 2.11038580e-01 2.11038580e-01 1.84658758e-01 1.58278935e-01 2.90178048e-01 2.90178048e-01 2.90178048e-01 3.16557871e-01 1.05519290e-01 2.37418403e-01 1.84658758e-01 2.63798226e-01 2.37418403e-01 2.37418403e-01 7.91394677e-02 1.84658758e-01 1.58278935e-01 1.58278935e-01 2.63798226e-01 1.84658758e-01 2.11038580e-01 2.37418403e-01 1.84658758e-01 2.11038580e-01 1.58278935e-01 1.84658758e-01 1.84658758e-01 2.11038580e-01 1.31899113e-01 1.31899113e-01 1.05519290e-01 1.31899113e-01 1.58278935e-01 2.63798226e-01 1.84658758e-01 1.31899113e-01 1.84658758e-01 1.58278935e-01 2.37418403e-01 1.58278935e-01 3.95697338e-01 2.90178048e-01 1.84658758e-01 1.84658758e-01 1.31899113e-01 1.84658758e-01 2.11038580e-01 1.84658758e-01 1.84658758e-01 1.84658758e-01 7.91394677e-02 2.11038580e-01 1.84658758e-01 7.91394677e-02 2.37418403e-01 1.84658758e-01 2.11038580e-01 7.91394677e-02 2.63798226e-02 2.90178048e-01 1.31899113e-01 2.11038580e-01 1.31899113e-01 1.84658758e-01 1.31899113e-01 1.84658758e-01 5.27596451e-02 1.84658758e-01 1.05519290e-01 1.58278935e-01 1.31899113e-01 1.84658758e-01 3.16557871e-01 2.11038580e-01 1.84658758e-01 1.84658758e-01 2.11038580e-01 7.91394677e-02 1.05519290e-01 7.91394677e-02 2.63798226e-01 1.58278935e-01 2.63798226e-01 2.37418403e-01 2.37418403e-01 1.84658758e-01 1.05519290e-01 1.05519290e-01 2.37418403e-01 1.31899113e-01 1.84658758e-01 7.91394677e-02 7.91394677e-02 1.05519290e-01 1.05519290e-01 1.31899113e-01 1.58278935e-01 2.11038580e-01 1.58278935e-01 1.84658758e-01 3.95697338e-01 1.84658758e-01 1.58278935e-01 2.37418403e-01 2.37418403e-01 2.37418403e-01 1.84658758e-01 2.11038580e-01 1.84658758e-01 1.05519290e-01 2.63798226e-01 1.05519290e-01 1.58278935e-01 2.37418403e-01 1.84658758e-01 5.27596451e-02 2.90178048e-01 2.63798226e-01 1.05519290e-01 1.05519290e-01 1.58278935e-01 5.27596451e-02 2.63798226e-01 1.58278935e-01 1.58278935e-01 5.27596451e-02 1.84658758e-01 1.58278935e-01 7.91394677e-02 1.84658758e-01 7.91394677e-02 7.91394677e-02 1.05519290e-01 1.05519290e-01 3.42937693e-01 2.63798226e-02 1.58278935e-01 1.05519290e-01 2.37418403e-01 1.31899113e-01 2.63798226e-02 1.58278935e-01 1.31899113e-01 1.84658758e-01 2.11038580e-01 1.58278935e-01 7.91394677e-02 1.84658758e-01 7.91394677e-02 1.31899113e-01 2.37418403e-01 1.05519290e-01 1.05519290e-01 1.31899113e-01 1.58278935e-01 5.27596451e-02 1.05519290e-01 7.91394677e-02 1.31899113e-01 1.58278935e-01 1.58278935e-01 1.58278935e-01 1.31899113e-01 5.27596451e-02 1.05519290e-01 2.37418403e-01 1.84658758e-01 5.27596451e-02 5.27596451e-02 0.00000000e+00 7.91394677e-02 1.31899113e-01 1.05519290e-01 1.05519290e-01 2.37418403e-01 1.84658758e-01 1.05519290e-01 1.05519290e-01 2.37418403e-01 1.84658758e-01 5.27596451e-02 1.84658758e-01 5.27596451e-02 1.05519290e-01 7.91394677e-02 1.58278935e-01 7.91394677e-02 5.27596451e-02 1.31899113e-01 7.91394677e-02 1.05519290e-01 1.05519290e-01 1.05519290e-01 2.63798226e-02 1.05519290e-01 1.84658758e-01 1.31899113e-01 1.05519290e-01 1.05519290e-01 1.84658758e-01 7.91394677e-02 1.31899113e-01 5.27596451e-02 1.31899113e-01 5.27596451e-02 5.27596451e-02 7.91394677e-02 2.63798226e-02 7.91394677e-02 1.05519290e-01 2.63798226e-02 7.91394677e-02 7.91394677e-02 5.27596451e-02 0.00000000e+00 2.37418403e-01 2.11038580e-01 1.58278935e-01 2.37418403e-01 1.05519290e-01 1.58278935e-01 1.84658758e-01 1.58278935e-01 7.91394677e-02 0.00000000e+00 1.58278935e-01 1.84658758e-01 1.05519290e-01 1.05519290e-01 1.05519290e-01 2.37418403e-01 1.84658758e-01 5.27596451e-02 1.31899113e-01 1.05519290e-01 7.91394677e-02 1.05519290e-01 1.31899113e-01 7.91394677e-02 1.05519290e-01 1.58278935e-01 7.91394677e-02 1.05519290e-01 1.05519290e-01 7.91394677e-02 5.27596451e-02 2.37418403e-01 7.91394677e-02 5.27596451e-02 1.31899113e-01 5.27596451e-02 7.91394677e-02 2.63798226e-02 1.31899113e-01 1.31899113e-01 5.27596451e-02 2.63798226e-02 1.05519290e-01 1.31899113e-01 0.00000000e+00 1.05519290e-01 1.05519290e-01 1.05519290e-01 1.31899113e-01 5.27596451e-02 2.63798226e-01 7.91394677e-02 1.31899113e-01 0.00000000e+00 1.05519290e-01 1.05519290e-01 1.58278935e-01 1.31899113e-01 1.05519290e-01 5.27596451e-02 7.91394677e-02 1.05519290e-01 1.05519290e-01 2.11038580e-01 2.11038580e-01 5.27596451e-02 1.05519290e-01 5.27596451e-02 5.27596451e-02 7.91394677e-02 5.27596451e-02 1.84658758e-01 1.84658758e-01 7.91394677e-02 5.27596451e-02 7.91394677e-02 1.84658758e-01 7.91394677e-02 7.91394677e-02 0.00000000e+00 1.05519290e-01 0.00000000e+00 7.91394677e-02 5.27596451e-02 2.63798226e-02 1.31899113e-01 1.05519290e-01 1.31899113e-01 2.63798226e-02 2.11038580e-01 1.58278935e-01 7.91394677e-02 2.63798226e-02 5.27596451e-02 1.05519290e-01 1.05519290e-01 7.91394677e-02 2.63798226e-02 1.05519290e-01 2.63798226e-02 7.91394677e-02 2.63798226e-02 0.00000000e+00 1.58278935e-01 5.27596451e-02 1.84658758e-01 1.05519290e-01 7.91394677e-02 2.63798226e-02 5.27596451e-02 7.91394677e-02 5.27596451e-02 7.91394677e-02 5.27596451e-02 2.63798226e-02 5.27596451e-02 5.27596451e-02 1.05519290e-01 1.05519290e-01 1.05519290e-01 2.63798226e-02 7.91394677e-02 1.05519290e-01 1.31899113e-01 7.91394677e-02 1.58278935e-01 1.05519290e-01 7.91394677e-02 2.63798226e-02 7.91394677e-02 7.91394677e-02 5.27596451e-02 1.05519290e-01 5.27596451e-02 7.91394677e-02 5.27596451e-02 7.91394677e-02 2.63798226e-02 1.31899113e-01 5.27596451e-02 5.27596451e-02 1.05519290e-01 2.63798226e-02 5.27596451e-02 1.05519290e-01 2.63798226e-02 7.91394677e-02 5.27596451e-02 5.27596451e-02 0.00000000e+00 2.63798226e-02 2.63798226e-02 5.27596451e-02 1.05519290e-01 5.27596451e-02 5.27596451e-02 5.27596451e-02 2.63798226e-02 1.58278935e-01 1.05519290e-01 5.27596451e-02 7.91394677e-02 7.91394677e-02 7.91394677e-02 1.05519290e-01 5.27596451e-02 1.58278935e-01 1.05519290e-01 7.91394677e-02 0.00000000e+00 0.00000000e+00 2.63798226e-02 5.27596451e-02 7.91394677e-02 5.27596451e-02 5.27596451e-02 2.63798226e-02 5.27596451e-02 5.27596451e-02 2.63798226e-02 1.31899113e-01 7.91394677e-02 2.63798226e-02 2.63798226e-02 1.05519290e-01 0.00000000e+00 5.27596451e-02 0.00000000e+00 7.91394677e-02 0.00000000e+00 5.27596451e-02 1.05519290e-01 5.27596451e-02 2.63798226e-02 5.27596451e-02 1.05519290e-01 2.63798226e-02 0.00000000e+00 5.27596451e-02 2.63798226e-02 2.63798226e-02 5.27596451e-02 0.00000000e+00 5.27596451e-02 5.27596451e-02 7.91394677e-02 2.63798226e-02 2.63798226e-02 5.27596451e-02 7.91394677e-02 5.27596451e-02 5.27596451e-02 1.31899113e-01 2.63798226e-02 2.63798226e-02 5.27596451e-02 2.63798226e-02 0.00000000e+00 2.63798226e-02 1.58278935e-01 5.27596451e-02 2.63798226e-02 2.63798226e-02 2.63798226e-02 5.27596451e-02 0.00000000e+00 2.63798226e-02 5.27596451e-02 2.63798226e-02 5.27596451e-02 0.00000000e+00 5.27596451e-02 7.91394677e-02 5.27596451e-02 2.63798226e-02 2.63798226e-02 1.31899113e-01 5.27596451e-02 5.27596451e-02 5.27596451e-02 7.91394677e-02 1.05519290e-01 5.27596451e-02 2.63798226e-02 7.91394677e-02 0.00000000e+00 2.63798226e-02 2.63798226e-02 5.27596451e-02 2.63798226e-02 1.31899113e-01 0.00000000e+00 5.27596451e-02 5.27596451e-02 2.63798226e-02 0.00000000e+00 0.00000000e+00 2.63798226e-02 5.27596451e-02 5.27596451e-02 5.27596451e-02 2.63798226e-02 0.00000000e+00 2.63798226e-02 5.27596451e-02 0.00000000e+00 2.63798226e-02 0.00000000e+00 0.00000000e+00 7.91394677e-02 1.31899113e-01 0.00000000e+00 7.91394677e-02 0.00000000e+00 5.27596451e-02 5.27596451e-02 2.63798226e-02 5.27596451e-02 2.63798226e-02 2.63798226e-02 7.91394677e-02 0.00000000e+00 7.91394677e-02 5.27596451e-02 0.00000000e+00 2.63798226e-02 2.63798226e-02 2.63798226e-02 7.91394677e-02 2.63798226e-02 7.91394677e-02 2.63798226e-02 2.63798226e-02 5.27596451e-02 0.00000000e+00 2.63798226e-02 1.05519290e-01 0.00000000e+00 2.63798226e-02 5.27596451e-02 1.31899113e-01 0.00000000e+00 2.63798226e-02 1.31899113e-01 0.00000000e+00 0.00000000e+00 5.27596451e-02 7.91394677e-02 0.00000000e+00 2.63798226e-02 5.27596451e-02 0.00000000e+00 5.27596451e-02 5.27596451e-02 5.27596451e-02 0.00000000e+00 2.63798226e-02 5.27596451e-02 5.27596451e-02 0.00000000e+00 2.63798226e-02 5.27596451e-02 0.00000000e+00 0.00000000e+00 5.27596451e-02 2.63798226e-02 2.63798226e-02 0.00000000e+00 7.91394677e-02 2.63798226e-02 7.91394677e-02 0.00000000e+00 1.05519290e-01 2.63798226e-02 2.63798226e-02 2.63798226e-02 0.00000000e+00 0.00000000e+00 2.63798226e-02 0.00000000e+00 5.27596451e-02 2.63798226e-02 5.27596451e-02 2.63798226e-02 5.27596451e-02 5.27596451e-02 2.63798226e-02 2.63798226e-02 0.00000000e+00 0.00000000e+00 2.63798226e-02 0.00000000e+00 0.00000000e+00 2.63798226e-02 0.00000000e+00 2.63798226e-02 5.27596451e-02 2.63798226e-02 0.00000000e+00 2.63798226e-02 0.00000000e+00 0.00000000e+00 0.00000000e+00 2.63798226e-02 0.00000000e+00 7.91394677e-02 5.27596451e-02 0.00000000e+00 5.27596451e-02 0.00000000e+00 1.05519290e-01 5.27596451e-02 5.27596451e-02 2.63798226e-02 2.63798226e-02 2.63798226e-02 5.27596451e-02 0.00000000e+00 5.27596451e-02 5.27596451e-02 2.63798226e-02 0.00000000e+00 0.00000000e+00 2.63798226e-02 0.00000000e+00 0.00000000e+00 0.00000000e+00 0.00000000e+00 2.63798226e-02 5.27596451e-02 2.63798226e-02 0.00000000e+00 2.63798226e-02 0.00000000e+00 0.00000000e+00 0.00000000e+00 0.00000000e+00 0.00000000e+00 7.91394677e-02 0.00000000e+00 0.00000000e+00 2.63798226e-02 7.91394677e-02 2.63798226e-02 2.63798226e-02 0.00000000e+00 5.27596451e-02 0.00000000e+00 2.63798226e-02 0.00000000e+00 0.00000000e+00 2.63798226e-02 5.27596451e-02 5.27596451e-02 0.00000000e+00 0.00000000e+00 2.63798226e-02 0.00000000e+00 2.63798226e-02 2.63798226e-02 0.00000000e+00 0.00000000e+00 2.63798226e-02 2.63798226e-02 0.00000000e+00 0.00000000e+00 0.00000000e+00 0.00000000e+00 0.00000000e+00 2.63798226e-02 0.00000000e+00 0.00000000e+00 0.00000000e+00 0.00000000e+00 2.63798226e-02 0.00000000e+00 0.00000000e+00 2.63798226e-02 2.63798226e-02 0.00000000e+00 1.05519290e-01 0.00000000e+00 0.00000000e+00 0.00000000e+00 0.00000000e+00 5.27596451e-02 0.00000000e+00 0.00000000e+00 0.00000000e+00 0.00000000e+00 0.00000000e+00 2.63798226e-02 2.63798226e-02 0.00000000e+00 5.27596451e-02 2.63798226e-02 0.00000000e+00 2.63798226e-02 5.27596451e-02 2.63798226e-02 0.00000000e+00 0.00000000e+00 0.00000000e+00 2.63798226e-02 0.00000000e+00 0.00000000e+00 0.00000000e+00 0.00000000e+00 2.63798226e-02 0.00000000e+00 2.63798226e-02 0.00000000e+00 2.63798226e-02 0.00000000e+00 5.27596451e-02 2.63798226e-02 2.63798226e-02 5.27596451e-02 2.63798226e-02 2.63798226e-02 0.00000000e+00 0.00000000e+00 0.00000000e+00 0.00000000e+00 0.00000000e+00 0.00000000e+00 0.00000000e+00 0.00000000e+00 2.63798226e-02 0.00000000e+00 0.00000000e+00 0.00000000e+00 0.00000000e+00 2.63798226e-02 0.00000000e+00 0.00000000e+00 2.63798226e-02 5.27596451e-02 2.63798226e-02 0.00000000e+00 0.00000000e+00 0.00000000e+00 0.00000000e+00 2.63798226e-02 0.00000000e+00 0.00000000e+00 0.00000000e+00 0.00000000e+00 5.27596451e-02 0.00000000e+00 0.00000000e+00 0.00000000e+00 0.00000000e+00 2.63798226e-02 2.63798226e-02 0.00000000e+00 0.00000000e+00 0.00000000e+00 2.63798226e-02 2.63798226e-02 0.00000000e+00 2.63798226e-02 0.00000000e+00 0.00000000e+00 0.00000000e+00 0.00000000e+00 0.00000000e+00 0.00000000e+00 0.00000000e+00 0.00000000e+00 0.00000000e+00 0.00000000e+00 2.63798226e-02 0.00000000e+00 0.00000000e+00 0.00000000e+00 0.00000000e+00 5.27596451e-02 0.00000000e+00 0.00000000e+00 0.00000000e+00 0.00000000e+00 2.63798226e-02 2.63798226e-02 0.00000000e+00 2.63798226e-02 2.63798226e-02 2.63798226e-02 0.00000000e+00 0.00000000e+00 0.00000000e+00 0.00000000e+00 0.00000000e+00 0.00000000e+00 0.00000000e+00 0.00000000e+00 0.00000000e+00 0.00000000e+00 0.00000000e+00 0.00000000e+00 0.00000000e+00 0.00000000e+00 2.63798226e-02 0.00000000e+00 0.00000000e+00 0.00000000e+00 2.63798226e-02 2.63798226e-02 2.63798226e-02 2.63798226e-02 0.00000000e+00 0.00000000e+00 0.00000000e+00 0.00000000e+00 0.00000000e+00 0.00000000e+00 0.00000000e+00 0.00000000e+00 0.00000000e+00 0.00000000e+00 0.00000000e+00 0.00000000e+00 0.00000000e+00 2.63798226e-02 0.00000000e+00 2.63798226e-02 2.63798226e-02 0.00000000e+00 0.00000000e+00 0.00000000e+00 0.00000000e+00 0.00000000e+00 2.63798226e-02 0.00000000e+00 0.00000000e+00 0.00000000e+00 0.00000000e+00 0.00000000e+00 0.00000000e+00 2.63798226e-02 0.00000000e+00 2.63798226e-02 2.63798226e-02 0.00000000e+00 0.00000000e+00 0.00000000e+00 0.00000000e+00 0.00000000e+00 2.63798226e-02 0.00000000e+00 0.00000000e+00 0.00000000e+00 0.00000000e+00 0.00000000e+00 0.00000000e+00 0.00000000e+00 2.63798226e-02 0.00000000e+00 0.00000000e+00 2.63798226e-02 0.00000000e+00 2.63798226e-02 0.00000000e+00 0.00000000e+00 0.00000000e+00 0.00000000e+00 0.00000000e+00 0.00000000e+00 0.00000000e+00 0.00000000e+00 0.00000000e+00 0.00000000e+00 0.00000000e+00 0.00000000e+00 2.63798226e-02 0.00000000e+00 0.00000000e+00 0.00000000e+00 2.63798226e-02 0.00000000e+00 0.00000000e+00 0.00000000e+00 0.00000000e+00 0.00000000e+00 2.63798226e-02 0.00000000e+00 2.63798226e-02 0.00000000e+00 2.63798226e-02 0.00000000e+00 0.00000000e+00 0.00000000e+00 2.63798226e-02 0.00000000e+00 0.00000000e+00 0.00000000e+00 0.00000000e+00 0.00000000e+00 0.00000000e+00 0.00000000e+00 0.00000000e+00 0.00000000e+00 0.00000000e+00 0.00000000e+00 0.00000000e+00 0.00000000e+00 0.00000000e+00 2.63798226e-02 0.00000000e+00 0.00000000e+00 0.00000000e+00 0.00000000e+00 2.63798226e-02 0.00000000e+00 0.00000000e+00 0.00000000e+00 0.00000000e+00 0.00000000e+00 0.00000000e+00 0.00000000e+00 0.00000000e+00 0.00000000e+00 0.00000000e+00 0.00000000e+00 0.00000000e+00 0.00000000e+00 0.00000000e+00 0.00000000e+00 0.00000000e+00 0.00000000e+00 5.27596451e-02 0.00000000e+00 5.27596451e-02 0.00000000e+00 0.00000000e+00 0.00000000e+00 0.00000000e+00 0.00000000e+00 0.00000000e+00 0.00000000e+00 0.00000000e+00 0.00000000e+00 0.00000000e+00 2.63798226e-02 0.00000000e+00 0.00000000e+00 0.00000000e+00 0.00000000e+00 0.00000000e+00 0.00000000e+00 