{
    "n_features": 5,
    "constraints": [
        -1,
        -1,
        -1,
        -1,
        -1
    ],
    "rescale_min": [
        -0.9961462137043839,
        -0.6792157911929213,
        -11.998379101597545,
        -11.998681810847625,
        -11.995357038251905
    ],
    "rescale_max": [
        3.7475530508467374,
        4.216474889853284,
        1.7325045993255503,
        0.9083081490504302,
        0.9094918305184537
    ],
    "sigmanet.sigma": [
        2.0
    ],
    "sigmanet.nn.0.bias": [
        1.7219085693359375,
        0.6993165612220764,
        -1.44145929813385,
        0.42348331212997437,
        -0.40822792053222656,
        -0.08017921447753906,
        0.46694034337997437,
        1.1127815246582031,
        -1.0776588916778564,
        -0.43511149287223816
    ],
    "sigmanet.nn.0.sigma": [
        2.0
    ],
    "sigmanet.nn.0.weight_orig": [
        [
            -1.7614240646362305,
            -1.1486830711364746,
            -0.4054320752620697,
            0.12529268860816956,
            -0.4572238326072693
        ],
        [
            -1.9829519987106323,
            -0.5881158113479614,
            -0.032549548894166946,
            0.04006902500987053,
            0.113359235227108
        ],
        [
            1.9423805475234985,
            0.24769505858421326,
            0.8089967966079712,
            0.029207592830061913,
            -0.2595108151435852
        ],
        [
            -1.9267884492874146,
            0.34311312437057495,
            -0.2826729118824005,
            0.7096017599105835,
            0.9923049211502075
        ],
        [
            1.730358362197876,
            -0.14715729653835297,
            -1.7281078100204468,
            0.409324049949646,
            0.6572113037109375
        ],
        [
            1.4579615592956543,
            -0.8796821236610413,
            1.6513179540634155,
            -0.9430325627326965,
            -0.5864304900169373
        ],
        [
            -1.2220630645751953,
            0.6446231603622437,
            -0.05437249317765236,
            -0.3599982261657715,
            0.05529915168881416
        ],
        [
            0.49943050742149353,
            -1.3128212690353394,
            -0.3502705991268158,
            -0.1406376212835312,
            -0.3514025807380676
        ],
        [
            0.36751654744148254,
            2.0,
            -0.09531985968351364,
            -0.04786296933889389,
            -0.020830685272812843
        ],
        [
            -2.0,
            0.25870436429977417,
            1.099377989768982,
            0.3392302691936493,
            0.2676165699958801
        ]
    ],
    "sigmanet.nn.1.bias": [
        -0.26156625151634216,
        -0.44360414147377014,
        0.7312823534011841,
        -0.9423869848251343,
        -0.5158102512359619,
        0.6302642822265625,
        -0.5340138673782349,
        -0.4744681715965271,
        0.6787541508674622,
        -0.6746341586112976
    ],
    "sigmanet.nn.1.sigma": [
        2.0
    ],
    "sigmanet.nn.1.weight_orig": [
        [
            0.023550329729914665,
            0.08018430322408676,
            -0.2141694873571396,
            0.5446217656135559,
            -0.46765491366386414,
            0.014974355697631836,
            -0.008737439289689064,
            0.005107874050736427,
            0.5910118222236633,
            0.049987707287073135
        ],
        [
            -0.1090174987912178,
            -0.608525812625885,
            0.2594589591026306,
            0.0024673480074852705,
            0.0020775545854121447,
            0.38613149523735046,
            0.004815326537936926,
            -0.003488187910988927,
            -0.5534037947654724,
            0.07061395794153214
        ],
        [
            -0.01633790135383606,
            0.4703708291053772,
            0.030959278345108032,
            -0.15258082747459412,
            0.06996558606624603,
            0.24897773563861847,
            -0.011146782897412777,
            0.05350438132882118,
            -0.23578262329101562,
            -0.710374116897583
        ],
        [
            -0.0789966881275177,
            -0.3591045141220093,
            0.09278363734483719,
            0.032007038593292236,
            -0.24585101008415222,
            0.2456636279821396,
            0.01602534018456936,
            -0.11356430500745773,
            -0.13558918237686157,
            0.6804146766662598
        ],
        [
            -0.0019176495261490345,
            -0.0005778555641882122,
            0.012883086688816547,
            -0.08621224015951157,
            -0.21649201214313507,
            -0.1906733214855194,
            0.0337434746325016,
            -0.008257118985056877,
            0.23345492780208588,
            1.2157882452011108
        ],
        [
            0.07251815497875214,
            0.34335434436798096,
            -0.08385919034481049,
            0.10843531042337418,
            0.044591426849365234,
            -0.8828548192977905,
            -0.024910397827625275,
            0.17781281471252441,
            0.012791779823601246,
            -0.24887165427207947
        ],
        [
            0.1267067790031433,
            0.04981698840856552,
            -0.2530863285064697,
            0.1830214262008667,
            -0.36406248807907104,
            -0.12974993884563446,
            -0.03340037167072296,
            0.029352733865380287,
            0.3288614749908447,
            0.5019416809082031
        ],
        [
            -0.07436220347881317,
            -1.3415613174438477,
            0.08860813081264496,
            -0.010245262645184994,
            -0.0207033921033144,
            0.369083046913147,
            0.018351389095187187,
            -0.032163891941308975,
            -0.03208191692829132,
            -0.0128393042832613
        ],
        [
            0.08838780969381332,
            0.5260375738143921,
            -0.1038074716925621,
            0.21974514424800873,
            0.07312817871570587,
            0.11899641156196594,
            -0.10917525738477707,
            -0.06372356414794922,
            0.20828044414520264,
            -0.4887181520462036
        ],
        [
            -0.004237720742821693,
            -0.32617807388305664,
            0.08418171852827072,
            -0.11958370357751846,
            -0.33419206738471985,
            0.0005898011731915176,
            0.030893048271536827,
            -0.010729438625276089,
            0.0188752468675375,
            1.070539116859436
        ]
    ],
    "sigmanet.nn.2.bias": [
        -0.11614377051591873,
        -0.0994296446442604,
        0.3282245099544525,
        0.41703638434410095,
        -0.807073175907135,
        0.39496368169784546,
        0.10994555056095123,
        0.5767636895179749,
        0.13237883150577545,
        0.38400930166244507
    ],
    "sigmanet.nn.2.sigma": [
        2.0
    ],
    "sigmanet.nn.2.weight_orig": [
        [
            -0.5923031568527222,
            0.3160952627658844,
            0.005525692831724882,
            0.05516532436013222,
            0.0006446017068810761,
            0.03168560937047005,
            0.07959163933992386,
            -0.09359057247638702,
            -0.565858781337738,
            0.25953909754753113
        ],
        [
            0.7571540474891663,
            -0.032543446868658066,
            0.3228355050086975,
            -0.11104434728622437,
            0.01819348894059658,
            -0.18596433103084564,
            -0.026749826967716217,
            0.2705792486667633,
            0.06638319045305252,
            -0.2085524946451187
        ],
        [
            -0.5253716111183167,
            0.11624278128147125,
            -0.21266984939575195,
            0.006644670385867357,
            0.0013396317372098565,
            0.1143127903342247,
            0.06694985926151276,
            -0.5933517813682556,
            -0.3083980679512024,
            0.05471911281347275
        ],
        [
            -0.5346435308456421,
            0.18836912512779236,
            -0.24980024993419647,
            0.011772151105105877,
            0.007280273828655481,
            0.0059968545101583,
            0.04088578373193741,
            -0.8808405995368958,
            -0.07298014312982559,
            0.007431320380419493
        ],
        [
            0.23025819659233093,
            -0.17753629386425018,
            -0.09715962409973145,
            0.03495977073907852,
            -0.6027719378471375,
            -0.021620212122797966,
            -0.15712758898735046,
            -0.08480843156576157,
            -0.4377254545688629,
            0.15603241324424744
        ],
        [
            -0.019145993515849113,
            0.07016090303659439,
            0.14964468777179718,
            -0.003381658811122179,
            0.5399854779243469,
            -0.23913191258907318,
            -0.06109868735074997,
            0.5191109776496887,
            0.39553186297416687,
            -0.0028077922761440277
        ],
        [
            -0.27978622913360596,
            0.0071332878433167934,
            -0.20694485306739807,
            0.4055096209049225,
            -0.37297916412353516,
            -0.004970099311321974,
            0.0022006386425346136,
            -0.334291934967041,
            -0.38139209151268005,
            0.0047922576777637005
        ],
        [
            -0.32347941398620605,
            0.21165168285369873,
            -0.11403176188468933,
            -0.05463429540395737,
            0.10146774351596832,
            0.26571181416511536,
            0.3221295475959778,
            -0.4775243401527405,
            -0.004249602556228638,
            0.12511985003948212
        ],
        [
            0.22940878570079803,
            -0.4958224892616272,
            0.3818068504333496,
            0.036375805735588074,
            0.002687918022274971,
            -0.33113014698028564,
            -0.14493292570114136,
            -0.04240288957953453,
            0.09434590488672256,
            -0.24108640849590302
        ],
        [
            -0.7470327019691467,
            0.12018886208534241,
            -0.11836247891187668,
            -0.0036719529889523983,
            -0.0013512525474652648,
            0.10786832123994827,
            0.02804332785308361,
            -0.6673766374588013,
            -0.1303224265575409,
            0.07578211277723312
        ]
    ],
    "sigmanet.nn.3.bias": [
        -0.4897119998931885,
        -0.12944160401821136,
        -0.24209894239902496,
        -0.4242277443408966,
        0.22139406204223633,
        0.6219345331192017,
        -0.258279412984848,
        0.21816205978393555,
        0.2013736218214035,
        -0.21138159930706024
    ],
    "sigmanet.nn.3.sigma": [
        2.0
    ],
    "sigmanet.nn.3.weight_orig": [
        [
            -0.00914250873029232,
            0.01509155798703432,
            -0.6085971593856812,
            -0.23380210995674133,
            0.17183120548725128,
            -0.06001001223921776,
            0.004550791811197996,
            -0.4948750138282776,
            -0.00754881277680397,
            -0.3945508897304535
        ],
        [
            0.13167627155780792,
            -0.7283880114555359,
            0.4955713450908661,
            -0.026690183207392693,
            -0.04772453382611275,
            0.006514864042401314,
            0.017287416383624077,
            -0.0947335734963417,
            0.3873395025730133,
            0.06407421082258224
        ],
        [
            0.14044402539730072,
            -0.0027599202003329992,
            -0.3700277805328369,
            -0.35907217860221863,
            0.13576458394527435,
            -0.13076917827129364,
            0.004278191830962896,
            -0.503677487373352,
            0.002221612026914954,
            -0.35098493099212646
        ],
        [
            0.13071414828300476,
            -0.11032620817422867,
            -0.31645670533180237,
            -0.178796648979187,
            0.19032490253448486,
            -0.12421154975891113,
            -0.044884633272886276,
            -0.4677308201789856,
            0.09556662291288376,
            -0.3409876823425293
        ],
        [
            -0.004276229999959469,
            0.07804419100284576,
            0.38006454706192017,
            0.2643354833126068,
            -0.1464606672525406,
            0.002288840478286147,
            0.0013957448536530137,
            0.6511537432670593,
            0.003602520562708378,
            0.46837788820266724
        ],
        [
            -0.23201823234558105,
            -0.1353355050086975,
            0.1993664801120758,
            0.2016882300376892,
            -0.25926461815834045,
            -0.13336218893527985,
            0.07973705232143402,
            0.28857728838920593,
            0.19511041045188904,
            0.27554014325141907
        ],
        [
            0.12198884785175323,
            -0.0070522986352443695,
            -0.3730238974094391,
            -0.3059675097465515,
            0.18356110155582428,
            -0.11980649828910828,
            0.005534516181796789,
            -0.5136464834213257,
            0.06965731084346771,
            -0.29976150393486023
        ],
        [
            -0.26366493105888367,
            0.21045942604541779,
            0.16102787852287292,
            0.258131742477417,
            -0.21376116573810577,
            -0.06966068595647812,
            0.03229452669620514,
            0.3845179080963135,
            -0.11758310347795486,
            0.2888985276222229
        ],
        [
            -0.16313053667545319,
            0.14033924043178558,
            0.3308528661727905,
            0.27868619561195374,
            -0.17132343351840973,
            0.13234475255012512,
            0.001302538439631462,
            0.4114168584346771,
            -0.03654252365231514,
            0.3340609073638916
        ],
        [
            0.15174981951713562,
            -0.13423940539360046,
            -0.34797534346580505,
            -0.250121533870697,
            0.2537936866283417,
            0.016548093408346176,
            0.0026440396904945374,
            -0.4539347290992737,
            0.01465182937681675,
            -0.37434154748916626
        ]
    ],
    "sigmanet.nn.4.bias": [
        0.4874742031097412,
        0.5048162937164307,
        -0.6845936179161072,
        -0.5434480905532837,
        0.576680600643158,
        0.49949926137924194,
        0.42911189794540405,
        -0.5593633055686951,
        -0.40346962213516235,
        -0.8731439113616943
    ],
    "sigmanet.nn.4.sigma": [
        2.0
    ],
    "sigmanet.nn.4.weight_orig": [
        [
            -0.3479962646961212,
            0.050710320472717285,
            -0.22516219317913055,
            -0.3299567401409149,
            0.07013552635908127,
            0.30658525228500366,
            -0.4108859896659851,
            0.004164271056652069,
            -0.22280962765216827,
            -0.03159378096461296
        ],
        [
            -0.2506951689720154,
            -0.0012252731248736382,
            -0.15739840269088745,
            -0.27039679884910583,
            0.0013900506310164928,
            0.1996307522058487,
            -0.31462740898132324,
            -0.04589245095849037,
            -0.3339235782623291,
            0.4248202443122864
        ],
        [
            0.28323930501937866,
            0.011620978824794292,
            0.17394044995307922,
            0.37612152099609375,
            -0.13935980200767517,
            -0.3122476041316986,
            -0.062081560492515564,
            -0.17914803326129913,
            0.41115042567253113,
            0.05109041556715965
        ],
        [
            0.24105478823184967,
            -0.056872133165597916,
            0.16563500463962555,
            0.2776426076889038,
            -0.03675655275583267,
            -0.18897023797035217,
            -0.006064014043658972,
            -0.18425345420837402,
            0.30804237723350525,
            -0.5347086787223816
        ],
        [
            -0.1563754826784134,
            -0.005407663527876139,
            -0.09567178785800934,
            -0.23528353869915009,
            0.06108639016747475,
            0.24795345962047577,
            -0.26662197709083557,
            -0.04613110050559044,
            -0.33754962682724,
            0.5479189157485962
        ],
        [
            -0.2699909508228302,
            0.005181306041777134,
            -0.1753655970096588,
            -0.2084822803735733,
            -0.023302147164940834,
            -0.021187638863921165,
            -0.3042689263820648,
            0.16221581399440765,
            -0.3157823085784912,
            0.5142232775688171
        ],
        [
            -0.24828487634658813,
            -0.0028344427701085806,
            -0.1793237328529358,
            -0.3220241069793701,
            0.08410517126321793,
            0.2722678482532501,
            -0.4768391251564026,
            0.10005785524845123,
            0.02020988240838051,
            0.2940528392791748
        ],
        [
            -0.04502347111701965,
            0.05467112734913826,
            0.15055939555168152,
            0.06704069674015045,
            -0.18486662209033966,
            -0.2021239697933197,
            0.21498273313045502,
            -0.4583783745765686,
            0.08871866762638092,
            -0.5336349606513977
        ],
        [
            0.15230269730091095,
            -0.001409632619470358,
            0.12809143960475922,
            0.3534914255142212,
            0.0031941693741828203,
            -0.27314770221710205,
            0.491848349571228,
            -0.06575184315443039,
            0.34527260065078735,
            -0.18549004197120667
        ],
        [
            0.260722815990448,
            -0.15704956650733948,
            0.270462304353714,
            -0.10730733722448349,
            -0.16925746202468872,
            -0.26209479570388794,
            0.24665303528308868,
            -0.13122183084487915,
            0.15850719809532166,
            -0.23672349750995636
        ]
    ],
    "sigmanet.nn.5.bias": [
        0.4218033254146576
    ],
    "sigmanet.nn.5.sigma": [
        2.0
    ],
    "sigmanet.nn.5.weight_orig": [
        [
            0.5956029891967773,
            0.29306885600090027,
            -0.020866384729743004,
            -0.015272028744220734,
            0.10432639718055725,
            0.3385046124458313,
            0.007244737818837166,
            0.18588659167289734,
            -0.37688007950782776,
            -0.06234715133905411
        ]
    ],
    "nominal_cut": 0.9
}
