{"variables_constraints": [[0.323, 2.578], [1.388, 13.904], [1.0, 14.345], [0.015, 4.812], [1.075, 20.198], [0.015, 3.36], [0, 6.305], [2.834e-07, 12.599], [2.468, 17.763], [-5.697, 14.314], [-2.042, 17.948], [0.855, 20.073], [0.99, 14.258], [3.055e-11, 9.999], [-13.301, 9.556]], "sigmanet.sigma": [1.75], "sigmanet.nn.0.bias": [0.21404145658016205, -0.1597069650888443, -0.06325887143611908, 0.06659024208784103, -0.774770975112915, -0.2043658196926117, 0.10874942690134048, -0.1237550899386406, 0.2959589660167694, 0.17121456563472748, 0.16007588803768158, 0.058562956750392914, -0.33492782711982727, -0.07620987296104431, -0.09399774670600891, -0.4843890964984894, 0.0337059311568737, 0.320559561252594, -0.4904637634754181, 0.3325251042842865, 0.001137303770519793, -0.14766328036785126, 0.03613691404461861, 0.2741226553916931, 0.1482759714126587, 0.2019437849521637, -0.4392569363117218, -0.2581183612346649, -0.047089509665966034, 0.034027595072984695, -0.04460686817765236, -0.3115542232990265], "sigmanet.nn.0.weight_orig": [[0.001717334147542715, 0.06318135559558868, 0.04666901007294655, 0.08757755160331726, 0.039489734917879105, 0.009528858587145805, 0.0005723557551391423, 0.04883081093430519, 0.08044539391994476, 0.010716945864260197, 0.08928008377552032, 0.03694465011358261, 0.08168071508407593, 0.02175097167491913, 0.03339647501707077], [0.0006960727623663843, -0.0031609144061803818, -0.02654743194580078, -0.05249489098787308, -0.013005700893700123, -0.0017336424207314849, -0.00035540302633307874, -0.019929680973291397, -0.004699457436800003, -0.052326567471027374, -0.02083480916917324, -0.013112083077430725, -0.0546359047293663, 0.030278515070676804, -0.037772610783576965], [0.0011356538161635399, 0.00010420275793876499, 0.0003000075521413237, 0.003572986926883459, 0.0006552718696184456, 0.0008724654908291996, -0.18256357312202454, -0.0010693160584196448, 2.3293745471164584e-05, 6.450874934671447e-05, 3.6794030165765435e-05, 0.0036120195873081684, 0.0006201505893841386, -0.05537041276693344, -0.1356385052204132], [0.0006570168770849705, 0.0065640234388411045, 0.09422803670167923, 0.04856663942337036, 0.015956951305270195, 0.0012971240794286132, 0.0005357350455597043, 0.002011587144806981, 0.3028358519077301, 0.10427933931350708, 0.027472341433167458, 0.029090026393532753, 0.09972380101680756, -0.034446075558662415, 0.005716468207538128], [0.4471961259841919, 0.00605638837441802, -0.00028334930539131165, 0.0022639769595116377, -0.22809666395187378, -0.6400713324546814, -0.10857836157083511, -0.04149496555328369, 2.4369373932131566e-05, 0.00019504479132592678, -4.09284548368305e-05, -0.03868060186505318, -0.0015177911845967174, -0.1703551560640335, -0.09118621051311493], [-0.6786747574806213, -0.001208069734275341, 0.0003449942159932107, -0.014587899670004845, 0.00238297157920897, 0.004732266999781132, 0.3619091212749481, 0.0007885476807132363, 2.309754563611932e-06, -0.00013138972281012684, 2.9055439881631173e-05, 0.003497568890452385, 0.0008636074489913881, -0.2271702140569687, -0.03680352121591568], [-0.0005226748762652278, -0.0011227144859731197, -0.009017759934067726, -0.010139159858226776, -0.05346916988492012, -0.00471540866419673, -0.0005995649262331426, -0.004155335482209921, -0.003152519930154085, -0.03855782374739647, -0.0035984045825898647, -0.017011728137731552, -0.029648616909980774, 0.11487776041030884, 0.062323715537786484], [-0.0018070284277200699, -0.06798257678747177, -0.07619078457355499, -0.08499357104301453, -0.09500586241483688, -0.008753146044909954, -0.00031522050267085433, -0.003507722169160843, -0.07689220458269119, -0.06842228025197983, -0.06394657492637634, -0.020380893722176552, -0.0834045335650444, -0.03683936223387718, -0.03933987766504288], [6.2259168771561235e-06, 0.004522107075899839, 0.056500937789678574, 0.01020109560340643, 0.013952800072729588, 0.0013863274361938238, 0.0003463816537987441, 0.0027287674602121115, 0.09276445209980011, 0.03589852899312973, 0.10889577865600586, 0.0182348620146513, 0.010300385765731335, 0.037570226937532425, 0.006844210904091597], [-0.0017987681785598397, -0.06423158198595047, -0.11395629495382309, -0.0188591405749321, -0.07879536598920822, -0.002600643318146467, -0.048274632543325424, -0.00228685955516994, -0.11769907921552658, -0.07890509814023972, -0.06677047163248062, -0.013829161413013935, -0.01236733142286539, -0.00950001459568739, -0.04088906943798065], [0.0010480605997145176, 0.0008193543762899935, 0.04361335560679436, 0.009438542649149895, 0.10246796160936356, 0.006371612660586834, 0.03180485963821411, 0.02780028246343136, 0.03839172050356865, 0.010007396340370178, 0.0729801133275032, 0.016063062474131584, 0.05212806537747383, 0.009553992189466953, 0.028636310249567032], [-0.0018252846784889698, -0.0033395569771528244, -0.010082553140819073, -0.012403412722051144, -0.06097085401415825, -0.0018947534263134003, 0.0063411770388484, -0.0020610373467206955, -0.009124187752604485, -0.1572810411453247, -0.013023842126131058, -0.023456042632460594, -0.021106526255607605, -0.009954823181033134, 0.09281750023365021], [0.000969297660049051, 0.42465266585350037, -7.614182322868146e-06, -0.12414129823446274, -0.0003178855695296079, -0.001022418844513595, 0.025850413367152214, -9.142718045040965e-05, -2.2872900444781408e-05, 0.00011631226516328752, -2.802723201966728e-06, 0.0014911784091964364, -0.0004716113326139748, -0.02853664942085743, -0.004806430544704199], [-0.0005283915670588613, -0.01612790673971176, -0.06362348794937134, -0.022434407845139503, -0.0375758558511734, -0.040173280984163284, -0.025259843096137047, -0.0023948163725435734, -0.014820796437561512, -0.05328051373362541, -0.0843077003955841, -0.08024206757545471, -0.08952362835407257, -0.03137115016579628, -0.007632825989276171], [-0.0004630893236026168, -0.0007619592943228781, -0.08461692929267883, -0.06286711245775223, -0.04572251811623573, -0.007303940132260323, 0.00017597703845240176, -0.010974262841045856, -0.006100640632212162, -0.058607421815395355, -0.05968466028571129, -0.01349891908466816, -0.06805191189050674, 0.01708158478140831, -0.032901499420404434], [-0.0005658517475239933, -0.00010949961870210245, 1.2877195331384428e-05, -0.03452088311314583, 0.00020649436919484288, -0.3610297739505768, -0.0025389445945620537, 0.000682301411870867, -0.0003626818652264774, 9.019149729283527e-05, -0.0004540362861007452, 0.28563886880874634, 0.00044147655717097223, -0.008146123960614204, 0.012711250223219395], [-0.0005128025659359992, -0.011442390270531178, -0.05459664389491081, -0.06113522872328758, -0.046920184046030045, -0.0025682474952191114, -0.030432958155870438, -0.002345110522583127, -0.03481801226735115, -0.008711491711437702, -0.055213287472724915, -0.045280393213033676, -0.053541529923677444, -0.024663470685482025, -0.018828988075256348], [-0.00014399476640392095, 0.04304167255759239, 0.014175087213516235, 0.06374365091323853, 0.08279827237129211, 0.01347684022039175, 0.00022316495596896857, 0.056584425270557404, 0.011574560776352882, 0.06649884581565857, 0.09907033294439316, 0.020848484709858894, 0.05995162948966026, -0.0027357707731425762, 0.007053638808429241], [-0.0007023374200798571, -0.11911819130182266, -2.2532572074851487e-06, 0.06568799912929535, 0.00014795227616559714, 0.0007975072367116809, -0.10136937350034714, 0.1896119862794876, -0.0005760221392847598, 0.00011836721387226135, 2.3377737306873314e-05, -0.0014560616109520197, 5.796674668090418e-05, 0.015312754549086094, -0.020810775458812714], [-0.002693824004381895, -0.016725024208426476, -0.0006483279867097735, -0.007853887975215912, -6.483609922725009e-06, -0.002163921482861042, 0.06254737079143524, -0.3127390742301941, -4.399602403282188e-05, -0.00036543968599289656, -5.1835839258274063e-05, 0.000960848992690444, -4.560127854347229e-05, -0.0025358626153320074, 0.007071936968713999], [-4.3135998566867784e-05, 0.0014316494343802333, 0.014705108478665352, 0.00792792346328497, 0.009658057242631912, 0.011706356890499592, 0.0005262204213067889, 0.005751500371843576, 0.004714653827250004, 0.036611367017030716, 0.06534754484891891, 0.01614348031580448, 0.00783698819577694, 0.017518246546387672, 0.03402334079146385], [4.95461281388998e-05, -0.004022751469165087, -0.008367929607629776, -0.021689867600798607, -0.010808443650603294, -0.0017973450012505054, -0.0005609152722172439, -0.0026635294780135155, -0.005879799835383892, -0.0558321587741375, -0.062004949897527695, -0.017390010878443718, -0.0734654888510704, 0.002742273500189185, 0.0588061586022377], [7.834305142750964e-05, -0.0015143464552238584, -0.08222663402557373, -0.056234028190374374, -0.012240051291882992, -0.007294757291674614, 0.0001661419664742425, -0.002567479619756341, -0.029281046241521835, -0.05954849347472191, -0.06786121428012848, -0.021584540605545044, -0.08042062073945999, 0.028745412826538086, 0.06393192708492279], [-0.00013426574878394604, 0.06485747545957565, 0.009646248072385788, 0.007550003472715616, 0.045840054750442505, 0.00014387682313099504, 0.036360397934913635, 0.06187526881694794, 0.027570778504014015, 0.006433452013880014, 0.014712893404066563, 0.07430476695299149, 0.028743676841259003, 0.00972847267985344, 0.04867083951830864], [3.354434738866985e-05, -0.005132289603352547, -0.10463288426399231, -0.024799829348921776, -0.019398121163249016, -0.002543399343267083, -0.0006356447120197117, -0.041508082300424576, -0.14440684020519257, -0.07258277386426926, -0.009006915614008904, -0.015211555175483227, -0.09674225002527237, 0.027712881565093994, -0.025650005787611008], [-9.142460476141423e-05, 0.001969452016055584, 0.06047181040048599, 0.07799733430147171, 0.009001156315207481, 0.001597757451236248, 0.00020730553660541773, 0.024078411981463432, 0.028796344995498657, 0.033659741282463074, 0.06072906777262688, 0.012538731098175049, 0.012136776000261307, 0.028716281056404114, -0.04328583553433418], [0.0018219632329419255, 0.001379209104925394, -0.0003673833853099495, -0.052666909992694855, -0.0036142354365438223, -0.0010953521123155951, -0.03153705596923828, -0.2136201113462448, 5.234816489974037e-05, -0.00020357640460133553, 0.0001454204902984202, -0.013510379008948803, -0.00031218453659676015, 0.021524766460061073, 0.060323670506477356], [0.00011678884766297415, -0.10897693037986755, -0.05996616929769516, -0.07128231972455978, -0.03149167448282242, -0.001575032016262412, -0.03632137551903725, -0.031191058456897736, -0.016717061400413513, -0.012796182185411453, -0.083556167781353, -0.094929538667202, -0.021767690777778625, -0.0424971804022789, -0.029537200927734375], [0.0006015138933435082, 1.5642872313037515e-06, 0.0005966019234620035, 0.003127431496977806, 0.010767469182610512, 0.005603738594800234, 0.013775082305073738, 0.026291970163583755, 0.0003511811082717031, 0.00014338271284941584, 0.00023172865621745586, 0.12211135774850845, 0.0021759781520813704, 0.007517921272665262, 0.016371335834264755], [0.0017540071858093143, 0.0027840747497975826, 0.0622115284204483, 0.021588429808616638, 0.05773190036416054, 0.0029123337008059025, 0.037107281386852264, 0.003924183547496796, 0.08658745139837265, 0.08863633871078491, 0.011601884849369526, 0.015017014928162098, 0.09472663700580597, 0.035368550568819046, 0.007212487980723381], [-0.000979919801466167, -0.004361362662166357, -0.05066647380590439, -0.007235836237668991, -0.008530702441930771, -0.0007173822959885001, -0.002317489357665181, -0.001602444564923644, -0.0031580887734889984, -0.028768740594387054, -0.008700978010892868, -0.01684115082025528, -0.006208765786141157, -0.022005321457982063, -0.006197253707796335], [0.0007942303200252354, -0.09946014732122421, -0.0008868436561897397, -0.0005800097715109587, -0.013136603869497776, -0.0006825616583228111, -5.397904897108674e-05, -0.0030009865295141935, -0.00827319547533989, -0.010372624732553959, -0.0005473425262607634, -0.04725126922130585, -0.005543514154851437, -0.01803511753678322, 0.03297147527337074]], "sigmanet.nn.2.bias": [-0.4536781907081604, 0.5693399906158447, 0.08694878965616226, 0.6095385551452637, -0.16246682405471802, 0.13058170676231384, -0.07826585322618484, 0.4849092364311218, 0.16267560422420502, -0.06561683863401413, -0.06887897104024887, 0.4887199401855469, -0.08681504428386688, 0.19541506469249725, 0.17203758656978607, -0.3557380735874176, 0.42826053500175476, -0.46639999747276306, -0.493770956993103, 0.48756417632102966, -0.5199189782142639, 1.230151653289795, 0.24901336431503296, 0.17513388395309448, -0.15413224697113037, 0.032641008496284485, 0.08037254214286804, -0.09409533441066742, 0.23514823615550995, -0.13161601126194, -0.02949613332748413, -0.0799160897731781, 0.22728151082992554, 0.09322946518659592, 0.38528725504875183, -0.40983638167381287, 0.28308188915252686, 0.25148239731788635, 0.28480061888694763, -0.10496504604816437, 0.03769805282354355, -0.5300767421722412, 0.23249241709709167, 0.29793596267700195, -0.1895221620798111, 0.20783838629722595, -0.04661649465560913, -0.08480850607156754, 0.08560088276863098, 0.048507001250982285, 0.250047504901886, -0.13000035285949707, 0.31019866466522217, -0.503529965877533, -0.21289636194705963, 0.10023970901966095, 0.05912170186638832, 0.16083362698554993, 0.11733901500701904, -0.23832201957702637, -0.048276081681251526, -0.28513774275779724, -0.24314628541469574, -0.04434375464916229], "sigmanet.nn.2.weight_orig": [[-1.9300226995255798e-05, 0.00016833996050991118, 0.0029752738773822784, 0.00012511246313806623, -0.000313771452056244, -6.924397894181311e-06, -0.0006082687177695334, -3.186883986927569e-05, -9.480398875894025e-05, -2.342556581425015e-05, -0.00015889716451056302, 6.943156768102199e-05, -0.00016971334116533399, -0.0003612921282183379, 3.590526102925651e-05, 0.0005822307430207729, -0.00012849272752646357, 6.946334906388074e-06, -0.0009105765493586659, -5.047933154855855e-05, -0.00015595884178765118, 0.00015582822379656136, -0.00011958233517361805, 0.0003125083167105913, -0.00013413313718046993, 6.940627645235509e-05, -0.00016558876086492091, -0.002162008313462138, 0.0014461340615525842, 9.953864355338737e-05, -0.0002606928755994886, -0.00036385131534188986], [-4.076794721186161e-05, -3.5774206480709836e-05, -0.0013595421332865953, -1.9142296878271736e-05, 0.0005904791178181767, -0.00013201966066844761, 0.0005477567901834846, 7.444757648045197e-05, 5.204473200137727e-05, -0.00012457648699637502, 0.0001137021608883515, 1.974482620425988e-05, 5.475557554746047e-05, -0.0005573275266215205, 8.465111022815108e-06, -0.001799837569706142, 0.0003157354367431253, -0.00011710605031112209, 0.00044607982272282243, 0.00010895063314819708, 0.00011430039012338966, -0.00010486588871572167, 7.487464608857408e-05, -7.220845145639032e-05, 0.0002536479732953012, -0.00010182748519582674, 0.0003633630112744868, 0.00010986517736455426, -0.0005937363021075726, -1.4016736713529099e-05, 0.0002828705182764679, -7.469386764569208e-05], [3.6958284908905625e-05, -0.00014426017878577113, -0.0004189970495644957, -0.0001127059367718175, 0.00035051078884862363, -7.3473379416100215e-06, 0.0003254499169997871, -8.04292085376801e-06, 8.843658724799752e-05, 1.3344875696930103e-05, 0.0001934930623974651, -1.9944351151934825e-05, 3.818943878286518e-05, -0.000639093283098191, 5.938039976172149e-05, 0.19998908042907715, 9.36975484364666e-05, -0.00014806148828938603, 0.004427778534591198, 0.0001963282556971535, 1.4912873666617088e-05, 1.591539148648735e-05, -3.407506665098481e-05, -9.51119654928334e-05, 9.034485992742702e-05, -0.000264240603428334, 0.0004829819081351161, 0.0007898756884969771, 0.02089502103626728, -2.333382326469291e-05, 0.0005823093233630061, 4.0057766454992816e-05], [1.2067971510987263e-05, 0.00017909555754158646, 0.00023439900542143732, -2.462529118929524e-05, -0.0001564193080412224, 0.00018891648505814373, -0.0002701261837501079, -0.00011211777018615976, 9.60573561314959e-06, 9.228433918906376e-05, 1.5407322280225344e-05, 0.0002307976537849754, -4.700370482169092e-05, 0.0008308225078508258, -0.00017407398263458163, -0.9088209867477417, -5.026561120757833e-05, 5.1353101298445836e-05, -0.006447629537433386, 5.3608964662998915e-05, -0.00010206204751739278, -3.355529042892158e-05, -0.00017166236648336053, 0.00024259809288196266, -7.550093141617253e-05, 9.591620619175956e-05, -4.403576440381585e-06, 0.000988018698990345, -0.0005524652078747749, -3.865154576487839e-05, -0.0007190136821009219, 3.3385687856934965e-05], [0.060498859733343124, -0.05231189727783203, -0.009107822552323341, -0.013103264383971691, 0.01107945665717125, -0.03850352391600609, 0.044387757778167725, 0.041679978370666504, 0.03794229030609131, -0.05026741698384285, 0.06566831469535828, -0.06294848024845123, 0.05262819305062294, -0.00018065338372252882, 0.06221883371472359, -0.0007372174877673388, 0.0474589541554451, -0.04793965816497803, 8.888393494999036e-05, 0.07076910138130188, 0.016458585858345032, -0.05120765045285225, 0.00947631523013115, -0.015851540490984917, 0.059576090425252914, -0.048772960901260376, 0.05736691877245903, 0.00047935350448824465, -0.01152847521007061, -0.062025975435972214, 0.04444712772965431, 0.07072114944458008], [-0.0003944398195017129, 0.000835937331430614, 0.0022034142166376114, 0.0027603483758866787, -0.0013695686357095838, 0.004330523777753115, -0.0036019375547766685, -0.0025687641464173794, -0.001572099281474948, 0.002157284412533045, -0.0026272067334502935, 0.002321321051567793, -0.0013592890463769436, 0.0010014643194153905, -0.0038219825364649296, 0.0011384189128875732, -0.004533072002232075, 0.0018053341191262007, -0.0006360363913699985, -4.380806421977468e-05, -0.0026939953677356243, 0.0026456904597580433, -0.0021508156787604094, 0.000784712319727987, -0.0004832207050640136, 0.0034827212803065777, -0.0010141150560230017, -0.0005031009204685688, 0.029757071286439896, 0.00227076536975801, -0.002470216481015086, -0.002239827299490571], [0.06250984966754913, -0.049858592450618744, -0.0062070139683783054, -0.02227647788822651, 0.011636866256594658, -0.058322396129369736, 0.035438764840364456, 0.05640355870127678, 0.03536709025502205, -0.0569351427257061, 0.06712903827428818, -0.009587791748344898, 0.04606667533516884, -0.002173874294385314, 0.041603222489356995, -0.00016066468378994614, 0.04237142577767372, -0.009253418073058128, 0.0008444582344964147, 0.0651605874300003, 0.04620106890797615, -0.041161078959703445, 0.054365478456020355, -0.0692116767168045, 0.007808223832398653, -0.06158721074461937, 0.07095293700695038, 0.00037597122718580067, -0.04392941668629646, -0.013848084956407547, 0.05948846787214279, 0.07927919179201126], [0.00013883589417673647, -0.0005087333847768605, -0.0010898241307586432, 2.6669518774724565e-05, 0.0002446022699587047, -0.0008149390341714025, 0.00010760233271867037, 0.0001342815230600536, 0.00015632672875653952, 1.1279741556791123e-05, 0.00010719730198616162, 6.624483376072021e-06, -1.5914845789666288e-05, -0.0003276303468737751, 0.000453663757070899, -0.0012345309369266033, 5.187738497625105e-05, 4.1261733713326976e-05, 0.0011490422766655684, 2.3949794922373258e-05, -1.4611884580517653e-05, -9.497602877672762e-05, 4.779963637702167e-05, -5.831771341036074e-05, 0.00020377839973662049, -0.00014839218056295067, 8.321789937326685e-05, -7.566268322989345e-05, -0.000339992722729221, 3.073850166401826e-05, 0.0001095787447411567, 0.0006799708353355527], [-0.00021764670964330435, 3.5353503335500136e-05, 0.001165754976682365, 0.00013159743684809655, -5.941152630839497e-05, 0.00018110369273927063, -0.00017303692584391683, -0.0005994520615786314, -4.526598786469549e-05, 0.00021742921671830118, -2.2524282030644827e-05, 6.139965989859775e-05, -1.1685938261507545e-05, 0.0013749214122071862, -0.00024114284315146506, 0.0010617272928357124, -0.0005314167938195169, 4.0561091736890376e-05, -0.00025620745145715773, -0.0001354147243546322, -0.00010833017586264759, -3.0201808840502053e-05, -0.00047462322982028127, 4.4309781515039504e-05, -0.00034498629975132644, 0.0001638943940633908, -0.0003424840106163174, -0.0010546966223046184, 0.000587653776165098, 0.00013972273154649884, -0.00012620171764865518, -0.0003209401620551944], [0.018399592489004135, -0.003081824630498886, -0.04831091687083244, -0.004282876383513212, 0.036487843841314316, -0.009276121854782104, 0.001596044865436852, 0.03928559273481369, 0.0010705968597903848, -0.0037543782964348793, 0.0014594633830711246, -0.0050713238306343555, 0.007643911521881819, -0.0012294745538383722, 0.022143492475152016, -0.0001255616662092507, 0.018541689962148666, -0.001171216950751841, 0.00073456228710711, 0.043832823634147644, 0.018164021894335747, -0.005320049822330475, 0.004679781384766102, -0.02642444707453251, 0.004981959238648415, -0.01874127797782421, 0.03439986705780029, 0.001504093175753951, -0.010488803498446941, -0.0023071831092238426, 0.03597312793135643, 0.02978554554283619], [0.01625010184943676, -0.08978307247161865, -0.057694438844919205, -0.04058785364031792, 0.020214924588799477, -0.0632907822728157, 0.095897376537323, 0.035415079444646835, 0.10495245456695557, -0.10704075545072556, 0.038556959480047226, -0.11437118798494339, 0.05503184348344803, -0.0009359559626318514, 0.10281436145305634, -0.0010194864589720964, 0.09842079132795334, -0.01126096211373806, -7.11332613718696e-05, 0.03862439841032028, 0.01614973694086075, -0.06557122617959976, 0.057245101779699326, -0.023141004145145416, 0.11506514996290207, -0.04715669900178909, 0.09995204955339432, 0.0009513768600299954, -0.02032146044075489, -0.10127569735050201, 0.0895448625087738, 0.046474888920784], [7.536920293205185e-06, 5.255598443909548e-05, -0.0008637720020487905, -0.00010478510375833139, 0.00045486766612157226, -0.00025452248519286513, 0.0001921792863868177, 5.202625834499486e-05, 3.0387649530894123e-05, -9.996471635531634e-05, 7.216115773189813e-05, -0.0004394036950543523, 0.00011038531374651939, -0.0006531059043481946, 0.00036124230246059597, -0.0008931399788707495, 0.00040370499482378364, -0.00015791176701895893, 0.00011260609608143568, 5.421455716714263e-05, -6.261613179958658e-06, -0.00019982668163720518, 2.9829558116034605e-05, -0.00027808386948890984, 9.30057285586372e-05, 6.803571886848658e-05, -8.572036313125864e-05, -0.00014190751244314015, -0.000328516005538404, -6.26882174401544e-05, 0.00036230767727829516, 0.0001322427560808137], [0.021127523854374886, -0.011533867567777634, -0.024004336446523666, -0.00460896035656333, 0.06270868331193924, -0.039224788546562195, 0.017270060256123543, 0.029391786083579063, 0.0018188426038250327, -8.916161459637806e-05, 0.005002812948077917, -0.021779777482151985, 0.007367575541138649, -0.0012567252852022648, 0.007310160435736179, -0.00019653243361972272, 0.03903104364871979, -0.0029395315796136856, 0.0014710660325363278, 0.013347439467906952, 0.02567632868885994, -0.017438052222132683, 0.014192531816661358, -0.030910640954971313, 0.0026617206167429686, -0.019422180950641632, 0.009962632320821285, 0.00027602369664236903, -0.008290678262710571, -0.01941080577671528, 0.019934270530939102, 0.052001163363456726], [-0.005157653708010912, 0.0017127117607742548, 0.04093017801642418, 0.0046219066716730595, -0.02638763189315796, 0.019763559103012085, -0.0007866850355640054, -0.0011188838398084044, -0.0016457305755466223, 0.0017278756713494658, -0.0035715417470782995, 0.0020608208142220974, -0.0004014322767034173, 0.00036014130455441773, -0.006866247393190861, 0.0010347086936235428, -0.003665010677650571, 0.006905008107423782, -0.0007157124928198755, -0.0019076911266893148, -0.006484124809503555, 0.004540602210909128, -0.003388365963473916, 0.0014212349196895957, -0.0013375648995861411, 0.00332942558452487, -7.895746966823936e-05, -0.0007076275651343167, 0.011574733071029186, 0.00025277165696024895, -0.002819727174937725, -0.0013147227000445127], [-0.05981467664241791, 0.017619512975215912, 0.00849004928022623, 0.008337336592376232, -0.055057376623153687, 0.008906860835850239, -0.007512068375945091, -0.043575532734394073, -0.006915263365954161, 0.009786835871636868, -0.02015307918190956, 0.04357139766216278, -0.00838496070355177, 0.0007816543220542371, -0.008824390359222889, 0.00010156545613426715, -0.042759913951158524, 0.03013024665415287, -0.0007755267433822155, -0.009544872678816319, -0.034392811357975006, 0.027272837236523628, -0.012798130512237549, 0.05642112344503403, -0.039345040917396545, 0.03604487329721451, -0.05311368405818939, -0.0006327006849460304, 0.03846627473831177, 0.02303680032491684, -0.04278884083032608, -0.022478438913822174], [-0.0001217908356920816, 3.283422483946197e-05, 0.0016401618486270308, 2.8784124879166484e-05, -4.7327564971055835e-05, 0.0002700451004784554, -7.422743510687724e-05, -7.197537343017757e-05, -0.00010168079461436719, 2.8683067284873687e-05, -2.493427473382326e-07, 0.00013223801215644926, -3.933881816919893e-05, 0.000502626528032124, -0.00042215018766000867, -0.00015840530977584422, -4.535407788353041e-05, 4.506253026193008e-05, -0.0011249472154304385, -9.762078116182238e-05, -0.00018880957213696092, -7.567015563836321e-05, -0.0001984646514756605, 0.000175525012309663, 1.896565117931459e-05, 0.00020531110931187868, -0.00020095170475542545, 0.001073259743861854, -0.00033879585680551827, 3.4140732168452814e-05, -0.00011381493823137134, -0.0002356917830184102], [0.00017777676112018526, -0.0002224695635959506, -0.0027771994937211275, -9.524638880975544e-05, 0.0013161759125068784, -0.0006590521661564708, 0.0003943732881452888, 0.0007383031188510358, 6.244717224035412e-05, -0.0014533591456711292, 0.0002637059660628438, -0.0007507072878070176, 0.0007312233792617917, -0.0016282729338854551, 0.0012151385890319943, -8.656856516608968e-05, 0.0008544193115085363, -0.0006449475768022239, -0.0001204123254865408, 0.0004683664592448622, 0.00026927285944111645, -0.0003470231604296714, 0.0005110485944896936, -0.001151425065472722, 0.0004897796898148954, -0.0008373206946998835, 0.0005707625532522798, 0.0007086346740834415, -0.0017629781505092978, -7.453679427271709e-05, 0.00023842474911361933, 0.001061667106114328], [-0.00048695181612856686, 9.712646715342999e-05, 0.001385083538480103, 0.0005878575029782951, -0.0006876656552776694, 0.0008178482530638576, -0.00061992701375857, -6.22943407506682e-05, -0.00032289422233588994, 3.2374020975112217e-06, -0.00013601916725747287, 0.00013766478514298797, -0.00034303145366720855, 0.0006551312399096787, -5.733344369218685e-05, 6.414845847757533e-05, -0.00013407172809820622, 0.00019994789909105748, -9.989473619498312e-05, -0.00037786460597999394, -8.933765639085323e-05, 0.0002740576455835253, -0.0003316897200420499, 0.0005959717673249543, -0.00010101682710228488, 2.320225212315563e-05, -0.0001502369123045355, 0.0009022503509186208, 0.0006303759291768074, 5.585834878729656e-05, -0.00021794741041958332, -7.031542190816253e-05], [-1.0778816431411542e-05, 2.4847286113072187e-05, 0.0017985454760491848, 0.00024362766998820007, -0.00026774665457196534, 0.0005462444969452918, 4.765793164551724e-06, -4.247129982104525e-05, -2.707818930502981e-05, 4.181748954579234e-05, -0.00012653411249630153, 5.516402961802669e-05, -1.8792945411405526e-05, -2.93194648293138e-06, 6.118391320342198e-05, 0.0008619780419394374, -0.00015372494817711413, 0.0001099015207728371, -0.0003085704520344734, -7.327394996536896e-05, -0.00024156014842446893, 4.058827107655816e-05, -0.00010552903404459357, 6.746877625118941e-05, -9.522613981971517e-05, 6.469889194704592e-05, 7.992752944119275e-05, -0.0006506913341581821, -0.00039569041109643877, 9.484527981840074e-05, -9.342999874206726e-06, 3.121848567388952e-05], [0.0011118800612166524, -0.0004233857325743884, -0.0009138683672063053, -0.00047780448221601546, 0.001112745376303792, -0.0026507365982979536, 0.0012656057951971889, 0.0006025957991369069, 0.00022770276700612158, -0.001555281807668507, 0.0017035631462931633, -8.224500197684392e-05, 0.0011688567465171218, -0.0036962260492146015, 0.0013934440212324262, -0.0005027094739489257, 0.0003360143455211073, -0.0005662640323862433, 0.0007520310464315116, 0.00018804692081175745, 0.0010348486248403788, -0.0008629806688986719, 0.0007233945652842522, -0.0005325383972376585, 4.8321606300305575e-05, -0.0027522065211087465, 4.2677616875153035e-05, 0.0015720289666205645, -0.0017941122641786933, -0.00011671488027786836, 7.281948637682945e-05, 0.001165057416073978], [4.386125510791317e-06, 1.0613131962600164e-05, -0.006820645183324814, 9.49002514971653e-06, -0.00010137257777387276, 0.03651360794901848, 5.686789154424332e-05, -8.569660712964833e-05, 7.04552439856343e-05, -6.718809891026467e-05, 4.0955939766718075e-05, -0.00012578419409692287, 0.00010968567221425474, 0.6634008288383484, 0.0001556377246743068, -0.00016665334987919778, -5.017242074245587e-05, -0.0001234113733517006, -0.389873206615448, -0.0004324122564867139, 0.00010319360444555059, 8.424325642408803e-05, -3.012519664480351e-05, -1.870277992566116e-05, 1.1008447472704574e-05, -8.030158642213792e-05, -5.740864435210824e-05, 0.5261842608451843, 3.1396936606142845e-08, -0.00016638738452456892, -0.00011716799781424925, 4.8800749937072396e-05], [-0.00010309626668458804, 1.9620383682195097e-05, 0.027691511437296867, -6.3012689679453615e-06, 0.0001692278019618243, -0.010783964768052101, 5.8916109992424026e-05, -1.8556062059360556e-05, -4.553173130261712e-05, -0.00010195251525146887, -0.00010461522469995543, 7.521164661739022e-05, -9.976994624594226e-05, -0.4204522967338562, -7.267959881573915e-05, 0.0012086044298484921, -6.849845522083342e-05, 0.00010445543739479035, 0.17249852418899536, 4.8250931286020204e-05, -2.2699943656334653e-05, -0.00010104256216436625, -0.00014703796477988362, 0.00010441581980558112, -2.4379421574849403e-06, -1.1137841283925809e-05, 2.4214532459154725e-05, -0.16631686687469482, 0.0001286963961319998, -1.7702064724289812e-05, 0.0004771390522364527, -0.00021361556719057262], [-0.008820729330182076, 0.006527042016386986, 0.04188595339655876, 0.003832092974334955, -0.0604076012969017, 0.05175872892141342, -0.0023121291305869818, -0.048927437514066696, -0.00027076550759375095, 0.002907974412664771, -0.0044485400430858135, 0.04398683086037636, -0.006845245137810707, 0.0020899686496704817, -0.012530958279967308, 0.0010531173320487142, -0.018574800342321396, 0.014614017680287361, -0.0012298026122152805, -0.04816687852144241, -0.03208598867058754, 0.037369392812252045, -0.013556311838328838, 0.047453396022319794, -0.016779854893684387, 0.03055928274989128, -0.02999069355428219, 3.372032006154768e-05, 0.04072471708059311, 0.019012467935681343, -0.05333870276808739, -0.044688232243061066], [7.691750215599313e-05, 2.9478169381036423e-05, -0.0008685598149895668, -0.0001208085086545907, -2.8129505153628998e-05, -7.443922368111089e-05, 0.00013344491890165955, 0.00011019807425327599, -1.644794906496827e-06, 9.111785038840026e-05, 4.198756505502388e-05, -0.0001542970712762326, 5.386588327382924e-06, -0.00011716004519257694, 0.0002932134666480124, -0.000265008129645139, 0.0002653042320162058, -1.832794259826187e-05, 0.00045004376443102956, 7.029518747003749e-05, 5.566293839365244e-05, -6.849704368505627e-05, 3.962737537221983e-05, -9.372989734401926e-05, 0.00015789068129379302, -8.48728814162314e-05, 0.00025479760370217264, 0.00020087292068637908, 0.00048687291564419866, -5.170557415112853e-05, 0.00012992620759177953, 7.638509123353288e-05], [0.015514646656811237, -0.054548267275094986, -0.03212682902812958, -0.06775348633527756, 0.015076550655066967, -0.04610240086913109, 0.06903009861707687, 0.014625195413827896, 0.054234813898801804, -0.02594403177499771, 0.08251715451478958, -0.01715979352593422, 0.06900184601545334, -0.0006333435885608196, 0.08376611769199371, 0.0008609954384155571, 0.010640190914273262, -0.06265011429786682, -6.17801706539467e-05, 0.06875133514404297, 0.03865242376923561, -0.06458956748247147, 0.062159452587366104, -0.043756790459156036, 0.02313023805618286, -0.01911105401813984, 0.07455675303936005, 0.0011070303153246641, -0.029080219566822052, -0.05783146619796753, 0.06198602914810181, 0.08934730291366577], [-0.06187015399336815, 0.04085032269358635, 0.060896143317222595, 0.039400503039360046, -0.07966601103544235, 0.07412991672754288, -0.1571471095085144, -0.07039798051118851, -0.1341436505317688, 0.11476849764585495, -0.1149919182062149, 0.1254264861345291, -0.14690044522285461, 0.002364465733990073, -0.038589540868997574, 0.00041998608503490686, -0.12307843565940857, 0.1067371815443039, -0.0007141019450500607, -0.0746152475476265, -0.013510151766240597, 0.12227658927440643, -0.1163436695933342, 0.12579411268234253, -0.029018821194767952, 0.09267359226942062, -0.011656465008854866, -0.0012077417923137546, 0.026061657816171646, 0.026443833485245705, -0.07775954157114029, -0.07654920220375061], [-0.04097747430205345, 0.004444902762770653, 0.005681309849023819, 0.00739337457343936, -0.06725834310054779, 0.05357202887535095, -0.011594953015446663, -0.047884803265333176, -0.0022554323077201843, 0.012733316980302334, -0.008723873645067215, 0.03304620087146759, -0.015819678083062172, 0.0006793774082325399, -0.03549814224243164, 0.0010571471648290753, -0.04553045704960823, 0.019741356372833252, 0.00010451954585732892, -0.02677220106124878, -0.017639193683862686, 0.008112069219350815, -0.03497280925512314, 0.007610479835420847, -0.0051898350939154625, 0.05522308871150017, -0.042150285094976425, -0.0005693320417776704, 0.013033736497163773, 0.005620457697659731, -0.021921373903751373, -0.03276564180850983], [0.04684055596590042, -0.0038973004557192326, -0.006536951754242182, -0.001272703637368977, 0.054776716977357864, -0.00660948408767581, 0.00768081983551383, 0.008239380083978176, 0.0001948876742972061, -0.00838356465101242, 0.0018118395237252116, -0.0085396533831954, 0.006058853585273027, -0.0009476662962697446, 0.010229573585093021, -0.0005517235840670764, 0.030630389228463173, -0.004848407581448555, -0.00013740836584474891, 0.0316939577460289, 0.01717965677380562, -0.019406311213970184, 0.0017967763124033809, -0.0373612716794014, 0.009397873654961586, -0.04121651127934456, 0.01081430446356535, 0.0011039336677640676, -0.03842080384492874, -0.014438114129006863, 0.022913699969649315, 0.031954195350408554], [-0.00023040892847348005, 0.0003948422381654382, 0.0013874860014766455, 0.0016595665365457535, -0.0019479901529848576, 0.0013988112332299352, -0.000999852316454053, -0.0023915560450404882, -4.3600091885309666e-05, 0.002787047065794468, -0.001113035250455141, 0.0006960923201404512, -0.0021781129762530327, 0.00035978539381176233, -8.962509309640154e-05, 0.0018168853130191565, -0.0008366474648937583, 0.001090693986043334, 0.0001350107922917232, -0.0008930291514843702, -0.002295547863468528, 0.0014115645317360759, -0.0013176801148802042, 0.00012482672173064202, -0.001750026480294764, 0.001069194870069623, -0.003222945611923933, -0.0018941432936117053, 0.03457881882786751, 0.0004754414549097419, -0.0007305904873646796, -9.896301344269887e-05], [0.001969851553440094, -0.004273096099495888, -0.014100847765803337, -0.00019403740589041263, 0.0056461552157998085, -0.005689698737114668, 0.0019429473904892802, 0.0010037459433078766, 0.0009682539384812117, -0.004470642190426588, 6.315066275419667e-05, -0.0009676672634668648, 0.004022327717393637, -0.00026411967701278627, 0.00020865573605988175, -0.0005114502855576575, 0.003849136410281062, -0.0033932707738131285, -0.00014740286860615015, 0.002685954561457038, 0.0003310233005322516, -0.002646563807502389, 0.0056546526029706, -0.004089596681296825, 0.0029951122123748064, -0.0008908342570066452, 0.00231359526515007, 0.0011393572203814983, -0.009854963049292564, -0.004000702872872353, 0.005236504599452019, 0.0030364112462848425], [-0.1552695780992508, 0.19486217200756073, 0.008068053983151913, 0.28451627492904663, -0.09651825577020645, 0.035152263939380646, -0.04765307530760765, -0.11012817919254303, -0.23704706132411957, 0.21752089262008667, -0.17696045339107513, 0.026196472346782684, -0.22766262292861938, 0.0006711525493301451, -0.07769505679607391, 2.008994488278404e-05, -0.18031133711338043, 0.2026740163564682, -0.0013078999472782016, -0.12380775064229965, -0.1697903275489807, 0.02353137731552124, -0.15521156787872314, 0.012484955601394176, -0.19855453073978424, 0.1557830423116684, -0.023495396599173546, -0.0013557719066739082, 0.04904387518763542, 0.16876539587974548, -0.0987098217010498, -0.14502660930156708], [0.0021777243819087744, -0.0018324482953175902, -0.00130848225671798, -0.0015409832121804357, 0.0014116280945017934, -0.008078099228441715, 0.002573082223534584, 0.0016090995632112026, 0.005440307315438986, -0.0008894095080904663, 3.221418592147529e-05, -0.0005908517050556839, 0.002089381916448474, -0.0005562128499150276, 0.0013491756981238723, -0.0010389498202130198, 8.527541649527848e-05, -0.0035220817662775517, 0.0008650936651974916, 0.0006324503337964416, 0.0004415518487803638, -0.0010398911545053124, 0.0025223903357982635, -0.00015329645248129964, 0.0011161050060763955, -0.000326468056300655, 0.0012563964119181037, -4.146375067648478e-05, -0.033048927783966064, -0.00065419269958511, 0.0060887644067406654, 0.0004338702419772744], [-0.0006930922390893102, 0.001016218331642449, 0.00133838364854455, 0.00032989325700327754, -0.0015333507908508182, 0.0022203426342457533, -0.0013027789536863565, -0.0003330025647301227, -0.001256269752047956, 0.0019079287303611636, -0.0018132069380953908, 0.0011306103551760316, -0.001890863524749875, 0.002052516909316182, -0.003459875239059329, 0.001066428143531084, -0.0009163636132143438, 0.0017642178572714329, -0.00024793026386760175, -0.0007698661647737026, -0.002647202694788575, 0.0004399743920657784, -0.0004356612917035818, 0.00020600316929630935, -0.0020695943385362625, 0.0009835780365392566, -0.003101018024608493, -1.1735488442354836e-05, 0.02183213084936142, 0.002649520058184862, -0.0013962398516014218, -0.00057132204528898], [-0.0011945362202823162, 0.0018908451311290264, 0.005612292792648077, 0.0022086480166763067, -0.005669500678777695, 0.021387651562690735, -0.001727686496451497, -0.00577442767098546, -0.0007463080110028386, 0.0045538730919361115, -0.0016909573459997773, 0.0009692252497188747, -0.0010482153156772256, 0.00026021612575277686, -0.0020178216509521008, 0.00011912157788174227, -0.0024085587356239557, 0.0016251342603936791, -0.00077635986963287, -0.0019794818945229053, -0.002106588101014495, 0.0008998186094686389, -0.0033119716681540012, 0.004811631049960852, -0.005896092392504215, 0.001330130035057664, -0.0004980796948075294, -0.0010981805389747024, 0.015396109782159328, 0.004387329798191786, -0.004456126596778631, -0.0010936812032014132], [0.0003194950695615262, -0.0004423168138600886, -0.0006820197449997067, -0.00018633960280567408, 0.00014975559315644205, -1.6106385373859666e-05, 0.0001760627783369273, 8.174264621629845e-06, 0.00023861878435127437, -0.00017884581757243723, 5.012699693907052e-05, -0.0003833435766864568, 0.0001127573341364041, -0.0003650357248261571, 0.00040446550701744854, -0.00047465888201259077, 2.3379865524475463e-05, -5.714049257221632e-05, -0.00032478649518452585, -5.761323336628266e-05, 4.198894021101296e-05, 4.29278370575048e-05, 0.00012798569514416158, -3.339767863508314e-05, 0.00013781637244392186, -1.2171056368970312e-05, 8.109954796964303e-05, -0.00010445465886732563, 0.0001523575629107654, 5.662586318067042e-06, 0.0002466302248649299, 3.0774819606449455e-05], [-7.853429269744083e-05, 0.0008768117404542863, 0.005217692349106073, 0.00021000314154662192, -0.00038325917557813227, 0.0010680794948711991, -0.0018920180154964328, -0.0011753516737371683, -0.0005672908155247569, 0.00012546274228952825, -0.0014977006940171123, 0.0009993532439693809, -0.000814864702988416, 2.2396901840693317e-05, -0.0012325514107942581, -6.445663166232407e-05, -0.00026028050342574716, 0.0009116104920394719, -0.000949921493884176, -0.00017818500055000186, -0.0004378588346298784, 0.001572093809954822, -0.0011760750785470009, 0.001356842229142785, -0.0007030423148535192, 0.0003932159743271768, -0.0007064438541419804, -0.0012767370790243149, 0.0002736280730459839, 0.00021516451670322567, -0.0012567450758069754, -0.0010705877793952823], [-5.5366042943205684e-05, 0.00019140119547955692, 0.0011025940766558051, 6.831927748862654e-05, -0.0001835179136833176, 0.0002693025744520128, 1.7488699086243287e-05, -0.0003010502550750971, -6.2299782257468905e-06, 0.0003018619026988745, -0.0003244580002501607, 0.0004443253274075687, -0.0004245913296472281, 0.000761014933232218, -0.0005123431910760701, 0.0005292267305776477, -0.0001103273534681648, 0.00031384636531583965, -0.0017052646726369858, -2.483571006450802e-05, -0.00019276524835731834, 0.00022782121959608048, -7.393695705104619e-05, 0.00035145171568728983, -0.0006699186633341014, 0.00016123043315019459, -8.90672963578254e-05, -0.0012228920822963119, 0.00025468572857789695, 0.0007057060720399022, -0.00033289953717030585, -0.0004834775172639638], [-0.00020062144903931767, 0.00015161714691203088, 0.002521132118999958, 7.18647861503996e-05, -4.128766158828512e-05, 0.00039627269143238664, -0.0004245486343279481, -5.62146888114512e-05, -1.98613361135358e-05, 0.00020523439161479473, -0.0005125555326230824, 0.00015566566435154527, -8.168318163370714e-05, 0.0008624977781437337, -0.00033436439116485417, 0.0005250185495242476, -8.502844866598025e-05, 0.00012239300122018903, -0.0009439680143259466, -8.743991929804906e-05, -0.00019764287571888417, 0.0001257176190847531, -0.00014774872397538275, 0.00010428151290398091, -4.347159290318814e-07, 0.000637201766949147, -0.00019142229575663805, -0.00018550228560343385, 0.0002646723296493292, 0.00026947687729261816, -0.0003195491444785148, 4.673025614465587e-05], [-0.0001406686205882579, -9.980464710679371e-06, 0.0018015638925135136, 0.00011028123117284849, -0.000431647029472515, 3.789060428971425e-05, -3.7054731365060434e-05, -1.0495792594156228e-05, -0.00010022791684605181, 0.00010609462333377451, -7.432518759742379e-05, -3.5515247873263434e-05, -3.3607011573622e-05, 0.0019510093843564391, -9.536460129311308e-05, -0.0002355453179916367, -6.952147668926045e-05, 0.00028583258972503245, -0.00051726377569139, -2.4618275347165763e-05, -8.071379852481186e-06, 8.651526877656579e-05, -0.00016348001372534782, 7.780321902828291e-05, -1.4378786545421463e-05, 0.00010071518045151606, -7.789880328346044e-05, -0.00013380171731114388, 0.0010027132229879498, 2.23117876885226e-05, 9.389717888552696e-05, -0.0001229191111633554], [0.022614218294620514, -0.07721886038780212, -0.07264826446771622, -0.09638797491788864, 0.013623456470668316, -0.0557851605117321, 0.0803062841296196, 0.07999614626169205, 0.09421252459287643, -0.025990135967731476, 0.09717896580696106, -0.09615587443113327, 0.012342790141701698, -0.0007347405189648271, 0.10880863666534424, -0.00012704110122285783, 0.0779806599020958, -0.07898087799549103, 0.00012347842857707292, 0.016242939978837967, 0.10533030331134796, -0.08589226007461548, 0.016178997233510017, -0.07067382335662842, 0.09402818977832794, -0.075349822640419, 0.07872703671455383, 0.0011798302875831723, -0.05309539660811424, -0.09274361282587051, 0.06610499322414398, 0.016763698309659958], [-6.723403930664062e-05, 0.0008786563412286341, 0.0026421179063618183, 0.0006167003884911537, -0.0002989240165334195, 0.00012881934526376426, -0.0005643920158036053, -0.00028193017351441085, -0.00021388905588537455, 0.0006366709130816162, -0.0003282915859017521, 0.0009105538483709097, -0.00028240514802746475, 0.0012597854947671294, -0.0006863197195343673, 0.0010464262450113893, -0.0010801672469824553, 0.00035920352092944086, -0.0001837120216805488, -0.00032400505733676255, -3.50793416146189e-05, 0.0006168319960124791, -0.00045311759458854795, 0.00028705690056085587, -0.00015605325461365283, 0.00111430324614048, -0.00027378203230910003, -7.599857053719461e-05, 0.00048795240581966937, 0.00017452810425311327, -0.001538016484118998, -0.00014723233471158892], [-0.00033428616006858647, 0.0001361125468974933, 0.0017990362830460072, 0.00011501336848596111, -0.002596968784928322, 0.0009258664795197546, -0.0012788389576599002, -0.0010601276298984885, -0.0007801821338944137, 0.0017217176500707865, -0.0007623035926371813, 0.0006921130116097629, -0.0007278291159309447, 0.00048453561612404883, -0.0018051705555990338, 0.0007961943629197776, -0.0006078470032662153, 0.0006864271708764136, -8.414152398472652e-05, -0.0003200103819835931, -0.0003066272474825382, 0.0003635156317614019, -0.001849185093306005, 0.0006147240637801588, -1.741579399094917e-05, 0.0001773259718902409, -0.001022233860567212, -0.0013712086947634816, 0.0012945752823725343, 4.256028478266671e-05, -0.0014943795977160335, -0.00033186463406309485], [-0.0001486681867390871, 3.792962525039911e-05, 8.204956975532696e-05, 6.446250336011872e-05, 3.099871537415311e-05, 8.456317118543666e-06, -5.692614649888128e-05, -4.33723398600705e-05, -7.190850737970322e-05, 9.505391062702984e-05, -8.588887430960312e-05, 6.204804958542809e-05, -5.755617166869342e-05, 5.591191438725218e-06, -0.00010703659063437954, 0.0015584953362122178, -0.0003600353666115552, 1.603894997970201e-05, -0.0021638888865709305, 2.0418719941517338e-05, -8.977214019978419e-05, 7.199379615485668e-05, -4.9448757636127993e-05, 0.0001683682348811999, -0.00022310328495223075, 6.426378968171775e-05, -0.00028364171157591045, -0.0006906798225827515, -0.00019732629880309105, 7.790778909111395e-06, -7.987106801010668e-05, -4.2714382288977504e-05], [0.0003088989178650081, -9.683622920420021e-05, -0.0013729423517361283, -0.0002754107117652893, 0.0001441976783098653, -0.00031132009462453425, 0.00018694446771405637, 0.00037820995203219354, 3.0610401154262945e-05, -9.898594726109877e-05, 0.00048227570368908346, -0.000367915810784325, 6.56006159260869e-05, -0.0017436613561585546, 0.0002859673404600471, 0.0001516727643320337, 0.00024649189435876906, 2.032098018389661e-05, -0.0006019698339514434, 7.959512731758878e-05, 0.00017129606567323208, -9.43990089581348e-05, 0.00022781858569942415, -0.0001406998053425923, 8.083599095698446e-05, -6.954702257644385e-05, 0.00044281184091232717, 0.0004827904631383717, -0.0004692818329203874, 3.5185345041099936e-05, 0.00026756527950055897, 0.00016718571714591235], [0.00026552475173957646, -0.00025656906655058265, -0.0008207010105252266, -0.00010114836186403409, -8.265166252385825e-05, -4.7329092922154814e-05, 0.00022597286442760378, 0.00077517592580989, 0.00017849094001576304, -4.532984166871756e-05, 0.00018821498088072985, -0.0005470066098496318, 0.0002484834403730929, -0.0017749496037140489, 0.0005303750513121486, -0.00015216917381621897, 0.0008696757722645998, -2.279301270391443e-06, 0.001541696023195982, 3.3274031011387706e-05, 9.779882384464145e-05, -0.00022251535847317427, 0.0002667680091690272, -0.0002252360136481002, 0.00026095917564816773, -0.00024078424030449241, 0.00010288336488883942, -0.00013099698117002845, -0.0002879330131690949, -0.0006490101222880185, 0.00022509659174829721, 0.0001037042893585749], [-0.04334551841020584, 0.004150745924562216, 0.00699042109772563, 0.0046864100731909275, -0.06857795268297195, 0.05516022816300392, -0.002964810701087117, -0.02377922460436821, -0.00263219908811152, 0.007430075667798519, -0.01611170917749405, 0.013729681260883808, -0.0022828811779618263, 0.0020564766600728035, -0.036957211792469025, 0.0005258257733657956, -0.026694398373365402, 0.003138945670798421, -0.0012128687230870128, -0.03467373549938202, -0.03738650307059288, 0.007430946920067072, -0.017797108739614487, 0.04260775074362755, -0.00798514299094677, 0.023810122162103653, -0.012777437455952168, -0.00075314607238397, 0.03969176113605499, 0.011704893782734871, -0.007783195935189724, -0.012565955519676208], [0.08743109554052353, -0.07406071573495865, -0.062044207006692886, -0.09945293515920639, 0.056110870093107224, -0.058797694742679596, 0.07278808206319809, 0.07299281656742096, 0.09536901861429214, -0.08520421385765076, 0.019576990976929665, -0.09594043344259262, 0.021912015974521637, -0.0003313157067168504, 0.027436478063464165, -0.0001812920963857323, 0.07286032289266586, -0.07719050347805023, 0.00010323901369702071, 0.031209707260131836, 0.08888638019561768, -0.09580624848604202, 0.07864416390657425, -0.06874631345272064, 0.08985120058059692, -0.07975106686353683, 0.07752812653779984, 0.0005289494292810559, -0.043252602219581604, -0.09068520367145538, 0.057174600660800934, 0.015276692807674408], [0.10285717993974686, -0.0850507989525795, -0.041585683822631836, -0.1082848384976387, 0.0746077299118042, -0.06070943549275398, 0.09770066291093826, 0.02958245947957039, 0.09611605852842331, -0.087559774518013, 0.02522536925971508, -0.09948300570249557, 0.09214398264884949, -0.004362029023468494, 0.1086074560880661, -0.0004590236349031329, 0.02606438845396042, -0.08269631117582321, 0.0014831649605184793, 0.015448646619915962, 0.09355656802654266, -0.10650857537984848, 0.09436065703630447, -0.013955281116068363, 0.09941031783819199, -0.09195861965417862, 0.015852423384785652, 5.794798562419601e-05, -0.017215566709637642, -0.08297756314277649, 0.07463208585977554, 0.1080515906214714], [-0.04377537965774536, 0.14488883316516876, 0.015502437949180603, 0.15631447732448578, -0.05608115345239639, 0.05939159542322159, -0.1893676370382309, -0.07556306570768356, -0.05453198775649071, 0.1256147027015686, -0.12628565728664398, 0.01315176859498024, -0.15445813536643982, 0.001612674561329186, -0.10814600437879562, -0.0007690000929869711, -0.01662403717637062, 0.11629670858383179, -0.0003061369061470032, -0.10047399252653122, -0.08612746745347977, 0.12117493152618408, -0.11315798759460449, 0.1472516506910324, -0.14530806243419647, 0.1165073961019516, -0.1104905754327774, -0.0012897218111902475, 0.042605381458997726, 0.10931763052940369, -0.03420882299542427, -0.02600911073386669], [-0.018214602023363113, 0.001082661678083241, 0.0060506840236485004, 0.0025921037886291742, -0.03264668583869934, 0.006263775285333395, -0.002097703982144594, -0.029401348903775215, -0.002359831938520074, 0.0019832924008369446, -0.00021873768127989024, 0.0002338796475669369, -0.0046754744835197926, 0.0012620027409866452, -0.00032861068029887974, 0.0003475248522590846, -0.002869244897738099, 0.005770756863057613, 6.683783431071788e-05, -0.03270488977432251, -0.0002653282426763326, 0.0030929837375879288, -0.004427153151482344, 0.003227478126063943, -0.0023580393753945827, 0.009742089547216892, -0.006306633353233337, -0.0004962910898029804, 0.016973989084362984, 0.003384216222912073, -0.003278628922998905, -0.012325486168265343], [-0.06303825229406357, 0.042027972638607025, 0.05215424671769142, 0.03364016115665436, -0.01524517871439457, 0.018472645431756973, -0.018235519528388977, -0.03756215050816536, -0.0128531688824296, 0.03993448615074158, -0.011942986398935318, 0.07565507292747498, -0.014840944670140743, 0.0008208225481212139, -0.010631955228745937, 0.0005515840603038669, -0.010474043898284435, 0.04771345108747482, -0.000691725523211062, -0.054349057376384735, -0.07060492038726807, 0.07055501639842987, -0.05038422346115112, 0.06625229865312576, -0.013098843395709991, 0.009433582425117493, -0.05625537782907486, -0.0004815262509509921, 0.044193267822265625, 0.011213856749236584, -0.013284070417284966, -0.016866903752088547], [0.0006851040525361896, -0.00015975096903275698, -0.0012336175423115492, -0.0009770732140168548, 0.0002548408228904009, -8.085794252110645e-05, 5.0932951126014814e-05, 0.00023285450879484415, 0.0001692078949417919, -0.0009321463876403868, 0.00019435748981777579, -0.00016718586266506463, 0.0008695583092048764, -0.001235020230524242, 0.00016215082723647356, -0.0005112598882988095, 6.95857816026546e-05, -0.0012265316909179091, 0.0002521084970794618, 0.00034009088994935155, 0.0008838700014166534, 4.551568508759374e-06, 0.00011195734259672463, -0.0010589840821921825, -1.9372100723558106e-06, -0.0003518158628139645, 0.0006809536134824157, 0.00016521643556188792, -0.0014043202390894294, -0.0005753278383053839, 0.00011384295066818595, 0.00040426888153888285], [3.6287416151026264e-05, 5.912215056014247e-05, -0.0005736699094995856, 1.5378498574136756e-05, 7.212885248009115e-05, 3.531949550961144e-05, -1.2698124010057654e-05, -3.591073982533999e-05, -1.7075242340069963e-06, -3.38638637913391e-05, -3.666809425340034e-05, -5.027328006690368e-05, -9.278738843931933e-07, -0.0005920229014009237, -2.7701997169060633e-05, -0.0002483673160895705, -5.675707143382169e-05, -0.00016492987924721092, 0.001243209233507514, -3.626746547524817e-05, -5.573115777224302e-05, -8.530893683200702e-05, 0.00010982163075823337, 8.458486263407394e-05, -2.7184863938600756e-05, -1.2736355529341381e-05, -2.237041735497769e-05, 0.0003698342479765415, -0.0005703038768842816, 1.578336741658859e-05, 3.422159352339804e-05, 9.371922351419926e-05], [-0.00010867739911191165, 6.426819163607433e-05, 0.0005672241095453501, -4.751055530505255e-05, 5.589254215010442e-05, -2.1456367903738283e-05, -0.00029006824479438365, -7.833610288798809e-05, -7.134042243706062e-05, 8.82196836755611e-05, 1.2953483746969141e-05, 0.0003416679101064801, -6.574379949597642e-05, 0.0002209474187111482, 1.7439575458411127e-05, -0.0002677624870557338, -0.00041292241076007485, 0.00012692039308603853, -0.0020113519858568907, -0.00030763103859499097, -0.00011604275641730055, 9.589520777808502e-05, -4.544373950920999e-06, 0.00029097500373609364, -0.00011903332779183984, 0.0003245001134928316, -8.806523692328483e-05, 5.937032256042585e-05, -0.00031167585984803736, 4.8289082769770175e-05, -7.449026452377439e-05, -0.00016533963207621127], [0.0008756475290283561, -8.531293133273721e-05, -0.0007871695561334491, -0.001065363292582333, 0.0007462797220796347, -0.0006413272931240499, 0.0012625043746083975, 0.0008527172030881047, 0.0009020898723974824, 1.2496541330619948e-06, 0.0005368052516132593, -0.001795192831195891, 0.0006520720198750496, 0.00012921531742904335, 0.0005966254393570125, -0.0010491292923688889, 0.002276540035381913, -0.0004375907010398805, -0.0001481979707023129, 0.0002358531201025471, 8.451245230389759e-05, -0.0006880257278680801, 0.00103503349237144, -0.0004498754860833287, 0.0002232543338323012, -4.6009179641259834e-05, 0.0003724976268131286, 0.000269917247351259, -0.0009551284601911902, -0.00037130099372006953, 0.0011349425185471773, 0.0017080191755667329], [-0.014084817841649055, 0.05847776308655739, 0.04722660407423973, 0.008862374350428581, -0.07297482341527939, 0.04429233446717262, -0.02464563585817814, -0.07310531288385391, -0.06368320435285568, 0.02046985924243927, -0.08134115487337112, 0.06730597466230392, -0.051739830523729324, 0.0021907873451709747, -0.02076718956232071, 0.00041646245517767966, -0.06769373267889023, 0.062435466796159744, -0.0012395333033055067, -0.05926051363348961, -0.08457928150892258, 0.026044946163892746, -0.05906886234879494, 0.07240568846464157, -0.028429429978132248, 0.0295533686876297, -0.07692818343639374, -0.0008740344201214612, 0.015085731633007526, 0.058679137378931046, -0.06523854285478592, -0.08682243525981903], [0.03364533931016922, -0.008732870221138, -0.04284797981381416, -0.0009610915440134704, 0.04525547847151756, -0.039138369262218475, 0.0081840381026268, 0.030986199155449867, 0.0028930488042533398, -0.002697621937841177, 0.015564979985356331, -0.03514229878783226, 0.0008354222518391907, -0.0021240112837404013, 0.024824582040309906, -0.0007151967147365212, 0.017699778079986572, -0.009605791419744492, 0.0007813991396687925, 0.04779011011123657, 0.03586513549089432, -0.029458418488502502, 0.013596093282103539, -0.01616043783724308, 0.0020117342937737703, -0.03692568838596344, 0.03393013775348663, 0.001521112397313118, -0.045537788420915604, -0.007911263965070248, 0.045470964163541794, 0.012469022534787655], [-0.048918116837739944, 0.03413479030132294, 0.02036382630467415, 0.03985559940338135, -0.011375442147254944, 0.0655636265873909, -0.0560750737786293, -0.05805414170026779, -0.007434836123138666, 0.0460345521569252, -0.05672380328178406, 0.05618474632501602, -0.04694407060742378, 0.0006229965365491807, -0.07107159495353699, 0.00018431599892210215, -0.03894829750061035, 0.051981303840875626, -0.0006855099345557392, -0.0457715168595314, -0.017022866755723953, 0.06921449303627014, -0.05090949684381485, 0.06536362320184708, -0.04723672196269035, 0.01019978616386652, -0.0612671785056591, -0.0014293501153588295, 0.04849100112915039, 0.06191600114107132, -0.04658745601773262, -0.011561301536858082], [-0.08176866918802261, 0.07097947597503662, 0.06548216193914413, 0.07487848401069641, -0.07103683054447174, 0.0429534874856472, -0.06682270765304565, -0.0578908808529377, -0.08077173680067062, 0.06778491288423538, -0.08480046689510345, 0.05940825864672661, -0.07032273709774017, 0.000744806369766593, -0.09588833898305893, 0.0005754115991294384, -0.06655438244342804, 0.06744871288537979, 6.843556911917403e-05, -0.08014374226331711, -0.05849200114607811, 0.02714112214744091, -0.07917669415473938, 0.06271278858184814, -0.08525679260492325, 0.014294029213488102, -0.07971050590276718, -3.8228463381528854e-06, 0.04944467544555664, 0.07649550586938858, -0.0664919912815094, -0.0881975069642067], [0.0006241853116080165, -0.0007627391023561358, -0.02568407543003559, -0.0017679225420579314, 0.0016367478528991342, -0.00592821603640914, 0.0017326606903225183, 0.002744928002357483, 0.0009983011987060308, -0.00044182073906995356, 0.0012602441711351275, -0.0004944392130710185, 0.0036693839356303215, -0.0022352433297783136, 0.0018560172757133842, -0.00016671007324475795, 0.0008214992703869939, -6.466398644988658e-06, 1.2880119356850628e-05, 0.00212281895801425, 0.0020538719836622477, -0.0022344114258885384, 0.0015112461987882853, -0.0008881929097697139, 0.0008638618164695799, -2.1533964172704145e-05, 0.0009726202697493136, 0.0010804269695654511, -0.020257193595170975, -0.003087515477091074, 0.002987154759466648, 0.0003419773420318961], [-5.432976831798442e-05, 0.000149091356433928, -0.15882344543933868, -8.686078217579052e-05, -5.1047696615569293e-05, -1.615237670193892e-05, -0.0003276333154644817, -8.418322977377102e-05, -0.00014151367940939963, -8.27187395771034e-05, 2.71820084662977e-07, -9.463951573707163e-05, 0.00011867268040077761, -0.0007615350186824799, -3.540700345183723e-05, 0.003223244333639741, -3.642086812760681e-05, 0.00021604365610983223, 0.47095444798469543, -6.419670535251498e-05, -0.00021681608632206917, -0.00017590451170690358, 7.717491826042533e-05, 0.0001190212497022003, 0.00017747998936101794, -2.1143854610272683e-05, 4.566971256281249e-05, -0.20371919870376587, 0.03254304826259613, 2.0602994482032955e-05, -7.274345989571884e-06, -0.00046444678446277976], [-3.1070907425601035e-05, 0.00010511991422390565, 0.07552286237478256, 0.0001082773960661143, -5.907084414502606e-05, -3.591054701246321e-05, 1.0405954526504502e-05, 0.0005271014524623752, -5.977429827908054e-05, 4.0508868551114574e-05, 0.00010022353671956807, -0.00016932521248236299, -4.405946674523875e-05, 0.002768829930573702, 4.4389598770067096e-05, -0.0012803658610209823, -4.486055331653915e-06, -7.101925439201295e-05, -0.06903990358114243, -5.200422674533911e-05, 0.0002587190829217434, 0.00016599521040916443, -6.891382508911192e-05, -0.00021771823230665177, -9.173517173621804e-05, 5.583214806392789e-05, 2.2386888304026797e-05, 0.21126213669776917, -0.12974536418914795, 7.926688340376131e-06, 4.653170981328003e-05, 0.00041415472514927387], [0.0004123434191569686, -0.0006174988811835647, -0.002288875635713339, -6.46286498522386e-05, 0.0017256735591217875, -0.0017470835009589791, 0.0008275372092612088, 0.0019099562196061015, 6.480592855950817e-05, -0.0015292977914214134, 0.0025842327158898115, -0.00012336084910202771, 0.0011674509150907397, -0.0014821639051660895, 0.0010405720677226782, -0.0013706660829484463, 0.0010765233309939504, -0.0001905837416416034, 0.00012899553985334933, 0.0001784228952601552, 0.0007212546188384295, -0.0010548754362389445, 0.0014517051167786121, -0.0010527606355026364, 0.00013727799523621798, -0.0009566227672621608, 0.00039153549005277455, 0.00021860236302018166, -0.01629968173801899, -0.001033855602145195, 0.0013943343656137586, 0.0008666741196066141], [0.0034449344966560602, -0.0010172078618779778, -0.0058499472215771675, -0.0054991645738482475, 0.0029278781730681658, -0.03029945306479931, 0.006312794052064419, 0.007195233833044767, 0.003467545146122575, -0.00024356691574212164, 0.00472489045932889, -0.0071557629853487015, 0.0028625663835555315, -0.0006467399653047323, 0.0008790334104560316, -0.0009337153169326484, 0.00010625745926517993, -0.005247945431619883, 0.0005510521004907787, 0.001229210407473147, 0.0006546623189933598, -0.000544441572856158, 0.004937055055052042, -0.0014286519726738334, 0.002006055787205696, -0.005201806779950857, 0.001716518308967352, 0.0008042813278734684, -0.012090353295207024, -0.0061187464743852615, 0.002436951734125614, 0.0018395143561065197]], "sigmanet.nn.4.bias": [-0.002084213774651289, -0.14597128331661224, -0.11335033923387527, -0.14957661926746368, 0.3059757649898529, 0.24021485447883606, -0.16982512176036835, -0.12352550774812698, 0.032904379069805145, 0.15272551774978638, 0.09728900343179703, 0.1276990920305252, -0.16750499606132507, -0.2668537199497223, -0.1031169667840004, 0.11437779664993286, -0.20384638011455536, -0.12242410331964493, 0.07945334166288376, 0.16738975048065186, -0.08895701915025711, -0.20758673548698425, 0.19042477011680603, 0.11314037442207336, 0.3044973313808441, -0.2438744604587555, -0.13297992944717407, 0.16486775875091553, -0.09695538133382797, -0.18204887211322784, 0.23550674319267273, 0.15084797143936157], "sigmanet.nn.4.weight_orig": [[0.0004362639447208494, 0.0016997001366689801, 0.0025310798082500696, -0.0028641459066420794, 0.000433295383118093, -0.0008215116104111075, 0.00041858365875668824, 0.0004730289801955223, 1.5030686881800648e-05, -0.002334426622837782, 0.00042312999721616507, 0.0012629101984202862, 0.0001467179972678423, -0.0006990208639763296, -0.0015290937153622508, -0.0003800325794145465, 9.974106069421396e-05, 0.001784973661415279, 0.00036700666532851756, 0.00023037649225443602, 0.00032584136351943016, -0.000573570083361119, 0.03799596428871155, -0.0004699858545791358, -0.00015949005319271237, -0.00037269142922014, 0.0006662702071480453, -0.0003922198957297951, 0.0005002960097044706, -0.0026285143103450537, -0.00048280623741447926, -0.0001421640336047858, -0.000263034860836342, -0.002051952760666609, 7.04642225173302e-05, 0.0002952581853605807, 0.0011070427717640996, -0.005131133366376162, 7.452460704371333e-05, -0.0007675628876313567, -0.0008923059795051813, 0.0006373866344802082, -0.01833261363208294, -0.00013258140825200826, 0.0025970637798309326, -0.0005644489428959787, 6.837282853666693e-05, -8.035592327360064e-05, -0.00012530857929959893, -0.00044748836080543697, 0.00026831740979105234, 0.0002264107170049101, 0.00016216530639212579, -0.0026172823272645473, 0.0027382050175219774, 0.00019665046420414, 0.0003330003237351775, -0.00026267292560078204, -1.9667115338961594e-05, -4.36487925981055e-06, 0.0004464023222681135, 0.00042386213317513466, 0.0015996313886716962, 0.0007002496276982129], [-0.0063518560491502285, 0.021094514057040215, 0.004095876589417458, 0.0008036099607124925, -0.0001420452317688614, -0.0002724263758864254, 5.508307367563248e-06, 0.26838889718055725, 0.0012733199400827289, -0.0028669647872447968, 0.00023489692830480635, 0.06379428505897522, 0.0005348921986296773, -0.00015583174536004663, -0.017208751291036606, -0.0005733207217417657, -0.006163209211081266, 0.0005465139984153211, -0.04553573578596115, 0.00031155129545368254, 0.00047949948930181563, -0.0003390342171769589, 0.04438106715679169, -0.0019069230183959007, 0.00012324527779128402, -0.0002545362222008407, 1.57108352141222e-05, -1.1388869097572751e-05, 0.0013896155869588256, -0.0020591712091118097, -5.831317594129359e-06, -6.0641777963610366e-05, -0.0005435426137410104, -0.0028526480309665203, -0.0021492966916412115, 0.009409402497112751, -0.0013453095452859998, -0.01509710680693388, 0.0002846501301974058, -0.04561244696378708, 4.843890928896144e-05, -0.005400040652602911, -0.03731107339262962, 0.005670643877238035, 0.001113183214329183, 0.0003239745565224439, 0.0011727666715160012, 0.0002114616654580459, -0.0017244756454601884, -0.00021544366609305143, 0.0008546488825231791, -0.00018377811647951603, -0.07207048684358597, 0.05095549672842026, 0.004688383545726538, 6.0625679907388985e-05, 0.00043878870201297104, 0.00014901402755640447, 0.0017399416537955403, -0.001248616841621697, 0.0011481689289212227, -0.001960932044312358, 0.0015102148754522204, 0.0007303053862415254], [-0.05879398062825203, 0.11079368740320206, 0.004306393209844828, 0.004234357737004757, 0.00017071816546376795, -0.0012604506919160485, 0.00021369801834225655, 0.07161816954612732, -5.444074486149475e-05, -0.017596999183297157, 0.0005617502029053867, 0.044245798140764236, 0.001928135403431952, 0.0002397730277152732, -0.06429435312747955, 0.00027487563784234226, -0.1251211166381836, 0.005786419380456209, -0.059515055269002914, 0.0034031872637569904, 0.00015592342242598534, -0.0003133908030577004, 0.07073967903852463, -4.952926974510774e-05, 0.0007204585708677769, 0.00024681404465809464, -0.0003407715994399041, -0.000551392964553088, 0.0013739780988544226, 0.0014814815949648619, 0.0022082740906625986, -6.744835991412401e-05, -0.0002933959767688066, -0.0005431422032415867, -0.0018198167672380805, 0.0670689046382904, -0.09237568825483322, -0.04718272015452385, 0.0015530000673606992, -0.11522398889064789, -0.000330298556946218, -0.012281380593776703, -0.005562592297792435, 0.010250216349959373, 0.059248026460409164, -0.0003298357187304646, -0.0001540996745461598, 0.0009340977994725108, -0.00046515132999047637, -0.0006853971281088889, 0.0035672392696142197, 0.0003747001464944333, -0.05215448513627052, -0.04721570760011673, 0.0012219834607094526, -3.807251050602645e-05, 0.0014992745127528906, 0.0003764140128623694, 0.0004631441552191973, -3.5909728467231616e-05, 0.0031126136891543865, -0.0025732857175171375, 0.0005043416749686003, -0.00015683482342865318], [-0.001447906019166112, 0.0033402121625840664, 0.0011957644019275904, -0.0034143920056521893, -0.0003999063337687403, -0.0011301407357677817, 0.0006280184607021511, 0.0033759179059416056, 0.0010836347937583923, -0.04366794228553772, 0.0006459561409428716, 0.01142717245966196, 0.0014273177366703749, -0.0011071804910898209, -0.0007704422459937632, -0.0004557150532491505, -0.0024719182401895523, -0.002832997590303421, -0.014535761438310146, 0.004233954939991236, -0.00014126652968116105, -0.00028324610320851207, 0.0015155773144215345, 6.141277845017612e-05, 0.0005973968072794378, -6.694904004689306e-05, 0.0010555064072832465, -0.0004269210621714592, 0.0015383876161649823, -0.003031716449186206, 0.0005152090452611446, -0.00011482880654511973, -0.0007574466289952397, 0.0011026940774172544, -0.0010803353507071733, 1.4022450159245636e-05, -0.09257270395755768, 0.01634558103978634, 0.00010090517753269523, -0.06556835025548935, -0.00407075509428978, -0.001012357883155346, -0.11758100986480713, 0.00035576135269366205, -0.004459080286324024, -0.0010452853748574853, 4.968769644619897e-05, 0.0006565913208760321, -0.0005677874432876706, -0.001169992727227509, 0.0030079118441790342, -2.3320893888012506e-05, -0.006871274672448635, -0.07444028556346893, 0.0016801594756543636, -7.592401379952207e-05, -0.0002100203128065914, -0.00011468883167253807, 0.0002518326509743929, -0.0010603804839774966, 0.0003892267413903028, -0.002382750855758786, 0.0027690771967172623, 0.0012279916554689407], [0.0011353326262906194, -0.0005985046154819429, -0.00284200138412416, 0.0026326801162213087, 0.00015370879555121064, 0.0013673938810825348, -0.0004198182141408324, -0.0003448855713941157, -0.00027685274835675955, 0.0004952303715981543, 0.000178625326952897, -0.020120685920119286, 8.855821943143383e-05, 0.0004689176566898823, 0.09340047091245651, 0.00018545282364357263, 0.0008275893051177263, 0.0009821145795285702, 0.002174187684431672, -0.0005108901532366872, -0.00010793251567520201, 0.00039473833749070764, -0.0024881798308342695, -6.107734952820465e-05, 6.337994273053482e-05, 6.659897917415947e-05, -0.0002800311194732785, 0.00033010472543537617, 0.00035014384775422513, -0.0003362284624017775, 0.00011211655510123819, -0.0001788992522051558, 0.0007739855791442096, 0.00019873015116900206, 1.6436473742942326e-05, -0.001599124283529818, -0.0026592521462589502, 0.001635562046431005, 5.014263660996221e-05, 0.0048348382115364075, 0.0003183847584296018, -0.0007091855513863266, 0.024521511048078537, -0.005382918752729893, -0.002628389513120055, 5.97380094404798e-05, 7.883489888627082e-05, 0.0004385781066957861, -0.00039014164940454066, 4.1861367208184674e-05, -0.0006028522620908916, 0.00010042496433015913, 0.1580774039030075, -0.027550384402275085, -0.003820631420239806, -0.0005225412314757705, 0.0001090405203285627, 0.0005216686986386776, -0.0005811757291667163, 0.00020188395865261555, -0.0005538143450394273, 0.0010423881467431784, -0.0009999461472034454, 0.0003045194607693702], [-0.0027002987917512655, -0.00017082430713344365, -0.0005186587222851813, 0.0002157048147637397, -0.0002312207652721554, -0.0006578303291462362, -0.001375755644403398, -0.0019030700204893947, 0.0007582574617117643, 0.0029267799109220505, -0.00020603968005161732, -0.0011588395573198795, -0.0015076823765411973, -5.623899050988257e-05, 0.06432123482227325, -0.00029997239471413195, -0.0018743257969617844, -6.816293171141297e-05, 5.8454879763303325e-05, -0.0009340351680293679, 0.00011858483048854396, 0.00039475224912166595, -0.1017366424202919, 0.00024112191749736667, -0.0009674152825027704, -0.00022197763610165566, -4.346378318587085e-06, -7.753773388685659e-05, -0.0009669255232438445, 0.0009941832395270467, -0.0006877988344058394, 0.00023539467656519264, 0.00019109899585600942, 0.0009743613773025572, 0.00011736318265320733, -0.06996183842420578, 0.00030416258960030973, 0.009909397922456264, -0.00012594043801072985, 0.004606736823916435, 0.00016421468171756715, 0.0008965566521510482, 0.01922476664185524, -0.002704455517232418, 0.004299081861972809, 0.00026964995777234435, -7.845028449082747e-05, -8.247881487477571e-05, -9.477294952375814e-05, 0.0001780095772119239, -0.0035005202516913414, 0.00022316648392006755, 0.00012716767378151417, -0.002845892682671547, -0.002270294353365898, 0.00019543770758900791, 4.716417970485054e-05, -0.00019993551541119814, 0.0011154606472700834, -1.4010570339451078e-05, -0.0018418311374261975, 4.303938112570904e-05, -0.002395353512838483, -0.00021795064094476402], [-0.2893560528755188, 0.2249351441860199, 0.6989977359771729, -0.5064698457717896, 0.13804395496845245, -0.26023125648498535, 0.1329529881477356, 0.17204387485980988, 0.21775759756565094, -0.21091753244400024, 0.09661810845136642, 0.15355119109153748, 0.15622133016586304, -0.2853022515773773, -0.0854986310005188, -0.14319907128810883, -0.39420637488365173, 0.508292019367218, -0.10998133569955826, 0.6070723533630371, 0.625881552696228, -0.6866400241851807, 0.04528152942657471, -0.14966031908988953, 0.1304088979959488, -0.10137377679347992, 0.15926651656627655, -0.18060947954654694, 0.2784616947174072, -0.4741936922073364, 0.5017329454421997, -0.08092100918292999, -0.45120182633399963, -0.5438594818115234, -0.564853847026825, 0.20548544824123383, -0.39219507575035095, -0.3272686004638672, 0.10444153100252151, -0.2510640621185303, -0.5262854099273682, -0.42876142263412476, -0.037460073828697205, 0.24622400104999542, 0.6280394196510315, -0.14651432633399963, 0.10526610910892487, 0.10701832920312881, -0.22513005137443542, -0.10573753714561462, 0.33129116892814636, -0.1407225877046585, -0.09931384027004242, 0.017405642196536064, 0.44613388180732727, -0.12273777276277542, 0.2406158596277237, -0.14475016295909882, 0.2820686101913452, -0.11521566659212112, 0.5741294026374817, -0.4974991977214813, 0.4693765342235565, 0.4149201512336731], [0.002149269450455904, -0.0003736491780728102, 0.00213685748167336, -0.0008543329895474017, 0.0001772037794580683, -0.00024402528651989996, 7.752934470772743e-05, 0.0016464743530377746, 0.0001214424119098112, -0.0025574802421033382, 0.00046803223085589707, 0.00041942388634197414, 0.0009707137360237539, 0.0002186297788284719, -0.03464227914810181, -0.00047463743248954415, 0.00023724872153252363, -0.00028474192367866635, -0.00014820951037108898, -9.261089144274592e-05, 8.769393753027543e-05, -2.0452825992833823e-05, 0.001986952731385827, 0.00020411406876519322, -0.00015738025831524283, -1.4342192571348278e-06, -0.00017922940605785698, -0.0002617596765048802, 0.0005174599355086684, -0.0021822985727339983, 0.0010125617263838649, -0.00016049831174314022, -0.000566630158573389, -0.0006639260682277381, -0.0004333078977651894, 0.001521283178590238, 0.0003374039370100945, -0.001427215407602489, 1.8254329916089773e-05, -0.0024127361830323935, 0.0023451230954378843, -7.337587885558605e-05, -0.011021501384675503, -0.0038463848177343607, 0.0011943505378440022, -0.0004994894261471927, 0.0005678228917531669, 0.00037868149229325354, -0.00040319698746316135, -8.75262267072685e-05, 0.0003779871331062168, 0.00014674772683065385, -0.00022470207477454096, -0.0001384059141855687, -0.0005667583318427205, 0.0001429369003744796, -0.0003208903654012829, -4.6245397243183106e-05, 0.00035531242610886693, 0.00014493442722596228, 0.0009120797039940953, -0.001146628288552165, 0.00047737275599502027, 0.0002286240633111447], [0.0005175909027457237, -0.030828967690467834, 0.001183997723273933, 0.0016853591660037637, -0.00027700894861482084, -0.0008156505646184087, -0.00033249336411245167, -0.05549822747707367, -0.0003235190233681351, 0.0026695169508457184, -0.0005332774599082768, -0.0165011715143919, -0.00028625119011849165, 0.0010974324541166425, 0.013544159010052681, 0.0004461333155632019, 0.11643380671739578, 0.00021314590412657708, 0.02893347293138504, 0.0021598192397505045, -0.0007778899162076414, 0.00041083269752562046, -0.1726941168308258, 0.0007028668187558651, -0.00013760830915998667, 0.00018781411927193403, 0.0002757011097855866, 0.0013639699900522828, -0.0007428055396303535, 0.00048326319665648043, -0.0012187118409201503, 6.640081846853718e-05, 0.0001815790601540357, 0.003213756252080202, 0.00031064118957147, -0.016198240220546722, 0.0007112739258445799, 0.004968082997947931, -0.0006054971599951386, 0.00043603178346529603, 0.0005703043425455689, 0.0034551506396383047, 0.009252529591321945, -0.17615963518619537, -0.003539704019203782, -0.0005062120617367327, -4.828872260986827e-05, -0.0008685215725563467, 3.956637374358252e-05, 0.000324638735037297, -0.0018844897858798504, 0.0004667978791985661, 0.028360435739159584, -0.026746446266770363, -0.00037875486304983497, 0.00039064529119059443, 0.0001020233758026734, 0.0002163227036362514, 2.6484101908863522e-05, 0.00025116748292930424, -0.0003760274266824126, 0.002205612137913704, -0.0005645314231514931, -0.0005646646022796631], [0.00010152465256396681, -0.001018125913105905, -0.0006729153101332486, 0.0012616283493116498, 0.000259602238656953, -0.0009679608047008514, 3.986593219451606e-05, -0.0013867431553080678, 0.0001866505917860195, -0.00246224133297801, -5.93666554777883e-05, -0.0008629848598502576, 8.722230995772406e-05, 0.0005578820710070431, 0.000436849077232182, -0.00015097603318281472, 1.992255602090154e-05, -0.00037809828063473105, 0.005358398891985416, 1.3496782230504323e-05, 0.0001255707029486075, 0.0004403329221531749, -0.0011768101248890162, -0.00038329389644786716, -4.031382195535116e-05, -0.00016757487901486456, 4.1747811337700114e-05, -3.6465116863837466e-05, -0.0002971043868456036, -0.0006013386882841587, 0.0003687998396344483, 4.3196763726882637e-05, -0.00025374803226441145, -0.0006042621680535376, 0.00026589244953356683, -0.0035436570178717375, 0.0010559923248365521, 0.0019599769730120897, 0.0003108532982878387, 0.001233425922691822, 0.0021037235856056213, -0.00126189726870507, 0.01693902723491192, -0.0008885458810254931, -0.0008371620788238943, 0.0003737636434379965, 0.00010915530583588406, -0.00011349890701239929, -5.528982728719711e-05, 0.00012193052680231631, -0.0039424290880560875, -2.24982086365344e-05, 0.0015601249178871512, -0.04092598706483841, -0.001364571158774197, 8.33910089568235e-05, 0.0003429809585213661, -4.592407640302554e-05, -0.0010873230639845133, -0.00027729268185794353, -0.0007635438232682645, -0.0001907324476633221, -0.001461744774132967, -0.0005683888448402286], [-0.001700452296063304, 0.006800092291086912, -0.0036367967259138823, 0.0030914675444364548, -0.0003790747723542154, 0.00015246871043927968, -0.00042138443677686155, -0.0015911385416984558, -0.0011938076931983232, 0.00616733031347394, -0.00017823035886976868, -0.016756748780608177, 2.029562347161118e-05, -8.82458480191417e-05, 0.0005758816841989756, 0.0004119552031625062, 0.0003514524141792208, -0.0001330618397332728, 0.023640552535653114, -0.00021444323647301644, -0.00017739803297445178, -0.00013193857739679515, -0.008570810779929161, 0.00023664844047743827, -0.0008587184711359441, -0.00017808194388635457, -0.0008648944203741848, 0.0005248721572570503, 2.2551553229277488e-06, 0.002008317969739437, 0.0002924595319200307, 0.0003665034892037511, 0.0006466371705755591, 0.0045455507934093475, 6.415198731701821e-05, -0.0005196930724196136, 0.0035239693243056536, -0.004013844300061464, -0.00024516702978871763, 0.02093726210296154, 0.00015737225476186723, -0.0005816210759803653, 0.029978157952427864, -0.004325257148593664, -0.009391331113874912, -9.236768528353423e-05, -0.0005206835921853781, 6.310607659543166e-06, 0.000492925348225981, -6.160432531032711e-05, -0.0010669840266928077, 0.0007721593137830496, 0.024147171527147293, 0.01425111759454012, -0.0008757043397054076, 0.00038132548797875643, 0.000284714245935902, 0.0009780784603208303, 0.0003160734777338803, 0.00020702298206742853, -0.0008733568829484284, 0.0022793354000896215, -0.0008820478687994182, -0.0006634136661887169], [0.03768303245306015, -0.024605022743344307, -0.004497844260185957, 0.0020844326354563236, -0.0004306393093429506, 0.0025251731276512146, -0.00035924502299167216, -0.04806332662701607, -0.0010106387780979276, 0.0018693371675908566, -0.0003064975026063621, -0.05321391671895981, -0.0006105649517849088, 0.002837816020473838, 0.12395131587982178, 0.0014691262040287256, 0.004635642748326063, -0.00019535943283699453, 0.043481938540935516, -0.0006723623373545706, -9.756619692780077e-05, -2.4072654923656955e-05, -0.018122032284736633, -0.00017338077304884791, -0.0012268522987142205, 0.0001621916308067739, -0.001031304127536714, 9.812690404942259e-05, 0.00029794906731694937, 0.0023099153768271208, -0.00010038613254437223, 0.000726141151972115, 0.0007002574857324362, 0.0007742610177956522, 0.0004569921875372529, -0.04333964362740517, 0.0009281740640290082, -0.012292985804378986, -0.0003366687160450965, 0.020159641280770302, -0.00017287636001128703, -0.00029673767858184874, 0.05540647730231285, -0.00024318187206517905, -0.015334787778556347, -0.00018577069567982107, 1.625540608074516e-05, 4.436006929608993e-05, 0.0010298002744093537, 0.00032319483580067754, 0.0033984179608523846, 7.391391409328207e-05, 0.05006418004631996, -0.0476006381213665, -0.0007342985481955111, 0.0012617496540769935, -0.0001627253950573504, 0.00032371608540415764, -0.000296870683087036, 7.423580973409116e-05, -0.001573741901665926, 0.0016504897503182292, -0.0014880085363984108, -0.002164612989872694], [-0.002820643363520503, 0.1500432789325714, 0.002885664813220501, -0.0018856117967516184, 0.00031831106753088534, 0.00023009833239484578, 0.0007601569523103535, 0.0011661655735224485, 5.74525874981191e-05, -0.012248827144503593, 0.0008701417245902121, 0.11205751448869705, 0.0020039035007357597, 0.00032563821878284216, -0.014305363409221172, -0.00046866884804330766, -0.0016779600409790874, -0.00016315485117956996, -0.012280859984457493, 0.0008623780449852347, 0.00016410568787250668, -0.00032383270445279777, 0.058334119617938995, -0.0006873657112009823, 0.0004439279728103429, 0.0002895508077926934, 0.00030660690390504897, -0.00043489859672263265, -0.00022369659563992172, 0.0006046190392225981, -0.0007444822113029659, -0.0005502771236933768, 4.207490201224573e-05, 0.0006253736792132258, -0.0004448247782420367, 0.09287940710783005, -0.0013685441808775067, -0.007973140105605125, 0.0005279494216665626, -0.009843462146818638, -0.0019285017624497414, 0.0022907936945557594, -0.011883648112416267, 0.0008690895629115403, 0.00905044935643673, -0.00023639376740902662, 0.0005145028699189425, 0.00022224705026019365, -0.000637613411527127, -5.790497743873857e-05, 0.004114306997507811, -0.0005070128827355802, -0.2227514386177063, 0.0476984865963459, 0.002790257101878524, -0.00022251000336837023, 0.0003951277758460492, -0.0005651089595630765, -0.00029638895648531616, -0.0002551826764829457, 0.0007640591356903315, -3.540268517099321e-05, 0.0020933253690600395, 0.00035678994026966393], [-0.002530836034566164, 0.03966936469078064, -0.0025686821900308132, 0.0024972602259367704, 0.000372100475942716, 0.0002609342918731272, -3.049767838092521e-05, 0.0006215598550625145, -0.00016510850400663912, -0.002760083880275488, -7.345075573539361e-05, -1.616176996321883e-05, 0.0007044870289973915, 0.0003806622407864779, -0.03186766058206558, -0.00015609600814059377, -0.0037229438312351704, 0.0015968024963513017, -0.11639723181724548, 8.729557885089889e-05, 0.0001060370123013854, -7.47339945519343e-05, 0.00021461598225869238, -0.0005022681434638798, -0.00028530610143207014, -0.0002427830477245152, 0.000493875180836767, 0.0003194281307514757, -0.00010709476919146255, 0.0003656954795587808, 0.0030262612272053957, -0.0006002193549647927, -0.00015585491200909019, -0.0022190569434314966, -0.0011553611839190125, 0.01331371907144785, -0.004338919650763273, 0.0006479514413513243, -0.0002881570835597813, -0.009520401246845722, -0.0002101004938594997, 0.0016481176717206836, -0.06336623430252075, 0.0003558044845703989, 0.008093548007309437, -3.9148348150774837e-05, 0.0007475305465050042, 0.000757749134209007, -1.1313110917399172e-05, -6.340724212350324e-06, 0.00056850491091609, 1.3440263728625723e-06, -0.06301683932542801, 0.04430508613586426, 0.0008860269444994628, -8.98078997124685e-06, 0.000158609269419685, -0.00013767924974672496, 0.0006629603449255228, -0.00039125385228544474, 0.0010674810037016869, -0.0002512279024813324, 0.006708357483148575, 0.0009747047442942858], [0.0018382191192358732, -0.00020149814372416586, -0.0005692251725122333, 0.0011709629325196147, 0.00022888535750098526, -0.0009640659554861486, -9.727406904858071e-06, -7.472648576367646e-05, -0.0005408067954704165, -0.003556034527719021, -2.91112664854154e-05, 0.00010022133210441098, -0.0003325786383356899, 5.846393105457537e-05, -0.00020272705296520144, -0.00022623800032306463, -0.0026624116580933332, 0.0002896555233746767, 3.97919793613255e-05, -0.0018826235318556428, 5.0861646741395816e-05, 2.610068622743711e-05, 0.0007960048387758434, -0.0004157005460001528, -0.00035566656151786447, -5.580608922173269e-05, -0.0001675876264926046, -0.0006202548975124955, 0.0005944385193288326, 0.0010537857888266444, 2.2300539058051072e-05, 0.0003330910694785416, -0.0004328812938183546, 0.0004061152576468885, 0.0019848747178912163, -0.002128484658896923, 0.001607558922842145, 0.0030546796042472124, 5.3580479288939387e-05, -0.002999700838699937, -0.001149480463936925, 0.0009404848678968847, -0.019976282492280006, 0.0019470297265797853, 0.0018384676659479737, -0.0006678128847852349, 0.0003175601304974407, 0.00014839197683613747, -0.0005360913928598166, 3.9711656427243724e-05, 0.0018463867017999291, -0.00011491730401758105, -0.000503102841321379, -0.013833435252308846, -0.0010118164354935288, -0.0003031291125807911, 0.0002208882651757449, 0.00024374951317440718, -0.001448510098271072, -3.815289892372675e-05, 0.0002595930127426982, -0.00019417701696511358, 0.001066518248990178, -8.366499241674319e-05], [-0.015535380691289902, 0.021865423768758774, 0.00020134558144491166, -0.007843894883990288, 0.007535092066973448, -0.007088682614266872, 0.0037967923562973738, 0.013705809600651264, 0.0028068560641258955, -0.030520286411046982, 0.0009874077513813972, 0.007663935422897339, 0.002034249948337674, -0.0038084823172539473, -0.012625639326870441, -0.007916278205811977, -0.02585882507264614, 0.024351727217435837, -0.02046916075050831, 0.010126343928277493, 0.005681146401911974, -0.004061242565512657, 0.024577349424362183, -0.0013613224728032947, 0.0017036270583048463, -0.0017435658955946565, 0.0013725138269364834, -0.0020551367197185755, 0.002025181194767356, -0.0025713711511343718, 0.002654813230037689, -0.0009220635984092951, -0.00254808459430933, -0.006521657574921846, -0.009294494055211544, 0.0686224102973938, -0.008411992341279984, -0.0123611930757761, 0.002698760712519288, -0.014706938527524471, -0.015682637691497803, -0.1304769665002823, -0.024655070155858994, 0.050181709229946136, 0.012898216024041176, -0.004997679963707924, 0.0028406570199877024, 0.00203858339227736, -0.0033914297819137573, -0.001999498112127185, 0.022446636110544205, -0.0033085502218455076, -0.029318910092115402, 0.006513847038149834, 0.006360376253724098, -0.002815436804667115, 0.002723041456192732, -0.002136789495125413, 0.004636660218238831, -0.001268081134185195, 0.003515227697789669, -0.10506466776132584, 0.004622428212314844, 0.003762979293242097], [-0.1408388465642929, 0.17609219253063202, 0.39528119564056396, -0.543149471282959, 0.9855195879936218, -0.851659893989563, 0.9930019378662109, 0.11449243128299713, 0.9110800623893738, -0.5436972379684448, 1.0397870540618896, 0.063651442527771, 0.9688186049461365, -0.839082658290863, -0.04581323266029358, -0.9813348054885864, -0.25842225551605225, 0.41392627358436584, -0.04338005930185318, 0.430928111076355, 0.4866212010383606, -0.42046406865119934, 0.02271692454814911, -0.9808062314987183, 0.9990304112434387, -1.0377799272537231, 0.9743742346763611, -0.9519753456115723, 0.8442695140838623, -0.6354608535766602, 0.6281777024269104, -1.0592174530029297, -0.6755455732345581, -0.5559114217758179, -0.44257527589797974, 0.11869064718484879, -0.32595348358154297, -0.5062539577484131, 1.0303645133972168, -0.1344909965991974, -0.4395710527896881, -0.36759912967681885, -0.09296572953462601, 0.20061065256595612, 0.2813118100166321, -0.983045756816864, 1.0284429788589478, 1.0253647565841675, -0.9012836813926697, -1.0300803184509277, 0.6820846199989319, -0.9903221726417542, -0.056129090487957, -0.009733641520142555, 0.6137227416038513, -1.0105996131896973, 0.8869211673736572, -0.9845647811889648, 0.8365588784217834, -1.0208510160446167, 0.5385826230049133, -0.3083678185939789, 0.5988175272941589, 0.7090134620666504], [-0.1591271311044693, 0.06301656365394592, 0.0028281118720769882, 0.0003551724657882005, 0.0016752970404922962, 0.0011108926264569163, 0.0008785693789832294, 0.06948259472846985, 0.0008443054975941777, 0.0046828496269881725, 0.0005615454283542931, 0.06933728605508804, 0.00020909588783979416, -0.002837682608515024, -0.13933616876602173, -0.0004054220044054091, -0.0001791720715118572, 9.217124170390889e-05, -0.060389261692762375, 0.0012203356018289924, 0.0003903773904312402, -0.000441233889432624, 0.021670902147889137, -0.00043278987868689, 0.0009858006378635764, 3.216506229364313e-05, 0.0010183095000684261, -0.0005042162956669927, -0.00020587563631124794, 0.0004821745096705854, 5.737064566346817e-05, -0.00019629551388788968, 0.00034424825571477413, -0.005499660037457943, -0.0005980317364446819, 0.07115720957517624, 0.05028083920478821, 0.003602355718612671, 0.0003739919629879296, -0.12266550958156586, -0.003016062779352069, -0.0085159782320261, -0.09857036918401718, 0.0068406169302761555, 0.0004280621651560068, -6.552972627105191e-05, 0.0007359673618339002, -0.0001479737984482199, 9.268980647902936e-06, -0.0004196468216832727, 0.001874295761808753, -8.069944306043908e-05, -0.04141892120242119, 0.06526540219783783, 0.0007342269527725875, -0.0012273745378479362, 0.0008843297837302089, -3.6365858250064775e-05, 0.0026679164730012417, -0.0001903147203847766, 0.00023503512784373015, 2.086623862851411e-05, 0.00037507759407162666, 0.0008475172217004001], [-1.978783984668553e-05, -0.058379240334033966, -0.0019909869879484177, 0.002410708460956812, -0.0006020627915859222, 0.0009017480770125985, -0.0009827998001128435, -0.00585185969248414, -0.00048255774891003966, 0.002422545338049531, 0.00013150836457498372, -0.022373322397470474, -7.449063559761271e-05, 0.001512383809313178, 0.014542579650878906, 0.0008224317571148276, 0.0011459043016657233, 1.841974153649062e-06, 0.1200709268450737, -0.00020309907267801464, -0.0001441078493371606, 2.3804172087693587e-05, -0.07588528841733932, 0.0006252485909499228, 0.00015553510456811637, -8.994200470624492e-06, -0.00029083012486808, 1.45700487337308e-05, 0.0006944555207155645, -7.107690908014774e-05, -8.693157724337652e-05, -0.00015705340774729848, 0.0012889370555058122, 0.0010822275653481483, 0.0002447333827149123, -0.054341722279787064, 0.004046585410833359, 0.012345788069069386, -0.00015697367780376226, 0.0014436152996495366, 0.00028913121786899865, 0.0010095564648509026, 0.010030589997768402, 0.00019172223983332515, 0.0023454430047422647, 0.0005457790684886277, -0.0005475456127896905, -0.00022805044136475772, 0.0007290180074051023, 0.0007733374950475991, -0.0011715751606971025, -0.00036400268436409533, 0.03631141409277916, -0.28674939274787903, -0.0035784661304205656, 0.0001366503129247576, -0.00015902030281722546, 0.00041504166438244283, 0.00011596827243920416, 0.0008752414141781628, 0.00027278243214823306, 0.000529848737642169, -0.0007311103399842978, -0.00030562467873096466], [0.07445599883794785, -0.0005405251868069172, -0.0031542645301669836, -0.00020602410950232297, 0.0001277309493161738, -5.540547499549575e-05, 7.301878213183954e-05, -0.002734225941821933, -0.00015720409282948822, 0.0015453796368092299, 0.0003636521869339049, -0.07291287183761597, 4.153536428930238e-05, 0.0007412870763801038, 0.000677882693707943, 0.0003502473409753293, 0.0002976754039991647, -0.001539610675536096, 0.02951100468635559, -9.586556552676484e-05, -6.261948146857321e-05, 8.448759763268754e-05, -0.028316732496023178, 0.0003015763941220939, -3.211875809938647e-05, 0.00037570198765024543, 0.00013096322072669864, 0.00048720845370553434, 0.00021565082715824246, 0.0011761147761717439, 0.0007975733606144786, 0.0003799893893301487, -8.69960495037958e-05, 0.0003604601079132408, -0.0017780766356736422, -0.0013940627686679363, 0.001924503012560308, 0.0017507628072053194, 0.0002000412787310779, 0.0058678830973804, 0.0004939170903526247, -0.0003679420333355665, 0.032015200704336166, -0.004371131770312786, -0.001951884594745934, 0.00038638600381091237, 6.040865264367312e-05, -0.00032342280610464513, -0.00016470749687869102, -0.00045274727744981647, 0.0006177613977342844, 0.0002616185520309955, 0.003200263949111104, -0.007833600975573063, -0.001765409135259688, 7.359138544416055e-05, -0.00013361850869841874, 0.00017701086471788585, -0.0021785625722259283, -0.00018390582408756018, 0.0014157554833218455, -0.0002909671457018703, -0.002653568983078003, -3.867111445288174e-05], [-0.0008163991151377559, 0.047962117940187454, 0.0026546609587967396, 0.0032598685938864946, 0.00021378268138505518, -0.0007022315985523164, 0.0002024017449002713, 0.0007676201057620347, 0.00044815673027187586, -0.00977981835603714, 3.214902608306147e-05, 0.0015816133236512542, 0.0001989970332942903, -0.0009862474398687482, -0.003422732464969158, -0.00026964873541146517, -0.01321368757635355, 0.0014104410074651241, -0.0028669426683336496, 0.00027121350285597146, 6.79231234244071e-05, -0.00021828582976013422, 0.18680857121944427, -0.0007878463948145509, -1.965091360034421e-05, -0.00047203985741361976, 0.0014158313861116767, -0.00023882740060798824, 0.0004934077151119709, 0.000984907615929842, -0.00021398974058683962, 9.744003182277083e-05, -0.0006888372590765357, -0.0003018420247826725, -0.0023938901722431183, 0.09904582053422928, -0.004234433174133301, 0.0009245479595847428, 0.00013125779514666647, -0.004426478873938322, -0.0004289253556635231, -0.0009676571353338659, -0.007685634773224592, 0.0013676269445568323, 0.0009908515494316816, -0.0008721633930690587, 0.0001419693580828607, 5.024603888159618e-05, -0.0007347305654548109, -8.762936340644956e-05, 0.002923364983871579, -0.0004754069959744811, -0.007329864893108606, 0.054718706756830215, 0.00027744201361201704, -7.401860784739256e-05, 0.0004264054005034268, 0.00019247746968176216, 0.0012970580719411373, 8.570337377022952e-05, 0.00019935614545829594, -0.0007834225543774664, 0.006718312855809927, 6.369684706442058e-05], [-3.008727617270779e-05, 0.0022744545713067055, 0.0010518527124077082, -0.0016603600233793259, 0.0009482086170464754, 0.00012205976236145943, -0.00016533449525013566, -0.00037197498022578657, -4.272724618203938e-05, 0.0029985872097313404, -7.050447311485186e-05, -6.523609044961631e-05, -0.0005503232241608202, 1.9349266949575394e-05, -0.04684152081608772, 0.0004541650996543467, 0.0007024727528914809, 0.0005195136182010174, -0.007882934994995594, 0.000642007275018841, -5.4097813517728355e-06, -0.0005581483128480613, 0.0002664653875399381, 0.0003887916391249746, -0.0004077185585629195, 8.472392073599622e-05, 3.635092298281961e-06, 0.0003349738835822791, 0.0006047040806151927, 0.0005675676511600614, 0.0002006154682021588, -5.184541441849433e-05, -0.0005573576199822128, 0.00019905508088413626, 0.0016789629589766264, 0.02907644957304001, -0.0016098314663395286, -0.008649833500385284, 0.0002122001169482246, -0.0021524643525481224, -0.0012027367483824492, -0.0003213930467609316, -0.015934143215417862, -0.00014586019096896052, 0.008059519343078136, 0.000363216211553663, 0.00015795222134329379, 0.0006266098935157061, -0.00034444264019839466, 8.0206518759951e-05, 0.001613187836483121, 0.0002594364632386714, -0.018259048461914062, -0.0007405414362438023, 0.0004981336533091962, 0.0002085217129206285, 0.0009159838664345443, -0.0001889828417915851, 0.0004128991567995399, -7.388823723886162e-05, 0.0007355273119173944, -0.0008553386433050036, -0.000722837692592293, 0.00014678758452646434], [0.00017363898223266006, -0.0014396958285942674, -2.7269335987512022e-05, 0.0018192167626693845, -0.00023023916583042592, 0.0012996773002669215, 0.00029886362608522177, -0.0015345944557338953, -0.0001502803061157465, 0.0027036687824875116, 0.00020481650426518172, -0.0007096928311511874, -0.0004716409894172102, 0.00048186557251028717, 0.001346882083453238, -0.0005381113733164966, 0.0019037551246583462, -0.00041439043707214296, 0.0010470520937815309, -0.0003861891746055335, 6.254865002119914e-05, -0.00014316094166133553, -0.00035897857742384076, -1.933010935317725e-05, -0.0002597314596641809, 0.0002698078751564026, -0.00043745897710323334, -4.521108712651767e-05, -0.00017231321544386446, 0.0005659092566929758, -2.525315539969597e-05, 0.000383616192266345, 0.0005767223192378879, 0.0019937464967370033, 0.0007166273426264524, -0.026118161156773567, 0.00413422891870141, 0.0022797775454819202, -0.00016772180970292538, 0.0026434625033289194, 0.0013266667956486344, -8.75240657478571e-05, 0.0119807543233037, -0.0038364341016858816, -0.0052416278049349785, 0.000197503250092268, 0.0003204036911483854, -7.967344572534785e-05, -1.1508914212754462e-05, 7.179242675192654e-05, -0.0014916439540684223, 0.00025535543682053685, 0.00012962151959072798, 0.00020546776067931205, -0.0015850428026169538, -0.0003204302047379315, -0.0005493874778039753, 0.00032413043663837016, -0.0008756886818446219, 7.23605407983996e-05, -0.00021545347408391535, 0.00030954249086789787, -0.002127900719642639, 0.00038628512993454933], [0.011327405460178852, -0.005786597728729248, -0.0022271203342825174, -0.0009285950218327343, -0.0011531960917636752, 0.0009804613655433059, -0.0004379293823149055, -0.0004695714742410928, -0.000652485410682857, 0.006272459868341684, -1.1900828212674242e-05, -0.0013178839581087232, 4.642344720195979e-05, 0.00012325096759013832, 0.0008899915846996009, 0.0012263820972293615, 0.0009310828754678369, -0.0022832362446933985, 0.018767772242426872, 0.0016472631832584739, -7.201932021416724e-05, -8.307678217533976e-05, -0.014891385100781918, 0.0018559293821454048, 9.094529377762228e-05, 0.00029428652487695217, -6.767280865460634e-05, 0.00023608829360455275, -0.00046271062456071377, 0.000835225626360625, -3.4463399060769007e-05, -6.777998351026326e-05, 8.168902422767133e-05, -0.0007944676908664405, 2.757910988293588e-05, -0.00010541978554101661, 0.0057113259099423885, 0.010223382152616978, -0.00046114297583699226, 0.0024544093757867813, 0.0002091201749863103, 0.0037903974298387766, 0.015090212225914001, -0.004607154056429863, -0.0001598739909240976, -0.00016250777116511017, 0.0001697713159956038, -0.0009060889133252203, -6.955263233976439e-05, 0.00039429785101674497, -0.00248901778832078, 0.0004503057280089706, 0.031608518213033676, -0.006210205610841513, -0.00029869607533328235, 0.0003464297333266586, 0.0001455341262044385, 0.00014285150973591954, -0.0006548165110871196, 0.0011356491595506668, 0.00014507080777548254, 0.0007782533066347241, -1.118806903832592e-05, -0.0010373468976467848], [0.10189393907785416, -0.002382752252742648, 5.8329900639364496e-05, 0.0008962734136730433, 7.234806980704889e-05, 0.0019561632070690393, -0.00064558518351987, -0.13343653082847595, 0.00012427532055880874, 0.0028745667077600956, -0.0005079379770904779, -0.13077722489833832, -0.00017476741049904376, -0.0004093232855666429, 0.033577002584934235, 0.0003007643099408597, 0.0014140482526272535, -0.0012829413171857595, 0.09821729362010956, -0.001117371371947229, -8.427577267866582e-05, 0.000470542348921299, -0.005238264799118042, 0.00029112803167663515, -0.0005593560053966939, 0.00025399206788279116, -0.00022147310664877295, -0.00015983663615770638, -0.0015103432815521955, 0.0018945393385365605, -0.0008606950868852437, -4.639656253857538e-05, 0.0012923446483910084, 0.00024405334261246026, 0.00220482237637043, 0.004385456442832947, 0.0027136581484228373, 0.007468365598469973, -0.0006155009032227099, -0.001998565159738064, -0.00018779397942125797, -0.00015078480646479875, 0.08355876803398132, -4.301051012589596e-05, 0.004779263865202665, 0.0001891505962703377, -0.00010652575292624533, 0.00019159562361892313, -0.0001120676170103252, 0.0005684388452209532, -0.0007638088427484035, 3.0316292395582423e-05, 0.05813387781381607, 0.0009421254508197308, -0.00846917275339365, 9.393139771418646e-05, -7.976564666023478e-05, -0.00033318239729851484, 0.0007748513016849756, 0.0005134664825163782, 0.0006997626624070108, 0.00011273616109974682, -0.0007958816131576896, -0.0004891249118372798], [-0.012184393592178822, -4.268485281500034e-05, 0.0019796749111264944, 0.004127756226807833, -0.00010960893996525556, 0.0006097712903283536, 6.289453722274629e-07, 7.201903645182028e-05, 0.0006004842580296099, -0.004698604810982943, 0.0004633174976333976, 0.12571154534816742, 5.577941192314029e-05, 0.00010893911530729383, -0.023902371525764465, -0.00013501834473572671, -0.0006136121228337288, 0.0016838063020259142, -0.14614401757717133, 0.0022732089273631573, -0.0001067046177922748, -6.0775124438805506e-05, 0.00047969762817956507, -0.0009110909304581583, 0.00035958681837655604, -0.0006664510583505034, 0.0002862920518964529, -0.0008594050304964185, 0.0006758493254892528, -0.0007371605024673045, -1.3608280369226122e-06, -3.9914153603604063e-05, -0.001128961332142353, 0.0004232274950481951, -0.0008603445603512228, 0.0006679185316897929, -0.006813095882534981, -0.008396555669605732, 6.720914097968489e-05, -0.004191465675830841, -0.002598770195618272, -0.00040557002648711205, -0.13423430919647217, 0.000783897063229233, 0.0045916070230305195, -0.0002482525014784187, -1.0133069736184552e-05, -3.112630292889662e-05, 0.0004897583858110011, -7.279325654963031e-05, 0.0007626099977642298, 2.8463731723604724e-05, -0.002650439739227295, 0.02428692765533924, -0.0005481909611262381, -0.0005558488774113357, 6.9368807089631446e-06, -0.0003652300511021167, 0.001174041535705328, -0.0002340027567697689, 0.0008354100282303989, 0.00014072732301428914, 0.0023906552232801914, 0.0006547273369506001], [0.05657387524843216, -0.0600234754383564, 