{
    "variables_constraints": [
        [
            0.2500004470348358,
            6.1162567138671875
        ],
        [
            1.0001031160354614,
            17.64746856689453
        ],
        [
            1.3863048553466797,
            12.170431137084961
        ],
        [
            2.995736837387085,
            13.337510108947754
        ],
        [
            1.0000003576278687,
            17.22606658935547
        ],
        [
            8.85944633610313e-08,
            1.5262533850660245
        ],
        [
            1.000000238418579,
            9.99988842010498
        ],
        [
            2.995757818222046,
            14.963510513305664
        ],
        [
            -11.770496518237413,
            1.609433430154768
        ]
    ],
    "sigmanet.sigma": [
        2.0
    ],
    "sigmanet.nn.00.bias": [
        -0.31174275279045105,
        0.041649382561445236,
        -0.006240746472030878,
        -0.02838345430791378,
        0.09327547997236252,
        -0.09457685798406601,
        0.16692495346069336,
        0.18902860581874847,
        0.1693105399608612,
        0.0035994069185107946,
        -0.02565755881369114,
        0.13058149814605713,
        0.18434935808181763,
        0.20671111345291138,
        0.0057594794780015945,
        0.1716850996017456,
        -0.12482763826847076,
        -0.1550116091966629,
        -0.006132989190518856,
        -0.07844144105911255,
        -0.15841028094291687,
        -0.16432200372219086,
        1.4345684051513672,
        -1.1724687814712524,
        -0.06220748648047447,
        0.06613298505544662,
        -0.15633802115917206,
        -0.012809562496840954,
        0.09319774061441422,
        -0.11302763223648071,
        -0.08407208323478699,
        0.05752714350819588,
        0.16666248440742493,
        0.21903283894062042,
        0.08159906417131424,
        -0.5109378099441528,
        -0.10101889818906784,
        0.13191016018390656,
        0.24077947437763214,
        0.1564534455537796,
        0.1856292486190796,
        -0.14411963522434235,
        0.010423073545098305,
        0.18164043128490448,
        0.03348411247134209,
        0.1959264576435089,
        -0.14330914616584778,
        -0.0354134663939476,
        -0.19697663187980652,
        -0.3614441752433777,
        0.08832576125860214,
        0.2527559995651245,
        -0.7142466306686401,
        0.4596773684024811,
        -0.28670355677604675,
        -0.028356827795505524,
        0.25940603017807007,
        0.1955496221780777,
        0.7658376097679138,
        -0.7467758059501648,
        -0.18377023935317993,
        -0.04197551682591438,
        -0.14800597727298737,
        0.06044156849384308
    ],
    "sigmanet.nn.00.parametrizations.weight.original": [
        [
            0.0021890325006097555,
            0.01994047872722149,
            0.00018768302106764168,
            -0.008669205941259861,
            0.010981227271258831,
            4.3402388349989e-09,
            -0.01630595326423645,
            0.009837023913860321,
            0.022512920200824738
        ],
        [
            0.006222005933523178,
            0.021301167085766792,
            0.0002010796160902828,
            -0.008610664866864681,
            0.01557131391018629,
            0.03205304592847824,
            -0.013370118103921413,
            0.023764733225107193,
            0.008086622692644596
        ],
        [
            -7.970633305376396e-06,
            -0.016767652705311775,
            -0.008377903141081333,
            0.00788404792547226,
            -0.03425133228302002,
            -6.977618483006154e-10,
            -0.01265826914459467,
            -0.015069196000695229,
            -0.011733080260455608
        ],
        [
            -0.010482138954102993,
            -0.006675439421087503,
            -0.027979809790849686,
            0.030347799882292747,
            -0.027006695047020912,
            -0.029295291751623154,
            0.012164197862148285,
            -0.010847712866961956,
            0.024941377341747284
        ],
        [
            0.00721155246719718,
            0.02853928692638874,
            0.0012327850563451648,
            -0.007842456921935081,
            0.022042635828256607,
            0.021288679912686348,
            0.00708119897171855,
            0.032062873244285583,
            0.015114311128854752
        ],
        [
            -0.013937635347247124,
            -0.005395421292632818,
            -0.0022831354290246964,
            0.021454067900776863,
            -0.025612978264689445,
            -0.01682809181511402,
            -6.555152509690743e-08,
            -0.018618177622556686,
            0.025902342051267624
        ],
        [
            -0.008510518819093704,
            -0.001192715484648943,
            -0.0015233798185363412,
            0.008090085349977016,
            -0.004772866144776344,
            -0.035170916467905045,
            -6.468110314017395e-08,
            -0.02473129890859127,
            0.019697343930602074
        ],
        [
            0.004414940718561411,
            0.0014305384829640388,
            0.0005312617868185043,
            -0.00786094181239605,
            0.0050422027707099915,
            0.031105173751711845,
            -0.01904226280748844,
            0.029716594144701958,
            0.011071592569351196
        ],
        [
            -0.06150530278682709,
            -0.10147295892238617,
            -0.04656430706381798,
            0.007515978999435902,
            -0.011748761869966984,
            0.017683319747447968,
            0.17273493111133575,
            -0.008300586603581905,
            -0.017010601237416267
        ],
        [
            0.05945674702525139,
            0.07923096418380737,
            0.00991140864789486,
            -0.012623455375432968,
            2.785538981697755e-06,
            -0.018276020884513855,
            -0.13664406538009644,
            0.016065075993537903,
            -0.006742563098669052
        ],
        [
            -9.765262802829966e-07,
            -0.013799358159303665,
            -4.3190524593228474e-05,
            0.023851003497838974,
            -0.03373875468969345,
            -5.218606879964227e-09,
            -2.941474122053478e-07,
            -0.007955252192914486,
            -0.012645269744098186
        ],
        [
            -0.02483186312019825,
            -0.02041318267583847,
            -0.004193041007965803,
            0.008947447873651981,
            -0.026254162192344666,
            -0.04081488028168678,
            -0.01449357159435749,
            -0.029702065512537956,
            -0.015549379400908947
        ],
        [
            -0.01687842234969139,
            -0.018392140045762062,
            -0.00034935507574118674,
            0.009003573097288609,
            -0.0060061742551624775,
            -0.04045231640338898,
            -0.005379210226237774,
            -0.007713258732110262,
            0.009607326239347458
        ],
        [
            -0.022426780313253403,
            -0.01693335734307766,
            -0.017131874337792397,
            0.00859164260327816,
            -0.02193896286189556,
            -0.025736289098858833,
            -0.014733881689608097,
            -0.025192469358444214,
            -0.01578442193567753
        ],
        [
            0.00033255398739129305,
            0.008716894313693047,
            0.021728364750742912,
            -0.008331102319061756,
            0.030241966247558594,
            0.012891885824501514,
            -0.01314744632691145,
            0.022224238142371178,
            -0.016385218128561974
        ],
        [
            0.005796241108328104,
            0.00949690118432045,
            0.0004657751997001469,
            -0.009250800125300884,
            0.009761565364897251,
            0.03667265176773071,
            7.818904634859791e-08,
            0.026559151709079742,
            -0.026735763996839523
        ],
        [
            -0.010463070124387741,
            -0.011495680548250675,
            -0.0004227614845149219,
            0.024453286081552505,
            -0.004947550594806671,
            -0.037278711795806885,
            -6.326582990823226e-08,
            -0.01507273968309164,
            -0.003674478270113468
        ],
        [
            0.002813080558553338,
            0.028357356786727905,
            6.735714850947261e-05,
            -0.00781653355807066,
            0.026497676968574524,
            0.015917763113975525,
            9.096859088231213e-08,
            0.02774864062666893,
            0.006504459772258997
        ],
        [
            -0.016063084825873375,
            -0.0264644343405962,
            -0.00017452705651521683,
            0.00999661348760128,
            -0.022926371544599533,
            -0.02967780828475952,
            -7.67376633348249e-08,
            -0.01790250465273857,
            -0.015566665679216385
        ],
        [
            -3.5724405655912506e-09,
            -0.009104885160923004,
            -4.474954948818777e-07,
            0.006538992747664452,
            -0.03046724759042263,
            -6.939505081682285e-10,
            0.018702909350395203,
            0.0007949984865263104,
            -0.022502247244119644
        ],
        [
            0.050586264580488205,
            9.96815963105746e-09,
            0.13727696239948273,
            -0.012166257947683334,
            0.010565164498984814,
            6.506965521957397e-10,
            0.003154975362122059,
            -0.05506792664527893,
            -0.01774129644036293
        ],
        [
            -0.044668953865766525,
            -1.3391433739684544e-08,
            -0.13984669744968414,
            0.02100362814962864,
            -0.004926381632685661,
            -3.298384454453185e-09,
            -0.001298926887102425,
            0.0532386489212513,
            -0.004351507872343063
        ],
        [
            0.15207839012145996,
            0.11331372708082199,
            -0.04550423473119736,
            -0.03166777268052101,
            0.05536782369017601,
            3.994850228394853e-09,
            -0.0034321527928113937,
            -0.034154921770095825,
            0.007326376624405384
        ],
        [
            -0.05566385015845299,
            -0.049149129539728165,
            0.114857517182827,
            0.1507861465215683,
            -0.036096859723329544,
            -3.826780670124208e-09,
            0.05279719457030296,
            0.07360228896141052,
            0.006950244773179293
        ],
        [
            -0.004617190919816494,
            -0.014281637035310268,
            -0.002016995567828417,
            0.005897772032767534,
            -0.029342494904994965,
            -0.026091165840625763,
            -0.00608499301597476,
            -0.014070763252675533,
            -0.017053548246622086
        ],
        [
            0.017828024923801422,
            0.02936888299882412,
            0.011197957210242748,
            -0.01944691501557827,
            0.005401585251092911,
            0.024396326392889023,
            0.017649581655859947,
            0.02345653995871544,
            0.0143295181915164
        ],
        [
            -0.007154049817472696,
            -0.010822592303156853,
            -0.0021292080637067556,
            0.00928988866508007,
            -0.028467543423175812,
            -0.030849572271108627,
            0.011640881188213825,
            -0.015934647992253304,
            -0.00863430742174387
        ],
        [
            -0.011007722467184067,
            -0.00877268984913826,
            -0.021109839901328087,
            0.00887227151542902,
            -0.009752915240824223,
            -0.037521205842494965,
            0.01584218069911003,
            -0.01438867673277855,
            -0.017825942486524582
        ],
        [
            -0.011525299400091171,
            -0.004900598898530006,
            -0.0012417992111295462,
            0.009475328028202057,
            -0.005297672003507614,
            -0.026700079441070557,
            0.020111389458179474,
            -0.0013374419650062919,
            0.026687538251280785
        ],
        [
            -1.0424935936725888e-07,
            -0.009329295717179775,
            -0.0022303408477455378,
            0.01394810900092125,
            -0.013905711472034454,
            -1.498023038948304e-08,
            -3.9357931314043526e-07,
            -0.0018585090292617679,
            -0.020762411877512932
        ],
        [
            -0.001587611623108387,
            -0.03114182874560356,
            -0.0004599985550157726,
            0.024279026314616203,
            -0.00519893504679203,
            -0.010655716992914677,
            -0.017430098727345467,
            -1.6161047824425623e-05,
            0.023525811731815338
        ],
        [
            -0.02629181183874607,
            -0.010521375574171543,
            -0.01753922365605831,
            0.012943725101649761,
            -0.023654576390981674,
            -0.03957650065422058,
            -0.0036835907958447933,
            -0.034024275839328766,
            0.02802775241434574
        ],
        [
            0.02127842605113983,
            0.004341308958828449,
            0.00020893030159641057,
            -0.00952944252640009,
            0.0036503972951322794,
            0.04027072712779045,
            0.004150012508034706,
            0.00041878296178765595,
            -0.02293103188276291
        ],
        [
            -6.945020913917688e-08,
            -0.004594241734594107,
            -0.00023319959291256964,
            -0.07657915353775024,
            -0.0012511685490608215,
            -4.4615053873542365e-09,
            0.002509691519662738,
            -0.011274870485067368,
            0.020981092005968094
        ],
        [
            0.006517337169498205,
            0.009994515217840672,
            0.000398178439354524,
            -0.008663860149681568,
            0.028314750641584396,
            0.04028208926320076,
            5.3864056326347054e-08,
            0.01573387160897255,
            0.02192157320678234
        ],
        [
            0.009969796054065228,
            0.012043164111673832,
            0.017623605206608772,
            -0.007727285381406546,
            0.017183376476168633,
            0.007921343669295311,
            -0.03614228963851929,
            0.00776320043951273,
            0.015472322702407837
        ],
        [
            -0.011706213466823101,
            -0.02721860446035862,
            -0.0197648573666811,
            0.005893314722925425,
            -0.028785157948732376,
            -0.02938970923423767,
            0.014092414639890194,
            -2.8346006729407236e-05,
            -0.01826503314077854
        ],
        [
            4.153416284680134e-06,
            0.013889086432754993,
            1.27007124319789e-05,
            -0.008485838770866394,
            0.030412906780838966,
            1.0674934713961193e-08,
            -0.014680984430015087,
            1.1051496585423592e-05,
            -0.011264569126069546
        ],
        [
            -9.738488415678148e-08,
            -0.038089849054813385,
            -0.029024995863437653,
            -0.0019383883336558938,
            -0.025185754522681236,
            -1.1016211276526633e-09,
            -0.0049827974289655685,
            0.0019231409532949328,
            0.021421968936920166
        ],
        [
            -4.2244430176197056e-08,
            -0.018417565152049065,
            -1.62984257201515e-08,
            0.008895501494407654,
            -0.02554176189005375,
            9.552638680077052e-10,
            -0.0023604915477335453,
            -0.019406896084547043,
            0.026451850309967995
        ],
        [
            -0.019535524770617485,
            -0.017607785761356354,
            -0.024245452135801315,
            0.006633729673922062,
            -0.0035958457738161087,
            -0.03684902563691139,
            -7.359885501045937e-08,
            -0.023991120979189873,
            -0.02191336452960968
        ],
        [
            -0.0071017807349562645,
            -0.010237643495202065,
            -0.0029538122471421957,
            0.008277771063148975,
            -0.019442463293671608,
            -0.030008921399712563,
            -0.004978750832378864,
            -6.344750727294013e-05,
            0.023201294243335724
        ],
        [
            -6.746355211362243e-06,
            -0.03320542722940445,
            -5.70972906643874e-06,
            0.003270637011155486,
            -0.01520681381225586,
            1.0779593363763329e-11,
            -8.278518492943476e-08,
            0.02954907715320587,
            -0.019552161917090416
        ],
        [
            0.013460229150950909,
            0.014264923520386219,
            0.002159611787647009,
            -0.005157804116606712,
            0.004190017934888601,
            0.041552938520908356,
            0.004484141711145639,
            0.01635456271469593,
            -0.023208435624837875
        ],
        [
            0.004756104666739702,
            -4.837610312335983e-09,
            1.4292274030935914e-08,
            0.01332448236644268,
            -0.0037909087259322405,
            6.520804785026257e-09,
            0.005527951754629612,
            -0.0049414802342653275,
            -0.02820715121924877
        ],
        [
            -0.02037685178220272,
            -4.176140322442734e-08,
            2.2590933568267246e-09,
            0.010704456828534603,
            -0.0017267779912799597,
            -1.1561057000619712e-08,
            -0.0063437470234930515,
            -0.002596728503704071,
            0.03443349897861481
        ],
        [
            -0.0095969932153821,
            -0.015833891928195953,
            -0.009439904242753983,
            0.012264886870980263,
            -0.02513228915631771,
            -0.035679057240486145,
            -7.549319747113259e-08,
            -0.014068919233977795,
            -0.01860065385699272
        ],
        [
            -1.6300296579174756e-07,
            -0.01322411559522152,
            -6.785156074329279e-06,
            0.009616849943995476,
            -0.03833773732185364,
            1.4886381016765426e-09,
            -2.0027445657433418e-07,
            -2.8280162496230332e-06,
            -0.008284247480332851
        ],
        [
            4.439610165718477e-06,
            0.010012083686888218,
            0.0003618134942371398,
            -0.008761698380112648,
            0.010421017184853554,
            1.638672620174475e-05,
            -0.019398121163249016,
            0.002431445987895131,
            -0.007940389215946198
        ],
        [
            0.01412876881659031,
            0.0019574067555367947,
            0.020532673224806786,
            -0.009322777390480042,
            0.005827376618981361,
            0.033786363899707794,
            0.01442294754087925,
            0.025027571246027946,
            -0.02616451121866703
        ],
        [
            -0.008615316823124886,
            -0.03316517174243927,
            -0.021845843642950058,
            0.008066507056355476,
            -0.016169514507055283,
            -0.0038801049813628197,
            -5.8568094374322754e-08,
            -0.00010772136738523841,
            0.009533844888210297
        ],
        [
            -0.007505711633712053,
            -0.007893566973507404,
            -0.00011079677642555907,
            0.007428177632391453,
            -0.03373005986213684,
            -0.0031221795361489058,
            -0.008341612294316292,
            -0.030813677236437798,
            -0.015072498470544815
        ],
        [
            0.07446500658988953,
            0.003967761527746916,
            0.11144647747278214,
            0.06176522374153137,
            0.0009663091041147709,
            -1.5627772687043517e-10,
            -0.020421931520104408,
            0.022563321515917778,
            -0.03501858189702034
        ],
        [
            -0.047685541212558746,
            -0.005931774154305458,
            -0.11000724881887436,
            -0.05985318124294281,
            -0.0016714265802875161,
            9.155693092566253e-09,
            0.14226269721984863,
            -0.018565787002444267,
            -0.014424236491322517
        ],
        [
            0.016200818121433258,
            0.011928215622901917,
            0.03222684562206268,
            -0.0018409142503514886,
            0.03370580077171326,
            0.03811633586883545,
            0.00303093483671546,
            0.015840748324990273,
            -0.005114413797855377
        ],
        [
            -0.0117441825568676,
            -0.014530138112604618,
            -0.0008277145680040121,
            0.0024486787151545286,
            -0.03057936765253544,
            -0.03379321098327637,
            -0.0006925638299435377,
            -0.005457198712974787,
            0.02366681769490242
        ],
        [
            -6.3260663409892e-06,
            -0.013202392496168613,
            -0.019775329157710075,
            0.0019304380984976888,
            -0.04263840243220329,
            -2.8648749150761432e-08,
            0.015265937894582748,
            -0.03380785882472992,
            0.013136022724211216
        ],
        [
            -1.1103632679976272e-08,
            2.663350414877641e-06,
            2.7303024126013042e-06,
            -0.022517938166856766,
            1.1708054898917908e-06,
            1.335825783321809e-09,
            0.006030123680830002,
            0.0002105261810356751,
            0.012865851633250713
        ],
        [
            5.53281997994759e-09,
            -0.0012087133945897222,
            -0.008238681592047215,
            -0.08027936518192291,
            -0.00013918348122388124,
            -8.989256450320227e-09,
            -0.07272851467132568,
            -0.04632016643881798,
            0.01120912004262209
        ],
        [
            -0.11966826021671295,
            2.315236270078458e-05,
            -1.3993226275488269e-05,
            0.027622492983937263,
            1.7443387605453609e-06,
            -5.520240708989377e-09,
            0.0481596514582634,
            0.04309505224227905,
            0.02299242466688156
        ],
        [
            -0.0074601080268621445,
            -0.007751514669507742,
            -0.0025555079337209463,
            0.009047423489391804,
            -0.0076147629879415035,
            -0.0028614667244255543,
            0.02068447694182396,
            -0.00021157343871891499,
            0.027525849640369415
        ],
        [
            -0.0071631139144301414,
            -0.00017391654546372592,
            -0.002164208795875311,
            0.008848040364682674,
            -0.0034528181422501802,
            -0.03414557874202728,
            -0.010665297508239746,
            -1.8809997754942742e-06,
            0.009586513973772526
        ],
        [
            -0.00380533654242754,
            -0.002557514002546668,
            -0.0033359539229422808,
            0.03187459334731102,
            -0.01404628623276949,
            -0.03916940093040466,
            -0.01214568130671978,
            -0.02034609764814377,
            -0.02060800977051258
        ],
        [
            -0.004772925283759832,
            -0.03009871393442154,
            -0.025785595178604126,
            0.008062077686190605,
            -0.03358519822359085,
            -0.01631098985671997,
            -5.7203990877496835e-08,
            -0.0001310936058871448,
            -0.01213595550507307
        ]
    ],
    "sigmanet.nn.02.bias": [
        -0.03317975997924805,
        0.08565228432416916,
        -0.07601579278707504,
        -0.003420331049710512,
        0.029740087687969208,
        -0.1415276676416397,
        0.15380904078483582,
        0.013113447465002537,
        -0.1621692180633545,
        -0.032534778118133545,
        0.01690407283604145,
        0.06033153459429741,
        0.12354391068220139,
        0.18634051084518433,
        -0.07937470823526382,
        0.006998318713158369,
        -0.13075655698776245,
        -0.06847742199897766,
        0.27523502707481384,
        0.00571422791108489,
        0.07899902015924454,
        -0.05031079426407814,
        0.10602361708879471,
        0.07179372012615204,
        0.08925215899944305,
        0.06834092736244202,
        0.11567642539739609,
        -0.17093124985694885,
        0.12550213932991028,
        0.07832228392362595,
        -0.16909757256507874,
        -0.21071337163448334,
        -0.08720001578330994,
        -0.06685248017311096,
        -0.035210609436035156,
        -0.006422512698918581,
        -0.01738118939101696,
        -0.04718643054366112,
        0.014282211661338806,
        0.030939852818846703,
        -0.08192206174135208,
        -0.05552375316619873,
        0.06176626309752464,
        -0.11861622333526611,
        -0.08163992315530777,
        -0.004238765686750412,
        -0.11380210518836975,
        0.0789824053645134,
        0.07837177813053131,
        -0.12915299832820892,
        -0.12493205070495605,
        0.14241020381450653,
        -0.06995483487844467,
        -0.04481412097811699,
        -0.12834610044956207,
        -0.122616708278656,
        0.14904195070266724,
        0.014478093013167381,
        -0.09658511728048325,
        0.0886632576584816,
        0.05557625740766525,
        -0.0557931549847126,
        -0.01107578445225954,
        -0.01718837395310402
    ],
    "sigmanet.nn.02.parametrizations.weight.original": [
        [
            0.02265898510813713,
            0.0010112548479810357,
            -0.0007690143538638949,
            -0.008537011221051216,
            -0.029228148981928825,
            0.006432666908949614,
            -0.0101526640355587,
            0.016797291114926338,
            -0.013500253669917583,
            0.005793264135718346,
            -0.0011775820748880506,
            -0.02538682334125042,
            -0.0012161245103925467,
            -0.016259724274277687,
            0.017882708460092545,
            0.02151556685566902,
            -0.01950332149863243,
            0.010013027116656303,
            -0.017781415954232216,
            -0.0005500690313056111,
            -0.022395087406039238,
            0.017812218517065048,
            -0.02156248316168785,
            0.016649208962917328,
            -0.009262803941965103,
            0.015531210228800774,
            -0.008128203451633453,
            -0.013926676474511623,
            -0.01129539031535387,
            -0.02414092980325222,
            -0.013838370330631733,
            -0.0078239431604743,
            -0.007686607073992491,
            0.02026163786649704,
            0.017638757824897766,
            0.021471373736858368,
            -0.01589130237698555,
            0.009307592175900936,
            -0.02646801248192787,
            -6.087087456307927e-08,
            -0.008364777080714703,
            -0.012367438524961472,
            -0.02575172856450081,
            0.01885760761797428,
            0.01878085546195507,
            -0.002710880944505334,
            -0.023276429623365402,
            -0.01465167012065649,
            0.002185618272051215,
            0.008674005046486855,
            -0.01241698581725359,
            -0.0015443367883563042,
            -0.0025707713793963194,
            0.022905593737959862,
            -0.015629209578037262,
            0.019719962030649185,
            -0.0022757318802177906,
            0.025229457765817642,
            -0.020534586161375046,
            0.0033196827862411737,
            -0.00952013861387968,
            -0.020946620032191277,
            -0.01978873647749424,
            -0.023089103400707245
        ],
        [
            -0.023859553039073944,
            -0.03167179599404335,
            0.023892508819699287,
            0.02098986692726612,
            0.0014269350795075297,
            -0.011619819328188896,
            0.018848802894353867,
            -0.007697379682213068,
            0.022333964705467224,
            -0.021719804033637047,
            0.02592313662171364,
            0.03208404406905174,
            0.024132998660206795,
            0.0019251154735684395,
            -0.019162066280841827,
            -0.017315037548542023,
            0.01447715237736702,
            -0.010054964572191238,
            0.020960155874490738,
            0.027564674615859985,
            0.009251019917428493,
            -0.01234445534646511,
            0.012319240719079971,
            -0.016510697081685066,
            0.0010680633131414652,
            -0.021256186068058014,
            0.023475797846913338,
            0.0007731677615083754,
            0.0005945796146988869,
            0.022837288677692413,
            0.019816849380731583,
            0.02517027035355568,
            8.413042814936489e-05,
            -0.02165408991277218,
            -0.022151349112391472,
            -0.000674387498293072,
            0.021039236336946487,
            -0.012173299677670002,
            0.024204261600971222,
            0.00047612047637812793,
            0.009247400797903538,
            0.007891672663390636,
            0.032929472625255585,
            -0.021964631974697113,
            -0.015712140128016472,
            0.03137414902448654,
            0.01903492398560047,
            0.02107449620962143,
            -0.026883156970143318,
            -0.022371262311935425,
            0.026831774041056633,
            0.009674416854977608,
            0.00615097489207983,
            -0.010492965579032898,
            0.00855697225779295,
            -0.0018585125217214227,
            0.011957822367548943,
            -0.018025929108262062,
            0.010335160419344902,
            0.0007625319994986057,
            0.0003813998482655734,
            0.022262582555413246,
            0.01953318528831005,
            0.0014580669812858105
        ],
        [
            0.008422876708209515,
            0.03447049483656883,
            -0.008619795553386211,
            -0.008874263614416122,
            -0.026167362928390503,
            0.006763199809938669,
            -0.021638154983520508,
            0.01504035759717226,
            -0.038420774042606354,
            0.04265998303890228,
            -0.017185701057314873,
            -0.017218293622136116,
            -0.016132589429616928,
            -0.029212430119514465,
            0.017889397218823433,
            0.020972840487957,
            -0.02375548705458641,
            0.0016479517798870802,
            -0.007886654697358608,
            -4.471411375561729e-05,
            -0.02049003355205059,
            0.025379473343491554,
            -0.005340692587196827,
            0.0239239614456892,
            -0.008820783346891403,
            0.0013589328154921532,
            -0.007989553734660149,
            -0.019495302811264992,
            -0.020705990493297577,
            -0.02010696567595005,
            -0.021706247702240944,
            -0.0013503098161891103,
            -0.016794679686427116,
            0.022365735843777657,
            0.012834672816097736,
            0.020652959123253822,
            -0.016072528436779976,
            0.0009824607986956835,
            -0.019306590780615807,
            -1.2416846217888633e-08,
            -0.0012970254756510258,
            -0.020231429487466812,
            -0.02447093278169632,
            0.01962488703429699,
            0.01342715509235859,
            -0.0160532183945179,
            -0.00763185229152441,
            -0.009718160144984722,
            0.02219901792705059,
            0.0300139207392931,
            -0.02057718113064766,
            -0.009208249859511852,
            -0.0030827743466943502,
            0.035552073270082474,
            -0.026505453512072563,
            0.006921393796801567,
            -0.014526640996336937,
            0.017363538965582848,
            -0.008436285890638828,
            -0.0009809867478907108,
            -0.00886889360845089,
            -0.023936357349157333,
            -0.007751481607556343,
            -0.015394818969070911
        ],
        [
            -0.028721336275339127,
            -0.028367111459374428,
            0.0105326808989048,
            0.026986483484506607,
            0.003974054474383593,
            -0.02221604250371456,
            0.024288639426231384,
            -0.025110648944973946,
            0.038195159286260605,
            -0.04561040550470352,
            0.008681006729602814,
            0.0012082536704838276,
            0.016258912160992622,
            0.018030963838100433,
            -0.0170439463108778,
            -0.023097416386008263,
            0.025256674736738205,
            -0.001399324624799192,
            0.025336720049381256,
            5.9636116930050775e-05,
            0.001297981245443225,
            -0.012043694965541363,
            0.016441473737359047,
            -0.0070724585093557835,
            0.028551748022437096,
            -0.013732612133026123,
            0.02813425101339817,
            0.02337333932518959,
            0.017411008477211,
            0.0070637911558151245,
            0.028427528217434883,
            0.008909354917705059,
            0.003775889752432704,
            -0.0052220383659005165,
            -0.015310156159102917,
            -0.014653900638222694,
            0.017169015482068062,
            -0.027873557060956955,
            0.023956360295414925,
            8.211240128730424e-06,
            0.025066900998353958,
            0.020364059135317802,
            0.016120051965117455,
            -0.02462766319513321,
            -0.017152903601527214,
            0.026727251708507538,
            0.025544842705130577,
            0.004404484760016203,
            -0.010386333800852299,
            -0.012794455513358116,
            0.024028867483139038,
            0.02988852560520172,
            0.0030294733587652445,
            -0.0033043730072677135,
            0.031153660267591476,
            -0.0261957086622715,
            0.002823255490511656,
            -0.016903260722756386,
            0.01509158406406641,
            0.001374329556711018,
            0.016301371157169342,
            0.023140747100114822,
            0.029062023386359215,
            0.02058327943086624
        ],
        [
            0.014286852441728115,
            0.015179079957306385,
            -0.020246723666787148,
            -0.024429768323898315,
            -0.006639248691499233,
            0.02413986064493656,
            -0.0014045939315110445,
            0.02244315668940544,
            -0.025037577375769615,
            0.03481334447860718,
            -0.028659949079155922,
            -0.014738485217094421,
            -0.019053179770708084,
            -0.03039388731122017,
            0.008071262389421463,
            0.029224539175629616,
            -0.0077340914867818356,
            0.026439059525728226,
            -0.0010927111143246293,
            -2.4247670808108523e-05,
            -0.021273983642458916,
            0.02079125866293907,
            -0.025210818275809288,
            0.02379072830080986,
            -0.029503365978598595,
            0.023134790360927582,
            -0.025382233783602715,
            -0.014953456819057465,
            -0.00019944652740377933,
            -0.022986261174082756,
            -0.021408965811133385,
            -0.007772071287035942,
            -0.009248879738152027,
            0.02088950388133526,
            0.017970800399780273,
            0.011043506674468517,
            -0.02354237250983715,
            0.007184077985584736,
            -0.02463533729314804,
            -3.408289472872639e-08,
            -0.02824585884809494,
            -0.010074779391288757,
            -0.012467939406633377,
            0.01870184764266014,
            0.017429601401090622,
            -0.025890978053212166,
            -0.023018144071102142,
            -0.016083676367998123,
            0.0017001996748149395,
            0.02403847873210907,
            -0.025193145498633385,
            -0.025563010945916176,
            -0.00426968839019537,
            0.025259297341108322,
            -0.028742823749780655,
            0.01124683115631342,
            -0.011145786382257938,
            0.026700075715780258,
            -0.009528107941150665,
            -0.0009272929164581001,
            -0.028711926192045212,
            -0.02479683980345726,
            -0.007491358555853367,
            -0.01608523540198803
        ],
        [
            0.012165098451077938,
            0.02841736190021038,
            -0.030600065365433693,
            -0.023102477192878723,
            -0.02359243668615818,
            0.0248823594301939,
            -0.014983534812927246,
            0.019490603357553482,
            -0.01408286951482296,
            0.004713505506515503,
            -0.01596510037779808,
            -0.012655090540647507,
            -0.01903129182755947,
            -0.029480213299393654,
            0.026742475107312202,
            0.01548564899712801,
            -0.023401517421007156,
            0.03097863867878914,
            -0.007943005301058292,
            -7.246919722092571e-06,
            -0.017208395525813103,
            0.017635148018598557,
            -0.010596193373203278,
            0.01657077670097351,
            -0.03129420801997185,
            0.018090061843395233,
            -0.02666088193655014,
            -0.017246829345822334,
            -0.012562399730086327,
            -0.02290833555161953,
            -0.01747700944542885,
            -0.012887866236269474,
            -0.01707032322883606,
            0.0067941369488835335,
            0.02167043834924698,
            0.010897200554609299,
            -0.02009769342839718,
            0.01785247027873993,
            -0.021901007741689682,
            -2.5261650193897367e-07,
            -0.014888805337250233,
            -0.025708461180329323,
            -0.03010699525475502,
            0.019939934834837914,
            0.02173292636871338,
            -0.029970526695251465,
            -0.022464122623205185,
            -0.02429516427218914,
            0.021744685247540474,
            0.020221972838044167,
            -0.018758578225970268,
            -0.030250336974859238,
            -0.006046563386917114,
            0.013112914748489857,
            -0.017881494015455246,
            0.026844138279557228,
            -0.03391069918870926,
            0.02229752205312252,
            -0.008827396668493748,
            -0.013384165242314339,
            -0.029731642454862595,
            -0.020039884373545647,
            -0.02799680083990097,
            -0.025452792644500732
        ],
        [
            -0.010015465319156647,
            -0.004574263468384743,
            0.010917178355157375,
            0.008177965879440308,
            0.024788787588477135,
            -0.0014792478177696466,
            0.0310470350086689,
            -0.0039344835095107555,
            0.01775582879781723,
            -0.049039147794246674,
            0.017257675528526306,
            0.030969001352787018,
            0.00912813562899828,
            0.010449755005538464,
            -0.017023595049977303,
            -0.026356365531682968,
            0.0018466595793142915,
            -0.0021550010424107313,
            0.024300647899508476,
            0.00012595851148944348,
            0.007117345463484526,
            -0.025906937196850777,
            0.03866938501596451,
            -0.005436572711914778,
            0.02445593662559986,
            -0.03267274796962738,
            0.023454977199435234,
            0.003897718619555235,
            0.006331256125122309,
            0.007223653607070446,
            0.01938297599554062,
            0.029022561386227608,
            0.010887686163187027,
            -0.03069627843797207,
            -0.01506261806935072,
            -0.021580342203378677,
            0.0006314868805930018,
            -0.008065720088779926,
            0.02445639669895172,
            4.09273098966878e-07,
            0.0011718320893123746,
            0.02214251458644867,
            0.008143198676407337,
            -0.0067816912196576595,
            -0.014017139561474323,
            0.03542954474687576,
            0.02480149455368519,
            0.014467628672719002,
            -0.023565949872136116,
            -0.009878115728497505,
            0.007755574770271778,
            0.028329256922006607,
            0.018073203042149544,
            -0.02902899868786335,
            0.0013923748629167676,
            -0.0163153987377882,
            0.010946705006062984,
            0.02544456534087658,
            0.005430346820503473,
            -0.004936609882861376,
            0.013483685441315174,
            0.048369161784648895,
            0.03263771906495094,
            0.02962317317724228
        ],
        [
            -0.026222361251711845,
            -0.038184043020009995,
            0.022631611675024033,
            0.024467960000038147,
            0.0015731570310890675,
            -0.013130166567862034,
            0.02689901739358902,
            -0.020739557221531868,
            0.006199789233505726,
            -0.0007546769920736551,
            0.021976927295327187,
            0.028130672872066498,
            0.00922113936394453,
            0.028181737288832664,
            -0.024728480726480484,
            -0.0007797076250426471,
            0.009532374329864979,
            -0.010157168842852116,
            0.021504972130060196,
            0.007793552242219448,
            0.01853667013347149,
            -0.008498151786625385,
            0.008930287323892117,
            -0.024485411122441292,
            0.014394688419997692,
            -0.007602970115840435,
            0.01513330265879631,
            0.019268568605184555,
            0.01030147634446621,
            0.025282317772507668,
            0.020707599818706512,
            0.020876117050647736,
            0.0029891161248087883,
            -0.02390592359006405,
            -0.018455786630511284,
            -0.024075228720903397,
            0.02429019846022129,
            -0.03196844831109047,
            0.02407926134765148,
            5.998263929996028e-08,
            0.024253204464912415,
            0.02171868085861206,
            2.7725527615984902e-05,
            -0.0009024328901432455,
            -0.014313318766653538,
            0.002759342547506094,
            0.027708977460861206,
            0.00398290017619729,
            -0.020709825679659843,
            -0.001905768527649343,
            0.007615544367581606,
            0.007386259734630585,
            0.003940278198570013,
            -0.014283997938036919,
            0.02230379916727543,
            -0.025939809158444405,
            0.017682664096355438,
            -0.021796004846692085,
            0.009451838210225105,
            -0.0033299936912953854,
            0.025296833366155624,
            0.018645325675606728,
            0.0034923304338008165,
            0.024982433766126633
        ],
        [
            0.034988582134246826,
            0.001359105110168457,
            -0.027774808928370476,
            -0.02419336512684822,
            -0.001654463936574757,
            0.03226683288812637,
            -0.02963268756866455,
            0.046997394412755966,
            -0.005374794360250235,
            0.00729978084564209,
            -0.00815199688076973,
            -0.0010273450752720237,
            -0.033020615577697754,
            -0.007277315948158503,
            0.008677116595208645,
            0.027450093999505043,
            -0.031715404242277145,
            0.02100377529859543,
            -0.025186877697706223,
            -0.020228438079357147,
            -0.030161699280142784,
            0.025855572894215584,
            -0.002832704922184348,
            0.019321488216519356,
            -0.00921053159981966,
            0.02678372710943222,
            -0.009190584532916546,
            -0.03586810454726219,
            -0.01987605355679989,
            -0.026102058589458466,
            -0.03147943317890167,
            -0.025610633194446564,
            -0.010761716403067112,
            0.011728168465197086,
            0.027912897989153862,
            0.032551828771829605,
            -0.02476174384355545,
            0.031548723578453064,
            -0.025881299749016762,
            -4.01730240184861e-08,
            -0.0089162802323699,
            -0.03730957582592964,
            -0.03774997591972351,
            0.0075818197801709175,
            0.013075841590762138,
            -0.02914462983608246,
            -0.024746423587203026,
            -0.021967610344290733,
            0.013447443023324013,
            0.018782060593366623,
            -0.025870805606245995,
            -0.0017935925861820579,
            -0.004288888070732355,
            0.009060150012373924,
            -0.015963885933160782,
            0.029980983585119247,
            -0.013262547552585602,
            0.028731686994433403,
            -0.0025041322223842144,
            -0.003291148692369461,
            -0.008567798882722855,
            -0.0015965144848451018,
            -0.029070395976305008,
            -0.00299411010928452
        ],
        [
            -0.00863060262054205,
            -0.025276215746998787,
            0.0255705788731575,
            0.01571490429341793,
            0.008216124027967453,
            -0.015137454494833946,
            0.021397225558757782,
            -0.024538887664675713,
            0.026066800579428673,
            -0.03333701938390732,
            0.02634756825864315,
            0.03204512596130371,
            0.02068239077925682,
            0.010632316581904888,
            -0.011944646947085857,
            -0.017365047708153725,
            0.02234244905412197,
            -0.016913169994950294,
            0.026477234438061714,
            6.197491893544793e-05,
            0.01608644239604473,
            -0.014723866246640682,
            0.020863555371761322,
            -0.006094848737120628,
            0.013111447915434837,
            -0.019073592498898506,
            0.020484576001763344,
            0.012375667691230774,
            0.029538437724113464,
            0.019617430865764618,
            0.006673465482890606,
            0.019898787140846252,
            0.0026130073238164186,
            -0.018408063799142838,
            -0.010331040248274803,
            -0.02599729597568512,
            0.014772373251616955,
            -0.01820005662739277,
            0.017581628635525703,
            6.098198923609743e-08,
            0.019364211708307266,
            0.02140013687312603,
            0.02029210887849331,
            -0.02684127725660801,
            -0.020395051687955856,
            0.030374981462955475,
            0.008004924282431602,
            0.010332176461815834,
            -0.0013360193697735667,
            -0.009371288120746613,
            0.008540461771190166,
            0.023172445595264435,
            0.007533745840191841,
            -0.030467424541711807,
            0.022502215579152107,
            -0.014247172512114048,
            0.01021457090973854,
            -0.013756640255451202,
            0.008659708313643932,
            0.028435422107577324,
            0.02959592081606388,
            0.024209460243582726,
            0.01988745480775833,
            0.019728027284145355
        ],
        [
            -0.03126388043165207,
            -0.007672135718166828,
            0.015661651268601418,
            0.008380708284676075,
            0.0037172208540141582,
            -0.007264863699674606,
            0.026803528890013695,
            -0.03419721871614456,
            0.01694301702082157,
            -0.004149819258600473,
            0.03198135271668434,
            0.02639601193368435,
            0.032770752906799316,
            0.014397880993783474,
            -0.008489319123327732,
            -0.0055414047092199326,
            0.0018733529141172767,
            -0.03176399692893028,
            0.024840351194143295,
            0.018209392204880714,
            0.0074776955880224705,
            -0.023226836696267128,
            0.023762911558151245,
            -0.018891114741563797,
            0.00854194350540638,
            -0.008008552715182304,
            0.027447838336229324,
            0.007190728094428778,
            0.016801806166768074,
            0.023926762863993645,
            0.026450566947460175,
            0.03022165037691593,
            0.016779700294137,
            -0.022743791341781616,
            -0.018580814823508263,
            -0.037103261798620224,
            0.01551620289683342,
            -0.01673715002834797,
            0.006971945986151695,
            4.828810418189278e-08,
            0.00908221211284399,
            0.029063045978546143,
            0.019816536456346512,
            -0.02281537652015686,
            -0.012252440676093102,
            0.0024040797725319862,
            0.027087103575468063,
            0.03253208473324776,
            -0.030848389491438866,
            -0.010298822075128555,
            0.007680206093937159,
            0.020514007657766342,
            0.0020737783052027225,
            -0.008946268819272518,
            0.006428193766623735,
            -0.007231986150145531,
            0.02555997483432293,
            -0.013506797142326832,
            0.03291965648531914,
            0.009498818777501583,
            0.02158830687403679,
            0.007350007072091103,
            0.025889554992318153,
            0.022859986871480942
        ],
        [
            -0.028069762513041496,
            -0.03363197669386864,
            0.014584065414965153,
            0.028601573780179024,
            0.008982711471617222,
            -0.025986922904849052,
            0.021272113546729088,
            -0.031644806265830994,
            0.022890223190188408,
            -0.010530028492212296,
            0.032051824033260345,
            0.019136695191264153,
            0.009225523099303246,
            0.03518154099583626,
            -0.020892655476927757,
            -0.02505115605890751,
            0.008717598393559456,
            -0.022800492122769356,
            0.008050837554037571,
            0.014517391100525856,
            0.028018945828080177,
            -0.031987618654966354,
            0.007587885484099388,
            -0.025950804352760315,
            0.033226966857910156,
            -0.008207917213439941,
            0.023116962984204292,
            0.03209158033132553,
            0.014667023904621601,
            0.0015386971645057201,
            0.02568979747593403,
            0.02539244294166565,
            0.06679916381835938,
            -0.020014187321066856,
            -0.02012159302830696,
            -0.008001198060810566,
            0.029430337250232697,
            -0.036235958337783813,
            0.033906012773513794,
            -2.4798325171104807e-07,
            0.03289418667554855,
            0.02601950615644455,
            1.0840705726877786e-05,
            -0.019724678248167038,
            -0.017659775912761688,
            0.009675051085650921,
            0.019376125186681747,
            0.01855749823153019,
            -0.009759832173585892,
            -0.029868027195334435,
            0.029771599918603897,
            0.023684991523623466,
            0.00802222453057766,
            -0.01092703826725483,
            0.010337759740650654,
            -0.03461822494864464,
            0.01764046773314476,
            -0.03293532505631447,
            0.01506479550153017,
            0.0009158534230664372,
            0.008376979269087315,
            0.011908244341611862,
            0.022807342931628227,
            0.020610202103853226
        ],
        [
            -0.01684054173529148,
            -0.001779566751793027,
            0.0009891437366604805,
            0.004259028472006321,
            0.0062951585277915,
            -0.0021593933925032616,
            0.0009694714681245387,
            -0.003081132657825947,
            0.008928097784519196,
            -0.0002580866275820881,
            0.011073139496147633,
            0.0021061694715172052,
            0.008716343902051449,
            0.010926120914518833,
            -0.0030449682381004095,
            -0.001025569625198841,
            0.006085715256631374,
            -0.00831991620361805,
            0.0011285491054877639,
            6.017255145707168e-05,
            0.006136184558272362,
            -0.0027998576406389475,
            0.017513448372483253,
            -0.0012475004186853766,
            0.005532938055694103,
            -0.0010264691663905978,
            0.0005298011819832027,
            0.0037348379846662283,
            0.0004447297833394259,
            0.0009086350328288972,
            0.0009330915054306388,
            0.01686694659292698,
            0.005470736883580685,
            -0.0009539170423522592,
            -0.02243001013994217,
            -0.0008051882614381611,
            0.00193312659393996,
            -0.0025701173581182957,
            0.002043262356892228,
            1.478294286982873e-08,
            0.0006262665265239775,
            0.004792819730937481,
            0.001728772884234786,
            -0.0006970427348278463,
            -0.013400398194789886,
            0.008105844259262085,
            0.005474874749779701,
            0.0005420328234322369,
            -0.014634481631219387,
            -0.0039214794524014,
            0.0011864472180604935,
            0.0013354175025597215,
            0.0020883784163743258,
            -0.0048646205104887486,
            0.004086139611899853,
            -0.009835210628807545,
            0.006090967450290918,
            -0.0002468750171829015,
            0.01920744590461254,
            -0.021642260253429413,
            0.0014393272576853633,
            0.005454853177070618,
            0.01662950962781906,
            0.002841245848685503
        ],
        [
            -0.03671698644757271,
            -0.008897917345166206,
            0.010434013791382313,
            0.029665252193808556,
            0.02109205350279808,
            -0.012448282912373543,
            0.02001160942018032,
            -0.03080824203789234,
            0.010615937411785126,
            -0.0012214123271405697,
            0.00794870313256979,
            0.011092202737927437,
            0.026655709370970726,
            0.021386535838246346,
            -0.021053288131952286,
            -0.006482495926320553,
            0.020829081535339355,
            -0.008543191477656364,
            0.021517114713788033,
            8.229044760810211e-05,
            0.020049842074513435,
            -0.03284773603081703,
            0.009424583986401558,
            -0.01537005789577961,
            0.008616006933152676,
            -0.019516365602612495,
            0.027492143213748932,
            0.03806161507964134,
            0.034172698855400085,
            0.02567320317029953,
            0.022308895364403725,
            0.0069528790190815926,
            0.003999087493866682,
            -0.023720571771264076,
            -0.02762625925242901,
            -0.025388864800333977,
            0.02586466260254383,
            -0.013788698241114616,
            0.017058376222848892,
            4.735647607390092e-08,
            0.025577513501048088,
            0.041407275944948196,
            0.025852886959910393,
            -0.007515340577811003,
            -0.017449893057346344,
            0.03194012492895126,
            0.030203135684132576,
            0.010123196989297867,
            -0.011364476755261421,
            -0.02386726252734661,
            0.029393380507826805,
            0.035135667771101,
            0.004274990875273943,
            -0.008296029642224312,
            0.01886294223368168,
            -0.03370797261595726,
            0.02870984375476837,
            -0.018343087285757065,
            0.027397343888878822,
            0.01575327478349209,
            0.008244392462074757,
            0.014775337651371956,
            0.02397104538977146,
            0.008701047860085964
        ],
        [
            0.02716262824833393,
            0.02657102607190609,
            -0.028344837948679924,
            -0.025989703834056854,
            -0.026339413598179817,
            0.02809382788836956,
            -0.0126756327226758,
            0.02978905849158764,
            -0.029697183519601822,
            0.032447002828121185,
            -0.017143703997135162,
            -0.01762780360877514,
            -0.033180687576532364,
            -0.035623323172330856,
            0.016508543863892555,
            0.019974179565906525,
            -0.01628783531486988,
            0.02924499288201332,
            -0.008815615437924862,
            -0.00010613174526952207,
            -0.02219594456255436,
            0.007391482591629028,
            -0.019041260704398155,
            0.006528840400278568,
            -0.019366556778550148,
            0.026929527521133423,
            -0.008457818068563938,
            -0.020583873614668846,
            -0.01961226761341095,
            -0.02432766929268837,
            -0.020156895741820335,
            -0.020887868478894234,
            -0.008797744289040565,
            0.019590426236391068,
            0.015324986539781094,
            0.02380271814763546,
            -0.02170807495713234,
            0.007704213727265596,
            -0.02299625612795353,
            1.6592035478879552e-07,
            -0.027473008260130882,
            -0.013431561179459095,
            -0.021763091906905174,
            0.019145675003528595,
            0.020135115832090378,
            -0.028176186606287956,
            -0.028448436409235,
            -0.01058798748999834,
            0.022015204653143883,
            0.03443019837141037,
            -0.02283639647066593,
            -0.022259991616010666,
            -0.012275366112589836,
            0.03217421472072601,
            -0.02726004086434841,
            0.02910599857568741,
            -0.016182277351617813,
            0.006802063435316086,
            -0.011548155918717384,
            -0.0008759591146372259,
            -0.022998126223683357,
            -0.02564743347465992,
            -0.02836551144719124,
            -0.008071096614003181
        ],
        [
            0.002991478657349944,
            0.028549304232001305,
            -0.030281059443950653,
            -0.020478257909417152,
            -0.02083393558859825,
            0.023121606558561325,
            -0.022811762988567352,
            0.019010549411177635,
            -0.03316909819841385,
            0.04551154747605324,
            -0.019068406894803047,
            -0.010191701352596283,
            -0.025946015492081642,
            -0.03511001914739609,
            0.02389923669397831,
            0.006962061394006014,
            -0.019955705851316452,
            0.019768789410591125,
            -0.0010609838645905256,
            -0.0002025669818976894,
            -0.022611679509282112,
            0.017037075012922287,
            -0.01580018363893032,
            0.023479826748371124,
            -0.008583661168813705,
            0.018086614087224007,
            -0.010793879628181458,
            -0.02039186842739582,
            -0.007496444508433342,
            -0.010566724464297295,
            -0.007138919085264206,
            -0.028682682663202286,
            -0.016073165461421013,
            0.021235307678580284,
            0.012662069872021675,
            0.007142676040530205,
            -0.02355191670358181,
            0.013982193544507027,
            -0.00915679894387722,
            -6.269775809641942e-08,
            -0.02062700316309929,
            -0.011553797870874405,
            -0.024589041247963905,
            0.02006767876446247,
            0.01596985198557377,
            -0.029500147327780724,
            -0.007441398221999407,
            -0.027950558811426163,
            0.018472857773303986,
            0.00918529462069273,
            -0.019882822409272194,
            -0.023649292066693306,
            -0.013581768609583378,
            0.013356631621718407,
            -0.009530601091682911,
            0.0069512054324150085,
            -0.010092676617205143,
            0.007924042642116547,
            -0.008155567571520805,
            -0.0009045855840668082,
            -0.016410013660788536,
            -0.021032346412539482,
            -0.008086463436484337,
            -0.011988011188805103
        ],
        [
            0.0038457796908915043,
            0.006243571173399687,
            -0.027170654386281967,
            -0.008694742806255817,
            -0.02022235095500946,
            0.020803585648536682,
            -0.02609359100461006,
            0.007842827588319778,
            -0.02599150314927101,
            0.014722863212227821,
            -0.00802001915872097,
            -0.011340157128870487,
            -0.026870599016547203,
            -0.037528738379478455,
            0.026016147807240486,
            0.016993211582303047,
            -0.023430470377206802,
            0.02259727753698826,
            -0.008363510482013226,
            -1.0408822390672867e-06,
            -0.023364881053566933,
            0.0317092090845108,
            -0.020823821425437927,
            0.0182229932397604,
            -0.03281990438699722,
            0.02793816663324833,
            -0.027148116379976273,
            -0.022133508697152138,
            -0.011032347567379475,
            -0.0014184546889737248,
            -0.02708943374454975,
            -0.027695579454302788,
            -0.016657497733831406,
            0.021029045805335045,
            0.026125390082597733,
            0.019697455689311028,
            -0.026195798069238663,
            0.019874101504683495,
            -0.0018319756491109729,
            -2.1089114454753144e-07,
            -0.010601664893329144,
            -0.008127099834382534,
            -3.4606871395226335e-06,
            0.02100384794175625,
            0.016445837914943695,
            -0.010324898175895214,
            -0.0076432968489825726,
            -1.797569711925462e-05,
            0.021627837792038918,
            0.03323239088058472,
            -0.008031187579035759,
            -0.03191518411040306,
            -0.002763262949883938,
            0.009274754673242569,
            -0.008515316061675549,
            0.009677005000412464,
            -0.015793267637491226,
            0.013707267120480537,
            -0.025056099519133568,
            -0.0014535945374518633,
            -0.023262694478034973,
            -0.008103469386696815,
            -0.007575727067887783,
            -0.024961285293102264
        ],
        [
            0.02520538866519928,
            0.010123109444975853,
            -0.023240135982632637,
            -0.007925191894173622,
            -0.010340405628085136,
            0.017024822533130646,
            -0.018358241766691208,
            0.020025400444865227,
            -0.023036133497953415,
            0.014121981337666512,
            -0.024283485487103462,
            -0.007319231983274221,
            -0.018134837970137596,
            -0.01590738631784916,
            0.014585761353373528,
            0.021403713151812553,
            -0.008032928220927715,
            0.029502062126994133,
            -0.018123799934983253,
            -1.179228365799645e-05,
            -0.01914091221988201,
            0.021608900278806686,
            -0.015189056284725666,
            0.023721611127257347,
            -0.024115387350320816,
            0.02665412612259388,
            -0.015507607720792294,
            -0.01614099182188511,
            -0.006933603435754776,
            -0.024469023570418358,
            -0.006675053387880325,
            -0.0013891381677240133,
            -0.06208011507987976,
            0.007342995144426823,
            0.016529830172657967,
            0.017844997346401215,
            -0.024399371817708015,
            0.009539495222270489,
            -0.018646448850631714,
            -8.767723613800626e-08,
            -0.011151283048093319,
            -0.0075711593963205814,
            -0.006698748096823692,
            0.007749307435005903,
            0.016629286110401154,
            -0.02457374334335327,
            -0.00615050969645381,
            -0.006660813000053167,
            0.02051500976085663,
            0.009584363549947739,
            -0.023440226912498474,
            -0.0286547988653183,
            -0.006080798804759979,
            0.017388872802257538,
            -0.029899831861257553,
            0.020938856527209282,
            -0.014753265306353569,
            0.015727704390883446,
            -0.011413482017815113,
            -0.0008787031983956695,
            -0.029030265286564827,
            -0.025840364396572113,
            -0.01940697245299816,
            -0.02559262327849865
        ],
        [
            -0.0032033210154622793,
            -0.0077950055710971355,
            0.0023386662360280752,
            0.003367228200659156,
            0.0031471732072532177,
            -0.0006523148622363806,
            0.000568378483876586,
            -0.007233434356749058,
            0.0002697790914680809,
            -0.0005774461897090077,
            0.00108017073944211,
            0.005131253041327,
            0.0016388819785788655,
            0.0003927662328351289,
            -0.00288014835678041,
            -0.002786635886877775,
            0.007317555136978626,
            -0.0024320243392139673,
            0.002594396471977234,
            0.019417883828282356,
            0.002929557114839554,
            -0.008681212551891804,
            0.016766149550676346,
            -0.0030688007827848196,
            0.0020282319746911526,
            -0.003437354462221265,
            0.0019223151030018926,
            0.002456089947372675,
            0.015636103227734566,
            0.0019602898973971605,
            0.006627288646996021,
            0.0030664207879453897,
            0.11459151655435562,
            -0.0030595334246754646,
            -0.006682161707431078,
            -0.0007561151869595051,
            0.0012682805536314845,
            -0.010074484162032604,
            0.0034548314288258553,
            5.6546522131384336e-08,
            0.0015203701332211494,
            0.009102074429392815,
            4.4920630898559466e-05,
            -0.0012117733713239431,
            -0.015558715909719467,
            0.005423404276371002,
            0.005208494141697884,
            0.005125822965055704,
            -0.011577374301850796,
            -0.0059365397319197655,
            0.0018751733005046844,
            0.0002289505209773779,
            0.004933453164994717,
            -0.005887952633202076,
            0.001507275621406734,
            -0.004782137926667929,
            0.0031443736515939236,
            -0.005195495206862688,
            0.0029431567527353764,
            0.0012167136883363128,
            0.0016661793924868107,
            0.005540511105209589,
            0.0009183425572700799,
            0.004568910226225853
        ],
        [
            -0.03184519708156586,
            -0.03283451497554779,
            0.0003986694209743291,
            0.02336815930902958,
            0.02150498703122139,
            -0.01978888362646103,
            0.02209312468767166,
            -0.000679991499055177,
            0.00141037383582443,
            -0.0029242881573736668,
            0.016938403248786926,
            0.020169943571090698,
            0.0266503244638443,
            0.031339842826128006,
            -0.009045204147696495,
            -0.005055688787251711,
            0.021189795807003975,
            -0.017848508432507515,
            0.0008201163727790117,
            0.01472640410065651,
            0.0066950018517673016,
            -0.013207792304456234,
            0.011800287291407585,
            -0.009012117981910706,
            0.008597875945270061,
            -0.02081579901278019,
            0.024393605068325996,
            0.02008509263396263,
            0.02662738785147667,
            0.014024841599166393,
            0.011995107866823673,
            0.01166397612541914,
            0.013343583792448044,
            -0.01681451126933098,
            -0.02259897254407406,
            -0.007333224639296532,
            0.0008267080993391573,
            -0.014232682064175606,
            0.014567083679139614,
            6.786853390394754e-08,
            0.021090192720294,
            0.01621539331972599,
            0.0345909520983696,
            -0.019878681749105453,
            -0.01779281720519066,
            0.002608568174764514,
            0.007981346920132637,
            0.013296435587108135,
            -0.0023288202937692404,
            -0.009445540606975555,
            0.00614180089905858,
            0.020664310082793236,
            0.006723476108163595,
            -0.010529671795666218,
            0.0009957583388313651,
            -0.019667930901050568,
            0.03153691813349724,
            -0.026766590774059296,
            0.0015337306540459394,
            0.0009653401793912053,
            0.018003452569246292,
            0.012876396998763084,
            0.02426108904182911,
            0.008497251197695732
        ],
        [
            -0.036155689507722855,
            -0.0007622333941981196,
            0.0551481693983078,
            3.225205658097252e-09,
            0.014862073585391045,
            -0.009593882597982883,
            -1.8140692503720857e-08,
            -0.00032701794407330453,
            0.00045174529077485204,
            -0.0006038701394572854,
            -3.940010984138098e-09,
            0.052304789423942566,
            8.179867339030977e-10,
            2.6379654016750465e-09,
            -0.023592259734869003,
            1.473663178330753e-05,
            -2.72059402783853e-10,
            -0.01993505097925663,
            0.00635792501270771,
            0.26043447852134705,
            1.2700735574355804e-08,
            -6.221586357213482e-09,
            0.05716017633676529,
            -0.006782928481698036,
            0.006464887876063585,
            1.9418543217852857e-08,
            0.00248655304312706,
            1.8019540304337056e-09,
            0.09103488177061081,
            5.668348457277261e-09,
            1.4197415687533521e-08,
            0.0041243331506848335,
            0.03114287555217743,
            -1.3896921835510057e-08,
            -0.023295724764466286,
            -9.906528042336049e-09,
            0.0027962385211139917,
            -0.06030301749706268,
            0.02221076935529709,
            0.559453010559082,
            0.007336342241615057,
            -5.759917875991505e-09,
            0.06315815448760986,
            -1.9514359905770107e-08,
            0.06677393615245819,
            0.005769089329987764,
            4.303715073206149e-08,
            0.15903814136981964,
            -0.04545252025127411,
            3.3084944561778684e-08,
            0.021127140149474144,
            0.029358617961406708,
            0.2744368612766266,
            -0.05543297156691551,
            0.007820057682693005,
            -7.568979221161953e-09,
            0.02233203686773777,
            0.005947405472397804,
            0.041973453015089035,
            -0.3264259696006775,
            0.042527906596660614,
            -2.0166472936011814e-08,
            1.1110786957146956e-08,
            0.02874220907688141
        ],
        [
            0.025127986446022987,
            0.003456245642155409,
            -0.06525801122188568,
            -3.887007160585654e-09,
            -0.010321888141334057,
            0.009565779939293861,
            9.001497325300534e-09,
            0.0018328854348510504,
            -0.0004254707891959697,
            0.0005416726926341653,
            -6.28737595320672e-09,
            -0.061694011092185974,
            -2.344695104739003e-09,
            -6.528045215503653e-09,
            0.008216781541705132,
            2.302174806345647e-08,
            9.682056045789977e-09,
            0.01002469565719366,
            -0.0002842333051376045,
            -0.25112423300743103,
            -2.1969159824664075e-09,
            5.811311876158243e-09,
            -0.09217263758182526,
            0.005626808851957321,
            -0.0058819931000471115,
            1.1976598379703773e-08,
            -0.005912351422011852,
            8.511434224089953e-09,
            -0.07870377600193024,
            -0.008462952449917793,
            -1.4534509595875988e-08,
            -0.014042649418115616,
            -0.04213599115610123,
            1.8936281875880923e-08,
            0.02407320775091648,
            1.828455424401909e-05,
            -0.009567954577505589,
            0.05726087465882301,
            -2.576455138125766e-08,
            -0.5440914034843445,
            -0.00462531391531229,
            -7.379099997706362e-09,
            -0.08150472491979599,
            2.916722330326138e-08,
            -0.0920242890715599,
            -0.014814372174441814,
            -2.4240234708372554e-08,
            -0.07479383051395416,
            0.02218775451183319,
            -3.387541980259812e-08,
            -0.012627172283828259,
            -0.037022288888692856,
            -0.43696045875549316,
            0.023378334939479828,
            -0.008185692131519318,
            0.0012373008066788316,
            -0.1101474016904831,
            -0.013903515413403511,
            -0.04598251357674599,
            0.3202561140060425,
            -0.026879677549004555,
            2.501298901336213e-08,
            -4.280681409341014e-08,
            -0.001433084486052394
        ],
        [
            -0.011555816046893597,
            -0.01033723820000887,
            0.009734724648296833,
            0.03058825433254242,
            0.027084028348326683,
            -0.036485545337200165,
            0.009292366914451122,
            -0.008156847208738327,
            0.019658800214529037,
            -0.004366382025182247,
            0.008360756561160088,
            0.002641960745677352,
            0.028378801420331,
            0.022028926759958267,
            -0.012855337001383305,
            -0.028668196871876717,
            0.03109600953757763,
            -0.021522557362914085,
            0.03176203370094299,
            1.8200765907749883e-06,
            0.03166351839900017,
            -0.025754503905773163,
            0.01788315363228321,
            -0.00565341766923666,
            0.0013243048451840878,
            -0.0032845428213477135,
            0.022039687260985374,
            0.030898436903953552,
            0.022477608174085617,
            0.02654263935983181,
            0.02774113044142723,
            0.02725701779127121,
            0.003677134169265628,
            -0.006998301949352026,
            -0.016458136960864067,
            -0.04070822149515152,
            0.025489013642072678,
            -0.00020705130009446293,
            0.008317504078149796,
            1.0119466153923895e-08,
            0.028118057176470757,
            0.0075387354008853436,
            0.03046700358390808,
            -0.024946285411715508,
            -0.017012566328048706,
            0.032558053731918335,
            0.007627591956406832,
            0.010119171813130379,
            -0.010636662133038044,
            -0.021663913503289223,
            0.022929243743419647,
            0.001859635696746409,
            0.0032245609909296036,
            -0.010509020648896694,
            0.01787150464951992,
            -0.035629481077194214,
            0.011490344069898129,
            -0.006268973462283611,
            0.01658535748720169,
            0.004813291132450104,
            0.019947797060012817,
            0.02038709819316864,
            0.03149464353919029,
            0.0229231808334589
        ],
        [
            -0.027029022574424744,
            -0.013109205290675163,
            0.02906670607626438,
            0.021359605714678764,
            0.027106959372758865,
            -0.00658641941845417,
            0.022240495309233665,
            -0.012917058542370796,
            0.023896344006061554,
            -0.015798894688487053,
            0.027035783976316452,
            0.03324589878320694,
            0.024204028770327568,
            0.023568158969283104,
            -0.0014856079360470176,
            -0.022051412612199783,
            0.024766460061073303,
            -0.010790081694722176,
            0.02506512776017189,
            4.1322404285892844e-05,
            0.0065429480746388435,
            -0.007159143686294556,
            0.009429113008081913,
            -0.012397585436701775,
            0.024764657020568848,
            -0.026443343609571457,
            0.01749213971197605,
            0.010263502597808838,
            0.028254104778170586,
            0.007522365543991327,
            0.02095513977110386,
            0.023621007800102234,
            0.0034061481710523367,
            -0.0013555819168686867,
            -0.02278854511678219,
            -0.02511337772011757,
            0.022704239934682846,
            -0.012391502037644386,
            0.020890753716230392,
            3.686556482307424e-08,
            0.016661928966641426,
            0.008117328397929668,
            0.03662119805812836,
            -0.007094149943441153,
            -0.01740250550210476,
            0.030782008543610573,
            0.00781921949237585,
            0.004068797454237938,
            -0.025134017691016197,
            -0.02702217549085617,
            0.026570942252874374,
            0.02630743943154812,
            0.003294978756457567,
            -0.017321839928627014,
            0.0014217962743714452,
            -0.022801097482442856,
            0.031332891434431076,
            -0.007260998245328665,
            0.018126826733350754,
            0.0008706040680408478,
            0.0005758191691711545,
            0.007405368145555258,
            0.023200377821922302,
            0.009965181350708008
        ],
        [
            -0.0205648485571146,
            -0.025326568633317947,
            0.01454162783920765,
            0.027492716908454895,
            0.01850319281220436,
            -0.019017286598682404,
            0.011413617990911007,
            -0.029166661202907562,
            0.0206022709608078,
            -0.011793956160545349,
            0.012646045535802841,
            0.02854006364941597,
            0.008747665211558342,
            0.0023525957949459553,
            -0.025150321424007416,
            -0.021319687366485596,
            0.018466392531991005,
            -0.025684310123324394,
            0.025379041209816933,
            0.001313521875999868,
            0.02077997662127018,
            -0.020153019577264786,
            0.007039679680019617,
            -0.0013674538349732757,
            0.027769995853304863,
            -0.024811940267682076,
            0.009135531261563301,
            0.016189472749829292,
            0.011133044958114624,
            0.02278912253677845,
            0.01800495944917202,
            0.026392487809062004,
            0.003951109945774078,
            -0.018824275583028793,
            -0.021347399801015854,
            -0.018057625740766525,
            0.017781276255846024,
            -0.010412052273750305,
            0.008609293028712273,
            2.6579411951388465e-06,
            0.009592516347765923,
            0.007552752271294594,
            0.014256947673857212,
            -0.01382300816476345,
            -0.017819078639149666,
            0.02624146081507206,
            0.018728729337453842,
            0.011280326172709465,
            -0.025376535952091217,
            -0.02415640279650688,
            0.02062252350151539,
            0.029544269666075706,
            0.008454548195004463,
            -0.024404218420386314,
            0.020907236263155937,
            -0.026531174778938293,
            0.018906936049461365,
            -0.02802898734807968,
            0.022186322137713432,
            0.0033792818430811167,
            0.0322662815451622,
            0.024242639541625977,
            0.007974020205438137,
            0.0059510585851967335
        ],
        [
            -0.016649937257170677,
            -0.017889603972434998,
            0.014016196131706238,
            0.006536599714308977,
            0.024639861658215523,
            -0.024415209889411926,
            0.009126124903559685,
            -0.02427319809794426,
            0.038538556545972824,
            -0.04684415087103844,
            0.0010407062945887446,
            0.01011117547750473,
            0.00856237392872572,
            0.0027325714472681284,
            -0.014355447143316269,
            -0.007166772615164518,
            0.016808537766337395,
            -0.022903230041265488,
            0.017308665439486504,
            8.531721687177196e-05,
            0.0064629758708179,
            -0.019015606492757797,
            0.01959361881017685,
            -0.020952263846993446,
            0.02284936048090458,
            -0.02235408127307892,
            0.008564717136323452,
            0.0005838404758833349,
            0.022322246804833412,
            0.029692770913243294,
            0.0175273809581995,
            0.03133196383714676,
            0.06077909842133522,
            -0.007402676157653332,
            -0.013730732724070549,
            -0.024570781737565994,
            0.0006602727225981653,
            -0.018207181245088577,
            0.024478400126099586,
            1.6094643342512427e-06,
            0.0011142955627292395,
            0.0071593234315514565,
            2.6269364752806723e-05,
            -0.019722379744052887,
            -0.013822888024151325,
            0.010587694123387337,
            0.020803578197956085,
            0.005335801746696234,
            -0.021159721538424492,
            -0.002430437598377466,
            0.024839917197823524,
            0.017575813457369804,
            0.003729724558070302,
            -0.03250414505600929,
            0.021491874009370804,
            -0.0070637487806379795,
            0.012811689637601376,
            -0.023648491129279137,
            0.001601284253410995,
            -0.001973208272829652,
            0.007592872716486454,
            0.02457410842180252,
            0.007667263504117727,
            0.0012733362382277846
        ],
        [
            -0.010820435360074043,
            -0.0441955104470253,
            0.008634478785097599,
            0.006826840806752443,
            0.015147218480706215,
            -0.006195949390530586,
            0.025436416268348694,
            -0.030348679050803185,
            0.020795758813619614,
            -0.009507281705737114,
            0.022491848096251488,
            0.00736476993188262,
            0.00877822283655405,
            0.009457246400415897,
            -0.026195278391242027,
            -0.0372190847992897,
            0.022991644218564034,
            -0.027057712897658348,
            0.03416665270924568,
            0.033825382590293884,
            0.02929837256669998,
            -0.01809946447610855,
            0.0017493425402790308,
            -0.03388592600822449,
            0.009037169627845287,
            -0.027995267882943153,
            0.022052178159356117,
            0.02034120261669159,
            0.0005322132492437959,
            0.022839941084384918,
            0.030802352353930473,
            0.007819249294698238,
            0.01324761938303709,
            -0.027988867834210396,
            -0.01712237484753132,
            -0.027466891333460808,
            0.030124276876449585,
            -0.02337642014026642,
            0.009055588394403458,
            -1.6018086057556502e-07,
            0.031082462519407272,
            0.02267441339790821,
            0.00882068369537592,
            -0.026305895298719406,
            -0.01672442816197872,
            0.013415146619081497,
            0.009794543497264385,
            0.02174455299973488,
            -0.009030042216181755,
            -0.007037473376840353,
            0.020545339211821556,
            0.016536589711904526,
            0.008131878450512886,
            -0.010427276603877544,
            0.027866020798683167,
            -0.01494970265775919,
            0.01916653849184513,
            -0.033032044768333435,
            0.034622106701135635,
            0.004352088551968336,
            0.04184899106621742,
            0.03103136457502842,
            0.025650369003415108,
            0.028793491423130035
        ],
        [
            0.006428285967558622,
            0.03417200595140457,
            -0.0008983741863630712,
            -0.02098243124783039,
            -0.031221233308315277,
            0.012782763689756393,
            -0.02165464498102665,
            0.021983304992318153,
            -0.03581037372350693,
            0.037860821932554245,
            -0.02387438900768757,
            -0.021507978439331055,
            -0.02314103953540325,
            -0.022962050512433052,
            0.0022374438121914864,
            0.008015519008040428,
            -0.02010960876941681,
            0.028291096910834312,
            -0.001765816006809473,
            -0.008614037185907364,
            -0.0076091475784778595,
            0.005821313709020615,
            -0.01788584142923355,
            0.03656889125704765,
            -0.02673235908150673,
            0.00170216616243124,
            -0.028603384271264076,
            -0.020092414692044258,
            -0.0006275363266468048,
            -0.007064563687890768,
            -0.022701619192957878,
            -0.02928701788187027,
            -0.059884510934352875,
            0.008047094568610191,
            0.005206133238971233,
            0.026422196999192238,
            -0.012372137047350407,
            0.009474637918174267,
            -0.007477473001927137,
            3.4677814397809925e-08,
            -0.031238937750458717,
            -0.014356093481183052,
            -0.018406927585601807,
            0.02407713606953621,
            0.009207049384713173,
            -0.023075157776474953,
            -0.02647022157907486,
            -0.0015341828111559153,
            0.0008440007222816348,
            0.028922852128744125,
            -0.023673316463828087,
            -0.009080412797629833,
            -0.0060283527709543705,
            0.0047857011668384075,
            -0.02097073756158352,
            0.019903548061847687,
            -0.003640571143478155,
            0.026351135224103928,
            -0.025038059800863266,
            -0.027591940015554428,
            -0.018978752195835114,
            -0.022095633670687675,
            -0.021050408482551575,
            -0.024154869839549065
        ],
        [
            -0.032384034246206284,
            -0.00936756283044815,
            0.009070252999663353,
            0.030471321195364,
            0.024041563272476196,
            -0.019766688346862793,
            0.030863981693983078,
            -0.026572884991765022,
            0.030081799253821373,
            -0.02870914712548256,
            0.026839515194296837,
            0.0008471445762552321,
            0.02836715243756771,
            0.012026770040392876,
            -0.01685081236064434,
            -0.007102654315531254,
            0.019192397594451904,
            -0.024308785796165466,
            0.0212407186627388,
            0.018869196996092796,
            0.02511679008603096,
            -0.02194049581885338,
            0.014549939893186092,
            -0.024829793721437454,
            0.030895723029971123,
            -0.007678639609366655,
            0.025266233831644058,
            0.007085814140737057,
            0.0299284216016531,
            0.020831668749451637,
            0.026693690568208694,
            0.03174092248082161,
            0.014065496623516083,
            -0.02289450727403164,
            -0.017418624833226204,
            -0.026066211983561516,
            0.02466735802590847,
            -0.0310086440294981,
            0.021934954449534416,
            5.069029285209581e-08,
            0.017290590330958366,
            0.025237880647182465,
            0.005051197949796915,
            -0.028599241748452187,
            -0.014386373572051525,
            0.0316123366355896,
            0.01977977342903614,
            0.012173241004347801,
            -0.023751094937324524,
            -0.03043827973306179,
            0.028079690411686897,
            0.011407165788114071,
            0.003551929024979472,
            -0.029827570542693138,
            0.016176706179976463,
            -0.00835166871547699,
            0.027775799855589867,
            -0.016925660893321037,
            0.010835977271199226,
            0.0007755163824185729,
            0.02104412391781807,
            0.012399109080433846,
            0.0193711519241333,
            0.017105894163250923
        ],
        [
            -0.0164788831025362,
            -0.01320892758667469,
            0.028653129935264587,
            0.020176777616143227,
            0.028508320450782776,
            -0.02097127214074135,
            0.008906109258532524,
            -0.02469862625002861,
            0.0013155933702364564,
            -0.00494070490822196,
            0.001644817995838821,
            0.018708817660808563,
            0.020116278901696205,
            0.017633287236094475,
            -0.026309281587600708,
            -0.0007809531525708735,
            0.015665603801608086,
            -0.011826123110949993,
            0.026925116777420044,
            0.00689424853771925,
            0.018790334463119507,
            -0.007144904229789972,
            0.019150804728269577,
            -0.016055656597018242,
            0.027575647458434105,
            -0.02542710304260254,
            0.009205724112689495,
            0.027136610820889473,
            0.016733210533857346,
            0.027688831090927124,
            0.01673588901758194,
            0.00846061296761036,
            0.0632857084274292,
            -0.0006668682908639312,
            -0.02535628154873848,
            -0.025693979114294052,
            0.01904512569308281,
            -0.025348452851176262,
            0.026672370731830597,
            6.503118044065559e-08,
            0.02103608101606369,
            0.026875939220190048,
            0.024866772815585136,
            -0.02261345088481903,
            -0.014344881288707256,
            0.027995049953460693,
            0.008316497318446636,
            0.034559715539216995,
            -0.020327959209680557,
            -0.02172885835170746,
            0.00783461518585682,
            0.01817607507109642,
            0.004969396628439426,
            -0.0074035548605024815,
            0.025943081825971603,
            -0.02348933555185795,
            0.03805013373494148,
            -0.020890038460493088,
            0.02215895988047123,
            0.0033222902566194534,
            0.018992330878973007,
            0.019260676577687263,
            0.02314508892595768,
            0.01907634176313877
        ],
        [
            0.010969673283398151,
            0.00211920659057796,
            -0.010066819377243519,
            -0.025433700531721115,
            -0.03002239018678665,
            0.005434023682028055,
            -0.010093552060425282,
            0.0015672658337280154,
            -0.012504895217716694,
            0.00826379656791687,
            -0.018302110955119133,
            -0.010426635853946209,
            -0.002066431799903512,
            -0.0014010741142556071,
            0.035649124532938004,
            0.006776171736419201,
            -0.03292866796255112,
            0.001883125863969326,
            -0.033571984618902206,
            -0.033756740391254425,
            -0.03315620869398117,
            0.024248333647847176,
            -0.016043072566390038,
            0.004769015591591597,
            -0.029775403439998627,
            0.007990540936589241,
            -0.014636124484241009,
            -0.004611636977642775,
            -0.0010311838705092669,
            -0.03796553611755371,
            -0.004550620913505554,
            -0.002200020244345069,
            -0.00422799913212657,
            0.021291058510541916,
            0.017203858122229576,
            0.006909081246703863,
            -0.007301036734133959,
            0.035819631069898605,
            -0.007700749207288027,
            -7.238726993819e-06,
            -0.03049425594508648,
            -0.016083236783742905,
            -0.004758988507091999,
            0.036194704473018646,
            0.014746040105819702,
            -0.0026511652395129204,
            -0.02990136854350567,
            -0.006420848425477743,
            0.02905341610312462,
            0.028483066707849503,
            -0.002033877419307828,
            -0.01107055228203535,
            -0.005218955222517252,
            0.002479563932865858,
            -0.02419382520020008,
            0.01901979371905327,
            -0.0026813000440597534,
            0.0034387719351798296,
            -0.016122089698910713,
            -0.0024483331944793463,
            -0.0047632791101932526,
            -0.014842718839645386,
            -0.032545823603868484,
            -0.010215682908892632
        ],
        [
            0.003160048509016633,
            0.0064730397425591946,
            -0.005814702715724707,
            -0.004501905757933855,
            -0.007907823659479618,
            0.006154994014650583,
            -0.007185458671301603,
            0.000860801141243428,
            -0.00697338255122304,
            0.006986677180975676,
            -0.0028933819849044085,
            -0.0011438621440902352,
            -0.006359104998409748,
            -0.016228416934609413,
            0.006457355804741383,
            0.0010157134383916855,
            -0.02415064163506031,
            0.01682407595217228,
            -0.007193209137767553,
            -0.00010295669198967516,
            -0.00114241405390203,
            0.020885685458779335,
            -0.01732279732823372,
            0.0025735541712492704,
            -0.008069590665400028,
            0.00256037968210876,
            -0.004500009119510651,
            -0.00349976122379303,
            -0.019502639770507812,
            -0.0007311023073270917,
            -0.0014772294089198112,
            -0.002777302172034979,
            -0.007936511188745499,
            0.006985915824770927,
            0.015304261818528175,
            0.002776065841317177,
            -0.0023040527012199163,
            0.002702123951166868,
            -0.0015616462333127856,
            -2.1047464215939726e-08,
            -0.0018570845713838935,
            -0.0029647715855389833,
            -3.48026369465515e-05,
            0.0007727802149020135,
            0.013376796618103981,
            -0.01631028763949871,
            -0.0030660054180771112,
            -0.000123206787975505,
            0.0024933877866715193,
            0.0054265824146568775,
            -0.0017468275036662817,
            -0.009093016386032104,
            -0.003961167298257351,
            0.0042084152810275555,
            -0.004530796315521002,
            0.004401073325425386,
            -0.003318034578114748,
            0.007998565211892128,
            -0.01747305318713188,
            0.03697523847222328,
            -0.004159186966717243,
            -0.0004282368754502386,
            -0.0016968973213806748,
            -0.005301639903336763
        ],
        [
            0.010792682878673077,
            0.007090494967997074,
            -0.007440943270921707,
            -0.002850963268429041,
            -0.022169088944792747,
            0.007015709765255451,
            -0.0011178546119481325,
            0.008824805729091167,
            -0.0037293080240488052,
            0.0006648750277236104,
            -0.02488631196320057,
            -0.031248901039361954,
            -0.006432359106838703,
            -0.014468799345195293,
            0.009109687991440296,
            0.0346340648829937,
            -0.03106624446809292,
            0.022294366732239723,
            -0.018385613337159157,
            -0.05393519252538681,
            -0.03546876087784767,
            0.006932709366083145,
            -0.013698156923055649,
            0.0012728881556540728,
            -0.023526005446910858,
            0.03245905414223671,
            -0.00119663099758327,
            -0.025524264201521873,
            -0.010848402976989746,
            -0.0010105231776833534,
            -0.016666099429130554,
            -0.007326243445277214,
            -0.010028056800365448,
            0.029030947014689445,
            0.02089766599237919,
            0.008127233944833279,
            -0.031940996646881104,
            0.006583189591765404,
            -0.0090712895616889,
            -5.216337584101893e-08,
            -0.01944710500538349,
            -0.04283114895224571,
            -0.005051133688539267,
            0.029408777132630348,
            0.016187578439712524,
            -0.010848967358469963,
            -0.012485000304877758,
            -0.04040952026844025,
            0.035745345056056976,
            0.024826636537909508,
            -0.007575246039777994,
            -0.0165741927921772,
            -0.007656068075448275,
            0.006823886651545763,
            -0.023788252845406532,
            0.029913650825619698,
            -0.011724715121090412,
            0.006650261580944061,
            -0.03688543289899826,
            0.003822453087195754,
            -0.044766154140233994,
            -0.0010185274295508862,
            -0.00725276255980134,
            -0.01746274158358574
        ],
        [
            0.028656775131821632,
            0.03095332160592079,
            -0.01002176571637392,
            -0.022752946242690086,
            -0.002170827705413103,
            0.01985177956521511,
            -0.009285750798881054,
            0.010700192302465439,
            -0.002008604584261775,
            0.029486287385225296,
            -0.0259076040238142,
            -0.001412427518516779,
            -0.02584770694375038,
            -0.031093576923012733,
            0.0010871459962800145,
            0.020512176677584648,
            -0.02637616917490959,
            0.01066454779356718,
            -0.0237251166254282,
            -2.15380441659363e-05,
            -0.026184799149632454,
