{
    "num_node": 32,
    "num_input": 11,
    "mean": [
        5306.099923387076,
        0.06843502352432382,
        0.021526756500782084,
        0.006046299458825128,
        7.558791165748858e-06,
        0.4375468915761037,
        3.8086225210178393,
        0.2892375895496089,
        3.6126489261161376,
        9.40731489178212,
        11.587969673717721
    ],
    "std": [
        20.401945033068255,
        5.868858783210631,
        17.046005227316602,
        0.2133420856736022,
        0.0026479406327148632,
        0.41238493019597044,
        0.7015371090201692,
        0.5687745295816539,
        0.7058762785973176,
        3.1492228585057647,
        0.6320461376659438
    ],
    "weights1": [
        [
            -0.07579944282770157,
            1.5740916728973389,
            0.015847232192754745,
            0.4553179144859314,
            0.06707586348056793,
            -0.005567203741520643,
            -0.6408764123916626,
            0.10227161645889282,
            0.06908383965492249,
            -0.09371697902679443,
            -0.05391605570912361
        ],
        [
            -0.027664806693792343,
            0.5085939168930054,
            -0.07449011504650116,
            0.884152889251709,
            -0.005897304508835077,
            0.002161515410989523,
            0.021567221730947495,
            3.439310312271118,
            -1.4358668327331543,
            -0.01125338301062584,
            0.0015486337943002582
        ],
        [
            0.145646870136261,
            -0.3215010464191437,
            -0.06619461625814438,
            0.05521649867296219,
            0.1064041256904602,
            -0.4628676474094391,
            -1.3396295309066772,
            -0.05996621400117874,
            -0.049507733434438705,
            -0.05605681613087654,
            -0.04826755449175835
        ],
        [
            -0.7754964232444763,
            0.694124162197113,
            -0.046030327677726746,
            -1.0516053438186646,
            0.04680173099040985,
            0.004708379972726107,
            -0.2359742522239685,
            -0.05425674095749855,
            -0.00626825075596571,
            0.044416073709726334,
            -0.05090581998229027
        ],
        [
            -1.2126002311706543,
            -0.09086651355028152,
            0.06881336867809296,
            2.653654098510742,
            0.10543818026781082,
            -0.032922666519880295,
            -0.002763406839221716,
            0.015141874551773071,
            0.03165687248110771,
            0.0416620597243309,
            0.4299600422382355
        ],
        [
            0.7341000437736511,
            -0.01698852702975273,
            -2.131868362426758,
            0.08418575674295425,
            -1.7455002069473267,
            -0.031129715964198112,
            0.5541691184043884,
            0.06466229259967804,
            -0.05041167885065079,
            0.06432545185089111,
            0.2288491576910019
        ],
        [
            0.462131530046463,
            -0.020314358174800873,
            -0.4870542287826538,
            -0.03429560735821724,
            0.6230279207229614,
            0.022785715758800507,
            -1.2950886487960815,
            0.11602552980184555,
            -0.029455993324518204,
            -0.22813643515110016,
            0.07592015713453293
        ],
        [
            -0.3855496048927307,
            -0.0651281550526619,
            -0.04650382325053215,
            -0.008595098741352558,
            -0.06923845410346985,
            -0.14324654638767242,
            -0.6621021032333374,
            0.03350869193673134,
            -0.057965632528066635,
            0.5275178551673889,
            -0.06498420238494873
        ],
        [
            -0.6064443588256836,
            -0.19760477542877197,
            0.05632172152400017,
            2.1122093200683594,
            0.06658907234668732,
            -0.1606958508491516,
            0.4619925320148468,
            0.043657027184963226,
            0.051724959164857864,
            -0.09730037301778793,
            0.023943062871694565
        ],
        [
            0.6222614645957947,
            0.07158660143613815,
            -0.7905954122543335,
            1.71012282371521,
            1.0621135234832764,
            -0.08830515295267105,
            -0.8488337397575378,
            -0.1015683114528656,
            -0.05581529065966606,
            0.27019357681274414,
            0.019827205687761307
        ],
        [
            -0.5902736186981201,
            0.05807245522737503,
            1.3257768154144287,
            -0.03999302536249161,
            0.46274644136428833,
            0.14119639992713928,
            0.3902878761291504,
            -0.03658405691385269,
            0.09934064745903015,
            -0.04034561663866043,
            -0.15528753399848938
        ],
        [
            -0.11599448323249817,
            0.04229661449790001,
            1.8935658931732178,
            0.0007179866661317647,
            -0.44067201018333435,
            0.39046549797058105,
            -0.5367017984390259,
            -0.03162549063563347,
            0.024001644924283028,
            -0.0917951837182045,
            -0.14339180290699005
        ],
        [
            -0.36680853366851807,
            0.019993573427200317,
            -0.0284475926309824,
            -0.06423972547054291,
            -0.06489566713571548,
            0.1476414054632187,
            -0.9853598475456238,
            -0.25702163577079773,
            1.1994519233703613,
            -0.5335521697998047,
            -0.03405516967177391
        ],
        [
            -0.03914688155055046,
            -0.8548853993415833,
            -0.04187549278140068,
            -0.04088146984577179,
            -0.09151703119277954,
            0.08008516579866409,
            0.22172272205352783,
            -0.005449718330055475,
            0.025017766281962395,
            0.030910830944776535,
            -0.13879558444023132
        ],
        [
            0.02516843192279339,
            1.0084607601165771,
            0.049765054136514664,
            0.5281087160110474,
            0.0724203884601593,
            -0.1945461928844452,
            0.6844213604927063,
            -0.04642163962125778,
            -0.11482091248035431,
            0.22683601081371307,
            -0.01856076344847679
        ],
        [
            -0.332138329744339,
            -0.370370090007782,
            0.6059415340423584,
            1.591883659362793,
            -0.7269263863563538,
            0.1287698596715927,
            0.44619253277778625,
            -0.06823435425758362,
            -0.00525104533880949,
            0.07416665554046631,
            0.024927077814936638
        ],
        [
            -0.8411584496498108,
            1.5574885606765747,
            0.051486119627952576,
            0.5071170926094055,
            0.08558251708745956,
            0.015693599358201027,
            0.2996951639652252,
            0.004991707392036915,
            -0.09512173384428024,
            -0.02713840641081333,
            0.08059050142765045
        ],
        [
            -0.07448413223028183,
            0.5517241358757019,
            -0.3119654357433319,
            0.7632588744163513,
            -0.14724601805210114,
            0.007185391616076231,
            -0.09659083187580109,
            -0.5886719822883606,
            1.3097245693206787,
            0.06267201155424118,
            0.030554797500371933
        ],
        [
            0.17546863853931427,
            1.6382980346679688,
            0.12429877370595932,
            2.005276918411255,
            -0.03798592835664749,
            -0.30618929862976074,
            0.9913874864578247,
            -0.014267954975366592,
            -0.18655894696712494,
            0.007036079652607441,
            0.00734280189499259
        ],
        [
            -0.7845045328140259,
            -0.11930263787508011,
            0.05429361015558243,
            -0.07008592784404755,
            -0.0050298855639994144,
            -0.3468762934207916,
            -0.1940324306488037,
            0.015042043291032314,
            0.0011207821080461144,
            0.19428446888923645,
            0.08410761505365372
        ],
        [
            -0.22152647376060486,
            0.23270224034786224,
            -0.06526035815477371,
            -0.060364242643117905,
            0.010344203561544418,
            0.10017156600952148,
            -1.7342298030853271,
            -0.04258850961923599,
            -0.02105139009654522,
            -0.9298163056373596,
            0.00027508236235007644
        ],
        [
            0.15012125670909882,
            -0.3214817941188812,
            0.08843056112527847,
            -0.39850810170173645,
            0.04597318917512894,
            0.058512382209300995,
            -0.2551072835922241,
            -0.7605240941047668,
            1.6160584688186646,
            0.0866498202085495,
            -0.012031348422169685
        ],
        [
            0.21526452898979187,
            0.2555246353149414,
            -1.2326655387878418,
            0.004259586334228516,
            -1.4612715244293213,
            0.28688305616378784,
            -0.4279659688472748,
            -0.07361587136983871,
            -0.025894442573189735,
            -0.1304561197757721,
            -0.6500833630561829
        ],
        [
            0.05819369852542877,
            -0.21434971690177917,
            0.01664314977824688,
            -0.31825780868530273,
            -0.007980240508913994,
            -0.022651003673672676,
            -0.018955707550048828,
            -1.971134901046753,
            0.7639505863189697,
            0.007810113485902548,
            0.006652986165136099
        ],
        [
            0.45661699771881104,
            0.07712039351463318,
            1.9073325395584106,
            -0.0657486543059349,
            1.4661035537719727,
            0.03641402721405029,
            0.4907199740409851,
            0.023890402168035507,
            -0.05911525711417198,
            0.025207998231053352,
            -0.015546124428510666
        ],
        [
            -0.9810031652450562,
            2.5852396488189697,
            0.049637049436569214,
            0.7143224477767944,
            0.11632242053747177,
            0.22992880642414093,
            -0.26221203804016113,
            0.027512412518262863,
            -0.024365544319152832,
            0.0156897883862257,
            -0.06557180732488632
        ],
        [
            0.07112548500299454,
            1.3472235202789307,
            0.12205863744020462,
            -0.8743074536323547,
            0.03410501778125763,
            -0.2242712378501892,
            0.6784602403640747,
            -0.02597891166806221,
            0.052990879863500595,
            0.09772628545761108,
            0.0949171632528305
        ],
        [
            -0.2899889349937439,
            -2.068621873855591,
            -0.1410955935716629,
            -2.3934483528137207,
            0.014605371281504631,
            0.35401996970176697,
            -0.9536285400390625,
            -0.01024937815964222,
            0.20254559814929962,
            -0.014821881428360939,
            -0.031426943838596344
        ],
        [
            -0.14908409118652344,
            -0.05953686311841011,
            -0.8854408264160156,
            0.064458929002285,
            -1.121624231338501,
            0.056008175015449524,
            -0.12650999426841736,
            0.03749455139040947,
            -0.13525745272636414,
            -0.02677754871547222,
            0.300448477268219
        ],
        [
            0.4514084458351135,
            -0.0204972792416811,
            -0.004479725379496813,
            -0.015492180362343788,
            0.005649995990097523,
            -0.008304771967232227,
            -0.12999661266803741,
            4.341592311859131,
            -1.7155025005340576,
            -0.11816804111003876,
            -0.00874829851090908
        ],
        [
            0.08359312266111374,
            0.02962482161819935,
            -0.02374557964503765,
            0.07163217663764954,
            -0.008479242213070393,
            0.04181554540991783,
            0.09398169070482254,
            -4.872366905212402,
            0.9918673038482666,
            0.08405302464962006,
            0.001687428099103272
        ],
        [
            -0.3405406177043915,
            -0.0034783021546900272,
            -2.27815580368042,
            0.031592343002557755,
            -0.30185407400131226,
            0.5357903838157654,
            -0.6556501388549805,
            -0.04664178565144539,
            0.09345180541276932,
            -0.1405300348997116,
            -0.33981558680534363
        ]
    ],
    "bias1": [
        -1.0125499963760376,
        2.4909563064575195,
        -0.009799681603908539,
        -1.1616407632827759,
        -2.737349510192871,
        -1.0021055936813354,
        2.050797700881958,
        1.7423505783081055,
        -1.633279800415039,
        -0.5445817708969116,
        -0.030684327706694603,
        0.6334912180900574,
        -0.0361705981194973,
        1.6492551565170288,
        1.314550757408142,
        0.25585439801216125,
        0.3470729887485504,
        -0.38369220495224,
        -0.7397207021713257,
        0.4485401511192322,
        0.8189447522163391,
        -0.3667968511581421,
        0.21095862984657288,
        -1.0353524684906006,
        -0.9396812915802002,
        -0.15963949263095856,
        -0.989983856678009,
        0.9034436941146851,
        1.6579878330230713,
        3.2163772583007812,
        -2.7578847408294678,
        0.7084189653396606
    ],
    "weights2": [
        -0.6389802694320679,
        2.369373083114624,
        -0.533064603805542,
        -0.9986461997032166,
        -1.0455378293991089,
        0.8418620228767395,
        -0.7814759016036987,
        -0.7040814757347107,
        1.1942176818847656,
        0.4276169240474701,
        -0.4811728298664093,
        -0.5767256617546082,
        -0.49511849880218506,
        -0.9462562799453735,
        -0.597662627696991,
        0.6314057111740112,
        -0.44943180680274963,
        -0.374194860458374,
        -1.1398228406906128,
        -0.4571397304534912,
        0.578631579875946,
        -0.6826381087303162,
        0.38350629806518555,
        -2.7647643089294434,
        1.0869754552841187,
        0.8993475437164307,
        1.1284102201461792,
        1.3078279495239258,
        -0.6156865954399109,
        -1.8621853590011597,
        3.1928813457489014,
        -0.38668230175971985
    ],
    "bias2": 2.4725594520568848
}