{
    "num_node": 8,
    "num_input": 10,
    "mean": [
        13.091467541130712,
        906.9710974025236,
        16.45721267824157,
        743.2808686954894,
        377.05908448177405,
        0.16854499629631198,
        0.03980425350538101,
        909.4739059123403,
        0.30298444046375284,
        2.6646877229373507
    ],
    "std": [
        17.56064786170928,
        590.4253390018779,
        18.747828399501604,
        584.2717483278783,
        412.9543348445954,
        0.11716779573615431,
        0.04324133328585222,
        615.9561477624667,
        0.3232024473841118,
        0.7429926411524989
    ],
    "weights1": [
        [
            0.001169019378721714,
            -2.0786707401275635,
            -0.0012514183763414621,
            -2.0248875617980957,
            -0.03411027044057846,
            3.848698616027832,
            0.05941189453005791,
            -0.03428053855895996,
            -0.028506333008408546,
            -0.01116239558905363
        ],
        [
            -0.0002542932634241879,
            -0.36116454005241394,
            0.005951232742518187,
            -0.5964321494102478,
            2.18613862991333,
            0.7034667134284973,
            0.22405000030994415,
            -3.493229389190674,
            -0.05084669589996338,
            0.1691598892211914
        ],
        [
            0.0015430743806064129,
            -0.21587350964546204,
            0.1343349665403366,
            0.48002198338508606,
            2.1122074127197266,
            0.018640361726284027,
            -2.5787875652313232,
            0.007860898971557617,
            0.680680513381958,
            -0.04715678468346596
        ],
        [
            0.06072183698415756,
            0.29785168170928955,
            0.25956544280052185,
            -0.09579095244407654,
            4.671794414520264,
            0.5540313720703125,
            -3.9173905849456787,
            -0.3202154338359833,
            0.13917413353919983,
            0.2252080887556076
        ],
        [
            0.04935099184513092,
            -0.4788057804107666,
            0.12916278839111328,
            1.2769960165023804,
            -2.005284309387207,
            -1.34852933883667,
            -0.019202524796128273,
            2.854379892349243,
            -0.30942845344543457,
            -0.3053705096244812
        ],
        [
            -0.22704856097698212,
            0.074251689016819,
            -0.1732753962278366,
            0.17337973415851593,
            2.624523162841797,
            -0.28856733441352844,
            -2.585688829421997,
            -0.10896741598844528,
            0.009105890057981014,
            -0.09708952158689499
        ],
        [
            0.3224533498287201,
            -0.08533553034067154,
            -0.2743486762046814,
            -0.052193112671375275,
            2.244568109512329,
            -0.008292215876281261,
            -2.2003564834594727,
            0.04988903924822807,
            -0.04513038694858551,
            0.055502261966466904
        ],
        [
            -0.2884163558483124,
            0.18152016401290894,
            0.07052351534366608,
            1.3489058017730713,
            0.6458489298820496,
            0.01651831530034542,
            -0.6985976099967957,
            -1.4149155616760254,
            1.0568046569824219,
            0.008010491728782654
        ]
    ],
    "bias1": [
        -0.18349039554595947,
        -3.046841621398926,
        0.3090658485889435,
        -0.9089447259902954,
        2.4371249675750732,
        0.3551439344882965,
        0.40328162908554077,
        4.607880592346191
    ],
    "weights2": [
        -33.66016387939453,
        -6.93060827255249,
        5.284303665161133,
        -1.8422114849090576,
        -1.2628158330917358,
        -3.784834146499634,
        -2.3405370712280273,
        -3.834437131881714
    ],
    "bias2": 18.065702438354492
}