{
    "num_node": 32,
    "num_input": 10,
    "mean": [
        5303.261184806592,
        0.06331607690841942,
        0.08694096501203535,
        -2.6285766532609918e-05,
        -2.975883911838187e-06,
        -1.366678451267714,
        3.6863031125549797,
        11.537891139429846,
        -2.8643836336279103,
        3.8483187060816633
    ],
    "std": [
        21.541334665064454,
        6.688233591951106,
        19.929903512660363,
        0.2077130194857653,
        0.0033829424156962646,
        1.2886569520432947,
        0.7692331441135835,
        0.6720158151341467,
        2.0408247291591626,
        0.4069507243805804
    ],
    "weights1": [
        [
            -0.12457217276096344,
            0.785194993019104,
            -0.1649104207754135,
            0.6635870337486267,
            -0.021766608580946922,
            0.125168576836586,
            -1.1602325439453125,
            -0.11760000139474869,
            0.0899679884314537,
            -0.2545310854911804
        ],
        [
            0.12249571830034256,
            -0.2316572219133377,
            -0.9623063206672668,
            -0.9001385569572449,
            -0.45710641145706177,
            0.04387529939413071,
            -0.5914188623428345,
            -0.003001703880727291,
            -0.8258421421051025,
            0.05035212263464928
        ],
        [
            0.18011260032653809,
            -0.6325157880783081,
            0.9764489531517029,
            -1.600100040435791,
            0.38101282715797424,
            0.2219952791929245,
            -0.995262861251831,
            -0.048351358622312546,
            -1.726507306098938,
            -0.15243582427501678
        ],
        [
            -0.10803712904453278,
            0.6159345507621765,
            0.8391883373260498,
            -0.3832603693008423,
            0.6923441290855408,
            -0.04096190631389618,
            -0.7803083658218384,
            -0.0019545326940715313,
            -0.19802384078502655,
            -0.08278592675924301
        ],
        [
            0.8111019134521484,
            0.044851601123809814,
            0.12831231951713562,
            0.12394095212221146,
            -1.0369155406951904,
            0.2339697629213333,
            -0.8739250302314758,
            0.015557829290628433,
            0.22698402404785156,
            -0.04947216808795929
        ],
        [
            -1.5467023849487305,
            -0.8818989992141724,
            -0.3650892674922943,
            -0.2804811894893646,
            0.01750778965651989,
            0.6826022267341614,
            -0.9900180697441101,
            -0.014814851805567741,
            -0.02074315771460533,
            -0.048387426882982254
        ],
        [
            -0.9214442372322083,
            -0.11882589757442474,
            -0.22076936066150665,
            0.031805697828531265,
            -0.15290401875972748,
            -0.10793989896774292,
            -1.072846531867981,
            0.45909377932548523,
            -0.02809920720756054,
            -0.24392561614513397
        ],
        [
            0.6852415800094604,
            0.36490198969841003,
            0.613017201423645,
            0.21380814909934998,
            -0.005613837856799364,
            0.31844785809516907,
            -1.3091521263122559,
            0.0905958041548729,
            -0.7029989957809448,
            -0.04152537137269974
        ],
        [
            -0.26267704367637634,
            -1.2508649826049805,
            -0.29928597807884216,
            -1.015084981918335,
            0.03909769654273987,
            -0.06811372935771942,
            -1.564007043838501,
            0.033559657633304596,
            -0.1182606890797615,
            -0.08829642087221146
        ],
        [
            1.9393668174743652,
            -0.9668750166893005,
            0.3670493960380554,
            -0.327434778213501,
            0.23937004804611206,
            -0.6471137404441833,
            1.2472895383834839,
            0.030285445973277092,
            -0.14994306862354279,
            0.07001470029354095
        ],
        [
            -1.04551100730896,
            -0.3557707667350769,
            -0.08866820484399796,
            1.1832562685012817,
            -0.05983169376850128,
            -0.0972895696759224,
            -0.04094436392188072,
            0.022809617221355438,
            0.20477856695652008,
            0.0830405205488205
        ],
        [
            -0.008572026155889034,
            -0.1895180642604828,
            -1.0108513832092285,
            -1.268087387084961,
            -0.5032210946083069,
            0.33225762844085693,
            0.7458820939064026,
            0.031233476474881172,
            1.1975172758102417,
            0.009454043582081795
        ],
        [
            -1.104251503944397,
            0.003049751976504922,
            -2.4460220336914062,
            0.009477217681705952,
            -2.473083019256592,
            0.37225213646888733,
            0.638009786605835,
            0.10772748291492462,
            -0.2984295189380646,
            0.26443758606910706
        ],
        [
            -0.15332770347595215,
            -0.19002993404865265,
            0.2569974958896637,
            -0.012918803840875626,
            0.07339905202388763,
            -0.5796252489089966,
            0.460103839635849,
            0.022028563544154167,
            2.7060348987579346,
            -0.027700288221240044
        ],
        [
            0.43704381585121155,
            -1.742693305015564,
            -1.6232836246490479,
            -0.2913394570350647,
            -0.5823791027069092,
            -0.10451680421829224,
            -0.07960213720798492,
            -0.05374130606651306,
            0.04500189796090126,
            -0.04564227908849716
        ],
        [
            1.889338731765747,
            -0.3710114359855652,
            0.12045782059431076,
            1.7759257555007935,
            0.05113033950328827,
            -0.13654009997844696,
            0.09555219858884811,
            0.018031839281320572,
            -0.01649567112326622,
            -0.10376694798469543
        ],
        [
            0.433511346578598,
            0.6022778153419495,
            -0.42188307642936707,
            -0.1533830761909485,
            -0.6212849020957947,
            -0.5414444208145142,
            0.15684732794761658,
            0.3459205627441406,
            0.5585866570472717,
            -0.1350882202386856
        ],
        [
            0.011438324116170406,
            -0.521551251411438,
            0.5323203206062317,
            -0.4170023202896118,
            0.08893859386444092,
            0.8865309953689575,
            -0.7025653123855591,
            0.04999757930636406,
            -1.6933940649032593,
            0.1491580456495285
        ],
        [
            -0.018065864220261574,
            -0.2956186830997467,
            0.7057839632034302,
            0.2457323521375656,
            0.4051033854484558,
            0.18671810626983643,
            -0.7271143198013306,
            0.16609643399715424,
            0.3790039122104645,
            -0.47449228167533875
        ],
        [
            0.19668030738830566,
            0.1478949934244156,
            -1.648958683013916,
            0.5485538840293884,
            -0.5410953760147095,
            0.42472150921821594,
            -0.5702828764915466,
            -0.012877998873591423,
            -0.819849967956543,
            0.19681109488010406
        ],
        [
            0.5255032181739807,
            0.6207603812217712,
            -0.42457956075668335,
            1.2222506999969482,
            -0.12861518561840057,
            0.6156518459320068,
            -0.9151279926300049,
            0.01228438038378954,
            -1.783095359802246,
            -0.07435630261898041
        ],
        [
            -1.1717826128005981,
            0.07571455091238022,
            2.169140338897705,
            -0.07903551310300827,
            2.0486671924591064,
            0.3468688726425171,
            0.5912906527519226,
            0.04343285784125328,
            -0.24386005103588104,
            0.25879010558128357
        ],
        [
            0.06572664529085159,
            -0.029350921511650085,
            0.1316586136817932,
            -0.04351504147052765,
            0.03260326385498047,
            -0.25986045598983765,
            -0.7668668627738953,
            -0.016395356506109238,
            -0.03884906321763992,
            -1.1020182371139526
        ],
        [
            -1.653438687324524,
            0.04479895904660225,
            0.8809785842895508,
            0.040434129536151886,
            0.24632540345191956,
            -0.3412100374698639,
            0.948798656463623,
            -0.23673780262470245,
            -0.46287301182746887,
            0.1734170913696289
        ],
        [
            0.04818592965602875,
            0.011512135155498981,
            -1.6067405939102173,
            -0.006070950999855995,
            -0.6055116653442383,
            -0.5060818791389465,
            0.2479536086320877,
            0.005405132193118334,
            0.49949878454208374,
            -0.4758400022983551
        ],
        [
            -0.28053101897239685,
            -1.3179789781570435,
            1.1529860496520996,
            -0.051310259848833084,
            0.3140192925930023,
            -0.028465716168284416,
            -0.7767471075057983,
            -0.09468605369329453,
            -0.10785792768001556,
            0.0810462087392807
        ],
        [
            -0.6008427143096924,
            0.158314049243927,
            -0.07023365795612335,
            -0.03987022861838341,
            -0.03261525183916092,
            0.19600810110569,
            0.08739493787288666,
            0.02490152418613434,
            0.1343473494052887,
            0.0037655059713870287
        ],
        [
            0.053212858736515045,
            0.0007812986150383949,
            0.011531262658536434,
            0.03540515527129173,
            0.06676675379276276,
            -0.5186973810195923,
            -0.44408226013183594,
            0.02306598424911499,
            0.5024870038032532,
            1.4506360292434692
        ],
        [
            0.04694533348083496,
            -0.03879981487989426,
            -4.210343837738037,
            -0.04775964096188545,
            -1.4728007316589355,
            -0.02851506508886814,
            0.05038230121135712,
            0.027449503540992737,
            -0.09664272516965866,
            -0.05924035236239433
        ],
        [
            0.0393449105322361,
            0.00042622481123544276,
            -0.554945707321167,
            -0.04125645011663437,
            -0.6315996050834656,
            0.35129860043525696,
            -1.4346470832824707,
            0.007754276040941477,
            -0.43045684695243835,
            0.06610875576734543
        ],
        [
            0.8359397649765015,
            -0.04359273239970207,
            0.20213016867637634,
            -0.06707874685525894,
            1.1481397151947021,
            0.10655505955219269,
            -0.7384565472602844,
            0.042667206376791,
            0.3840377628803253,
            -0.1664346605539322
        ],
        [
            0.4896407127380371,
            1.561285138130188,
            -1.5366765260696411,
            0.1402902454137802,
            -0.3489055335521698,
            0.00883370079100132,
            0.31139859557151794,
            0.03914077207446098,
            -0.06544549018144608,
            -0.009195417165756226
        ]
    ],
    "bias1": [
        0.22110065817832947,
        1.2451751232147217,
        1.941598892211914,
        -1.7363853454589844,
        1.3531330823898315,
        0.18936941027641296,
        -0.8584374189376831,
        4.583054542541504,
        0.558864176273346,
        -0.5719558000564575,
        -0.46134257316589355,
        -1.6175042390823364,
        -0.9322203397750854,
        -1.403315544128418,
        0.2844052016735077,
        1.1235182285308838,
        2.369264602661133,
        -0.6172868013381958,
        -2.065626859664917,
        1.1474130153656006,
        2.1351609230041504,
        -0.7953192591667175,
        -2.802001476287842,
        0.2591020166873932,
        -1.5485835075378418,
        -0.3400605022907257,
        0.7863672375679016,
        0.7989328503608704,
        -0.07172463089227676,
        -2.22646164894104,
        1.4458674192428589,
        -0.1240520030260086
    ],
    "weights2": [
        -0.4544219374656677,
        -0.9722493886947632,
        -0.8230534791946411,
        -1.112526297569275,
        -0.8502110242843628,
        0.8449988961219788,
        -0.7326766848564148,
        2.4941561222076416,
        -0.237398162484169,
        0.8207844495773315,
        -0.7572943568229675,
        -0.5752928853034973,
        0.8465844392776489,
        1.4188600778579712,
        0.7926226258277893,
        -0.4279667139053345,
        -1.022908329963684,
        0.8358721733093262,
        -1.097005844116211,
        -0.8511083126068115,
        -0.8202876448631287,
        0.9501461386680603,
        1.7653025388717651,
        -0.45780038833618164,
        -1.139894962310791,
        -0.7278158664703369,
        -1.237460732460022,
        -0.8334351778030396,
        0.848125696182251,
        -1.2898166179656982,
        -0.9298180341720581,
        1.3002244234085083
    ],
    "bias2": -2.2429676055908203
}