{
    "num_node": 8,
    "num_input": 4,
    "mean": [
        1.734783121570465,
        2.497590209246815,
        0.00484112300174595,
        3.4604045539316144
    ],
    "std": [
        2.2896480753530413,
        4.213959760686095,
        0.004325888477755603,
        0.8301939547336147
    ],
    "weights1": [
        [
            1.3920551538467407,
            1.7889646291732788,
            -1.4969640970230103,
            0.32563310861587524
        ],
        [
            0.022515244781970978,
            0.6472147107124329,
            1.7958734035491943,
            0.5048519968986511
        ],
        [
            -2.9470410346984863,
            2.332014799118042,
            -0.5297263860702515,
            -1.5937566757202148
        ],
        [
            -0.9649579524993896,
            -0.07265870273113251,
            0.26033440232276917,
            -1.4815601110458374
        ],
        [
            -1.1693048477172852,
            -1.6041536331176758,
            -0.357375830411911,
            0.15270906686782837
        ],
        [
            1.9307575225830078,
            2.2968037128448486,
            0.3919115364551544,
            -0.008005504496395588
        ],
        [
            -1.1233394145965576,
            -1.5934337377548218,
            0.6992809772491455,
            -0.17331235110759735
        ],
        [
            -2.6633951663970947,
            2.429253578186035,
            -0.5378588438034058,
            -0.5621960759162903
        ]
    ],
    "bias1": [
        0.3755337595939636,
        1.0567035675048828,
        1.4136687517166138,
        1.4091368913650513,
        -1.7107542753219604,
        1.3697696924209595,
        0.9276533722877502,
        1.9848710298538208
    ],
    "weights2": [
        1.4173450469970703,
        1.5119231939315796,
        1.5258666276931763,
        -1.4785988330841064,
        -2.2265660762786865,
        -1.339240550994873,
        -1.4837665557861328,
        -1.348408818244934
    ],
    "bias2": 1.4059531688690186
}