{
    "num_node": 32,
    "num_input": 13,
    "mean": [
        8.46720968470435,
        19.42027175032399,
        0.18840878619435403,
        0.00280420943386854,
        87.46973288080552,
        68.7558859230081,
        100.552605928985,
        29.53400980689147,
        1.0320152636661202,
        0.9188279945973878,
        0.646264565421024,
        3.8365500372707397,
        2.5861101988324213
    ],
    "std": [
        8.403090524357214,
        19.704972511401603,
        0.11478255597965788,
        0.0028453190848291773,
        90.47340323158829,
        66.73999215440945,
        153.53676301649645,
        32.72251423846146,
        1.021753802873113,
        1.620155515099018,
        0.4563770491720414,
        0.8153155435673303,
        0.7156722028528545
    ],
    "weights1": [
        [
            0.4077906608581543,
            0.029185466468334198,
            -1.389412522315979,
            0.1329963654279709,
            -0.11836597323417664,
            -0.11313127726316452,
            -0.5315706133842468,
            0.06415068358182907,
            1.1639952659606934,
            2.9474031925201416,
            -0.022986628115177155,
            0.1703081578016281,
            -0.03528833016753197
        ],
        [
            -0.4922783076763153,
            0.041105933487415314,
            -0.02541378326714039,
            -0.08507116883993149,
            -0.0006959916790947318,
            -0.01353533286601305,
            4.779510021209717,
            0.14715784788131714,
            0.48620298504829407,
            0.547870397567749,
            -0.0025132778100669384,
            -0.04055957868695259,
            0.08967511355876923
        ],
        [
            0.18226593732833862,
            -0.23786917328834534,
            0.030073540285229683,
            0.21690115332603455,
            -0.0521143302321434,
            -0.09811591356992722,
            -2.458225727081299,
            -2.374389171600342,
            -0.25381046533584595,
            0.916800856590271,
            0.011408756487071514,
            -0.06048563867807388,
            0.01457666140049696
        ],
        [
            -2.596099615097046,
            -0.019027089700102806,
            -0.24502669274806976,
            -0.16024577617645264,
            -0.08779756724834442,
            -0.08235108852386475,
            -0.05814335495233536,
            0.010816716589033604,
            2.597282648086548,
            3.7502708435058594,
            0.010212904773652554,
            -0.04948203265666962,
            -0.044251564890146255
        ],
        [
            0.6783146262168884,
            -0.24730262160301208,
            -0.20891518890857697,
            -0.38093385100364685,
            -0.05922413989901543,
            -2.029049873352051,
            0.2616887390613556,
            1.232548713684082,
            -0.7918477654457092,
            0.4622858464717865,
            0.32407259941101074,
            -0.4403304159641266,
            0.03724156692624092
        ],
        [
            -0.06639615446329117,
            -0.04758637025952339,
            -1.9616551399230957,
            0.029162989929318428,
            -0.16779924929141998,
            0.13082008063793182,
            -1.6466087102890015,
            0.3571344017982483,
            0.13946467638015747,
            -0.048434365540742874,
            -0.09459470957517624,
            -0.2888373136520386,
            0.06196688488125801
        ],
        [
            0.8388335108757019,
            -0.27536317706108093,
            -0.10896410048007965,
            -0.44902318716049194,
            -0.9367143511772156,
            0.6356650590896606,
            -0.6318238377571106,
            0.010254993103444576,
            -0.7632404565811157,
            0.47318246960639954,
            0.33524173498153687,
            -0.4550531804561615,
            0.0076127126812934875
        ],
        [
            0.048929523676633835,
            -0.06198043376207352,
            -0.13457363843917847,
            0.07493259012699127,
            -0.013165058568120003,
            -0.03605201095342636,
            4.763844013214111,
            0.3532228469848633,
            -0.07023660093545914,
            -0.43520936369895935,
            0.018997054547071457,
            -0.02491896040737629,
            0.017293931916356087
        ],
        [
            1.0078903436660767,
            -0.15627238154411316,
            0.03602643311023712,
            -0.34096845984458923,
            0.06736050546169281,
            0.09082599729299545,
            0.15043215453624725,
            0.10886792093515396,
            -2.171315908432007,
            -1.0488451719284058,
            -0.1275491565465927,
            0.15101692080497742,
            -0.09716225415468216
        ],
        [
            0.1502249836921692,
            0.25231286883354187,
            -0.5580379962921143,
            0.3702853322029114,
            -0.4332730174064636,
            -0.6872766613960266,
            -2.3995187282562256,
            -0.723277747631073,
            -0.3101046681404114,
            0.40986892580986023,
            0.07979098707437515,
            -0.46141964197158813,
            -7.775256381137297e-05
        ],
        [
            -0.553648829460144,
            0.41492924094200134,
            -0.40856894850730896,
            -0.09800221025943756,
            -0.6329100131988525,
            -0.31483229994773865,
            -1.7521437406539917,
            -0.2745101749897003,
            0.30732324719429016,
            0.566547155380249,
            0.234290212392807,
            -1.1924139261245728,
            -0.272043913602829
        ],
        [
            1.0136139392852783,
            0.11306985467672348,
            -0.6539753675460815,
            -0.07045287638902664,
            0.1522524207830429,
            0.1483636349439621,
            -2.172377347946167,
            -0.10059398412704468,
            -0.2183784395456314,
            -1.7578082084655762,
            -0.05479719117283821,
            0.2795908451080322,
            -0.16398920118808746
        ],
        [
            -1.0655733346939087,
            0.07432672381401062,
            2.5397019386291504,
            0.007398276124149561,
            -0.3267074525356293,
            -0.17326229810714722,
            -1.5504554510116577,
            -0.01512486394494772,
            0.7691410183906555,
            0.9459608793258667,
            0.04635252058506012,
            -0.4280144274234772,
            0.182185560464859
        ],
        [
            -0.779619038105011,
            0.09096021950244904,
            0.09818580746650696,
            -0.14058484137058258,
            -3.450167655944824,
            -2.964878797531128,
            0.25717490911483765,
            0.004673182964324951,
            0.7604962587356567,
            -0.26509925723075867,
            -0.004853882826864719,
            0.012888072989881039,
            0.07577410340309143
        ],
        [
            0.07997912168502808,
            0.0639805942773819,
            0.27864083647727966,
            -0.015147601254284382,
            0.09655485302209854,
            0.12361361086368561,
            -4.315543174743652,
            -0.9509304165840149,
            -0.09786801785230637,
            0.619175136089325,
            -0.005914164707064629,
            0.17687804996967316,
            0.12636242806911469
        ],
        [
            0.40520620346069336,
            -0.005044850986450911,
            0.3935580253601074,
            0.06073833629488945,
            -0.039819732308387756,
            -0.05816333740949631,
            6.807931423187256,
            0.483873575925827,
            -0.43656107783317566,
            0.1330447793006897,
            0.004250084049999714,
            -0.013077517040073872,
            0.07335273921489716
        ],
        [
            -0.8391868472099304,
            0.02854819968342781,
            1.0976589918136597,
            0.04050629958510399,
            -0.013592381030321121,
            0.013014093041419983,
            0.19776543974876404,
            -0.11922067403793335,
            -0.9340769052505493,
            3.2214553356170654,
            -0.037986211478710175,
            0.09438001364469528,
            0.19289261102676392
        ],
        [
            -0.19988133013248444,
            -0.3052559792995453,
            0.017484163865447044,
            0.011798007413744926,
            -0.5351284146308899,
            -0.24182306230068207,
            -2.477283477783203,
            -0.500331699848175,
            0.6939783096313477,
            -0.4863126873970032,
            -0.1357944905757904,
            -0.2724004089832306,
            -0.05286327376961708
        ],
        [
            0.21811340749263763,
            0.4702964425086975,
            -1.6534438133239746,
            0.5479517579078674,
            0.31059980392456055,
            -0.3461938202381134,
            -1.2744086980819702,
            -0.044286154210567474,
            -0.19676446914672852,
            -0.39608460664749146,
            -0.7713797092437744,
            1.3061552047729492,
            0.5027726292610168
        ],
        [
            0.02681359089910984,
            0.06416859477758408,
            0.15448783338069916,
            0.05846433714032173,
            0.006831797771155834,
            -0.016433123499155045,
            0.032852377742528915,
            0.005285112652927637,
            -0.010920022614300251,
            -4.216408729553223,
            -0.006924464832991362,
            0.011657851748168468,
            -0.018305616453289986
        ],
        [
            -0.16915103793144226,
            -0.2753678262233734,
            -0.5192097425460815,
            -0.16149722039699554,
            0.23705808818340302,
            -0.004769619088619947,
            0.10802525281906128,
            0.09576502442359924,
            -1.2350908517837524,
            -3.067249059677124,
            0.05718187242746353,
            -0.12117799371480942,
            -0.10904285311698914
        ],
        [
            -0.36411720514297485,
            -0.05581091716885567,
            0.965116024017334,
            -0.031870562583208084,
            0.05249069631099701,
            -0.007650825660675764,
            0.27436330914497375,
            -0.09341831505298615,
            1.8952867984771729,
            -2.7038748264312744,
            0.026560254395008087,
            0.0938878282904625,
            0.14783771336078644
        ],
        [
            1.4289969205856323,
            0.3291788399219513,
            0.1595531553030014,
            0.2795379161834717,
            -0.16143742203712463,
            -0.8486453890800476,
            0.4163399338722229,
            0.05105786398053169,
            -1.4027786254882812,
            -0.49749648571014404,
            0.20606482028961182,
            -2.8880763053894043,
            0.20736682415008545
        ],
        [
            0.8511145710945129,
            0.8009902238845825,
            -0.8381783366203308,
            0.6632362008094788,
            0.09041188657283783,
            -0.1414557546377182,
            0.005300254561007023,
            -0.23302534222602844,
            -0.8011112809181213,
            -0.3752140998840332,
            -0.4803244471549988,
            0.570469081401825,
            -0.09598011523485184
        ],
        [
            -0.011610482819378376,
            0.10667239129543304,
            -0.026352735236287117,
            -0.09393341094255447,
            -0.08908789604902267,
            0.146750345826149,
            2.8063876628875732,
            -0.38604220747947693,
            0.0857299417257309,
            0.22080358862876892,
            -0.014945841394364834,
            0.10203886032104492,
            0.04547367990016937
        ],
        [
            0.4348065257072449,
            -0.22717534005641937,
            -0.3771435618400574,
            -0.44420376420021057,
            -2.5697779655456543,
            1.2854117155075073,
            0.5696977376937866,
            -0.06811757385730743,
            -0.33799126744270325,
            0.27941465377807617,
            0.013547442853450775,
            -0.47504979372024536,
            -0.35184234380722046
        ],
        [
            -0.6878904700279236,
            -0.07242121547460556,
            -0.0034673218615353107,
            0.1565360724925995,
            -0.2046896517276764,
            -0.1482359915971756,
            -2.273817300796509,
            -1.3222739696502686,
            0.7348190546035767,
            -0.42133402824401855,
            -0.04843142256140709,
            -0.04336211830377579,
            -0.150052011013031
        ],
        [
            -3.020083427429199,
            -0.13779371976852417,
            0.3070485293865204,
            -0.04963746294379234,
            -0.03571010008454323,
            -0.02022894285619259,
            0.40947389602661133,
            -0.13489557802677155,
            3.801274538040161,
            -1.0410507917404175,
            0.08619094640016556,
            -0.05482514947652817,
            0.08588171005249023
        ],
        [
            0.6535111665725708,
            0.7262789011001587,
            0.37174534797668457,
            0.655127763748169,
            0.1259152591228485,
            0.752531886100769,
            -0.2306613326072693,
            -2.1353039741516113,
            -0.6339131593704224,
            0.030463840812444687,
            -0.14974822103977203,
            0.14161264896392822,
            0.10566867142915726
        ],
        [
            0.11416009813547134,
            -0.30863961577415466,
            -0.10364025831222534,
            0.1363506019115448,
            -1.5525720119476318,
            0.7656287550926208,
            2.1268627643585205,
            0.04148763790726662,
            -0.02028045617043972,
            -0.13614046573638916,
            -0.06851350516080856,
            0.7608265280723572,
            -0.1243634819984436
        ],
        [
            0.11709513515233994,
            0.5608395934104919,
            -0.45185279846191406,
            0.6620529294013977,
            0.04688611626625061,
            -0.42782115936279297,
            -0.18685558438301086,
            0.9199326038360596,
            -0.3243938386440277,
            0.14213819801807404,
            0.1420387625694275,
            -0.27859047055244446,
            -0.09564301371574402
        ],
        [
            -2.292205572128296,
            0.023269908502697945,
            0.08315515518188477,
            -0.02416817657649517,
            -0.10021686553955078,
            0.021323712542653084,
            -0.0870189219713211,
            -0.010172339156270027,
            2.2779102325439453,
            -0.10831164568662643,
            -0.015021105296909809,
            -0.0015790269244462252,
            0.030805272981524467
        ]
    ],
    "bias1": [
        3.892457962036133,
        3.2949752807617188,
        -3.2550230026245117,
        1.1924798488616943,
        -0.3812270760536194,
        -3.560633897781372,
        -0.6384016871452332,
        2.9226951599121094,
        -0.5049640536308289,
        -1.8818520307540894,
        0.21125957369804382,
        -2.34008526802063,
        2.2708425521850586,
        -4.586151599884033,
        -2.72432017326355,
        5.18556022644043,
        0.9020752906799316,
        -0.34289175271987915,
        1.479886770248413,
        -1.9903361797332764,
        -2.8047218322753906,
        0.8028468489646912,
        -0.38918641209602356,
        1.5865094661712646,
        1.4239493608474731,
        -0.09113370627164841,
        -2.5056097507476807,
        0.883621871471405,
        -0.11468817293643951,
        1.5038120746612549,
        1.019274353981018,
        -0.14538314938545227
    ],
    "weights2": [
        2.2590575218200684,
        9.93217945098877,
        3.613079309463501,
        -4.267748832702637,
        0.8848749399185181,
        3.9659323692321777,
        0.9545117020606995,
        5.39386510848999,
        -1.0305044651031494,
        -2.0000736713409424,
        -1.5277557373046875,
        -2.6218721866607666,
        2.2947299480438232,
        6.005331516265869,
        -5.422291278839111,
        -10.69420051574707,
        1.6201523542404175,
        -1.2415932416915894,
        -0.7516731023788452,
        4.659426689147949,
        -2.063262939453125,
        1.6956984996795654,
        -1.3604583740234375,
        1.5150375366210938,
        2.3091683387756348,
        -0.8130276799201965,
        -3.6597158908843994,
        -3.565767526626587,
        -0.8203226923942566,
        1.2055007219314575,
        1.2055246829986572,
        4.613248348236084
    ],
    "bias2": -2.9413208961486816
}