{
    "num_node": 8,
    "num_input": 4,
    "mean": [
        4.537644206358691,
        11.618506401408302,
        0.009870371563526924,
        3.1521284089777497
    ],
    "std": [
        3.937134702922654,
        10.180850018915839,
        0.007331514791792831,
        0.9129836852104302
    ],
    "weights1": [
        [
            0.6408462524414062,
            -1.8138638734817505,
            0.18955343961715698,
            -3.3827028274536133
        ],
        [
            -0.19975575804710388,
            -0.32679975032806396,
            0.4375137686729431,
            -0.9845675826072693
        ],
        [
            -0.2543949484825134,
            1.0144879817962646,
            -0.16108419001102448,
            0.020666413009166718
        ],
        [
            -1.0841593742370605,
            3.0971739292144775,
            -0.0772995874285698,
            -1.8973681926727295
        ],
        [
            -0.6155099272727966,
            -0.3466121554374695,
            0.11534678936004639,
            1.309072732925415
        ],
        [
            -0.8833737969398499,
            2.9130780696868896,
            0.058992650359869,
            -2.4042553901672363
        ],
        [
            0.4370238482952118,
            -1.8663585186004639,
            0.22234761714935303,
            -3.744084119796753
        ],
        [
            -0.2342403680086136,
            0.21227535605430603,
            1.3800852298736572,
            0.6134447455406189
        ]
    ],
    "bias1": [
        5.37273645401001,
        -1.0507341623306274,
        0.6011373400688171,
        5.7305097579956055,
        -0.491098016500473,
        6.168185234069824,
        5.567963123321533,
        0.9747811555862427
    ],
    "weights2": [
        5.863895416259766,
        1.2569859027862549,
        0.8089867234230042,
        5.208670616149902,
        -1.2281129360198975,
        -5.182489395141602,
        -5.3006272315979,
        0.39996248483657837
    ],
    "bias2": 0.37293699383735657
}