{
    "metadata": {
        "version": 1,
        "features": [
            "ut_x",
            "ut_y",
            "ut_tx",
            "ut_ty",
            "ut_chi2",
            "ut_nhits",
            "ft_chi2",
            "ft_nhits",
            "eta",
            "dtx",
            "dy"
        ]
    },
    "StandardScaler_0.mean": [
        2.282541165021362,
        1.52868912720949,
        0.0006101308301033179,
        0.0006808968793772258,
        7.522251939591103,
        4.021139735011188,
        0.6543943852241662,
        11.514772777692091,
        3.9240208418684936,
        -0.0021557658751199657,
        0.24080579561207413
    ],
    "StandardScaler_0.standard_deviation": [
        110.12731143650639,
        102.35278878600498,
        0.04878125242850388,
        0.0457455923070305,
        5.508392416059747,
        0.5246132069924304,
        0.5373889102823529,
        0.6878039281977861,
        0.6888534544477335,
        0.4888479413222788,
        46.76530479898516
    ],
    "Linear_1.weights": [
        [
            -0.44023698568344116,
            0.7961516976356506,
            0.5672792792320251,
            -0.796362042427063,
            -1.0096004009246826,
            0.09741136431694031,
            -0.07938995212316513,
            0.08335845172405243,
            0.3524617552757263,
            -0.017725327983498573,
            2.20694899559021
        ],
        [
            0.27153512835502625,
            4.204476833343506,
            -0.31907084584236145,
            -5.193095684051514,
            -0.013997567817568779,
            0.008037997409701347,
            0.013030263595283031,
            -0.0010714629897847772,
            -0.1452016830444336,
            0.19117800891399384,
            1.2862844467163086
        ],
        [
            -3.723705291748047,
            2.5585083961486816,
            4.103265762329102,
            -2.842841148376465,
            -0.01841042749583721,
            -0.0030338256619870663,
            -0.005051315762102604,
            0.001319676754064858,
            0.006255578249692917,
            -0.5533064007759094,
            -0.5886666178703308
        ],
        [
            4.272051811218262,
            -2.213867664337158,
            -4.741119861602783,
            2.4571619033813477,
            -0.008193964138627052,
            -0.0006983108469285071,
            -0.005188741721212864,
            0.0031318869441747665,
            0.05700503662228584,
            0.6672293543815613,
            0.3913116157054901
        ],
        [
            0.20533807575702667,
            2.204704523086548,
            -0.1812891662120819,
            -1.2714934349060059,
            -0.311298131942749,
            0.1521655023097992,
            -0.03511419892311096,
            -0.06329822540283203,
            -1.0035719871520996,
            -0.036179281771183014,
            1.814399003982544
        ],
        [
            -0.17498470842838287,
            1.1908105611801147,
            0.22248990833759308,
            0.05805023014545441,
            -0.1502222716808319,
            0.00792255811393261,
            -0.486152708530426,
            0.167440265417099,
            -0.17075097560882568,
            -0.027890274301171303,
            -0.4314180314540863
        ],
        [
            2.3406269550323486,
            -3.1582765579223633,
            -2.5460941791534424,
            3.4400956630706787,
            -0.014470482245087624,
            0.006840537767857313,
            0.004546619951725006,
            0.0001357878791168332,
            -0.04269956424832344,
            0.29417523741722107,
            0.6925988793373108
        ],
        [
            -0.1625114381313324,
            0.21304009854793549,
            0.18897205591201782,
            -0.21462556719779968,
            -1.8871088027954102,
            0.5793816447257996,
            -0.5007509589195251,
            0.1947747766971588,
            0.4022262692451477,
            -0.006007903255522251,
            0.18664409220218658
        ],
        [
            -0.5238107442855835,
            0.10064290463924408,
            0.5916681289672852,
            0.4426082670688629,
            -0.020894840359687805,
            -0.01934451051056385,
            0.20496025681495667,
            0.03537457063794136,
            0.03912581875920296,
            -0.288252055644989,
            -3.036619186401367
        ],
        [
            -0.35093164443969727,
            1.3943418264389038,
            0.45593249797821045,
            -1.5795602798461914,
            -0.10378488898277283,
            -0.0812741070985794,
            -0.044216886162757874,
            0.014236310496926308,
            0.14609399437904358,
            -0.09441069513559341,
            1.6092054843902588
        ],
        [
            0.2854180932044983,
            2.6699399948120117,
            -0.32267099618911743,
            -3.25606632232666,
            0.07895383983850479,
            0.015934791415929794,
            -0.06981391459703445,
            0.023638037964701653,
            0.19558025896549225,
            0.0810014083981514,
            0.8033444881439209
        ],
        [
            0.1729656308889389,
            -1.031571388244629,
            -0.19314032793045044,
            -0.758762538433075,
            -0.217670276761055,
            0.025445766746997833,
            0.1462508589029312,
            -0.01908758655190468,
            -0.08191508054733276,
            0.03535887226462364,
            0.8547017574310303
        ],
        [
            -0.07174911350011826,
            0.22649738192558289,
            0.0777779072523117,
            -0.2704724371433258,
            0.38640570640563965,
            -0.5938612222671509,
            0.14116989076137543,
            -0.03842683508992195,
            0.2567312717437744,
            0.007158930413424969,
            0.356818825006485
        ],
        [
            -0.08812606334686279,
            -0.2404095083475113,
            0.11851884424686432,
            0.4234507083892822,
            -1.0117937326431274,
            0.24642717838287354,
            -0.01185265276581049,
            0.032036855816841125,
            0.15546554327011108,
            -0.029222197830677032,
            -1.7104917764663696
        ],
        [
            -0.7595725059509277,
            -3.346996545791626,
            0.8739132285118103,
            4.422761917114258,
            0.2955174148082733,
            -0.08679692447185516,
            -0.015644876286387444,
            0.0380706787109375,
            0.41893690824508667,
            -0.13649092614650726,
            0.3777157664299011
        ],
        [
            4.801207542419434,
            -3.2935755252838135,
            -5.352779388427734,
            3.637498378753662,
            -0.04751026630401611,
            0.056715451180934906,
            -0.09704476594924927,
            0.031933411955833435,
            0.01352319773286581,
            0.6357811689376831,
            0.687044620513916
        ],
        [
            -3.8102221488952637,
            3.201054334640503,
            4.230357646942139,
            -3.442599296569824,
            -0.029123904183506966,
            0.050020333379507065,
            -0.08489260077476501,
            0.02186472713947296,
            -0.0009047495550476015,
            -0.5167097449302673,
            -0.7422164678573608
        ],
        [
            0.05309155210852623,
            0.16716405749320984,
            -0.044266946613788605,
            -0.12232394516468048,
            0.46130138635635376,
            0.6710516810417175,
            -0.0956420823931694,
            -0.012382378801703453,
            0.305856317281723,
            0.045348383486270905,
            0.14215026795864105
        ],
        [
            -0.7292178869247437,
            -0.10298934578895569,
            1.0424163341522217,
            0.0841275006532669,
            -0.08358931541442871,
            -0.02554004080593586,
            0.025901606306433678,
            -0.002286988776177168,
            -0.024818196892738342,
            2.235994815826416,
            0.16331717371940613
        ],
        [
            -0.050509966909885406,
            -1.5230664014816284,
            0.05248274654150009,
            1.9552725553512573,
            -0.4860670864582062,
            -0.5352939963340759,
            -0.05653767287731171,
            -0.048058588057756424,
            -0.3709929287433624,
            -0.15387822687625885,
            -0.4716390073299408
        ],
        [
            -0.10285846143960953,
            -1.5536609888076782,
            0.12185434997081757,
            2.0328176021575928,
            0.08316245675086975,
            -0.041220568120479584,
            -0.048348236829042435,
            0.04025112837553024,
            0.3284006416797638,
            -0.0523909255862236,
            -0.61255943775177
        ],
        [
            -0.21865710616111755,
            1.5462636947631836,
            0.3834414482116699,
            -0.07777988910675049,
            0.239755779504776,
            0.0628710687160492,
            0.48046809434890747,
            -0.16199910640716553,
            0.29480189085006714,
            -0.039199259132146835,
            -0.3335932791233063
        ],
        [
            -1.6933413743972778,
            2.3683176040649414,
            1.3967006206512451,
            -1.848936676979065,
            -0.03290226310491562,
            0.008505690842866898,
            0.00590038625523448,
            -0.015942787751555443,
            -0.07396149635314941,
            -0.22186768054962158,
            -0.32414865493774414
        ],
        [
            -1.304033875465393,
            0.014487014152109623,
            1.5679155588150024,
            0.0184429120272398,
            0.14846646785736084,
            0.24409444630146027,
            0.012922336347401142,
            -0.0012634425656870008,
            -0.1554253250360489,
            0.15095506608486176,
            -0.04618644341826439
        ],
        [
            0.23391897976398468,
            -0.6132424473762512,
            -0.2995493710041046,
            -0.8425171971321106,
            -0.18498669564723969,
            0.07304844260215759,
            -0.1700447052717209,
            0.05496079847216606,
            -0.07210081070661545,
            0.10161193460226059,
            1.231099247932434
        ],
        [
            1.3258694410324097,
            3.898642063140869,
            -1.503545880317688,
            -4.2904791831970215,
            0.12836147844791412,
            -0.026516050100326538,
            0.02489146776497364,
            -0.004832611884921789,
            0.2153971791267395,
            0.2119479924440384,
            -0.8172937035560608
        ],
        [
            -0.2839951515197754,
            -0.12346111238002777,
            0.18138810992240906,
            0.14908044040203094,
            -0.03314182162284851,
            -0.015273387543857098,
            0.01946457289159298,
            -0.02800019644200802,
            -0.024417519569396973,
            -1.3257293701171875,
            0.19808010756969452
        ],
        [
            -0.04678506404161453,
            -0.802329421043396,
            0.03745189309120178,
            1.0285252332687378,
            0.27762559056282043,
            0.4523243308067322,
            -0.12224309891462326,
            0.08781497180461884,
            0.11422602832317352,
            -0.08789268881082535,
            -0.3267766833305359
        ],
        [
            1.86171293258667,
            5.1570258140563965,
            -2.0576298236846924,
            -5.744668960571289,
            -0.006156134884804487,
            0.008139675483107567,
            0.015569527633488178,
            -0.009195037186145782,
            -0.057281412184238434,
            0.2938147783279419,
            -1.1089457273483276
        ],
        [
            -0.041030146181583405,
            -0.20995156466960907,
            0.04000287503004074,
            0.2665976285934448,
            0.7453206181526184,
            -0.5038627982139587,
            0.04019884765148163,
            -0.01345878653228283,
            0.0711580142378807,
            -0.01872263476252556,
            -0.473040908575058
        ],
        [
            0.42542168498039246,
            -2.1978235244750977,
            -0.620679497718811,
            1.789387822151184,
            -0.19458483159542084,
            0.19802966713905334,
            0.10860545933246613,
            -0.017877822741866112,
            -1.0860917568206787,
            0.12994804978370667,
            -2.515355348587036
        ],
        [
            -1.6619082689285278,
            -2.149925470352173,
            1.2662845849990845,
            1.7472749948501587,
            -0.038864608854055405,
            0.015006287954747677,
            0.004303446039557457,
            0.0033210336696356535,
            -0.07402027398347855,
            -0.23110510408878326,
            0.19660215079784393
        ]
    ],
    "Linear_1.bias": [
        -1.7378199100494385,
        0.10083761811256409,
        -0.029277896508574486,
        -0.045947156846523285,
        -0.04512939974665642,
        0.8705158233642578,
        0.025085533037781715,
        -0.7513779997825623,
        0.13202062249183655,
        -0.6453454494476318,
        0.62123703956604,
        -0.9421292543411255,
        1.0920522212982178,
        -1.4256864786148071,
        0.8068996071815491,
        -0.7339798212051392,
        -0.7172664403915405,
        1.1164053678512573,
        -0.06566108763217926,
        -1.7374156713485718,
        0.45890575647354126,
        -1.3358415365219116,
        -0.08724544942378998,
        0.6856310367584229,
        0.09125354886054993,
        0.6109212636947632,
        -0.017564604058861732,
        0.7706466317176819,
        0.07514744251966476,
        0.9957886338233948,
        0.8697382807731628,
        -0.09399174898862839
    ],
    "Linear_3.weights": [
        [
            0.9460874199867249,
            -2.4298667907714844,
            3.171372652053833,
            2.5012574195861816,
            -1.1035622358322144,
            0.5650593042373657,
            2.8422086238861084,
            -1.1916086673736572,
            0.39122676849365234,
            1.2512335777282715,
            1.891108512878418,
            0.4801679253578186,
            0.706598699092865,
            0.9094979763031006,
            -1.9672269821166992,
            -3.1626811027526855,
            -3.3989527225494385,
            0.4798893928527832,
            0.6342026591300964,
            0.8900207281112671,
            1.5034260749816895,
            0.44935092329978943,
            0.7847129702568054,
            0.6244414448738098,
            0.3331046402454376,
            -3.735219717025757,
            0.9954479932785034,
            1.015210747718811,
            3.914687156677246,
            0.7922637462615967,
            -1.5660678148269653,
            0.718828558921814
        ]
    ],
    "Linear_3.bias": [
        -1.0151418447494507
    ]
}