{"metadata": {"version": 1, "features": ["Chi2", "nVPHits", "Eta"]}, "_stack.Linear_0.weight": [[0.10285995155572891, -0.8777040839195251, 0.12387692183256149], [-0.2630741596221924, -0.06691712141036987, -0.16671185195446014], [-0.5421798229217529, -0.09534398466348648, -0.48929062485694885], [0.1306287795305252, 0.6908318996429443, 0.049823567271232605], [-0.2782636284828186, 0.9706617593765259, 0.14059466123580933], [0.013974929228425026, 1.2018351554870605, -1.5338585376739502], [-0.4912688732147217, -0.5203590393066406, -0.2780286371707916], [-0.0065569267608225346, -0.08472922444343567, -0.4916349947452545]], "_stack.Linear_0.bias": [2.3595309257507324, 0.008370215073227882, -0.35782748460769653, -0.90959632396698, -0.9810307025909424, -0.21004140377044678, -0.3153853416442871, 2.9223265647888184], "_stack.Linear_2.weight": [[-1.6645272970199585, 0.23378148674964905, 0.1475614309310913, 0.777851402759552, 0.42701640725135803, 0.8938690423965454, 0.21205124258995056, -0.40317919850349426], [-1.2316994667053223, 0.32152119278907776, -0.007645775564014912, 0.6512136459350586, -0.33927983045578003, 0.05679507926106453, -0.13317249715328217, -0.30510377883911133], [-0.07374054938554764, -0.13086634874343872, 0.19373317062854767, -0.21346315741539001, 0.10885339975357056, -0.0348813496530056, -0.05462939664721489, -0.3182673156261444], [-3.265888214111328, -0.10313940793275833, -0.32740160822868347, 0.025886327028274536, 0.9240333437919617, -0.04044651612639427, -0.1736713945865631, -0.16090057790279388], [0.18976929783821106, -0.08710746467113495, -0.13969101011753082, 0.2688276767730713, 0.30249661207199097, -0.7159939408302307, -0.07638846337795258, -2.533921957015991], [-1.624313473701477, 0.30183175206184387, -0.05222386494278908, 0.28704288601875305, 0.7593066692352295, -0.8141227960586548, -0.20622827112674713, -0.26934847235679626], [-0.7842254042625427, 0.15638992190361023, -0.012579485774040222, 0.40084514021873474, 0.7578454613685608, 0.3916122019290924, 0.3184369206428528, -0.8456860780715942], [1.3180090188980103, 0.005828108172863722, -0.2647566497325897, -0.4537183940410614, -0.1691356897354126, -1.887067198753357, 0.08503349870443344, 0.45169055461883545]], "_stack.Linear_2.bias": [0.06820102035999298, -2.2016351222991943, -0.014036284759640694, -0.6386538743972778, -0.1441548615694046, -0.6725574135780334, -2.662891149520874, 0.963140606880188], "_stack.Linear_4.weight": [[0.9041568636894226, -0.6695583462715149, -0.24621781706809998, 1.0500285625457764, 2.3313732147216797, -1.5176632404327393, -1.2009714841842651, -1.2507596015930176]], "_stack.Linear_4.bias": [0.2935914099216461], "PiecewiseLinearTransform_6.quantiles": [0.0, 0.014028776562909595, 0.027636242950362884, 0.040831931090195166, 0.0536252810663609, 0.0660256411189337, 0.07804226764410638, 0.08968432519419085, 0.10096088647761824, 0.11188093235893878, 0.12245335185882193, 0.13268694215405627, 0.14259040857754954, 0.15217236461832867, 0.1614413319215397, 0.17040574028844788, 0.1790739276764376, 0.18745414019901238, 0.195554532125795, 0.20338316588252725, 0.21094801205107022, 0.2182569493694041, 0.22531776473162823, 0.23213815318796116, 0.23872571794474054, 0.24508797036442323, 0.2512323299655852, 0.25716612442292164, 0.2628965895672469, 0.2684308693854944, 0.2737760160207168, 0.27893898977208587, 0.2839266590948926, 0.2887458006005472, 0.2934030990565789, 0.29790514738663615, 0.3022584466704865, 0.3064694061440168, 0.3105443431992329, 0.31448948338425997, 0.3183109604033422, 0.32201481611684313, 0.3256070005412452, 0.32909337184915016, 0.33247969636927893, 0.33577164858647157, 0.3389748111416873, 0.3420946748320045, 0.3451366386106207, 0.3481060095868526, 0.3510080030261361, 0.3538477423500262, 0.35663025913619706, 0.35936049311844204, 0.36204329218667364, 0.36468341238692353, 0.36728551792134256, 0.3698541811482007, 0.37239388258188705, 0.37490901089290996, 0.3774038629078969, 0.3798826436095945, 0.38234946613686854, 0.384808351784704, 0.387263230004205, 0.3897179384025948, 0.3921762227432158, 0.3946417369455296, 0.39711804308511706, 0.399608611393678, 0.4021168202590315, 0.40464595622511584, 0.4071992139919884, 0.4097796964158257, 0.4123904145089235, 0.4150342874396967, 0.41771414253267936, 0.42043271526852466, 0.42319264928400496, 0.42599649637201176, 0.4288467164815558, 0.4317456777177669, 0.43469565634189405, 0.43769883677130544, 0.44075731157948844, 0.4438730814960495, 0.4470480554067143, 0.4502840503533276, 0.4535827915338534, 0.45694591230237486, 0.4603749541690943, 0.46387136680033314, 0.467436508018532, 0.47107164380225064, 0.474777948286168, 0.4785565037610822, 0.48240830067391055, 0.4863342376276894, 0.49033512138157437, 0.49441166685084015, 0.49856449710688067, 0.5027941433772091, 0.5071010450454575, 0.5114855496513774, 0.5159479128908392, 0.5204882986158327, 0.5251067788344668, 0.5298033337109694, 0.5345778515656879, 0.5394301288750886, 0.5443598702717568, 0.5493666885443974, 0.5544501046378342, 0.5596095476530101, 0.5648443548469874, 0.5701537716329472, 0.5755369515801902, 0.5809929564141361, 0.5865207560163234, 0.5921192284244102, 0.5977871598321738, 0.6035232445895102, 0.609326085202435, 0.6151941923330828, 0.6211259847997074, 0.6271197895766816, 0.6331738417944975, 0.6392862847397666, 0.645455169855219, 0.6516784567397044, 0.6579540131481915, 0.6642796149917682, 0.6706529463376416, 0.6770715994091379, 0.6835330745857024, 0.6900347804028998, 0.6965740335524137, 0.7031480588820468, 0.7097539893957213, 0.7163888662534784, 0.7230496387714784, 0.7297331644220008, 0.7364362088334442, 0.7431554457903264, 0.7498874572332846, 0.7566287332590748, 0.7633756721205722, 0.7701245802267714, 0.7768716721427861, 0.7836130705898489, 0.7903448064453118, 0.7970628187426461, 0.8037629546714418, 0.8104409695774084, 0.8170925269623747, 0.8237131984842883, 0.830298463957216, 0.836843711351344, 0.8433442367929777, 0.8497952445645411, 0.8561918471045781, 0.8625290650077513, 0.8688018270248425, 0.8750049700627529, 0.8811332391845026, 0.887181287609231, 0.8931436767121965, 0.899014876024777, 0.9047892632344692, 0.9104611241848891, 0.916024652875772, 0.9214739514629721, 0.9268030302584629, 0.932005807730337, 0.9370761105028064, 0.9420076733562018, 0.9467941392269736, 0.951429059207691, 0.9559058925470425, 0.9602180066498356, 0.9643586770769971, 0.9683210875455729, 0.9720983299287282, 0.9756834042557473, 0.9790692187120335, 0.9822485896391093, 0.9852142415346167, 0.9879588070523163, 0.9904748270020884, 0.9927547503499322, 0.9947909342179659, 0.9965756438844273, 0.9981010527836729, 0.9993592425061787, 1.0003422027985396, 1.00104183156347, 1.001449934859803, 1.0015582269024912, 1.0013583300626063, 1.0008417748673393, 1.0]}