{"metadata": {"version": 1, "features": ["Chi2PerNDOF", "LogPt", "Eta", "FitTChi2PerNDOF", "FitUTChi2PerNDOF", "nUTHits", "nUTOutliers"]}, "_stack.Linear_0.weight": [[0.2458164244890213, -0.16942010819911957, 1.0334641933441162, 0.0454041063785553, 0.3689788281917572, -0.42878258228302, 1.511286973953247], [0.4869384467601776, -0.28241896629333496, -0.045734040439128876, -1.0305129289627075, -0.12272969633340836, -0.42477327585220337, 0.3736191689968109], [-1.2204370498657227, 0.8237863183021545, -0.5241175889968872, 0.7096046805381775, 0.22909685969352722, 0.802793562412262, -0.8262195587158203], [-2.8541767597198486, -0.13168616592884064, -0.43876123428344727, 1.9595836400985718, 0.9464378952980042, 0.4063258171081543, -1.7099672555923462], [-1.7471219301223755, 0.2997819781303406, 0.2780943810939789, 0.8201723098754883, -0.36818963289260864, 0.8737562298774719, -1.2574832439422607], [0.48115766048431396, -0.02284589596092701, -0.7303184270858765, -0.4523334503173828, -0.038855332881212234, 1.5700716972351074, -2.1726925373077393], [0.22390365600585938, -1.1998018026351929, 0.30703622102737427, 0.04032221809029579, -0.10284087061882019, 0.4087662398815155, 0.0006372095085680485], [-0.0068896920420229435, -0.08681648969650269, -0.25701168179512024, -0.17808090150356293, -0.1967647671699524, 0.11682184785604477, -0.35298728942871094], [-0.24928951263427734, -0.02509654499590397, -0.18439950048923492, -0.33619409799575806, -0.11834738403558731, -0.0337727852165699, -0.15326645970344543], [0.7196235060691833, -0.23894017934799194, -0.6768952012062073, -0.25707072019577026, -0.14785663783550262, -0.13324739038944244, -0.6817911863327026], [1.1062260866165161, 0.686180591583252, 0.07005439698696136, -0.6056603193283081, -0.14553944766521454, -0.4449598491191864, 0.4617980420589447], [0.2591629922389984, -0.2541033625602722, 1.733769416809082, -0.11831972002983093, -0.09353078901767731, -0.28226181864738464, -0.052681729197502136]], "_stack.Linear_0.bias": [-1.086082935333252, 4.419594764709473, -1.8601818084716797, 1.41867196559906, -1.5906072854995728, -1.6636574268341064, 4.04526948928833, 0.12760810554027557, -0.26860764622688293, 5.700607776641846, -4.652466773986816, -5.196667194366455], "_stack.Linear_2.weight": [[-0.29860812425613403, 0.45811665058135986, -0.5275192856788635, 1.4089524745941162, 0.7118021249771118, -0.12372284382581711, -0.6993550062179565, 0.21252641081809998, 0.19376406073570251, 1.0954784154891968, 2.093798875808716, -1.1412980556488037], [-0.2361213117837906, 0.05733262747526169, -0.281112402677536, -0.274321585893631, 0.18621325492858887, 0.07393459230661392, 0.012891228310763836, 0.06752993911504745, 0.2712325155735016, 0.10289972275495529, -0.1403237134218216, -0.27154240012168884], [-0.9348114132881165, 0.07035616040229797, 0.3658043146133423, -0.16226927936077118, 0.9123517870903015, -0.1747129112482071, 1.284140706062317, 0.20840032398700714, -0.10819528996944427, 1.4177063703536987, 0.5162971615791321, -1.5340020656585693], [-0.24925589561462402, -0.23535558581352234, -0.22536319494247437, -0.06201649084687233, 0.16702991724014282, -0.15199069678783417, 0.1482286900281906, 0.048355016857385635, -0.17902840673923492, 0.17380964756011963, 0.14941710233688354, -0.18138661980628967], [-0.20103029906749725, 0.31706735491752625, -0.3746042847633362, -0.12367119640111923, -0.005019973497837782, -0.15043294429779053, -0.12240155786275864, -0.050576843321323395, -0.26386749744415283, 1.5611790418624878, -0.5616469383239746, -3.3166348934173584], [0.11307015269994736, -0.4325960576534271, 0.991216242313385, -0.12149820476770401, -0.15825091302394867, 0.3218091130256653, 0.2886945903301239, 0.05479949340224266, -0.0935422033071518, -1.458105206489563, 1.7296216487884521, 2.0520477294921875], [-0.017299070954322815, 0.5419527292251587, 0.12249388545751572, -0.1029132828116417, -0.3810269832611084, -1.2590223550796509, -0.885715901851654, 0.00395437004044652, 0.2207387387752533, 0.7796251773834229, 1.0407979488372803, -3.7266478538513184], [0.39543867111206055, -0.3123418390750885, 0.9559453129768372, -0.03321778029203415, 0.2964102327823639, -0.3783361315727234, -1.8305953741073608, -0.09842433780431747, -0.07595515251159668, 0.8969453573226929, 0.1492706537246704, -2.759006977081299], [-1.5861958265304565, 0.5355156660079956, 0.08012837916612625, -0.543536901473999, -0.9914251565933228, -0.638157308101654, 1.897041916847229, 0.26800358295440674, 0.1786070615053177, 1.6350339651107788, 1.2784160375595093, -8.463235855102539], [-0.09449134021997452, -0.5874409079551697, 0.5389242172241211, 2.5748202800750732, -0.1909099668264389, -1.9619717597961426, -0.6964170932769775, -0.04010177031159401, 0.22342300415039062, -0.6837415099143982, 0.8559849858283997, -13.897562980651855], [0.4535200297832489, 0.19096530973911285, -0.4558546543121338, 2.4855432510375977, -0.01564127579331398, 0.7060685753822327, 0.37390539050102234, -0.021660249680280685, -0.12915469706058502, -1.1126723289489746, -1.2717089653015137, 2.963012933731079], [-0.4789721667766571, 0.4642896056175232, -0.2621280252933502, -3.4801101684570312, -0.08598475903272629, 0.4888536334037781, -0.319328248500824, -0.13632692396640778, -0.16671335697174072, 1.0679738521575928, 0.4606441557407379, 1.6402438879013062]], "_stack.Linear_2.bias": [-1.0408685207366943, -0.15931130945682526, -0.2109561413526535, -0.3463645875453949, 2.1358156204223633, -2.85723614692688, 2.0311145782470703, 0.1748816967010498, 0.04716796427965164, 0.021375399082899094, 0.2567462921142578, 0.9308802485466003], "_stack.Linear_4.weight": [[0.23868495225906372, 0.020272744819521904, 0.39448827505111694, -0.15449248254299164, -0.7509559988975525, -0.6195333003997803, -0.4850716292858124, 0.5005439519882202, 0.32548123598098755, -0.6821608543395996, -0.2267618179321289, -0.22447864711284637]], "_stack.Linear_4.bias": [-0.09710858017206192], "PiecewiseLinearTransform_6.quantiles": [0.0, 0.009808795737102628, 0.011956886809319257, 0.013698632212355732, 0.015294492393732071, 0.016748074088245628, 0.01807354435324669, 0.019328797236084938, 0.02056281512975693, 0.021751492712646724, 0.02292557742446661, 0.024054595559835433, 0.025221319869160652, 0.026389473855495456, 0.02752330735325814, 0.028581521660089492, 0.029709984362125397, 0.03082936216518283, 0.031884047999978064, 0.03303120320290327, 0.034210145026445385, 0.03534312546253204, 0.03646835832297802, 0.037650219149887566, 0.03877147156000137, 0.03993717171251774, 0.0411134352684021, 0.0423213317617774, 0.04356703105568886, 0.044761516079306604, 0.04596319086849689, 0.04727953300625086, 0.048534899890422825, 0.04976204897463322, 0.05110517470538617, 0.05242600083351136, 0.053692777961492535, 0.055012453347444534, 0.05637007889151573, 0.05780516246706248, 0.05922313556075097, 0.060571985378861416, 0.061902392029762277, 0.0633104145526886, 0.06474144089221959, 0.06620864912867545, 0.0677683970630169, 0.06923586399853228, 0.07071539729833602, 0.07226246586441992, 0.07387237474322318, 0.0755137819200754, 0.07707544827461242, 0.07859581708908081, 0.08019607228040695, 0.0819076412916184, 0.08350465041399004, 0.0850244608670473, 0.08659774765372276, 0.08838427107036112, 0.09020252317190171, 0.09189302924275398, 0.09366445356607436, 0.09539899548888207, 0.09713412821292879, 0.09893310815095901, 0.10075163725018502, 0.10259825809299947, 0.1044338047504425, 0.10615116944909092, 0.10806812360882759, 0.11003567278385162, 0.11206366765499115, 0.11416148394346237, 0.11618163058161736, 0.11824114993214607, 0.12044536912441249, 0.12270624451339246, 0.12480320036411285, 0.1269906759262085, 0.12927812337875366, 0.1314907009601593, 0.1338262196779251, 0.13617585825920106, 0.13852690792083738, 0.14092037066817284, 0.14342701053619383, 0.14585777053236956, 0.14840285408496856, 0.150823561668396, 0.15344281613826755, 0.15624837708473202, 0.15886381840705874, 0.16160023176670074, 0.16430845189094542, 0.1672101716697216, 0.1702367306947708, 0.17323370921611786, 0.17620065772533414, 0.17937229380011557, 0.18271012604236603, 0.18592142057418823, 0.18909369528293613, 0.19233501672744752, 0.19570218968391423, 0.19907454997301102, 0.2026567786931992, 0.20619744819402697, 0.20976175916194917, 0.21401728066802028, 0.2177770686149597, 0.22197556334733964, 0.22592903673648834, 0.2303673024475574, 0.23491767746210093, 0.23972833916544906, 0.24436581134796143, 0.24915694624185564, 0.2538434866666791, 0.258807643353939, 0.2637456798553467, 0.26879253500699973, 0.27425716269016265, 0.27982022505998605, 0.2851394062042237, 0.2908231019973755, 0.2965333814620971, 0.30262044072151184, 0.3084646987915039, 0.3143419714570045, 0.32074485480785375, 0.32741821783781055, 0.3339557013511659, 0.3406596701145172, 0.34762128484249116, 0.35473161369562156, 0.361764123916626, 0.3691261582970621, 0.3766414225101471, 0.38401493430137634, 0.39151818156242335, 0.39938552165031427, 0.40722839856147763, 0.4150735730528831, 0.4239121539592738, 0.4324093037843704, 0.4411508777141571, 0.44983534884452814, 0.4581072926521301, 0.4671292858123779, 0.4765261322259899, 0.4855791586637498, 0.4947025730609893, 0.503703489303589, 0.513439029216767, 0.5236406224966049, 0.5336107025146495, 0.5440648455619812, 0.5540112853050232, 0.5640104413032532, 0.574530189037323, 0.5850711007118226, 0.5949081768989566, 0.6055415145158767, 0.6168653211593629, 0.6274611449241638, 0.6375973224639893, 0.6484215948581695, 0.6590094432830811, 0.6700884103775024, 0.6801915812492372, 0.6908422861099243, 0.7017061161994933, 0.711878583431244, 0.7227631473541258, 0.7329392522573472, 0.743687222480774, 0.7554116128683084, 0.7658822588920594, 0.7771340817213059, 0.788016378879547, 0.7991669178009033, 0.8103137483596802, 0.8214501320123673, 0.8321289734840395, 0.8431503975391388, 0.8538042306900024, 0.8637664700746539, 0.8738051595687866, 0.8841262748241424, 0.8941920506954193, 0.9043822581768031, 0.9141389541625976, 0.9240916140079498, 0.9343142216205598, 0.9445956832170486, 0.9537040519714353, 0.962724340081215, 0.971532895565033, 0.9808952212333679, 1.0]}