{"sigmanet.sigma": [2.0], "sigmanet.nn.0.bias": [-1.843550443649292, 1.5135027170181274, 1.4866493940353394, 1.4234470129013062, -1.0854884386062622, -1.0857082605361938, 2.225935697555542, 0.7535229325294495, 1.0050915479660034, 2.4193904399871826, -1.6872377395629883, 1.4757684469223022, 2.545712471008301, 1.082034707069397, 1.1704001426696777, -1.2561662197113037, 1.110390543937683, 1.4040765762329102, 0.9764077067375183, -1.8623970746994019], "sigmanet.nn.0.weight_orig": [[-1.0537703037261963, 0.6777128577232361, 0.45445430278778076, 1.1064194440841675, 1.2570104598999023, 1.250932216644287], [0.980840265750885, -0.17697779834270477, -0.5055768489837646, -1.0670177936553955, -1.2576690912246704, -1.2277414798736572], [0.9548630714416504, -0.8267690539360046, -0.9720760583877563, 1.1736550331115723, -1.2594541311264038, -1.2488412857055664], [1.2329233884811401, 0.25186479091644287, -0.2937154173851013, -1.2351702451705933, -0.14118552207946777, -1.247023344039917], [-1.027443528175354, 0.25521406531333923, 0.6844348311424255, 1.2599210739135742, 1.2599210739135742, 1.2477716207504272], [-0.6937687993049622, 0.15178319811820984, 0.7591177821159363, -1.2542030811309814, -1.2561500072479248, -0.69005286693573], [0.7750670313835144, 0.5493226051330566, -0.1110183447599411, -1.1984143257141113, 1.258388638496399, -0.8134339451789856], [0.809823751449585, -0.08878066390752792, -0.7477842569351196, -0.020341916009783745, -1.258453607559204, -1.2413119077682495], [0.4124557673931122, 0.40196898579597473, -0.6030423045158386, -0.2446494996547699, 0.33567821979522705, -0.6126250624656677], [0.838391125202179, 1.2599210739135742, -1.2599210739135742, -1.2331666946411133, -1.2578315734863281, -1.2439442873001099], [-1.2171379327774048, 1.0444774627685547, 0.7132397890090942, 1.2335821390151978, 1.2591010332107544, 1.2599210739135742], [0.971772313117981, -0.0799805223941803, -0.7455450296401978, -1.1941007375717163, -1.2576754093170166, -1.2397912740707397], [1.2599210739135742, -0.07124192267656326, -0.22607314586639404, -1.1248703002929688, -1.25789213180542, -1.2434184551239014], [0.6671524047851562, -1.0636142492294312, -1.1072683334350586, -1.159557819366455, -1.2576608657836914, -1.2226299047470093], [0.7745519876480103, 0.23719656467437744, -0.6545372009277344, -0.5857818722724915, -0.32068002223968506, -0.8775553107261658], [-1.1128554344177246, 0.9488959312438965, 0.45796525478363037, 1.1750274896621704, 1.2550908327102661, 1.2519340515136719], [0.7991185188293457, 0.20093019306659698, -0.6220541000366211, 1.1199597120285034, 1.0017871856689453, -0.07486210018396378], [1.0634405612945557, -0.04765459522604942, -0.7004145383834839, -1.2544846534729004, -1.2596333026885986, -1.2515355348587036], [0.875641405582428, 0.5558468699455261, -0.4339742660522461, -0.8958655595779419, -0.18669384717941284, -0.8706464767456055], [-1.0832780599594116, 0.6321536302566528, 0.7624515295028687, 1.0413854122161865, 1.2555224895477295, 1.2257214784622192]], "sigmanet.nn.2.bias": [1.6134796142578125, 1.2580069303512573, -0.973651647567749, 1.5392111539840698, -0.45614197850227356, -0.9470387697219849, 1.1302860975265503, 1.6270177364349365, 1.2734041213989258, -1.2925729751586914, -1.3559213876724243, 0.959457516670227, 1.649119257926941, 1.3850029706954956, -1.2975599765777588, 1.1909366846084595, -1.1418147087097168, 1.5851432085037231, -1.6599622964859009, 1.4472311735153198], "sigmanet.nn.2.weight_orig": [[-0.04247685894370079, 5.74861369386781e-05, 0.00010228829341940582, 0.1929168850183487, -0.18065984547138214, 0.0013603465631604195, 0.00014534596994053572, 0.10467267036437988, -0.00022552143491338938, 0.11583105474710464, -0.2934688329696655, 0.07479792088270187, 0.01464502140879631, 0.06471377611160278, -0.032754212617874146, 0.00014852051390334964, 0.00015691469889134169, 0.11730889976024628, -0.02325647883117199, -0.00022210307361092418], [-0.03820822387933731, -0.0003233901225030422, 3.398691114853136e-05, 0.20570504665374756, -0.21190813183784485, 0.0015423722798004746, 0.00014737209130544215, 0.08649712055921555, 0.00016575898916926235, 0.0866956114768982, -0.4149268567562103, 0.025703154504299164, 0.00041348132072016597, 0.04984867200255394, -0.005527475383132696, 0.0002143958117812872, 0.0001502130035078153, 0.12314498424530029, -0.008715986274182796, 4.876308958046138e-05], [0.02042500115931034, -0.12875746190547943, -0.00028255756478756666, -0.13192175328731537, 0.02220471203327179, -0.0029419641941785812, -0.00032647032639943063, -0.12468315660953522, -0.00019485823577269912, -0.1347946673631668, 0.17194798588752747, -0.10879138857126236, -0.14719577133655548, -0.03693487122654915, 0.020509712398052216, 0.0013882422354072332, -0.00012441136641427875, -0.021928124129772186, 0.18434664607048035, -0.00022131777950562537], [-0.03953275829553604, 0.0047586881555616856, 2.5607896532164887e-05, 0.16354157030582428, -0.13846397399902344, 0.0007591364555992186, -0.00010807677608681843, 0.12481056898832321, 1.3137936548446305e-05, 0.15198498964309692, -0.20140188932418823, 0.12766143679618835, 0.008474111557006836, 0.08030539751052856, -0.035280656069517136, 7.807338988641277e-05, -0.020288817584514618, 0.12340129911899567, -0.03893502801656723, -9.579065954312682e-05], [-0.05271228402853012, 0.08328553289175034, 0.05175770819187164, 0.03796811029314995, -0.03932373598217964, -0.16845864057540894, 0.10148932039737701, 0.05576503276824951, 0.12402310222387314, 0.020347051322460175, -0.028377246111631393, 0.04293893650174141, 0.07676950097084045, 0.021248357370495796, -0.022023141384124756, 0.1025785431265831, 0.08017415553331375, 0.05775130167603493, -0.03688720613718033, 0.05604216828942299], [0.11705710738897324, -0.0007718927226960659, -0.00018886032921727747, -0.147089421749115, 0.13205450773239136, -0.0016250271582975984, -0.00021064304746687412, -0.08056148141622543, 0.00024291187583003193, -0.06818761676549911, 0.14873141050338745, -0.05428500473499298, 0.0006781825213693082, -0.24055853486061096, 0.1017494946718216, -0.0002542984439060092, 0.0001837400341173634, -0.08886871486902237, 0.07646776735782623, -0.00015442079165950418], [-0.0451357401907444, -0.0004587121366057545, 4.7476696636294946e-05, 0.16805706918239594, -0.14407077431678772, 0.0011116075329482555, 0.00022927821555640548, 0.06664413958787918, 0.00015165162039920688, 0.07891658693552017, -0.1984228789806366, 0.041397467255592346, 0.0002229635720141232, 0.3867524564266205, -0.0025586020201444626, 0.0006017765845172107, -0.00018209301924798638, 0.1005849614739418, -0.024281365796923637, 9.347056038677692e-05], [-0.036732546985149384, 0.018917275592684746, 0.00015261146472766995, 0.1929430067539215, -0.19212578237056732, 0.0011831148294731975, -8.953008364187554e-05, 0.08036578446626663, 0.00018386323063168675, 0.11474087089300156, -0.39697590470314026, 0.012394005432724953, 0.00033334005274809897, 0.059090469032526016, -0.02251298539340496, 9.429283818462864e-05, 2.7493535526446067e-05, 0.11001739650964737, -0.020848702639341354, 0.00019207374134566635], [-0.02336147055029869, 0.00016542109369765967, 7.73755818954669e-05, 0.19370760023593903, -0.18936079740524292, 0.0017092271009460092, 2.6276664357283153e-05, 0.05815612152218819, 0.00012559157039504498, 0.11273414641618729, -0.4837132692337036, 0.0020824645180255175, 0.00020115224469918758, 0.04571518301963806, -0.013529565185308456, 0.00048066198360174894, -0.00025399422156624496, 0.11465700715780258, -0.01979571208357811, 6.805641896789894e-05], [0.02119939588010311, -0.014075195416808128, -0.0002405655977781862, -0.19252660870552063, 0.18904446065425873, -0.0014354941667988896, 0.00018264887330587953, -0.043285224586725235, -0.00013331399532034993, -0.09800348430871964, 0.4915185868740082, -0.0020787562243640423, -0.00018338231893721968, -0.056303974241018295, 0.0313587486743927, 0.00026508778682909906, 0.000292421318590641, -0.11284033209085464, 0.004919521976262331, -3.3777407224988565e-05], [0.1099323183298111, -0.0003492568794172257, -0.0001859688782133162, -0.10303731262683868, 0.15345391631126404, -0.00033158002770505846, -0.00015568820526823401, -0.12001048028469086, 0.0001864693040261045, -0.11073325574398041, 0.2059391885995865, -0.08429955691099167, -2.1835438019479625e-05, -0.23689354956150055, 0.004125999752432108, -0.0003601526841521263, 0.0002479220856912434, -0.11637930572032928, 0.013075056485831738, -0.00020228917128406465], [-0.10711519420146942, 0.004556277301162481, 4.5697703171754256e-05, 0.18445542454719543, -0.09260174632072449, 0.000806129421107471, 4.042739965370856e-05, 0.05709027498960495, 6.080628736526705e-05, 0.111472487449646, -0.2928524315357208, 0.07175976783037186, 0.00026164797600358725, 0.13600681722164154, -0.013106804341077805, 0.00018064772302750498, -0.00010164949344471097, 0.12741804122924805, -0.05975472554564476, 0.00023389238049276173], [-0.039255306124687195, 0.0021356071811169386, 4.935801916872151e-05, 0.1925562620162964, -0.21486172080039978, 0.0006932358373887837, 0.00015446939505636692, 0.09409882128238678, 6.43116218270734e-05, 0.09146341681480408, -0.35923492908477783, 0.040122371166944504, -0.00045759903150610626, 0.06182849779725075, -0.01951805129647255, 7.315662514884025e-05, -0.00033938928390853107, 0.13109514117240906, -0.011545198038220406, -0.000374170282157138], [-0.046277403831481934, 0.007215301971882582, 2.5287501557613723e-05, 0.15186910331249237, -0.20974905788898468, 0.017019756138324738, -0.00010609594755806029, 0.07900940626859665, -0.00015614482981618494, 0.09453357756137848, -0.270394504070282, 0.05677584186196327, 0.00023585534654557705, 0.11656251549720764, -0.042820148169994354, 0.00013531855074688792, 2.824822695401963e-05, 0.14106152951717377, -0.0257245060056448, 0.00022140840883366764], [0.056334853172302246, -0.07039788365364075, -0.013036980293691158, -0.08529483526945114, 0.054268717765808105, -0.07240873575210571, 0.306305855512619, -0.01574644073843956, 0.05343008413910866, -0.04843638464808464, 0.08964458853006363, -0.0012176817981526256, -0.06679052114486694, -0.08961009979248047, 0.045978844165802, 0.026125991716980934, 0.12428394705057144, -0.02432502992451191, 0.0028521751519292593, -0.013431320898234844], [-0.1528356969356537, 0.03524482622742653, 0.0003067108627874404, 0.14498360455036163, -0.12407277524471283, 0.002300109015777707, -0.00030630608671344817, 0.09960377961397171, 4.831762271351181e-05, 0.05576189234852791, -0.11959576606750488, 0.08265843242406845, 0.014136464335024357, 0.18300725519657135, -0.11188856512308121, 0.00014973791257943958, 0.00019554654136300087, 0.0662144124507904, -0.06594227999448776, 0.0006685230182483792], [0.06325361132621765, -0.0001945202675415203, -4.770510349771939e-05, -0.16736097633838654, 0.1682606339454651, -0.0009460793226025999, -2.4813418349367566e-05, -0.13395868241786957, 0.00017933949129655957, -0.13732245564460754, 0.21123933792114258, -0.12203739583492279, -0.027220170944929123, -0.0879053920507431, 0.004339945502579212, -0.00017623203166294843, 0.00014020453090779483, -0.13091911375522614, 0.004347349051386118, -4.7043198719620705e-05], [-0.04499188810586929, 0.0005462621338665485, 0.0005266403313726187, 0.2172350287437439, -0.13430820405483246, 0.0004697925760410726, -0.00017866751295514405, 0.10307932645082474, 0.0001822140475269407, 0.10409395396709442, -0.27342668175697327, 0.03527648001909256, 0.000355944357579574, 0.16316384077072144, -0.032851267606019974, 0.0003854289825540036, -0.0002471941988915205, 0.12356790155172348, -0.024803997948765755, -0.00023033018806017935], [0.03188394755125046, -0.0016037308378145099, -0.00016822907491587102, -0.20386821031570435, 0.19414377212524414, -0.0007777775754220784, -0.00015520963643211871, -0.11812955141067505, -4.431086563272402e-05, -0.10249409079551697, 0.2126215696334839, -0.06300128996372223, -0.014476558193564415, -0.09034816175699234, 0.040537334978580475, -0.00012907428026665002, 0.00011838330829050392, -0.1430951952934265, 0.04213399812579155, -0.000190609585843049], [-0.04264632984995842, 0.002276509301736951, 0.00015623721992596984, 0.16175515949726105, -0.16386231780052185, 0.025873029604554176, -0.00018814008217304945, 0.1215541735291481, 5.664777199854143e-05, 0.11648084223270416, -0.17771779000759125, 0.11894010752439499, 0.04297793284058571, 0.06209639087319374, -0.018058564513921738, 0.000201802933588624, -0.006459161173552275, 0.14221031963825226, -0.056224558502435684, 0.00018510570225771517]], "sigmanet.nn.4.bias": [-1.3859481811523438], "sigmanet.nn.4.weight_orig": [[-0.137473464012146, -0.11393118649721146, 0.0004793818516191095, -0.008051660843193531, 0.01784208044409752, -0.00015460739086847752, -0.02732742577791214, -0.11065887659788132, 0.13570931553840637, -0.11690545082092285, 0.01767391711473465, -0.022684725001454353, -0.09696231037378311, -0.13740523159503937, 0.00015043452731333673, -0.011376326903700829, 0.009151925332844257, -0.16097678244113922, 0.12016218155622482, -0.01484385970979929]]}
