{
    "variables_constraints": [
        [
            1.3862961530685425,
            12.367982864379883
        ],
        [
            2.9957354068756104,
            14.478178977966309
        ],
        [
            1.0001434087753296,
            15.633379936218262
        ],
        [
            0.25000089406967163,
            5.346488952636719
        ],
        [
            1.9576690196990967,
            20.998594284057617
        ],
        [
            0.25000089406967163,
            3.788360357284546
        ],
        [
            1.7179461453403293e-07,
            1.8959323140551558
        ],
        [
            3.4994360135406275e-08,
            2.999996451350326
        ],
        [
            2.9957337379455566,
            17.74188804626465
        ],
        [
            -5.065058708190918,
            13.656898498535156
        ],
        [
            2.995734214782715,
            17.722476959228516
        ],
        [
            2.0000011920928955,
            20.887205123901367
        ],
        [
            1.0000001192092896,
            15.54783821105957
        ],
        [
            -12.148888018373777,
            2.3025849022591642
        ],
        [
            -13.047825901826881,
            7.5540736397216675
        ],
        [
            1.0000054836273193,
            11.999996185302734
        ],
        [
            1.0000003576278687,
            11.999992370605469
        ]
    ],
    "sigmanet.sigma": [
        4.0
    ],
    "sigmanet.nn.00.bias": [
        0.10006707161664963,
        -0.12127953767776489,
        0.2140587717294693,
        -0.0638490542769432,
        0.027380315586924553,
        0.07586247473955154,
        0.0047184196300804615,
        -0.1364060640335083,
        0.0835392028093338,
        0.014063674956560135,
        -0.22778499126434326,
        0.041296206414699554,
        -0.11792199313640594,
        -0.14746840298175812,
        -0.0708288922905922,
        0.010229174047708511,
        -0.10425738245248795,
        0.026697548106312752,
        -0.021669108420610428,
        -0.1053919792175293,
        -0.09683676809072495,
        0.12513108551502228,
        -0.12139790505170822,
        0.24984298646450043,
        0.044469524174928665,
        -0.05369603633880615,
        -0.17078498005867004,
        -0.06402523815631866,
        -0.05007314309477806,
        0.012007378041744232,
        0.16781823337078094,
        -0.003024505451321602,
        0.009302842430770397,
        0.052034907042980194,
        0.08933021873235703,
        0.14478468894958496,
        0.05938014015555382,
        0.27473804354667664,
        -0.09177517890930176,
        0.009215879254043102,
        -0.04809297248721123,
        -0.1056927740573883,
        -0.13609664142131805,
        0.035293467342853546,
        0.08404695987701416,
        0.1258346289396286,
        -0.11261370033025742,
        -0.1085030809044838,
        -0.018443943932652473,
        0.03088212013244629,
        -0.1396121382713318,
        0.10166638344526291,
        0.07193780690431595,
        -0.1455686241388321,
        0.0939708948135376,
        -0.019895033910870552,
        0.04577510803937912,
        -0.10712864995002747,
        -0.00032718112925067544,
        -0.10871311277151108,
        0.14080260694026947,
        0.06842166930437088,
        -0.26852941513061523,
        -0.13799750804901123,
        0.04854564741253853,
        -0.13286350667476654,
        -0.045272424817085266,
        -0.07010402530431747,
        0.018232345581054688,
        -0.13605254888534546,
        -0.04801496863365173,
        -0.18759146332740784,
        0.005374075844883919,
        -0.09677399694919586,
        -0.14936719834804535,
        -0.24299484491348267,
        -0.008158248849213123,
        -0.11826450377702713,
        -0.041332945227622986,
        -0.001286571379750967,
        -0.14755995571613312,
        0.008550863713026047,
        0.1414678990840912,
        -0.10598915815353394,
        -0.08394825458526611,
        -0.08426567912101746,
        0.1502176821231842,
        -0.00604024063795805,
        0.029870828613638878,
        -0.19590847194194794,
        -0.14186476171016693,
        -0.14058654010295868,
        0.09290137141942978,
        0.15440846979618073,
        0.14140313863754272,
        0.042732927948236465,
        0.2998730540275574,
        0.034829456359148026,
        0.04569857940077782,
        -0.12888088822364807,
        -0.2863951325416565,
        -0.12662765383720398,
        -0.004779341630637646,
        -0.11065563559532166,
        -0.015651335939764977,
        -0.02377229556441307,
        -1.2505011558532715,
        1.0417183637619019,
        -0.08133169263601303,
        -0.2524695098400116,
        -0.028339944779872894,
        0.04243239387869835,
        -0.9455510377883911,
        0.905613899230957,
        0.13893137872219086,
        0.07955525070428848,
        0.023545321077108383,
        -0.09800878167152405,
        -0.09011608362197876,
        0.031684596091508865,
        0.013488717377185822,
        -0.025886664167046547,
        -0.1102239340543747,
        -0.10418123751878738,
        -0.18807439506053925,
        -0.0966656282544136,
        -0.18295441567897797,
        -0.10617999732494354
    ],
    "sigmanet.nn.00.parametrizations.weight.original": [
        [
            7.530792208854109e-05,
            -0.004571287427097559,
            -1.2848796586695244e-06,
            -8.315902050526347e-06,
            4.679648554883897e-05,
            0.012600545771420002,
            0.0050682430155575275,
            -0.10828562080860138,
            0.01599506288766861,
            -0.005180444102734327,
            -0.00039347109850496054,
            6.776560621801764e-05,
            -4.217580681142863e-06,
            0.006005086936056614,
            0.056240662932395935,
            -0.04176998883485794,
            0.0005348484846763313
        ],
        [
            0.06995584815740585,
            0.02307017892599106,
            2.6565816369839013e-05,
            2.593162025732454e-05,
            9.922808385454118e-05,
            3.5280478186905384e-05,
            0.00011678051669150591,
            -3.884367106365971e-05,
            -0.009694025851786137,
            -0.011607085354626179,
            0.0115556875243783,
            9.283725376008078e-06,
            2.6737361622508615e-05,
            0.013973983004689217,
            -0.024439478293061256,
            -0.01133033912628889,
            -0.014210814610123634
        ],
        [
            0.15537066757678986,
            0.046873994171619415,
            -1.22446385830699e-06,
            5.463653360493481e-05,
            5.0468279368942603e-05,
            0.03945915028452873,
            1.61019906954607e-05,
            -0.12787799537181854,
            -0.0005874409689567983,
            0.0292951799929142,
            0.03780809044837952,
            8.766919927438721e-05,
            5.523622166947462e-05,
            -0.017114534974098206,
            0.0007927343831397593,
            -0.07674188166856766,
            -0.0154184028506279
        ],
        [
            -0.12946012616157532,
            -0.05095142871141434,
            -5.965153832221404e-05,
            -7.271970389410853e-06,
            -7.19662557457923e-06,
            -0.008794596418738365,
            0.03583352267742157,
            0.09931815415620804,
            -0.025090938434004784,
            -0.04633716121315956,
            -0.03530744090676308,
            -0.00014602678129449487,
            -0.0001208140020025894,
            -0.002819349989295006,
            -0.0061250352300703526,
            0.06438761204481125,
            -0.008660530671477318
        ],
        [
            -0.0018169829854741693,
            0.005182026419788599,
            -2.329241033294238e-05,
            -0.0005465505528263748,
            -0.0014561554417014122,
            -0.008309895172715187,
            4.416296724230051e-05,
            -1.0420667422295082e-05,
            -0.005172014702111483,
            0.005401936825364828,
            0.004375120624899864,
            -0.006073428317904472,
            -0.0005405601114034653,
            -0.011139354668557644,
            -0.006454691290855408,
            -5.904591489525046e-06,
            -0.0028383457101881504
        ],
        [
            -0.005698196589946747,
            0.007062139920890331,
            -0.01205420307815075,
            -0.019508766010403633,
            -0.011435030959546566,
            -0.008234414272010326,
            3.248172652092762e-05,
            -0.0005443512927740812,
            0.01657506823539734,
            -0.009637069888412952,
            -0.003938490059226751,
            -0.00870557501912117,
            -0.02098422311246395,
            -0.004765215329825878,
            -0.01005677692592144,
            -1.768480615282897e-05,
            0.022055359557271004
        ],
        [
            -0.008106943219900131,
            0.0026445614639669657,
            -0.01184740662574768,
            -0.012715737335383892,
            -0.0155876399949193,
            -0.007433715742081404,
            -7.763740541122388e-06,
            -9.101400792133063e-05,
            0.021043827757239342,
            0.005146380979567766,
            -0.004280947148799896,
            -0.015048323199152946,
            -0.013298412784934044,
            -0.004200863651931286,
            0.0170682854950428,
            -0.0028936753515154123,
            -0.0007871697889640927
        ],
        [
            -0.003429555566981435,
            0.006483528297394514,
            -0.018592964857816696,
            -0.017986420542001724,
            -0.016154790297150612,
            -0.008455379866063595,
            3.296865907032043e-05,
            -5.579545904765837e-05,
            -0.008233084343373775,
            0.01225652452558279,
            -0.0011097454698756337,
            -0.006470439024269581,
            -0.0073586683720350266,
            -0.01315962616354227,
            -0.005664984229952097,
            -1.8854374502552673e-05,
            -0.0018920284928753972
        ],
        [
            -0.004270141012966633,
            -0.04445426166057587,
            -0.0007769961375743151,
            -4.478765549720265e-05,
            -0.0028197362553328276,
            -0.018781276419758797,
            9.464874165132642e-05,
            -0.005868003237992525,
            -0.009018206968903542,
            -0.00692728441208601,
            -0.0057637933641672134,
            -0.0057187629863619804,
            -9.039985161507502e-05,
            -0.012312750332057476,
            0.01653352938592434,
            -0.0010466640815138817,
            -0.0042000082321465015
        ],
        [
            0.0044080172665417194,
            0.044219616800546646,
            0.0027129342779517174,
            0.0034029765520244837,
            0.004614579025655985,
            0.012220912612974644,
            8.044854439503979e-06,
            0.001521977479569614,
            0.009185421280562878,
            0.013175442814826965,
            -0.015010763891041279,
            0.007362361066043377,
            0.00210964004509151,
            0.003676716471090913,
            0.010486144572496414,
            0.001762034255079925,
            0.0044879917986691
        ],
        [
            0.0021176678128540516,
            -0.016117680817842484,
            0.013313072733581066,
            0.0049287425354123116,
            0.0053297835402190685,
            0.008521590381860733,
            -0.001480541774071753,
            4.942918531014584e-05,
            0.004954441450536251,
            -0.013367137871682644,
            -0.0197601281106472,
            0.018942346796393394,
            0.010690392926335335,
            0.0072363028302788734,
            0.0068971263244748116,
            1.3926345673098695e-05,
            0.001681652502156794
        ],
        [
            0.0034250898752361536,
            -0.0049960617907345295,
            0.018242167308926582,
            0.016012510284781456,
            0.005572315771132708,
            0.0074470024555921555,
            -6.27420304226689e-05,
            8.791283471509814e-05,
            0.0009269352303817868,
            -0.005494410637766123,
            0.003150695702061057,
            0.013250481337308884,
            0.019278060644865036,
            -0.016419541090726852,
            0.005852970294654369,
            0.001839202712289989,
            0.0020336764864623547
        ],
        [
            -0.007292964030057192,
            0.0032195833045989275,
            -0.018340198323130608,
            -0.02212849259376526,
            -0.013017901219427586,
            -0.00911280233412981,
            0.00011858312791446224,
            -0.0002414157206658274,
            -0.00967839453369379,
            0.006200416479259729,
            -0.00047935472684912384,
            -0.006194854620844126,
            -0.014552973210811615,
            -0.005243742372840643,
            -0.0058227237313985825,
            -3.649451173259877e-05,
            -0.0035214251838624477
        ],
        [
            8.544838055968285e-05,
            -0.009508386254310608,
            2.1914765966357663e-06,
            -1.400590281264158e-05,
            -6.999821380304638e-06,
            -0.015096659772098064,
            2.8293092327658087e-05,
            -0.0002203933399869129,
            -0.004480001050978899,
            -0.022970527410507202,
            0.036775171756744385,
            -8.078026439761743e-05,
            1.0555460221439716e-06,
            -0.004022612236440182,
            0.003011849708855152,
            0.04736699163913727,
            -0.0001369667734252289
        ],
        [
            -0.0031061565969139338,
            0.0029440894722938538,
            -0.006981348153203726,
            -0.01961566135287285,
            -0.01341868843883276,
            -0.006908277980983257,
            3.402962101972662e-05,
            -4.819473178940825e-05,
            -0.007157879415899515,
            -0.013173777610063553,
            -0.0017913510091602802,
            -0.006622090935707092,
            -0.017552869394421577,
            -0.012049229815602303,
            -0.006040416192263365,
            -1.3669206055055838e-05,
            -0.0023964345455169678
        ],
        [
            -0.007129499688744545,
            0.008435959927737713,
            -0.022258669137954712,
            -0.005412837956100702,
            -0.005535879172384739,
            -0.007907339371740818,
            3.288406151114032e-05,
            -6.915644189575687e-05,
            -0.003230311907827854,
            0.0072010881267488,
            0.005618124268949032,
            -0.013505753129720688,
            -0.02078182063996792,
            -0.007462991867214441,
            -0.009120889008045197,
            -2.667950866452884e-05,
            -0.006951597984880209
        ],
        [
            0.004759366624057293,
            -0.0024935537949204445,
            0.02370184287428856,
            0.018982160836458206,
            0.00411603506654501,
            0.008006080985069275,
            6.777592716389336e-06,
            0.00013628984743263572,
            0.0015788886230438948,
            -0.009010827168822289,
            0.004991970025002956,
            0.008438307791948318,
            0.0076529281213879585,
            0.005212011747062206,
            0.004915669560432434,
            0.0031841376330703497,
            0.006540213245898485
        ],
        [
            -0.004048829432576895,
            0.003842768259346485,
            -0.020351478829979897,
            -0.025646096095442772,
            -0.018241146579384804,
            -0.007393116131424904,
            0.0001005193407763727,
            -0.004701345227658749,
            -0.0001080335205188021,
            -0.014870059676468372,
            -0.0031098835170269012,
            -0.012363430112600327,
            -0.020090004429221153,
            0.009869744069874287,
            -0.007053500972688198,
            -0.003911479841917753,
            -0.0010694138472899795
        ],
        [
            0.003277209820225835,
            -0.006752186920493841,
            0.007811873219907284,
            0.0190034881234169,
            0.01831664703786373,
            0.008413150906562805,
            -0.005028735846281052,
            6.903065514052287e-05,
            0.008076822385191917,
            -0.004319367464631796,
            0.003064050804823637,
            0.01619703695178032,
            0.010736064985394478,
            0.004966839216649532,
            0.0053008850663900375,
            1.4156380530039314e-05,
            0.0024704355746507645
        ],
        [
            -0.00325061590410769,
            0.004101169761270285,
            -0.0070658521726727486,
            -0.0009919715812429786,
            -0.017072239890694618,
            -0.007867529056966305,
            9.640232747187838e-05,
            -5.921809861320071e-05,
            0.010698727332055569,
            -0.007225917186588049,
            -0.007130004931241274,
            -0.007158875931054354,
            -0.002706510480493307,
            -0.008214136585593224,
            -0.006083945743739605,
            -3.335698420414701e-05,
            0.020948302000761032
        ],
        [
            -0.0002792922023218125,
            -0.0105260806158185,
            -5.565593255596468e-06,
            -0.0002131023065885529,
            -0.00015904594329185784,
            -0.00012261964729987085,
            -2.8631398890865967e-05,
            -1.8663799892237876e-06,
            0.004045664332807064,
            0.008142641745507717,
            0.006668128073215485,
            -0.00027801713440567255,
            -0.0002747436228673905,
            0.020311318337917328,
            0.009745527990162373,
            -0.020378705114126205,
            -0.0018763004336506128
        ],
        [
            0.0008708913810551167,
            -0.009174278937280178,
            2.2379637812264264e-05,
            8.241979230660945e-06,
            4.732212983071804e-05,
            0.0005442694528028369,
            0.00567003944888711,
            1.0992346233251737e-06,
            0.013074184767901897,
            0.007846180349588394,
            -0.013027840293943882,
            3.907533755409531e-05,
            -4.083114220065909e-07,
            0.007672223262488842,
            -0.008665014058351517,
            0.01257328875362873,
            0.022786784917116165
        ],
        [
            -1.178764614451211e-05,
            -0.011379444040358067,
            -5.325182883098023e-06,
            1.0480324817763176e-05,
            1.0750284218374873e-06,
            0.0002771631407085806,
            -0.0019227775046601892,
            0.010810839012265205,
            0.011785726062953472,
            0.005987628363072872,
            -0.01384895108640194,
            2.9289923986652866e-05,
            3.2646735235175584e-06,
            0.006558910012245178,
            0.0012130789691582322,
            0.024885669350624084,
            0.04125484451651573
        ],
        [
            -4.92973776999861e-05,
            0.0013669831678271294,
            4.0457257455273066e-06,
            -9.552622032060754e-06,
            -2.36063187912805e-05,
            -0.00013660613331012428,
            0.003033469431102276,
            -0.009070946834981441,
            -0.008718089200556278,
            0.01708485372364521,
            0.003711982863023877,
            -7.516520099670743e-07,
            6.776662758056773e-06,
            0.005472101736813784,
            0.013795212842524052,
            -0.04248540475964546,
            -0.05102778598666191
        ],
        [
            0.002774206455796957,
            -0.005081417039036751,
            0.010512430220842361,
            0.007124017924070358,
            0.018588660284876823,
            0.01103843655437231,
            -3.34936376020778e-05,
            0.00017589970957487822,
            0.001290512504056096,
            -0.0036244657821953297,
            0.001216684002429247,
            0.00722416490316391,
            0.019443610683083534,
            0.0048879776149988174,
            0.006343965884298086,
            2.964329905807972e-05,
            0.004888933151960373
        ],
        [
            -0.004246850032359362,
            0.004334051162004471,
            -0.022331461310386658,
            -0.022384746000170708,
            -0.010236725211143494,
            -0.009021577425301075,
            3.291391840321012e-05,
            -3.042519347218331e-05,
            0.009530933573842049,
            0.006270956713706255,
            -0.005429640877991915,
            -0.014646744355559349,
            -0.019765840843319893,
            -0.007200963795185089,
            0.01688862033188343,
            -2.912784111686051e-05,
            -0.00236523081548512
        ],
        [
            -0.011594387702643871,
            0.006140901707112789,
            -0.000580497202463448,
            -0.0007408367819152772,
            -0.03237330541014671,
            -0.011496332474052906,
            -7.11950815457385e-06,
            -0.009411257691681385,
            -0.002712214132770896,
            0.004336396232247353,
            -0.014745006337761879,
            -0.023266645148396492,
            -0.00014877485227771103,
            -0.001751429750584066,
            -0.011289012618362904,
            0.00800817459821701,
            -0.0048818266950547695
        ],
        [
            7.482611545128748e-05,
            0.012331895530223846,
            -5.245828106126282e-06,
            -1.3098059753247071e-05,
            3.970365651184693e-05,
            0.01573639176785946,
            -0.00018068075587507337,
            -0.0936189517378807,
            -0.007879816927015781,
            -0.0017494853818789124,
            0.02716250903904438,
            2.0252651665941812e-05,
            1.3927060535934288e-06,
            0.0006297350046224892,
            -0.027881283313035965,
            -0.04269016906619072,
            0.0002446450525894761
        ],
        [
            -0.0019389484077692032,
            0.0020440025255084038,
            -4.6261622628662735e-05,
            -0.000490039587020874,
            -0.0003545733343344182,
            -0.013081413693726063,
            7.297295815078542e-05,
            -0.00015772358165122569,
            -0.006046601105481386,
            -0.00786313135176897,
            0.016947776079177856,
            -0.016093917191028595,
            -0.0003315737994853407,
            0.01666773296892643,
            0.015112698078155518,
            -3.5006556572625414e-05,
            0.02135084569454193
        ],
        [
            0.004546348471194506,
            -0.005712199956178665,
            0.02393379434943199,
            0.028434358537197113,
            0.021628964692354202,
            0.007574388757348061,
            -4.408083896123571e-06,
            0.0003070710226893425,
            0.002114411210641265,
            -0.005819322541356087,
            0.007970410399138927,
            0.017284711822867393,
            0.026695491746068,
            -0.01487609464675188,
            0.006973704323172569,
            1.606104342499748e-05,
            0.004751456901431084
        ],
        [
            0.05012836307287216,
            0.022089682519435883,
            5.206838977755979e-06,
            7.3432647695881315e-06,
            0.00016789129585959017,
            0.004054553806781769,
            4.5653483539354056e-05,
            -0.03742508217692375,
            0.022333253175020218,
            0.005159706808626652,
            0.0033999921288341284,
            4.5478660467779264e-05,
            0.0001830834080465138,
            -0.002300912979990244,
            -0.01280923094600439,
            -0.045292530208826065,
            -0.00807773694396019
        ],
        [
            -0.044824495911598206,
            -0.022526174783706665,
            -0.00013291003415361047,
            -0.0001884014200186357,
            -0.0002355822070967406,
            -0.00011890359746757895,
            0.009851801209151745,
            0.025493163615465164,
            -4.975133924745023e-05,
            -0.02822774276137352,
            -0.0042933449149131775,
            -0.0023626352194696665,
            -0.0003391257778275758,
            0.003564322367310524,
            -0.013855386525392532,
            -1.1201691449969076e-05,
            0.008180920034646988
        ],
        [
            0.004511913284659386,
            -0.004659363534301519,
            0.019949812442064285,
            0.02388652041554451,
            0.016411781311035156,
            0.008753912523388863,
            -0.00010851848492166027,
            0.00013561549712903798,
            -0.005017696879804134,
            0.009546054527163506,
            0.003021233482286334,
            0.006772927474230528,
            0.019954167306423187,
            0.008264975622296333,
            0.007568383123725653,
            0.006124699022620916,
            0.0047771078534424305
        ],
        [
            -0.005883507430553436,
            0.007611019536852837,
            -0.020186202600598335,
            -0.02249058522284031,
            -0.016053901985287666,
            -0.009902164340019226,
            9.91590932244435e-05,
            -8.613539830548689e-05,
            -0.009862110950052738,
            -0.010668148286640644,
            -0.009930194355547428,
            -0.014446215704083443,
            -0.005831743124872446,
            0.016009990125894547,
            -0.006444938015192747,
            -2.794907777570188e-05,
            -0.00240296870470047
        ],
        [
            -0.0007500551291741431,
            -0.013589463196694851,
            -2.123616104654502e-05,
            -0.0001709881325950846,
            -3.4975033486261964e-05,
            -0.0016494101146236062,
            2.517057509976439e-06,
            -2.260978908452671e-05,
            -0.00644875830039382,
            0.0025592881720513105,
            0.014914079569280148,
            -2.3291700927075e-05,
            -2.5020952307386324e-05,
            0.016349991783499718,
            -0.006860410328954458,
            0.01897137239575386,
            -0.0023537417873740196
        ],
        [
            -0.004645372740924358,
            0.005172570236027241,
            -0.021937116980552673,
            -0.004880478605628014,
            -0.012837870046496391,
            -0.0070646703243255615,
            0.00011944896687055007,
            -0.0006856287363916636,
            -0.003324443008750677,
            0.006170637905597687,
            -0.008965943939983845,
            -0.014997734688222408,
            -0.020424365997314453,
            0.015774410218000412,
            -0.00574150076135993,
            -2.2594227630179375e-05,
            -0.0035305044148117304
        ],
        [
            -0.013523825444281101,
            0.012840887531638145,
            -0.00890122540295124,
            -0.019776536151766777,
            -0.012940260581672192,
            -0.009065452963113785,
            -7.45452143746661e-06,
            -0.0011141570284962654,
            -0.0002711638808250427,
            0.005458205938339233,
            -0.006875031627714634,
            -0.014731724746525288,
            -0.020204946398735046,
            -0.012144169770181179,
            -0.005878330674022436,
            -2.1812040358781815e-05,
            -0.00766565790399909
        ],
        [
            -0.005521878600120544,
            0.0024901737924665213,
            -0.022150205448269844,
            -0.008027156814932823,
            -0.004001452121883631,
            -0.010794349014759064,
            9.561076149111614e-05,
            -0.00014109669427853078,
            -0.005594023037701845,
            -0.010233522392809391,
            -0.0015555769205093384,
            -0.01264006458222866,
            -0.025029916316270828,
            0.01749609038233757,
            -0.0059762089513242245,
            -0.0058328015729784966,
            -0.001765454071573913
        ],
        [
            -0.014089136384427547,
            0.005337903741747141,
            -0.00035768994712270796,
            -0.0014900101814419031,
            -0.0007635127403773367,
            -0.0037358419504016638,
            0.0030381663236767054,
            -0.002085647778585553,
            0.010775277391076088,
            0.011352007277309895,
            -0.0015464449534192681,
            -0.015411753207445145,
            -0.000678132870234549,
            0.015315772034227848,
            -0.010158706456422806,
            -2.5524400371068623e-06,
            -0.007106554228812456
        ],
        [
            0.008666204288601875,
            -0.0047120894305408,
            0.021821439266204834,
            0.025253919884562492,
            0.01550315972417593,
            0.006929114926606417,
            -0.0027832065243273973,
            0.002634383039548993,
            0.003143223002552986,
            -0.003639906644821167,
            0.0025765530299395323,
            0.0075365896336734295,
            0.025520069524645805,
            0.00658175116404891,
            -0.017078867182135582,
            1.5678295312682167e-05,
            0.0030410359613597393
        ],
        [
            -0.004342090338468552,
            0.008640803396701813,
            -0.020246706902980804,
            -0.009106201119720936,
            -0.014184427447617054,
            -0.010021627880632877,
            -7.54622851673048e-06,
            -0.00013266332098282874,
            -0.010167816653847694,
            -0.011664641089737415,
            0.005890612490475178,
            -0.006647746544331312,
            -0.015664812177419662,
            0.017229055985808372,
            0.01756642758846283,
            -1.3618730008602142e-05,
            -0.0024284895043820143
        ],
        [
            -0.006137831602245569,
            0.004735082853585482,
            -0.005526076070964336,
            -0.0038938492070883512,
            -0.013642760924994946,
            -0.00922291912138462,
            5.8831614296650514e-05,
            -8.801610965747386e-05,
            -0.007634362671524286,
            -0.016194768249988556,
            -0.0008857718203216791,
            -0.014253313653171062,
            -0.00756591372191906,
            -0.008731086738407612,
            -0.006010199431329966,
            -1.9263028661953285e-05,
            -0.006733360234647989
        ],
        [
            0.005893421359360218,
            -0.0021916162222623825,
            0.020421631634235382,
            0.004601255524903536,
            0.005914557725191116,
            0.010298814624547958,
            -3.308986924821511e-05,
            7.499398634536192e-05,
            0.003273910842835903,
            -0.006195725407451391,
            0.0011376285692676902,
            0.013673976063728333,
            0.021148502826690674,
            -0.016612982377409935,
            0.005662629846483469,
            1.3363098332774825e-05,
            0.0037132014986127615
        ],
        [
            0.004296275787055492,
            -0.012207003310322762,
            0.02035108208656311,
            0.023150162771344185,
            0.017635682597756386,
            0.00770962331444025,
            -4.1550028981873766e-06,
            7.531800656579435e-05,
            0.009874705225229263,
            -0.004510361235588789,
            -0.005705024115741253,
            0.013736238703131676,
            0.02306651696562767,
            -0.014986303634941578,
            0.0058105639182031155,
            0.0016807339852675796,
            0.0014473750488832593
        ],
        [
            0.005499598570168018,
            0.020375682041049004,
            0.02668704092502594,
            0.03074149414896965,
            0.009128812700510025,
            0.0085359001532197,
            -0.00010501958604436368,
            0.0026510332245379686,
            0.0017155685927718878,
            -0.004095018375664949,
            0.0014072890626266599,
            0.021059805527329445,
            0.008237866684794426,
            0.0032796745654195547,
            -0.012847740203142166,
            0.0032330667600035667,
            -0.019302181899547577
        ],
        [
            -0.003765920177102089,
            0.008187915198504925,
            -0.0015417028916999698,
            -0.0015681290533393621,
            -0.006490947213023901,
            -0.011134866625070572,
            -1.8484499378246255e-05,
            -0.0014225451741367579,
            -0.00800851359963417,
            0.0031934890430420637,
            -0.007854217663407326,
            -0.023487752303481102,
            -0.00044289662037044764,
            -0.004168483428657055,
            0.013699028640985489,
            0.01607111468911171,
            -0.006436523515731096
        ],
        [
            0.012451289221644402,
            -0.004272341728210449,
            4.344750414020382e-05,
            8.525394150638022e-06,
            0.00021514501713681966,
            0.00021433537767734379,
            6.75015007800539e-06,
            3.096216460107826e-05,
            -1.2025092473777477e-05,
            0.012019027955830097,
            0.004545743111521006,
            0.00021013403602410108,
            2.0179593320790445e-06,
            -0.0185209009796381,
            0.007401884533464909,
            -3.4290587791474536e-05,
            -0.012887760065495968
        ],
        [
            0.009172333404421806,
            -0.004531091079115868,
            3.559188553481363e-05,
            0.00010020138142863289,
            0.0033918486442416906,
            0.0005762720829807222,
            2.4808268790366128e-05,
            2.823596696543973e-05,
            0.005619197618216276,
            0.010251973755657673,
            0.003651390317827463,
            0.006390335503965616,
            0.00013992747699376196,
            0.009782999753952026,
            0.009414676576852798,
            -1.9532582882675342e-05,
            -0.02544930949807167
        ],
        [
            3.413809463381767e-05,
            0.006849582307040691,
            -1.550449087517336e-05,
            -7.0175883593037724e-06,
            -1.6102818335639313e-05,
            -0.037499140948057175,
            0.00011118554539280012,
            6.947557994863018e-05,
            -0.0009557001176290214,
            0.002345736138522625,
            0.028577271848917007,
            -0.027028625831007957,
            -2.382171260251198e-05,
            -0.004659375641494989,
            -0.007693273480981588,
            -0.005521033890545368,
            -0.005853068083524704
        ],
        [
            -0.0006222652737051249,
            0.0027780216187238693,
            -1.5642342987121083e-05,
            -4.408638778841123e-05,
            -0.00024245923850685358,
            -0.00013611574831884354,
            5.124199014971964e-05,
            -0.00278938515111804,
            -0.012417308986186981,
            0.004761293530464172,
            -0.010333165526390076,
            -1.895737113954965e-05,
            -3.654835018096492e-05,
            -0.0039712670259177685,
            -0.002840350614860654,
            0.00425097718834877,
            0.020185254514217377
        ],
        [
            0.004016362130641937,
            -0.0020543604623526335,
            0.005203961860388517,
            0.019474459812045097,
            0.0032460999209433794,
            0.008061596192419529,
            -6.324957212200388e-05,
            0.00014070345787331462,
            0.007953093387186527,
            0.007150211837142706,
            0.0016013673739507794,
            0.006269469857215881,
            0.020257046446204185,
            0.005304553080350161,
            0.006302547641098499,
            1.8702203306020238e-05,
            0.0028707943856716156
        ],
        [
            0.006257356610149145,
            -0.006653483025729656,
            0.005400580819696188,
            0.01639600098133087,
            0.016943898051977158,
            0.01100243255496025,
            -5.953997970209457e-05,
            3.5310600651428103e-05,
            -0.006679313722997904,
            0.0138140469789505,
            -0.01517241820693016,
            0.014068168587982655,
            0.01409926824271679,
            0.009803020395338535,
            0.0072676087729632854,
            4.10479833590216e-06,
            0.002401521662250161
        ],
        [
            0.010963804088532925,
            -0.0007952863234095275,
            0.03924642130732536,
            0.029998213052749634,
            0.011363785713911057,
            0.010835428722202778,
            3.9876951632322744e-05,
            0.006944310385733843,
            0.0033054810483008623,
            -0.0027194006834179163,
            0.00838075764477253,
            0.01981591433286667,
            0.01578747294843197,
            -0.011662725359201431,
            -0.012905620038509369,
            0.00470133638009429,
            0.007114320527762175
        ],
        [
            2.6604522645357065e-05,
            -0.0011399445356801152,
            -6.868270702398149e-06,
            2.393377508269623e-05,
            -2.7802225304185413e-05,
            -3.4290802432224154e-05,
            -3.818891491391696e-05,
            0.07812473922967911,
            -0.0038790805265307426,
            -0.022505512461066246,
            0.019662605598568916,
            -9.541433428239543e-06,
            7.282513251993805e-06,
            0.00937332957983017,
            0.0016366950003430247,
            0.042737193405628204,
            -0.01295915525406599
        ],
        [
            -0.004738961812108755,
            0.004005295690149069,
            -0.013490885496139526,
            -0.002621108666062355,
            -0.018220670521259308,
            -0.008908875286579132,
            0.006021482869982719,
            -7.529389404226094e-05,
            -0.001796053140424192,
            0.009650877676904202,
            -0.002236571628600359,
            -0.015599270351231098,
            -0.0021016474347561598,
            -0.009729699231684208,
            -0.008685017935931683,
            -2.8336151444818825e-05,
            0.016617728397250175
        ],
        [
            -0.009635464288294315,
            0.004730024375021458,
            -0.006416006945073605,
            -0.012804080732166767,
            -0.01302498858422041,
            -0.00808828603476286,
            0.00010904853843385354,
            -4.9001584557117894e-05,
            -0.00013735525135416538,
            0.003106155898422003,
            -0.0024646162055432796,
            -0.0138516491279006,
            -0.019725697115063667,
            -0.013429386541247368,
            -0.005919028539210558,
            -0.000377911317627877,
            -0.0025248394813388586
        ],
        [
            -0.0032190007623285055,
            0.007851844653487206,
            -0.004129000008106232,
            -0.01561403926461935,
            -0.013884948566555977,
            -0.007186797447502613,
            0.0036585205234587193,
            -8.74229081091471e-05,
            -0.008274725638329983,
            0.0037883943878114223,
            -0.008162055164575577,
            -0.01184948068112135,
            -0.011072041466832161,
            0.016853895038366318,
            0.016813063994050026,
            -3.485315028228797e-05,
            -0.0032246133778244257
        ],
        [
            -8.664536289870739e-05,
            0.005579132121056318,
            -3.355288572493009e-05,
            -3.779916005441919e-05,
            -0.0009557052399031818,
            -0.0008221450261771679,
            -2.1890180505579337e-05,
            -1.1380098840163555e-05,
            0.02108999527990818,
            0.011015702039003372,
            0.02381419576704502,
            -0.0006066040368750691,
            -0.00033186201471835375,
            0.011143052950501442,
            -0.009756909683346748,
            -0.0019277384271845222,
            -0.0029171134810894728
        ],
        [
            0.003015742637217045,
            -0.0024867060128599405,
            0.02665834315121174,
            0.027016904205083847,
            0.020945945754647255,
            0.010898361913859844,
            -6.309730088105425e-05,
            0.0008162055746652186,
            0.010179765522480011,
            -0.007368836086243391,
            -0.014346137642860413,
            0.017793038859963417,
            0.027471231296658516,
            -0.017312416806817055,
            0.005681089591234922,
            1.8995377104147337e-05,
            -0.014724084176123142
        ],
        [
            -0.0038230023346841335,
            0.002051897346973419,
            -0.021508097648620605,
            -0.023145277053117752,
            -0.020857950672507286,
            -0.009556196630001068,
            9.924385813064873e-05,
            -8.778945630183443e-05,
            -0.010020080022513866,
            -0.012327856384217739,
            -0.0040710726752877235,
            -0.01557877566665411,
            -0.005435260944068432,
            -0.01191007811576128,
            -0.004172591958194971,
            -1.8982855181093328e-05,
            0.021748865023255348
        ],
        [
            0.013279267586767673,
            -0.0028462782502174377,
            0.000944027618970722,
            0.0002987570478580892,
            0.011371960863471031,
            0.00802765041589737,
            -3.9584901969647035e-06,
            0.00013157690409570932,
            4.0239821828436106e-05,
            -0.01000190433114767,
            0.0031955749727785587,
            0.0068891835398972034,
            0.0009282194077968597,
            -0.01630498468875885,
            -0.016573002561926842,
            0.003762732492759824,
            0.0012944515328854322
        ],
        [
            0.002896232297644019,
            -0.01047790888696909,
            0.00010666285379556939,
            0.0005566230393014848,
            0.0006573099526576698,
            0.01933697983622551,
            1.962514033948537e-05,
            5.56131053599529e-05,
            -0.012833802960813046,
            -0.0015214306768029928,
            2.1224748707027175e-05,
            0.003911318723112345,
            8.020215318538249e-05,
            0.016267385333776474,
            -0.018976403400301933,
            2.4231887437053956e-05,
            0.006174296606332064
        ],
        [
            0.007835487835109234,
            -0.006798660382628441,
            0.02172193117439747,
            0.009569577872753143,
            0.01016787439584732,
            0.008905370719730854,
            -0.002381827449426055,
            4.946099579683505e-05,
            0.009976602159440517,
            -0.002713113324716687,
            0.0023492276668548584,
            0.021050192415714264,
            0.006990127265453339,
            0.007669495418667793,
            0.004853534046560526,
            0.00033760580117814243,
            0.002915483433753252
        ],
        [
            -0.0032121846452355385,
            0.0036664879880845547,
            -0.00823567807674408,
            -0.02552376314997673,
            -0.00640532560646534,
            -0.006792760919779539,
            6.1033049860270694e-05,
            -9.188758849631995e-05,
            -0.0027626981027424335,
            0.004872127901762724,
            -0.004452030174434185,
            -0.016630126163363457,
            -0.026063881814479828,
            -0.0019754162058234215,
            -0.002279336331412196,
            -2.4496632249793038e-05,
            -0.0031583330128341913
        ],
        [
            -0.006477180402725935,
            0.0015229666605591774,
            -0.008711941540241241,
            -0.006459344644099474,
            -0.022043971344828606,
            -0.007643601857125759,
            0.0001024471057462506,
            -6.027673589414917e-05,
            -0.013393365778028965,
            0.010376498103141785,
            -0.000980794313363731,
            -0.008245508186519146,
            -0.02547375112771988,
            0.016520468518137932,
            0.016669202595949173,
            -6.43133171251975e-06,
            -0.0010093434248119593
        ],
        [
            0.0042513529770076275,
            -0.0027994532138109207,
            0.02413034625351429,
            0.025152891874313354,
            0.019734036177396774,
            0.012631295248866081,
            -0.0016551766311749816,
            0.0003811106726061553,
            0.014539667405188084,
            -0.0049056136049330235,
            0.0066255731508135796,
            0.009840602986514568,
            0.02803141623735428,
            0.010592606849968433,
            -0.018395308405160904,
            2.888424751290586e-05,
            0.0031657132785767317
        ],
        [
            0.0034243350382894278,
            -0.008902017027139664,
            0.019065164029598236,
            0.0030405945144593716,
            0.017567584291100502,
            0.01326685305684805,
            -0.0001084756149793975,
            0.006516856607049704,
            -0.021169651299715042,
            0.016537664458155632,
            0.00112709472887218,
            0.00779319554567337,
            0.020577652379870415,
            0.0035522154066711664,
            -0.015304244123399258,
            0.0005174799589440227,
            0.0010331874946132302
        ],
        [
            -0.00472866790369153,
            0.00169337575789541,
            -0.02073255367577076,
            -0.016593726351857185,
            -0.020128581672906876,
            -0.008569908328354359,
            -3.4157805202994496e-05,
            -0.0018696747720241547,
            -0.01258868258446455,
            0.008002961985766888,
            -0.001367974211461842,
            -0.0168253555893898,
            -0.0058191814459860325,
            -0.003523831721395254,
            0.01555998157709837,
            -1.4446086424868554e-05,
            -0.003995758481323719
        ],
        [
            -0.005729416850954294,
            -0.032031312584877014,
            -1.0341361303289887e-05,
            -0.00010561331873759627,
            -0.00011068709864048287,
            -0.0032812999561429024,
            -0.013992805033922195,
            0.002115751150995493,
            -0.007833844050765038,
            0.010197963565587997,
            0.027194613590836525,
            -8.837672794470564e-05,
            -6.049017611076124e-05,
            0.0009837718680500984,
            -0.012708318419754505,
            0.0036884769797325134,
            -0.012629345059394836
        ],
        [
            0.039398159831762314,
            0.03920422121882439,
            1.957650965778157e-05,
            0.0001326982892351225,
            7.548472058260813e-05,
            0.04738488793373108,
            0.014411348849534988,
            -0.01482347771525383,
            -0.0012396842939779162,
            0.004012121818959713,
            -0.030814621597528458,
            1.0467500032973476e-05,
            8.919796528061852e-05,
            -0.003568591782823205,
            -0.012607644312083721,
            -0.004212862346321344,
            -0.0003032283275388181
        ],
        [
            -0.005648302845656872,
            0.010740033350884914,
            -0.00646620150655508,
            -0.025354089215397835,
            -0.021239638328552246,
            -0.013471480458974838,
            -2.793885869323276e-06,
            -5.8488953072810546e-05,
            -0.0019008864182978868,
            0.0050259060226380825,
            -0.004922780673950911,
            -0.01652826927602291,
            -0.021133752539753914,
            0.016670256853103638,
            -0.0020459743682295084,
            -0.0016320119611918926,
            -0.0005313384463079274
        ],
        [
            0.0072678555734455585,
            -0.0029445309191942215,
            0.02466493844985962,
            0.03145306929945946,
            0.006416072137653828,
            0.012418189086019993,
            -4.01625620725099e-05,
            8.908964809961617e-05,
            0.012402944266796112,
            0.0073904492892324924,
            -0.013919091783463955,
            0.018530651926994324,
            0.010690458118915558,
            -0.015724720433354378,
            0.0013885860098525882,
            3.435731923673302e-05,
            0.0014552648644894361
        ],
        [
            0.004265326540917158,
            -0.013108235783874989,
            0.02114413119852543,
            0.02479904517531395,
            0.014263585209846497,
            0.010220516473054886,
            -6.0231719544390216e-05,
            0.003005456179380417,
            0.0005231071263551712,
            -0.004513745196163654,
            0.006288173142820597,
            0.00783865712583065,
            0.010078386403620243,
            0.004199397284537554,
            -0.01667385920882225,
            0.0009769556345418096,
            0.0031362951267510653
        ],
        [
            0.003656568704172969,
            -0.011515974067151546,
            0.01423975732177496,
            0.021670343354344368,
            0.021734802052378654,
            0.01191082876175642,
            -3.2994645152939484e-05,
            3.637034023995511e-05,
            0.00016719690756872296,
            -0.011797197163105011,
            -0.021503912284970284,
            0.01929302141070366,
            0.015956062823534012,
            0.007657749578356743,
            0.00896456278860569,
            -0.018585214391350746,
            0.0007572800386697054
        ],
        [
            -0.0026520290412008762,
            0.004452070686966181,
            -0.015391671098768711,
            -0.004450107924640179,
            -0.019380727782845497,
            -0.01063383836299181,
            0.004164234735071659,
            -0.00012919488654006273,
            -0.007290704641491175,
            0.00840319786220789,
            -0.0019891690462827682,
            -0.01759503036737442,
            -0.02063584327697754,
            -0.0052371579222381115,
            -0.0019698680844157934,
            -1.4080528671911452e-05,
            -0.005242088809609413
        ],
        [
            0.007660739589482546,
            -0.0021735522896051407,
            0.02281998284161091,
            0.022209996357560158,
            0.02246715873479843,
            0.01107887364923954,
            2.093214243359398e-05,
            0.00012537949078250676,
            -0.013082455843687057,
            -0.01062062382698059,
            0.008607539348304272,
            0.020187437534332275,
            0.005513609852641821,
            -0.00871830154210329,
            0.002766052260994911,
            0.0026024789549410343,
            0.001840250683017075
        ],
        [
            -0.0004677969845943153,
            0.005071168765425682,
            -7.31642940081656e-05,
            -0.00012091513781342655,
            -0.0005868825246579945,
            -0.013648563995957375,
            1.1167198863404337e-06,
            -7.738202839391306e-06,
            -0.0018398026004433632,
            0.006550756748765707,
            0.02172294817864895,
            -0.0084278779104352,
            -7.344801269937307e-05,
            0.012247147038578987,
            -0.006066404283046722,
            -2.0783203581231646e-05,
            -0.0032143667340278625
        ],
        [
            -0.003219189587980509,
            0.0039502354338765144,
            -0.005927545018494129,
            -0.009125901386141777,
            -0.013979370705783367,
            -0.009445134550333023,
            -4.0327100577997044e-05,
            -0.00014049226592760533,
            -0.00030980969313532114,
            -0.006887335330247879,
            -0.0009459874127060175,
            -0.014588430523872375,
            -0.017994752153754234,
            -0.00670401006937027,
            0.017397860065102577,
            -0.0023222938179969788,
            -0.00707123801112175
        ],
        [
            0.0002373447350692004,
            -0.0027743095997720957,
            0.00011445590644143522,
            0.00012728996807709336,
            0.00021988671505823731,
            0.0028115694876760244,
            1.0427403140056413e-05,
            2.9356340746744536e-05,
            -0.01832929067313671,
            0.007844590581953526,
            0.0031804905738681555,
            3.861683217110112e-05,
            0.0004051484283991158,
            -0.011423470452427864,
            -0.013563135638833046,
            3.2369131076848134e-05,
            -0.01856599748134613
        ],
        [
            0.006313274148851633,
            -0.004166316706687212,
            0.00024751797900535166,
            0.0009678149945102632,
            0.012084102258086205,
            0.00875476561486721,
            -4.247877586749382e-05,
            0.00011892507609445602,
            0.0006439554854296148,
            0.011939529329538345,
            0.00328462035395205,
            0.015821367502212524,
            0.000863626366481185,
            -0.01454052235931158,
            0.0066528297029435635,
            3.5827946703648195e-05,
            -0.02124459482729435
        ],
        [
            -0.003853339934721589,
            -0.024348750710487366,
            -0.0006764037534594536,
            -0.0009951352840289474,
            -0.004312208853662014,
            -0.0032373869325965643,
            3.3762560633476824e-05,
            -0.008781130425632,
            0.009656719863414764,
            0.0029747653752565384,
            -0.014369126409292221,
            -0.0018298868089914322,
            -0.0002183073083870113,
            -0.009887471795082092,
            0.01580672152340412,
            -0.0013299552956596017,
            -0.0008247706573456526
        ],
        [
            0.0034246009308844805,
            0.028748976066708565,
            0.0007536913617514074,
            0.0006226231344044209,
            0.002144771860912442,
            0.0020829702261835337,
            1.4937777450541034e-05,
            0.0037970130797475576,
            -0.0007603455451317132,
            -0.003020297968760133,
            0.007619238458573818,
            0.006713009439408779,
            0.0004650888149626553,
            -0.01129953470081091,
            0.008797986432909966,
            2.627580579428468e-05,
            0.0037271531764417887
        ],
        [
            -0.000606380810495466,
            0.009268403984606266,
            -0.0021810485050082207,
            -0.006682822480797768,
            -0.03460313007235527,
            -0.00013540258805733174,
            -0.012062917463481426,
            -0.001061675720848143,
            -0.025590533390641212,
            0.007259635254740715,
            -0.0056143212132155895,
            -0.007857058197259903,
            -0.008898833766579628,
            -0.005670463666319847,
            -0.00660972623154521,
            0.0053096553310751915,
            0.04396609961986542
        ],
        [
            -0.00010007608216255903,
            -0.00815623626112938,
            -4.452923349163029e-06,
            7.179255590017419e-07,
            -9.93557769106701e-05,
            -0.023224854841828346,
            0.014419900253415108,
            0.01204313337802887,
            0.05029480531811714,
            0.005312319379299879,
            -0.0036095797549933195,
            -1.9755021639866754e-05,
            -1.2147193046985194e-06,
            -0.0078044794499874115,
            -0.00312683149240911,
            0.001669188728556037,
            -0.05443143844604492
        ],
        [
            -0.0059818304143846035,
            0.003988390322774649,
            -0.00014601023576688021,
            -0.0004228641337249428,
            -0.01006883941590786,
            -0.00538173271343112,
            3.356016804900719e-06,
            -0.00012985030480194837,
            0.020518213510513306,
            0.008454401046037674,
            -0.012505997903645039,
            -0.011180329136550426,
            -0.0006179297342896461,
            -0.001791808637790382,
            -0.002464642282575369,
            -0.0036445860750973225,
            -0.008526504039764404
        ],
        [
            0.006285351701080799,
            -0.002088476438075304,
            0.0267079696059227,
            0.008169413544237614,
            0.008731438778340816,
            0.008176918141543865,
            -0.002928622532635927,
            0.0001344892370980233,
            0.011436769738793373,
            -0.0023835545871406794,
            -0.004624552559107542,
            0.01744675636291504,
            0.02855021134018898,
            0.007043471559882164,
            0.0018968151416629553,
            2.0612953449017368e-05,
            0.00172339694108814
        ],
        [
            0.00405412120744586,
            -0.0036616523284465075,
            1.292796150664799e-05,
            0.00043787507456727326,
            0.018153008073568344,
            0.008397422730922699,
            -8.973375952336937e-05,
            0.0029180191922932863,
            0.0007215330260805786,
            0.010357171297073364,
            -0.00360774714499712,
            0.017505692318081856,
            0.0010573080508038402,
            -0.00985276885330677,
            -0.015005898661911488,
            1.583402627147734e-05,
            -0.02282688394188881
        ],
        [
            -0.008287463337182999,
            0.003668668679893017,
            -0.010401378385722637,
            -0.03333807364106178,
            -0.021567244082689285,
            -0.00824790634214878,
            8.007826181710698e-06,
            -0.0031608394347131252,
            -0.0016379058361053467,
            -0.007323018275201321,
            0.023789333179593086,
            -0.016953974962234497,
            -0.02930692583322525,
            -0.005672262515872717,
            -0.010370508767664433,
            -0.0020134656224399805,
            -0.007367934565991163
        ],
        [
            0.006454102229326963,
            -0.004779805429279804,
            0.02038165181875229,
            0.02512648142874241,
            0.01762465387582779,
            0.008111837320029736,
            -3.341286719660275e-05,
            0.00014164987078402191,
            0.0030273490119725466,
            -0.013477633707225323,
            0.0035913996398448944,
            0.013180096633732319,
            0.02040863409638405,
            -0.009748267941176891,
            0.005692301318049431,
            0.003666896838694811,
            0.0019633639603853226
        ],
        [
            0.004461874719709158,
            -0.004832557402551174,
            0.020679455250501633,
            0.022935282438993454,
            0.01655796729028225,
            0.009682146832346916,
            4.03519588871859e-05,
            4.842282214667648e-05,
            0.0007622517296113074,
            0.010056527331471443,
            0.00998015608638525,
            0.014108425937592983,
            0.006461130455136299,
            0.006340155377984047,
            0.006324405316263437,
            6.111808488640236e-06,
            0.0017242657486349344
        ],
        [
            0.009241603314876556,
            -0.0040787081234157085,
            0.007444946561008692,
            0.02292845956981182,
            0.018640270456671715,
            0.008120342157781124,
            -6.074317207094282e-05,
            8.856737258611247e-05,
            -0.00963978935033083,
            0.012302063405513763,
            -0.0053531876765191555,
            0.019734973087906837,
            0.023701705038547516,
            0.01197663601487875,
            0.004997506737709045,
            1.4204829312802758e-05,
            0.0013650513719767332
        ],
        [
            -0.005314024165272713,
            0.0018991766264662147,
            -0.02106604352593422,
            -0.021238800138235092,
            -0.014896070584654808,
            -0.012064632959663868,
            0.00010915979510173202,
            -0.00013295043027028441,
            0.01037478819489479,
            -0.009063581936061382,
            -0.007010218221694231,
            -0.016299981623888016,
            -0.021848849952220917,
            -0.0027403091080486774,
            -0.004316626116633415,
            -2.739426417974755e-05,
            -0.00046559798647649586
        ],
        [
            0.0017219784203916788,
            -0.003501261118799448,
            0.015694862231612206,
            0.01602228172123432,
            0.012612573802471161,
            0.009442858397960663,
            -0.00010905993985943496,
            8.808213897282258e-05,
            -0.007548000663518906,
            -0.010157176293432713,
            0.0011215365957468748,
            0.012352481484413147,
            0.00455348240211606,
            0.009835334494709969,
            -0.017287228256464005,
            1.945671647263225e-05,
            0.0010779945878311992
        ],
        [
            0.007051002699881792,
            -0.011834058910608292,
            0.01657189056277275,
            0.01580556109547615,
            0.015305611304938793,
            0.006748287007212639,
            2.5192703105858527e-05,
            0.00012975733261555433,
            0.008285504765808582,
            -0.0062917242757976055,
            0.005442226305603981,
            0.012687192298471928,
            0.0041802022606134415,
            0.004036433063447475,
            0.005803342442959547,
            0.0009394940570928156,
            0.0009760808316059411
        ],
        [
            0.0008773542358539999,
            0.03301426023244858,
            5.874536327610258e-06,
            1.069906102202367e-05,
            3.1567567930324e-05,
            0.00018814751820173115,
            -0.02608886919915676,
            0.0003316137590445578,
            -0.03247835487127304,
            0.0015543762128800154,
            0.032555218786001205,
            1.2606290511030238e-05,
            -3.2475659281772096e-06,
            -0.0096652926877141,
            0.001680428278632462,
            -0.025916198268532753,
            -7.177110819611698e-05
        ],
        [
            -0.00010447671957081184,
            -0.028125286102294922,
            9.37619734031614e-06,
            -1.0530106010264717e-05,
            -2.1503195966943167e-05,
            -0.00039808356086723506,
            0.03595941141247749,
            0.015547137707471848,
            0.04885408282279968,
            0.02441236563026905,
            -0.04212646558880806,
            -5.471827171277255e-05,
            1.1733297469618265e-05,
            -0.014008446596562862,
            0.004332300275564194,
            0.06861777603626251,
            -0.004784928169101477
        ],
        [
            -4.8880632675718516e-05,
            0.0261741541326046,
            -8.004938536032569e-06,
            2.0807548935408704e-05,
            1.8609303879202344e-05,
            5.460904139908962e-05,
            -0.30776023864746094,
            0.006531011313199997,
            0.004079286474734545,
            0.011038272641599178,
            -0.02775891311466694,
            3.940004717151169e-06,
            -1.0765357956188382e-06,
            0.021344689652323723,
            0.0052315229550004005,
            0.0041489736177027225,
            -0.10445501655340195
        ],
        [
            -0.03624819591641426,
            -0.018982425332069397,
            -2.9076616556267254e-05,
            -0.02647360973060131,
            -0.00010078878403874114,
            -0.00030403200071305037,
            0.28246036171913147,
            -0.010296574793756008,
            -0.026525158435106277,
            0.0182365532964468,
            0.016685424372553825,
            -4.466270547709428e-05,
            -0.010918979533016682,
            -0.017911670729517937,
            0.012117205187678337,
            -0.00803649052977562,
            0.09084513038396835
        ],
        [
            0.0030876114033162594,
            -0.002825337927788496,
            0.020224586129188538,
            0.012941022403538227,
            0.0050384909845888615,
            0.011829235590994358,
            -6.382386345649138e-05,
            4.059370985487476e-05,
            0.005716048181056976,
            -0.006140439305454493,
            0.0010803515324369073,
            0.007033481728285551,
            0.022715024650096893,
            0.004270913545042276,
            -0.0160300824791193,
            0.0014302125200629234,
            0.00443601468577981
        ],
        [
            -0.004237533546984196,
            0.007149876095354557,
            -0.0003564742801245302,
            -0.0007411310798488557,
            -0.0064462823793292046,
            -0.009922131896018982,
            0.00012996201985515654,
            -0.00012850215716753155,
            -0.0017111962661147118,
            0.010898577980697155,
            -0.0013266883324831724,
            -0.013605195097625256,
            -0.0008455279166810215,
            -0.005475861020386219,
            -0.005966696422547102,
            0.016874724999070168,
            -0.002476791152730584
        ],
        [
            0.07764018326997757,
            0.006886702962219715,
            -3.870338787237415e-06,
            2.044478605967015e-05,
            1.905222779896576e-05,
            0.0006485347403213382,
            -0.027552511543035507,
            -9.887714259093627e-05,
            -0.003622708609327674,
            0.0006288109580054879,
            0.002543995389714837,
            -1.0207988907495746e-06,
            2.1924599423073232e-05,
            -0.0015671144938096404,
            0.00875951535999775,
            -0.0006835883832536638,
            -0.0032936581410467625
        ],
        [
            -0.07241165637969971,
            0.007980718277394772,
            1.3924480981586385e-06,
            -6.810298509662971e-05,
            -4.4780117605114356e-05,
            -0.0006315740174613893,
            0.030926214531064034,
            9.054909605765715e-05,
            0.025193458423018456,
            0.0030246952082961798,
            -0.003589232452213764,
            -5.257802695268765e-05,
            -1.9848515876219608e-05,
            0.0015952260000631213,
            0.01419837586581707,
            0.0008183300378732383,
            0.0036022879648953676
        ],
        [
            0.0036426500882953405,
            -0.003507461864501238,
            0.022995896637439728,
            0.009936617687344551,
            0.005910489242523909,
            0.010334114544093609,
            -0.00010126613051397726,
            0.00010857063170988113,
            4.680310667026788e-05,
            0.011997854337096214,
            0.007995438762009144,
            0.016496745869517326,
            0.02334236539900303,
            0.01022679079324007,
            -0.016368864104151726,
            3.8501446397276595e-05,
            0.007744934875518084
        ],
        [
            -0.005811834707856178,
            0.0029214657843112946,
            -0.0001600022951606661,
            -0.0007353324326686561,
            -0.0006847309996373951,
            -0.0015294583281502128,
            -2.7511827283888124e-05,
            -1.1533034921740182e-05,
            0.02088799700140953,
            0.004165075719356537,
            -0.005069155246019363,
            -0.015525954775512218,
            -0.00012223921658005565,
            -0.009886989369988441,
            -0.009929084219038486,
            -2.636869794514496e-05,
            -0.0026477850042283535
        ],
        [
            0.00034413172397762537,
            0.015592284500598907,
            5.2897714340360835e-05,
            6.263694103836315e-06,
            0.0005023063276894391,
            0.00010057469626190141,
            1.198941026814282e-05,
            0.00010227761958958581,
            0.010345516726374626,
            -0.008383951149880886,
            -0.0040459660813212395,
            5.962842351436848e-06,
            3.996579835074954e-05,
            -0.010695738717913628,
            -0.008751017972826958,
            0.021517373621463776,
            -0.0068848468363285065
        ],
        [
            -0.005320986267179251,
            0.004735307767987251,
            -0.00037681168760173023,
            -0.0011662538163363934,
            -0.017560306936502457,
            -0.007805313915014267,
            4.897142844129121e-06,
            -0.0006521189934574068,
            0.015217913314700127,
            0.004129891749471426,
            -0.003257211297750473,
            -0.01535691786557436,
            -0.0032967058941721916,
            0.015150659717619419,
            -0.006655802950263023,
            -2.6130490368814208e-05,
            -0.0048816027119755745
        ],
        [
            3.448569987085648e-05,
            0.032415859401226044,
            -5.083354608359514e-06,
            -0.000193764892173931,
            -7.731785444775596e-05,
            -0.026664763689041138,
            0.11065322160720825,
            -0.0689890906214714,
            0.06086862087249756,
            0.013678849674761295,
            0.011203446425497532,
            -0.0016212790505960584,
            -2.5233895939891227e-05,
            0.007001472637057304,
            0.007549478206783533,
            0.018665902316570282,
            0.00848943367600441
        ],
        [
            -2.357329140068032e-05,
            -0.0315256305038929,
            -3.97657640860416e-06,
            7.576230564154685e-05,
            0.00028366644983179867,
            0.02792157419025898,
            -0.08860275894403458,
            0.06128837168216705,
            -0.06748466193675995,
            -0.04175184294581413,
            -0.005798358470201492,
            0.0001624450960662216,
            7.74133422964951e-06,
            0.021033525466918945,
            0.006583851762115955,
            -0.023652946576476097,
            -0.028563696891069412
        ],
        [
            0.006053710822016001,
            -0.007007623557001352,
            0.017949258908629417,
            0.003305498044937849,
            0.006507103331387043,
            0.008473408408463001,
            1.6858612070791423e-05,
            3.486676359898411e-05,
            -0.021608566865324974,
            -0.005150582175701857,
            0.001974201761186123,
            0.016065742820501328,
            0.018503546714782715,
            -0.015236439183354378,
            0.007339383475482464,
            2.826451054716017e-05,
            0.0018586625810712576
        ],
        [
            0.011089887470006943,
            -0.0046617258340120316,
            0.02357768639922142,
            0.003606658661738038,
            0.005463628098368645,
            0.010834316723048687,
            -9.669780411059037e-05,
            7.586451101815328e-05,
            0.00032767001539468765,
            -0.003998215775936842,
            0.008220060728490353,
            0.008255275897681713,
            0.025216683745384216,
            0.010607627220451832,
            -0.01653970405459404,
            0.0019736834801733494,
            0.0051808846183121204
        ],
        [
            0.002354580210521817,
            -0.00430216733366251,
            1.067361608875217e-05,
            5.534239608095959e-05,
            0.019109735265374184,
            0.005689162295311689,
            0.06997029483318329,
            -0.01555835735052824,
            0.008812285959720612,
            -0.0015087100910022855,
            0.03147878870368004,
            0.00479799322783947,
            9.807661626837216e-06,
            -0.005995012354105711,
            0.001218183315359056,
            -0.023266438394784927,
            0.003357138019055128
        ],
        [
            7.371896117547294e-06,
            -0.006015317048877478,
            -7.010778517724248e-06,
            1.9940976926591247e-05,
            -3.822686721832724e-06,
            -0.015203263610601425,
            -0.01738160476088524,
            0.024273086339235306,
            -0.0025468748062849045,
            -0.0034705959260463715,
            0.02257683500647545,
            -0.005890341941267252,
            -1.0534792636462953e-05,
            -0.0011040621902793646,
            -0.003942082170397043,
            0.04724428802728653,
            0.0003643700329121202
        ],
        [
            -9.177163883578032e-05,
            0.0029255496338009834,
            -5.827014319947921e-06,
            -9.648453124100342e-05,
            -0.00020321989723015577,
            -0.00732082687318325,
            -1.1079414434789214e-06,
            0.023273838683962822,
            0.02329033426940441,
            -0.04549432918429375,
            0.0076461187563836575,
            -1.2362668712739833e-05,
            -4.453274232218973e-05,
            -0.0069113560020923615,
            -0.008068261668086052,
            0.059748586267232895,
            -0.027432555332779884
        ],
        [
            2.2876976800034754e-05,
            0.008569079451262951,
            -7.819659003871493e-06,
            -2.4805774501146516e-06,
            8.213703404180706e-05,
            0.05951406806707382,
            -0.026164045557379723,
            -0.18236587941646576,
            -0.000247919000685215,
            -0.0030166306532919407,
            -0.054068390280008316,
            1.6938063708948903e-05,
            6.325519279926084e-06,
            -0.013052585534751415,
            -0.00272472039796412,
            -0.15464213490486145,
            0.0008252820698544383
        ],
        [
            0.0062553477473556995,
            -0.0045214444398880005,
            0.02201344259083271,
            0.005969237070530653,
            0.017173735424876213,
            0.009192095138132572,
            -0.00010802001634147018,
            0.0026510250754654408,
            0.001703735557384789,
            -0.011066535487771034,
            0.011200878769159317,
            0.00766120757907629,
            0.005873576272279024,
            0.004267912823706865,
            -0.01593516208231449,
            0.0039569297805428505,
            0.004431768320500851
        ],
        [
            -0.0030130201485008,
            0.002278162632137537,
            -7.68894751672633e-05,
            -0.00028776354156434536,
            -0.0001201406485051848,
            -0.003162761451676488,
            -1.830424662330188e-05,
            -2.1462066797539592e-05,
            -1.561110548209399e-05,
            -0.010027533397078514,
            -0.006449191365391016,
            -0.0003283182450104505,
            -0.00010103004024131224,
            -0.007997092790901661,
            -0.0060278610326349735,
            -5.54516691408935e-06,
            0.020634857937693596
        ],
        [
            -0.001631109626032412,
            0.0055658845230937,
            -1.4441704479395412e-05,
            -5.692103150067851e-05,
            4.01170609620749e-06,
            -0.00014123853179626167,
            -0.004521168302744627,
            -0.047253094613552094,
            0.006296487990766764,
            -0.005906710401177406,
            0.0023067400325089693,
            -0.005415725521743298,
            -3.9607104554306716e-05,
            -3.0200802939361893e-05,
            -0.02720692753791809,
            -0.01661413162946701,
            0.02375512383878231
        ],
        [
            -0.0028250711038708687,
            -0.0026788837276399136,
            -8.491247172059957e-06,
            -4.51011692348402e-05,
            -0.03857380896806717,
            -0.022753480821847916,
            -0.006999721750617027,
            0.02641817182302475,
            0.0010858038440346718,
            0.004222641699016094,
            -0.005096861626952887,
            -0.002773930551484227,
            -9.133089042734355e-05,
            0.003792026313021779,
            -0.004720495548099279,
            0.05879299342632294,
            -0.025230582803487778
        ],
        [
            0.003264999482780695,
            -0.00968924444168806,
            0.021065566688776016,
            0.006006048992276192,
            0.019696947187185287,
            0.011438745073974133,
            -6.408870103769004e-05,
            0.0003032084205187857,
            0.0019156879279762506,
            -0.014077428728342056,
            0.00571135338395834,
            0.008525023236870766,
            0.006138235330581665,
            0.011187274008989334,
            0.0060494462959468365,
            0.0005905332509428263,
            0.001219193683937192
        ],
        [
            0.0026280549354851246,
            -0.004288624040782452,
            0.01569111831486225,
            0.002155665075406432,
            0.004287289921194315,
            0.006739502772688866,
            -3.288982406957075e-05,
            0.00014067342272028327,
            0.005734649486839771,
            -0.009732017293572426,
            -0.009393416345119476,
            0.009316474199295044,
            0.004025779664516449,
            0.0053618187084794044,
            0.005590842105448246,
            3.65780942956917e-05,
            0.0035005027893930674
        ],
        [
            0.002984684193506837,
            -0.01100382674485445,
            0.005711269099265337,
            0.005642792675644159,
            0.014398752711713314,
            0.0069342488422989845,
            -6.053613833501004e-05,
            4.16158109146636e-05,
            0.003463643603026867,
            -0.0034492865670472383,
            0.0014324106741696596,
            0.014259397983551025,
            0.01912393607199192,
            -0.016741827130317688,
            0.006133690010756254,
            4.186593741906108e-06,
            0.0015317958313971758
        ],
        [
            -0.006209975108504295,
            0.0024789993185549974,
            -0.02166667953133583,
            -0.0196034274995327,
            -0.013341054320335388,
            -0.01170977670699358,
            0.00010262919386150315,
            -0.00264333956874907,
            -0.0005912900669500232,
            0.010777182877063751,
            -0.006760171614587307,
            -0.008117890916764736,
            -0.01826438680291176,
            -0.01016961969435215,
            -0.005856717471033335,
            -0.005881203804165125,
            -0.0012429755879566073
        ],
        [
            -0.00440305145457387,
            0.00791475735604763,
            -0.006539617665112019,
            -0.017645979300141335,
            -0.004070634488016367,
            -0.00830402597784996,
            -2.822254828060977e-05,
            -0.00031761432182975113,
            -0.0007686051540076733,
            0.004215398337692022,
            -0.004704523831605911,
            -0.0065184831619262695,
            -0.019708888605237007,
            -0.012172475457191467,
            -0.00583954481408,
            -4.181913482170785e-06,
            -0.0017624900210648775
        ],
        [
            -0.00613382225856185,
            0.005116880405694246,
            -0.005813994910567999,
            -0.02144698239862919,
            -0.015428122133016586,
            -0.006777937989681959,
            5.9703415900003165e-05,
            -0.00018926415941677988,
            -0.008911671116948128,
            0.01272948645055294,
            0.018459215760231018,
            -0.013148880563676357,
            -0.01941775530576706,
            -0.008133233524858952,
            -0.005712286569178104,
            -3.4934339055325836e-05,
            -0.002641091588884592
        ],
        [
            0.0065684448927640915,
            -0.004570666700601578,
            0.021878471598029137,
            0.021458933129906654,
            0.009913504123687744,
            0.00671022105962038,
            -5.9710895584430546e-05,
            0.00014083296991884708,
            0.006273495499044657,
            0.01061853114515543,
            0.0005686222575604916,
            0.014131858013570309,
            0.022114917635917664,
            0.009169909171760082,
            0.009172329679131508,
            0.0032891270238906145,
            0.000572867807932198
        ],
        [
            0.004506769590079784,
            -0.0022992989979684353,
            0.00370466778986156,
            0.015911145135760307,
            0.016441017389297485,
            0.008555580861866474,
            7.720927897025831e-06,
            0.00013779358414467424,
            0.006680524442344904,
            -0.007975541986525059,
            -0.00563346641138196,
            0.01616431213915348,
            0.0021801618859171867,
            0.008916843682527542,
            0.006116360891610384,
            8.624791917100083e-06,
            -0.017492923885583878
        ],
        [
            0.004304589703679085,
            -0.003634667256847024,
            0.025679199025034904,
            0.03244272246956825,
            0.019389232620596886,
            0.00787218939512968,
            -3.3279273338848725e-05,
            8.632281969767064e-05,
            0.005615649279206991,
            -0.011157320812344551,
            0.0027088234201073647,
            0.00848123338073492,
            0.029941193759441376,
            0.005338572431355715,
            0.004776026587933302,
            0.00043671278399415314,
            0.0022676559165120125
        ],
        [
            -0.007551682647317648,
            0.0029911177698522806,
            -0.022007981315255165,
            -0.005618550349026918,
            -0.006669966969639063,
            -0.007418714929372072,
            3.420326902414672e-05,
            -0.00013327700435183942,
            -0.008664479479193687,
            0.008804891258478165,
            -0.00192761211656034,
            -0.009100385010242462,
            -0.023182597011327744,
            -0.00724606541916728,
            -0.003836791031062603,
            -2.3043992769089527e-05,
            -0.0023166167084127665
        ]
    ],
    "sigmanet.nn.02.bias": [
        -0.006025263573974371,
        0.039410825818777084,
        0.08055926114320755,
        0.09930922836065292,
        -0.04092034697532654,
        0.01919381134212017,
        0.027811219915747643,
        0.01951691508293152,
        0.13059470057487488,
        0.11235816776752472,
        0.027850903570652008,
        0.0058471462689340115,
        -0.02712169475853443,
        -0.06857479363679886,
        0.00465174438431859,
        0.0760883018374443,
        -0.0867936909198761,
        -0.08876911550760269,
        -0.04897737130522728,
        -0.060191936790943146,
        -0.37946617603302,
        0.19332255423069,
        0.11042526364326477,
        0.08025655895471573,
        -0.011181016452610493,
        0.0034959870390594006,
        -0.05445815622806549,
        0.004983892198652029,
        -0.06307747215032578,
        0.022815441712737083,
        -0.0062843733467161655,
        0.062240052968263626,
        0.02931971289217472,
        0.023601975291967392,
        0.011837621219456196,
        0.07836700975894928,
        0.06842224299907684,
        0.0797620415687561,
        0.2635529935359955,
        0.005581913981586695,
        0.01326029933989048,
        -0.012481488287448883,
        0.02893034555017948,
        -0.09477675706148148,
        -0.011534151621162891,
        0.01287877932190895,
        0.03214485943317413,
        -0.009514921344816685,
        0.07826687395572662,
        0.07430638372898102,
        -0.017819272354245186,
        -0.08342187106609344,
        -0.02848116308450699,
        0.015789136290550232,
        0.008818850852549076,
        -0.021040039137005806,
        0.10294326394796371,
        -0.30853471159935,
        -0.002058408921584487,
        -0.02769416570663452,
        0.0695706456899643,
        0.06905021518468857,
        -0.0037979462649673223,
        -0.12106481194496155,
        -0.015521164052188396,
        -0.08057624846696854,
        -0.004653268028050661,
        -0.12287990003824234,
        -0.2814100384712219,
        0.0935014933347702,
        0.024974236264824867,
        0.10221585631370544,
        0.03919338807463646,
        0.08676398545503616,
        -0.004262316040694714,
        -0.07630306482315063,
        0.0020039533264935017,
        0.012040391564369202,
        0.11114206165075302,
        0.05986279994249344,
        0.015524838119745255,
        -0.02066017873585224,
        -0.09160535037517548,
        -0.0019271484343335032,
        -0.051225852221250534,
        -0.005945991259068251,
        0.006709977984428406,
        0.020739896222949028,
        -0.23169353604316711,
        0.23103240132331848,
        -0.05313848331570625,
        0.02097948268055916,
        -0.00716998428106308,
        0.09216803312301636,
        0.08512420207262039,
        0.06838768720626831,
        0.06906232982873917,
        -0.000977652962319553,
        0.0037649970036000013,
        0.042320553213357925,
        -0.034143880009651184,
        -0.10651487857103348,
        -0.015758082270622253,
        0.10222164541482925,
        0.03895651176571846,
        0.02957594394683838,
        -0.023238610476255417,
        0.006397731136530638,
        -0.004167977720499039,
        0.13642984628677368,
        -0.04501742869615555,
        0.06790665537118912,
        -0.01721199043095112,
        0.002019889885559678,
        0.04260578006505966,
        0.05198021978139877,
        0.049435559660196304,
        0.14211612939834595,
        -0.017493722960352898,
        -0.019451765343546867,
        -0.034614820033311844,
        0.019663365557789803,
        0.013620230369269848,
        0.08653916418552399,
        -0.07238510251045227,
        -0.01096824649721384,
        0.003554971655830741,
        0.13876084983348846
    ],
    "sigmanet.nn.02.parametrizations.weight.original": [
        [
            5.175877959118225e-05,
            0.006007820833474398,
            -0.008218185976147652,
            0.007120119873434305,
            -0.012688903138041496,
            -0.0024412954226136208,
            -0.011463962495326996,
            -0.009681190364062786,
            -0.013559054583311081,
            0.01457724068313837,
            0.012688344344496727,
            0.0022116254549473524,
            -0.017016498371958733,
            6.768111779820174e-05,
            -0.014440363273024559,
            -0.013123595155775547,
            -0.016301484778523445,
            0.010735169053077698,
            -0.0020894159097224474,
            0.015452105551958084,
            -0.00972488708794117,
            0.012735693715512753,
            0.0021718128118664026,
            -0.007800521329045296,
            -0.005885848309844732,
            0.00793549045920372,
            -0.011929059401154518,
            -0.0002714372822083533,
            -0.013749376870691776,
            0.0059294383972883224,
            -0.001674179220572114,
            0.00841573067009449,
            -0.01251986250281334,
            0.01993740350008011,
            -0.014318801462650299,
            -0.0032798517495393753,
            -0.001729820971377194,
            -0.012737597338855267,
            -0.013494950719177723,
            0.012110119685530663,
            -0.004693139810115099,
            -0.012720074504613876,
            0.016181625425815582,
            0.01563430018723011,
            -0.00950468797236681,
            0.012469539418816566,
            0.0009593957802280784,
            0.005611736793071032,
            -0.013582923449575901,
            -0.0002689720713533461,
            0.012844003736972809,
            0.01350981555879116,
            -0.0001312830572715029,
            0.015353750437498093,
            -0.014134886674582958,
            -0.011782354675233364,
            -0.014469478279352188,
            -0.01257660984992981,
            -0.01311233639717102,
            0.007931174710392952,
            0.0076149823144078255,
            0.014730393886566162,
            -0.013314016163349152,
            0.013999837450683117,
            -0.014699636027216911,
            0.012848861515522003,
            -0.001912337844260037,
            0.010822913609445095,
            -0.013663907535374165,
            0.010598802007734776,
            -0.016303548589348793,
            0.008173457346856594,
            0.003866633865982294,
            0.013288254849612713,
            -0.014958645217120647,
            0.01302391942590475,
            -0.014967900700867176,
            -0.011409541592001915,
            0.005831034388393164,
            0.008023679256439209,
            -0.011212927289307117,
            0.013815448619425297,
            -0.0019796821288764477,
            0.00011823734530480579,
            -0.007671094033867121,
            0.0024109461810439825,
            -0.007609139196574688,
            0.01288542989641428,
            0.0025373378302901983,
            0.0018275459297001362,
            -0.01436771359294653,
            0.002020510844886303,
            0.013200015760958195,
            0.0160860363394022,
            -0.008648316375911236,
            0.004739538766443729,
            -0.004025125410407782,
            0.0018061068840324879,
            -0.010647905990481377,
            0.016591990366578102,
            -0.011153585277497768,
            0.007133600767701864,
            -0.005207670386880636,
            0.0028988844715058804,
            -0.014056690968573093,
            0.009438740089535713,
            -0.01654544100165367,
            0.012143924832344055,
            0.014035654254257679,
            0.004244880750775337,
            3.1068942917045206e-05,
            0.010922767221927643,
            -0.008418298326432705,
            1.7978275081986794e-06,
            -0.007839294150471687,
            0.015562379732728004,
            8.5167856013868e-05,
            -0.01344470027834177,
            0.011784453876316547,
            0.01590990647673607,
            -0.0019832050893455744,
            0.014569996856153011,
            -0.014244012534618378,
            -0.013842418789863586,
            0.007759678643196821,
            0.013347119092941284,
            -0.01446471270173788,
            0.0016010416438803077
        ],
        [
            0.0002605412737466395,
            -0.007261013146489859,
            0.008071040734648705,
            -0.005128559656441212,
            0.009870662353932858,
            0.011173387989401817,
            0.012225000187754631,
            0.003593488596379757,
            0.011313026770949364,
            -0.011390166357159615,
            -0.011384084820747375,
            -0.012288263067603111,
            0.012326224707067013,
            -1.7435399058740586e-05,
            0.011485462076961994,
            0.0110628055408597,
            0.011146469973027706,
            -0.009879881516098976,
            0.01145197357982397,
            -0.002626227680593729,
            0.012056718580424786,
            -0.0037517896853387356,
            -0.0037149719428271055,
            0.008386232890188694,
            0.01166514027863741,
            -0.002352983457967639,
            0.012420480139553547,
            -6.0264446801738814e-05,
            0.013715307228267193,
            -0.010762493126094341,
            0.010963314212858677,
            -0.006470613181591034,
            0.01105964183807373,
            -0.01172010600566864,
            0.011700642295181751,
            0.0020740479230880737,
            0.011626937426626682,
            0.002048515249043703,
            0.011003490537405014,
            -0.012238092720508575,
            0.007152273785322905,
            0.011836910620331764,
            -0.011745305731892586,
            -0.012053756974637508,
            0.012262261472642422,
            -0.005273427814245224,
            -0.0034687258303165436,
            -0.013814013451337814,
            0.012219798751175404,
            0.0003618328191805631,
            -0.004047084134072065,
            -0.01089110504835844,
            -1.4361258763528895e-05,
            -0.01187771838158369,
            0.005995792802423239,
            0.011723094619810581,
            0.013251956552267075,
            0.01325860247015953,
            0.010747801512479782,
            -0.0016534810420125723,
            -0.009622571989893913,
            -0.01239604502916336,
            0.009500203654170036,
            -0.012369448319077492,
            0.012626269832253456,
            -0.010962639935314655,
            0.012727341614663601,
            -0.011748203076422215,
            0.010676227509975433,
            -0.010927657596766949,
            0.006057679187506437,
            -0.009896510280668736,
            -0.013226941227912903,
            -0.011240527965128422,
            0.0022699027322232723,
            -0.012090230360627174,
            0.010898725129663944,
            0.0128932548686862,
            -0.004473769571632147,
            -0.0031801408622413874,
            0.010346943512558937,
            -0.00824064388871193,
            0.01095626037567854,
            2.1409418877738062e-06,
            0.01124685537070036,
            -0.0024707706179469824,
            0.01243892963975668,
            -0.012186401523649693,
            -0.002098928904160857,
            -0.012296793982386589,
            0.0033613438718020916,
            -0.0019713151268661022,
            -0.010940855368971825,
            -0.0021106437779963017,
            0.00698644807562232,
            -0.0123401815071702,
            0.012531342916190624,
            -0.0006378436810337007,
            0.011070985347032547,
            -0.012533226050436497,
            0.011354314163327217,
            -0.01185035239905119,
            0.011320153251290321,
            -0.010869553312659264,
            0.011537044309079647,
            -0.009019223973155022,
            0.011710889637470245,
            -0.007416170556098223,
            -0.0028299647383391857,
            -0.002899311250075698,
            -4.001663546659984e-05,
            -0.004309299401938915,
            0.0065500782802701,
            2.1461961296154186e-05,
            0.005862098652869463,
            -0.01168405544012785,
            0.00045143868192099035,
            0.011884716339409351,
            -0.002535442356020212,
            -0.011390574276447296,
            0.012136762961745262,
            -0.011646454222500324,
            0.010938520543277264,
            0.00264737312681973,
            -0.010999884456396103,
            -0.009171122685074806,
            0.012074417434632778,
            -0.010244626551866531
        ],
        [
            0.00010468024993315339,
            -0.002810603706166148,
            0.008439646102488041,
            -0.00395001657307148,
            0.012661190703511238,
            0.013452754355967045,
            0.015187881886959076,
            0.017196713015437126,
            0.015000213868916035,
            -0.016635116189718246,
            -0.012996094301342964,
            -0.00993737019598484,
            0.017053013667464256,
            -6.780728290323168e-05,
            0.016404209658503532,
            0.002576964907348156,
            0.016757573932409286,
            -0.01565711945295334,
            0.0037104960065335035,
            -0.015302146784961224,
            0.009637142531573772,
            -0.011535510420799255,
            -0.003393034217879176,
            0.006226592697203159,
            0.016544386744499207,
            -0.015233950689435005,
            0.014404259622097015,
            -9.66481602517888e-05,
            0.01673782989382744,
            -0.016911223530769348,
            0.004401071462780237,
            -0.010095399804413319,
            0.015773743391036987,
            -0.016814427450299263,
            0.017369281500577927,
            0.009794074110686779,
            0.017762424424290657,
            0.014623775146901608,
            0.015125730074942112,
            -0.01503718364983797,
            0.002652871422469616,
            0.011312217451632023,
            -0.017618337646126747,
            -0.0038852354045957327,
            0.013960640877485275,
            -0.0026858674827963114,
            -0.0011060209944844246,
            -0.015578805468976498,
            0.016278965398669243,
            0.0005596043774858117,
            -0.0029110959731042385,
            -0.014431817457079887,
            -1.9794339095824398e-05,
            -0.016594696789979935,
            0.011811986565589905,
            0.015503132715821266,
            0.017531618475914,
            0.00680209044367075,
            0.015623653307557106,
            -0.01637907139956951,
            -0.009317733347415924,
            -0.01565682888031006,
            0.002301361644640565,
            -0.014295642264187336,
            0.0041581992991268635,
            -0.0020040548406541348,
            0.012848708778619766,
            -0.015474059619009495,
            0.015141040086746216,
            -0.015698278322815895,
            0.017535468563437462,
            -0.015121235512197018,
            -0.004889242816716433,
            -0.0020505599677562714,
            0.014340353198349476,
            -0.015572751872241497,
            0.016941525042057037,
            0.0136697543784976,
            -0.010906029492616653,
            -0.004818512126803398,
            0.012949153780937195,
            -0.015077310614287853,
            0.01518686581403017,
            7.211962656583637e-05,
            0.00551498681306839,
            -0.012684672139585018,
            0.003173336386680603,
            -0.01619689352810383,
            -0.004371071234345436,
            -0.018120303750038147,
            0.013104472309350967,
            -0.016036033630371094,
            -0.015196656808257103,
            -0.016888462007045746,
            0.008562545292079449,
            -0.016040630638599396,
            0.012174125760793686,
            -0.00031228395528160036,
            0.015605253167450428,
            -0.016478953883051872,
