{
    "variables_constraints": [
        [
            0.25000154972076416,
            5.902822494506836
        ],
        [
            0.9994105100631714,
            17.545516967773438
        ],
        [
            1.386296272277832,
            13.030173301696777
        ],
        [
            2.9957382678985596,
            14.009552955627441
        ],
        [
            1.0000001192092896,
            17.234663009643555
        ],
        [
            1.7179461453403293e-07,
            1.999999694540668
        ],
        [
            1.0000003576278687,
            11.999931335449219
        ],
        [
            2.9959633350372314,
            18.621944427490234
        ],
        [
            -12.161194288037896,
            2.3025849022591642
        ]
    ],
    "sigmanet.sigma": [
        5.0
    ],
    "sigmanet.nn.00.bias": [
        -0.19891519844532013,
        0.07855161279439926,
        -0.055364690721035004,
        -0.09551633149385452,
        0.13731327652931213,
        -0.14585010707378387,
        0.11551763117313385,
        0.22891753911972046,
        0.17891380190849304,
        0.21894362568855286,
        -0.29567039012908936,
        0.08771128952503204,
        0.09558439254760742,
        0.16100819408893585,
        -0.06240571290254593,
        0.30937764048576355,
        -0.23347806930541992,
        -0.05638067051768303,
        -0.06361572444438934,
        -0.3626208007335663,
        -0.12421154975891113,
        -0.2090638428926468,
        0.16063615679740906,
        0.012773671187460423,
        -0.1115342304110527,
        0.10512951016426086,
        -0.21658265590667725,
        -0.05413459241390228,
        0.07937484234571457,
        -0.1897384375333786,
        -0.13089416921138763,
        0.013923014514148235,
        0.40235790610313416,
        0.28191736340522766,
        0.14541667699813843,
        -0.28267306089401245,
        -0.14152351021766663,
        0.32779166102409363,
        0.23099885880947113,
        0.0784766674041748,
        0.16029152274131775,
        -0.2258591204881668,
        -0.2022171914577484,
        0.22443294525146484,
        -0.008545354008674622,
        0.05502937734127045,
        -0.20142711699008942,
        -0.0869126170873642,
        -0.14403265714645386,
        -0.3088562488555908,
        0.0319632925093174,
        0.20833803713321686,
        -0.5160336494445801,
        0.04034941643476486,
        -0.3080444931983948,
        -0.04757019132375717,
        0.23365125060081482,
        0.20776711404323578,
        -0.043671753257513046,
        -0.05989336222410202,
        -0.7981187701225281,
        -0.11638440191745758,
        -0.22640904784202576,
        0.006072014104574919
    ],
    "sigmanet.nn.00.parametrizations.weight.original": [
        [
            0.00012177673488622531,
            2.712402601900976e-05,
            0.013441951014101505,
            0.0361371748149395,
            8.552126928407233e-06,
            5.6028169638011605e-05,
            -0.05321069061756134,
            0.01815757341682911,
            0.010722354054450989
        ],
        [
            0.007223227061331272,
            0.052492957562208176,
            0.019206572324037552,
            0.0285267885774374,
            0.039109885692596436,
            0.005214545410126448,
            0.0013911677524447441,
            0.020590445026755333,
            0.009615772403776646
        ],
        [
            -0.030514327809214592,
            -0.011037524789571762,
            -0.02765924297273159,
            0.014443790540099144,
            -0.04717620462179184,
            -0.0032316320575773716,
            -0.02075386978685856,
            -0.007956266403198242,
            -0.009186133742332458
        ],
        [
            -0.027037236839532852,
            -0.007125639822334051,
            -0.03821283578872681,
            0.05886830389499664,
            -0.049227409064769745,
            -0.0050726900808513165,
            0.001581328921020031,
            -0.006307943724095821,
            0.020443933084607124
        ],
        [
            0.030293328687548637,
            0.04980309680104256,
            0.019789667800068855,
            -0.00228298781439662,
            0.041951119899749756,
            0.00500116404145956,
            0.01365144457668066,
            0.027833543717861176,
            0.018041258677840233
        ],
        [
            -0.001141547691076994,
            -0.00033565101330168545,
            -0.003340728348121047,
            0.008772525936365128,
            -0.0024012329522520304,
            -0.0006618524785153568,
            0.0049774982035160065,
            -0.009316830895841122,
            0.021919773891568184
        ],
        [
            -0.0003327690064907074,
            -8.371275180252269e-05,
            -0.016541242599487305,
            0.014246185310184956,
            -0.006232068873941898,
            -0.0044421362690627575,
            0.0032802829518914223,
            -0.018400974571704865,
            0.014504470862448215
        ],
        [
            0.00012829080515075475,
            5.817260898766108e-05,
            0.00035245923209004104,
            0.04898935183882713,
            6.299070810200647e-05,
            0.00013593026960734278,
            -0.019938519224524498,
            0.02792206034064293,
            0.00555050652474165
        ],
        [
            -0.005415104329586029,
            -0.010297460481524467,
            -0.046808384358882904,
            0.0030194115824997425,
            -0.06978105753660202,
            -0.0028829097282141447,
            0.0032750831451267004,
            -0.0023382401559501886,
            -0.02018047124147415
        ],
        [
            -0.03552888706326485,
            -0.006238043773919344,
            -0.03193961828947067,
            0.004064434673637152,
            -0.06539209932088852,
            -0.005292598158121109,
            -0.010225300677120686,
            0.021161029115319252,
            0.00994625873863697
        ],
        [
            -3.850085477097309e-07,
            3.343868229421787e-05,
            0.05388824641704559,
            -0.0013059572083875537,
            0.004143500234931707,
            0.0032663552556186914,
            0.026860199868679047,
            1.7673068214207888e-05,
            -0.020374547690153122
        ],
        [
            -0.04880714789032936,
            -0.05422666668891907,
            -0.015860985964536667,
            0.006647106260061264,
            -0.05289430916309357,
            -0.005591064225882292,
            -0.021586744114756584,
            -0.03564481437206268,
            -0.013189341872930527
        ],
        [
            -0.05104376748204231,
            -0.06329341232776642,
            -0.011064348742365837,
            0.026679936796426773,
            -0.024650750681757927,
            -0.00566037418320775,
            -0.0190987940877676,
            -0.00354781374335289,
            0.010160623118281364
        ],
        [
            -0.04535762965679169,
            -0.052377525717020035,
            -0.030527103692293167,
            0.012365850619971752,
            -0.04999877139925957,
            -0.005916326306760311,
            -0.02236766554415226,
            -0.02028300054371357,
            -0.01951550878584385
        ],
        [
            -4.432139576238114e-06,
            3.459387926341151e-06,
            0.1674802303314209,
            -0.01278711948543787,
            4.6753426431678236e-05,
            0.01152469776570797,
            -0.014900770969688892,
            0.0020626953337341547,
            -0.023272711783647537
        ],
        [
            0.00011030080349883065,
            3.4730332117760554e-05,
            9.723132279759739e-06,
            -0.008982148952782154,
            7.584359991597012e-05,
            -0.0005013188347220421,
            -0.032982245087623596,
            0.03402280807495117,
            -0.01760336197912693
        ],
        [
            2.034610815826454e-06,
            2.3280705136130564e-05,
            4.9293168558506295e-05,
            0.11165813356637955,
            5.8004668971989304e-05,
            3.738178565981798e-05,
            -0.011965828947722912,
            -0.04618370532989502,
            -0.00755736231803894
        ],
        [
            0.008681666105985641,
            0.06964121013879776,
            0.01782505214214325,
            -0.002462751464918256,
            0.054939012974500656,
            0.004881204571574926,
            -0.0016521037323400378,
            0.030737491324543953,
            0.00294467038474977
        ],
        [
            -0.026378106325864792,
            -0.05143982544541359,
            -0.009747732430696487,
            0.013368249870836735,
            -0.043602023273706436,
            -0.006058115046471357,
            0.0023089733440428972,
            -0.011921953409910202,
            -0.019974064081907272
        ],
        [
            -2.481370756868273e-05,
            -0.00011763736983994022,
            -2.4161859982996248e-05,
            -0.028132986277341843,
            -5.13294326083269e-05,
            0.011038979515433311,
            0.05867757275700569,
            0.05410156399011612,
            -0.03186839073896408
        ],
        [
            0.03450498729944229,
            0.05669846758246422,
            0.024973412975668907,
            -0.0012322567636147141,
            0.057914067059755325,
            0.00980136264115572,
            0.009385225363075733,
            -0.019994564354419708,
            -0.012526723556220531
        ],
        [
            -0.000229499171837233,
            -0.00018042337615042925,
            -0.00011324135994073004,
            0.007830043323338032,
            -0.0028883873019367456,
            -0.0002367082197451964,
            0.004845758900046349,
            -0.004867888055741787,
            -0.010590787045657635
        ],
        [
            5.623967808787711e-06,
            7.522878877352923e-05,
            0.01714649796485901,
            -0.0009945409838110209,
            0.002439644420519471,
            -8.21348003228195e-05,
            -0.001732134958729148,
            -0.03850569948554039,
            -0.012938538566231728
        ],
        [
            4.692791117122397e-05,
            9.228425915353e-05,
            6.264010153245181e-05,
            -0.0018512570532038808,
            1.0611588550091255e-05,
            0.00012015802349196747,
            -0.040587183088064194,
            -0.027174536138772964,
            0.02604362927377224
        ],
        [
            -0.029902994632720947,
            -0.05090656876564026,
            -0.014518112875521183,
            0.002775456989184022,
            -0.054855797439813614,
            -0.003901344258338213,
            -0.015222636982798576,
            -0.005455640610307455,
            -0.02647745981812477
        ],
        [
            0.04241371154785156,
            0.05218802019953728,
            0.026569409295916557,
            -0.008102691732347012,
            0.014147307723760605,
            0.004417389631271362,
            0.024333592504262924,
            0.014069920405745506,
            0.021340690553188324
        ],
        [
            -0.00017979546100832522,
            -0.00020809576380997896,
            -0.0003925205091945827,
            0.0015823872527107596,
            -0.0031834468245506287,
            -0.0003184446832165122,
            0.016307760030031204,
            -0.011397596448659897,
            -0.011969907209277153
        ],
        [
            -8.464045822620392e-05,
            -0.00010011847189161927,
            -0.0282665453851223,
            0.0007707852637395263,
            -0.0003342349664308131,
            -0.00033649042597971857,
            0.033443350344896317,
            -0.006290607154369354,
            -0.016909366473555565
        ],
        [
            -0.25222110748291016,
            -0.02154659852385521,
            -0.0023390143178403378,
            0.014316955581307411,
            -5.459884778247215e-05,
            -1.639169749978464e-05,
            0.018321655690670013,
            -0.0073618171736598015,
            0.05071449279785156
        ],
        [
            -0.0002728183753788471,
            -3.709214070113376e-05,
            -1.9949646230088547e-05,
            -0.0026319955941289663,
            -8.175078619387932e-06,
            -0.000660590420011431,
            0.018157949671149254,
            0.000703106343280524,
            -0.056803371757268906
        ],
        [
            -0.007337489631026983,
            -0.056014370173215866,
            -0.018023042008280754,
            0.054751235991716385,
            -0.01737215742468834,
            -0.0031352092046290636,
            -0.023459753021597862,
            0.018697895109653473,
            0.018898935988545418
        ],
        [
            -0.04324482008814812,
            -0.04113916680216789,
            -0.03058486245572567,
            0.007434347178786993,
            -0.045096155256032944,
            -0.005782546475529671,
            -0.009753603488206863,
            -0.029988249763846397,
            0.02631685696542263
        ],
        [
            2.799057938318583e-06,
            2.2678834739053855e-06,
            0.006534440442919731,
            0.031777024269104004,
            4.977457138011232e-05,
            -0.7673495411872864,
            -0.06626582145690918,
            -0.017627911642193794,
            0.05734831467270851
        ],
        [
            1.6827847503009252e-05,
            -1.9996097762486897e-05,
            -0.002278384752571583,
            0.052630215883255005,
            1.9159142539137974e-06,
            -0.07913746684789658,
            0.04021548107266426,
            -0.0974433571100235,
            -0.002848704345524311
        ],
        [
            0.012323098257184029,
            0.04698491469025612,
            0.013625367544591427,
            -0.006485339719802141,
            0.05450114980340004,
            0.004680544137954712,
            -0.008452373556792736,
            0.01289896760135889,
            0.029697801917791367
        ],
        [
            0.029879601672291756,
            0.06737349182367325,
            0.04001596197485924,
            -0.025980662554502487,
            0.05011264607310295,
            0.006311274133622646,
            -0.006944968830794096,
            0.02052515372633934,
            0.016613801941275597
        ],
        [
            -0.0020065109711140394,
            -0.00013366258644964546,
            -0.038287416100502014,
            -0.04929077625274658,
            -0.00035713662509806454,
            -0.0003292277397122234,
            0.016825934872031212,
            0.02140997163951397,
            -0.021803386509418488
        ],
        [
            3.11489166051615e-05,
            2.2543343220604584e-05,
            1.216415057569975e-06,
            -0.013780046254396439,
            4.5029435568721965e-05,
            0.00033994941622950137,
            -0.01647249236702919,
            -0.03722706064581871,
            -0.008875595405697823
        ],
        [
            -0.10115491598844528,
            -0.09801920503377914,
            -0.005889257416129112,
            0.006428551394492388,
            -0.00014374424063134938,
            -0.0001768647925928235,
            -0.019051652401685715,
            0.017242033034563065,
            0.026344796642661095
        ],
        [
            -3.4970904380315915e-05,
            -7.698569970671088e-05,
            -0.013578688725829124,
            -0.0002819890505634248,
            -0.038532815873622894,
            -4.7849091060925275e-05,
            0.008325079455971718,
            -0.008992842398583889,
            0.015525578521192074
        ],
        [
            -4.49670224043075e-05,
            -3.07712507492397e-05,
            -0.08276917040348053,
            0.002373914700001478,
            -0.00013999416842125356,
            -0.004643275868147612,
            0.016337178647518158,
            -0.029928743839263916,
            -0.00309816375374794
        ],
        [
            -0.11586572974920273,
            -0.015936337411403656,
            -5.448591764434241e-05,
            0.009978417307138443,
            -0.004652025643736124,
            -0.0002568820200394839,
            -0.012893748469650745,
            0.0005186453927308321,
            -0.004965999163687229
        ],
        [
            -5.7394379837205634e-05,
            -7.657548849238083e-06,
            3.6663038827100536e-07,
            0.004901980049908161,
            -3.608990664361045e-05,
            0.044562265276908875,
            0.03556400537490845,
            0.008568388409912586,
            -0.02259041555225849
        ],
        [
            0.009087875485420227,
            5.157803389010951e-05,
            0.0005342530785128474,
            -0.0029644411988556385,
            0.006092234514653683,
            0.0026027485728263855,
            0.007471705321222544,
            0.0012210645945742726,
            -0.017873059958219528
        ],
        [
            -7.792242104187608e-05,
            -4.115852061659098e-05,
            -2.9665736292372458e-05,
            -0.008037758059799671,
            -0.013581943698227406,
            0.032585542649030685,
            -0.00043364023440517485,
            0.013314430601894855,
            -0.04887824133038521
        ],
        [
            -5.098069959785789e-05,
            -9.667836275184527e-05,
            -0.07406590133905411,
            -0.005289830267429352,
            -2.1952757379040122e-05,
            -0.030863851308822632,
            -0.011057816445827484,
            0.029787639155983925,
            0.03416724130511284
        ],
        [
            -0.007851652801036835,
            -0.00557087454944849,
            -0.023579545319080353,
            0.002395104616880417,
            -0.03722378984093666,
            -0.003942008595913649,
            0.0030950738582760096,
            -0.00739876925945282,
            -0.023058786988258362
        ],
        [
            -0.0038769980892539024,
            -0.00018606166122481227,
            -0.038122568279504776,
            0.007358907721936703,
            -0.03473949432373047,
            -0.003626147983595729,
            0.0021586082875728607,
            0.02208455465734005,
            -0.010542906820774078
        ],
        [
            2.431489701848477e-05,
            0.07863079011440277,
            3.508107693050988e-05,
            0.0004585320712067187,
            0.03669914975762367,
            0.00012111444084439427,
            -0.010124040767550468,
            -0.014291085302829742,
            -0.010949780233204365
        ],
        [
            0.07126041501760483,
            6.591383134946227e-05,
            0.04985382407903671,
            0.026749344542622566,
            2.090323505399283e-05,
            0.005841147154569626,
            0.02545657940208912,
            0.01665087789297104,
            -0.02875973843038082
        ],
        [
            -0.027928652241826057,
            -0.05525363236665726,
            -0.03641891106963158,
            0.028668222948908806,
            -0.0394371822476387,
            -0.005339047405868769,
            -0.005023703910410404,
            -0.001811985275708139,
            0.009380433708429337
        ],
        [
            -0.04358242452144623,
            -0.051190946251153946,
            -0.015173884108662605,
            0.0030459153931587934,
            -0.055146172642707825,
            -0.005556270945817232,
            -0.016727479174733162,
            -0.02681783214211464,
            -0.01759311370551586
        ],
        [
            0.0001335463603027165,
            7.007690874161199e-05,
            8.623892063042149e-05,
            -0.005931123625487089,
            0.00010554080654401332,
            0.0049500130116939545,
            -0.02502000518143177,
            0.013741103000938892,
            -0.03836185112595558
        ],
        [
            6.751358159817755e-05,
            7.759029540466145e-05,
            0.00016004664939828217,
            -0.04568767175078392,
            0.000329783622873947,
            -4.014922888018191e-05,
            0.0058216676115989685,
            -0.005957126617431641,
            0.006516016088426113
        ],
        [
            7.88997840572847e-06,
            2.620866098368424e-06,
            0.03299326449632645,
            0.0553555004298687,
            8.003243419807404e-05,
            0.0002410870511084795,
            -0.005300342105329037,
            0.002680473728105426,
            -0.014146113768219948
        ],
        [
            -0.025803949683904648,
            -0.013335652649402618,
            -0.011406805366277695,
            0.012231368571519852,
            -0.048937518149614334,
            -0.005291882436722517,
            -0.008472121320664883,
            -0.002075571333989501,
            0.022910378873348236
        ],
        [
            -3.87070031138137e-05,
            -9.948938532033935e-05,
            -0.027269260957837105,
            -0.006440442521125078,
            -0.00040429452201351523,
            -0.0001077393171726726,
            0.02140279859304428,
            -0.02814328297972679,
            0.025150524452328682
        ],
        [
            -8.81223677424714e-05,
            -0.00018458969134371728,
            -3.032920358236879e-05,
            0.04977886751294136,
            -0.00020038233196828514,
            -0.0003183596709277481,
            0.13546894490718842,
            0.05821969732642174,
            0.02920646034181118
        ],
        [
            -2.6693844120018184e-05,
            -1.5292480384232476e-05,
            -1.0226791346212849e-05,
            0.0009569141548126936,
            -5.2970255637774244e-05,
            0.0005432644975371659,
            0.0339394137263298,
            -0.018286950886249542,
            0.023430507630109787
        ],
        [
            5.7147437473759055e-05,
            2.25436087930575e-05,
            0.00045503073488362134,
            0.09823828935623169,
            0.0007162577239796519,
            8.406319102505222e-05,
            0.017578041180968285,
            -0.05075150355696678,
            0.017680613324046135
        ],
        [
            8.445168532489333e-06,
            -1.1158846973557957e-05,
            -1.6383000911446288e-05,
            0.0808786153793335,
            -2.177225542254746e-05,
            0.11994866281747818,
            0.07111990451812744,
            0.05564511939883232,
            0.013451422564685345
        ],
        [
            -0.04637264460325241,
            -0.06114651635289192,
            -0.017877116799354553,
            0.0007260239799506962,
            -0.027649573981761932,
            -0.007967193610966206,
            -0.023765189573168755,
            0.01695910468697548,
            0.017877696081995964
        ],
        [
            -0.00018061815353576094,
            -2.149119791283738e-05,
            -1.781094033503905e-05,
            0.06343908607959747,
            -1.9106013496639207e-05,
            -0.00012587729725055397,
            -0.018642079085111618,
            -0.014994724653661251,
            -0.026068871840834618
        ],
        [
            -0.03196326643228531,
            -0.0559394434094429,
            -0.040549155324697495,
            0.0019427579827606678,
            -0.05833900719881058,
            -0.005291450303047895,
            -0.002834404120221734,
            -0.0022669415920972824,
            -0.014680174179375172
        ]
    ],
    "sigmanet.nn.02.bias": [
        0.1352243274450302,
        -0.07724076509475708,
        -0.06782811880111694,
        -0.048075366765260696,
        0.060583554208278656,
        -0.10628949850797653,
        0.11530628800392151,
        0.010720960795879364,
        -0.09475978463888168,
        -0.07222561538219452,
        -0.05183142051100731,
        0.028606275096535683,
        0.06370440125465393,
        0.14404095709323883,
        -0.0570484884083271,
        0.045551810413599014,
        -0.06402190029621124,
        -0.05379210412502289,
        0.19701802730560303,
        -0.017663395032286644,
        0.028833329677581787,
        0.20964153110980988,
        -0.13755342364311218,
        0.023611050099134445,
        0.059812143445014954,
        0.06389528512954712,
        0.06953049451112747,
        -0.11309470236301422,
        0.09368522465229034,
        0.04838451370596886,
        -0.09018485993146896,
        -0.22370973229408264,
        -0.02540360391139984,
        -0.05650437995791435,
        -0.06439255177974701,
        -0.03033679910004139,
        -0.04740716889500618,
        -0.012217884883284569,
        0.04212596267461777,
        -0.2278384566307068,
        -0.055347878485918045,
        -0.028731711208820343,
        0.06437607854604721,
        -0.1061592549085617,
        -0.0009261318482458591,
        0.01987205632030964,
        0.15451766550540924,
        0.04813820868730545,
        0.04794100672006607,
        -0.09429987519979477,
        0.4475162625312805,
        -0.2861504554748535,
        -0.03151208162307739,
        -0.07102850824594498,
        -0.13751783967018127,
        -0.09099233895540237,
        0.10596905648708344,
        0.055847588926553726,
        -0.0312933586537838,
        0.01802423968911171,
        0.018508298322558403,
        -0.08387205004692078,
        -0.046352121978998184,
        0.01473432406783104
    ],
    "sigmanet.nn.02.parametrizations.weight.original": [
        [
            -0.00032339480821974576,
            -0.039342377334833145,
            0.03640712797641754,
            0.031983863562345505,
            0.009776826947927475,
            -0.033415645360946655,
            0.02983134612441063,
            -0.019322389736771584,
            0.013774490915238857,
            0.0248099435120821,
            0.033359378576278687,
            -0.0006436941912397742,
            0.034210555255413055,
            0.027883701026439667,
            -0.0003342907293699682,
            -0.011260299012064934,
            -0.004440669901669025,
            -0.03357582166790962,
            0.030776550993323326,
            0.004009726922959089,
            0.014080336317420006,
            -0.02902231179177761,
            -0.020881516858935356,
            -0.0002368562127230689,
            0.03234238177537918,
            -0.03277401998639107,
            0.028866412118077278,
            0.013675928115844727,
            0.0032674516551196575,
            0.00874585472047329,
            0.03290101885795593,
            0.031019700691103935,
            0.0005901316762901843,
            8.556655666325241e-05,
            -0.02991674467921257,
            -0.0064928969368338585,
            0.02183094620704651,
            -0.0029954505153000355,
            0.0017602337757125497,
            0.024769360199570656,
            0.03178351745009422,
            0.0009340339456684887,
            -0.0008053697529248893,
            -0.02172975055873394,
            0.023665113374590874,
            0.00035841375938616693,
            0.009155847132205963,
            0.010614942759275436,
            -0.018037177622318268,
            -0.03216337412595749,
            0.03169899433851242,
            0.03263205289840698,
            -0.018391309306025505,
            -0.00020928967569489032,
            0.032046590000391006,
            -0.018534105271100998,
            0.013977926224470139,
            0.008191973902285099,
            0.0003729025484062731,
            -0.009990844875574112,
            0.03321937471628189,
            -0.004767233971506357,
            0.023123621940612793,
            0.005705635063350201
        ],
        [
            0.00015810393961146474,
            0.0061196377500891685,
            -0.023053398355841637,
            -0.028621669858694077,
            -0.03457310423254967,
            0.0345669724047184,
            -0.02751678228378296,
            0.021824048832058907,
            -0.004887482617050409,
            -0.03833775594830513,
            -0.005661963019520044,
            0.0007390953251160681,
            -0.024766432121396065,
            -0.02987954206764698,
            0.0002546966716181487,
            0.030804524198174477,
            0.0017790801357477903,
            0.03490724787116051,
            -0.02967861481010914,
            -0.0029189297929406166,
            -0.027811624109745026,
            0.032830286771059036,
            0.012246193364262581,
            0.0007258362602442503,
            -0.037534285336732864,
            0.016158076003193855,
            -0.010815354995429516,
            -0.019140057265758514,
            -0.0024032362271100283,
            -0.011467203497886658,
            -0.014789680019021034,
            -0.005029991269111633,
            -0.005880970507860184,
            4.147018262301572e-05,
            0.03154182434082031,
            0.04053496941924095,
            -0.011957107111811638,
            0.0012678903294727206,
            -0.007834503427147865,
            -0.004528288263827562,
            -0.0329669788479805,
            -0.0003426395414862782,
            0.001239901757799089,
            0.010458742268383503,
            -0.03103245049715042,
            2.9251104933791794e-06,
            -0.029091551899909973,
            -0.011026566848158836,
            0.009395875036716461,
            0.029851499944925308,
            -0.005120552610605955,
            -0.031699374318122864,
            0.01987718604505062,
            0.0030081362929195166,
            -0.035048775374889374,
            0.009917865507304668,
            -0.005458798259496689,
            -0.011212373152375221,
            -0.00045886848238296807,
            0.01644984260201454,
            -0.0367533378303051,
            0.003694473300129175,
            -0.030375761911273003,
            -0.004992234520614147
        ],
        [
            8.23075752123259e-05,
            0.003312360029667616,
            -0.012365512549877167,
            -0.010912712663412094,
            -0.029195625334978104,
            0.008885723538696766,
            -0.006947237998247147,
            0.0033440999686717987,
            -0.06963563710451126,
            -0.023327644914388657,
            -0.005537793505936861,
            0.00235368637368083,
            -0.005197322927415371,
            -0.11886695772409439,
            0.0009170548873953521,
            0.01694587431848049,
            0.008119587786495686,
            0.006150107365101576,
            -0.008253257721662521,
            -0.0030842565465718508,
            -0.01474431250244379,
            0.06882879883050919,
            0.008789450861513615,
            0.0008102832362055779,
            -0.006752018351107836,
            0.006297147832810879,
            -0.009772281162440777,
            -0.006384072359651327,
            -0.004312904551625252,
            -0.050814613699913025,
            -0.006710070185363293,
            -0.004201928619295359,
            -0.005350236780941486,
            -9.330282773589715e-05,
            0.005351625848561525,
            0.005338848568499088,
            -0.025756847113370895,
            0.002878693863749504,
            -0.017041321843862534,
            -0.006724881008267403,
            -0.005953612737357616,
            -0.0006978974561206996,
            0.0012873095693066716,
            0.01677815057337284,
            -0.01797601208090782,
            -0.00035433785524219275,
            -0.009946218691766262,
            -0.006874951533973217,
            0.021292489022016525,
            0.0465182289481163,
            -0.016211863607168198,
            -0.009350997395813465,
            0.014375060796737671,
            0.007890674285590649,
            -0.07144837081432343,
            0.0007228112663142383,
            -0.01775607280433178,
            -0.008702677674591541,
            -0.0002237180306110531,
            0.0155220627784729,
            -0.00550598930567503,
            0.001963414018973708,
            -0.007412952370941639,
            -0.015684423968195915
        ],
        [
            -0.00016940943896770477,
            -0.04281234368681908,
            0.009464320726692677,
            0.03767944127321243,
            0.01098086778074503,
            -0.0363563634455204,
            0.03318476676940918,
            -0.021622465923428535,
            0.024798860773444176,
            0.004489507991820574,
            0.008195597678422928,
            -0.0009952944237738848,
            0.03996377810835838,
            0.031794559210538864,
            -0.0002944611478596926,
            -0.032828863710165024,
            -0.00032473416649736464,
            -0.007196696940809488,
            0.0370236374437809,
            0.003384984564036131,
            0.012542898766696453,
            -0.03688308224081993,
            -0.014635060913860798,
            -0.0005341095384210348,
            0.04108208045363426,
            -0.03459268435835838,
            0.03190620243549347,
            0.019071605056524277,
            0.001358187641017139,
            0.009892869740724564,
            0.041533682495355606,
            0.0161077119410038,
            0.0005493340431712568,
            5.591821718553547e-06,
            -0.006142914295196533,
            -0.039834070950746536,
            0.02358393557369709,
            -0.0012506034690886736,
            0.002426437335088849,
            0.03598697483539581,
            0.033502914011478424,
            0.005428587552160025,
            -0.0011093338252976537,
            -0.029927704483270645,
            0.033276256173849106,
            0.0003581687342375517,
            0.03543638810515404,
            0.00032437252230010927,
            -0.018124353140592575,
            -0.027245085686445236,
            0.03909701481461525,
            0.03645353764295578,
            -0.01734115183353424,
            -0.00021101308811921626,
            0.03809936344623566,
            -0.01684866100549698,
            0.013169758953154087,
            0.015851227566599846,
            0.0003318559902254492,
            -0.009602059610188007,
            0.03995198383927345,
            -0.0018199874320998788,
            0.03728301823139191,
            0.01270257867872715
        ],
        [
            0.0007144265691749752,
            0.02396385930478573,
            -0.03502088040113449,
            -0.03441692143678665,
            -0.011229729279875755,
            0.036244794726371765,
            -0.005223959218710661,
            0.016157953068614006,
            -0.01547723077237606,
            -0.026374451816082,
            -0.03621387109160423,
            0.0022082615178078413,
            -0.037761665880680084,
            -0.033756136894226074,
            0.00396543275564909,
            0.03531566634774208,
            0.007126971613615751,
            0.034054387360811234,
            -0.0069022090174257755,
            -0.002973642898723483,
            -0.02397623285651207,
            0.036325693130493164,
            0.008430739864706993,
            0.000212817350984551,
            -0.03878683224320412,
            0.03626412898302078,
            -0.028149958699941635,
            -0.01247432455420494,
            -0.011776391416788101,
            -0.03903129696846008,
            -0.036147162318229675,
            -0.01081947423517704,
            -0.0007513766759075224,
            7.744266622466967e-05,
            0.03652845695614815,
            0.026513775810599327,
            -0.027540987357497215,
            0.003587983548641205,
            -0.0014667157083749771,
            -0.032836608588695526,
            -0.03283601626753807,
            -0.013851734809577465,
            0.00133891508448869,
            0.023983148857951164,
            -0.03391264006495476,
            -0.00033742430969141424,
            -0.032281652092933655,
            -0.01507754996418953,
            0.009070231579244137,
            0.030899949371814728,
            -0.037874285131692886,
            -0.03498579561710358,
            0.01696222834289074,
            0.003245389787480235,
            -0.034301385283470154,
            0.015334106981754303,
            -0.015266521833837032,
            -0.008308058604598045,
            -0.0003918492002412677,
            0.008153661154210567,
            -0.03892006352543831,
            0.0017900923267006874,
            -0.006942279636859894,
            -0.018436750397086143
        ],
        [
            0.000994437956251204,
            0.03312297537922859,
            -0.03494437038898468,
            -0.030095728114247322,
            -0.028600607067346573,
            0.03439183160662651,
            -0.020368080586194992,
            0.016096992418169975,
            -0.017412729561328888,
            -0.03356644883751869,
            -0.02721552364528179,
            0.000943079125136137,
            -0.030022073537111282,
            -0.028062567114830017,
            0.0009137573069892824,
            0.0296330489218235,
            0.0013196018990129232,
            0.03323814645409584,
            -0.008969074115157127,
            -0.0008995234384201467,
            -0.021516211330890656,
            0.02764369174838066,
            0.013184705749154091,
            0.0003246910928282887,
            -0.03419776260852814,
            0.031137099489569664,
            -0.030120663344860077,
            -0.015927910804748535,
            -0.004352904390543699,
            -0.03364841639995575,
            -0.03212112933397293,
            -0.02443072199821472,
            -0.007043561432510614,
            -3.765122892218642e-05,
            0.03204958885908127,
            0.024329898878932,
            -0.02330135554075241,
            0.00275845336727798,
            -0.02031777985394001,
            -0.028919996693730354,
            -0.022315559908747673,
            -0.00021695489704143256,
            0.0013540472136810422,
            0.028197485953569412,
            -0.029190490022301674,
            -3.739613021025434e-06,
            -0.03149314969778061,
            -0.007476246450096369,
            0.021369710564613342,
            0.027948053553700447,
            -0.029218606650829315,
            -0.031185563653707504,
            0.0162588469684124,
            0.0010044417576864362,
            -0.02835264801979065,
            0.005964168347418308,
            -0.016582464799284935,
            -0.0087964478880167,
            -0.00041408208198845387,
            0.012362286448478699,
            -0.032715968787670135,
            0.0030842036940157413,
            -0.03354661166667938,
            -0.01628895103931427
        ],
        [
            -0.002755689900368452,
            -0.011400415562093258,
            0.010273998603224754,
            0.0062811169773340225,
            0.026351870968937874,
            -0.00678844191133976,
            0.006058929488062859,
            -0.00784163549542427,
            0.00695074675604701,
            0.00856870599091053,
            0.009904611855745316,
            -0.0016026501543819904,
            0.006092842202633619,
            0.004855837672948837,
            -0.000306104717310518,
            -0.012145992368459702,
            -0.00713542802259326,
            -0.007545791566371918,
            0.03655339777469635,
            0.0008201973978430033,
            0.013931653462350368,
            -0.004220421891659498,
            -0.0056509352289140224,
            -0.0003040404699277133,
            0.01568354293704033,
            -0.008166493847966194,
            0.013663112185895443,
            0.009848598390817642,
            0.009995190426707268,
            0.008609937503933907,
            0.00466571981087327,
            0.004174776840955019,
            0.0007764275651425123,
            2.563887210271787e-05,
            -0.13772517442703247,
            -0.003418626729398966,
            0.00859519187361002,
            -0.015026692301034927,
            0.00029101240215823054,
            0.002815021201968193,
            0.006535730324685574,
            0.001417224295437336,
            -0.000710433698259294,
            -0.008986878208816051,
            0.005323059856891632,
            0.0003325739817228168,
            0.010565553791821003,
            0.0005985616589896381,
            -0.010059526190161705,
            -0.009064731188118458,
            0.008317104540765285,
            0.06879059225320816,
            -0.02352951653301716,
            -0.008149159140884876,
            0.0033555973786860704,
            -0.015828028321266174,
            0.015404113568365574,
            0.006283121649175882,
            0.0002797720371745527,
            -0.0002719055046327412,
            0.005017787218093872,
            -0.005097573157399893,
            0.05147511884570122,
            0.002761527895927429
        ],
        [
            -0.004676629323512316,
            -0.04057879000902176,
            0.039024513214826584,
            0.03852561116218567,
            0.0068907602690160275,
            -0.02045351266860962,
            0.03879164159297943,
            -0.01626085489988327,
            0.007039202377200127,
            0.04122070223093033,
            0.03815322741866112,
            -0.0014066797448322177,
            0.005536237731575966,
            0.0408184751868248,
            -0.0002461960248183459,
            -0.008189823478460312,
            -0.008248979225754738,
            -0.014488127082586288,
            0.037179555743932724,
            0.0028652241453528404,
            0.020708881318569183,
            -0.006120702251791954,
            -0.017404934391379356,
            -0.00019732168584596366,
            0.014640274457633495,
            -0.006462979130446911,
            0.016673022881150246,
            0.015152867883443832,
            0.0057326084934175014,
            0.04274674877524376,
            0.039983395487070084,
            0.04257875308394432,
            0.004870380740612745,
            4.2575418774504215e-05,
            -0.03824322670698166,
            -0.04213254153728485,
            0.0280582457780838,
            -0.0034405402839183807,
            0.0016291660722345114,
            0.04306642338633537,
            0.03543074429035187,
            0.0007365915807895362,
            -0.00042677694000303745,
            -0.007036845665425062,
            0.03471137583255768,
            2.8612894311663695e-06,
            0.03651563823223114,
            0.0014655294362455606,
            -0.011924635618925095,
            -0.006740727461874485,
            0.00773551594465971,
            0.005611851345747709,
            -0.019545407965779305,
            -0.0005048366729170084,
            0.038068439811468124,
            -0.022011268883943558,
            0.01661478541791439,
            0.014173643663525581,
            0.00033005973091349006,
            -0.0034665248822420835,
            0.045754458755254745,
            -0.001779962913133204,
            0.006303382571786642,
            0.025409454479813576
        ],
        [
            0.21667955815792084,
            8.021910616662353e-06,
            -3.260183575548581e-06,
            -1.048631838784786e-05,
            -0.0031067980453372,
            1.4817791452514939e-05,
            -2.056379526038654e-05,
            0.0663331151008606,
            -9.941037569660693e-05,
            -9.85401766229188e-06,
            -1.6212209175137104e-06,
            0.000441003474406898,
            -0.00010790271335281432,
            -2.532353164497181e-06,
            0.23289956152439117,
            0.00010036540334112942,
            0.12025123089551926,
            2.7645524824038148e-05,
            7.1504764491692185e-06,
            -0.04583384469151497,
            -0.003468587761744857,
            5.276880619931035e-05,
            0.04404258728027344,
            0.0006819392438046634,
            -6.4937166825984605e-06,
            1.863309444161132e-05,
            -0.009489381685853004,
            -0.0888834297657013,
            -0.00032936924253590405,
            -5.211745701672044e-06,
            -2.173649045289494e-05,
            -1.5049520698084962e-05,
            0.007877308875322342,
            0.03229809179902077,
            4.958971203450346e-06,
            3.082110561081208e-05,
            -0.014574307948350906,
            0.014329370111227036,
            -2.8762062356690876e-05,
            -5.578732270805631e-06,
            -3.990465484093875e-05,
            -0.1702452301979065,
            -0.018349211663007736,
            0.00038357279845513403,
            2.8146919248683844e-06,
            -0.21952398121356964,
            -1.9092931324848905e-06,
            -8.727420936338603e-05,
            4.9970731197390705e-05,
            6.554630090249702e-05,
            -1.5371828339993954e-05,
            -1.2299772606638726e-05,
            0.03036941960453987,
            0.0022157125640660524,
            -3.297033254057169e-05,
            0.11677233129739761,
            -0.018517330288887024,
            -0.043336767703294754,
            -0.00032357583404518664,
            0.058927588164806366,
            -2.823393151629716e-05,
            -0.005633086897432804,
            -1.63019030878786e-05,
            -0.00034789691562764347
        ],
        [
            -0.0002797168563120067,
            -0.04295270889997482,
            0.04690099135041237,
            0.02156798169016838,
            0.013649982400238514,
            -0.04063768684864044,
            0.016072973608970642,
            -0.024539243429899216,
            0.015328167006373405,
            0.004200187046080828,
            0.04191325232386589,
            -0.0021328835282474756,
            0.04024100676178932,
            0.014215129427611828,
            -0.00031680421670898795,
            -0.031095797196030617,
            -0.004478299990296364,
            -0.027062078937888145,
            0.0380789078772068,
            -0.0015475139953196049,
            0.027028469368815422,
            -0.032716020941734314,
            -0.008187330327928066,
            -0.00027117537683807313,
            0.027705030515789986,
            -0.04671768099069595,
            0.02477213367819786,
            0.0162962693721056,
            0.0012203617952764034,
            0.01670859195291996,
            0.0073454068042337894,
            0.047667354345321655,
            0.038591355085372925,
            1.2225617865624372e-05,
            -0.01779218390583992,
            -0.04005454480648041,
            0.021964218467473984,
            -0.003182431682944298,
            0.00046722343540750444,
            0.029442766681313515,
            0.0376690998673439,
            0.0007506896508857608,
            -0.0006856381660327315,
            -0.046557653695344925,
            0.03808066248893738,
            2.464408680680208e-06,
            0.018146878108382225,
            0.002440147800371051,
            -0.013192516751587391,
            -0.009080515243113041,
            0.017843097448349,
            0.035127799957990646,
            -0.009354943409562111,
            -0.008795253932476044,
            0.04282267019152641,
            -0.01833384670317173,
            0.000137506693135947,
            0.010639550164341927,
            0.0003141374618280679,
            -0.01379433274269104,
            0.051984403282403946,
            -0.004276908002793789,
            0.03533676639199257,
            0.07765188813209534
        ],
        [
            -8.786631951807067e-05,
            -0.04730826988816261,
            0.03366473689675331,
            0.017639320343732834,
            0.011684135533869267,
            -0.009948517195880413,
            0.03933597356081009,
            -0.03260696679353714,
            0.02120286598801613,
            0.029407396912574768,
            0.03675950691103935,
            -0.0006552518461830914,
            0.04339786618947983,
            0.013208829797804356,
            -0.00030021503334864974,
            -0.010870082303881645,
            -0.007152382284402847,
            -0.03883122280240059,
            0.03345203027129173,
            0.0007693142397329211,
            0.01519025769084692,
            -0.02917427569627762,
            -0.007222711108624935,
            -0.0005375055479817092,
            0.017212260514497757,
            -0.014596041291952133,
            0.030581770464777946,
            0.013786050491034985,
            0.002015717327594757,
            0.034791070967912674,
            0.040925804525613785,
            0.020767858251929283,
            0.0005496166995726526,
            2.4439903427264653e-05,
            -0.005326223559677601,
            -0.04080092906951904,
            0.023484839126467705,
            -0.0012370265321806073,
            0.006990465335547924,
            0.024877889081835747,
            0.00946847628802061,
            0.0009241830557584763,
            -0.0010968191782012582,
            -0.02489318884909153,
            0.005707455333322287,
            1.242762408537601e-07,
            0.033171702176332474,
            0.010050925426185131,
            -0.01715579628944397,
            -0.030501922592520714,
            0.0064445617608726025,
            0.030780954286456108,
            -0.01865897886455059,
            -0.0021780256647616625,
            0.00541954068467021,
            -0.014394552446901798,
            0.005478501785546541,
            0.021630533039569855,
            0.0001777309225872159,
            -0.012499810196459293,
            0.029277317225933075,
            -0.0016173985786736012,
            0.03392109274864197,
            0.04494376853108406
        ],
        [
            -8.490604523103684e-05,
            -0.041622746735811234,
            0.03230198472738266,
            0.03604254499077797,
            0.01149972528219223,
            -0.03648758307099342,
            0.030503125861287117,
            -0.023977136239409447,
            0.02696184255182743,
            0.031389348208904266,
            0.03665076568722725,
            -0.001555060618557036,
            0.011594941839575768,
            0.03186175227165222,
            -0.0007115228218026459,
            -0.0335354246199131,
            -0.006204218603670597,
            -0.03263741359114647,
            0.006976404692977667,
            0.0035609810147434473,
            0.028213784098625183,
            -0.038907598704099655,
            -0.01461840234696865,
            -0.00023121284903027117,
            0.04045519605278969,
            -0.006533691193908453,
            0.024633532389998436,
            0.01608782634139061,
            0.0015676352195441723,
            0.007381892297416925,
            0.03875907137989998,
            0.03130178526043892,
            0.0007892511785030365,
            5.449392574519152e-06,
            -0.006919655948877335,
            -0.012304446659982204,
            0.029275931417942047,
            -0.02516612783074379,
            0.0038576903752982616,
            0.004759614821523428,
            0.036313749849796295,
            0.0003410014323890209,
            -0.0004171215696260333,
            -0.02440756931900978,
            0.026551375165581703,
            0.00033750812872312963,
            0.028689144179224968,
            0.013955076225101948,
            -0.006053235847502947,
            -0.03246092423796654,
            0.03995551913976669,
            0.03431638702750206,
            -0.022130852565169334,
            -0.00019079772755503654,
            0.01166896428912878,
            -0.008586462587118149,
            0.02096589095890522,
            0.01868123933672905,
            0.0003780122206080705,
            -0.009561155922710896,
            0.007373598869889975,
            -0.004090785048902035,
            0.032953981310129166,
            0.004994160030037165
        ],
        [
            -0.0003849858767352998,
            -0.0012036331463605165,
            0.00015897121920716017,
            0.001933036488480866,
            0.016013093292713165,
            -0.0009098381269723177,
            0.0014309549005702138,
            -0.0088777095079422,
            0.00011619217548286542,
            0.0002980790159199387,
            2.738987632255885e-06,
            -0.0015339812962338328,
            7.980870577739552e-05,
            0.00021546159405261278,
            -0.001563564408570528,
            -2.7515012334333733e-05,
            -0.03400491550564766,
            -0.00015185173833742738,
            0.0001103774702642113,
            0.004586548078805208,
            0.020721539855003357,
            -1.4397953236766625e-05,
            -0.010194933973252773,
            -0.00014411250595003366,
            2.030411815212574e-05,
            -1.1129891390737612e-05,
            0.01148222852498293,
            0.0039007000159472227,
            0.00044539893860928714,
            4.4068718125345185e-05,
            0.002465144032612443,
            6.45766340312548e-05,
            0.0010857365559786558,
            5.0954702601302415e-05,
            -0.000113455462269485,
            -0.0021098253782838583,
            0.006224287673830986,
            -0.0033165710046887398,
            0.0006808839389123023,
            1.626297671464272e-05,
            0.00015943362086545676,
            0.001517932745628059,
            3.8381745980586857e-05,
            -0.013046624138951302,
            4.905734385829419e-05,
            2.731845961534418e-05,
            0.0015071089146658778,
            8.340555359609425e-05,
            -0.00026396187604404986,
            -0.00032675787224434316,
            0.0007454057922586799,
            0.0005032843328081071,
            -0.039528679102659225,
            -5.011145185562782e-05,
            1.287117356696399e-05,
            -0.01358860544860363,
            0.00614363607019186,
            0.015433011576533318,
            0.00019791669910773635,
            -0.02405313216149807,
            0.00033603174961172044,
            -0.004300019703805447,
            0.0008763791993260384,
            0.02285374142229557
        ],
        [
            -6.72395181027241e-05,
            -0.009735574014484882,
            0.006890249438583851,
            0.036386746913194656,
            0.026286503300070763,
            -0.03471006825566292,
            0.031116735190153122,
            -0.022504771128296852,
            0.019099999219179153,
            0.03176373243331909,
            0.010404414497315884,
            -0.0007698032422922552,
            0.040932394564151764,
            0.02835620380938053,
            -0.00033018275280483067,
            -0.01681358553469181,
            -0.002610092516988516,
            -0.007286213804036379,
            0.03340788185596466,
            0.0027574810665100813,
            0.020583253353834152,
            -0.039025358855724335,
            -0.014720947481691837,
            -0.000403449812438339,
            0.005750847980380058,
            -0.03764081001281738,
            0.03095937706530094,
            0.016295958310365677,
            0.009219401516020298,
            0.038099974393844604,
            0.04136407747864723,
            0.013308451510965824,
            0.0010520918294787407,
            3.241870581405237e-05,
            -0.03126548230648041,
            -0.04260636866092682,
            0.02780991978943348,
            -0.017604511231184006,
            0.026175672188401222,
            0.03514546528458595,
            0.03826967999339104,
            0.00018003818695433438,
            -0.0004079258651472628,
            -0.016920331865549088,
            0.032516662031412125,
            0.0003386232128832489,
            0.03731243684887886,
            0.012199233286082745,
            -0.016690142452716827,
            -0.03174678981304169,
            0.04167965427041054,
            0.03762952610850334,
            -0.019262706860899925,
            0.000584145134780556,
            0.03396262973546982,
            -0.008971189148724079,
            0.01740480214357376,
            0.014825085178017616,
            0.0002604285255074501,
            -0.015259822830557823,
            0.011317628435790539,
            -0.0030021939892321825,
            0.035145923495292664,
            0.010855630040168762
        ],
        [
            0.0011230281088501215,
            0.03245673328638077,
            -0.03432459011673927,
            -0.032472871243953705,
            -0.028960591182112694,
            0.03560766205191612,
            -0.011456801556050777,
            0.02746398188173771,
            -0.017281806096434593,
            -0.03252199664711952,
            -0.025234585627913475,
            0.0006732987239956856,
            -0.0367005355656147,
            -0.03149766847491264,
            0.0022489274851977825,
            0.030770858749747276,
            0.00683647021651268,
            0.03305273875594139,
            -0.007934778928756714,
            -0.003640662180259824,
            -0.027918117120862007,
            0.005969703197479248,
            0.005571279209107161,
            0.0004024829831905663,
            -0.030235009267926216,
            0.03495606407523155,
            -0.009691359475255013,
            -0.0030710117425769567,
            -0.009776012040674686,
            -0.03810051456093788,
            -0.032944437116384506,
            -0.02959069237112999,
            -0.0006750232423655689,
            -6.408032731997082e-06,
            0.03203244134783745,
            0.03593607619404793,
            -0.024759700521826744,
            0.0035091035533696413,
            -0.0006172511493787169,
            -0.02935672365128994,
            -0.030618300661444664,
            -0.0007957789930514991,
            0.0013564875116571784,
            0.025344006717205048,
            -0.03011506237089634,
            -0.00028046921943314373,
            -0.03519575670361519,
            -0.008955034427344799,
            0.01712530292570591,
            0.0333692841231823,
            -0.032079823315143585,
            -0.029959000647068024,
            0.02106909453868866,
            0.02297944203019142,
            -0.03193211182951927,
            0.007422591559588909,
            -0.01753954030573368,
            -0.008073609322309494,
            -0.0005581395234912634,
            0.014523602090775967,
            -0.032293982803821564,
            0.00377385294996202,
            -0.03393316641449928,
            -0.0008736864547245204
        ],
        [
            7.470943819498643e-05,
            0.03677617758512497,
            -0.03776797652244568,
            -0.032048363238573074,
            -0.026087887585163116,
            0.03591515123844147,
            -0.028010480105876923,
            0.019689207896590233,
            -0.01778983883559704,
            -0.009473995305597782,
            -0.031199853867292404,
            0.00040732193156145513,
            -0.03709685057401657,
            -0.03366765007376671,
            0.0001314630062552169,
            0.012677771970629692,
            0.007591518107801676,
            0.03108200989663601,
            -0.007253698538988829,
            -0.0012512803077697754,
            -0.03165091946721077,
            0.032424576580524445,
            0.01163151953369379,
            0.0009808111935853958,
            -0.006247716955840588,
            0.03347138315439224,
            -0.01879745163023472,
            -0.025999270379543304,
            -0.0015902179293334484,
            -0.031722888350486755,
            -0.010882440023124218,
            -0.03586040064692497,
            -0.0019715193193405867,
            -6.914525147294626e-05,
            0.008683780208230019,
            0.006328172981739044,
            -0.029681311920285225,
            0.015220396220684052,
            -0.026438910514116287,
            -0.027451928704977036,
            -0.028996789827942848,
            -0.000936163414735347,
            0.000890214170794934,
            0.02793842740356922,
            -0.030502639710903168,
            -0.00015830574557185173,
            -0.008940748870372772,
            -0.00140982901211828,
            0.013173192739486694,
            0.008121274411678314,
            -0.033407602459192276,
            -0.032237470149993896,
            0.01921604759991169,
            -0.00060348364058882,
            -0.012604935094714165,
            0.020989205688238144,
            -0.0012924524489790201,
            -0.005953787826001644,
            -0.0004624526482075453,
            0.013444740325212479,
            -0.03430868685245514,
            0.0017346827080473304,
            -0.013224305585026741,
            -0.0018592755077406764
        ],
        [
            1.424927086191019e-05,
            1.5978608644218184e-05,
            -0.03688167780637741,
            -0.00015901279402896762,
            -0.00851939246058464,
            0.00475316820666194,
            -0.00014101795386523008,
            0.0004295873222872615,
            -0.031309597194194794,
            -0.019300168380141258,
            -1.8648312106961384e-05,
            0.01869378425180912,
            -0.0010446013184264302,
            -6.112799019319937e-05,
            0.00015388254541903734,
            0.002380533143877983,
            0.036440446972846985,
            0.00021876209939364344,
            -0.0001444368826923892,
            -0.07395245879888535,
            -0.043266281485557556,
            0.00017514245701022446,
            0.015168631449341774,
            0.7446691989898682,
            -0.02525564469397068,
            0.014078647829592228,
            -0.027147384360432625,
            5.8889869251288474e-05,
            -0.0033551547676324844,
            2.2475469450000674e-06,
            -0.00024161777400877327,
            -0.04384225606918335,
            0.0006567953387275338,
            0.0774976909160614,
            3.986365845776163e-05,
            0.013479064218699932,
            -0.06711147725582123,
            0.04548479616641998,
            -0.0014618280110880733,
            -0.00011148889461765066,
            -0.0002672532864380628,
            -0.008799533359706402,
            2.6046400307677686e-05,
            0.04034240543842316,
            -0.15835775434970856,
            -0.006109102629125118,
            -0.011495806276798248,
            -0.06552877277135849,
            1.4044078852748498e-05,
            0.003792620962485671,
            -3.8152833440108225e-05,
            -0.00013806027709506452,
            0.00011607530905166641,
            -0.0005905433790758252,
            -0.00018653523875400424,
            0.012879306450486183,
            -4.991269815945998e-05,
            -0.018976636230945587,
            0.006805942393839359,
            0.07684463262557983,
            -0.03705804422497749,
            -0.013435465283691883,
            -0.00013343646423891187,
            -0.10833434760570526
        ],
        [
            0.3319205343723297,
            7.191635813796893e-05,
            -1.1568395166250411e-05,
            -7.439129603881156e-06,
            -0.0020698350854218006,
            2.799456888169516e-05,
            -0.03207774460315704,
            0.052065830677747726,
            -7.684990123379976e-05,
            -3.9449856558348984e-05,
            -1.1183591595909093e-05,
            0.0003727980947587639,
            -3.731451215571724e-05,
            -2.4422770366072655e-05,
            0.19037003815174103,
            0.0018890410428866744,
            0.039725616574287415,
            1.0013924111262895e-05,
            -9.780816617421806e-05,
            -0.0026220218278467655,
            -0.0006219104980118573,
            -3.500776131204475e-07,
            0.038730327039957047,
            0.0004394928109832108,
            -1.9233433704357594e-05,
            1.6338990462827496e-06,
            -0.023434750735759735,
            -0.09208052605390549,
            -1.6181542378035374e-05,
            -1.6580363080720417e-05,
            -7.483427179977298e-05,
            -3.1883668270893395e-05,
            3.773623029701412e-05,
            3.183535591233522e-05,
            2.2929902115720324e-05,
            9.143355782725848e-06,
            -0.0152725325897336,
            -0.015263604000210762,
            -8.150585199473426e-05,
            -4.279093445802573e-06,
            -3.982865018770099e-05,
            -0.05939328670501709,
            -0.0001297916896874085,
            6.185005622683093e-05,
            -3.673463288578205e-05,
            -0.12145815789699554,
            -5.548672561417334e-05,
            -9.09127265913412e-05,
            0.0001211144044646062,
            2.009871195696178e-06,
            -3.38884347002022e-05,
            -1.3089788808429148e-05,
            0.030218001455068588,
            0.009626947343349457,
            -5.529114423552528e-05,
            0.1315007507801056,
            -0.41829153895378113,
            -0.07510263472795486,
            -0.2708837687969208,
            0.03090154565870762,
            -1.1007786270056386e-05,
            0.0002238857705378905,
            -4.998299482394941e-05,
            -0.00033775309566408396
        ],
        [
            -0.0016841687029227614,
            -0.004558997228741646,
            0.004383099265396595,
            0.005979220382869244,
            0.027855392545461655,
            -0.010161141864955425,
            0.04214620590209961,
            -0.02189069427549839,
            0.010053250007331371,
            0.0008002674439921975,
            0.0034880938474088907,
            -0.0009206620161421597,
            0.005609605927020311,
            0.0005843383260071278,
            -0.0014635373372584581,
            -0.03154490143060684,
            -0.01761200837790966,
            -0.01611233688890934,
            0.011601057834923267,
            0.0036987343337386847,
            0.014778179116547108,
            -0.00014883193944115192,
            -0.00660922983661294,
            -0.00043469679076224566,
            0.0031441214960068464,
            -0.009391388855874538,
            0.015431986190378666,
            0.012546022422611713,
            0.001315965666435659,
            0.0002926774905063212,
            0.018348919227719307,
            0.0019660484977066517,
            0.0005594813846983016,
            1.7045089407474734e-05,
            -0.005091633182018995,
            -0.0054868366569280624,
            0.02879483252763748,
            -0.0026020831428468227,
            0.00944115687161684,
            0.0006090899696573615,
            0.014889880083501339,
            0.00019985248218290508,
            -0.0003937880974262953,
            -0.03356591984629631,
            0.0034170784056186676,
            0.00034875288838520646,
            0.03152900189161301,
            0.0016670783516019583,
            -0.008059488609433174,
            -0.006888914853334427,
            0.0027745733968913555,
            0.0003492175310384482,
            -0.029986249282956123,
            -4.601539330906235e-05,
            0.006418396253138781,
            -0.023376787081360817,
            0.023907750844955444,
            0.02717655710875988,
            0.0002103657607221976,
            -0.006043137051165104,
            0.003809543326497078,
            -0.004507346544414759,
            0.008595401421189308,
            0.00744507135823369
        ],
        [
            -0.0008626899216324091,
            -0.04031328484416008,
            0.006373852491378784,
            0.03683048486709595,
            0.02734627015888691,
            -0.03642449527978897,
            0.035718176513910294,
            -0.008480164222419262,
            0.00480751134455204,
            0.036778077483177185,
            0.03343798965215683,
            -0.0006952555268071592,
            0.043519027531147,
            0.03519183769822121,
            -0.0013885366497561336,
            -0.008650468662381172,
            -0.0017804206581786275,
            -0.03165687620639801,
            0.006870733108371496,
            0.0030134315602481365,
            0.012264869175851345,
            -0.015991564840078354,
            -0.007379202637821436,
            -0.0005496630910784006,
            0.005944868549704552,
            -0.03726454824209213,
            0.02786603569984436,
            0.0009572822018526495,
            0.002747444435954094,
            0.025307707488536835,
            0.03192965313792229,
            0.028398115187883377,
            0.005887273699045181,
            8.513259672326967e-05,
            -0.006173975765705109,
            -0.005607135593891144,
            0.007570923306047916,
            -0.025045065209269524,
            0.0058245365507900715,
            0.006187738850712776,
            0.03241344913840294,
            0.0014310856349766254,
            -0.00020339831826277077,
            -0.029961591586470604,
            0.03238841891288757,
            -6.110817594162654e-06,
            0.011510435491800308,
            0.0037538025062531233,
            -0.022542836144566536,
            -0.00937243364751339,
            0.005126388743519783,
            0.03347060829401016,
            -0.01357556413859129,
            -6.37229677522555e-05,
            0.005880859214812517,
            -0.013508054427802563,
            0.00019579722720663995,
            0.006948286201804876,
            0.00028307136381044984,
            -0.0033235414884984493,
            0.03438235819339752,
            -0.004049289971590042,
            0.03534488007426262,
            0.0012473386013880372
        ],
        [
            -0.0003380845009814948,
            -0.030254820361733437,
            0.041968055069446564,
            0.03961014747619629,
            0.029668230563402176,
            -0.03859462961554527,
            0.0410834476351738,
            -0.0020735228899866343,
            0.04114701971411705,
            0.04175921157002449,
            0.0054215784184634686,
            -0.0008688418311066926,
            0.005465358030050993,
            0.0461733378469944,
            -0.00024921202566474676,
            -0.033598385751247406,
            -0.008424019441008568,
            -0.04141518101096153,
            0.04196953773498535,
            0.0033398903906345367,
            0.028977230191230774,
            -0.05618365481495857,
            -0.007197828497737646,
            -0.00025252741761505604,
            0.04845055937767029,
            -0.0073959315195679665,
            0.009589138440787792,
            0.011661832220852375,
            0.007950845174491405,
            0.009953441098332405,
            0.006744449958205223,
            0.042747613042593,
            0.0014517680974677205,
            1.863333091023378e-05,
            -0.05153650790452957,
            -0.02598443441092968,
            0.008097970858216286,
            -0.025030188262462616,
            0.003603019518777728,
            0.050157759338617325,
            0.038296669721603394,
            0.0014435022603720427,
            -0.00044512064778245986,
            -0.027804218232631683,
            0.016930878162384033,
            0.0003348478931002319,
            0.014067444019019604,
            0.01644843816757202,
            -0.008627223782241344,
            -0.023890024051070213,
            0.05463879182934761,
            0.04352220147848129,
            -0.023774735629558563,
            -0.010273696854710579,
            0.009097880683839321,
            -0.018881458789110184,
            0.001779390498995781,
            0.0381023995578289,
            0.00015423641889356077,
            -0.008577578701078892,
            0.05146104469895363,
            -0.0021763378754258156,
            0.041750334203243256,
            0.0025205686688423157
        ],
        [
            -0.07010173052549362,
            -0.0001027574107865803,
            0.00015151515253819525,
            0.00012028010678477585,
            0.015020492486655712,
            -4.670930502470583e-05,
            0.00030599531601183116,
            -0.04313834011554718,
            0.0008048160234466195,
            0.00016926763055380434,
            3.233222014387138e-05,
            -0.0004799534799531102,
            0.00016101331857498735,
            9.211173164658248e-05,
            -0.0003716298961080611,
            -0.0002286616072524339,
            -0.039813365787267685,
            -3.785843000514433e-05,
            0.0002053556527243927,
            0.0039717708714306355,
            0.008048708550632,
            -2.5017912776093e-05,
            -0.019329607486724854,
            -0.00016289186896756291,
            0.00010417330486234277,
            -0.0001189505128422752,
            0.011135523207485676,
            0.01360391080379486,
            0.0007920581265352666,
            3.4179320209659636e-06,
            6.271163783821976e-06,
            7.609296881128103e-05,
            0.0003311743785161525,
            -1.5816523557532491e-07,
            -3.342327909194864e-05,
            -0.00025113491574302316,
            0.004928055219352245,
            -0.00352479238063097,
            0.00048327603144571185,
            8.845153206493706e-05,
            9.388114995090291e-05,
            0.007886994630098343,
            9.31159684114391e-06,
            -0.001684908289462328,
            0.00015559741586912423,
            0.00014897409710101783,
            4.2581134039210156e-05,
            0.0008513887296430767,
            -0.00025179513613693416,
            -8.481043914798647e-05,
            2.220832720922772e-05,
            9.249515278497711e-05,
            -0.028288519009947777,
            -0.03551698848605156,
            0.00024678691988810897,
            -0.040982991456985474,
            0.004816307220607996,
            0.041599761694669724,
            0.0003013289242517203,
            -0.035027530044317245,
            7.720608846284449e-05,
            -0.002985701197758317,
            1.8918140995083377e-05,
            0.001013540429994464
        ],
        [
            7.382115290965885e-05,
            7.93599319877103e-05,
            -3.298581577837467e-05,
            -0.00012435820826794952,
            -0.017477169632911682,
            0.006678977981209755,
            -0.0001068573328666389,
            0.042051270604133606,
            -0.0006685343687422574,
            -1.5511490346398205e-05,
            -0.0001521458470961079,
            9.786039299797267e-05,
            -5.951539060333744e-05,
            -3.575878872652538e-05,
            0.00036316984915174544,
            0.0009015382966026664,
            0.011742915026843548,
            3.337543967063539e-05,
            -0.0001759380247676745,
            -0.00038689508801326156,
            -0.023173920810222626,
            0.00010377115540904924,
            0.011643189005553722,
            0.0005093020154163241,
            -0.00011704286589520052,
            0.00013903978106100112,
            -0.019162647426128387,
            -0.005839609075337648,
            -0.001109026838093996,
            -8.937626262195408e-06,
            -0.00015768071170896292,
            -8.808150596451014e-05,
            -0.0005715739680454135,
            -2.07667126232991e-05,
            0.00021714341710321605,
            7.284200546564534e-05,
            -0.014721323736011982,
            0.02223811112344265,
            -0.0007256986573338509,
            -0.0001659029076108709,
            -7.552088936790824e-05,
            -0.011461102403700352,
            0.00011204567999811843,
            0.0036809255834668875,
            -0.00019006188085768372,
            -5.222155959927477e-05,
            -0.0035929500591009855,
            -0.00039429665775969625,
            0.000992266577668488,
            0.0001570504391565919,
            -0.00015117642760742456,
            -0.00015959130541887134,
            0.00958001334220171,
            0.0002751660067588091,
            -0.0015156256267800927,
            0.047072768211364746,
            -0.001420603017322719,
            -0.02207055501639843,
            -0.0002780170470941812,
            0.02255142852663994,
            -0.00018424286099616438,
            0.000998674426227808,
            -0.0008074408397078514,
            -0.01603110320866108
        ],
        [
            -6.952472176635638e-05,
            -0.024747218936681747,
            0.0432048961520195,
            0.03211403638124466,
            0.04381724074482918,
            -0.00789101142436266,
            0.02235352247953415,
            -0.027607914060354233,
            0.009776885621249676,
            0.014344148337841034,
            0.03595036640763283,
            -0.0010093189775943756,
            0.03357754275202751,
            0.022649122402071953,
            -0.00435280054807663,
            -0.04510780796408653,
            -0.009053792804479599,
            -0.012386971153318882,
            0.037591055035591125,
            0.0024737417697906494,
            0.01632179133594036,
            -0.004689162131398916,
            -0.014621750451624393,
            -0.0001197432357002981,
            0.03990938141942024,
            -0.04393310844898224,
            0.033027105033397675,
            0.010092049837112427,
            0.008996724151074886,
            0.006527442019432783,
            0.043773844838142395,
            0.03710036352276802,
            0.008772943168878555,
            3.5165830922778696e-05,
            -0.01632714830338955,
            -0.046689946204423904,
            0.033841777592897415,
            -0.0034421226009726524,
            0.004568567965179682,
            0.004450061824172735,
            0.0357733778655529,
            0.00034323494764976203,
            -0.001679428736679256,
            -0.012139709666371346,
            0.03769634664058685,
            7.83221096867237e-08,
            0.012362780049443245,
            0.0010509944986552,
            -0.016941577196121216,
            -0.03154081106185913,
            0.034017644822597504,
            0.02953650802373886,
            -0.006200506817549467,
            -0.00010295084939571097,
            0.006951970048248768,
            -0.00815950334072113,
            0.014293983578681946,
            0.012727738358080387,
            0.0003520128084346652,
            -0.013598158024251461,
            0.005380697548389435,
            -0.005271552130579948,
            0.03594440221786499,
            0.03306342661380768
        ],
        [
            -0.004651313181966543,
            -0.03600918874144554,
            0.03083859570324421,
            0.03493959829211235,
            0.024235136806964874,
            -0.03371598944067955,
            0.011165935546159744,
            -0.029831694439053535,
            0.02005346678197384,
            0.033618856221437454,
            0.0260087251663208,
            -0.0018967317882925272,
            0.005551941692829132,
            0.004967821296304464,
            -0.00034907678491435945,
            -0.03380740433931351,
            -0.0005770061980001628,
            -0.033465418964624405,
            0.03546490892767906,
            0.002951502799987793,
            0.026485444977879524,
            -0.03238196298480034,
            -0.008797314949333668,
            -0.00016978818166535348,
            0.036160197108983994,
            -0.03669584169983864,
            0.0100505780428648,
            0.017696382477879524,
            0.0037647534627467394,
            0.03904488682746887,
            0.035157136619091034,
            0.033967576920986176,
            0.0007601898978464305,
            7.712304977758322e-06,
            -0.03166210278868675,
            -0.035798877477645874,
            0.022932473570108414,
            -0.0021336565259844065,
            0.0010387320071458817,
            0.03176981583237648,
            0.010411838069558144,
            0.00018433837976772338,
            -0.0012199135962873697,
            -0.022920280694961548,
            0.03193915635347366,
            9.650083666201681e-05,
            0.030312368646264076,
            0.005517221987247467,
            -0.02586410380899906,
            -0.03133431822061539,
            0.03342945873737335,
            0.03361081704497337,
            -0.016507958993315697,
            -0.017231570556759834,
            0.030876807868480682,
            -0.007967748679220676,
            0.023395713418722153,
            0.01234959252178669,
            0.00039019176620058715,
            -0.0040026381611824036,
            0.036910831928253174,
            -0.004775252193212509,
            0.013092659413814545,
            0.004709637723863125
        ],
        [
            -0.0002932315692305565,
            -1.7137916074716486e-05,
            0.0003153859870508313,
            0.00037280796095728874,
            0.017635922878980637,
            -0.0003569595573935658,
            0.0008187999483197927,
            -0.01686261221766472,
            0.0038069766014814377,
            0.00027599831810221076,
            0.0003596472670324147,
            -0.0011128504993394017,
            9.795054938877001e-05,
            0.00020155265519861132,
            -0.00021337764337658882,
            -0.00033434509532526135,
            -0.0004929211572743952,
            -0.00043920351890847087,
            0.00019383986364118755,
            0.0033400091342628,
            0.01438314188271761,
            -8.488512685289606e-05,
            -0.013650292530655861,
            -0.0003884500474669039,
            9.985074575524777e-05,
            -1.84627715498209e-05,
            0.02556746080517769,
            0.00375157012604177,
            0.00020951654005330056,
            2.511762249923777e-05,
            0.0003630283463280648,
            0.00020008286810480058,
            0.0004306259797886014,
            5.4809417633805424e-05,
            -0.00024129415396600962,
            -0.0008602841990068555,
            0.006327019073069096,
            -0.001399538479745388,
            0.0006169113330543041,
            0.00013283548469189554,
            2.7200736440136097e-05,
            0.0007269292254932225,
            -3.405434836167842e-05,
            -0.004357222001999617,
            0.0013746438780799508,
            2.2872729459777474e-05,
            0.0030921974685043097,
            0.000315835524816066,
            -0.0011987343896180391,
            -5.561467332881875e-05,
            0.0004214564396534115,
            8.700504986336455e-05,
            -0.02924678847193718,
            0.0006847667973488569,
            0.00013815218699164689,
            -0.016664057970046997,
            0.02606128714978695,
            0.02299349755048752,
            0.00039847553125582635,
            -0.011724240146577358,
            4.275894752936438e-05,
            -0.00302223046310246,
            4.2173604015260935e-05,
            0.0005597214912995696
        ],
        [
            -9.434224193682894e-05,
            -0.04132626950740814,
            0.007236085832118988,
            0.006573106162250042,
            0.018765872344374657,
            -0.006187306251376867,
            0.033057063817977905,
            -0.020299794152379036,
            0.023373251780867577,
            0.03556545451283455,
            0.03224048763513565,
            -0.0013907111715525389,
            0.008780333213508129,
            0.005875124130398035,
            -0.0007758215651847422,
            -0.03716805949807167,
            -0.00038460365612991154,
            -0.03488372638821602,
            0.03829658776521683,
            0.0031899050809442997,
            0.029867056757211685,
            -0.032307110726833344,
            -0.016347037628293037,
            -0.0009734625346027315,
            0.0075540076941251755,
            -0.03640780225396156,
            0.022704456001520157,
            0.005732385907322168,
            0.0040477304719388485,
            0.039094146341085434,
            0.03942353278398514,
            0.005357113666832447,
            0.0005758399493061006,
            3.19896535074804e-05,
            -0.033588752150535583,
            -0.03695487603545189,
            0.030215904116630554,
            -0.002059791935607791,
            0.0018804270075634122,
            0.026437899097800255,
            0.033190254122018814,
            0.00025657605146989226,
            -0.0006369563634507358,
            -0.027340266853570938,
            0.024145008996129036,
            0.00013079425843898207,
            0.01824612356722355,
            0.017052652314305305,
            -0.018366217613220215,
            -0.008323241025209427,
            0.03413531184196472,
            0.031758591532707214,
            -0.017899632453918457,
            -0.00040129010449163616,
            0.03127073869109154,
            -0.008524954319000244,
            0.02351725473999977,
            0.0066800410859286785,
            0.00031947673414833844,
            -0.008813397958874702,
            0.03654537349939346,
            -0.005387472454458475,
            0.03375553339719772,
            0.0018193520372733474
        ],
        [
            0.003333491273224354,
            0.033961229026317596,
            -0.006515518296509981,
            -0.02550078183412552,
            -0.031824637204408646,
            0.026229390874505043,
            -0.026445593684911728,
            0.015467556193470955,
            -0.02435413748025894,
            -0.029747502878308296,
            -0.027249649167060852,
            0.001055204775184393,
            -0.028486642986536026,
            -0.02309245429933071,
            0.0032681243028491735,
            0.01595184952020645,
            0.006173109635710716,
            0.03156685456633568,
            -0.006849800236523151,
            -0.0035409305710345507,
            -0.016368715092539787,
            0.00703796511515975,
            0.01572948880493641,
            0.0005795754259452224,
            -0.028825122863054276,
            0.006135474890470505,
            -0.031002210453152657,
            -0.018270013853907585,
            -0.007594875060021877,
            -0.01657753437757492,
            -0.030579833313822746,
            -0.024911776185035706,
            -0.0030349327716976404,
            -3.82093021471519e-05,
            0.020505696535110474,
            0.03171967342495918,
            -0.019409574568271637,
            0.017531314864754677,
            -0.00033374669146724045,
            -0.023832611739635468,
            -0.028684917837381363,
            -0.001454689190723002,
            0.00017677299911156297,
            0.026467060670256615,
            -0.00651970412582159,
            -0.00039258747710846364,
            -0.03220251947641373,
            -0.0029114061035215855,
            0.007585183251649141,
            0.032143864780664444,
            -0.027927104383707047,
            -0.0057297577150166035,
            0.01567508839070797,
            0.00021534290863201022,
            -0.025205442681908607,
            0.0008451552130281925,
            -0.023997202515602112,
            -0.013801315799355507,
            -0.0002181848103646189,
            0.01411128044128418,
            -0.02439754083752632,
            0.0020762861240655184,
            -0.027477363124489784,
            -0.005658086854964495
        ],
        [
            -5.1864259148715064e-05,
            -0.009154933504760265,
            0.016737481579184532,
            0.03823517635464668,
            0.026586271822452545,
            -0.03405354544520378,
            0.0372287854552269,
            -0.024361498653888702,
            0.023527484387159348,
            0.035748306661844254,
            0.03546519950032234,
            -0.0010055555030703545,
            0.04225163534283638,
            0.014390374533832073,
            -0.002514433115720749,
            -0.015638887882232666,
            -0.011163183487951756,
            -0.03359832987189293,
            0.03440793231129646,
            0.002884694840759039,
            0.029430657625198364,
            -0.03613302484154701,
            -0.014663978479802608,
            -0.0005429176380857825,
            0.04021477326750755,
            -0.009020012803375721,
            0.02909034863114357,
            0.013953923247754574,
            0.010534428060054779,
            0.03422429785132408,
            0.03994268178939819,
            0.03627897799015045,
            0.006248445250093937,
            -3.082433613599278e-05,
            -0.0055599273182451725,
            -0.04127497598528862,
            0.028239091858267784,
            -0.02486068569123745,
            0.016252240166068077,
            0.004908907692879438,
            0.024604031816124916,
            0.0007151705794967711,
            -0.0012922146124765277,
            -0.03266581892967224,
            0.033779244869947433,
            0.0003346689627505839,
            0.03091246448457241,
            0.027156323194503784,
            -0.010486043989658356,
            -0.03335852175951004,
            0.040252164006233215,
            0.01788175478577614,
            -0.02042747661471367,
            -0.021088765934109688,
            0.02880028448998928,
            -0.013375013135373592,
            0.015332452021539211,
            0.013556402176618576,
            0.0002277674211654812,
            -0.01611710712313652,
            0.03772648796439171,
            -0.0017413691384717822,
            0.03208589181303978,
            0.0033357450738549232
        ],
        [
            -0.0006358865066431463,
            -0.01745673455297947,
            0.035920143127441406,
            0.030996665358543396,
            0.03247123584151268,
            -0.035676151514053345,
            0.01517198421061039,
            -0.02356879785656929,
            0.006066276226192713,
            0.008448144420981407,
            0.005494291428476572,
            -0.0018172669224441051,
            0.03564700856804848,
            0.024654533714056015,
            -0.0005566477193497121,
            -0.008746786043047905,
            -0.006408203858882189,
            -0.01403480302542448,
            0.03604208678007126,
            0.0009759687236510217,
            0.021230686455965042,
            -0.0054578594863414764,
            -0.005167684983462095,
            -0.0001409678370691836,
            0.035945139825344086,
            -0.03782964125275612,
            0.010135019198060036,
            0.015332357957959175,
            0.005163188092410564,
            0.045667409896850586,
            0.036404505372047424,
            0.013592523522675037,
            0.0007293103844858706,
            9.213910379912704e-05,
            -0.03269142657518387,
            -0.03954637423157692,
            0.023249750956892967,
            -0.024621980264782906,
            0.004346606321632862,
            0.032836925238370895,
            0.03249993920326233,
            0.0008074197685346007,
            -0.0013151641469448805,
            -0.03036588616669178,
            0.030583716928958893,
            -2.9673995527446095e-07,
            0.009734077379107475,
            0.001659768051467836,
            -0.03275248408317566,
            -0.03200310468673706,
            0.005282302387058735,
            0.03238391876220703,
            -0.0228164903819561,
            -0.007282986305654049,
            0.03378898277878761,
            -0.005579215008765459,
            0.004399703349918127,
            0.0071695782244205475,
            0.0004434380680322647,
            -0.002722799777984619,
            0.032695893198251724,
            -0.0040092673152685165,
            0.03394240513443947,
            0.009451529942452908
        ],
        [
            0.46669670939445496,
            0.008755418471992016,
            -0.00017396287876181304,
            1.5802723964952747e-06,
            -0.04239919036626816,
            0.002240029163658619,
            -0.017336053773760796,
            0.06412018835544586,
            -5.161751323612407e-05,
            -4.845359580940567e-05,
            -0.00014475753414444625,
            0.00016272137872874737,
            -1.877849172160495e-05,
            -3.009189867952955e-06,
            0.16328008472919464,
            0.0001050782811944373,
            0.16081276535987854,
            0.009219158440828323,
            -0.008380365557968616,
            -0.04022673889994621,
            -0.023233601823449135,
            3.964468487538397e-05,
            0.10146334767341614,
            0.00025819597067311406,
            -8.444957529718522e-06,
            0.00012061941379215568,
            -0.04423373192548752,
            -0.06638354063034058,
            -0.20077329874038696,
            -2.8377871785778552e-05,
            -0.0024391005281358957,
            1.0378959132140153e-06,
            0.0016523846425116062,
            0.00018213139264844358,
            5.9669189795386046e-05,
            0.003990973811596632,
            -0.015572897158563137,
            -0.013742412440478802,
            -0.6720179319381714,
            2.2793176412960747e-06,
            -1.1723708666977473e-05,
            -0.016740214079618454,
            -0.31428879499435425,
            0.003423434915021062,
            -4.854042344959453e-05,
            -0.33098483085632324,
            -0.007464879658073187,
            -7.287985499715433e-05,
            0.4287371337413788,
            -1.6754511307226494e-05,
            -2.5068968625419075e-06,
            -1.974149745365139e-05,
            0.02731703780591488,
            0.0008417698554694653,
            -3.885979367623804e-06,
            0.04390781372785568,
            -0.09750625491142273,
            -0.04794446378946304,
            -0.7854979634284973,
            0.034586574882268906,
            -3.171011121594347e-05,
            -0.0035252210218459368,
            -0.0036552550736814737,
            -0.0011056660441681743
        ],
        [
            0.0001556864590384066,
            3.868123530992307e-05,
            -1.4421873856917955e-05,
            -6.261595262913033e-05,
            -0.003271323861554265,
            8.471310866298154e-05,
            -0.00010310116340406239,
            -0.00011696527508320287,
            -0.00132802315056324,
            -0.005806031636893749,
            -0.00015353657363448292,
            0.8432813286781311,
            -0.00011971437925240025,
            -1.8536409697844647e-05,
            0.0023900154046714306,
            0.0008247569785453379,
            0.02697799913585186,
            3.5857992770615965e-05,
            -4.400550824357197e-05,
            -0.024449355900287628,
            -0.0004922660300508142,
            4.46917510998901e-05,
            0.018934108316898346,
            0.20353683829307556,
            -0.00010383830522187054,
            9.79696778813377e-05,
            -0.00010970759467454627,
            -0.0003592674620449543,
            -1.9846520444843918e-05,
            -3.7171237636357546e-05,
            -2.7321717425365932e-05,
            -1.3417926311376505e-05,
            -0.3721959888935089,
            -5.987890108372085e-05,
            5.225188942858949e-05,
            0.00016545981634408236,
            -0.006121632177382708,
            0.06731802225112915,
            -0.0002522595750633627,
            -0.000183092852239497,
            -5.447203875519335e-05,
            -0.03770005702972412,
            0.0012177586322650313,
            0.001663249102421105,
            -0.031158674508333206,
            -8.034255733946338e-05,
            -0.0009067457285709679,
            -0.030542349442839622,
            2.039667742792517e-05,
            -2.5240296963602304e-05,
            -0.0001040609713527374,
            -8.899983367882669e-05,
            0.08532075583934784,
            0.05819370225071907,
            -3.921981988241896e-05,
            0.024311630055308342,
            -0.0002648978552315384,
            -0.036001056432724,
            0.0001504162501078099,
            0.05163921043276787,
            -1.0676179044821765e-05,
            0.0001054895983543247,
            -5.578551645157859e-05,
            -0.0748412013053894
        ],
        [
            0.00018914857355412096,
            0.037962399423122406,
            -0.006771308835595846,
            -0.0064690373837947845,
            -0.023324087262153625,
            0.02056054212152958,
            -0.006972850300371647,
            0.015441193245351315,
            -0.0051886336877942085,
            -0.039439838379621506,
            -0.03758348897099495,
            0.0019146125996485353,
            -0.00562478369101882,
            -0.036039602011442184,
            0.0008186846971511841,
            0.031437765806913376,
            0.0031616652850061655,
            0.033684905618429184,
            -0.027576735243201256,
            -0.0031442982144653797,
            -0.02161642350256443,
            0.006251336541026831,
            0.010145769454538822,
            0.0007061238866299391,
            -0.03757414221763611,
            0.04121892526745796,
            -0.009641523472964764,
            -0.006520893424749374,
            -0.001216763281263411,
            -0.007874822244048119,
            -0.03591068834066391,
            -0.02638738602399826,
            -0.0042366455309093,
            -0.00015009302296675742,
            0.04086720943450928,
            0.027594810351729393,
            -0.02248036488890648,
            0.00103944749571383,
            -0.0025771872606128454,
            -0.04110584035515785,
            -0.030710294842720032,
            -0.00030430546030402184,
            0.0005062447162345052,
            0.02944009006023407,
            -0.03501342609524727,
            -0.00033533413079567254,
            -0.02821495197713375,
            -0.0016861323965713382,
            0.02159205824136734,
            0.03721826896071434,
            -0.010602550581097603,
            -0.03674474358558655,
            0.014544490724802017,
            0.00018324976554140449,
            -0.036254867911338806,
            0.021418597549200058,
            -0.02747064270079136,
            -0.004808351863175631,
            -0.00045916796079836786,
            0.0020199716091156006,
            -0.04093011096119881,
            0.005303910933434963,
            -0.007492948789149523,
            -0.0011577699333429337
        ],
        [
            0.0002592606469988823,
            0.0073667955584824085,
            -0.006739589385688305,
