{"metadata": {"version": 1, "features": ["Chi2", "NDOF", "LogPt", "Eta", "FitVeloChi2", "FitTChi2", "FitTNDOF", "FitMatchChi2", "nUTHits", "nUTOutliers"]}, "_stack.Linear_0.weight": [[-1.2039778232574463, 0.27791163325309753, 1.6834880113601685, 0.48107558488845825, 1.050991415977478, 1.581175446510315, -4.805788040161133, 1.7596827745437622, -1.112727403640747, -0.5063732862472534], [-0.3619118630886078, 0.2334047257900238, 3.7454710006713867, 4.040870189666748, 0.340085506439209, 0.08639171719551086, 2.7210214138031006, -0.25565338134765625, 0.20213140547275543, -3.2611615657806396], [0.24501411616802216, -3.294234275817871, 0.8018500208854675, 5.259221076965332, 0.06283676624298096, -0.1735392063856125, 3.440727949142456, -0.2313576340675354, 2.6934728622436523, -3.470327854156494], [0.19069650769233704, -2.0044963359832764, 2.3588242530822754, -3.3261799812316895, 0.7175162434577942, -0.08958924561738968, 3.1574113368988037, -0.1526501625776291, 0.8585389852523804, -4.189094066619873], [0.03616931661963463, -0.17974835634231567, 5.107166767120361, 0.14425767958164215, -0.05317479744553566, -0.020842619240283966, -1.6988918781280518, 0.02043376863002777, -0.631131649017334, -3.617985963821411], [1.506557583808899, 0.14489902555942535, -1.332434058189392, 6.987114906311035, -1.6402586698532104, -1.4452543258666992, -1.9585613012313843, -1.7397137880325317, 0.1618746519088745, 6.384823322296143], [-0.1473945677280426, 0.3766605257987976, 3.3260931968688965, 3.690553665161133, -0.1555936187505722, 0.2563266158103943, 0.02366410195827484, 0.2732047140598297, -1.6018658876419067, -14.618972778320312], [0.009046447463333607, -0.03122512623667717, 3.236318349838257, 1.4868766069412231, 0.0017297513550147414, 0.006801588460803032, -0.5431909561157227, -0.04010450094938278, -8.536988258361816, 7.307491302490234], [-2.3776192665100098, -0.04477172717452049, 0.4721871018409729, 0.35682767629623413, 2.4009346961975098, 2.373908042907715, 0.07201298326253891, 2.3849520683288574, -4.010308742523193, -3.5679376125335693], [0.36790043115615845, 0.14455953240394592, -4.18319845199585, 2.790823221206665, -0.4018068015575409, -0.6896241307258606, 7.236512660980225, -0.34874314069747925, -1.4899990558624268, 3.0638110637664795], [-0.014437800273299217, -0.25113794207572937, -0.13317787647247314, -0.11327581107616425, -0.08832059800624847, 0.0027599241584539413, 0.26497045159339905, -0.010559141635894775, -0.19525165855884552, 0.016208024695515633], [-0.1163673847913742, 0.5030500888824463, 5.506921291351318, -14.1740140914917, -6.959064194234088e-06, -0.0069259642623364925, -0.16958245635032654, 0.12463680654764175, 0.5658186674118042, 0.24424979090690613], [-0.014548479579389095, -0.24375388026237488, -0.14454512298107147, 0.0378999225795269, -0.29024308919906616, 0.12169292569160461, -0.3105565309524536, -0.32811209559440613, -0.3072660565376282, -0.06415101885795593], [0.1289559155702591, -0.45243245363235474, -0.0029632209334522486, -0.5373615622520447, -0.016854366287589073, -0.10705729573965073, -1.188862919807434, -0.026479555293917656, 0.2969294488430023, 0.8408424258232117], [0.052562255412340164, -0.5528362393379211, 4.982600212097168, 0.12373816221952438, 0.4635408818721771, -0.0641338899731636, 2.2318387031555176, -0.026644514873623848, 0.7672854065895081, -1.9625917673110962]], "_stack.Linear_0.bias": [11.625884056091309, -17.67670440673828, 3.863072156906128, 10.979116439819336, -26.43547248840332, -5.967370986938477, -28.065366744995117, 9.308436393737793, 2.692431926727295, -4.540104866027832, -0.06297337263822556, -6.877707004547119, -0.3390468657016754, 0.6559069752693176, -22.5323486328125], "_stack.Linear_2.weight": [[-0.8520172834396362, -0.6129569411277771, 0.4640481472015381, -0.8531028032302856, -5.540273189544678, -0.4430598020553589, -0.20478926599025726, 0.45928481221199036, -3.657421112060547, 0.5126240253448486, -0.017501289024949074, 0.5251416563987732, -0.06705691665410995, -0.08207563310861588, 0.7219067215919495], [-1.0824440717697144, 1.3732681274414062, 0.20676963031291962, -0.4852532148361206, 1.9191938638687134, -0.4530332386493683, -0.5950787663459778, 0.03124484047293663, 2.1157402992248535, -0.5890548825263977, 0.12650392949581146, -0.10776741057634354, -0.15597359836101532, 0.13788795471191406, -0.3408454358577728], [0.1475561261177063, 0.18849629163742065, -0.6485140323638916, -0.07169076800346375, -1.9365874528884888, -0.03178693726658821, -0.08838891237974167, 2.3348870277404785, -9.891765594482422, 0.24440208077430725, 0.14963547885417938, 0.9150875210762024, 0.04916403442621231, 0.018930723890662193, -0.14194129407405853], [0.004101712256669998, -0.3555509150028229, 0.030304715037345886, -0.16703559458255768, -2.0666754245758057, 0.0709562748670578, -0.056369658559560776, 1.0200374126434326, -2.989428758621216, -0.6528883576393127, -0.18275420367717743, 0.3713710904121399, 0.11684736609458923, 0.03942146897315979, 0.05948599800467491], [-0.49817484617233276, -0.12294256687164307, -0.48869168758392334, 0.7888108491897583, -1.8819801807403564, -0.2852616608142853, 0.773853063583374, 0.8822349309921265, -2.7162981033325195, -0.583946943283081, -0.09521541744470596, 2.509425640106201, -0.24496962130069733, -0.5687572360038757, -1.0480159521102905], [-0.2469344586133957, -0.30005040764808655, 1.1329056024551392, 0.7657362222671509, -0.1397954672574997, 0.27896466851234436, 0.8698505759239197, 0.4664565920829773, -3.7439076900482178, 0.08227086812257767, 0.12992991507053375, 0.3704262375831604, 0.2434607893228531, -0.05750846490263939, -0.992012083530426], [-0.24885296821594238, 0.19429853558540344, 0.7878834009170532, 0.7052547931671143, 1.4537782669067383, -2.54339599609375, -0.16211189329624176, 1.1628111600875854, 1.4819241762161255, -0.7219299674034119, 0.13147982954978943, -1.711211919784546, -0.04215205833315849, 0.08457595854997635, -0.7309476137161255], [-0.44116687774658203, 1.1122174263000488, -0.8339778780937195, -0.273486852645874, 0.6197351217269897, -0.2482345700263977, -0.30761656165122986, -0.14498591423034668, -1.2816174030303955, -0.3277589678764343, 0.24107761681079865, -0.17508813738822937, 0.11255079507827759, -0.06322678178548813, -0.12122149765491486], [-0.17244091629981995, 0.2578470706939697, -0.008640426211059093, 0.005756663624197245, -4.869353294372559, 0.11845771223306656, 1.7972018718719482, 0.013118552044034004, -1.2691197395324707, -0.2408163696527481, -0.127168670296669, 1.0625895261764526, -0.024817954748868942, -0.8731610178947449, 0.679925799369812], [-0.8759214282035828, -0.8005976676940918, 0.22268927097320557, 0.37848374247550964, -0.8383631706237793, -0.18870289623737335, 0.28785011172294617, 1.1269265413284302, -3.9453258514404297, -0.437855064868927, -0.22573813796043396, -1.0383094549179077, -0.15638060867786407, 0.15733866393566132, 0.46629130840301514], [-0.36369234323501587, -0.11453238874673843, 0.04079863056540489, -0.007443623151630163, -0.007337162736803293, -0.1281205266714096, 0.02620731107890606, -0.13584133982658386, -0.1828090101480484, -0.3788732886314392, -0.19451075792312622, -0.012662230059504509, -0.15288300812244415, -0.01879827491939068, 0.01932242326438427], [-0.03676483407616615, -0.2903536856174469, 2.108567476272583, 0.713383674621582, -3.6060588359832764, -0.6197293996810913, -1.521854281425476, 0.9754717350006104, -5.061044216156006, -0.025593331083655357, -0.15246014297008514, 1.0478595495224, -0.09920920431613922, -0.05378081649541855, -1.0046600103378296], [-0.2891087532043457, 0.025207847356796265, -0.5024228096008301, 1.1463347673416138, 12.260743141174316, -0.5169187784194946, -0.40746957063674927, -0.6573547124862671, 0.832659125328064, 0.9659734964370728, -0.06234533712267876, -1.263670802116394, -0.23933283984661102, 0.28873008489608765, -2.2509279251098633], [-0.26430052518844604, -0.2772538363933563, -0.378020703792572, 0.09360907971858978, -0.5501065254211426, -0.311825692653656, -0.48279106616973877, 2.8718512058258057, -10.291240692138672, 0.341226726770401, -0.039837129414081573, -0.39128199219703674, 0.15710118412971497, -0.17248354852199554, -0.6973901391029358], [0.675865113735199, 0.2270471751689911, -0.3258359730243683, 0.37430712580680847, -4.048277378082275, 0.18777814507484436, -0.724089503288269, -0.5326700210571289, 3.148902416229248, -0.1806369572877884, 0.08593481034040451, -0.05358688533306122, -0.07693109661340714, -0.027066348120570183, -0.9632729291915894]], "_stack.Linear_2.bias": [3.6963422298431396, -7.49544620513916, -15.670319557189941, 16.819543838500977, -8.151971817016602, 9.666465759277344, -8.43109130859375, -3.598764419555664, -22.33025550842285, 16.15752601623535, -0.36371049284935, 14.574127197265625, 7.952646255493164, -2.5064680576324463, 6.69174861907959], "_stack.Linear_4.weight": [[0.06138572096824646, 0.0749097689986229, 0.15622568130493164, -0.16421082615852356, 0.1947576254606247, -0.0633021667599678, -0.1299944669008255, 0.11658845841884613, 0.13751456141471863, -0.07655169069766998, 0.08294395357370377, -0.09878542274236679, -0.08574161678552628, 0.5766057372093201, -0.06191135570406914]], "_stack.Linear_4.bias": [-1.1932035684585571], "PiecewiseLinearTransform_6.quantiles": [0.0, -0.010928949297339683, -0.02100488472178702, -0.03025463241708449, -0.03870468700826765, -0.04638121160166517, -0.053310037784898796, -0.059516665626883375, -0.06502626367782686, -0.06986366896923028, -0.07405338701388778, -0.07761959180588655, -0.08058612582060694, -0.08297650001472236, -0.0848138938261993, -0.08612115517429739, -0.08692080045956929, -0.08723501456386082, -0.08708565085031084, -0.08649423116335134, -0.08548194582870738, -0.08406965365339715, -0.08227788192573189, -0.08012682641531596, -0.07763635137304681, -0.07482598953111498, -0.07171494210300411, -0.06832207878349092, -0.06466593774864524, -0.060764725655829986, -0.05663631764370118, -0.052298257332207915, -0.047767756822592405, -0.04306169669738994, -0.038196626020428906, -0.03318876233683078, -0.028053991673010155, -0.022807868536674696, -0.017465615916825165, -0.012042125283755426, -0.006551956589052426, -0.0010093382655962206, 0.004571832772440058, 0.010177991129590164, 0.015795902929094774, 0.02141266581290146, 0.027015708941664704, 0.0325927929947459, 0.03813201017021333, 0.0436217841848422, 0.049050870274114616, 0.05440835519221959, 0.05968365721205304, 0.06486652612521779, 0.06994704324202357, 0.074915621391487, 0.07976300492133163, 0.08448026969798793, 0.08905882310659322, 0.09349040405099177, 0.09776708295373475, 0.10188126175608023, 0.10582567391799316, 0.10959338441814546, 0.1131777897539159, 0.11657261794139018, 0.11977192851536089, 0.12277011252932755, 0.12556189255549657, 0.12814232268478126, 0.13050678852680184, 0.13265100720988543, 0.13457102738106608, 0.13626322920608475, 0.13772432436938925, 0.13895135607413436, 0.13994169904218173, 0.14069305951409994, 0.14120347524916443, 0.1414713155253576, 0.1414952811393687, 0.14127440440659397, 0.14080804916113648, 0.1400959107558062, 0.1391380160621201, 0.13793472347030192, 0.13648672288928243, 0.13479503574669924, 0.13286101498889688, 0.13068634508092677, 0.1282730420065473, 0.12562345326822366, 0.12274025788712803, 0.11962646640313945, 0.11628542087484392, 0.11272079487953429, 0.10893659351321033, 0.10493715339057874, 0.10072714264505311, 0.09631156092875393, 0.09169573941250858, 0.08688534078585139, 0.08188635925702356, 0.07670512055297321, 0.07134828191935538, 0.065822832120532, 0.06013609143957188, 0.05429571167825077, 0.04830967615705133, 0.04218629971516311, 0.03593422871048258, 0.029562441019613084, 0.023080246037864904, 0.016497284679255216, 0.00982352937650811, 0.003069284081054574, -0.003754815736967511, -0.01063780308871333, -0.01756837946663118, -0.024534914844462456, -0.03152544767724163, -0.03852768490129627, -0.04552900193424706, -0.052516442675007755, -0.05947671950378522, -0.0663962132820794, -0.07326097335268333, -0.08005671753968317, -0.08676883214845815, -0.0933823719656806, -0.09988206025931594, -0.10625228877862268, -0.11247711775415244, -0.1185402758977499, -0.12442516040255289, -0.13011483694299228, -0.13559203967479208, -0.14083917123496936, -0.1458383027418343, -0.15057117379499013, -0.15501919247533327, -0.15916343534505314, -0.1629846474476323, -0.1664632423078464, -0.16957930193176418, -0.17231257680674747, -0.1746424859014512, -0.1765481166658234, -0.17800822503110517, -0.1790012354098307, -0.17950524069582735, -0.17949800226421547, -0.1789569499714086, -0.1778591821551133, -0.1761814656343292, -0.17390023570934915, -0.170991596161759, -0.1674313192544377, -0.1631948457315573, -0.15825728481858295, -0.15259341422227293, -0.14617768013067856, -0.13898419721314426, -0.13098674862030757, -0.12215878598409911, -0.1124734294177426, -0.10190346751575485, -0.09042135735394576, -0.07799922448941832, -0.06460886296056863, -0.050221735287085865, -0.034808972469952314, -0.01834137399144335, -0.0007894078151274471, 0.01787678961413384, 0.03768741337018586, 0.05867299004558085, 0.08086437775157798, 0.1042927661181433, 0.12898967629394978, 0.1549869609463773, 0.18231680426151262, 0.21101172194414944, 0.24110456121778834, 0.27262850082463685, 0.3056170510256093, 0.3401040536003271, 0.37612368184711836, 0.41371044058301826, 0.4528991661437688, 0.49372502638381893, 0.5362235206763245, 0.5804304799131482, 0.6263820665048597, 0.6741147743807356, 0.7236654289887594, 0.7750711872956214, 0.8283695377867188, 0.883598300466156, 0.9407956268567438, 1.0]}