{
    "metadata": {
        "version": 1,
        "features": [
            "ut_x",
            "ut_y",
            "ut_tx",
            "ut_ty",
            "ut_chi2",
            "ut_nhits",
            "ft_chi2",
            "ft_nhits",
            "eta",
            "dtx",
            "dy"
        ]
    },
    "StandardScaler_0.mean": [
        2.463182114977031,
        1.20682661858691,
        0.0015197068356085002,
        0.00036917761102650093,
        7.64692143041929,
        4.150889,
        0.7511169720300934,
        11.387444,
        4.089223975742787,
        -0.0072080726914951045,
        -0.071105217993743
    ],
    "StandardScaler_0.standard_deviation": [
        106.01654977927332,
        92.23547087484178,
        0.04606715897847947,
        0.036759355645445066,
        5.528640348088673,
        0.4442741379824417,
        0.5907958026601391,
        0.7740924666100337,
        0.6759942926305735,
        0.5338025535394887,
        36.83625660889549
    ],
    "Linear_1.weights": [
        [
            0.055947236716747284,
            4.664221286773682,
            0.024482443928718567,
            -4.336581230163574,
            -0.01008912269026041,
            -0.008948265574872494,
            0.026566563174128532,
            -0.008224288932979107,
            -0.0003296579816378653,
            -0.9802097678184509,
            1.5639415979385376
        ],
        [
            -0.8504254817962646,
            -2.9377658367156982,
            0.948452889919281,
            3.0373125076293945,
            -0.009624452330172062,
            -0.0021273314487189054,
            -0.008143560960888863,
            0.005791523493826389,
            -0.026959413662552834,
            -0.19167661666870117,
            0.2752011716365814
        ],
        [
            0.04522679001092911,
            -2.478937864303589,
            -0.07022776454687119,
            2.341158628463745,
            0.009645923972129822,
            -0.0004758855502586812,
            -0.08179417252540588,
            0.037020985037088394,
            -0.09498365968465805,
            0.009435990825295448,
            -0.8608349561691284
        ],
        [
            2.3438467979431152,
            -2.7245521545410156,
            -2.751128673553467,
            2.5419833660125732,
            -0.14731846749782562,
            0.011871117167174816,
            -0.05030905082821846,
            -0.020811738446354866,
            0.01843762770295143,
            -0.9139879941940308,
            2.2542366981506348
        ],
        [
            0.4384651482105255,
            -3.049494981765747,
            -0.4560641646385193,
            1.7999860048294067,
            -0.41276678442955017,
            -0.05771433189511299,
            -0.16924133896827698,
            0.08006716519594193,
            -0.13643723726272583,
            0.9461249709129333,
            -1.0427899360656738
        ],
        [
            0.016318146139383316,
            -1.6791709661483765,
            -0.014152826741337776,
            2.090745449066162,
            0.020356817170977592,
            -0.09697213768959045,
            0.0022680156398564577,
            0.03575282171368599,
            0.14379319548606873,
            -0.0062568457797169685,
            -0.3156145215034485
        ],
        [
            -4.043461799621582,
            0.37315917015075684,
            4.36515474319458,
            -0.3928394317626953,
            -0.0006228072452358902,
            -0.0025037978775799274,
            -0.011839262209832668,
            0.013245115987956524,
            -0.04254065454006195,
            -0.9347676038742065,
            0.024152642115950584
        ],
        [
            -3.33162522315979,
            -1.6474878787994385,
            3.684701919555664,
            1.644439458847046,
            -0.02932405285537243,
            -0.00033863564021885395,
            0.02673589624464512,
            0.0014836066402494907,
            -0.014826016500592232,
            -0.6185888051986694,
            1.073109745979309
        ],
        [
            -0.3564331829547882,
            -0.041571177542209625,
            0.5966904163360596,
            0.019234655424952507,
            0.06674295663833618,
            -0.0028797872364521027,
            0.32122617959976196,
            -0.5744107365608215,
            -0.2589758634567261,
            1.7241194248199463,
            0.025159919634461403
        ],
        [
            -0.06099051982164383,
            -0.638961136341095,
            0.02742478996515274,
            0.5390117168426514,
            -1.7426598072052002,
            -0.14800238609313965,
            -0.0894191712141037,
            0.00040410677320323884,
            -0.036943383514881134,
            0.031138842925429344,
            -1.5744061470031738
        ],
        [
            -0.2922123670578003,
            -0.71135413646698,
            0.13382676243782043,
            -1.9530315399169922,
            0.12850937247276306,
            0.038487862795591354,
            0.10426956415176392,
            -0.04379113391041756,
            0.24527405202388763,
            0.05194797366857529,
            0.6131446957588196
        ],
        [
            -0.33343130350112915,
            -0.29891863465309143,
            -0.09637951850891113,
            0.14304040372371674,
            1.5484356880187988,
            0.26311856508255005,
            -0.151087686419487,
            0.03837025165557861,
            -0.4437176287174225,
            0.05365990102291107,
            -2.0421929359436035
        ],
        [
            -1.5522122383117676,
            -3.3552591800689697,
            1.6828335523605347,
            3.364912986755371,
            -0.6970111131668091,
            -0.07724498957395554,
            0.09698925167322159,
            -0.022143635898828506,
            -0.07660774141550064,
            -0.6487252712249756,
            0.14991150796413422
        ],
        [
            -2.26885724067688,
            0.1116332933306694,
            1.2860838174819946,
            0.00510981073603034,
            -0.02809881791472435,
            0.08363639563322067,
            0.10669028759002686,
            -0.06481967866420746,
            -1.0471432209014893,
            0.06092553585767746,
            -0.12001080065965652
        ],
        [
            2.750669479370117,
            0.8951191306114197,
            -1.3620777130126953,
            -0.9241222143173218,
            0.025684505701065063,
            0.02978777140378952,
            0.009016924537718296,
            -0.06508161127567291,
            -1.2862846851348877,
            -0.1986839771270752,
            0.3130315840244293
        ],
        [
            0.2844131886959076,
            -0.6560959219932556,
            -0.571523129940033,
            0.6220788359642029,
            0.01636376604437828,
            -0.029179424047470093,
            0.3128376603126526,
            -0.5160471796989441,
            -0.2868117392063141,
            -1.6400387287139893,
            0.04182173311710358
        ],
        [
            0.6187772750854492,
            -3.40435791015625,
            -0.6929721832275391,
            3.3976659774780273,
            0.07526305317878723,
            -0.0016856810543686152,
            0.0011426564306020737,
            -0.027829609811306,
            -0.010679617524147034,
            1.6574214696884155,
            1.9421085119247437
        ],
        [
            -3.390568494796753,
            -0.7512859106063843,
            2.5709304809570312,
            0.5857899188995361,
            -0.016391579061746597,
            -0.036979351192712784,
            0.0650196224451065,
            0.00036800242378376424,
            0.2226022481918335,
            -0.4564740061759949,
            0.07699263840913773
        ],
        [
            -0.7653164863586426,
            1.483976125717163,
            0.6717167496681213,
            0.9915024042129517,
            0.8103565573692322,
            0.0995154157280922,
            0.30921003222465515,
            -0.18641145527362823,
            0.2989373803138733,
            -1.4384829998016357,
            0.2331090122461319
        ],
        [
            0.18406444787979126,
            0.1605747938156128,
            -0.2179168313741684,
            -0.10302913188934326,
            -1.6053191423416138,
            0.1632491797208786,
            -0.22248351573944092,
            0.06732026487588882,
            -0.13841357827186584,
            -0.07218534499406815,
            -0.28591734170913696
        ],
        [
            0.015297223813831806,
            -2.9769930839538574,
            0.009197497740387917,
            2.801227569580078,
            -0.004817355889827013,
            -0.00046364180161617696,
            -0.01957867667078972,
            0.002707480685785413,
            -0.015684673562645912,
            -0.549750804901123,
            -1.015269160270691
        ],
        [
            4.818397045135498,
            -0.543235182762146,
            -5.269540309906006,
            0.594397783279419,
            -0.02401236817240715,
            0.004488484933972359,
            0.007183952257037163,
            -0.0009213195298798382,
            -0.03960335627198219,
            -0.04227902367711067,
            -0.20179443061351776
        ],
        [
            1.387973427772522,
            3.3025107383728027,
            -1.0448064804077148,
            -2.62673020362854,
            -0.0010969218565151095,
            -0.019600851461291313,
            -0.0024115717969834805,
            -0.022926531732082367,
            -0.021436240524053574,
            0.0616401806473732,
            -0.01727926731109619
        ],
        [
            0.5620329976081848,
            2.917346715927124,
            -0.710249662399292,
            -3.0263073444366455,
            -0.3324703574180603,
            -0.03306714817881584,
            -0.025605468079447746,
            -0.016998540610074997,
            -0.04167909547686577,
            1.2048462629318237,
            -1.1603367328643799
        ],
        [
            4.579672336578369,
            -0.7728360891342163,
            -4.927455902099609,
            0.8100942969322205,
            0.0032127888407558203,
            0.00964467041194439,
            0.004750940948724747,
            -0.007863134145736694,
            0.009675516746938229,
            0.8634281158447266,
            0.11052381247282028
        ],
        [
            -1.8237193822860718,
            3.0762271881103516,
            1.3179255723953247,
            -2.4858694076538086,
            -0.028175370767712593,
            0.02269819751381874,
            0.0167068038135767,
            -0.0033121039159595966,
            -0.06971397995948792,
            -0.003111977130174637,
            0.11239615827798843
        ],
        [
            -3.935579299926758,
            1.3791613578796387,
            4.324995994567871,
            -1.4450678825378418,
            0.010189690627157688,
            0.006606693379580975,
            0.0017945119179785252,
            -0.0004293382808100432,
            0.012877929955720901,
            -0.6553959250450134,
            -0.24460336565971375
        ],
        [
            0.04652263969182968,
            2.2015492916107178,
            0.045986711978912354,
            -2.8817379474639893,
            0.041617341339588165,
            -0.12240831553936005,
            -0.025480451062321663,
            0.09444871544837952,
            0.20773425698280334,
            0.09066750109195709,
            0.4859910011291504
        ],
        [
            2.4185285568237305,
            -4.355789661407471,
            -2.635892391204834,
            4.23427152633667,
            -0.002077435376122594,
            -0.0036688968539237976,
            0.01483175903558731,
            -0.01646346226334572,
            0.008774342015385628,
            0.2037210315465927,
            1.7472845315933228
        ],
        [
            -4.777514934539795,
            0.5089667439460754,
            5.145331859588623,
            -0.5228325724601746,
            0.043846290558576584,
            -0.013827594928443432,
            -0.0006604008958674967,
            -0.011335336603224277,
            0.04010980948805809,
            -1.111348032951355,
            0.046867385506629944
        ],
        [
            -5.152875900268555,
            0.19322922825813293,
            5.5854010581970215,
            -0.18148241937160492,
            -0.0035955896601080894,
            0.006752153392881155,
            -0.006462784018367529,
            0.005054120440036058,
            -0.006154433358460665,
            -1.0210686922073364,
            0.18411390483379364
        ],
        [
            3.7841286659240723,
            -0.7208841443061829,
            -4.13089656829834,
            0.7328752279281616,
            -0.10378576070070267,
            0.17908763885498047,
            -0.013970066793262959,
            0.057077806442976,
            0.017621120437979698,
            0.11023606359958649,
            -0.2735842764377594
        ]
    ],
    "Linear_1.bias": [
        0.05454971641302109,
        0.052485160529613495,
        0.20326006412506104,
        -0.10686589032411575,
        -0.3523099720478058,
        0.45772066712379456,
        -0.20068445801734924,
        0.11792059242725372,
        0.5575471520423889,
        -2.40185284614563,
        -0.14068782329559326,
        2.4113895893096924,
        0.0769481509923935,
        0.0722416564822197,
        -0.006185941863805056,
        0.5227475762367249,
        -0.015765445306897163,
        0.2846265137195587,
        0.5716685652732849,
        -1.0685038566589355,
        -0.025208448991179466,
        -0.047544676810503006,
        -0.02878803014755249,
        -0.11031541228294373,
        -0.11288446933031082,
        -0.019171595573425293,
        0.10101192444562912,
        0.7882071733474731,
        -0.04393824189901352,
        0.5100001096725464,
        0.13349108397960663,
        0.22085276246070862
    ],
    "Linear_3.weights": [
        [
            2.6538991928100586,
            2.7971837520599365,
            -4.008223056793213,
            -1.2734425067901611,
            2.181462526321411,
            2.5216927528381348,
            -5.57934045791626,
            1.319468379020691,
            0.9295581579208374,
            1.041317105293274,
            -1.1734708547592163,
            0.7201658487319946,
            -1.5608562231063843,
            -1.1320163011550903,
            -0.9737851023674011,
            1.0193028450012207,
            -1.9404140710830688,
            1.1103323698043823,
            -1.2464698553085327,
            -1.2690385580062866,
            4.62584924697876,
            -3.767451763153076,
            1.8142491579055786,
            -2.122328996658325,
            3.207994222640991,
            1.7622652053833008,
            2.9512133598327637,
            1.7247854471206665,
            2.03857684135437,
            -4.507318019866943,
            5.426804542541504,
            1.6181368827819824
        ]
    ],
    "Linear_3.bias": [
        -1.9120732545852661
    ]
}