{"metadata": {"version": 1, "features": ["Chi2", "nFTHits", "LogPt", "Eta"]}, "_stack.Linear_0.weight": [[-0.02104926109313965, -0.36334699392318726, 0.1535048484802246, 0.3169916868209839], [0.050436221063137054, -0.8559227585792542, 0.8910864591598511, 0.7372721433639526], [-0.03117305040359497, 0.08937913179397583, -0.07602095603942871, -0.3494824767112732], [-0.028582977131009102, 0.739837110042572, 0.22506675124168396, -0.054532963782548904], [-0.12905758619308472, -0.27271151542663574, -0.14809167385101318, -0.4292072057723999], [-0.008357313461601734, 0.14652836322784424, -0.44265982508659363, -1.1202040910720825], [0.07758083939552307, -0.2972204387187958, 0.019557839259505272, 0.034805264323949814], [-0.5572096109390259, -0.007665368728339672, -0.2262376844882965, -0.010578528046607971], [-0.004641647916287184, 0.05576799809932709, 1.0047982931137085, -1.2097078561782837]], "_stack.Linear_0.bias": [0.036124229431152344, 2.5358710289001465, -0.22418397665023804, -3.5341525077819824, 0.4436703324317932, 4.953211307525635, -0.153916597366333, 0.6348159909248352, -4.07405424118042], "_stack.Linear_2.weight": [[-0.11410173028707504, -0.07038980722427368, 0.07041573524475098, -0.07712497562170029, 0.31677311658859253, -2.108361005783081, 0.4310401380062103, 0.22257710993289948, 1.3397588729858398], [0.15805745124816895, 0.031184840947389603, -0.26345202326774597, -0.6094450950622559, -0.19007854163646698, 0.18509511649608612, -0.25607943534851074, 0.08093775808811188, -0.40137219429016113], [0.057674527168273926, -0.31556808948516846, 0.10503542423248291, -0.38347211480140686, 0.08163480460643768, 1.0722339153289795, -0.17982621490955353, 0.06686967611312866, -1.214357614517212], [0.2924765348434448, 0.01422965619713068, -0.009089748375117779, 0.5535685420036316, -0.2059553861618042, 0.0018024890450760722, -0.04685361683368683, 0.06869318336248398, 0.0045876470394432545], [0.2917681932449341, -0.9383409023284912, -0.21661409735679626, 1.0362313985824585, -0.13821963965892792, 1.3074555397033691, -0.057015497237443924, -0.03719956800341606, -1.0953201055526733], [-0.2979085445404053, 0.060671404004096985, 0.07746180146932602, -0.048842377960681915, 0.22639819979667664, -0.16627484560012817, 0.11832694709300995, -0.20445355772972107, 0.0027597236912697554], [-0.07609951496124268, -0.48820915818214417, 0.2914941906929016, -0.4258366823196411, 0.01499474048614502, -0.043912895023822784, -0.2960432469844818, -0.11148961633443832, -0.9589232206344604], [0.0018589894752949476, -0.2670378088951111, -0.1475372016429901, -0.19051970541477203, -0.33025404810905457, -0.028211001306772232, 0.18311281502246857, 0.10355306416749954, -0.1873442530632019], [-0.3060884177684784, -0.48904645442962646, 0.0061830682680010796, 0.005083917174488306, -0.134990856051445, -0.3216976523399353, -0.17781881988048553, -0.0067951856181025505, -0.23500826954841614]], "_stack.Linear_2.bias": [2.196107864379883, 2.83410906791687, 3.02960467338562, -3.13601016998291, -1.6833534240722656, -0.3497706353664398, 3.0509750843048096, 0.05138034000992775, -0.24960464239120483], "_stack.Linear_4.weight": [[-0.7493222951889038, 2.820202350616455, -3.5267539024353027, 3.572768211364746, 1.096596598625183, 0.16783183813095093, 4.979431629180908, 0.13570545613765717, -0.2519880533218384]], "_stack.Linear_4.bias": [-2.1626553535461426], "PiecewiseLinearTransform_6.quantiles": [0.0, -0.007042775780415699, -0.013504735057028218, -0.019404504217603556, -0.024760472899250534, -0.029590793988420783, -0.03391338362090876, -0.037745921181851744, -0.041105849305729816, -0.044010373876365895, -0.04647646402692571, -0.048520852139917796, -0.05016003384719353, -0.05141026802994709, -0.05228757681871548, -0.052807745593378516, -0.05298632298315884, -0.0528386208666219, -0.05237971437167598, -0.05162444187557218, -0.05058740500490439, -0.04928296863560935, -0.047725260892966616, -0.04592817315159854, -0.04390536003547032, -0.04167023941788995, -0.039235992421508256, -0.036615563418318876, -0.033821660029658265, -0.030866753126205702, -0.027763076827983284, -0.02452262850435592, -0.02115716877403134, -0.0176782215050601, -0.014097073814835562, -0.010424776070093915, -0.0066721418869141605, -0.002849748130718125, 0.0010320650837295528, 0.004963194392321412, 0.008933773181607174, 0.012934171588793744, 0.01695499650174521, 0.02098709155898284, 0.02502153714968508, 0.02904965041368756, 0.03306298524148309, 0.03705333227422167, 0.04101271890371047, 0.044933409272413856, 0.048807904273453356, 0.0526289415506077, 0.05638949549831278, 0.06008277726166169, 0.0637022347364047, 0.06724155256894924, 0.07069465215635996, 0.07405569164635865, 0.07731906593732432, 0.08047940667829313, 0.08353158226895845, 0.0864706978596708, 0.08929209535143792, 0.0919913533959247, 0.09456428739545321, 0.09700694950300273, 0.09931562862220972, 0.10148685040736778, 0.10351737726342773, 0.10540420834599756, 0.10714457956134245, 0.10873596356638475, 0.11017606976870399, 0.11146284432653689, 0.11259447014877734, 0.11356936689497645, 0.11438619097534246, 0.11504383555074081, 0.11554143053269414, 0.11587834258338225, 0.11605417511564214, 0.11606876829296797, 0.1159221990295111, 0.11561478099008006, 0.11514706459014057, 0.11451983699581553, 0.113734122123885, 0.11279118064178627, 0.11169250996761376, 0.1104398442701191, 0.1090351544687111, 0.10748064823345577, 0.10577876998507624, 0.10393220089495288, 0.10194385888512322, 0.09981689862828198, 0.09755471154778106, 0.09516092581762953, 0.09263940636249365, 0.08999425485769687, 0.08722980972921979, 0.08435064615370023, 0.0813615760584332, 0.07826764812137083, 0.07507414777112248, 0.0717865971869547, 0.06841075529879118, 0.06495261778721281, 0.061418417083457695, 0.05781462236942108, 0.05414793957765541, 0.0504253113913703, 0.04665391724443255, 0.042841173321366145, 0.03899473255735226, 0.03512248463822924, 0.031232556000492614, 0.027333309831295092, 0.02343334606844657, 0.019541501400414118, 0.015666849266321996, 0.011818699855951648, 0.008006600109741694, 0.004240333718787927, 0.000529921124843331, -0.003114380479681923, -0.006682077151720491, -0.010162438197547844, -0.013544496172782267, -0.01681704688238488, -0.019968649380659603, -0.022987625971253176, -0.025862062207155166, -0.028579806890697956, -0.031128472073556745, -0.033495433056749555, -0.035667828390637216, -0.03763255987492338, -0.039376292558654526, -0.04088545474021995, -0.04214623796735176, -0.043144597037124865, -0.043866249995957035, -0.044296678139608824, -0.04442112601318361, -0.04422460141112761, -0.043691875377229836, -0.04280748220462212, -0.041555719435779126, -0.039920647862518324, -0.037886091526000004, -0.03543563771672728, -0.032552636974546086, -0.029220203088645164, -0.025421213097556083, -0.02113830728915322, -0.016353889200653792, -0.011050125618617804, -0.005208946578948102, 0.0011879546331096521, 0.008159121482966984, 0.0157233341866926, 0.023899609711012383, 0.03270720177330941, 0.042165600841623914, 0.05229453413465334, 0.06311396562175231, 0.07464409602293261, 0.08690536280886321, 0.09991844020087029, 0.11370423917093718, 0.1282839074417044, 0.14367882948646965, 0.15991062652918783, 0.17700115654447102, 0.19497251425758844, 0.21384703114446652, 0.23364727543168887, 0.2543960520964963, 0.2761164028667868, 0.2988316062211155, 0.3225651773886947, 0.34734086834939404, 0.37318266783374016, 0.40011480132291694, 0.4281617310487654, 0.45734815599378387, 0.48769901189112774, 0.5192394712246096, 0.5519949432286992, 0.5859910738885237, 0.621253745939867, 0.6578090788691707, 0.6956834289135332, 0.7349033890607101, 0.7754957890491143, 0.8174876953678161, 0.8609064112565425, 0.905779476705678, 0.9521346684562643, 1.0]}