{"metadata": {"version": 1, "features": ["Chi2", "nFTHits", "LogPt", "Eta"]}, "_stack.Linear_0.weight": [[-0.046628355979919434, -0.41425377130508423, 0.044642865657806396, -0.4077647924423218], [-0.036532070487737656, 0.16169457137584686, -0.8154852986335754, -0.1627146303653717], [-0.0571766197681427, 0.5772050619125366, 0.5410469770431519, -3.391371011734009], [-0.013707510195672512, -1.0087742805480957, 0.8298242092132568, 0.9497968554496765], [-0.09508246183395386, 0.6869146823883057, 0.4054579734802246, -0.6128994226455688], [0.017461229115724564, 0.7338941097259521, 0.03678516671061516, 0.7710691094398499], [-0.010523580014705658, 0.06759955734014511, 0.4937427043914795, -0.09967084228992462], [-0.03798579052090645, -0.9434128999710083, 1.4385879039764404, -0.5327080488204956], [-0.2801711857318878, 0.6249774694442749, 0.017723001539707184, 0.054669592529535294]], "_stack.Linear_0.bias": [-0.18356037139892578, 5.723050117492676, -0.15508167445659637, 3.1991095542907715, -4.666595935821533, -3.9528920650482178, -4.978165626525879, 0.6532283425331116, -4.056949138641357], "_stack.Linear_2.weight": [[-0.2895534634590149, -4.95302152633667, 0.005567989777773619, -0.2184038609266281, 1.3304575681686401, -0.010701825842261314, -0.1821346879005432, 0.8502088189125061, -0.1118001937866211], [0.08722861856222153, -1.20478093624115, -0.1174977719783783, -1.1212670803070068, 0.34804728627204895, 0.8857510685920715, 0.14167121052742004, -0.9715235233306885, 0.2971121370792389], [-0.07189321517944336, 0.11923553794622421, 0.1253199428319931, 0.05453546717762947, -0.33346351981163025, -0.2609328329563141, -0.1689835786819458, -0.34752151370048523, 0.25212961435317993], [-0.1358024775981903, -2.2482826709747314, 1.293636441230774, 1.1148037910461426, 0.8190426230430603, 0.23847077786922455, 0.6306059956550598, -0.1096978709101677, -0.16579319536685944], [-0.05072736740112305, -0.4246225357055664, -0.1367485523223877, -0.3937503397464752, 0.14235390722751617, -0.1665176898241043, 0.04572555795311928, -0.2138793021440506, -0.08216707408428192], [-0.16015736758708954, -0.19695238769054413, -0.09922901540994644, -0.0015811582561582327, 0.14351540803909302, -0.21050168573856354, -0.02844313532114029, 0.10606934130191803, -0.029106298461556435], [0.19733981788158417, -0.5993149876594543, 0.7884931564331055, -1.2099454402923584, -0.06658674776554108, 0.7634360194206238, -0.5302489399909973, 0.31127503514289856, -0.08525736629962921], [-0.10233517736196518, 0.08960175514221191, -1.3621464967727661, -0.6803116798400879, 0.8158409595489502, 0.8034327030181885, 0.35501542687416077, 0.5646251440048218, 0.6192517280578613], [-0.2073500156402588, -1.071642279624939, 0.4042479395866394, -0.8247503042221069, 0.7307103872299194, 0.5607816576957703, 1.668220043182373, -0.4359755516052246, -0.14051146805286407]], "_stack.Linear_2.bias": [-0.14754167199134827, -2.4908502101898193, -0.12310917675495148, -1.6694533824920654, -0.22109855711460114, -0.37053072452545166, -2.0257742404937744, -1.441443681716919, -3.137254476547241], "_stack.Linear_4.weight": [[-0.9470901489257812, 0.31186923384666443, 0.2806186079978943, 0.5264474153518677, -0.09070990979671478, -0.08028827607631683, 0.25695258378982544, 0.662431001663208, 0.6203468441963196]], "_stack.Linear_4.bias": [-2.5456998348236084], "PiecewiseLinearTransform_6.quantiles": [0.0, 0.012629903299620052, 0.025158013439525357, 0.0375845203232033, 0.04990961772341809, 0.062133503282210775, 0.07425637851089921, 0.08627844879007808, 0.09819992336961891, 0.11002101536867005, 0.12174194177565667, 0.13336292344828077, 0.14488418511352116, 0.15630595536763353, 0.16762846667615033, 0.17885195537388088, 0.18997666166491128, 0.20100282962260452, 0.21193070718960036, 0.22276054617781543, 0.23349260226844315, 0.2441271350119538, 0.25466440782809446, 0.26510468800588904, 0.2754482467036383, 0.28569535894891984, 0.295846303638588, 0.30590136353877406, 0.315860825284886, 0.32572497938160877, 0.33549412020290403, 0.34516854599201036, 0.3547485588614431, 0.3642344647929944, 0.3736265736377333, 0.3829251991160056, 0.39213065881743403, 0.40124327420091804, 0.41026337059463397, 0.41919127719603494, 0.4280273270718509, 0.43677185715808875, 0.445425208260032, 0.45398772505224116, 0.46245975607855344, 0.47084165375208303, 0.4791337743552208, 0.48733647803963454, 0.4954501288262688, 0.5034750946053451, 0.5114117471363616, 0.5192604620480933, 0.5270216188385921, 0.5346956008751869, 0.542282795394483, 0.5497835935023629, 0.5571983901739859, 0.5645275842537878, 0.5717715784554815, 0.5789307793620568, 0.5860055974257802, 0.5929964469681949, 0.5999037461801211, 0.6067279171216559, 0.6134693857221729, 0.6201285817803229, 0.6267059389640334, 0.6332018948105085, 0.6396168907262294, 0.6459513719869542, 0.6522057877377174, 0.6583805909928309, 0.6644762386358828, 0.6704931914197386, 0.6764319139665403, 0.6822928747677068, 0.6880765461839339, 0.6937834044451939, 0.6994139296507365, 0.7049686057690877, 0.7104479206380506, 0.7158523659647051, 0.7211824373254079, 0.7264386341657925, 0.7316214598007692, 0.7367314214145252, 0.7417690300605245, 0.7467348006615079, 0.751629252009493, 0.7564529067657745, 0.7612062914609234, 0.7658899364947881, 0.7705043761364934, 0.7750501485244411, 0.7795277956663098, 0.783937863439055, 0.788280901588909, 0.7925574637313807, 0.7967681073512561, 0.8009133938025981, 0.8049938883087461, 0.8090101599623165, 0.8129627817252026, 0.8168523304285745, 0.820679386772879, 0.8244445353278398, 0.8281483645324573, 0.831791466695009, 0.8353744379930491, 0.8388978784734086, 0.8423623920521953, 0.8457685865147939, 0.8491170735158659, 0.8524084685793495, 0.85564339109846, 0.8588224643356893, 0.8619463154228062, 0.8650155753608563, 0.8680308790201621, 0.8709928651403228, 0.8739021763302145, 0.8767594590679902, 0.8795653637010797, 0.8823205444461895, 0.8850256593893029, 0.8876813704856803, 0.8902883435598588, 0.8928472483056521, 0.8953587582861511, 0.8978235509337232, 0.9002423075500129, 0.9026157133059414, 0.9049444572417066, 0.9072292322667834, 0.9094707351599235, 0.9116696665691554, 0.9138267310117844, 0.9159426368743926, 0.9180180964128392, 0.9200538257522597, 0.922050544887067, 0.9240089776809504, 0.9259298518668763, 0.9278138990470878, 0.9296618546931048, 0.931474458145724, 0.9332524526150192, 0.9349965851803407, 0.9367076067903156, 0.9383862722628482, 0.9400333402851193, 0.9416495734135867, 0.9432357380739849, 0.9447926045613252, 0.946320947039896, 0.9478215435432622, 0.9492951759742657, 0.9507426301050252, 0.9521646955769363, 0.9535621659006711, 0.954935838456179, 0.9562865144926859, 0.9576149991286945, 0.9589221013519847, 0.9602086340196129, 0.9614754138579122, 0.962723261462493, 0.9639530012982421, 0.9651654616993234, 0.9663614748691773, 0.9675418768805215, 0.9687075076753501, 0.9698592110649342, 0.9709978347298217, 0.9721242302198374, 0.9732392529540829, 0.9743437622209364, 0.9754386211780534, 0.9765246968523658, 0.9776028601400824, 0.978673985806689, 0.9797389524869481, 0.9807986426848991, 0.9818539427738582, 0.9829057429964183, 0.9839549374644493, 0.9850024241590979, 0.9860491049307876, 0.9870958854992186, 0.988143675453368, 0.98919338825149, 0.9902459412211152, 0.9913022555590513, 0.9923632563313828, 0.9934298724734708, 0.9945030367899536, 0.995583685954746, 0.9966727605110398, 0.9977712048713037, 0.9988799673172829, 1.0]}