{"metadata": {"version": 1, "features": ["Chi2", "nFTHits", "LogPt", "Eta"]}, "_stack.Linear_0.weight": [[-0.02104926109313965, -0.36334699392318726, 0.1535048484802246, 0.3169916868209839], [0.050436221063137054, -0.8559227585792542, 0.8910864591598511, 0.7372721433639526], [-0.03117305040359497, 0.08937913179397583, -0.07602095603942871, -0.3494824767112732], [-0.028582977131009102, 0.739837110042572, 0.22506675124168396, -0.054532963782548904], [-0.12905758619308472, -0.27271151542663574, -0.14809167385101318, -0.4292072057723999], [-0.008357313461601734, 0.14652836322784424, -0.44265982508659363, -1.1202040910720825], [0.07758083939552307, -0.2972204387187958, 0.019557839259505272, 0.034805264323949814], [-0.5572096109390259, -0.007665368728339672, -0.2262376844882965, -0.010578528046607971], [-0.004641647916287184, 0.05576799809932709, 1.0047982931137085, -1.2097078561782837]], "_stack.Linear_0.bias": [0.036124229431152344, 2.5358710289001465, -0.22418397665023804, -3.5341525077819824, 0.4436703324317932, 4.953211307525635, -0.153916597366333, 0.6348159909248352, -4.07405424118042], "_stack.Linear_2.weight": [[-0.11410173028707504, -0.07038980722427368, 0.07041573524475098, -0.07712497562170029, 0.31677311658859253, -2.108361005783081, 0.4310401380062103, 0.22257710993289948, 1.3397588729858398], [0.15805745124816895, 0.031184840947389603, -0.26345202326774597, -0.6094450950622559, -0.19007854163646698, 0.18509511649608612, -0.25607943534851074, 0.08093775808811188, -0.40137219429016113], [0.057674527168273926, -0.31556808948516846, 0.10503542423248291, -0.38347211480140686, 0.08163480460643768, 1.0722339153289795, -0.17982621490955353, 0.06686967611312866, -1.214357614517212], [0.2924765348434448, 0.01422965619713068, -0.009089748375117779, 0.5535685420036316, -0.2059553861618042, 0.0018024890450760722, -0.04685361683368683, 0.06869318336248398, 0.0045876470394432545], [0.2917681932449341, -0.9383409023284912, -0.21661409735679626, 1.0362313985824585, -0.13821963965892792, 1.3074555397033691, -0.057015497237443924, -0.03719956800341606, -1.0953201055526733], [-0.2979085445404053, 0.060671404004096985, 0.07746180146932602, -0.048842377960681915, 0.22639819979667664, -0.16627484560012817, 0.11832694709300995, -0.20445355772972107, 0.0027597236912697554], [-0.07609951496124268, -0.48820915818214417, 0.2914941906929016, -0.4258366823196411, 0.01499474048614502, -0.043912895023822784, -0.2960432469844818, -0.11148961633443832, -0.9589232206344604], [0.0018589894752949476, -0.2670378088951111, -0.1475372016429901, -0.19051970541477203, -0.33025404810905457, -0.028211001306772232, 0.18311281502246857, 0.10355306416749954, -0.1873442530632019], [-0.3060884177684784, -0.48904645442962646, 0.0061830682680010796, 0.005083917174488306, -0.134990856051445, -0.3216976523399353, -0.17781881988048553, -0.0067951856181025505, -0.23500826954841614]], "_stack.Linear_2.bias": [2.196107864379883, 2.83410906791687, 3.02960467338562, -3.13601016998291, -1.6833534240722656, -0.3497706353664398, 3.0509750843048096, 0.05138034000992775, -0.24960464239120483], "_stack.Linear_4.weight": [[-0.7493222951889038, 2.820202350616455, -3.5267539024353027, 3.572768211364746, 1.096596598625183, 0.16783183813095093, 4.979431629180908, 0.13570545613765717, -0.2519880533218384]], "_stack.Linear_4.bias": [-2.1626553535461426], "PiecewiseLinearTransform_6.quantiles": [0.0, 0.0004709268134611193, 0.0007916849137982354, 0.001083888776018284, 0.0013453639545477926, 0.0015964268159586936, 0.0018391988039948045, 0.0020782052604481575, 0.002309489529579878, 0.0025397856342606246, 0.0027700972300954167, 0.0029933783456217496, 0.003220530215650797, 0.0034527807431295513, 0.003683307120576501, 0.0039213157817721365, 0.004156255949288607, 0.004401827470865101, 0.00464800029154867, 0.00489481231244281, 0.005152588477358222, 0.005414264276623726, 0.0056747236615046865, 0.0059507099357433615, 0.00622262567281723, 0.006505932321306317, 0.006787954597733915, 0.007076842154376209, 0.0073660781718790525, 0.007660523059312254, 0.007957023540511728, 0.008262910372577608, 0.008568992383778095, 0.008875846978276968, 0.009184476658701897, 0.00950188325252384, 0.009824738319963215, 0.010144573750905694, 0.010466033304110169, 0.010794085838831964, 0.01111862063407898, 0.011459486233070491, 0.011805446170270444, 0.012150419875979424, 0.012499648720026015, 0.012854719101451337, 0.013215865137055515, 0.013573417102918027, 0.01394164215028286, 0.014323993371799591, 0.014710285514593123, 0.015104619334451855, 0.015499371320009229, 0.015901824571192262, 0.01630655412748456, 0.016697905957698822, 0.017093750923871998, 0.01747243819385767, 0.01785313493013382, 0.018215712159872055, 0.018552846014499663, 0.018874389965087175, 0.019191784784197807, 0.01951289887726307, 0.019826985001564025, 0.02014204550534487, 0.02046154748648405, 0.020775378067046404, 0.021095728181302547, 0.021417552905157206, 0.02174408920109272, 0.02208404066041112, 0.022424508333206177, 0.022763395695015787, 0.023119205463677645, 0.023474346892908216, 0.023842243179678924, 0.024200709788128737, 0.024570217702537773, 0.024947585104033353, 0.02533789165318012, 0.02573844175599516, 0.026148986961692572, 0.026557316994294526, 0.02696979881823063, 0.027382081914693115, 0.0278074993789196, 0.028235025418922307, 0.028667224124073982, 0.02911039788648486, 0.029549064673483373, 0.030008133780211204, 0.030477549396455292, 0.030935417896136644, 0.031401045262813565, 0.031874848119914534, 0.03235848599672318, 0.03285276963934302, 0.03336380416154861, 0.0338754746094346, 0.034396013244986534, 0.03478627847880125, 0.03511647886782884, 0.03543022274971008, 0.03575127631425857, 0.03608005421236157, 0.03643903140723705, 0.036841229438781736, 0.03728298293054104, 0.03777892155945301, 0.038304908685386184, 0.03886638607457281, 0.03944830268621445, 0.0400645858310163, 0.040695411160588266, 0.04136347914114595, 0.042033512726426116, 0.04274497977644205, 0.04346172545105219, 0.0441952645778656, 0.04496762990951539, 0.04577371192350983, 0.046594992615282535, 0.0474558850415051, 0.04834323185682296, 0.04927918985486031, 0.05022454509884117, 0.05122955096513033, 0.05226513615250589, 0.053349011849611994, 0.05449351370334626, 0.055682745479047294, 0.056917798414826394, 0.058201174408197415, 0.059539062432944774, 0.060943863093853, 0.062415488094091406, 0.06397648222744472, 0.06558335225284088, 0.06731992154568432, 0.06916189834475522, 0.07106504443287848, 0.07302279970049858, 0.07513096157461405, 0.07731269645690918, 0.07960911557078362, 0.08202543760836124, 0.08446414018422366, 0.0870830571055412, 0.08981229604780673, 0.09261254593729974, 0.09547126957029103, 0.09831128185987478, 0.10129578343778849, 0.10440237475931644, 0.10751545578241349, 0.11082123318314552, 0.11415310510247947, 0.11759346809983254, 0.12117472434788944, 0.12482664585113529, 0.1286813454180956, 0.1325527808368207, 0.13670249852538105, 0.14101198023557665, 0.1454614704102277, 0.15038422536849977, 0.1555685449689627, 0.16119021332263944, 0.1670024626851082, 0.17299435600638385, 0.1792105975449085, 0.18579466480016713, 0.19272580331563943, 0.20007941895723344, 0.20763288401067254, 0.21549750280380248, 0.2239514642804864, 0.23273259621858594, 0.24224846099317082, 0.2522491270303726, 0.262978816151619, 0.27462495303153994, 0.2871372897028923, 0.3005955080986026, 0.31494180396199223, 0.33102698981761935, 0.34869205504655865, 0.36804042613506194, 0.39028293806314474, 0.41591212153434753, 0.44585874038934714, 0.48119666624069196, 0.5238862279653551, 0.5762875796556477, 0.638905965983867, 0.7059705615043634, 0.7726979681849494, 0.8369787546396255, 0.8977579667568195, 1.0]}