{
    "num_node": 12,
    "num_input": 9,
    "mean": [
        9.640787186138533,
        -1.541446105544925,
        9.63605642271954,
        -1.5649143951374402,
        2.9997794792552783,
        -1.0766402789388076,
        7.1170135510617065,
        4.795890500503797,
        7.087593692803239
    ],
    "std": [
        1.54985579907066,
        1.7862832648258775,
        1.54808936985947,
        1.8430819224210022,
        3.0199791094417194,
        0.6870503918593907,
        2.164081504900589,
        0.6451542988964869,
        0.6291345971008757
    ],
    "weights1": [
        [
            3.1501166820526123,
            0.02057386375963688,
            -3.2497801780700684,
            0.0039137438870966434,
            -0.040510352700948715,
            -0.6484873294830322,
            0.014691684395074844,
            0.06508040428161621,
            -0.04039359465241432
        ],
        [
            -0.40923821926116943,
            -0.11060287058353424,
            0.4832075536251068,
            0.0022565515246242285,
            0.49905890226364136,
            -1.148080587387085,
            -0.2579090893268585,
            0.628465473651886,
            0.9478426575660706
        ],
        [
            0.6702978014945984,
            0.020358746871352196,
            -0.526392936706543,
            0.115306057035923,
            -0.32474955916404724,
            -1.8844817876815796,
            -0.0764249935746193,
            -0.5458515882492065,
            1.329970121383667
        ],
        [
            0.7674362659454346,
            -0.04587048664689064,
            -0.1545707732439041,
            0.1470724195241928,
            0.1402951329946518,
            0.6348317861557007,
            -0.019482238218188286,
            -0.44655632972717285,
            -0.7263394594192505
        ],
        [
            2.0265822410583496,
            -0.007034161128103733,
            -1.1586307287216187,
            0.004980403929948807,
            0.9315912127494812,
            2.0292975902557373,
            0.3429369330406189,
            -1.5360140800476074,
            -1.0476865768432617
        ],
        [
            0.0012212054571136832,
            -0.03594112768769264,
            1.2871168851852417,
            -0.006726085674017668,
            0.06287620216608047,
            -1.0870989561080933,
            -0.17402493953704834,
            0.0034298463724553585,
            1.4816094636917114
        ],
        [
            -1.125978946685791,
            -0.0549195371568203,
            -1.130165696144104,
            -0.06840112805366516,
            -0.5455169081687927,
            -0.15551955997943878,
            0.49327579140663147,
            0.8821964263916016,
            -0.34069448709487915
        ],
        [
            0.5685014128684998,
            0.08041982352733612,
            -0.6321324110031128,
            0.07567157596349716,
            -0.17847847938537598,
            1.0901837348937988,
            -0.020871801301836967,
            0.030061328783631325,
            0.43919768929481506
        ],
        [
            1.1892454624176025,
            -0.02027982659637928,
            -1.4145127534866333,
            -0.131256103515625,
            -0.08129862695932388,
            0.19626125693321228,
            0.15581555664539337,
            0.36360639333724976,
            0.18038204312324524
        ],
        [
            3.5473806858062744,
            0.0206154752522707,
            -3.9498450756073,
            -0.06459119915962219,
            -0.03571043908596039,
            -0.4756952226161957,
            0.013214300386607647,
            0.47430676221847534,
            -0.25476956367492676
        ],
        [
            -2.8083019256591797,
            -0.08995256572961807,
            1.9324071407318115,
            0.10489802807569504,
            -0.09465621411800385,
            -0.5271790027618408,
            0.03328070417046547,
            1.0091650485992432,
            -0.28731364011764526
        ],
        [
            -1.7132946252822876,
            0.0011694319546222687,
            1.2926138639450073,
            0.027887193486094475,
            -0.526252806186676,
            -1.5064160823822021,
            -0.09630747139453888,
            0.7396571636199951,
            0.7776156663894653
        ]
    ],
    "bias1": [
        0.9721130132675171,
        0.7731311321258545,
        2.2517356872558594,
        1.9961966276168823,
        -0.17774440348148346,
        0.14743897318840027,
        -0.15597322583198547,
        -1.6206448078155518,
        -0.000622606894467026,
        1.5794501304626465,
        1.7044596672058105,
        -0.10320541262626648
    ],
    "weights2": [
        4.360506534576416,
        1.1972342729568481,
        -1.7452198266983032,
        1.5377154350280762,
        -1.7528541088104248,
        -1.1722640991210938,
        0.7867034673690796,
        1.5789119005203247,
        1.6499640941619873,
        -4.111641883850098,
        -2.2165586948394775,
        2.727849006652832
    ],
    "bias2": 3.556849718093872
}