{"metadata": {"version": 1, "features": ["TrackGhostProb", "TrackChi2PerDoF", "RichDLLbt", "RichDLLp", "RichDLLk", "RichDLLe", "RichDLLmu", "BremPIDe"]}, "_stack.Linear_0.weight": [[-0.1949746012687683, -0.2669701874256134, -0.06774552166461945, 0.2802581787109375, 0.22640468180179596, -0.4950968325138092, -0.13688601553440094, -0.29533782601356506], [0.07970773428678513, 0.1634751409292221, 0.09246048331260681, -0.08253059536218643, 0.19749726355075836, 0.1282181739807129, -0.09721143543720245, -0.5249049663543701], [-0.11925498396158218, -0.12165676802396774, -0.1505083590745926, -0.2088291198015213, -0.02997680753469467, -0.27914607524871826, -0.034996382892131805, -0.4530062675476074], [-0.5375490784645081, -0.007592745125293732, -0.18441718816757202, -0.033792365342378616, -0.23442311584949493, -0.5162473917007446, -0.059819724410772324, -0.28961002826690674], [-0.3749043345451355, -0.14665307104587555, 0.26173466444015503, -0.289842426776886, -0.02584097348153591, -0.6154435873031616, 0.4402485489845276, -0.4127259850502014], [-0.4667620062828064, -0.2967011034488678, -0.21239586174488068, 0.27595874667167664, -0.23346827924251556, -0.5118215084075928, -0.3876211941242218, -0.5024791955947876], [-0.16708433628082275, -0.005717653315514326, 0.031700391322374344, -0.3287796378135681, -0.0880909413099289, -0.04133974760770798, -0.15807412564754486, -0.5637513399124146], [0.19532129168510437, -0.20059025287628174, 0.2744637727737427, -0.3235704302787781, 0.027124157175421715, 0.4589232802391052, 0.00916313473135233, 0.49277400970458984], [0.12865419685840607, 0.2742301821708679, -0.037467386573553085, -0.12394487857818604, -0.3523441553115845, 0.35754090547561646, 0.15228556096553802, 0.0745997428894043], [-0.02313922718167305, -0.3276827037334442, -0.14969587326049805, -0.13055339455604553, -0.3384804129600525, 0.14458473026752472, -0.19127106666564941, 0.7259555459022522], [-0.23128490149974823, 0.4121916890144348, 0.04455632343888283, -0.030254537239670753, 0.13177232444286346, -0.2938496172428131, -0.03267328068614006, -0.5019106864929199], [0.004842190071940422, -0.01252975594252348, 0.16433079540729523, 0.1622800976037979, 0.04588375613093376, -0.20217657089233398, -0.0665745660662651, 0.30965131521224976], [0.08436834067106247, 0.49831876158714294, 0.08663027733564377, 0.02000950463116169, -0.09654130041599274, -0.7257634401321411, -0.11877075582742691, -0.5096076130867004], [-0.2603815495967865, 0.05638768896460533, -0.2532220780849457, 0.19547711312770844, -0.2167167216539383, 0.28268104791641235, -0.2535807490348816, 0.5707154273986816], [0.09656403958797455, 0.16459324955940247, 0.18776017427444458, 0.24123595654964447, 0.25030219554901123, 0.5693880319595337, 0.08489241451025009, 0.25245633721351624], [-0.06553224474191666, -0.31281206011772156, -0.26713812351226807, -0.3422558307647705, -0.20769330859184265, 0.0841069370508194, 0.1350335031747818, 0.5153042078018188], [-0.21696989238262177, -0.2911050021648407, -0.15613968670368195, 0.015578155405819416, 0.004153348505496979, 0.3131221830844879, 0.07937227189540863, 0.4556061327457428], [-0.1662897765636444, 0.012693489901721478, 0.24691824615001678, 0.2519567608833313, -0.11810252070426941, 0.22605173289775848, -0.14935144782066345, 0.24171818792819977], [-0.3707001507282257, 0.04069583863019943, 0.17745959758758545, 0.30629828572273254, -0.10358878970146179, 0.15124976634979248, -0.026211537420749664, 0.41763225197792053], [-0.46103739738464355, 0.07827053219079971, 0.23513738811016083, 0.30203554034233093, 0.08054317533969879, -0.4782344400882721, -0.24947932362556458, -0.5397501587867737], [-0.15391342341899872, 0.29081323742866516, 0.03871970623731613, 0.12560957670211792, 0.169493168592453, -0.4061591625213623, 0.3393641710281372, -0.30776897072792053]], "_stack.Linear_0.bias": [-0.5477563142776489, 0.3725614547729492, 0.39371728897094727, 0.36227577924728394, -0.3143443465232849, -0.2974719703197479, 0.41593268513679504, 0.13622036576271057, -0.38724905252456665, 0.18017762899398804, 0.22797071933746338, 0.013976871967315674, 0.6325657963752747, -0.3040526807308197, -0.20525948703289032, -0.04231739789247513, -0.05786076933145523, -0.12583686411380768, -0.19644713401794434, 0.08530864119529724, 0.18447990715503693], "_stack.Linear_2.weight": [[-0.18314437568187714, -0.120292529463768, -0.13706658780574799, -0.22406283020973206, -0.3898414969444275, -0.24351516366004944, -0.119993194937706, 0.46105116605758667, 0.13412922620773315, 0.08823514729738235, -0.31977787613868713, 0.040249161422252655, -0.36718177795410156, 0.23117157816886902, 0.26755720376968384, 0.05905319005250931, 0.2295486032962799, 0.14107312262058258, 0.1394348442554474, -0.24947887659072876, -0.2649533748626709]], "_stack.Linear_2.bias": [-0.14034390449523926]}