{"metadata": {"version": 1, "features": ["TrackGhostProb", "TrackChi2PerDoF", "RichDLLbt", "RichDLLp", "RichDLLk", "RichDLLe", "RichDLLmu"]}, "_stack.Linear_0.weight": [[0.14092649519443512, 0.48602789640426636, -0.08352994918823242, 0.2678912580013275, -0.11554326117038727, 0.028023188933730125, -0.30681824684143066], [-0.5906435251235962, -0.17783492803573608, -0.29223737120628357, 0.1324651688337326, -0.05360256880521774, -0.3400108814239502, -0.023700570687651634], [-0.3696446716785431, -0.1186455711722374, 0.31441107392311096, 0.36150163412094116, -0.02280745655298233, 0.8811810612678528, -0.11857329308986664], [-0.3774564564228058, -0.5074291229248047, 0.39147037267684937, -0.23492825031280518, 0.16134974360466003, 0.19094040989875793, -0.2949789762496948], [0.5123671889305115, 0.14730671048164368, 0.10458026826381683, -0.10198894143104553, 0.15882505476474762, -0.5267897844314575, -0.3613331615924835], [0.04916686564683914, 0.017823385074734688, 0.0015392237110063434, -0.24246691167354584, 0.2556513845920563, 0.9357007145881653, -0.1903362274169922], [-0.1069544181227684, 0.7059999704360962, 0.3064260482788086, -0.12262171506881714, -0.009187335148453712, 0.6836628317832947, -0.06430996209383011], [-0.8222324848175049, -0.4171825647354126, 0.3313106298446655, 0.39820167422294617, -0.1333630532026291, -0.3578348755836487, -0.06877923756837845], [-0.5509580969810486, 0.10976582020521164, -0.07596529275178909, -0.3214845061302185, 0.17623335123062134, -0.0065549942664802074, -0.04627536982297897], [-0.05672375485301018, -0.24376368522644043, -0.10912556946277618, 0.15954998135566711, -0.010749999433755875, 1.1909009218215942, -0.16921517252922058], [0.4933173656463623, 0.1016475185751915, -0.04851703718304634, 0.22831304371356964, -0.10981747508049011, -0.33543509244918823, -0.2669014036655426], [-0.9519891142845154, -0.14213326573371887, 0.30607640743255615, -0.10178092867136002, -0.02680124156177044, -0.14084838330745697, 0.4005836248397827], [0.4673731327056885, -0.06320305913686752, 0.0028011410031467676, 0.16896991431713104, -0.0235820971429348, -0.3377378582954407, -0.1046278178691864], [-0.5914164781570435, -0.43290597200393677, 0.2952063977718353, -0.06220373511314392, 0.2959638237953186, -0.38048750162124634, -0.22241730988025665], [0.10076704621315002, -0.0044645341113209724, -0.17387637495994568, -0.02078140527009964, -0.1719655990600586, 0.6500348448753357, -0.31079423427581787], [-0.44623440504074097, 0.46066737174987793, -0.04656710475683212, 0.20959314703941345, -0.26449456810951233, 0.15303274989128113, 0.4271334409713745], [0.6663792729377747, -0.08286616206169128, 0.3206036388874054, -0.06550665944814682, -0.03217744827270508, -0.25499671697616577, -0.35022884607315063]], "_stack.Linear_0.bias": [-0.2167792171239853, -0.31066179275512695, 0.11647113412618637, -0.4545851945877075, -0.044683415442705154, -0.04876124858856201, 0.2003675401210785, -0.04735301434993744, -0.03421890735626221, 0.17878815531730652, 0.6603025197982788, -0.24725636839866638, 0.34438273310661316, -0.21471190452575684, -0.01536006759852171, -0.06385505199432373, 0.16047759354114532], "_stack.Linear_2.weight": [[0.40247416496276855, 0.1507471352815628, -0.2688094973564148, -0.3361791968345642, -0.12316843122243881, -0.34712791442871094, 0.3369583189487457, 0.13990777730941772, 0.18954086303710938, -0.5115101933479309, -0.3545984923839569, 0.2544158399105072, -0.08355347067117691, 0.1841733455657959, -0.2467515766620636, 0.17221082746982574, -0.11323308944702148]], "_stack.Linear_2.bias": [-0.3880138099193573]}