{"metadata": {"version": 1, "features": ["TrackGhostProb", "TrackChi2PerDoF", "RichDLLbt", "RichDLLp", "RichDLLk", "RichDLLe", "RichDLLmu", "BremPIDe"]}, "_stack.Linear_0.weight": [[-0.49602317810058594, 0.0626552626490593, 0.22802290320396423, 0.3991294503211975, 0.1902747005224228, -0.1754281222820282, -0.20994041860103607, 0.0007108073332346976], [0.21392565965652466, 0.27958741784095764, -0.011847459711134434, 0.303725928068161, 0.002860370557755232, -0.30498138070106506, -0.01729626953601837, 0.02527073584496975], [0.12831588089466095, -0.39234575629234314, 0.04708858206868172, -0.15361951291561127, 0.1140330508351326, -0.01184382475912571, -0.07772589474916458, -0.18227209150791168], [0.3504948914051056, -0.17641767859458923, 0.0013903529616072774, -0.03254123032093048, 0.08100177347660065, -0.28262266516685486, -0.16909459233283997, 0.1881183385848999], [0.3181757926940918, 0.02716514840722084, 0.17429840564727783, 0.25734788179397583, -0.24008511006832123, 0.566342830657959, -0.3417067527770996, 0.5163414478302002], [0.17358452081680298, -0.3030824661254883, 0.22397392988204956, -0.07083504647016525, -0.29388847947120667, -0.24166995286941528, -0.1084786131978035, -0.27076926827430725], [0.11732475459575653, -0.24336479604244232, 0.2555399537086487, 0.03065907582640648, -0.027929339557886124, 0.03422456979751587, 0.10147581249475479, -0.013758180662989616], [-0.15178297460079193, 0.1596585214138031, -0.2439737170934677, -0.15681198239326477, -0.28710103034973145, -0.21187011897563934, 0.2556200623512268, -0.24576780200004578], [0.14279237389564514, -0.0608506016433239, 0.15050876140594482, -0.088868647813797, 0.09438508003950119, -0.3673589825630188, 0.3137415051460266, 0.24808385968208313], [-0.10280635952949524, -0.10681376606225967, -0.04904923960566521, 0.038693588227033615, -0.13533775508403778, 0.3076964020729065, -0.17783576250076294, 0.6249836087226868], [-0.4105643332004547, -0.35147660970687866, 0.17039990425109863, 0.1833057701587677, 0.23909235000610352, -0.03492618724703789, 0.4021835923194885, -0.18421626091003418], [0.07353527843952179, 0.23199498653411865, 0.21580442786216736, -0.08414260298013687, 0.1734704077243805, 0.03892667219042778, -0.11356900632381439, 0.03757401928305626], [-0.10531501471996307, -0.08176635950803757, -0.08549433201551437, -0.17946891486644745, 0.027279753237962723, -0.49913132190704346, -0.19425034523010254, 0.29408881068229675], [0.14835909008979797, -0.35158810019493103, 0.021990835666656494, -0.304709255695343, 0.29190167784690857, 0.04930710420012474, -0.10274756699800491, -0.34843912720680237], [-0.3199024796485901, 0.010982372798025608, -0.05707157403230667, 0.16944245994091034, 0.0162159763276577, 0.032107796519994736, 0.11660078912973404, -0.20831267535686493], [0.3654318153858185, 0.03144437447190285, -0.0921182855963707, 0.09041590243577957, -0.2944279611110687, -0.08482886850833893, 0.18822818994522095, -0.10185269266366959], [-0.28583163022994995, 0.09585177898406982, -0.36764442920684814, 0.02822033315896988, -0.3410426378250122, -0.21408377587795258, -0.07708831876516342, -0.10410919785499573], [-0.23410296440124512, -0.1801409274339676, -0.17646116018295288, -0.15171077847480774, 0.134710893034935, -0.197994202375412, -0.3491227328777313, 0.096006378531456], [0.21295411884784698, -0.24496829509735107, 0.020306093618273735, -0.14826393127441406, 0.1184026226401329, 0.9232915639877319, 0.04900503158569336, 0.2773144245147705], [-0.030848849564790726, 0.2548805773258209, -0.22384528815746307, 0.2892874479293823, 0.23769772052764893, 0.05271851271390915, -0.3451753258705139, -0.3636051416397095], [-0.06368015706539154, 0.1339588612318039, 0.2614942491054535, -0.0753420889377594, 0.32625943422317505, -0.012344884686172009, -0.16027450561523438, 0.009375620633363724], [0.25561031699180603, 0.10148052126169205, 0.32806333899497986, 0.08515875041484833, -0.02881668694317341, 0.6241352558135986, -0.2761174142360687, 0.45815348625183105], [0.18689575791358948, -0.1934518665075302, 0.07813642174005508, 0.16271241009235382, 0.2808785140514374, 0.5224469304084778, 0.27686938643455505, 0.512901246547699], [-0.36526480317115784, -0.0190268624573946, 0.13046622276306152, -0.1273570954799652, -0.06384691596031189, 0.8542059659957886, 0.43558523058891296, 0.38832592964172363]], "_stack.Linear_0.bias": [-0.40791499614715576, 0.09297821670770645, 0.08386389911174774, 0.31727805733680725, -0.1709071695804596, -0.0166116114705801, 0.12133534997701645, 0.05812368169426918, 0.24103933572769165, 0.2873046398162842, 0.1407788097858429, -0.12423139810562134, 0.49823272228240967, -0.3101378381252289, -0.2541288733482361, 0.5949640870094299, -0.37993502616882324, -0.2238260954618454, 0.24046073853969574, -0.15429864823818207, -0.0979197695851326, -0.298137903213501, 0.14713554084300995, 0.2042773962020874], "_stack.Linear_2.weight": [[0.08052076399326324, -0.1891442984342575, 0.16691377758979797, -0.23227418959140778, -0.04735657200217247, 0.03462677821516991, 0.12999005615711212, -0.11797147244215012, -0.07852426171302795, -0.3511529266834259, 0.1143762543797493, 0.07121625542640686, -0.06126943230628967, 0.2820172905921936, 0.1089508980512619, -0.2910219132900238, 0.13286003470420837, 0.06911081820726395, -0.3969517648220062, 0.08945221453905106, 0.1406242847442627, -0.11904331296682358, -0.14399653673171997, -0.32249781489372253]], "_stack.Linear_2.bias": [-0.33463814854621887]}