{"metadata": {"version": 1, "features": ["TrackGhostProb", "TrackChi2PerDoF", "RichDLLbt", "RichDLLp", "RichDLLk", "RichDLLe", "RichDLLmu", "BremPIDe"]}, "_stack.Linear_0.weight": [[-0.2834378778934479, -0.1511903703212738, -0.1487676054239273, -0.1536378711462021, 0.19530777633190155, -0.041867658495903015, 0.30925455689430237, 0.2324828952550888], [-0.7016407251358032, -0.29683008790016174, -0.20585836470127106, 0.03428752347826958, 0.21278288960456848, -0.26743602752685547, 0.29698753356933594, -0.23074370622634888], [0.6340697407722473, 0.33493903279304504, 0.0523776151239872, -0.07495440542697906, 0.0008801407529972494, 0.7676375508308411, -0.07469923049211502, 0.7719444036483765], [-0.01699451543390751, -0.45148637890815735, 0.0007831964176148176, -0.20151226222515106, -0.04309628903865814, 0.3688005208969116, -0.42140892148017883, -0.259027898311615], [-0.2777460217475891, 0.004410795867443085, 0.1597864031791687, 0.17277753353118896, -0.03827163577079773, 0.5791643857955933, 0.11124154180288315, -0.27714961767196655], [0.7475380301475525, 0.26467326283454895, 0.061773642897605896, -0.12935183942317963, 0.05015238747000694, 0.7536947131156921, -0.0904136598110199, 0.7119978070259094], [0.6544526219367981, 0.12863457202911377, 0.04752001538872719, 0.05364272743463516, 0.17209391295909882, 0.3541339933872223, 0.1278923898935318, 0.18788200616836548], [0.13997596502304077, -0.11231780052185059, 0.001344966934993863, -0.23989064991474152, 0.05431472882628441, 0.3644562065601349, -0.3612445592880249, -0.37067970633506775], [0.4865894615650177, 0.16335177421569824, -0.05057423934340477, 0.10852733999490738, -0.2039853036403656, 0.015913894400000572, 0.30316150188446045, 0.32359880208969116], [-0.3033607006072998, 0.4556901454925537, 0.05347754433751106, -0.3090422749519348, 0.16099047660827637, -0.12848715484142303, -0.14480270445346832, -0.10450902581214905], [-0.29413923621177673, 0.0978173092007637, -0.12012171745300293, -0.14068487286567688, 0.3210042119026184, -0.36080101132392883, -0.3460487723350525, 0.419854998588562], [0.3383272588253021, 0.3216387629508972, -0.13426584005355835, -0.2811029851436615, -0.3275245726108551, 0.2954612076282501, 0.026160122826695442, 0.289691686630249], [-0.23527786135673523, 0.026781536638736725, -0.1527659147977829, -0.1321776658296585, -0.06731107831001282, -0.3756711184978485, 0.49710312485694885, -0.20317523181438446], [-0.07804591953754425, -0.4273185729980469, -0.1600688248872757, -0.26818928122520447, 0.3748929798603058, -0.20686845481395721, -0.3314754068851471, -0.058669887483119965], [-0.5187085270881653, 0.43401750922203064, -0.07076266407966614, -0.1827203780412674, -0.09242843091487885, -0.3419656455516815, -0.13894973695278168, -0.03839438408613205], [0.16236361861228943, 0.586547315120697, -0.3362872898578644, -0.29832422733306885, 0.004607632290571928, 0.3147365152835846, 0.3472464084625244, 0.23895147442817688], [-0.008376267738640308, 0.6021276712417603, -0.150205597281456, 0.11842063814401627, -0.07518893480300903, -0.10049888491630554, 0.05197899043560028, -0.11950983107089996], [0.23556460440158844, -0.19961419701576233, -0.2015666961669922, 0.19664311408996582, -0.15045498311519623, 0.322451114654541, 0.14603300392627716, 0.8273293375968933], [0.23577548563480377, -0.005800054874271154, -0.051518093794584274, 0.0045018442906439304, 0.17046873271465302, 0.18552392721176147, -0.3509170114994049, -0.09148107469081879]], "_stack.Linear_0.bias": [0.08264189958572388, -0.4567364752292633, 0.21855559945106506, -0.49066510796546936, 0.7286184430122375, 0.2817702889442444, -0.46429243683815, -0.437686949968338, -0.18803806602954865, 0.09813453257083893, 0.18416225910186768, 0.3987043797969818, 0.15035289525985718, -0.247976154088974, 0.5114656090736389, 0.42934781312942505, 0.5224019289016724, -0.063153937458992, 0.7656766772270203], "_stack.Linear_2.weight": [[-0.023798268288373947, -0.2715221345424652, -0.425808310508728, 0.09132438898086548, -0.17465946078300476, -0.33822017908096313, 0.038705553859472275, 0.12265787273645401, -0.12435285747051239, 0.028182290494441986, 0.21049927175045013, -0.1017979085445404, 0.10399448126554489, -0.13716985285282135, 0.15379856526851654, -0.0567842461168766, 0.32517510652542114, -0.16862986981868744, -0.35541364550590515]], "_stack.Linear_2.bias": [0.29645058512687683]}