{"metadata": {"version": 1, "features": ["TrackGhostProb", "TrackChi2PerDoF", "RichDLLbt", "RichDLLp", "RichDLLk", "RichDLLe", "RichDLLmu", "BremPIDe"]}, "_stack.Linear_0.weight": [[-1.2469980716705322, 0.7317785024642944, 0.00587360467761755, 0.008857938461005688, -0.116937555372715, 0.4411458373069763, -0.43460211157798767, 0.009254124946892262], [-1.6225889921188354, 0.2549527883529663, -0.02890745736658573, 0.026086842641234398, -0.3347525894641876, -0.49281466007232666, 0.20956869423389435, -0.03329741582274437], [-1.4238091707229614, 0.06941228359937668, 0.09115268290042877, 0.0902026817202568, -0.1897461712360382, 0.3640379309654236, 0.24692939221858978, 0.6212526559829712], [-0.8628518581390381, 0.10447367280721664, -0.30051514506340027, -0.19503673911094666, 0.035917386412620544, -0.7125377655029297, 0.2214650958776474, 0.24720902740955353], [-1.3953216075897217, 0.3745003640651703, 0.12894517183303833, -0.12550221383571625, 0.18999768793582916, 0.36785510182380676, -0.1505134254693985, -0.03324345871806145], [-0.9489820599555969, 0.42408299446105957, -0.02209673449397087, 0.019155265763401985, 0.009077188558876514, 0.4851824939250946, -0.36433908343315125, -0.08946080505847931], [-1.4348556995391846, 0.7210519909858704, -0.0496857576072216, 0.19180002808570862, 0.19660313427448273, 0.3621182441711426, 0.1774274855852127, 0.35385021567344666], [-2.6535840034484863, 0.32248052954673767, 0.07429789751768112, -0.10048969835042953, 0.018422020599246025, -0.6001993417739868, 0.19125281274318695, -0.04030255600810051], [0.9998583197593689, -0.5334251523017883, 0.21486972272396088, 0.1438574641942978, -0.3534107804298401, -0.015965094789862633, -0.009095914661884308, 0.04469531774520874], [-1.3632347583770752, 0.5282890796661377, 0.344957172870636, 0.01975305937230587, -0.1868162900209427, 0.07742135226726532, -0.39802539348602295, 0.09218188375234604], [-1.7883892059326172, -0.04630137234926224, -0.0034503964707255363, -0.057954736053943634, -0.031231652945280075, -0.6462910175323486, 0.6629886031150818, 0.12871326506137848], [-1.8042453527450562, 0.16154845058918, -0.10510773956775665, -0.16435110569000244, 0.19785268604755402, 1.7506234645843506, -0.05073592811822891, 0.5115934014320374], [0.5043079853057861, -0.5829792022705078, 0.00996437668800354, -0.3675498366355896, -0.2906986474990845, -0.06837373971939087, -0.12158257514238358, -0.03586167097091675], [0.8090455532073975, -0.7522528767585754, 0.3563222587108612, -0.16808928549289703, 0.06687410175800323, 0.04502593353390694, 0.12026504427194595, 0.09087517857551575], [0.7074944376945496, -0.6055508255958557, -0.004980630241334438, 0.1572328358888626, -0.16084247827529907, 0.002414667746052146, -0.008674274198710918, -0.5748231410980225], [-1.4309520721435547, 0.4824853539466858, 0.029356317594647408, 0.07157321274280548, 0.0974239781498909, -0.46200382709503174, -0.14121419191360474, 0.09810705482959747], [0.9842175245285034, -0.8886567950248718, -0.13699299097061157, 0.28864234685897827, -0.05312654748558998, 0.004893395584076643, 0.07292628288269043, -0.12475546449422836], [1.0237157344818115, -0.554801881313324, -0.2771640419960022, -0.27784067392349243, -0.142778679728508, -0.09036663174629211, 0.253391832113266, -0.1224573478102684], [-1.7687511444091797, 0.4487948417663574, 0.26184186339378357, -0.16533318161964417, 0.017137542366981506, -0.28859302401542664, 0.3116019070148468, -0.007436031475663185], [-1.2652255296707153, 0.0869952142238617, -0.10456684231758118, -0.15547381341457367, -0.20427252352237701, 0.5455853343009949, -0.0052493540570139885, 0.36370640993118286], [0.5196492671966553, -0.6329408884048462, 0.24610164761543274, 0.16418015956878662, -0.39647427201271057, -0.09297628700733185, 0.00997462309896946, 0.11899445205926895], [1.1443214416503906, -0.4724070429801941, 0.16539263725280762, 0.18269605934619904, 0.2936263084411621, 0.0649629458785057, -0.16500736773014069, -0.14965204894542694], [0.6178810596466064, -0.2801955044269562, 0.2914001941680908, 0.024274714291095734, -0.30572792887687683, -0.0506889782845974, -0.0024606320075690746, 0.07157554477453232]], "_stack.Linear_0.bias": [0.5133000016212463, 0.6748994588851929, -0.32236430048942566, -0.253916472196579, -0.6163140535354614, -0.22032679617404938, -0.32279250025749207, -0.01300656795501709, 0.48940396308898926, -0.6493110656738281, 0.8835051655769348, -0.10666137933731079, -0.6267596483230591, 0.3721463084220886, 0.32205939292907715, -1.0783973932266235, 0.5201009511947632, -0.47321411967277527, -0.1826990246772766, 0.6547420024871826, 0.5957637429237366, 0.4601038992404938, 0.16532622277736664], "_stack.Linear_2.weight": [[-0.4411630928516388, -0.37074902653694153, -0.5513205528259277, -0.13881810009479523, -0.15490634739398956, -0.4171547591686249, -0.14116452634334564, -0.6645591259002686, 0.21671032905578613, -0.22700749337673187, -0.45508041977882385, -0.40382322669029236, 0.2746659815311432, 0.27778756618499756, 0.3123057782649994, -0.179056316614151, 0.2408422976732254, 0.15067026019096375, -0.34703364968299866, -0.2625841200351715, 0.10129839181900024, 0.09513650089502335, 0.23484423756599426]], "_stack.Linear_2.bias": [0.1652199923992157]}