{
  "sigmanet.gamma": [
    1.0
  ],
  "sigmanet.sigma": [
    2.0
  ],
  "sigmanet.nn.0.bias": [
    1.707405686378479,
    -1.7961502075195312,
    1.768919587135315,
    -1.8466428518295288,
    -2.157376289367676,
    1.6405797004699707,
    -2.5470540523529053,
    6.226659774780273,
    1.5459312200546265,
    -1.4159419536590576,
    -1.8350186347961426,
    1.9841809272766113,
    2.0924291610717773,
    -2.0561132431030273,
    0.5771042704582214,
    2.797785758972168,
    1.4349212646484375,
    1.4232386350631714,
    -1.834672212600708,
    4.554126262664795
  ],
  "sigmanet.nn.0.weight_orig": [
    [
      -1.255332112312317,
      -1.2515223026275635,
      -0.03498458489775658,
      -1.2555288076400757
    ],
    [
      1.2589669227600098,
      1.256307601928711,
      0.12541574239730835,
      1.252571940422058
    ],
    [
      -1.2547377347946167,
      -1.2514930963516235,
      -0.1344733089208603,
      -1.2535759210586548
    ],
    [
      1.2551751136779785,
      1.2570067644119263,
      0.18700675666332245,
      1.2497671842575073
    ],
    [
      1.2588577270507812,
      1.2552621364593506,
      0.214834526181221,
      1.2527822256088257
    ],
    [
      -1.2525218725204468,
      -1.2547760009765625,
      -0.08235051482915878,
      -1.2535895109176636
    ],
    [
      1.2599210739135742,
      1.2599210739135742,
      0.0635327622294426,
      1.259319543838501
    ],
    [
      -1.2516794204711914,
      1.257991909980774,
      0.07391490042209625,
      1.257306694984436
    ],
    [
      -1.255826473236084,
      -1.259064793586731,
      -0.12414398044347763,
      -1.2546534538269043
    ],
    [
      1.2545273303985596,
      1.252011775970459,
      0.06486739218235016,
      1.2534834146499634
    ],
    [
      1.2535431385040283,
      1.2574143409729004,
      0.24673916399478912,
      1.2528811693191528
    ],
    [
      -1.252833604812622,
      -1.2557599544525146,
      -0.2094341665506363,
      -1.2567850351333618
    ],
    [
      -1.2540712356567383,
      -1.2589954137802124,
      -0.26884573698043823,
      -1.2576817274093628
    ],
    [
      1.258681058883667,
      1.2425771951675415,
      0.06895093619823456,
      1.2532581090927124
    ],
    [
      1.259765625,
      -1.2560127973556519,
      0.0034595306497067213,
      1.2599210739135742
    ],
    [
      1.2598942518234253,
      0.6007383465766907,
      0.21607111394405365,
      -0.8677991628646851
    ],
    [
      -1.2520503997802734,
      -1.2500828504562378,
      -0.057141225785017014,
      -1.2516727447509766
    ],
    [
      -1.2534072399139404,
      -1.258093237876892,
      -0.056681256741285324,
      -1.2553247213363647
    ],
    [
      1.253248691558838,
      1.2567025423049927,
      0.10442863404750824,
      1.2558778524398804
    ],
    [
      -1.2574533224105835,
      -1.2585456371307373,
      -1.2599210739135742,
      -1.254435658454895
    ]
  ],
  "sigmanet.nn.2.bias": [
    1.3700441122055054,
    1.3140732049942017,
    -1.3327579498291016,
    1.401261329650879,
    0.45881783962249756,
    1.7141045331954956,
    -1.2379298210144043,
    -1.4458411931991577,
    1.3439838886260986,
    1.347022533416748,
    -0.9491980671882629,
    -1.6148539781570435,
    -2.0946598052978516,
    1.212853193283081,
    1.3484820127487183,
    1.350035548210144,
    -1.3654851913452148,
    1.2980109453201294,
    -1.3508089780807495,
    -1.3212782144546509
  ],
  "sigmanet.nn.2.weight_orig": [
    [
      -0.0003621558134909719,
      0.00047531051677651703,
      -6.117994780652225e-05,
      7.066321995807812e-05,
      -0.00026000611251220107,
      3.3695010642986745e-05,
      -4.778491347678937e-05,
      1.255780577659607,
      -4.5110216888133436e-05,
      0.00042814630432985723,
      -0.00037593167508020997,
      7.302506128326058e-05,
      -0.0003210148715879768,
      0.00032573737553320825,
      2.836653948179446e-05,
      1.794991476344876e-05,
      -0.00036185214412398636,
      -0.0002309908886672929,
      -0.00031063880305737257,
      0.00031094951555132866
    ],
    [
      -0.00020672469690907747,
      7.391143299173564e-05,
      -8.861280366545543e-05,
      0.00013375618436839432,
      -0.00025954199372790754,
      0.0003237759228795767,
      -1.866288403107319e-05,
      1.2565462589263916,
      -0.00033735772012732923,
      6.697396202071104e-06,
      -0.00023547526507172734,
      0.0003049962979275733,
      -0.0002952809736598283,
      5.950980721536325e-06,
      1.933414205268491e-05,
      4.521862501860596e-05,
      -0.00028889457462355494,
      -7.895322778495029e-05,
      -0.0002071688650175929,
      0.0004444456717465073
    ],
    [
      -9.008114147945889e-07,
      -9.457779378863052e-05,
      0.00011683165212161839,
      -0.00020446101552806795,
      0.00036871799966320395,
      -0.00014720781473442912,
      3.521652251947671e-05,
      -1.2568330764770508,
      0.00023699874873273075,
      -0.000128713232697919,
      0.00011400548828532919,
      -2.768316880974453e-05,
      0.00036245130468159914,
      -0.00020522592240013182,
      -5.403265731729334e-06,
      -8.540484850527719e-05,
      0.0005141440196894109,
      0.00014744934742338955,
      0.0002556128893047571,
      -3.6962162994313985e-05
    ],
    [
      -9.03228919924004e-06,
      0.0002754651941359043,
      -0.0002835091727320105,
      0.0005078258109278977,
      -3.357446985319257e-05,
      6.035236219759099e-05,
      -2.262392627017107e-05,
      1.2566065788269043,
      -0.000517477688845247,
      0.00011832385644083843,
      -2.1135725546628237e-05,
      0.0002317291364306584,
      -0.00012474013783503324,
      4.129220906179398e-05,
      9.763810339791235e-06,
      2.4130775273079053e-05,
      -0.00024555405252613127,
      -8.801994408713654e-05,
      -0.00024650440900586545,
      0.0004534296749625355
    ],
    [
      -3.701405876199715e-05,
      0.0001212607094203122,
      -6.354284414555877e-05,
      8.503029675921425e-05,
      -0.00024894127273000777,
      9.470732038607821e-05,
      1.8822797756001819e-06,
      1.2576230764389038,
      -0.00019484772928990424,
      0.0001334104163106531,
      -0.00013093813322484493,
      0.0002505644515622407,
      -6.605716771446168e-05,
      0.0001272193476324901,
      -4.3455561353766825e-06,
      -7.374139840976568e-06,
      -0.00024224280787166208,
      -0.00012803473509848118,
      -0.00019857552251778543,
      0.00016216398216784
    ],
    [
      -0.0009757921216078103,
      0.0014679315499961376,
      -0.002630803268402815,
      0.0022463935893028975,
      -0.0008631216478534043,
      0.0006912891985848546,
      -1.0995818229275756e-05,
      0.06962145119905472,
      -0.0015534056583419442,
      0.0009661945514380932,
      -0.0014069642638787627,
      0.001207804074510932,
      -0.0024427161552011967,
      0.0008337960462085903,
      7.385035587503808e-06,
      1.1690953969955444,
      -0.0012909529032185674,
      -0.00027629316900856793,
      -0.0015126544749364257,
      0.0008197994320653379
    ],
    [
      0.0003575606970116496,
      -0.0006669916911050677,
      0.00016401502944063395,
      -0.00026229978539049625,
      0.000453895831014961,
      -8.599334250902757e-05,
      3.249724977649748e-05,
      -1.255373477935791,
      0.00011547937901923433,
      -8.666198118589818e-05,
      0.00019181334937456995,
      -0.00010828844096977264,
      0.00024675787426531315,
      -0.00010905423550866544,
      -2.9463217288139276e-05,
      -7.656187517568469e-05,
      0.0005129200289957225,
      0.0002835102204699069,
      0.00040422973688691854,
      -0.0003596436290536076
    ],
    [
      0.00035681252484209836,
      -0.00010401185863884166,
      0.00012047828204231337,
      -0.0004385099746286869,
      0.0003536352887749672,
      -0.0003981386835221201,
      3.492702671792358e-05,
      -1.2554383277893066,
      5.775251338491216e-05,
      -0.00021337909856811166,
      0.0004951638402417302,
      -8.696322765899822e-05,
      0.00018539762822911143,
      -0.0004463149234652519,
      -2.204864358645864e-05,
      -2.2348267521010712e-05,
      8.153612725436687e-05,
      0.00033156631980091333,
      0.0003682627866510302,
      -0.00036552385427057743
    ],
    [
      -0.00011214673577342182,
      0.00016709606279619038,
      -0.0005051260814070702,
      0.00011736659507732838,
      -0.000346803804859519,
      0.0003049598017241806,
      -2.0381561625981703e-05,
      1.2561992406845093,
      -1.77255024027545e-05,
      8.200454612961039e-05,
      -0.00010920332715613768,
      0.00012282309762667865,
      -0.0004378341545816511,
      0.00032397822360508144,
      4.041858483105898e-05,
      0.00011297066521365196,
      -0.0001606570149306208,
      -3.52591450791806e-05,
      -0.000339748541591689,
      0.00036538700805976987
    ],
    [
      -0.0004469297418836504,
      8.328865078510717e-05,
      -0.00041461471118964255,
      4.8157187848119065e-05,
      -0.0004815298889297992,
      0.0002055580698652193,
      -1.368328321404988e-05,
      1.2553170919418335,
      -0.0002819800574798137,
      0.0003587625396903604,
      -4.0896222344599664e-05,
      0.00034432264510542154,
      -0.00020982940623071045,
      0.0002088696346618235,
      2.2503721993416548e-05,
      9.655827307142317e-05,
      -0.00017344475782010704,
      -0.0002824788971338421,
      -0.00044776007416658103,
      0.00044286841875873506
    ],
    [
      0.00571016501635313,
      -0.003316637594252825,
      0.004247104283422232,
      -0.010669495910406113,
      0.0032907002605497837,
      -0.0026525496505200863,
      -4.145859929849394e-05,
      -1.1766523122787476,
      0.012402920052409172,
      -0.0014081391273066401,
      0.0035357121378183365,
      -0.00670637795701623,
      0.002743977354839444,
      -0.0008905617869459093,
      -5.281959238345735e-05,
      -6.914319237694144e-05,
      0.014646432362496853,
      0.004847951699048281,
      0.00010003499482991174,
      -0.005936715751886368
    ],
    [
      0.00012736277130898088,
      -5.141745350556448e-05,
      0.00015058745339047164,
      -0.0002176785928895697,
      2.407664760539774e-05,
      -0.00012783860438503325,
      -2.47936850428232e-06,
      -1.0513585805892944,
      0.0004055167664773762,
      -4.68484649900347e-05,
      8.650903328089043e-05,
      -0.00029774944414384663,
      0.00021567744261119515,
      -0.00035792627022601664,
      2.758609525699285e-06,
      -0.20528793334960938,
      0.00027797665097750723,
      0.00025532435392960906,
      0.0005643976619467139,
      -6.245286203920841e-05
    ],
    [
      0.00036062573781237006,
      -0.00016679111286066473,
      1.2857557521783747e-05,
      -5.734346268582158e-05,
      3.555338116711937e-05,
      -0.00014555937377735972,
      2.0625746799396438e-07,
      -0.33813342452049255,
      9.429437341168523e-05,
      -0.0001478736085118726,
      0.00026419543428346515,
      -8.220894960686564e-05,
      3.505490894895047e-05,
      -0.00020516190852504224,
      -4.769345196109498e-06,
      -0.9196369051933289,
      0.00017006683629006147,
      3.0910228815628216e-05,
      0.00017111301713157445,
      -0.0001661444694036618
    ],
    [
      0.0011346518294885755,
      -0.0012844126904383302,
      0.001125296694226563,
      -0.010425703600049019,
      0.0010552176972851157,
      -0.00274427211843431,
      -6.82725731167011e-05,
      -1.0788443088531494,
      0.008807133883237839,
      -0.00078380829654634,
      0.004741014912724495,
      -0.009475581347942352,
      0.0050995429046452045,
      -0.00042368739377707243,
      0.09013435989618301,
      -4.664273001253605e-05,
      0.006068923976272345,
      0.0012093185214325786,
      0.03372839465737343,
      -0.0027205636724829674
    ],
    [
      -5.844531915499829e-05,
      0.00013027347449678928,
      -0.0002289270341861993,
      0.0003823198494501412,
      -0.0001052204315783456,
      0.0002492609200999141,
      -3.2302868930855766e-05,
      1.25563645362854,
      -0.00019465757941361517,
      0.00014705942885484546,
      -0.00037321721902117133,
      0.0005253340932540596,
      -0.0001410963450325653,
      0.00033664549118839204,
      -5.338067126103851e-07,
      0.000261189736193046,
      -0.0003388064505998045,
      -7.951735460665077e-05,
      -0.0003308332525193691,
      0.0003690605517476797
    ],
    [
      -0.00022657332010567188,
      0.0004870656121056527,
      -0.0005561285652220249,
      0.00014641183952335268,
      -3.0233708457672037e-05,
      0.00022872241970617324,
      -1.0266384151691454e-06,
      1.2553526163101196,
      -0.00015077894204296172,
      0.0002319854829693213,
      -0.0003245414118282497,
      0.0004121706879232079,
      -0.0001149130766862072,
      0.0001882765063783154,
      3.076985740335658e-05,
      0.0001546052808407694,
      -0.00037097936728969216,
      -0.00012428400805220008,
      -0.0004191470507066697,
      0.00036993579124100506
    ],
    [
      0.00011280253966106102,
      -0.0005985116586089134,
      0.00021175266010686755,
      -0.0001620765106054023,
      0.00032195585663430393,
      -0.00034189739380963147,
      3.4852018870878965e-05,
      -1.2558960914611816,
      0.00017056505021173507,
      -0.00015149734099395573,
      0.00012121285544708371,
      -0.0003954988205805421,
      0.00016485273954458535,
      -0.00010157918586628512,
      -6.123882485553622e-06,
      -6.866889452794567e-05,
      0.0003442439192440361,
      0.0004176335933152586,
      0.000252854370046407,
      -4.639339749701321e-05
    ],
    [
      -0.00018344371346756816,
      0.00029893239843659103,
      -0.00013827906514052302,
      6.359223334584385e-05,
      -0.0002966838947031647,
      3.781459963647649e-05,
      -1.2977701544514275e-06,
      1.255555510520935,
      -0.00020454231707844883,
      0.00010269183258060366,
      -0.0005371449515223503,
      0.0002227986988145858,
      -0.00020052280160598457,
      0.0004824703501071781,
      1.9005670765182003e-05,
      4.831369369640015e-05,
      -0.0003307003644295037,
      -0.0003037737915292382,
      -0.0003797363897319883,
      0.0005136972758919001
    ],
    [
      0.00046551093691959977,
      -0.00032991732587106526,
      0.0001689530909061432,
      -7.168569572968408e-05,
      4.245166201144457e-05,
      -5.7098652177955955e-05,
      3.9013353671180084e-05,
      -1.2573606967926025,
      1.5889847418293357e-05,
      -5.58604187972378e-05,
      0.00010563404794083908,
      -0.00022302121215034276,
      0.00023372024588752538,
      -2.5081244530156255e-05,
      -1.6185124422918307e-06,
      -3.336953159305267e-05,
      0.00039356842171400785,
      1.006310185402981e-06,
      0.00029599343542940915,
      -9.520152275399596e-07
    ],
    [
      0.00036031444324180484,
      -0.00016667344607412815,
      0.0003860883298330009,
      -0.0003340886323712766,
      0.0006639074417762458,
      -0.00038924894761294127,
      1.5111811080714688e-05,
      -1.254056453704834,
      0.00021240701607894152,
      -0.0002926379384007305,
      0.000645707652438432,
      -0.0003820863785222173,
      0.000211361882975325,
      -0.0004364678170531988,
      -3.126758383587003e-05,
      -0.00011101468408014625,
      0.00047920510405674577,
      0.00033010292099788785,
      0.00037867631181143224,
      -3.827047476079315e-05
    ]
  ],
  "sigmanet.nn.4.bias": [
    -1.2981349229812622
  ],
  "sigmanet.nn.4.weight_orig": [
    [
      -0.004890788812190294,
      -0.0034575434401631355,
      0.002211964689195156,
      -0.005011795554310083,
      -2.116020732501056e-05,
      -0.4496711790561676,
      0.003370343241840601,
      0.002528567099943757,
      -0.0031142544467002153,
      -0.004396925680339336,
      0.010588886216282845,
      0.00019649734895210713,
      0.7499569654464722,
      1.8852877474273555e-05,
      -0.0030284023378044367,
      -0.003896856913343072,
      0.002890548203140497,
      -0.004238378256559372,
      0.004733530804514885,
      0.0016975608887150884
    ]
  ],
  "nominal_cut": 0.9238476953907816
}
