<MethodSetup Method="BDT::BDT"><Variables NVar="31"><Variable VarIndex="0" Type="F" Expression="Dstp_P" Label="Dstp_P" Title="Dstp_P" Unit="" Internal="Dstp_P" Min="0.0e+00" Max="0.0e+00" /><Variable VarIndex="1" Type="F" Expression="Dstp_PT" Label="Dstp_PT" Title="Dstp_PT" Unit="" Internal="Dstp_PT" Min="0.0e+00" Max="0.0e+00" /><Variable VarIndex="2" Type="F" Expression="Dstp_CHI2DOF" Label="Dstp_CHI2DOF" Title="Dstp_CHI2DOF" Unit="" Internal="Dstp_CHI2DOF" Min="0.0e+00" Max="0.0e+00" /><Variable VarIndex="3" Type="F" Expression="DpDs_CHI2DOF" Label="DpDs_CHI2DOF" Title="DpDs_CHI2DOF" Unit="" Internal="DpDs_CHI2DOF" Min="0.0e+00" Max="0.0e+00" /><Variable VarIndex="4" Type="F" Expression="DpDs_P" Label="DpDs_P" Title="DpDs_P" Unit="" Internal="DpDs_P" Min="0.0e+00" Max="0.0e+00" /><Variable VarIndex="5" Type="F" Expression="DpDs_PT" Label="DpDs_PT" Title="DpDs_PT" Unit="" Internal="DpDs_PT" Min="0.0e+00" Max="0.0e+00" /><Variable VarIndex="6" Type="F" Expression="DpDs_BPVDIRA" Label="DpDs_BPVDIRA" Title="DpDs_BPVDIRA" Unit="" Internal="DpDs_BPVDIRA" Min="0.0e+00" Max="0.0e+00" /><Variable VarIndex="7" Type="F" Expression="DpDs_BPVIPCHI2" Label="DpDs_BPVIPCHI2" Title="DpDs_BPVIPCHI2" Unit="" Internal="DpDs_BPVIPCHI2" Min="0.0e+00" Max="0.0e+00" /><Variable VarIndex="8" Type="F" Expression="DpDs_DOCA" Label="DpDs_DOCA" Title="DpDs_DOCA" Unit="" Internal="DpDs_DOCA" Min="0.0e+00" Max="0.0e+00" /><Variable VarIndex="9" Type="F" Expression="Kminus_P" Label="Kminus_P" Title="Kminus_P" Unit="" Internal="Kminus_P" Min="0.0e+00" Max="0.0e+00" /><Variable VarIndex="10" Type="F" Expression="Kminus_PT" Label="Kminus_PT" Title="Kminus_PT" Unit="" Internal="Kminus_PT" Min="0.0e+00" Max="0.0e+00" /><Variable VarIndex="11" Type="F" Expression="Kminus_PID_K" Label="Kminus_PID_K" Title="Kminus_PID_K" Unit="" Internal="Kminus_PID_K" Min="0.0e+00" Max="0.0e+00" /><Variable VarIndex="12" Type="F" Expression="Kminus_MINIPCHI2" Label="Kminus_MINIPCHI2" Title="Kminus_MINIPCHI2" Unit="" Internal="Kminus_MINIPCHI2" Min="0.0e+00" Max="0.0e+00" /><Variable VarIndex="13" Type="F" Expression="Kplus_P" Label="Kplus_P" Title="Kplus_P" Unit="" Internal="Kplus_P" Min="0.0e+00" Max="0.0e+00" /><Variable VarIndex="14" Type="F" Expression="Kplus_PT" Label="Kplus_PT" Title="Kplus_PT" Unit="" Internal="Kplus_PT" Min="0.0e+00" Max="0.0e+00" /><Variable VarIndex="15" Type="F" Expression="Kplus_PID_K" Label="Kplus_PID_K" Title="Kplus_PID_K" Unit="" Internal="Kplus_PID_K" Min="0.0e+00" Max="0.0e+00" /><Variable VarIndex="16" Type="F" Expression="Kplus_MINIPCHI2" Label="Kplus_MINIPCHI2" Title="Kplus_MINIPCHI2" Unit="" Internal="Kplus_MINIPCHI2" Min="0.0e+00" Max="0.0e+00" /><Variable VarIndex="17" Type="F" Expression="piplus_P" Label="piplus_P" Title="piplus_P" Unit="" Internal="piplus_P" Min="0.0e+00" Max="0.0e+00" /><Variable VarIndex="18" Type="F" Expression="piplus_PT" Label="piplus_PT" Title="piplus_PT" Unit="" Internal="piplus_PT" Min="0.0e+00" Max="0.0e+00" /><Variable VarIndex="19" Type="F" Expression="piplus_PID_K" Label="piplus_PID_K" Title="piplus_PID_K" Unit="" Internal="piplus_PID_K" Min="0.0e+00" Max="0.0e+00" /><Variable VarIndex="20" Type="F" Expression="piplus_MINIPCHI2" Label="piplus_MINIPCHI2" Title="piplus_MINIPCHI2" Unit="" Internal="piplus_MINIPCHI2" Min="0.0e+00" Max="0.0e+00" /><Variable VarIndex="21" Type="F" Expression="eplus_P" Label="eplus_P" Title="eplus_P" Unit="" Internal="eplus_P" Min="0.0e+00" Max="0.0e+00" /><Variable VarIndex="22" Type="F" Expression="eplus_PT" Label="eplus_PT" Title="eplus_PT" Unit="" Internal="eplus_PT" Min="0.0e+00" Max="0.0e+00" /><Variable VarIndex="23" Type="F" Expression="eplus_PID_E" Label="eplus_PID_E" Title="eplus_PID_E" Unit="" Internal="eplus_PID_E" Min="0.0e+00" Max="0.0e+00" /><Variable VarIndex="24" Type="F" Expression="eplus_GHOSTPROB" Label="eplus_GHOSTPROB" Title="eplus_GHOSTPROB" Unit="" Internal="eplus_GHOSTPROB" Min="0.0e+00" Max="0.0e+00" /><Variable VarIndex="25" Type="F" Expression="eplus_MINIPCHI2" Label="eplus_MINIPCHI2" Title="eplus_MINIPCHI2" Unit="" Internal="eplus_MINIPCHI2" Min="0.0e+00" Max="0.0e+00" /><Variable VarIndex="26" Type="F" Expression="eminus_P" Label="eminus_P" Title="eminus_P" Unit="" Internal="eminus_P" Min="0.0e+00" Max="0.0e+00" /><Variable VarIndex="27" Type="F" Expression="eminus_PT" Label="eminus_PT" Title="eminus_PT" Unit="" Internal="eminus_PT" Min="0.0e+00" Max="0.0e+00" /><Variable VarIndex="28" Type="F" Expression="eminus_PID_E" Label="eminus_PID_E" Title="eminus_PID_E" Unit="" Internal="eminus_PID_E" Min="0.0e+00" Max="0.0e+00" /><Variable VarIndex="29" Type="F" Expression="eminus_GHOSTPROB" Label="eminus_GHOSTPROB" Title="eminus_GHOSTPROB" Unit="" Internal="eminus_GHOSTPROB" Min="0.0e+00" Max="0.0e+00" /><Variable VarIndex="30" Type="F" Expression="eminus_MINIPCHI2" Label="eminus_MINIPCHI2" Title="eminus_MINIPCHI2" Unit="" Internal="eminus_MINIPCHI2" Min="0.0e+00" Max="0.0e+00" /></Variables><GeneralInfo><Info name="Creator" value="xgboost2TMVA" /><Info name="AnalysisType" value="Classification" /></GeneralInfo><Options><Option name="NodePurityLimit" modified="No">5.00e-01</Option><Option name="BoostType" modified="Yes">Grad</Option></Options><Weights NTrees="100" AnalysisType="1"><BinaryTree type="DecisionTree" boostWeight="1.0e+00" itree="0"><Node pos="s" depth="0" NCoef="0" IVar="20" Cut="12.2239571" cType="1" res="0.0e+00" rms="0.0e+00" purity="0.0e+00" nType="0"><Node pos="l" depth="1" NCoef="0" IVar="6" Cut="0.99999851" cType="1" res="0.0e+00" rms="0.0e+00" purity="0.0e+00" nType="0"><Node pos="l" depth="2" NCoef="0" IVar="5" Cut="4712.87305" cType="1" res="0.0e+00" rms="0.0e+00" purity="0.0e+00" nType="0"><Node pos="l" depth="3" NCoef="0" IVar="26" Cut="1895.89685" cType="1" res="0.0e+00" rms="0.0e+00" purity="0.0e+00" nType="0"><Node pos="l" depth="4" NCoef="0" IVar="-1" Cut="0.0e+00" cType="1" res="-0" rms="0.0e+00" purity="0.0e+00" nType="-99" /><Node pos="r" depth="4" NCoef="0" IVar="19" Cut="-57.2160721" cType="1" res="0.0e+00" rms="0.0e+00" purity="0.0e+00" nType="0"><Node pos="l" depth="5" NCoef="0" IVar="20" Cut="9.90563869" cType="1" res="0.0e+00" rms="0.0e+00" purity="0.0e+00" nType="0"><Node pos="l" depth="6" NCoef="0" IVar="2" Cut="0.0115590123" cType="1" res="0.0e+00" rms="0.0e+00" purity="0.0e+00" nType="0"><Node pos="l" depth="7" NCoef="0" IVar="-1" Cut="0.0e+00" cType="1" res="-0" rms="0.0e+00" purity="0.0e+00" nType="-99" /><Node pos="r" depth="7" NCoef="0" IVar="19" Cut="-61.3040581" cType="1" res="0.0e+00" rms="0.0e+00" purity="0.0e+00" nType="0"><Node pos="l" depth="8" NCoef="0" IVar="-1" Cut="0.0e+00" cType="1" res="-0.169230774" rms="0.0e+00" purity="0.0e+00" nType="-99" /><Node pos="r" depth="8" NCoef="0" IVar="-1" Cut="0.0e+00" cType="1" res="-0.0400000028" rms="0.0e+00" purity="0.0e+00" nType="-99" /></Node></Node><Node pos="r" depth="6" NCoef="0" IVar="-1" Cut="0.0e+00" cType="1" res="0.0666666701" rms="0.0e+00" purity="0.0e+00" nType="-99" /></Node><Node pos="r" depth="5" NCoef="0" IVar="29" Cut="0.0266756117" cType="1" res="0.0e+00" rms="0.0e+00" purity="0.0e+00" nType="0"><Node pos="l" depth="6" NCoef="0" IVar="2" Cut="0.0554938316" cType="1" res="0.0e+00" rms="0.0e+00" purity="0.0e+00" nType="0"><Node pos="l" depth="7" NCoef="0" IVar="-1" Cut="0.0e+00" cType="1" res="0.0500000007" rms="0.0e+00" purity="0.0e+00" nType="-99" /><Node pos="r" depth="7" NCoef="0" IVar="17" Cut="11690.6348" cType="1" res="0.0e+00" rms="0.0e+00" purity="0.0e+00" nType="0"><Node pos="l" depth="8" NCoef="0" IVar="-1" Cut="0.0e+00" cType="1" res="-0" rms="0.0e+00" purity="0.0e+00" nType="-99" /><Node pos="r" depth="8" NCoef="0" IVar="-1" Cut="0.0e+00" cType="1" res="-0.166666672" rms="0.0e+00" purity="0.0e+00" nType="-99" /></Node></Node><Node pos="r" depth="6" NCoef="0" IVar="6" Cut="0.999970078" cType="1" res="0.0e+00" rms="0.0e+00" purity="0.0e+00" nType="0"><Node pos="l" depth="7" NCoef="0" IVar="-1" Cut="0.0e+00" cType="1" res="-0.19741936" rms="0.0e+00" purity="0.0e+00" nType="-99" /><Node pos="r" depth="7" NCoef="0" IVar="24" Cut="0.408117652" cType="1" res="0.0e+00" rms="0.0e+00" purity="0.0e+00" nType="0"><Node pos="l" depth="8" NCoef="0" IVar="25" Cut="0.0612051859" cType="1" res="0.0e+00" rms="0.0e+00" purity="0.0e+00" nType="0"><Node pos="l" depth="9" NCoef="0" IVar="3" Cut="1.67763329" cType="1" res="0.0e+00" rms="0.0e+00" purity="0.0e+00" nType="0"><Node pos="l" depth="10" NCoef="0" IVar="-1" Cut="0.0e+00" cType="1" res="0.0666666701" rms="0.0e+00" purity="0.0e+00" nType="-99" /><Node pos="r" depth="10" NCoef="0" IVar="-1" Cut="0.0e+00" cType="1" res="-0.111111119" rms="0.0e+00" purity="0.0e+00" nType="-99" /></Node><Node pos="r" depth="9" NCoef="0" IVar="20" Cut="5.30798149" cType="1" res="0.0e+00" rms="0.0e+00" purity="0.0e+00" nType="0"><Node pos="l" depth="10" NCoef="0" IVar="-1" Cut="0.0e+00" cType="1" res="-0.176744193" rms="0.0e+00" purity="0.0e+00" nType="-99" /><Node pos="r" depth="10" NCoef="0" IVar="-1" Cut="0.0e+00" cType="1" res="-0.106250003" rms="0.0e+00" purity="0.0e+00" nType="-99" /></Node></Node><Node pos="r" depth="8" NCoef="0" IVar="6" Cut="0.999973416" cType="1" res="0.0e+00" rms="0.0e+00" purity="0.0e+00" nType="0"><Node pos="l" depth="9" NCoef="0" IVar="9" Cut="39021.5625" cType="1" res="0.0e+00" rms="0.0e+00" purity="0.0e+00" nType="0"><Node pos="l" depth="10" NCoef="0" IVar="-1" Cut="0.0e+00" cType="1" res="-0" rms="0.0e+00" purity="0.0e+00" nType="-99" /><Node pos="r" depth="10" NCoef="0" IVar="-1" Cut="0.0e+00" cType="1" res="-0.111111119" rms="0.0e+00" purity="0.0e+00" nType="-99" /></Node><Node pos="r" depth="9" NCoef="0" IVar="30" Cut="0.0248562209" cType="1" res="0.0e+00" rms="0.0e+00" purity="0.0e+00" nType="0"><Node pos="l" depth="10" NCoef="0" IVar="-1" Cut="0.0e+00" cType="1" res="-0.0500000007" rms="0.0e+00" purity="0.0e+00" nType="-99" /><Node pos="r" depth="10" NCoef="0" IVar="-1" Cut="0.0e+00" cType="1" res="-0.192156866" rms="0.0e+00" purity="0.0e+00" nType="-99" /></Node></Node></Node></Node></Node></Node></Node><Node pos="r" depth="3" NCoef="0" IVar="22" Cut="203.716614" cType="1" res="0.0e+00" rms="0.0e+00" purity="0.0e+00" nType="0"><Node pos="l" depth="4" NCoef="0" IVar="19" Cut="-36.2858162" cType="1" res="0.0e+00" rms="0.0e+00" purity="0.0e+00" nType="0"><Node pos="l" depth="5" NCoef="0" IVar="13" Cut="39473.1797" cType="1" res="0.0e+00" rms="0.0e+00" purity="0.0e+00" nType="0"><Node pos="l" depth="6" NCoef="0" IVar="-1" Cut="0.0e+00" cType="1" res="0.0500000007" rms="0.0e+00" purity="0.0e+00" nType="-99" /><Node pos="r" depth="6" NCoef="0" IVar="-1" Cut="0.0e+00" cType="1" res="-0.111111119" rms="0.0e+00" purity="0.0e+00" nType="-99" /></Node><Node pos="r" depth="5" NCoef="0" IVar="5" Cut="9572.57617" cType="1" res="0.0e+00" rms="0.0e+00" purity="0.0e+00" nType="0"><Node pos="l" depth="6" NCoef="0" IVar="-1" Cut="0.0e+00" cType="1" res="-0.187096775" rms="0.0e+00" purity="0.0e+00" nType="-99" /><Node pos="r" depth="6" NCoef="0" IVar="-1" Cut="0.0e+00" cType="1" res="-0.0500000007" rms="0.0e+00" purity="0.0e+00" nType="-99" /></Node></Node><Node pos="r" depth="4" NCoef="0" IVar="9" Cut="78859.875" cType="1" res="0.0e+00" rms="0.0e+00" purity="0.0e+00" nType="0"><Node pos="l" depth="5" NCoef="0" IVar="3" Cut="2.86682034" cType="1" res="0.0e+00" rms="0.0e+00" purity="0.0e+00" nType="0"><Node pos="l" depth="6" NCoef="0" IVar="10" Cut="865.720276" cType="1" res="0.0e+00" rms="0.0e+00" purity="0.0e+00" nType="0"><Node pos="l" depth="7" NCoef="0" IVar="-1" Cut="0.0e+00" cType="1" res="-0.0500000007" rms="0.0e+00" purity="0.0e+00" nType="-99" /><Node pos="r" depth="7" NCoef="0" IVar="2" Cut="4.00945187" cType="1" res="0.0e+00" rms="0.0e+00" purity="0.0e+00" nType="0"><Node pos="l" depth="8" NCoef="0" IVar="-1" Cut="0.0e+00" cType="1" res="0.175757572" rms="0.0e+00" purity="0.0e+00" nType="-99" /><Node pos="r" depth="8" NCoef="0" IVar="-1" Cut="0.0e+00" cType="1" res="0.0400000028" rms="0.0e+00" purity="0.0e+00" nType="-99" /></Node></Node><Node pos="r" depth="6" NCoef="0" IVar="-1" Cut="0.0e+00" cType="1" res="-0.0909090936" rms="0.0e+00" purity="0.0e+00" nType="-99" /></Node><Node pos="r" depth="5" NCoef="0" IVar="3" Cut="0.962728739" cType="1" res="0.0e+00" rms="0.0e+00" purity="0.0e+00" nType="0"><Node pos="l" depth="6" NCoef="0" IVar="-1" Cut="0.0e+00" cType="1" res="0.0500000007" rms="0.0e+00" purity="0.0e+00" nType="-99" /><Node pos="r" depth="6" NCoef="0" IVar="-1" Cut="0.0e+00" cType="1" res="-0.145454556" rms="0.0e+00" purity="0.0e+00" nType="-99" /></Node></Node></Node></Node><Node pos="r" depth="2" NCoef="0" IVar="10" Cut="454.950897" cType="1" res="0.0e+00" rms="0.0e+00" purity="0.0e+00" nType="0"><Node pos="l" depth="3" NCoef="0" IVar="-1" Cut="0.0e+00" cType="1" res="-0.150000006" rms="0.0e+00" purity="0.0e+00" nType="-99" /><Node pos="r" depth="3" NCoef="0" IVar="18" Cut="233.235046" cType="1" res="0.0e+00" rms="0.0e+00" purity="0.0e+00" nType="0"><Node pos="l" depth="4" NCoef="0" IVar="-1" Cut="0.0e+00" cType="1" res="-0.100000001" rms="0.0e+00" purity="0.0e+00" nType="-99" /><Node pos="r" depth="4" NCoef="0" IVar="29" Cut="0.68646121" cType="1" res="0.0e+00" rms="0.0e+00" purity="0.0e+00" nType="0"><Node pos="l" depth="5" NCoef="0" IVar="9" Cut="116985.094" cType="1" res="0.0e+00" rms="0.0e+00" purity="0.0e+00" nType="0"><Node pos="l" depth="6" NCoef="0" IVar="7" Cut="0.0399280228" cType="1" res="0.0e+00" rms="0.0e+00" purity="0.0e+00" nType="0"><Node pos="l" depth="7" NCoef="0" IVar="-1" Cut="0.0e+00" cType="1" res="-0.0500000007" rms="0.0e+00" purity="0.0e+00" nType="-99" /><Node pos="r" depth="7" NCoef="0" IVar="21" Cut="14324.7988" cType="1" res="0.0e+00" rms="0.0e+00" purity="0.0e+00" nType="0"><Node pos="l" depth="8" NCoef="0" IVar="2" Cut="0.0863645896" cType="1" res="0.0e+00" rms="0.0e+00" purity="0.0e+00" nType="0"><Node pos="l" depth="9" NCoef="0" IVar="-1" Cut="0.0e+00" cType="1" res="0.0400000028" rms="0.0e+00" purity="0.0e+00" nType="-99" /><Node pos="r" depth="9" NCoef="0" IVar="21" Cut="2466.70166" cType="1" res="0.0e+00" rms="0.0e+00" purity="0.0e+00" nType="0"><Node pos="l" depth="10" NCoef="0" IVar="-1" Cut="0.0e+00" cType="1" res="0.0500000007" rms="0.0e+00" purity="0.0e+00" nType="-99" /><Node pos="r" depth="10" NCoef="0" IVar="-1" Cut="0.0e+00" cType="1" res="0.184313729" rms="0.0e+00" purity="0.0e+00" nType="-99" /></Node></Node><Node pos="r" depth="8" NCoef="0" IVar="-1" Cut="0.0e+00" cType="1" res="-0.0222222228" rms="0.0e+00" purity="0.0e+00" nType="-99" /></Node></Node><Node pos="r" depth="6" NCoef="0" IVar="-1" Cut="0.0e+00" cType="1" res="-0.0545454584" rms="0.0e+00" purity="0.0e+00" nType="-99" /></Node><Node pos="r" depth="5" NCoef="0" IVar="3" Cut="1.05378926" cType="1" res="0.0e+00" rms="0.0e+00" purity="0.0e+00" nType="0"><Node pos="l" depth="6" NCoef="0" IVar="-1" Cut="0.0e+00" cType="1" res="0.0909090936" rms="0.0e+00" purity="0.0e+00" nType="-99" /><Node pos="r" depth="6" NCoef="0" IVar="-1" Cut="0.0e+00" cType="1" res="-0.13333334" rms="0.0e+00" purity="0.0e+00" nType="-99" /></Node></Node></Node></Node></Node><Node pos="r" depth="1" NCoef="0" IVar="6" Cut="0.999992132" cType="1" res="0.0e+00" rms="0.0e+00" purity="0.0e+00" nType="0"><Node pos="l" depth="2" NCoef="0" IVar="27" Cut="214.943039" cType="1" res="0.0e+00" rms="0.0e+00" purity="0.0e+00" nType="0"><Node pos="l" depth="3" NCoef="0" IVar="6" Cut="0.99998194" cType="1" res="0.0e+00" rms="0.0e+00" purity="0.0e+00" nType="0"><Node pos="l" depth="4" NCoef="0" IVar="19" Cut="-78.6970215" cType="1" res="0.0e+00" rms="0.0e+00" purity="0.0e+00" nType="0"><Node pos="l" depth="5" NCoef="0" IVar="-1" Cut="0.0e+00" cType="1" res="-0" rms="0.0e+00" purity="0.0e+00" nType="-99" /><Node pos="r" depth="5" NCoef="0" IVar="3" Cut="0.646318913" cType="1" res="0.0e+00" rms="0.0e+00" purity="0.0e+00" nType="0"><Node pos="l" depth="6" NCoef="0" IVar="-1" Cut="0.0e+00" cType="1" res="-0.0500000007" rms="0.0e+00" purity="0.0e+00" nType="-99" /><Node pos="r" depth="6" NCoef="0" IVar="-1" Cut="0.0e+00" cType="1" res="-0.182978734" rms="0.0e+00" purity="0.0e+00" nType="-99" /></Node></Node><Node pos="r" depth="4" NCoef="0" IVar="25" Cut="0.50331825" cType="1" res="0.0e+00" rms="0.0e+00" purity="0.0e+00" nType="0"><Node pos="l" depth="5" NCoef="0" IVar="3" Cut="0.688669205" cType="1" res="0.0e+00" rms="0.0e+00" purity="0.0e+00" nType="0"><Node pos="l" depth="6" NCoef="0" IVar="-1" Cut="0.0e+00" cType="1" res="-0" rms="0.0e+00" purity="0.0e+00" nType="-99" /><Node pos="r" depth="6" NCoef="0" IVar="-1" Cut="0.0e+00" cType="1" res="-0.142857149" rms="0.0e+00" purity="0.0e+00" nType="-99" /></Node><Node pos="r" depth="5" NCoef="0" IVar="18" Cut="598.630249" cType="1" res="0.0e+00" rms="0.0e+00" purity="0.0e+00" nType="0"><Node pos="l" depth="6" NCoef="0" IVar="-1" Cut="0.0e+00" cType="1" res="-0.0400000028" rms="0.0e+00" purity="0.0e+00" nType="-99" /><Node pos="r" depth="6" NCoef="0" IVar="-1" Cut="0.0e+00" cType="1" res="0.129411772" rms="0.0e+00" purity="0.0e+00" nType="-99" /></Node></Node></Node><Node pos="r" depth="3" NCoef="0" IVar="3" Cut="3.18168068" cType="1" res="0.0e+00" rms="0.0e+00" purity="0.0e+00" nType="0"><Node pos="l" depth="4" NCoef="0" IVar="6" Cut="0.99995923" cType="1" res="0.0e+00" rms="0.0e+00" purity="0.0e+00" nType="0"><Node pos="l" depth="5" NCoef="0" IVar="-1" Cut="0.0e+00" cType="1" res="-0.0400000028" rms="0.0e+00" purity="0.0e+00" nType="-99" /><Node pos="r" depth="5" NCoef="0" IVar="8" Cut="0.0467802621" cType="1" res="0.0e+00" rms="0.0e+00" purity="0.0e+00" nType="0"><Node pos="l" depth="6" NCoef="0" IVar="-1" Cut="0.0e+00" cType="1" res="0.174999997" rms="0.0e+00" purity="0.0e+00" nType="-99" /><Node pos="r" depth="6" NCoef="0" IVar="-1" Cut="0.0e+00" cType="1" res="0.0222222228" rms="0.0e+00" purity="0.0e+00" nType="-99" /></Node></Node><Node pos="r" depth="4" NCoef="0" IVar="-1" Cut="0.0e+00" cType="1" res="-0.0909090936" rms="0.0e+00" purity="0.0e+00" nType="-99" /></Node></Node><Node pos="r" depth="2" NCoef="0" IVar="10" Cut="419.216125" cType="1" res="0.0e+00" rms="0.0e+00" purity="0.0e+00" nType="0"><Node pos="l" depth="3" NCoef="0" IVar="9" Cut="15491" cType="1" res="0.0e+00" rms="0.0e+00" purity="0.0e+00" nType="0"><Node pos="l" depth="4" NCoef="0" IVar="-1" Cut="0.0e+00" cType="1" res="-0.155555561" rms="0.0e+00" purity="0.0e+00" nType="-99" /><Node pos="r" depth="4" NCoef="0" IVar="-1" Cut="0.0e+00" cType="1" res="0.0222222228" rms="0.0e+00" purity="0.0e+00" nType="-99" /></Node><Node pos="r" depth="3" NCoef="0" IVar="14" Cut="554.119751" cType="1" res="0.0e+00" rms="0.0e+00" purity="0.0e+00" nType="0"><Node pos="l" depth="4" NCoef="0" IVar="6" Cut="0.999997854" cType="1" res="0.0e+00" rms="0.0e+00" purity="0.0e+00" nType="0"><Node pos="l" depth="5" NCoef="0" IVar="20" Cut="74.0075836" cType="1" res="0.0e+00" rms="0.0e+00" purity="0.0e+00" nType="0"><Node pos="l" depth="6" NCoef="0" IVar="-1" Cut="0.0e+00" cType="1" res="-0.142857149" rms="0.0e+00" purity="0.0e+00" nType="-99" /><Node pos="r" depth="6" NCoef="0" IVar="-1" Cut="0.0e+00" cType="1" res="-0" rms="0.0e+00" purity="0.0e+00" nType="-99" /></Node><Node pos="r" depth="5" NCoef="0" IVar="10" Cut="2179.75977" cType="1" res="0.0e+00" rms="0.0e+00" purity="0.0e+00" nType="0"><Node pos="l" depth="6" NCoef="0" IVar="-1" Cut="0.0e+00" cType="1" res="0.140000001" rms="0.0e+00" purity="0.0e+00" nType="-99" /><Node pos="r" depth="6" NCoef="0" IVar="23" Cut="3.30202627" cType="1" res="0.0e+00" rms="0.0e+00" purity="0.0e+00" nType="0"><Node pos="l" depth="7" NCoef="0" IVar="-1" Cut="0.0e+00" cType="1" res="-0.111111119" rms="0.0e+00" purity="0.0e+00" nType="-99" /><Node pos="r" depth="7" NCoef="0" IVar="-1" Cut="0.0e+00" cType="1" res="0.0500000007" rms="0.0e+00" purity="0.0e+00" nType="-99" /></Node></Node></Node><Node pos="r" depth="4" NCoef="0" IVar="17" Cut="199565.438" cType="1" res="0.0e+00" rms="0.0e+00" purity="0.0e+00" nType="0"><Node pos="l" depth="5" NCoef="0" IVar="5" Cut="2403.77441" cType="1" res="0.0e+00" rms="0.0e+00" purity="0.0e+00" nType="0"><Node pos="l" depth="6" NCoef="0" IVar="23" Cut="3.88365698" cType="1" res="0.0e+00" rms="0.0e+00" purity="0.0e+00" nType="0"><Node pos="l" depth="7" NCoef="0" IVar="9" Cut="32606.2012" cType="1" res="0.0e+00" rms="0.0e+00" purity="0.0e+00" nType="0"><Node pos="l" depth="8" NCoef="0" IVar="-1" Cut="0.0e+00" cType="1" res="0.0500000007" rms="0.0e+00" purity="0.0e+00" nType="-99" /><Node pos="r" depth="8" NCoef="0" IVar="-1" Cut="0.0e+00" cType="1" res="-0.120000005" rms="0.0e+00" purity="0.0e+00" nType="-99" /></Node><Node pos="r" depth="7" NCoef="0" IVar="-1" Cut="0.0e+00" cType="1" res="0.127272725" rms="0.0e+00" purity="0.0e+00" nType="-99" /></Node><Node pos="r" depth="6" NCoef="0" IVar="13" Cut="88268.3047" cType="1" res="0.0e+00" rms="0.0e+00" purity="0.0e+00" nType="0"><Node pos="l" depth="7" NCoef="0" IVar="10" Cut="478.891174" cType="1" res="0.0e+00" rms="0.0e+00" purity="0.0e+00" nType="0"><Node pos="l" depth="8" NCoef="0" IVar="-1" Cut="0.0e+00" cType="1" res="0.0545454584" rms="0.0e+00" purity="0.0e+00" nType="-99" /><Node pos="r" depth="8" NCoef="0" IVar="29" Cut="0.923978806" cType="1" res="0.0e+00" rms="0.0e+00" purity="0.0e+00" nType="0"><Node pos="l" depth="9" NCoef="0" IVar="22" Cut="63.3412552" cType="1" res="0.0e+00" rms="0.0e+00" purity="0.0e+00" nType="0"><Node pos="l" depth="10" NCoef="0" IVar="-1" Cut="0.0e+00" cType="1" res="0.0823529437" rms="0.0e+00" purity="0.0e+00" nType="-99" /><Node pos="r" depth="10" NCoef="0" IVar="-1" Cut="0.0e+00" cType="1" res="0.194630876" rms="0.0e+00" purity="0.0e+00" nType="-99" /></Node><Node pos="r" depth="9" NCoef="0" IVar="18" Cut="1014.19678" cType="1" res="0.0e+00" rms="0.0e+00" purity="0.0e+00" nType="0"><Node pos="l" depth="10" NCoef="0" IVar="-1" Cut="0.0e+00" cType="1" res="-0.0181818195" rms="0.0e+00" purity="0.0e+00" nType="-99" /><Node pos="r" depth="10" NCoef="0" IVar="-1" Cut="0.0e+00" cType="1" res="0.155555561" rms="0.0e+00" purity="0.0e+00" nType="-99" /></Node></Node></Node><Node pos="r" depth="7" NCoef="0" IVar="30" Cut="4.76195908" cType="1" res="0.0e+00" rms="0.0e+00" purity="0.0e+00" nType="0"><Node pos="l" depth="8" NCoef="0" IVar="10" Cut="897.749512" cType="1" res="0.0e+00" rms="0.0e+00" purity="0.0e+00" nType="0"><Node pos="l" depth="9" NCoef="0" IVar="-1" Cut="0.0e+00" cType="1" res="-0.0222222228" rms="0.0e+00" purity="0.0e+00" nType="-99" /><Node pos="r" depth="9" NCoef="0" IVar="19" Cut="-58.4171295" cType="1" res="0.0e+00" rms="0.0e+00" purity="0.0e+00" nType="0"><Node pos="l" depth="10" NCoef="0" IVar="-1" Cut="0.0e+00" cType="1" res="-0" rms="0.0e+00" purity="0.0e+00" nType="-99" /><Node pos="r" depth="10" NCoef="0" IVar="-1" Cut="0.0e+00" cType="1" res="0.179220781" rms="0.0e+00" purity="0.0e+00" nType="-99" /></Node></Node><Node pos="r" depth="8" NCoef="0" IVar="17" Cut="20473.8555" cType="1" res="0.0e+00" rms="0.0e+00" purity="0.0e+00" nType="0"><Node pos="l" depth="9" NCoef="0" IVar="-1" Cut="0.0e+00" cType="1" res="0.127272725" rms="0.0e+00" purity="0.0e+00" nType="-99" /><Node pos="r" depth="9" NCoef="0" IVar="3" Cut="1.11331296" cType="1" res="0.0e+00" rms="0.0e+00" purity="0.0e+00" nType="0"><Node pos="l" depth="10" NCoef="0" IVar="-1" Cut="0.0e+00" cType="1" res="-0" rms="0.0e+00" purity="0.0e+00" nType="-99" /><Node pos="r" depth="10" NCoef="0" IVar="-1" Cut="0.0e+00" cType="1" res="-0.111111119" rms="0.0e+00" purity="0.0e+00" nType="-99" /></Node></Node></Node></Node></Node><Node pos="r" depth="5" NCoef="0" IVar="-1" Cut="0.0e+00" cType="1" res="-0.0400000028" rms="0.0e+00" purity="0.0e+00" nType="-99" /></Node></Node></Node></Node></Node></BinaryTree><BinaryTree type="DecisionTree" boostWeight="1.0e+00" itree="1"><Node pos="s" depth="0" NCoef="0" IVar="20" Cut="11.807745" cType="1" res="0.0e+00" rms="0.0e+00" purity="0.0e+00" nType="0"><Node pos="l" depth="1" NCoef="0" IVar="16" Cut="15.8084946" cType="1" res="0.0e+00" rms="0.0e+00" purity="0.0e+00" nType="0"><Node pos="l" depth="2" NCoef="0" IVar="18" Cut="3146.17603" cType="1" res="0.0e+00" rms="0.0e+00" purity="0.0e+00" nType="0"><Node pos="l" depth="3" NCoef="0" IVar="12" Cut="10.9044685" cType="1" res="0.0e+00" rms="0.0e+00" purity="0.0e+00" nType="0"><Node pos="l" depth="4" NCoef="0" IVar="11" Cut="26.7180595" cType="1" res="0.0e+00" rms="0.0e+00" purity="0.0e+00" nType="0"><Node pos="l" depth="5" NCoef="0" IVar="-1" Cut="0.0e+00" cType="1" res="-0.180546686" rms="0.0e+00" purity="0.0e+00" nType="-99" /><Node pos="r" depth="5" NCoef="0" IVar="14" Cut="3008.67578" cType="1" res="0.0e+00" rms="0.0e+00" purity="0.0e+00" nType="0"><Node pos="l" depth="6" NCoef="0" IVar="20" Cut="9.83688736" cType="1" res="0.0e+00" rms="0.0e+00" purity="0.0e+00" nType="0"><Node pos="l" depth="7" NCoef="0" IVar="-1" Cut="0.0e+00" cType="1" res="-0.163941085" rms="0.0e+00" purity="0.0e+00" nType="-99" /><Node pos="r" depth="7" NCoef="0" IVar="-1" Cut="0.0e+00" cType="1" res="0.0238311812" rms="0.0e+00" purity="0.0e+00" nType="-99" /></Node><Node pos="r" depth="6" NCoef="0" IVar="-1" Cut="0.0e+00" cType="1" res="0.0376865529" rms="0.0e+00" purity="0.0e+00" nType="-99" /></Node></Node><Node pos="r" depth="4" NCoef="0" IVar="1" Cut="4015.68579" cType="1" res="0.0e+00" rms="0.0e+00" purity="0.0e+00" nType="0"><Node pos="l" depth="5" NCoef="0" IVar="11" Cut="35.6199417" cType="1" res="0.0e+00" rms="0.0e+00" purity="0.0e+00" nType="0"><Node pos="l" depth="6" NCoef="0" IVar="-1" Cut="0.0e+00" cType="1" res="-0.173035815" rms="0.0e+00" purity="0.0e+00" nType="-99" /><Node pos="r" depth="6" NCoef="0" IVar="16" Cut="4.40172958" cType="1" res="0.0e+00" rms="0.0e+00" purity="0.0e+00" nType="0"><Node pos="l" depth="7" NCoef="0" IVar="-1" Cut="0.0e+00" cType="1" res="-0.10945449" rms="0.0e+00" purity="0.0e+00" nType="-99" /><Node pos="r" depth="7" NCoef="0" IVar="-1" Cut="0.0e+00" cType="1" res="0.0433082841" rms="0.0e+00" purity="0.0e+00" nType="-99" /></Node></Node><Node pos="r" depth="5" NCoef="0" IVar="3" Cut="1.89493644" cType="1" res="0.0e+00" rms="0.0e+00" purity="0.0e+00" nType="0"><Node pos="l" depth="6" NCoef="0" IVar="11" Cut="4.27786827" cType="1" res="0.0e+00" rms="0.0e+00" purity="0.0e+00" nType="0"><Node pos="l" depth="7" NCoef="0" IVar="-1" Cut="0.0e+00" cType="1" res="-0.0587409548" rms="0.0e+00" purity="0.0e+00" nType="-99" /><Node pos="r" depth="7" NCoef="0" IVar="17" Cut="22214.0918" cType="1" res="0.0e+00" rms="0.0e+00" purity="0.0e+00" nType="0"><Node pos="l" depth="8" NCoef="0" IVar="-1" Cut="0.0e+00" cType="1" res="0.0343251489" rms="0.0e+00" purity="0.0e+00" nType="-99" /><Node pos="r" depth="8" NCoef="0" IVar="-1" Cut="0.0e+00" cType="1" res="0.144730717" rms="0.0e+00" purity="0.0e+00" nType="-99" /></Node></Node><Node pos="r" depth="6" NCoef="0" IVar="-1" Cut="0.0e+00" cType="1" res="-0.125552997" rms="0.0e+00" purity="0.0e+00" nType="-99" /></Node></Node></Node><Node pos="r" depth="3" NCoef="0" IVar="24" Cut="0.220028013" cType="1" res="0.0e+00" rms="0.0e+00" purity="0.0e+00" nType="0"><Node pos="l" depth="4" NCoef="0" IVar="22" Cut="538.310059" cType="1" res="0.0e+00" rms="0.0e+00" purity="0.0e+00" nType="0"><Node pos="l" depth="5" NCoef="0" IVar="-1" Cut="0.0e+00" cType="1" res="0.132335588" rms="0.0e+00" purity="0.0e+00" nType="-99" /><Node pos="r" depth="5" NCoef="0" IVar="-1" Cut="0.0e+00" cType="1" res="0.01860727" rms="0.0e+00" purity="0.0e+00" nType="-99" /></Node><Node pos="r" depth="4" NCoef="0" IVar="8" Cut="0.0152496193" cType="1" res="0.0e+00" rms="0.0e+00" purity="0.0e+00" nType="0"><Node pos="l" depth="5" NCoef="0" IVar="-1" Cut="0.0e+00" cType="1" res="-0.107371412" rms="0.0e+00" purity="0.0e+00" nType="-99" /><Node pos="r" depth="5" NCoef="0" IVar="-1" Cut="0.0e+00" cType="1" res="-0.0207709875" rms="0.0e+00" purity="0.0e+00" nType="-99" /></Node></Node></Node><Node pos="r" depth="2" NCoef="0" IVar="12" Cut="8.32273102" cType="1" res="0.0e+00" rms="0.0e+00" purity="0.0e+00" nType="0"><Node pos="l" depth="3" NCoef="0" IVar="18" Cut="2542.79736" cType="1" res="0.0e+00" rms="0.0e+00" purity="0.0e+00" nType="0"><Node pos="l" depth="4" NCoef="0" IVar="22" Cut="175.440186" cType="1" res="0.0e+00" rms="0.0e+00" purity="0.0e+00" nType="0"><Node pos="l" depth="5" NCoef="0" IVar="-1" Cut="0.0e+00" cType="1" res="-0.155460283" rms="0.0e+00" purity="0.0e+00" nType="-99" /><Node pos="r" depth="5" NCoef="0" IVar="3" Cut="2.64592075" cType="1" res="0.0e+00" rms="0.0e+00" purity="0.0e+00" nType="0"><Node pos="l" depth="6" NCoef="0" IVar="-1" Cut="0.0e+00" cType="1" res="0.0463548861" rms="0.0e+00" purity="0.0e+00" nType="-99" /><Node pos="r" depth="6" NCoef="0" IVar="-1" Cut="0.0e+00" cType="1" res="-0.116179191" rms="0.0e+00" purity="0.0e+00" nType="-99" /></Node></Node><Node pos="r" depth="4" NCoef="0" IVar="-1" Cut="0.0e+00" cType="1" res="0.0522932298" rms="0.0e+00" purity="0.0e+00" nType="-99" /></Node><Node pos="r" depth="3" NCoef="0" IVar="22" Cut="114.367744" cType="1" res="0.0e+00" rms="0.0e+00" purity="0.0e+00" nType="0"><Node pos="l" depth="4" NCoef="0" IVar="2" Cut="1.55609369" cType="1" res="0.0e+00" rms="0.0e+00" purity="0.0e+00" nType="0"><Node pos="l" depth="5" NCoef="0" IVar="22" Cut="60.2395287" cType="1" res="0.0e+00" rms="0.0e+00" purity="0.0e+00" nType="0"><Node pos="l" depth="6" NCoef="0" IVar="-1" Cut="0.0e+00" cType="1" res="-0.037276227" rms="0.0e+00" purity="0.0e+00" nType="-99" /><Node pos="r" depth="6" NCoef="0" IVar="28" Cut="3.35997009" cType="1" res="0.0e+00" rms="0.0e+00" purity="0.0e+00" nType="0"><Node pos="l" depth="7" NCoef="0" IVar="-1" Cut="0.0e+00" cType="1" res="0.130981743" rms="0.0e+00" purity="0.0e+00" nType="-99" /><Node pos="r" depth="7" NCoef="0" IVar="-1" Cut="0.0e+00" cType="1" res="0.0220732708" rms="0.0e+00" purity="0.0e+00" nType="-99" /></Node></Node><Node pos="r" depth="5" NCoef="0" IVar="-1" Cut="0.0e+00" cType="1" res="-0.123913802" rms="0.0e+00" purity="0.0e+00" nType="-99" /></Node><Node pos="r" depth="4" NCoef="0" IVar="1" Cut="3046.29297" cType="1" res="0.0e+00" rms="0.0e+00" purity="0.0e+00" nType="0"><Node pos="l" depth="5" NCoef="0" IVar="-1" Cut="0.0e+00" cType="1" res="-0.0247803461" rms="0.0e+00" purity="0.0e+00" nType="-99" /><Node pos="r" depth="5" NCoef="0" IVar="3" Cut="2.95664215" cType="1" res="0.0e+00" rms="0.0e+00" purity="0.0e+00" nType="0"><Node pos="l" depth="6" NCoef="0" IVar="-1" Cut="0.0e+00" cType="1" res="0.180573672" rms="0.0e+00" purity="0.0e+00" nType="-99" /><Node pos="r" depth="6" NCoef="0" IVar="-1" Cut="0.0e+00" cType="1" res="0.0199686456" rms="0.0e+00" purity="0.0e+00" nType="-99" /></Node></Node></Node></Node></Node><Node pos="r" depth="1" NCoef="0" IVar="6" Cut="0.999992192" cType="1" res="0.0e+00" rms="0.0e+00" purity="0.0e+00" nType="0"><Node pos="l" depth="2" NCoef="0" IVar="11" Cut="23.7440987" cType="1" res="0.0e+00" rms="0.0e+00" purity="0.0e+00" nType="0"><Node pos="l" depth="3" NCoef="0" IVar="24" Cut="0.0548856556" cType="1" res="0.0e+00" rms="0.0e+00" purity="0.0e+00" nType="0"><Node pos="l" depth="4" NCoef="0" IVar="-1" Cut="0.0e+00" cType="1" res="0.0621637069" rms="0.0e+00" purity="0.0e+00" nType="-99" /><Node pos="r" depth="4" NCoef="0" IVar="12" Cut="12.1690674" cType="1" res="0.0e+00" rms="0.0e+00" purity="0.0e+00" nType="0"><Node pos="l" depth="5" NCoef="0" IVar="-1" Cut="0.0e+00" cType="1" res="-0.170486674" rms="0.0e+00" purity="0.0e+00" nType="-99" /><Node pos="r" depth="5" NCoef="0" IVar="-1" Cut="0.0e+00" cType="1" res="-0.00205637212" rms="0.0e+00" purity="0.0e+00" nType="-99" /></Node></Node><Node pos="r" depth="3" NCoef="0" IVar="8" Cut="0.0441398919" cType="1" res="0.0e+00" rms="0.0e+00" purity="0.0e+00" nType="0"><Node pos="l" depth="4" NCoef="0" IVar="14" Cut="577.324951" cType="1" res="0.0e+00" rms="0.0e+00" purity="0.0e+00" nType="0"><Node pos="l" depth="5" NCoef="0" IVar="-1" Cut="0.0e+00" cType="1" res="-0.0380782336" rms="0.0e+00" purity="0.0e+00" nType="-99" /><Node pos="r" depth="5" NCoef="0" IVar="24" Cut="0.520671427" cType="1" res="0.0e+00" rms="0.0e+00" purity="0.0e+00" nType="0"><Node pos="l" depth="6" NCoef="0" IVar="-1" Cut="0.0e+00" cType="1" res="0.171012759" rms="0.0e+00" purity="0.0e+00" nType="-99" /><Node pos="r" depth="6" NCoef="0" IVar="-1" Cut="0.0e+00" cType="1" res="0.0656625181" rms="0.0e+00" purity="0.0e+00" nType="-99" /></Node></Node><Node pos="r" depth="4" NCoef="0" IVar="11" Cut="51.2447014" cType="1" res="0.0e+00" rms="0.0e+00" purity="0.0e+00" nType="0"><Node pos="l" depth="5" NCoef="0" IVar="-1" Cut="0.0e+00" cType="1" res="-0.135624975" rms="0.0e+00" purity="0.0e+00" nType="-99" /><Node pos="r" depth="5" NCoef="0" IVar="-1" Cut="0.0e+00" cType="1" res="0.0210951418" rms="0.0e+00" purity="0.0e+00" nType="-99" /></Node></Node></Node><Node pos="r" depth="2" NCoef="0" IVar="10" Cut="505.709442" cType="1" res="0.0e+00" rms="0.0e+00" purity="0.0e+00" nType="0"><Node pos="l" depth="3" NCoef="0" IVar="9" Cut="17265.2148" cType="1" res="0.0e+00" rms="0.0e+00" purity="0.0e+00" nType="0"><Node pos="l" depth="4" NCoef="0" IVar="-1" Cut="0.0e+00" cType="1" res="-0.138926193" rms="0.0e+00" purity="0.0e+00" nType="-99" /><Node pos="r" depth="4" NCoef="0" IVar="10" Cut="434.333923" cType="1" res="0.0e+00" rms="0.0e+00" purity="0.0e+00" nType="0"><Node pos="l" depth="5" NCoef="0" IVar="-1" Cut="0.0e+00" cType="1" res="0.108283632" rms="0.0e+00" purity="0.0e+00" nType="-99" /><Node pos="r" depth="5" NCoef="0" IVar="-1" Cut="0.0e+00" cType="1" res="0.0177189521" rms="0.0e+00" purity="0.0e+00" nType="-99" /></Node></Node><Node pos="r" depth="3" NCoef="0" IVar="14" Cut="550.67981" cType="1" res="0.0e+00" rms="0.0e+00" purity="0.0e+00" nType="0"><Node pos="l" depth="4" NCoef="0" IVar="16" Cut="19.8286438" cType="1" res="0.0e+00" rms="0.0e+00" purity="0.0e+00" nType="0"><Node pos="l" depth="5" NCoef="0" IVar="18" Cut="1455.47583" cType="1" res="0.0e+00" rms="0.0e+00" purity="0.0e+00" nType="0"><Node pos="l" depth="6" NCoef="0" IVar="-1" Cut="0.0e+00" cType="1" res="-0.150508687" rms="0.0e+00" purity="0.0e+00" nType="-99" /><Node pos="r" depth="6" NCoef="0" IVar="-1" Cut="0.0e+00" cType="1" res="-0.000473994616" rms="0.0e+00" purity="0.0e+00" nType="-99" /></Node><Node pos="r" depth="5" NCoef="0" IVar="27" Cut="120.874054" cType="1" res="0.0e+00" rms="0.0e+00" purity="0.0e+00" nType="0"><Node pos="l" depth="6" NCoef="0" IVar="-1" Cut="0.0e+00" cType="1" res="-0.0225552972" rms="0.0e+00" purity="0.0e+00" nType="-99" /><Node pos="r" depth="6" NCoef="0" IVar="-1" Cut="0.0e+00" cType="1" res="0.130695015" rms="0.0e+00" purity="0.0e+00" nType="-99" /></Node></Node><Node pos="r" depth="4" NCoef="0" IVar="4" Cut="349165.688" cType="1" res="0.0e+00" rms="0.0e+00" purity="0.0e+00" nType="0"><Node pos="l" depth="5" NCoef="0" IVar="1" Cut="2414.08154" cType="1" res="0.0e+00" rms="0.0e+00" purity="0.0e+00" nType="0"><Node pos="l" depth="6" NCoef="0" IVar="-1" Cut="0.0e+00" cType="1" res="-0.0395232104" rms="0.0e+00" purity="0.0e+00" nType="-99" /><Node pos="r" depth="6" NCoef="0" IVar="11" Cut="2.44512415" cType="1" res="0.0e+00" rms="0.0e+00" purity="0.0e+00" nType="0"><Node pos="l" depth="7" NCoef="0" IVar="9" Cut="64065.3945" cType="1" res="0.0e+00" rms="0.0e+00" purity="0.0e+00" nType="0"><Node pos="l" depth="8" NCoef="0" IVar="-1" Cut="0.0e+00" cType="1" res="-0.0515409708" rms="0.0e+00" purity="0.0e+00" nType="-99" /><Node pos="r" depth="8" NCoef="0" IVar="2" Cut="2.52934027" cType="1" res="0.0e+00" rms="0.0e+00" purity="0.0e+00" nType="0"><Node pos="l" depth="9" NCoef="0" IVar="18" Cut="463.151367" cType="1" res="0.0e+00" rms="0.0e+00" purity="0.0e+00" nType="0"><Node pos="l" depth="10" NCoef="0" IVar="-1" Cut="0.0e+00" cType="1" res="0.0150927519" rms="0.0e+00" purity="0.0e+00" nType="-99" /><Node pos="r" depth="10" NCoef="0" IVar="-1" Cut="0.0e+00" cType="1" res="0.163463518" rms="0.0e+00" purity="0.0e+00" nType="-99" /></Node><Node pos="r" depth="9" NCoef="0" IVar="18" Cut="1945.19092" cType="1" res="0.0e+00" rms="0.0e+00" purity="0.0e+00" nType="0"><Node pos="l" depth="10" NCoef="0" IVar="-1" Cut="0.0e+00" cType="1" res="-0.0486753099" rms="0.0e+00" purity="0.0e+00" nType="-99" /><Node pos="r" depth="10" NCoef="0" IVar="-1" Cut="0.0e+00" cType="1" res="0.116186313" rms="0.0e+00" purity="0.0e+00" nType="-99" /></Node></Node></Node><Node pos="r" depth="7" NCoef="0" IVar="13" Cut="10533.9043" cType="1" res="0.0e+00" rms="0.0e+00" purity="0.0e+00" nType="0"><Node pos="l" depth="8" NCoef="0" IVar="0" Cut="79402.9219" cType="1" res="0.0e+00" rms="0.0e+00" purity="0.0e+00" nType="0"><Node pos="l" depth="9" NCoef="0" IVar="-1" Cut="0.0e+00" cType="1" res="0.125849396" rms="0.0e+00" purity="0.0e+00" nType="-99" /><Node pos="r" depth="9" NCoef="0" IVar="-1" Cut="0.0e+00" cType="1" res="-0.0331744924" rms="0.0e+00" purity="0.0e+00" nType="-99" /></Node><Node pos="r" depth="8" NCoef="0" IVar="27" Cut="122.171722" cType="1" res="0.0e+00" rms="0.0e+00" purity="0.0e+00" nType="0"><Node pos="l" depth="9" NCoef="0" IVar="12" Cut="608.11438" cType="1" res="0.0e+00" rms="0.0e+00" purity="0.0e+00" nType="0"><Node pos="l" depth="10" NCoef="0" IVar="-1" Cut="0.0e+00" cType="1" res="0.15051198" rms="0.0e+00" purity="0.0e+00" nType="-99" /><Node pos="r" depth="10" NCoef="0" IVar="-1" Cut="0.0e+00" cType="1" res="-0.0251598954" rms="0.0e+00" purity="0.0e+00" nType="-99" /></Node><Node pos="r" depth="9" NCoef="0" IVar="16" Cut="4.50503016" cType="1" res="0.0e+00" rms="0.0e+00" purity="0.0e+00" nType="0"><Node pos="l" depth="10" NCoef="0" IVar="-1" Cut="0.0e+00" cType="1" res="0.0798448473" rms="0.0e+00" purity="0.0e+00" nType="-99" /><Node pos="r" depth="10" NCoef="0" IVar="-1" Cut="0.0e+00" cType="1" res="0.178549349" rms="0.0e+00" purity="0.0e+00" nType="-99" /></Node></Node></Node></Node></Node><Node pos="r" depth="5" NCoef="0" IVar="20" Cut="44.201973" cType="1" res="0.0e+00" rms="0.0e+00" purity="0.0e+00" nType="0"><Node pos="l" depth="6" NCoef="0" IVar="21" Cut="13950.5586" cType="1" res="0.0e+00" rms="0.0e+00" purity="0.0e+00" nType="0"><Node pos="l" depth="7" NCoef="0" IVar="-1" Cut="0.0e+00" cType="1" res="-0.119087234" rms="0.0e+00" purity="0.0e+00" nType="-99" /><Node pos="r" depth="7" NCoef="0" IVar="-1" Cut="0.0e+00" cType="1" res="0.0204172749" rms="0.0e+00" purity="0.0e+00" nType="-99" /></Node><Node pos="r" depth="6" NCoef="0" IVar="0" Cut="433747.688" cType="1" res="0.0e+00" rms="0.0e+00" purity="0.0e+00" nType="0"><Node pos="l" depth="7" NCoef="0" IVar="-1" Cut="0.0e+00" cType="1" res="0.0175501648" rms="0.0e+00" purity="0.0e+00" nType="-99" /><Node pos="r" depth="7" NCoef="0" IVar="-1" Cut="0.0e+00" cType="1" res="0.128404737" rms="0.0e+00" purity="0.0e+00" nType="-99" /></Node></Node></Node></Node></Node></Node></Node></BinaryTree><BinaryTree type="DecisionTree" boostWeight="1.0e+00" itree="2"><Node pos="s" depth="0" NCoef="0" IVar="20" Cut="11.8066998" cType="1" res="0.0e+00" rms="0.0e+00" purity="0.0e+00" nType="0"><Node pos="l" depth="1" NCoef="0" IVar="16" Cut="15.8084946" cType="1" res="0.0e+00" rms="0.0e+00" purity="0.0e+00" nType="0"><Node pos="l" depth="2" NCoef="0" IVar="18" Cut="3912.31934" cType="1" res="0.0e+00" rms="0.0e+00" purity="0.0e+00" nType="0"><Node pos="l" depth="3" NCoef="0" IVar="23" Cut="9.69631195" cType="1" res="0.0e+00" rms="0.0e+00" purity="0.0e+00" nType="0"><Node pos="l" depth="4" NCoef="0" IVar="12" Cut="14.6391182" cType="1" res="0.0e+00" rms="0.0e+00" purity="0.0e+00" nType="0"><Node pos="l" depth="5" NCoef="0" IVar="18" Cut="3144.82788" cType="1" res="0.0e+00" rms="0.0e+00" purity="0.0e+00" nType="0"><Node pos="l" depth="6" NCoef="0" IVar="-1" Cut="0.0e+00" cType="1" res="-0.161753327" rms="0.0e+00" purity="0.0e+00" nType="-99" /><Node pos="r" depth="6" NCoef="0" IVar="-1" Cut="0.0e+00" cType="1" res="-0.052572459" rms="0.0e+00" purity="0.0e+00" nType="-99" /></Node><Node pos="r" depth="5" NCoef="0" IVar="24" Cut="0.0762375891" cType="1" res="0.0e+00" rms="0.0e+00" purity="0.0e+00" nType="0"><Node pos="l" depth="6" NCoef="0" IVar="2" Cut="0.785679221" cType="1" res="0.0e+00" rms="0.0e+00" purity="0.0e+00" nType="0"><Node pos="l" depth="7" NCoef="0" IVar="-1" Cut="0.0e+00" cType="1" res="0.108203195" rms="0.0e+00" purity="0.0e+00" nType="-99" /><Node pos="r" depth="7" NCoef="0" IVar="-1" Cut="0.0e+00" cType="1" res="-0.0171150155" rms="0.0e+00" purity="0.0e+00" nType="-99" /></Node><Node pos="r" depth="6" NCoef="0" IVar="16" Cut="13.5656204" cType="1" res="0.0e+00" rms="0.0e+00" purity="0.0e+00" nType="0"><Node pos="l" depth="7" NCoef="0" IVar="30" Cut="0.100491449" cType="1" res="0.0e+00" rms="0.0e+00" purity="0.0e+00" nType="0"><Node pos="l" depth="8" NCoef="0" IVar="-1" Cut="0.0e+00" cType="1" res="-0.0112270741" rms="0.0e+00" purity="0.0e+00" nType="-99" /><Node pos="r" depth="8" NCoef="0" IVar="17" Cut="38648.4609" cType="1" res="0.0e+00" rms="0.0e+00" purity="0.0e+00" nType="0"><Node pos="l" depth="9" NCoef="0" IVar="-1" Cut="0.0e+00" cType="1" res="-0.156863675" rms="0.0e+00" purity="0.0e+00" nType="-99" /><Node pos="r" depth="9" NCoef="0" IVar="13" Cut="23601.5195" cType="1" res="0.0e+00" rms="0.0e+00" purity="0.0e+00" nType="0"><Node pos="l" depth="10" NCoef="0" IVar="-1" Cut="0.0e+00" cType="1" res="-0.0957782492" rms="0.0e+00" purity="0.0e+00" nType="-99" /><Node pos="r" depth="10" NCoef="0" IVar="-1" Cut="0.0e+00" cType="1" res="-0.0109298704" rms="0.0e+00" purity="0.0e+00" nType="-99" /></Node></Node></Node><Node pos="r" depth="7" NCoef="0" IVar="-1" Cut="0.0e+00" cType="1" res="0.0222023036" rms="0.0e+00" purity="0.0e+00" nType="-99" /></Node></Node></Node><Node pos="r" depth="4" NCoef="0" IVar="-1" Cut="0.0e+00" cType="1" res="0.0604714043" rms="0.0e+00" purity="0.0e+00" nType="-99" /></Node><Node pos="r" depth="3" NCoef="0" IVar="11" Cut="28.1356964" cType="1" res="0.0e+00" rms="0.0e+00" purity="0.0e+00" nType="0"><Node pos="l" depth="4" NCoef="0" IVar="-1" Cut="0.0e+00" cType="1" res="-0.0212202109" rms="0.0e+00" purity="0.0e+00" nType="-99" /><Node pos="r" depth="4" NCoef="0" IVar="-1" Cut="0.0e+00" cType="1" res="0.114560045" rms="0.0e+00" purity="0.0e+00" nType="-99" /></Node></Node><Node pos="r" depth="2" NCoef="0" IVar="12" Cut="8.10748291" cType="1" res="0.0e+00" rms="0.0e+00" purity="0.0e+00" nType="0"><Node pos="l" depth="3" NCoef="0" IVar="18" Cut="1870.27979" cType="1" res="0.0e+00" rms="0.0e+00" purity="0.0e+00" nType="0"><Node pos="l" depth="4" NCoef="0" IVar="14" Cut="507.557251" cType="1" res="0.0e+00" rms="0.0e+00" purity="0.0e+00" nType="0"><Node pos="l" depth="5" NCoef="0" IVar="-1" Cut="0.0e+00" cType="1" res="-0.0145034613" rms="0.0e+00" purity="0.0e+00" nType="-99" /><Node pos="r" depth="5" NCoef="0" IVar="-1" Cut="0.0e+00" cType="1" res="-0.150087878" rms="0.0e+00" purity="0.0e+00" nType="-99" /></Node><Node pos="r" depth="4" NCoef="0" IVar="11" Cut="15.7059908" cType="1" res="0.0e+00" rms="0.0e+00" purity="0.0e+00" nType="0"><Node pos="l" depth="5" NCoef="0" IVar="-1" Cut="0.0e+00" cType="1" res="-0.0612188093" rms="0.0e+00" purity="0.0e+00" nType="-99" /><Node pos="r" depth="5" NCoef="0" IVar="-1" Cut="0.0e+00" cType="1" res="0.119484834" rms="0.0e+00" purity="0.0e+00" nType="-99" /></Node></Node><Node pos="r" depth="3" NCoef="0" IVar="14" Cut="1610.28491" cType="1" res="0.0e+00" rms="0.0e+00" purity="0.0e+00" nType="0"><Node pos="l" depth="4" NCoef="0" IVar="15" Cut="32.0759125" cType="1" res="0.0e+00" rms="0.0e+00" purity="0.0e+00" nType="0"><Node pos="l" depth="5" NCoef="0" IVar="11" Cut="23.2681904" cType="1" res="0.0e+00" rms="0.0e+00" purity="0.0e+00" nType="0"><Node pos="l" depth="6" NCoef="0" IVar="14" Cut="731.506165" cType="1" res="0.0e+00" rms="0.0e+00" purity="0.0e+00" nType="0"><Node pos="l" depth="7" NCoef="0" IVar="-1" Cut="0.0e+00" cType="1" res="-0.017790949" rms="0.0e+00" purity="0.0e+00" nType="-99" /><Node pos="r" depth="7" NCoef="0" IVar="-1" Cut="0.0e+00" cType="1" res="-0.14306879" rms="0.0e+00" purity="0.0e+00" nType="-99" /></Node><Node pos="r" depth="6" NCoef="0" IVar="14" Cut="963.055176" cType="1" res="0.0e+00" rms="0.0e+00" purity="0.0e+00" nType="0"><Node pos="l" depth="7" NCoef="0" IVar="-1" Cut="0.0e+00" cType="1" res="-0.0589267872" rms="0.0e+00" purity="0.0e+00" nType="-99" /><Node pos="r" depth="7" NCoef="0" IVar="-1" Cut="0.0e+00" cType="1" res="0.120298602" rms="0.0e+00" purity="0.0e+00" nType="-99" /></Node></Node><Node pos="r" depth="5" NCoef="0" IVar="7" Cut="3.52565241" cType="1" res="0.0e+00" rms="0.0e+00" purity="0.0e+00" nType="0"><Node pos="l" depth="6" NCoef="0" IVar="-1" Cut="0.0e+00" cType="1" res="0.142369643" rms="0.0e+00" purity="0.0e+00" nType="-99" /><Node pos="r" depth="6" NCoef="0" IVar="-1" Cut="0.0e+00" cType="1" res="0.0177861657" rms="0.0e+00" purity="0.0e+00" nType="-99" /></Node></Node><Node pos="r" depth="4" NCoef="0" IVar="13" Cut="147714.844" cType="1" res="0.0e+00" rms="0.0e+00" purity="0.0e+00" nType="0"><Node pos="l" depth="5" NCoef="0" IVar="-1" Cut="0.0e+00" cType="1" res="0.162153959" rms="0.0e+00" purity="0.0e+00" nType="-99" /><Node pos="r" depth="5" NCoef="0" IVar="-1" Cut="0.0e+00" cType="1" res="-0.00445205113" rms="0.0e+00" purity="0.0e+00" nType="-99" /></Node></Node></Node></Node><Node pos="r" depth="1" NCoef="0" IVar="6" Cut="0.999981701" cType="1" res="0.0e+00" rms="0.0e+00" purity="0.0e+00" nType="0"><Node pos="l" depth="2" NCoef="0" IVar="11" Cut="25.1400928" cType="1" res="0.0e+00" rms="0.0e+00" purity="0.0e+00" nType="0"><Node pos="l" depth="3" NCoef="0" IVar="26" Cut="6554.51074" cType="1" res="0.0e+00" rms="0.0e+00" purity="0.0e+00" nType="0"><Node pos="l" depth="4" NCoef="0" IVar="-1" Cut="0.0e+00" cType="1" res="-0.159230873" rms="0.0e+00" purity="0.0e+00" nType="-99" /><Node pos="r" depth="4" NCoef="0" IVar="-1" Cut="0.0e+00" cType="1" res="-0.0248185676" rms="0.0e+00" purity="0.0e+00" nType="-99" /></Node><Node pos="r" depth="3" NCoef="0" IVar="15" Cut="23.5947533" cType="1" res="0.0e+00" rms="0.0e+00" purity="0.0e+00" nType="0"><Node pos="l" depth="4" NCoef="0" IVar="-1" Cut="0.0e+00" cType="1" res="-0.129056677" rms="0.0e+00" purity="0.0e+00" nType="-99" /><Node pos="r" depth="4" NCoef="0" IVar="26" Cut="4809.30957" cType="1" res="0.0e+00" rms="0.0e+00" purity="0.0e+00" nType="0"><Node pos="l" depth="5" NCoef="0" IVar="-1" Cut="0.0e+00" cType="1" res="0.140872046" rms="0.0e+00" purity="0.0e+00" nType="-99" /><Node pos="r" depth="5" NCoef="0" IVar="7" Cut="4.72549295" cType="1" res="0.0e+00" rms="0.0e+00" purity="0.0e+00" nType="0"><Node pos="l" depth="6" NCoef="0" IVar="-1" Cut="0.0e+00" cType="1" res="-0.0618891306" rms="0.0e+00" purity="0.0e+00" nType="-99" /><Node pos="r" depth="6" NCoef="0" IVar="-1" Cut="0.0e+00" cType="1" res="0.0625640675" rms="0.0e+00" purity="0.0e+00" nType="-99" /></Node></Node></Node></Node><Node pos="r" depth="2" NCoef="0" IVar="15" Cut="8.50374794" cType="1" res="0.0e+00" rms="0.0e+00" purity="0.0e+00" nType="0"><Node pos="l" depth="3" NCoef="0" IVar="1" Cut="5170.93652" cType="1" res="0.0e+00" rms="0.0e+00" purity="0.0e+00" nType="0"><Node pos="l" depth="4" NCoef="0" IVar="29" Cut="0.180084407" cType="1" res="0.0e+00" rms="0.0e+00" purity="0.0e+00" nType="0"><Node pos="l" depth="5" NCoef="0" IVar="6" Cut="0.999997497" cType="1" res="0.0e+00" rms="0.0e+00" purity="0.0e+00" nType="0"><Node pos="l" depth="6" NCoef="0" IVar="-1" Cut="0.0e+00" cType="1" res="-0.0232767742" rms="0.0e+00" purity="0.0e+00" nType="-99" /><Node pos="r" depth="6" NCoef="0" IVar="-1" Cut="0.0e+00" cType="1" res="0.119634427" rms="0.0e+00" purity="0.0e+00" nType="-99" /></Node><Node pos="r" depth="5" NCoef="0" IVar="11" Cut="17.9771538" cType="1" res="0.0e+00" rms="0.0e+00" purity="0.0e+00" nType="0"><Node pos="l" depth="6" NCoef="0" IVar="28" Cut="4.15549278" cType="1" res="0.0e+00" rms="0.0e+00" purity="0.0e+00" nType="0"><Node pos="l" depth="7" NCoef="0" IVar="-1" Cut="0.0e+00" cType="1" res="-0.16974321" rms="0.0e+00" purity="0.0e+00" nType="-99" /><Node pos="r" depth="7" NCoef="0" IVar="-1" Cut="0.0e+00" cType="1" res="-0.023122387" rms="0.0e+00" purity="0.0e+00" nType="-99" /></Node><Node pos="r" depth="6" NCoef="0" IVar="15" Cut="0.48646909" cType="1" res="0.0e+00" rms="0.0e+00" purity="0.0e+00" nType="0"><Node pos="l" depth="7" NCoef="0" IVar="-1" Cut="0.0e+00" cType="1" res="-0.104797184" rms="0.0e+00" purity="0.0e+00" nType="-99" /><Node pos="r" depth="7" NCoef="0" IVar="-1" Cut="0.0e+00" cType="1" res="0.0759752318" rms="0.0e+00" purity="0.0e+00" nType="-99" /></Node></Node></Node><Node pos="r" depth="4" NCoef="0" IVar="16" Cut="6.36941862" cType="1" res="0.0e+00" rms="0.0e+00" purity="0.0e+00" nType="0"><Node pos="l" depth="5" NCoef="0" IVar="3" Cut="0.831576228" cType="1" res="0.0e+00" rms="0.0e+00" purity="0.0e+00" nType="0"><Node pos="l" depth="6" NCoef="0" IVar="-1" Cut="0.0e+00" cType="1" res="0.0558920018" rms="0.0e+00" purity="0.0e+00" nType="-99" /><Node pos="r" depth="6" NCoef="0" IVar="-1" Cut="0.0e+00" cType="1" res="-0.110983826" rms="0.0e+00" purity="0.0e+00" nType="-99" /></Node><Node pos="r" depth="5" NCoef="0" IVar="29" Cut="0.839497149" cType="1" res="0.0e+00" rms="0.0e+00" purity="0.0e+00" nType="0"><Node pos="l" depth="6" NCoef="0" IVar="30" Cut="4.43557262" cType="1" res="0.0e+00" rms="0.0e+00" purity="0.0e+00" nType="0"><Node pos="l" depth="7" NCoef="0" IVar="13" Cut="259988.688" cType="1" res="0.0e+00" rms="0.0e+00" purity="0.0e+00" nType="0"><Node pos="l" depth="8" NCoef="0" IVar="2" Cut="3.35745716" cType="1" res="0.0e+00" rms="0.0e+00" purity="0.0e+00" nType="0"><Node pos="l" depth="9" NCoef="0" IVar="6" Cut="0.99999845" cType="1" res="0.0e+00" rms="0.0e+00" purity="0.0e+00" nType="0"><Node pos="l" depth="10" NCoef="0" IVar="-1" Cut="0.0e+00" cType="1" res="0.0501786135" rms="0.0e+00" purity="0.0e+00" nType="-99" /><Node pos="r" depth="10" NCoef="0" IVar="-1" Cut="0.0e+00" cType="1" res="0.155224666" rms="0.0e+00" purity="0.0e+00" nType="-99" /></Node><Node pos="r" depth="9" NCoef="0" IVar="1" Cut="8460.49121" cType="1" res="0.0e+00" rms="0.0e+00" purity="0.0e+00" nType="0"><Node pos="l" depth="10" NCoef="0" IVar="-1" Cut="0.0e+00" cType="1" res="-0.0375535749" rms="0.0e+00" purity="0.0e+00" nType="-99" /><Node pos="r" depth="10" NCoef="0" IVar="-1" Cut="0.0e+00" cType="1" res="0.108821407" rms="0.0e+00" purity="0.0e+00" nType="-99" /></Node></Node><Node pos="r" depth="8" NCoef="0" IVar="-1" Cut="0.0e+00" cType="1" res="0.0124765038" rms="0.0e+00" purity="0.0e+00" nType="-99" /></Node><Node pos="r" depth="7" NCoef="0" IVar="30" Cut="6.48559189" cType="1" res="0.0e+00" rms="0.0e+00" purity="0.0e+00" nType="0"><Node pos="l" depth="8" NCoef="0" IVar="-1" Cut="0.0e+00" cType="1" res="-0.0695228949" rms="0.0e+00" purity="0.0e+00" nType="-99" /><Node pos="r" depth="8" NCoef="0" IVar="30" Cut="10.2425079" cType="1" res="0.0e+00" rms="0.0e+00" purity="0.0e+00" nType="0"><Node pos="l" depth="9" NCoef="0" IVar="-1" Cut="0.0e+00" cType="1" res="0.133371994" rms="0.0e+00" purity="0.0e+00" nType="-99" /><Node pos="r" depth="9" NCoef="0" IVar="-1" Cut="0.0e+00" cType="1" res="0.00680541387" rms="0.0e+00" purity="0.0e+00" nType="-99" /></Node></Node></Node><Node pos="r" depth="6" NCoef="0" IVar="-1" Cut="0.0e+00" cType="1" res="-0.0295241661" rms="0.0e+00" purity="0.0e+00" nType="-99" /></Node></Node></Node><Node pos="r" depth="3" NCoef="0" IVar="1" Cut="2414.08154" cType="1" res="0.0e+00" rms="0.0e+00" purity="0.0e+00" nType="0"><Node pos="l" depth="4" NCoef="0" IVar="30" Cut="0.70805335" cType="1" res="0.0e+00" rms="0.0e+00" purity="0.0e+00" nType="0"><Node pos="l" depth="5" NCoef="0" IVar="-1" Cut="0.0e+00" cType="1" res="-0.127534956" rms="0.0e+00" purity="0.0e+00" nType="-99" /><Node pos="r" depth="5" NCoef="0" IVar="-1" Cut="0.0e+00" cType="1" res="0.0716139898" rms="0.0e+00" purity="0.0e+00" nType="-99" /></Node><Node pos="r" depth="4" NCoef="0" IVar="9" Cut="11024.7852" cType="1" res="0.0e+00" rms="0.0e+00" purity="0.0e+00" nType="0"><Node pos="l" depth="5" NCoef="0" IVar="0" Cut="81205.6562" cType="1" res="0.0e+00" rms="0.0e+00" purity="0.0e+00" nType="0"><Node pos="l" depth="6" NCoef="0" IVar="14" Cut="1406.98584" cType="1" res="0.0e+00" rms="0.0e+00" purity="0.0e+00" nType="0"><Node pos="l" depth="7" NCoef="0" IVar="-1" Cut="0.0e+00" cType="1" res="0.104430832" rms="0.0e+00" purity="0.0e+00" nType="-99" /><Node pos="r" depth="7" NCoef="0" IVar="-1" Cut="0.0e+00" cType="1" res="0.0146079464" rms="0.0e+00" purity="0.0e+00" nType="-99" /></Node><Node pos="r" depth="6" NCoef="0" IVar="-1" Cut="0.0e+00" cType="1" res="-0.106224112" rms="0.0e+00" purity="0.0e+00" nType="-99" /></Node><Node pos="r" depth="5" NCoef="0" IVar="14" Cut="443.52124" cType="1" res="0.0e+00" rms="0.0e+00" purity="0.0e+00" nType="0"><Node pos="l" depth="6" NCoef="0" IVar="16" Cut="9.89154816" cType="1" res="0.0e+00" rms="0.0e+00" purity="0.0e+00" nType="0"><Node pos="l" depth="7" NCoef="0" IVar="-1" Cut="0.0e+00" cType="1" res="-0.113481425" rms="0.0e+00" purity="0.0e+00" nType="-99" /><Node pos="r" depth="7" NCoef="0" IVar="7" Cut="5.60310698" cType="1" res="0.0e+00" rms="0.0e+00" purity="0.0e+00" nType="0"><Node pos="l" depth="8" NCoef="0" IVar="-1" Cut="0.0e+00" cType="1" res="0.131994471" rms="0.0e+00" purity="0.0e+00" nType="-99" /><Node pos="r" depth="8" NCoef="0" IVar="-1" Cut="0.0e+00" cType="1" res="-0.0231446549" rms="0.0e+00" purity="0.0e+00" nType="-99" /></Node></Node><Node pos="r" depth="6" NCoef="0" IVar="8" Cut="0.0851313546" cType="1" res="0.0e+00" rms="0.0e+00" purity="0.0e+00" nType="0"><Node pos="l" depth="7" NCoef="0" IVar="11" Cut="-0.848957777" cType="1" res="0.0e+00" rms="0.0e+00" purity="0.0e+00" nType="0"><Node pos="l" depth="8" NCoef="0" IVar="7" Cut="3.01993513" cType="1" res="0.0e+00" rms="0.0e+00" purity="0.0e+00" nType="0"><Node pos="l" depth="9" NCoef="0" IVar="-1" Cut="0.0e+00" cType="1" res="-0.0258840472" rms="0.0e+00" purity="0.0e+00" nType="-99" /><Node pos="r" depth="9" NCoef="0" IVar="-1" Cut="0.0e+00" cType="1" res="0.0990919247" rms="0.0e+00" purity="0.0e+00" nType="-99" /></Node><Node pos="r" depth="8" NCoef="0" IVar="16" Cut="3.45257306" cType="1" res="0.0e+00" rms="0.0e+00" purity="0.0e+00" nType="0"><Node pos="l" depth="9" NCoef="0" IVar="-1" Cut="0.0e+00" cType="1" res="0.0474825092" rms="0.0e+00" purity="0.0e+00" nType="-99" /><Node pos="r" depth="9" NCoef="0" IVar="18" Cut="221.417572" cType="1" res="0.0e+00" rms="0.0e+00" purity="0.0e+00" nType="0"><Node pos="l" depth="10" NCoef="0" IVar="-1" Cut="0.0e+00" cType="1" res="0.0536891781" rms="0.0e+00" purity="0.0e+00" nType="-99" /><Node pos="r" depth="10" NCoef="0" IVar="-1" Cut="0.0e+00" cType="1" res="0.165111214" rms="0.0e+00" purity="0.0e+00" nType="-99" /></Node></Node></Node><Node pos="r" depth="7" NCoef="0" IVar="-1" Cut="0.0e+00" cType="1" res="0.0110486606" rms="0.0e+00" purity="0.0e+00" nType="-99" /></Node></Node></Node></Node></Node></Node></Node></BinaryTree><BinaryTree type="DecisionTree" boostWeight="1.0e+00" itree="3"><Node pos="s" depth="0" NCoef="0" IVar="20" Cut="11.807745" cType="1" res="0.0e+00" rms="0.0e+00" purity="0.0e+00" nType="0"><Node pos="l" depth="1" NCoef="0" IVar="16" Cut="15.8084946" cType="1" res="0.0e+00" rms="0.0e+00" purity="0.0e+00" nType="0"><Node pos="l" depth="2" NCoef="0" IVar="1" Cut="5245.87842" cType="1" res="0.0e+00" rms="0.0e+00" purity="0.0e+00" nType="0"><Node pos="l" depth="3" NCoef="0" IVar="11" Cut="38.1875343" cType="1" res="0.0e+00" rms="0.0e+00" purity="0.0e+00" nType="0"><Node pos="l" depth="4" NCoef="0" IVar="17" Cut="99267.7422" cType="1" res="0.0e+00" rms="0.0e+00" purity="0.0e+00" nType="0"><Node pos="l" depth="5" NCoef="0" IVar="14" Cut="3277.12207" cType="1" res="0.0e+00" rms="0.0e+00" purity="0.0e+00" nType="0"><Node pos="l" depth="6" NCoef="0" IVar="-1" Cut="0.0e+00" cType="1" res="-0.152849317" rms="0.0e+00" purity="0.0e+00" nType="-99" /><Node pos="r" depth="6" NCoef="0" IVar="-1" Cut="0.0e+00" cType="1" res="-0.0447541997" rms="0.0e+00" purity="0.0e+00" nType="-99" /></Node><Node pos="r" depth="5" NCoef="0" IVar="-1" Cut="0.0e+00" cType="1" res="-0.00409691921" rms="0.0e+00" purity="0.0e+00" nType="-99" /></Node><Node pos="r" depth="4" NCoef="0" IVar="6" Cut="0.99998343" cType="1" res="0.0e+00" rms="0.0e+00" purity="0.0e+00" nType="0"><Node pos="l" depth="5" NCoef="0" IVar="-1" Cut="0.0e+00" cType="1" res="-0.139350876" rms="0.0e+00" purity="0.0e+00" nType="-99" /><Node pos="r" depth="5" NCoef="0" IVar="24" Cut="0.408117652" cType="1" res="0.0e+00" rms="0.0e+00" purity="0.0e+00" nType="0"><Node pos="l" depth="6" NCoef="0" IVar="11" Cut="48.4715042" cType="1" res="0.0e+00" rms="0.0e+00" purity="0.0e+00" nType="0"><Node pos="l" depth="7" NCoef="0" IVar="-1" Cut="0.0e+00" cType="1" res="0.132899463" rms="0.0e+00" purity="0.0e+00" nType="-99" /><Node pos="r" depth="7" NCoef="0" IVar="-1" Cut="0.0e+00" cType="1" res="-0.00526791951" rms="0.0e+00" purity="0.0e+00" nType="-99" /></Node><Node pos="r" depth="6" NCoef="0" IVar="-1" Cut="0.0e+00" cType="1" res="-0.105732583" rms="0.0e+00" purity="0.0e+00" nType="-99" /></Node></Node></Node><Node pos="r" depth="3" NCoef="0" IVar="3" Cut="1.34204781" cType="1" res="0.0e+00" rms="0.0e+00" purity="0.0e+00" nType="0"><Node pos="l" depth="4" NCoef="0" IVar="24" Cut="0.384794891" cType="1" res="0.0e+00" rms="0.0e+00" purity="0.0e+00" nType="0"><Node pos="l" depth="5" NCoef="0" IVar="16" Cut="5.16119671" cType="1" res="0.0e+00" rms="0.0e+00" purity="0.0e+00" nType="0"><Node pos="l" depth="6" NCoef="0" IVar="-1" Cut="0.0e+00" cType="1" res="-0.0231027696" rms="0.0e+00" purity="0.0e+00" nType="-99" /><Node pos="r" depth="6" NCoef="0" IVar="-1" Cut="0.0e+00" cType="1" res="0.132775322" rms="0.0e+00" purity="0.0e+00" nType="-99" /></Node><Node pos="r" depth="5" NCoef="0" IVar="1" Cut="6636.76855" cType="1" res="0.0e+00" rms="0.0e+00" purity="0.0e+00" nType="0"><Node pos="l" depth="6" NCoef="0" IVar="-1" Cut="0.0e+00" cType="1" res="-0.00495460304" rms="0.0e+00" purity="0.0e+00" nType="-99" /><Node pos="r" depth="6" NCoef="0" IVar="-1" Cut="0.0e+00" cType="1" res="-0.111347757" rms="0.0e+00" purity="0.0e+00" nType="-99" /></Node></Node><Node pos="r" depth="4" NCoef="0" IVar="6" Cut="0.999999523" cType="1" res="0.0e+00" rms="0.0e+00" purity="0.0e+00" nType="0"><Node pos="l" depth="5" NCoef="0" IVar="28" Cut="6.92045498" cType="1" res="0.0e+00" rms="0.0e+00" purity="0.0e+00" nType="0"><Node pos="l" depth="6" NCoef="0" IVar="17" Cut="7396.72021" cType="1" res="0.0e+00" rms="0.0e+00" purity="0.0e+00" nType="0"><Node pos="l" depth="7" NCoef="0" IVar="-1" Cut="0.0e+00" cType="1" res="-0.0209422689" rms="0.0e+00" purity="0.0e+00" nType="-99" /><Node pos="r" depth="7" NCoef="0" IVar="-1" Cut="0.0e+00" cType="1" res="-0.152262911" rms="0.0e+00" purity="0.0e+00" nType="-99" /></Node><Node pos="r" depth="6" NCoef="0" IVar="-1" Cut="0.0e+00" cType="1" res="-0.0117313927" rms="0.0e+00" purity="0.0e+00" nType="-99" /></Node><Node pos="r" depth="5" NCoef="0" IVar="-1" Cut="0.0e+00" cType="1" res="0.0208711848" rms="0.0e+00" purity="0.0e+00" nType="-99" /></Node></Node></Node><Node pos="r" depth="2" NCoef="0" IVar="12" Cut="8.32273102" cType="1" res="0.0e+00" rms="0.0e+00" purity="0.0e+00" nType="0"><Node pos="l" depth="3" NCoef="0" IVar="18" Cut="1870.27979" cType="1" res="0.0e+00" rms="0.0e+00" purity="0.0e+00" nType="0"><Node pos="l" depth="4" NCoef="0" IVar="3" Cut="0.402816176" cType="1" res="0.0e+00" rms="0.0e+00" purity="0.0e+00" nType="0"><Node pos="l" depth="5" NCoef="0" IVar="-1" Cut="0.0e+00" cType="1" res="0.0379209779" rms="0.0e+00" purity="0.0e+00" nType="-99" /><Node pos="r" depth="5" NCoef="0" IVar="-1" Cut="0.0e+00" cType="1" res="-0.144342333" rms="0.0e+00" purity="0.0e+00" nType="-99" /></Node><Node pos="r" depth="4" NCoef="0" IVar="11" Cut="15.7059908" cType="1" res="0.0e+00" rms="0.0e+00" purity="0.0e+00" nType="0"><Node pos="l" depth="5" NCoef="0" IVar="-1" Cut="0.0e+00" cType="1" res="-0.0579786673" rms="0.0e+00" purity="0.0e+00" nType="-99" /><Node pos="r" depth="5" NCoef="0" IVar="-1" Cut="0.0e+00" cType="1" res="0.106377438" rms="0.0e+00" purity="0.0e+00" nType="-99" /></Node></Node><Node pos="r" depth="3" NCoef="0" IVar="14" Cut="1636.24109" cType="1" res="0.0e+00" rms="0.0e+00" purity="0.0e+00" nType="0"><Node pos="l" depth="4" NCoef="0" IVar="11" Cut="22.5477715" cType="1" res="0.0e+00" rms="0.0e+00" purity="0.0e+00" nType="0"><Node pos="l" depth="5" NCoef="0" IVar="9" Cut="73676.7188" cType="1" res="0.0e+00" rms="0.0e+00" purity="0.0e+00" nType="0"><Node pos="l" depth="6" NCoef="0" IVar="-1" Cut="0.0e+00" cType="1" res="-0.121211998" rms="0.0e+00" purity="0.0e+00" nType="-99" /><Node pos="r" depth="6" NCoef="0" IVar="-1" Cut="0.0e+00" cType="1" res="0.0401463397" rms="0.0e+00" purity="0.0e+00" nType="-99" /></Node><Node pos="r" depth="5" NCoef="0" IVar="14" Cut="640.009949" cType="1" res="0.0e+00" rms="0.0e+00" purity="0.0e+00" nType="0"><Node pos="l" depth="6" NCoef="0" IVar="-1" Cut="0.0e+00" cType="1" res="-0.0191183556" rms="0.0e+00" purity="0.0e+00" nType="-99" /><Node pos="r" depth="6" NCoef="0" IVar="-1" Cut="0.0e+00" cType="1" res="0.134779066" rms="0.0e+00" purity="0.0e+00" nType="-99" /></Node></Node><Node pos="r" depth="4" NCoef="0" IVar="22" Cut="91.6498566" cType="1" res="0.0e+00" rms="0.0e+00" purity="0.0e+00" nType="0"><Node pos="l" depth="5" NCoef="0" IVar="-1" Cut="0.0e+00" cType="1" res="0.0466457903" rms="0.0e+00" purity="0.0e+00" nType="-99" /><Node pos="r" depth="5" NCoef="0" IVar="-1" Cut="0.0e+00" cType="1" res="0.15603812" rms="0.0e+00" purity="0.0e+00" nType="-99" /></Node></Node></Node></Node><Node pos="r" depth="1" NCoef="0" IVar="6" Cut="0.999992132" cType="1" res="0.0e+00" rms="0.0e+00" purity="0.0e+00" nType="0"><Node pos="l" depth="2" NCoef="0" IVar="11" Cut="14.7687378" cType="1" res="0.0e+00" rms="0.0e+00" purity="0.0e+00" nType="0"><Node pos="l" depth="3" NCoef="0" IVar="20" Cut="112.202194" cType="1" res="0.0e+00" rms="0.0e+00" purity="0.0e+00" nType="0"><Node pos="l" depth="4" NCoef="0" IVar="-1" Cut="0.0e+00" cType="1" res="-0.155518398" rms="0.0e+00" purity="0.0e+00" nType="-99" /><Node pos="r" depth="4" NCoef="0" IVar="-1" Cut="0.0e+00" cType="1" res="-0.0248265602" rms="0.0e+00" purity="0.0e+00" nType="-99" /></Node><Node pos="r" depth="3" NCoef="0" IVar="7" Cut="11.8869667" cType="1" res="0.0e+00" rms="0.0e+00" purity="0.0e+00" nType="0"><Node pos="l" depth="4" NCoef="0" IVar="3" Cut="3.46176481" cType="1" res="0.0e+00" rms="0.0e+00" purity="0.0e+00" nType="0"><Node pos="l" depth="5" NCoef="0" IVar="8" Cut="0.050863333" cType="1" res="0.0e+00" rms="0.0e+00" purity="0.0e+00" nType="0"><Node pos="l" depth="6" NCoef="0" IVar="22" Cut="90.4027481" cType="1" res="0.0e+00" rms="0.0e+00" purity="0.0e+00" nType="0"><Node pos="l" depth="7" NCoef="0" IVar="-1" Cut="0.0e+00" cType="1" res="-0.0207633711" rms="0.0e+00" purity="0.0e+00" nType="-99" /><Node pos="r" depth="7" NCoef="0" IVar="13" Cut="10271.1406" cType="1" res="0.0e+00" rms="0.0e+00" purity="0.0e+00" nType="0"><Node pos="l" depth="8" NCoef="0" IVar="-1" Cut="0.0e+00" cType="1" res="-0.0201629996" rms="0.0e+00" purity="0.0e+00" nType="-99" /><Node pos="r" depth="8" NCoef="0" IVar="-1" Cut="0.0e+00" cType="1" res="0.151803687" rms="0.0e+00" purity="0.0e+00" nType="-99" /></Node></Node><Node pos="r" depth="6" NCoef="0" IVar="-1" Cut="0.0e+00" cType="1" res="-0.0509537868" rms="0.0e+00" purity="0.0e+00" nType="-99" /></Node><Node pos="r" depth="5" NCoef="0" IVar="-1" Cut="0.0e+00" cType="1" res="-0.11459142" rms="0.0e+00" purity="0.0e+00" nType="-99" /></Node><Node pos="r" depth="4" NCoef="0" IVar="0" Cut="70935.8125" cType="1" res="0.0e+00" rms="0.0e+00" purity="0.0e+00" nType="0"><Node pos="l" depth="5" NCoef="0" IVar="-1" Cut="0.0e+00" cType="1" res="0.014773773" rms="0.0e+00" purity="0.0e+00" nType="-99" /><Node pos="r" depth="5" NCoef="0" IVar="-1" Cut="0.0e+00" cType="1" res="-0.138611972" rms="0.0e+00" purity="0.0e+00" nType="-99" /></Node></Node></Node><Node pos="r" depth="2" NCoef="0" IVar="10" Cut="515.688843" cType="1" res="0.0e+00" rms="0.0e+00" purity="0.0e+00" nType="0"><Node pos="l" depth="3" NCoef="0" IVar="18" Cut="1693.4657" cType="1" res="0.0e+00" rms="0.0e+00" purity="0.0e+00" nType="0"><Node pos="l" depth="4" NCoef="0" IVar="-1" Cut="0.0e+00" cType="1" res="-0.136040568" rms="0.0e+00" purity="0.0e+00" nType="-99" /><Node pos="r" depth="4" NCoef="0" IVar="7" Cut="2.57250929" cType="1" res="0.0e+00" rms="0.0e+00" purity="0.0e+00" nType="0"><Node pos="l" depth="5" NCoef="0" IVar="-1" Cut="0.0e+00" cType="1" res="0.116296887" rms="0.0e+00" purity="0.0e+00" nType="-99" /><Node pos="r" depth="5" NCoef="0" IVar="-1" Cut="0.0e+00" cType="1" res="0.0181536935" rms="0.0e+00" purity="0.0e+00" nType="-99" /></Node></Node><Node pos="r" depth="3" NCoef="0" IVar="14" Cut="443.322968" cType="1" res="0.0e+00" rms="0.0e+00" purity="0.0e+00" nType="0"><Node pos="l" depth="4" NCoef="0" IVar="16" Cut="9.89989567" cType="1" res="0.0e+00" rms="0.0e+00" purity="0.0e+00" nType="0"><Node pos="l" depth="5" NCoef="0" IVar="-1" Cut="0.0e+00" cType="1" res="-0.126271948" rms="0.0e+00" purity="0.0e+00" nType="-99" /><Node pos="r" depth="5" NCoef="0" IVar="19" Cut="-21.8198357" cType="1" res="0.0e+00" rms="0.0e+00" purity="0.0e+00" nType="0"><Node pos="l" depth="6" NCoef="0" IVar="-1" Cut="0.0e+00" cType="1" res="0.0990670174" rms="0.0e+00" purity="0.0e+00" nType="-99" /><Node pos="r" depth="6" NCoef="0" IVar="-1" Cut="0.0e+00" cType="1" res="0.0153379561" rms="0.0e+00" purity="0.0e+00" nType="-99" /></Node></Node><Node pos="r" depth="4" NCoef="0" IVar="13" Cut="259988.688" cType="1" res="0.0e+00" rms="0.0e+00" purity="0.0e+00" nType="0"><Node pos="l" depth="5" NCoef="0" IVar="1" Cut="2476.73193" cType="1" res="0.0e+00" rms="0.0e+00" purity="0.0e+00" nType="0"><Node pos="l" depth="6" NCoef="0" IVar="-1" Cut="0.0e+00" cType="1" res="-0.0451814942" rms="0.0e+00" purity="0.0e+00" nType="-99" /><Node pos="r" depth="6" NCoef="0" IVar="9" Cut="161271.875" cType="1" res="0.0e+00" rms="0.0e+00" purity="0.0e+00" nType="0"><Node pos="l" depth="7" NCoef="0" IVar="3" Cut="7.56588411" cType="1" res="0.0e+00" rms="0.0e+00" purity="0.0e+00" nType="0"><Node pos="l" depth="8" NCoef="0" IVar="13" Cut="88809.5938" cType="1" res="0.0e+00" rms="0.0e+00" purity="0.0e+00" nType="0"><Node pos="l" depth="9" NCoef="0" IVar="14" Cut="656.360474" cType="1" res="0.0e+00" rms="0.0e+00" purity="0.0e+00" nType="0"><Node pos="l" depth="10" NCoef="0" IVar="-1" Cut="0.0e+00" cType="1" res="0.0838823617" rms="0.0e+00" purity="0.0e+00" nType="-99" /><Node pos="r" depth="10" NCoef="0" IVar="-1" Cut="0.0e+00" cType="1" res="0.152046606" rms="0.0e+00" purity="0.0e+00" nType="-99" /></Node><Node pos="r" depth="9" NCoef="0" IVar="14" Cut="2364.38574" cType="1" res="0.0e+00" rms="0.0e+00" purity="0.0e+00" nType="0"><Node pos="l" depth="10" NCoef="0" IVar="-1" Cut="0.0e+00" cType="1" res="-0.0288579613" rms="0.0e+00" purity="0.0e+00" nType="-99" /><Node pos="r" depth="10" NCoef="0" IVar="-1" Cut="0.0e+00" cType="1" res="0.122979634" rms="0.0e+00" purity="0.0e+00" nType="-99" /></Node></Node><Node pos="r" depth="8" NCoef="0" IVar="-1" Cut="0.0e+00" cType="1" res="0.0233680513" rms="0.0e+00" purity="0.0e+00" nType="-99" /></Node><Node pos="r" depth="7" NCoef="0" IVar="12" Cut="88.5070496" cType="1" res="0.0e+00" rms="0.0e+00" purity="0.0e+00" nType="0"><Node pos="l" depth="8" NCoef="0" IVar="-1" Cut="0.0e+00" cType="1" res="0.104481533" rms="0.0e+00" purity="0.0e+00" nType="-99" /><Node pos="r" depth="8" NCoef="0" IVar="-1" Cut="0.0e+00" cType="1" res="-0.076107122" rms="0.0e+00" purity="0.0e+00" nType="-99" /></Node></Node></Node><Node pos="r" depth="5" NCoef="0" IVar="-1" Cut="0.0e+00" cType="1" res="-0.0801386014" rms="0.0e+00" purity="0.0e+00" nType="-99" /></Node></Node></Node></Node></Node></BinaryTree><BinaryTree type="DecisionTree" boostWeight="1.0e+00" itree="4"><Node pos="s" depth="0" NCoef="0" IVar="16" Cut="14.2018623" cType="1" res="0.0e+00" rms="0.0e+00" purity="0.0e+00" nType="0"><Node pos="l" depth="1" NCoef="0" IVar="12" Cut="12.651062" cType="1" res="0.0e+00" rms="0.0e+00" purity="0.0e+00" nType="0"><Node pos="l" depth="2" NCoef="0" IVar="1" Cut="7660.4502" cType="1" res="0.0e+00" rms="0.0e+00" purity="0.0e+00" nType="0"><Node pos="l" depth="3" NCoef="0" IVar="11" Cut="40.8824081" cType="1" res="0.0e+00" rms="0.0e+00" purity="0.0e+00" nType="0"><Node pos="l" depth="4" NCoef="0" IVar="15" Cut="35.9750748" cType="1" res="0.0e+00" rms="0.0e+00" purity="0.0e+00" nType="0"><Node pos="l" depth="5" NCoef="0" IVar="1" Cut="7115.0708" cType="1" res="0.0e+00" rms="0.0e+00" purity="0.0e+00" nType="0"><Node pos="l" depth="6" NCoef="0" IVar="3" Cut="8.12026978" cType="1" res="0.0e+00" rms="0.0e+00" purity="0.0e+00" nType="0"><Node pos="l" depth="7" NCoef="0" IVar="29" Cut="0.00341552496" cType="1" res="0.0e+00" rms="0.0e+00" purity="0.0e+00" nType="0"><Node pos="l" depth="8" NCoef="0" IVar="-1" Cut="0.0e+00" cType="1" res="-0.0419549644" rms="0.0e+00" purity="0.0e+00" nType="-99" /><Node pos="r" depth="8" NCoef="0" IVar="-1" Cut="0.0e+00" cType="1" res="-0.146403372" rms="0.0e+00" purity="0.0e+00" nType="-99" /></Node><Node pos="r" depth="7" NCoef="0" IVar="-1" Cut="0.0e+00" cType="1" res="-0.0366376601" rms="0.0e+00" purity="0.0e+00" nType="-99" /></Node><Node pos="r" depth="6" NCoef="0" IVar="-1" Cut="0.0e+00" cType="1" res="-0.0389635526" rms="0.0e+00" purity="0.0e+00" nType="-99" /></Node><Node pos="r" depth="5" NCoef="0" IVar="17" Cut="56323.6758" cType="1" res="0.0e+00" rms="0.0e+00" purity="0.0e+00" nType="0"><Node pos="l" depth="6" NCoef="0" IVar="11" Cut="34.4862518" cType="1" res="0.0e+00" rms="0.0e+00" purity="0.0e+00" nType="0"><Node pos="l" depth="7" NCoef="0" IVar="-1" Cut="0.0e+00" cType="1" res="-0.132893845" rms="0.0e+00" purity="0.0e+00" nType="-99" /><Node pos="r" depth="7" NCoef="0" IVar="-1" Cut="0.0e+00" cType="1" res="-0.0119121326" rms="0.0e+00" purity="0.0e+00" nType="-99" /></Node><Node pos="r" depth="6" NCoef="0" IVar="18" Cut="1339.1272" cType="1" res="0.0e+00" rms="0.0e+00" purity="0.0e+00" nType="0"><Node pos="l" depth="7" NCoef="0" IVar="-1" Cut="0.0e+00" cType="1" res="0.109101549" rms="0.0e+00" purity="0.0e+00" nType="-99" /><Node pos="r" depth="7" NCoef="0" IVar="-1" Cut="0.0e+00" cType="1" res="-0.0187450573" rms="0.0e+00" purity="0.0e+00" nType="-99" /></Node></Node></Node><Node pos="r" depth="4" NCoef="0" IVar="1" Cut="3759.5332" cType="1" res="0.0e+00" rms="0.0e+00" purity="0.0e+00" nType="0"><Node pos="l" depth="5" NCoef="0" IVar="12" Cut="4.91420078" cType="1" res="0.0e+00" rms="0.0e+00" purity="0.0e+00" nType="0"><Node pos="l" depth="6" NCoef="0" IVar="-1" Cut="0.0e+00" cType="1" res="-0.134756923" rms="0.0e+00" purity="0.0e+00" nType="-99" /><Node pos="r" depth="6" NCoef="0" IVar="16" Cut="5.29996109" cType="1" res="0.0e+00" rms="0.0e+00" purity="0.0e+00" nType="0"><Node pos="l" depth="7" NCoef="0" IVar="-1" Cut="0.0e+00" cType="1" res="-0.0947750956" rms="0.0e+00" purity="0.0e+00" nType="-99" /><Node pos="r" depth="7" NCoef="0" IVar="11" Cut="62.2739105" cType="1" res="0.0e+00" rms="0.0e+00" purity="0.0e+00" nType="0"><Node pos="l" depth="8" NCoef="0" IVar="-1" Cut="0.0e+00" cType="1" res="0.103216551" rms="0.0e+00" purity="0.0e+00" nType="-99" /><Node pos="r" depth="8" NCoef="0" IVar="-1" Cut="0.0e+00" cType="1" res="-0.0181795862" rms="0.0e+00" purity="0.0e+00" nType="-99" /></Node></Node></Node><Node pos="r" depth="5" NCoef="0" IVar="3" Cut="2.51503587" cType="1" res="0.0e+00" rms="0.0e+00" purity="0.0e+00" nType="0"><Node pos="l" depth="6" NCoef="0" IVar="-1" Cut="0.0e+00" cType="1" res="0.121059157" rms="0.0e+00" purity="0.0e+00" nType="-99" /><Node pos="r" depth="6" NCoef="0" IVar="-1" Cut="0.0e+00" cType="1" res="-0.0999169722" rms="0.0e+00" purity="0.0e+00" nType="-99" /></Node></Node></Node><Node pos="r" depth="3" NCoef="0" IVar="24" Cut="0.309192479" cType="1" res="0.0e+00" rms="0.0e+00" purity="0.0e+00" nType="0"><Node pos="l" depth="4" NCoef="0" IVar="3" Cut="1.826823" cType="1" res="0.0e+00" rms="0.0e+00" purity="0.0e+00" nType="0"><Node pos="l" depth="5" NCoef="0" IVar="-1" Cut="0.0e+00" cType="1" res="0.137188673" rms="0.0e+00" purity="0.0e+00" nType="-99" /><Node pos="r" depth="5" NCoef="0" IVar="-1" Cut="0.0e+00" cType="1" res="-0.00645552948" rms="0.0e+00" purity="0.0e+00" nType="-99" /></Node><Node pos="r" depth="4" NCoef="0" IVar="11" Cut="15.2143879" cType="1" res="0.0e+00" rms="0.0e+00" purity="0.0e+00" nType="0"><Node pos="l" depth="5" NCoef="0" IVar="-1" Cut="0.0e+00" cType="1" res="-0.121052913" rms="0.0e+00" purity="0.0e+00" nType="-99" /><Node pos="r" depth="5" NCoef="0" IVar="-1" Cut="0.0e+00" cType="1" res="0.0134511758" rms="0.0e+00" purity="0.0e+00" nType="-99" /></Node></Node></Node><Node pos="r" depth="2" NCoef="0" IVar="6" Cut="0.999996781" cType="1" res="0.0e+00" rms="0.0e+00" purity="0.0e+00" nType="0"><Node pos="l" depth="3" NCoef="0" IVar="15" Cut="27.1966801" cType="1" res="0.0e+00" rms="0.0e+00" purity="0.0e+00" nType="0"><Node pos="l" depth="4" NCoef="0" IVar="28" Cut="4.99243355" cType="1" res="0.0e+00" rms="0.0e+00" purity="0.0e+00" nType="0"><Node pos="l" depth="5" NCoef="0" IVar="2" Cut="0.0743203014" cType="1" res="0.0e+00" rms="0.0e+00" purity="0.0e+00" nType="0"><Node pos="l" depth="6" NCoef="0" IVar="-1" Cut="0.0e+00" cType="1" res="-0.0173685662" rms="0.0e+00" purity="0.0e+00" nType="-99" /><Node pos="r" depth="6" NCoef="0" IVar="-1" Cut="0.0e+00" cType="1" res="-0.150971875" rms="0.0e+00" purity="0.0e+00" nType="-99" /></Node><Node pos="r" depth="5" NCoef="0" IVar="-1" Cut="0.0e+00" cType="1" res="0.0318187252" rms="0.0e+00" purity="0.0e+00" nType="-99" /></Node><Node pos="r" depth="4" NCoef="0" IVar="10" Cut="966.321533" cType="1" res="0.0e+00" rms="0.0e+00" purity="0.0e+00" nType="0"><Node pos="l" depth="5" NCoef="0" IVar="11" Cut="12.8920174" cType="1" res="0.0e+00" rms="0.0e+00" purity="0.0e+00" nType="0"><Node pos="l" depth="6" NCoef="0" IVar="-1" Cut="0.0e+00" cType="1" res="-0.0898857564" rms="0.0e+00" purity="0.0e+00" nType="-99" /><Node pos="r" depth="6" NCoef="0" IVar="-1" Cut="0.0e+00" cType="1" res="-0.0134138986" rms="0.0e+00" purity="0.0e+00" nType="-99" /></Node><Node pos="r" depth="5" NCoef="0" IVar="27" Cut="99.386673" cType="1" res="0.0e+00" rms="0.0e+00" purity="0.0e+00" nType="0"><Node pos="l" depth="6" NCoef="0" IVar="-1" Cut="0.0e+00" cType="1" res="-0.0191184115" rms="0.0e+00" purity="0.0e+00" nType="-99" /><Node pos="r" depth="6" NCoef="0" IVar="-1" Cut="0.0e+00" cType="1" res="0.129659459" rms="0.0e+00" purity="0.0e+00" nType="-99" /></Node></Node></Node><Node pos="r" depth="3" NCoef="0" IVar="15" Cut="2.12032866" cType="1" res="0.0e+00" rms="0.0e+00" purity="0.0e+00" nType="0"><Node pos="l" depth="4" NCoef="0" IVar="2" Cut="2.29172039" cType="1" res="0.0e+00" rms="0.0e+00" purity="0.0e+00" nType="0"><Node pos="l" depth="5" NCoef="0" IVar="-1" Cut="0.0e+00" cType="1" res="0.0336208157" rms="0.0e+00" purity="0.0e+00" nType="-99" /><Node pos="r" depth="5" NCoef="0" IVar="-1" Cut="0.0e+00" cType="1" res="-0.109568633" rms="0.0e+00" purity="0.0e+00" nType="-99" /></Node><Node pos="r" depth="4" NCoef="0" IVar="14" Cut="723.674805" cType="1" res="0.0e+00" rms="0.0e+00" purity="0.0e+00" nType="0"><Node pos="l" depth="5" NCoef="0" IVar="-1" Cut="0.0e+00" cType="1" res="-0.0380124561" rms="0.0e+00" purity="0.0e+00" nType="-99" /><Node pos="r" depth="5" NCoef="0" IVar="30" Cut="0.126371816" cType="1" res="0.0e+00" rms="0.0e+00" purity="0.0e+00" nType="0"><Node pos="l" depth="6" NCoef="0" IVar="-1" Cut="0.0e+00" cType="1" res="0.0176847484" rms="0.0e+00" purity="0.0e+00" nType="-99" /><Node pos="r" depth="6" NCoef="0" IVar="18" Cut="4690.49707" cType="1" res="0.0e+00" rms="0.0e+00" purity="0.0e+00" nType="0"><Node pos="l" depth="7" NCoef="0" IVar="26" Cut="2544.25928" cType="1" res="0.0e+00" rms="0.0e+00" purity="0.0e+00" nType="0"><Node pos="l" depth="8" NCoef="0" IVar="-1" Cut="0.0e+00" cType="1" res="0.0453565083" rms="0.0e+00" purity="0.0e+00" nType="-99" /><Node pos="r" depth="8" NCoef="0" IVar="-1" Cut="0.0e+00" cType="1" res="0.149543002" rms="0.0e+00" purity="0.0e+00" nType="-99" /></Node><Node pos="r" depth="7" NCoef="0" IVar="-1" Cut="0.0e+00" cType="1" res="0.0317112654" rms="0.0e+00" purity="0.0e+00" nType="-99" /></Node></Node></Node></Node></Node></Node><Node pos="r" depth="1" NCoef="0" IVar="6" Cut="0.999984384" cType="1" res="0.0e+00" rms="0.0e+00" purity="0.0e+00" nType="0"><Node pos="l" depth="2" NCoef="0" IVar="11" Cut="25.014225" cType="1" res="0.0e+00" rms="0.0e+00" purity="0.0e+00" nType="0"><Node pos="l" depth="3" NCoef="0" IVar="26" Cut="2110.06519" cType="1" res="0.0e+00" rms="0.0e+00" purity="0.0e+00" nType="0"><Node pos="l" depth="4" NCoef="0" IVar="-1" Cut="0.0e+00" cType="1" res="-0.00588648533" rms="0.0e+00" purity="0.0e+00" nType="-99" /><Node pos="r" depth="4" NCoef="0" IVar="23" Cut="4.04084444" cType="1" res="0.0e+00" rms="0.0e+00" purity="0.0e+00" nType="0"><Node pos="l" depth="5" NCoef="0" IVar="-1" Cut="0.0e+00" cType="1" res="-0.141178444" rms="0.0e+00" purity="0.0e+00" nType="-99" /><Node pos="r" depth="5" NCoef="0" IVar="-1" Cut="0.0e+00" cType="1" res="-0.042238012" rms="0.0e+00" purity="0.0e+00" nType="-99" /></Node></Node><Node pos="r" depth="3" NCoef="0" IVar="14" Cut="895.820679" cType="1" res="0.0e+00" rms="0.0e+00" purity="0.0e+00" nType="0"><Node pos="l" depth="4" NCoef="0" IVar="2" Cut="0.774929166" cType="1" res="0.0e+00" rms="0.0e+00" purity="0.0e+00" nType="0"><Node pos="l" depth="5" NCoef="0" IVar="-1" Cut="0.0e+00" cType="1" res="0.0322656035" rms="0.0e+00" purity="0.0e+00" nType="-99" /><Node pos="r" depth="5" NCoef="0" IVar="-1" Cut="0.0e+00" cType="1" res="-0.112466753" rms="0.0e+00" purity="0.0e+00" nType="-99" /></Node><Node pos="r" depth="4" NCoef="0" IVar="15" Cut="22.3545074" cType="1" res="0.0e+00" rms="0.0e+00" purity="0.0e+00" nType="0"><Node pos="l" depth="5" NCoef="0" IVar="-1" Cut="0.0e+00" cType="1" res="0.0209825523" rms="0.0e+00" purity="0.0e+00" nType="-99" /><Node pos="r" depth="5" NCoef="0" IVar="-1" Cut="0.0e+00" cType="1" res="0.143518701" rms="0.0e+00" purity="0.0e+00" nType="-99" /></Node></Node></Node><Node pos="r" depth="2" NCoef="0" IVar="15" Cut="-1.64764023" cType="1" res="0.0e+00" rms="0.0e+00" purity="0.0e+00" nType="0"><Node pos="l" depth="3" NCoef="0" IVar="29" Cut="0.169635624" cType="1" res="0.0e+00" rms="0.0e+00" purity="0.0e+00" nType="0"><Node pos="l" depth="4" NCoef="0" IVar="11" Cut="10.6120071" cType="1" res="0.0e+00" rms="0.0e+00" purity="0.0e+00" nType="0"><Node pos="l" depth="5" NCoef="0" IVar="-1" Cut="0.0e+00" cType="1" res="0.0938192457" rms="0.0e+00" purity="0.0e+00" nType="-99" /><Node pos="r" depth="5" NCoef="0" IVar="-1" Cut="0.0e+00" cType="1" res="0.0073877885" rms="0.0e+00" purity="0.0e+00" nType="-99" /></Node><Node pos="r" depth="4" NCoef="0" IVar="1" Cut="6864.65283" cType="1" res="0.0e+00" rms="0.0e+00" purity="0.0e+00" nType="0"><Node pos="l" depth="5" NCoef="0" IVar="-1" Cut="0.0e+00" cType="1" res="-0.15449287" rms="0.0e+00" purity="0.0e+00" nType="-99" /><Node pos="r" depth="5" NCoef="0" IVar="-1" Cut="0.0e+00" cType="1" res="0.00850970484" rms="0.0e+00" purity="0.0e+00" nType="-99" /></Node></Node><Node pos="r" depth="3" NCoef="0" IVar="10" Cut="419.435425" cType="1" res="0.0e+00" rms="0.0e+00" purity="0.0e+00" nType="0"><Node pos="l" depth="4" NCoef="0" IVar="13" Cut="18575.7266" cType="1" res="0.0e+00" rms="0.0e+00" purity="0.0e+00" nType="0"><Node pos="l" depth="5" NCoef="0" IVar="-1" Cut="0.0e+00" cType="1" res="0.0268991441" rms="0.0e+00" purity="0.0e+00" nType="-99" /><Node pos="r" depth="5" NCoef="0" IVar="-1" Cut="0.0e+00" cType="1" res="-0.111771062" rms="0.0e+00" purity="0.0e+00" nType="-99" /></Node><Node pos="r" depth="4" NCoef="0" IVar="27" Cut="98.7979279" cType="1" res="0.0e+00" rms="0.0e+00" purity="0.0e+00" nType="0"><Node pos="l" depth="5" NCoef="0" IVar="13" Cut="17177.0117" cType="1" res="0.0e+00" rms="0.0e+00" purity="0.0e+00" nType="0"><Node pos="l" depth="6" NCoef="0" IVar="14" Cut="577.19397" cType="1" res="0.0e+00" rms="0.0e+00" purity="0.0e+00" nType="0"><Node pos="l" depth="7" NCoef="0" IVar="-1" Cut="0.0e+00" cType="1" res="-0.101869084" rms="0.0e+00" purity="0.0e+00" nType="-99" /><Node pos="r" depth="7" NCoef="0" IVar="-1" Cut="0.0e+00" cType="1" res="0.0234757941" rms="0.0e+00" purity="0.0e+00" nType="-99" /></Node><Node pos="r" depth="6" NCoef="0" IVar="29" Cut="0.729855895" cType="1" res="0.0e+00" rms="0.0e+00" purity="0.0e+00" nType="0"><Node pos="l" depth="7" NCoef="0" IVar="23" Cut="1.74637187" cType="1" res="0.0e+00" rms="0.0e+00" purity="0.0e+00" nType="0"><Node pos="l" depth="8" NCoef="0" IVar="28" Cut="2.85444355" cType="1" res="0.0e+00" rms="0.0e+00" purity="0.0e+00" nType="0"><Node pos="l" depth="9" NCoef="0" IVar="-1" Cut="0.0e+00" cType="1" res="0.0909760445" rms="0.0e+00" purity="0.0e+00" nType="-99" /><Node pos="r" depth="9" NCoef="0" IVar="-1" Cut="0.0e+00" cType="1" res="-0.116301157" rms="0.0e+00" purity="0.0e+00" nType="-99" /></Node><Node pos="r" depth="8" NCoef="0" IVar="13" Cut="153834.094" cType="1" res="0.0e+00" rms="0.0e+00" purity="0.0e+00" nType="0"><Node pos="l" depth="9" NCoef="0" IVar="15" Cut="70.5438538" cType="1" res="0.0e+00" rms="0.0e+00" purity="0.0e+00" nType="0"><Node pos="l" depth="10" NCoef="0" IVar="-1" Cut="0.0e+00" cType="1" res="0.150138602" rms="0.0e+00" purity="0.0e+00" nType="-99" /><Node pos="r" depth="10" NCoef="0" IVar="-1" Cut="0.0e+00" cType="1" res="0.043719586" rms="0.0e+00" purity="0.0e+00" nType="-99" /></Node><Node pos="r" depth="9" NCoef="0" IVar="-1" Cut="0.0e+00" cType="1" res="0.0117609007" rms="0.0e+00" purity="0.0e+00" nType="-99" /></Node></Node><Node pos="r" depth="7" NCoef="0" IVar="4" Cut="188367.766" cType="1" res="0.0e+00" rms="0.0e+00" purity="0.0e+00" nType="0"><Node pos="l" depth="8" NCoef="0" IVar="18" Cut="794.935913" cType="1" res="0.0e+00" rms="0.0e+00" purity="0.0e+00" nType="0"><Node pos="l" depth="9" NCoef="0" IVar="-1" Cut="0.0e+00" cType="1" res="-0.0367831402" rms="0.0e+00" purity="0.0e+00" nType="-99" /><Node pos="r" depth="9" NCoef="0" IVar="-1" Cut="0.0e+00" cType="1" res="0.118644767" rms="0.0e+00" purity="0.0e+00" nType="-99" /></Node><Node pos="r" depth="8" NCoef="0" IVar="-1" Cut="0.0e+00" cType="1" res="-0.0896205008" rms="0.0e+00" purity="0.0e+00" nType="-99" /></Node></Node></Node><Node pos="r" depth="5" NCoef="0" IVar="3" Cut="5.37756062" cType="1" res="0.0e+00" rms="0.0e+00" purity="0.0e+00" nType="0"><Node pos="l" depth="6" NCoef="0" IVar="15" Cut="11.821003" cType="1" res="0.0e+00" rms="0.0e+00" purity="0.0e+00" nType="0"><Node pos="l" depth="7" NCoef="0" IVar="24" Cut="0.299926579" cType="1" res="0.0e+00" rms="0.0e+00" purity="0.0e+00" nType="0"><Node pos="l" depth="8" NCoef="0" IVar="29" Cut="0.911839962" cType="1" res="0.0e+00" rms="0.0e+00" purity="0.0e+00" nType="0"><Node pos="l" depth="9" NCoef="0" IVar="28" Cut="9.02024841" cType="1" res="0.0e+00" rms="0.0e+00" purity="0.0e+00" nType="0"><Node pos="l" depth="10" NCoef="0" IVar="-1" Cut="0.0e+00" cType="1" res="0.146953061" rms="0.0e+00" purity="0.0e+00" nType="-99" /><Node pos="r" depth="10" NCoef="0" IVar="-1" Cut="0.0e+00" cType="1" res="0.0422607325" rms="0.0e+00" purity="0.0e+00" nType="-99" /></Node><Node pos="r" depth="9" NCoef="0" IVar="-1" Cut="0.0e+00" cType="1" res="0.00468591554" rms="0.0e+00" purity="0.0e+00" nType="-99" /></Node><Node pos="r" depth="8" NCoef="0" IVar="21" Cut="7897.61182" cType="1" res="0.0e+00" rms="0.0e+00" purity="0.0e+00" nType="0"><Node pos="l" depth="9" NCoef="0" IVar="6" Cut="0.999999523" cType="1" res="0.0e+00" rms="0.0e+00" purity="0.0e+00" nType="0"><Node pos="l" depth="10" NCoef="0" IVar="-1" Cut="0.0e+00" cType="1" res="-0.0151513144" rms="0.0e+00" purity="0.0e+00" nType="-99" /><Node pos="r" depth="10" NCoef="0" IVar="-1" Cut="0.0e+00" cType="1" res="0.109713212" rms="0.0e+00" purity="0.0e+00" nType="-99" /></Node><Node pos="r" depth="9" NCoef="0" IVar="17" Cut="38432.1094" cType="1" res="0.0e+00" rms="0.0e+00" purity="0.0e+00" nType="0"><Node pos="l" depth="10" NCoef="0" IVar="-1" Cut="0.0e+00" cType="1" res="-0.123328172" rms="0.0e+00" purity="0.0e+00" nType="-99" /><Node pos="r" depth="10" NCoef="0" IVar="-1" Cut="0.0e+00" cType="1" res="0.0475530513" rms="0.0e+00" purity="0.0e+00" nType="-99" /></Node></Node></Node><Node pos="r" depth="7" NCoef="0" IVar="29" Cut="0.95773083" cType="1" res="0.0e+00" rms="0.0e+00" purity="0.0e+00" nType="0"><Node pos="l" depth="8" NCoef="0" IVar="-1" Cut="0.0e+00" cType="1" res="0.150415719" rms="0.0e+00" purity="0.0e+00" nType="-99" /><Node pos="r" depth="8" NCoef="0" IVar="-1" Cut="0.0e+00" cType="1" res="0.0385496058" rms="0.0e+00" purity="0.0e+00" nType="-99" /></Node></Node><Node pos="r" depth="6" NCoef="0" IVar="14" Cut="1531.84888" cType="1" res="0.0e+00" rms="0.0e+00" purity="0.0e+00" nType="0"><Node pos="l" depth="7" NCoef="0" IVar="-1" Cut="0.0e+00" cType="1" res="-0.0685759112" rms="0.0e+00" purity="0.0e+00" nType="-99" /><Node pos="r" depth="7" NCoef="0" IVar="-1" Cut="0.0e+00" cType="1" res="0.0819173902" rms="0.0e+00" purity="0.0e+00" nType="-99" /></Node></Node></Node></Node></Node></Node></Node></BinaryTree><BinaryTree type="DecisionTree" boostWeight="1.0e+00" itree="5"><Node pos="s" depth="0" NCoef="0" IVar="16" Cut="13.7696228" cType="1" res="0.0e+00" rms="0.0e+00" purity="0.0e+00" nType="0"><Node pos="l" depth="1" NCoef="0" IVar="6" Cut="0.999996781" cType="1" res="0.0e+00" rms="0.0e+00" purity="0.0e+00" nType="0"><Node pos="l" depth="2" NCoef="0" IVar="18" Cut="1889.22461" cType="1" res="0.0e+00" rms="0.0e+00" purity="0.0e+00" nType="0"><Node pos="l" depth="3" NCoef="0" IVar="22" Cut="294.053406" cType="1" res="0.0e+00" rms="0.0e+00" purity="0.0e+00" nType="0"><Node pos="l" depth="4" NCoef="0" IVar="6" Cut="0.999993265" cType="1" res="0.0e+00" rms="0.0e+00" purity="0.0e+00" nType="0"><Node pos="l" depth="5" NCoef="0" IVar="3" Cut="0.0477864407" cType="1" res="0.0e+00" rms="0.0e+00" purity="0.0e+00" nType="0"><Node pos="l" depth="6" NCoef="0" IVar="-1" Cut="0.0e+00" cType="1" res="-0.0380798541" rms="0.0e+00" purity="0.0e+00" nType="-99" /><Node pos="r" depth="6" NCoef="0" IVar="19" Cut="-75.769577" cType="1" res="0.0e+00" rms="0.0e+00" purity="0.0e+00" nType="0"><Node pos="l" depth="7" NCoef="0" IVar="5" Cut="2927.95898" cType="1" res="0.0e+00" rms="0.0e+00" purity="0.0e+00" nType="0"><Node pos="l" depth="8" NCoef="0" IVar="-1" Cut="0.0e+00" cType="1" res="-0.0766617805" rms="0.0e+00" purity="0.0e+00" nType="-99" /><Node pos="r" depth="8" NCoef="0" IVar="-1" Cut="0.0e+00" cType="1" res="-0.010215912" rms="0.0e+00" purity="0.0e+00" nType="-99" /></Node><Node pos="r" depth="7" NCoef="0" IVar="29" Cut="0.998392463" cType="1" res="0.0e+00" rms="0.0e+00" purity="0.0e+00" nType="0"><Node pos="l" depth="8" NCoef="0" IVar="-1" Cut="0.0e+00" cType="1" res="-0.136107832" rms="0.0e+00" purity="0.0e+00" nType="-99" /><Node pos="r" depth="8" NCoef="0" IVar="-1" Cut="0.0e+00" cType="1" res="-0.0395425297" rms="0.0e+00" purity="0.0e+00" nType="-99" /></Node></Node></Node><Node pos="r" depth="5" NCoef="0" IVar="5" Cut="5032.07422" cType="1" res="0.0e+00" rms="0.0e+00" purity="0.0e+00" nType="0"><Node pos="l" depth="6" NCoef="0" IVar="0" Cut="81492.0938" cType="1" res="0.0e+00" rms="0.0e+00" purity="0.0e+00" nType="0"><Node pos="l" depth="7" NCoef="0" IVar="12" Cut="6.02554989" cType="1" res="0.0e+00" rms="0.0e+00" purity="0.0e+00" nType="0"><Node pos="l" depth="8" NCoef="0" IVar="-1" Cut="0.0e+00" cType="1" res="-0.0974391177" rms="0.0e+00" purity="0.0e+00" nType="-99" /><Node pos="r" depth="8" NCoef="0" IVar="-1" Cut="0.0e+00" cType="1" res="0.0629854277" rms="0.0e+00" purity="0.0e+00" nType="-99" /></Node><Node pos="r" depth="7" NCoef="0" IVar="16" Cut="8.80866432" cType="1" res="0.0e+00" rms="0.0e+00" purity="0.0e+00" nType="0"><Node pos="l" depth="8" NCoef="0" IVar="17" Cut="54809.4766" cType="1" res="0.0e+00" rms="0.0e+00" purity="0.0e+00" nType="0"><Node pos="l" depth="9" NCoef="0" IVar="-1" Cut="0.0e+00" cType="1" res="-0.136606187" rms="0.0e+00" purity="0.0e+00" nType="-99" /><Node pos="r" depth="9" NCoef="0" IVar="-1" Cut="0.0e+00" cType="1" res="-0.0403366685" rms="0.0e+00" purity="0.0e+00" nType="-99" /></Node><Node pos="r" depth="8" NCoef="0" IVar="-1" Cut="0.0e+00" cType="1" res="-0.0112948427" rms="0.0e+00" purity="0.0e+00" nType="-99" /></Node></Node><Node pos="r" depth="6" NCoef="0" IVar="-1" Cut="0.0e+00" cType="1" res="0.0435451679" rms="0.0e+00" purity="0.0e+00" nType="-99" /></Node></Node><Node pos="r" depth="4" NCoef="0" IVar="23" Cut="5.570158" cType="1" res="0.0e+00" rms="0.0e+00" purity="0.0e+00" nType="0"><Node pos="l" depth="5" NCoef="0" IVar="19" Cut="-54.6519852" cType="1" res="0.0e+00" rms="0.0e+00" purity="0.0e+00" nType="0"><Node pos="l" depth="6" NCoef="0" IVar="-1" Cut="0.0e+00" cType="1" res="-0.000325170055" rms="0.0e+00" purity="0.0e+00" nType="-99" /><Node pos="r" depth="6" NCoef="0" IVar="-1" Cut="0.0e+00" cType="1" res="-0.131594166" rms="0.0e+00" purity="0.0e+00" nType="-99" /></Node><Node pos="r" depth="5" NCoef="0" IVar="26" Cut="4427.12109" cType="1" res="0.0e+00" rms="0.0e+00" purity="0.0e+00" nType="0"><Node pos="l" depth="6" NCoef="0" IVar="8" Cut="0.0200980175" cType="1" res="0.0e+00" rms="0.0e+00" purity="0.0e+00" nType="0"><Node pos="l" depth="7" NCoef="0" IVar="-1" Cut="0.0e+00" cType="1" res="-0.011252447" rms="0.0e+00" purity="0.0e+00" nType="-99" /><Node pos="r" depth="7" NCoef="0" IVar="-1" Cut="0.0e+00" cType="1" res="0.114904903" rms="0.0e+00" purity="0.0e+00" nType="-99" /></Node><Node pos="r" depth="6" NCoef="0" IVar="-1" Cut="0.0e+00" cType="1" res="-0.081453383" rms="0.0e+00" purity="0.0e+00" nType="-99" /></Node></Node></Node><Node pos="r" depth="3" NCoef="0" IVar="19" Cut="-16.8971863" cType="1" res="0.0e+00" rms="0.0e+00" purity="0.0e+00" nType="0"><Node pos="l" depth="4" NCoef="0" IVar="13" Cut="10304.2354" cType="1" res="0.0e+00" rms="0.0e+00" purity="0.0e+00" nType="0"><Node pos="l" depth="5" NCoef="0" IVar="-1" Cut="0.0e+00" cType="1" res="-0.10360042" rms="0.0e+00" purity="0.0e+00" nType="-99" /><Node pos="r" depth="5" NCoef="0" IVar="6" Cut="0.999976516" cType="1" res="0.0e+00" rms="0.0e+00" purity="0.0e+00" nType="0"><Node pos="l" depth="6" NCoef="0" IVar="-1" Cut="0.0e+00" cType="1" res="-0.0361682512" rms="0.0e+00" purity="0.0e+00" nType="-99" /><Node pos="r" depth="6" NCoef="0" IVar="-1" Cut="0.0e+00" cType="1" res="0.134358659" rms="0.0e+00" purity="0.0e+00" nType="-99" /></Node></Node><Node pos="r" depth="4" NCoef="0" IVar="3" Cut="0.759911895" cType="1" res="0.0e+00" rms="0.0e+00" purity="0.0e+00" nType="0"><Node pos="l" depth="5" NCoef="0" IVar="-1" Cut="0.0e+00" cType="1" res="0.0212725773" rms="0.0e+00" purity="0.0e+00" nType="-99" /><Node pos="r" depth="5" NCoef="0" IVar="-1" Cut="0.0e+00" cType="1" res="-0.137977317" rms="0.0e+00" purity="0.0e+00" nType="-99" /></Node></Node></Node><Node pos="r" depth="2" NCoef="0" IVar="12" Cut="9.4838028" cType="1" res="0.0e+00" rms="0.0e+00" purity="0.0e+00" nType="0"><Node pos="l" depth="3" NCoef="0" IVar="5" Cut="4317.54688" cType="1" res="0.0e+00" rms="0.0e+00" purity="0.0e+00" nType="0"><Node pos="l" depth="4" NCoef="0" IVar="17" Cut="70187.2812" cType="1" res="0.0e+00" rms="0.0e+00" purity="0.0e+00" nType="0"><Node pos="l" depth="5" NCoef="0" IVar="2" Cut="0.0172755755" cType="1" res="0.0e+00" rms="0.0e+00" purity="0.0e+00" nType="0"><Node pos="l" depth="6" NCoef="0" IVar="-1" Cut="0.0e+00" cType="1" res="-0.0411701277" rms="0.0e+00" purity="0.0e+00" nType="-99" /><Node pos="r" depth="6" NCoef="0" IVar="-1" Cut="0.0e+00" cType="1" res="-0.138375297" rms="0.0e+00" purity="0.0e+00" nType="-99" /></Node><Node pos="r" depth="5" NCoef="0" IVar="-1" Cut="0.0e+00" cType="1" res="0.0227759201" rms="0.0e+00" purity="0.0e+00" nType="-99" /></Node><Node pos="r" depth="4" NCoef="0" IVar="8" Cut="0.0189908855" cType="1" res="0.0e+00" rms="0.0e+00" purity="0.0e+00" nType="0"><Node pos="l" depth="5" NCoef="0" IVar="21" Cut="6700.32471" cType="1" res="0.0e+00" rms="0.0e+00" purity="0.0e+00" nType="0"><Node pos="l" depth="6" NCoef="0" IVar="-1" Cut="0.0e+00" cType="1" res="0.00897981599" rms="0.0e+00" purity="0.0e+00" nType="-99" /><Node pos="r" depth="6" NCoef="0" IVar="-1" Cut="0.0e+00" cType="1" res="0.125180453" rms="0.0e+00" purity="0.0e+00" nType="-99" /></Node><Node pos="r" depth="5" NCoef="0" IVar="18" Cut="1901.5686" cType="1" res="0.0e+00" rms="0.0e+00" purity="0.0e+00" nType="0"><Node pos="l" depth="6" NCoef="0" IVar="-1" Cut="0.0e+00" cType="1" res="-0.123058371" rms="0.0e+00" purity="0.0e+00" nType="-99" /><Node pos="r" depth="6" NCoef="0" IVar="-1" Cut="0.0e+00" cType="1" res="0.0596758723" rms="0.0e+00" purity="0.0e+00" nType="-99" /></Node></Node></Node><Node pos="r" depth="3" NCoef="0" IVar="14" Cut="731.877258" cType="1" res="0.0e+00" rms="0.0e+00" purity="0.0e+00" nType="0"><Node pos="l" depth="4" NCoef="0" IVar="0" Cut="106413.125" cType="1" res="0.0e+00" rms="0.0e+00" purity="0.0e+00" nType="0"><Node pos="l" depth="5" NCoef="0" IVar="-1" Cut="0.0e+00" cType="1" res="0.058487501" rms="0.0e+00" purity="0.0e+00" nType="-99" /><Node pos="r" depth="5" NCoef="0" IVar="-1" Cut="0.0e+00" cType="1" res="-0.109206848" rms="0.0e+00" purity="0.0e+00" nType="-99" /></Node><Node pos="r" depth="4" NCoef="0" IVar="24" Cut="0.00656458735" cType="1" res="0.0e+00" rms="0.0e+00" purity="0.0e+00" nType="0"><Node pos="l" depth="5" NCoef="0" IVar="-1" Cut="0.0e+00" cType="1" res="-0.0314329825" rms="0.0e+00" purity="0.0e+00" nType="-99" /><Node pos="r" depth="5" NCoef="0" IVar="2" Cut="14.5994282" cType="1" res="0.0e+00" rms="0.0e+00" purity="0.0e+00" nType="0"><Node pos="l" depth="6" NCoef="0" IVar="26" Cut="2155.41309" cType="1" res="0.0e+00" rms="0.0e+00" purity="0.0e+00" nType="0"><Node pos="l" depth="7" NCoef="0" IVar="-1" Cut="0.0e+00" cType="1" res="0.0131542357" rms="0.0e+00" purity="0.0e+00" nType="-99" /><Node pos="r" depth="7" NCoef="0" IVar="-1" Cut="0.0e+00" cType="1" res="0.141267508" rms="0.0e+00" purity="0.0e+00" nType="-99" /></Node><Node pos="r" depth="6" NCoef="0" IVar="-1" Cut="0.0e+00" cType="1" res="0.00618187292" rms="0.0e+00" purity="0.0e+00" nType="-99" /></Node></Node></Node></Node></Node><Node pos="r" depth="1" NCoef="0" IVar="6" Cut="0.999984562" cType="1" res="0.0e+00" rms="0.0e+00" purity="0.0e+00" nType="0"><Node pos="l" depth="2" NCoef="0" IVar="5" Cut="3173.42407" cType="1" res="0.0e+00" rms="0.0e+00" purity="0.0e+00" nType="0"><Node pos="l" depth="3" NCoef="0" IVar="12" Cut="18.2519302" cType="1" res="0.0e+00" rms="0.0e+00" purity="0.0e+00" nType="0"><Node pos="l" depth="4" NCoef="0" IVar="19" Cut="-45.0200348" cType="1" res="0.0e+00" rms="0.0e+00" purity="0.0e+00" nType="0"><Node pos="l" depth="5" NCoef="0" IVar="-1" Cut="0.0e+00" cType="1" res="-0.00465408899" rms="0.0e+00" purity="0.0e+00" nType="-99" /><Node pos="r" depth="5" NCoef="0" IVar="-1" Cut="0.0e+00" cType="1" res="-0.135037854" rms="0.0e+00" purity="0.0e+00" nType="-99" /></Node><Node pos="r" depth="4" NCoef="0" IVar="24" Cut="0.500016272" cType="1" res="0.0e+00" rms="0.0e+00" purity="0.0e+00" nType="0"><Node pos="l" depth="5" NCoef="0" IVar="-1" Cut="0.0e+00" cType="1" res="0.0990681872" rms="0.0e+00" purity="0.0e+00" nType="-99" /><Node pos="r" depth="5" NCoef="0" IVar="-1" Cut="0.0e+00" cType="1" res="-0.0652736574" rms="0.0e+00" purity="0.0e+00" nType="-99" /></Node></Node><Node pos="r" depth="3" NCoef="0" IVar="18" Cut="358.761017" cType="1" res="0.0e+00" rms="0.0e+00" purity="0.0e+00" nType="0"><Node pos="l" depth="4" NCoef="0" IVar="-1" Cut="0.0e+00" cType="1" res="-0.0811675414" rms="0.0e+00" purity="0.0e+00" nType="-99" /><Node pos="r" depth="4" NCoef="0" IVar="10" Cut="1003.39954" cType="1" res="0.0e+00" rms="0.0e+00" purity="0.0e+00" nType="0"><Node pos="l" depth="5" NCoef="0" IVar="-1" Cut="0.0e+00" cType="1" res="-0.0484536886" rms="0.0e+00" purity="0.0e+00" nType="-99" /><Node pos="r" depth="5" NCoef="0" IVar="-1" Cut="0.0e+00" cType="1" res="0.118655048" rms="0.0e+00" purity="0.0e+00" nType="-99" /></Node></Node></Node><Node pos="r" depth="2" NCoef="0" IVar="10" Cut="419.435425" cType="1" res="0.0e+00" rms="0.0e+00" purity="0.0e+00" nType="0"><Node pos="l" depth="3" NCoef="0" IVar="9" Cut="17265.2148" cType="1" res="0.0e+00" rms="0.0e+00" purity="0.0e+00" nType="0"><Node pos="l" depth="4" NCoef="0" IVar="5" Cut="2108.87842" cType="1" res="0.0e+00" rms="0.0e+00" purity="0.0e+00" nType="0"><Node pos="l" depth="5" NCoef="0" IVar="-1" Cut="0.0e+00" cType="1" res="-0.00572062843" rms="0.0e+00" purity="0.0e+00" nType="-99" /><Node pos="r" depth="5" NCoef="0" IVar="-1" Cut="0.0e+00" cType="1" res="-0.123182535" rms="0.0e+00" purity="0.0e+00" nType="-99" /></Node><Node pos="r" depth="4" NCoef="0" IVar="-1" Cut="0.0e+00" cType="1" res="0.0634117872" rms="0.0e+00" purity="0.0e+00" nType="-99" /></Node><Node pos="r" depth="3" NCoef="0" IVar="22" Cut="102.555763" cType="1" res="0.0e+00" rms="0.0e+00" purity="0.0e+00" nType="0"><Node pos="l" depth="4" NCoef="0" IVar="3" Cut="3.64550018" cType="1" res="0.0e+00" rms="0.0e+00" purity="0.0e+00" nType="0"><Node pos="l" depth="5" NCoef="0" IVar="5" Cut="2426.51172" cType="1" res="0.0e+00" rms="0.0e+00" purity="0.0e+00" nType="0"><Node pos="l" depth="6" NCoef="0" IVar="-1" Cut="0.0e+00" cType="1" res="-0.0486601293" rms="0.0e+00" purity="0.0e+00" nType="-99" /><Node pos="r" depth="6" NCoef="0" IVar="14" Cut="2811.41846" cType="1" res="0.0e+00" rms="0.0e+00" purity="0.0e+00" nType="0"><Node pos="l" depth="7" NCoef="0" IVar="27" Cut="63.0431137" cType="1" res="0.0e+00" rms="0.0e+00" purity="0.0e+00" nType="0"><Node pos="l" depth="8" NCoef="0" IVar="-1" Cut="0.0e+00" cType="1" res="-0.0308546405" rms="0.0e+00" purity="0.0e+00" nType="-99" /><Node pos="r" depth="8" NCoef="0" IVar="6" Cut="0.999995708" cType="1" res="0.0e+00" rms="0.0e+00" purity="0.0e+00" nType="0"><Node pos="l" depth="9" NCoef="0" IVar="6" Cut="0.999991" cType="1" res="0.0e+00" rms="0.0e+00" purity="0.0e+00" nType="0"><Node pos="l" depth="10" NCoef="0" IVar="-1" Cut="0.0e+00" cType="1" res="0.0960269421" rms="0.0e+00" purity="0.0e+00" nType="-99" /><Node pos="r" depth="10" NCoef="0" IVar="-1" Cut="0.0e+00" cType="1" res="-0.0482225865" rms="0.0e+00" purity="0.0e+00" nType="-99" /></Node><Node pos="r" depth="9" NCoef="0" IVar="29" Cut="0.846049905" cType="1" res="0.0e+00" rms="0.0e+00" purity="0.0e+00" nType="0"><Node pos="l" depth="10" NCoef="0" IVar="-1" Cut="0.0e+00" cType="1" res="0.131526813" rms="0.0e+00" purity="0.0e+00" nType="-99" /><Node pos="r" depth="10" NCoef="0" IVar="-1" Cut="0.0e+00" cType="1" res="0.0367314667" rms="0.0e+00" purity="0.0e+00" nType="-99" /></Node></Node></Node><Node pos="r" depth="7" NCoef="0" IVar="27" Cut="177.144501" cType="1" res="0.0e+00" rms="0.0e+00" purity="0.0e+00" nType="0"><Node pos="l" depth="8" NCoef="0" IVar="-1" Cut="0.0e+00" cType="1" res="-0.064349167" rms="0.0e+00" purity="0.0e+00" nType="-99" /><Node pos="r" depth="8" NCoef="0" IVar="-1" Cut="0.0e+00" cType="1" res="0.086949788" rms="0.0e+00" purity="0.0e+00" nType="-99" /></Node></Node></Node><Node pos="r" depth="5" NCoef="0" IVar="-1" Cut="0.0e+00" cType="1" res="-0.109895468" rms="0.0e+00" purity="0.0e+00" nType="-99" /></Node><Node pos="r" depth="4" NCoef="0" IVar="9" Cut="160822.281" cType="1" res="0.0e+00" rms="0.0e+00" purity="0.0e+00" nType="0"><Node pos="l" depth="5" NCoef="0" IVar="5" Cut="2157.12842" cType="1" res="0.0e+00" rms="0.0e+00" purity="0.0e+00" nType="0"><Node pos="l" depth="6" NCoef="0" IVar="-1" Cut="0.0e+00" cType="1" res="0.0020140931" rms="0.0e+00" purity="0.0e+00" nType="-99" /><Node pos="r" depth="6" NCoef="0" IVar="14" Cut="492.169067" cType="1" res="0.0e+00" rms="0.0e+00" purity="0.0e+00" nType="0"><Node pos="l" depth="7" NCoef="0" IVar="24" Cut="0.0841755867" cType="1" res="0.0e+00" rms="0.0e+00" purity="0.0e+00" nType="0"><Node pos="l" depth="8" NCoef="0" IVar="-1" Cut="0.0e+00" cType="1" 