{"n_features": 12, "constraints": [-1, -1, 0, 0, 0, 0, -1, -1, -1, -1, -1, -1], "rescale_min": [-1.994797706604004, -0.8704849768881664, 0.0, -15.0, 0.0, 0.0, -11.998379101597545, -11.998379101597545, -13.952226034013467, -13.984194346574032, -13.993708451710102, -13.995480295365782], "rescale_max": [3.754153251647949, 4.264546388976442, 15.0, 15.0, 1.0, 1.0, 2.0079800691944367, 1.0783635417341169, 7.151958371567447, 7.284607467190222, 5.706069429278353, 6.478046000186386], "sigmanet.sigma": [1.2999999523162842], "sigmanet.nn.0.bias": [-0.5379811525344849, 0.8188867568969727, -1.9778159856796265, 1.969717264175415, 1.1692441701889038, 1.0318654775619507, 2.6596336364746094, 1.379193902015686, 1.0370006561279297, 1.222945213317871, 1.896491527557373, 1.2500126361846924, -1.8589264154434204, 2.0159530639648438, -2.277386426925659, -0.7803792953491211, 1.1434199810028076, 1.657240867614746, -0.3837790787220001, 2.6284823417663574, -1.4333659410476685, 2.6787660121917725, 0.7605366706848145, -2.141467332839966], "sigmanet.nn.0.sigma": [1.2999999523162842], "sigmanet.nn.0.weight_orig": [[1.2999999523162842, 0.6065349578857422, -0.0636981800198555, 0.3716793954372406, -0.1559903621673584, 0.4362596571445465, -0.15392622351646423, -0.5639700889587402, -0.0647381842136383, -0.7217987775802612, 0.22610479593276978, 0.34356024861335754], [-1.2999999523162842, -0.8204176425933838, 0.27743858098983765, 0.04560775309801102, -0.04635167866945267, -0.6518183350563049, 0.1244983896613121, 0.5096468925476074, -0.2634907066822052, 0.5700188875198364, -0.41221338510513306, 0.098590187728405], [1.2999999523162842, 1.2999999523162842, -0.04281040281057358, 0.02264815755188465, 0.03643405809998512, 0.36442598700523376, 0.16836607456207275, -0.32154661417007446, -0.2779220938682556, -0.2093021422624588, 0.5065646171569824, 0.2445715069770813], [-1.2999999523162842, -1.2999999523162842, 0.20498771965503693, 0.17763958871364594, -0.31872186064720154, -0.1611207276582718, 0.2246159017086029, 0.09846705943346024, 0.3923605978488922, 0.10950584709644318, -0.15581980347633362, -0.5794483423233032], [-1.2999999523162842, -1.1820734739303589, -1.2999999523162842, 0.3199402689933777, -0.1789686530828476, 0.11792788654565811, -0.04811821132898331, 0.20283716917037964, 0.06122398003935814, 0.22863878309726715, 0.7336351871490479, -0.34749823808670044], [-0.2559444010257721, -0.7106956839561462, 1.2999999523162842, -0.5017277002334595, 0.06724147498607635, 0.02107437141239643, -0.033118125051259995, -1.073667049407959, -0.3861537277698517, 0.6078841686248779, -0.8000630736351013, 0.694287896156311], [-1.3000000715255737, -1.2999999523162842, -0.157359778881073, 0.08576945215463638, 0.33192113041877747, 0.06027436628937721, -0.5604617595672607, 0.06933807581663132, 0.09734813868999481, 0.9572898745536804, -0.003048389218747616, -0.11388860642910004], [1.2205857038497925, -0.9360164999961853, 0.008667033165693283, 0.8157652616500854, -0.18899337947368622, -1.2021000385284424, 0.7217522263526917, -1.2999999523162842, 0.12566933035850525, 0.593552827835083, -0.006528100464493036, 0.4171989858150482], [-1.2999999523162842, -0.9383736848831177, -0.08937577158212662, 0.2394840568304062, -0.49420487880706787, -0.230513334274292, 0.18969132006168365, -0.30288055539131165, 0.08230911195278168, 0.7881593704223633, -0.031579840928316116, 0.3395971357822418], [-0.1093512549996376, -1.2999999523162842, -0.19204270839691162, -0.1675746887922287, 0.4298754930496216, 0.3746531903743744, -0.3297935724258423, -0.46682003140449524, -0.0314890518784523, -0.3136499524116516, 0.17356166243553162, 0.19403640925884247], [-1.2999999523162842, -1.2999999523162842, -0.38664984703063965, 0.389618843793869, -0.1625436395406723, -0.09308288991451263, -0.08104781806468964, -0.4192095994949341, -0.1168145164847374, 0.4585424065589905, -0.6289767622947693, 0.47992774844169617], [-1.2999999523162842, -1.2999999523162842, 0.1304745227098465, 0.16680246591567993, -0.08327013999223709, -0.758062481880188, 0.008300849236547947, -0.4178479313850403, -0.04663742333650589, 0.5539765954017639, 0.3624652326107025, 0.011613966897130013], [1.2999998331069946, 1.2999999523162842, -0.0550045482814312, 0.2837566137313843, 0.1775452196598053, -0.1475946009159088, 0.07885069400072098, 0.3344816267490387, -0.012486595660448074, -0.426469087600708, 0.1874694675207138, -0.23935024440288544], [-1.2999999523162842, -1.2999999523162842, -0.14899159967899323, -0.2384617030620575, 0.06214647740125656, 0.2038547843694687, -0.3152639865875244, -0.018320158123970032, -0.17278261482715607, 0.6908695697784424, -0.33280426263809204, -0.09548073261976242], [1.2999999523162842, 1.2999999523162842, 0.15295840799808502, -0.23964008688926697, 0.28328371047973633, 0.5169473886489868, 0.034467898309230804, 0.2121989130973816, 0.2441929429769516, -0.7593547701835632, 0.17020964622497559, -0.49665629863739014], [-1.3000000715255737, 1.041521668434143, 0.08725994825363159, -0.373948872089386, 0.16332292556762695, 0.658704936504364, 0.31804078817367554, 0.44609150290489197, -0.5314813852310181, -0.37366345524787903, -0.13528314232826233, -0.19594329595565796], [-0.25371238589286804, -0.5952624678611755, -1.0733838081359863, 1.1079769134521484, 0.34156498312950134, -0.7012497186660767, -0.8155405521392822, -1.2999999523162842, 0.31956246495246887, 0.15228548645973206, 1.038942575454712, -0.031723301857709885], [-1.2999998331069946, -1.2999999523162842, 0.6424682140350342, -0.9555359482765198, -0.5532310605049133, -0.2188005894422531, 0.45050615072250366, 1.2190369367599487, -0.4232041835784912, 0.1872132569551468, -0.4260009527206421, 0.20574592053890228], [-1.2999999523162842, 1.0776695013046265, -0.0647551491856575, -0.4075782895088196, -0.1522674560546875, -0.15747332572937012, 0.9501475691795349, 0.1303565800189972, 0.08531144261360168, 1.1786214113235474, -0.21863679587841034, 0.006602792534977198], [1.2999999523162842, -1.2999999523162842, -0.05778962001204491, 0.0709148421883583, -0.04433080181479454, -0.14895838499069214, -0.751215934753418, -0.5807256698608398, -0.12439710646867752, -1.2436444759368896, -0.07570324838161469, -0.14627781510353088], [1.2999999523162842, -0.6937398314476013, -0.3175417184829712, 0.11657829582691193, -0.06875714659690857, -0.051683228462934494, -0.30556970834732056, -0.050280194729566574, -0.6281079649925232, 0.04635286331176758, 1.2999999523162842, 1.2999999523162842], [-1.2999999523162842, -1.2999999523162842, -0.48768627643585205, 0.419523686170578, -0.20047129690647125, -0.8046556115150452, -0.38374343514442444, -0.38262128829956055, 0.37087979912757874, 0.2716672420501709, -0.535833477973938, -1.2552490234375], [-1.2999999523162842, -1.2999999523162842, 0.34480565786361694, 0.6493585109710693, 0.1221170425415039, -0.423536479473114, 1.1555835008621216, 0.4494067132472992, -0.17290078103542328, -0.3960244059562683, -1.0346609354019165, -1.1520577669143677], [1.2570223808288574, 1.2999999523162842, 0.14393089711666107, -0.25421157479286194, -0.16863292455673218, -0.07702601701021194, 0.22838094830513, 0.627544641494751, -0.0847681388258934, -0.349721223115921, 0.23948316276073456, 0.09916605800390244]], "sigmanet.nn.1.bias": [1.3340975046157837], "sigmanet.nn.1.sigma": [1.2999999523162842], "sigmanet.nn.1.weight_orig": [[-1.2999999523162842, 1.2999999523162842, -1.2999999523162842, 1.2999999523162842, 0.6054033041000366, -0.2609454393386841, 1.2999999523162842, 0.16748292744159698, -0.1215001568198204, 0.28462353348731995, 1.2999999523162842, 0.07743695378303528, -1.2999999523162842, 1.2999999523162842, 0.18031050264835358, -1.2999999523162842, 1.2693387269973755, -0.444494366645813, -1.2999999523162842, 1.2999999523162842, 1.2999999523162842, -0.5271621346473694, 0.23682960867881775, -1.2999999523162842]], "nominal_cut": 0.9}