{
  "variables_constraints": [
      [
          1.387418508529663,
          10.54786491394043
      ],
      [
        3.000000476837158,
        12.25830078125
      ],
      [
        1.0388038158416748,
        19.24363136291504
      ],
      [
        0.25112494826316833,
        6.654654026031494
      ],
      [
        2.044076919555664,
        25.444454193115234
      ],
      [
        0.2506651282310486,
        4.412975311279297
      ],
      [
        0.0006536623132530363,
        1.9716259584656948
      ],
      [
        0.0008027349522120211,
        2.9893519575904923
      ],
      [
        3.0134685039520264,
        15.976858139038086
      ],
      [
        -2.200226068496704,
        12.004477500915527
      ],
      [
        3.003087282180786,
        15.961067199707031
      ],
      [
        2.0017201900482178,
        25.301071166992188
      ],
      [
        1.004745364189148,
        19.143451690673828
      ],
      [
        -12.444333676175741,
        2.2972887456462696
      ],
      [
        -11.713829676066108,
        5.735152009796077
      ],
      [
        1.0627626180648804,
        11.95283317565918
      ],
      [
        1.003017544746399,
        11.907257080078125
      ]
  ],
  "sigmanet.sigma": [
    2.0
  ],
  "sigmanet.nn.00.bias": [
    -0.0029259000439196825,
    0.15913580358028412,
    0.1652362048625946,
    -0.08311547338962555,
    0.06125762686133385,
    0.053447745740413666,
    0.11193151772022247,
    0.14218510687351227,
    0.08760996907949448,
    -0.049692556262016296,
    0.06280938535928726,
    0.16960135102272034,
    0.0004386246728245169,
    0.024501923471689224,
    -0.0745289996266365,
    -0.1339181661605835,
    -0.056996412575244904,
    -0.061185531318187714,
    0.1784728467464447,
    -0.12050653249025345,
    0.08835162222385406,
    0.004057695623487234,
    -0.06342996656894684,
    0.036515023559331894,
    -0.02749369479715824,
    -0.03038225881755352,
    -0.11496151983737946,
    0.16190508008003235,
    0.02852695807814598,
    0.09887700527906418,
    -0.007329878397285938,
    0.1353764683008194,
    -0.004164018202573061,
    -0.19807876646518707,
    -0.08908460289239883,
    0.14998294413089752,
    0.06020529195666313,
    -0.15439777076244354,
    -0.019765058532357216,
    -0.19158127903938293,
    -0.014488392509520054,
    0.1651136428117752,
    -0.1278279721736908,
    0.16416461765766144,
    0.10017897188663483,
    -0.16867659986019135,
    -0.07795026898384094,
    0.10296555608510971,
    0.00961108785122633,
    -0.16119006276130676,
    0.025727497413754463,
    -0.05244534835219383,
    0.12345030903816223,
    0.07902395725250244,
    0.16469252109527588,
    0.02966393157839775,
    0.10663451254367828,
    0.001020341645926237,
    0.13799898326396942,
    -0.10052400082349777,
    -0.0943344384431839,
    0.01081574521958828,
    0.13065093755722046,
    0.14576728641986847,
    -0.15872953832149506,
    -0.09693774580955505,
    0.13140089809894562,
    -0.030014408752322197,
    0.16765998303890228,
    -0.03344768285751343,
    0.04374070465564728,
    -0.07056110352277756,
    -0.10282164812088013,
    0.10750874131917953,
    0.24009089171886444,
    0.16692359745502472,
    0.03735494241118431,
    -0.07932329177856445,
    0.05903170257806778,
    -0.12768562138080597,
    0.07333464175462723,
    0.07571008801460266,
    0.03272063285112381,
    0.14694584906101227,
    -0.1525065004825592,
    0.008725334890186787,
    -0.16382716596126556,
    -0.008488506078720093,
    -0.22013351321220398,
    0.024755503982305527,
    -0.06851466745138168,
    0.2090921401977539,
    0.1561385840177536,
    -0.10685066133737564,
    0.04404780641198158,
    0.052156928926706314,
    0.04813317954540253,
    0.03837532550096512,
    0.01737804338335991,
    0.005985992029309273,
    -0.010716884396970272,
    0.0961698368191719,
    -0.07449625432491302,
    0.10801788419485092,
    0.09750358015298843,
    0.1185261532664299,
    -0.09215383231639862,
    -0.11810120195150375,
    0.11369352042675018,
    -0.04507989436388016,
    0.10942601412534714,
    0.06029772385954857,
    -0.0761960819363594,
    0.060266196727752686,
    0.11245279759168625,
    -0.022758742794394493,
    -0.037433382123708725,
    0.11906824260950089,
    0.018861135467886925,
    -0.012673904187977314,
    -0.02925727143883705,
    -0.0423782654106617,
    -0.005860781297087669,
    0.15156146883964539,
    -0.09448404610157013,
    0.1676992028951645,
    0.024025149643421173,
    0.027203213423490524
  ],
  "sigmanet.nn.00.parametrizations.weight.original": [
    [
      0.0819060280919075,
      0.0820271372795105,
      -0.1929328888654709,
      0.07773687690496445,
      -0.1377546489238739,
      0.00949842482805252,
      0.17479321360588074,
      -0.04685426875948906,
      -0.18893487751483917,
      0.053968265652656555,
      -0.004346101079136133,
      0.04999504238367081,
      -0.03749021515250206,
      -0.025063499808311462,
      0.1233280673623085,
      -0.14737913012504578,
      0.01974549889564514
    ],
    [
      0.21127943694591522,
      0.18983744084835052,
      -0.21401064097881317,
      -0.23471112549304962,
      -0.03193296864628792,
      -0.14112251996994019,
      0.06826511025428772,
      0.03842441365122795,
      -0.18616093695163727,
      -0.13060486316680908,
      -0.32004982233047485,
      0.0455244779586792,
      0.2317751795053482,
      -0.003946892451494932,
      -0.1719122678041458,
      0.07895199954509735,
      -0.10620441287755966
    ],
    [
      -0.27235323190689087,
      -0.253097802400589,
      -0.0051969485357403755,
      0.090973399579525,
      0.260160356760025,
      0.10986042767763138,
      -0.10422349721193314,
      0.028157953172922134,
      0.33773595094680786,
      -0.2495962679386139,
      0.12985005974769592,
      -0.032345421612262726,
      0.10288895666599274,
      0.07184570282697678,
      -0.12406099587678909,
      -0.0599331371486187,
      0.04527699202299118
    ],
    [
      0.08028165996074677,
      0.12668241560459137,
      -0.10051333904266357,
      -0.012665078975260258,
      0.23168323934078217,
      0.22746367752552032,
      0.09752701967954636,
      -0.10222379863262177,
      0.05490748584270477,
      -0.15934589505195618,
      -0.04131077975034714,
      -0.0031031200196594,
      0.00416288897395134,
      -0.04474309831857681,
      0.0489039346575737,
      0.12286186218261719,
      -0.08042464405298233
    ],
    [
      -0.07579764723777771,
      -0.007007706444710493,
      -0.01272337231785059,
      0.02273569442331791,
      0.024796614423394203,
      -0.045326247811317444,
      0.14180542528629303,
      0.14225977659225464,
      0.0019291996723040938,
      -0.14379915595054626,
      0.06732069700956345,
      0.10418132692575455,
      -0.04136321321129799,
      -0.1178228110074997,
      -0.10201037675142288,
      -0.09030009806156158,
      0.2010297030210495
    ],
    [
      0.07197124511003494,
      0.18322069942951202,
      0.017032679170370102,
      -0.06510262191295624,
      0.29965758323669434,
      -0.17940905690193176,
      -0.14938704669475555,
      0.008743932470679283,
      -0.12653696537017822,
      -0.06413775682449341,
      -0.05269988998770714,
      -0.16472874581813812,
      -0.10481836646795273,
      -0.01712779328227043,
      0.13367801904678345,
      -0.09795355796813965,
      0.028646430000662804
    ],
    [
      -0.10506955534219742,
      0.1065174788236618,
      -0.3011927902698517,
      -0.040841370820999146,
      0.2832126319408417,
      0.08581794053316116,
      0.003778582438826561,
      -0.2899762988090515,
      -0.23417185246944427,
      0.0086978143081069,
      -0.04313373565673828,
      0.006769401486963034,
      -0.04116831347346306,
      0.1434962898492813,
      -0.1032818928360939,
      -0.21521326899528503,
      0.06222691014409065
    ],
    [
      0.04085977375507355,
      0.11072301864624023,
      -0.2547024190425873,
      -0.13254374265670776,
      0.0716804713010788,
      0.005217927973717451,
      0.056925151497125626,
      0.26772671937942505,
      -0.26506349444389343,
      -0.037908218801021576,
      -0.0975242406129837,
      -0.1212599128484726,
      -0.10925540328025818,
      -0.07427054643630981,
      -0.05080939084291458,
      -0.16148318350315094,
      0.2076776921749115
    ],
    [
      0.06514652818441391,
      0.03091908060014248,
      -0.18538910150527954,
      -0.1020941361784935,
      0.07095476984977722,
      -0.18570885062217712,
      0.11381532996892929,
      -0.09022098034620285,
      0.1131572499871254,
      -0.2075922042131424,
      0.24994221329689026,
      -0.23042592406272888,
      -0.12597107887268066,
      -0.022435955703258514,
      0.13762038946151733,
      -0.121055468916893,
      0.10078905522823334
    ],
    [
      0.31342998147010803,
      0.14808599650859833,
      -0.02836129628121853,
      0.10486560314893723,
      -0.021388337016105652,
      -0.1349232941865921,
      0.14164042472839355,
      -0.09096792340278625,
      -0.12368634343147278,
      0.019584013149142265,
      -0.1553351730108261,
      0.1253502070903778,
      0.3146684467792511,
      0.09325992316007614,
      -0.17037725448608398,
      -0.20389515161514282,
      -0.02988656796514988
    ],
    [
      -0.26350387930870056,
      -0.1245112344622612,
      -0.08693113178014755,
      0.006371492985635996,
      -0.06467301398515701,
      0.06983628869056702,
      0.10764069855213165,
      -0.1343730092048645,
      0.14784759283065796,
      -0.05206545442342758,
      -0.24117420613765717,
      -0.02985784038901329,
      0.19251300394535065,
      0.05285033956170082,
      0.023530537262558937,
      0.3350660800933838,
      -0.423386812210083
    ],
    [
      -0.21748952567577362,
      0.06188344210386276,
      0.1011011153459549,
      0.009382788091897964,
      -0.05853904038667679,
      0.17370234429836273,
      0.11226749420166016,
      -0.08746305853128433,
      -0.13090357184410095,
      -0.2634808421134949,
      0.0016330392099916935,
      0.16438494622707367,
      -0.10296835005283356,
      0.05238638073205948,
      0.009896785020828247,
      -0.5647083520889282,
      0.044977303594350815
    ],
    [
      -0.14753805100917816,
      0.08864063024520874,
      -0.2205294370651245,
      -0.13593649864196777,
      0.24747774004936218,
      0.03219808638095856,
      -0.17461617290973663,
      0.07368537783622742,
      -0.05219010263681412,
      -0.1307443380355835,
      0.08350085467100143,
      -0.05460573732852936,
      0.0893566682934761,
      0.12945634126663208,
      0.023756984621286392,
      0.14369098842144012,
      0.10627880692481995
    ],
    [
      -0.2396717220544815,
      -0.18138140439987183,
      0.20883284509181976,
      -0.051427312195301056,
      0.04742348566651344,
      -0.21243643760681152,
      0.05172118544578552,
      0.16462594270706177,
      0.33294442296028137,
      0.05242859944701195,
      0.05206209421157837,
      -0.04677368327975273,
      -0.29008784890174866,
      -0.08864404261112213,
      -0.0646609291434288,
      -0.029190700501203537,
      0.00920808780938387
    ],
    [
      -0.18554696440696716,
      -0.11791157722473145,
      0.13186506927013397,
      -0.21180887520313263,
      0.23405644297599792,
      -0.09107329696416855,
      -0.01600414514541626,
      0.048220012336969376,
      0.3999806046485901,
      -0.177062526345253,
      0.05336045101284981,
      0.07505891472101212,
      0.028281481936573982,
      -0.01596183329820633,
      0.12336399406194687,
      0.18427838385105133,
      -0.17065803706645966
    ],
    [
      -0.08354197442531586,
      0.2578034996986389,
      -0.0956220030784607,
      -0.034759968519210815,
      0.09613773971796036,
      -0.06159883365035057,
      -0.009280707687139511,
      0.05095962807536125,
      -0.4072461724281311,
      0.1571456491947174,
      -0.2421150952577591,
      0.035214006900787354,
      -0.1727752834558487,
      0.011027542874217033,
      0.10487218201160431,
      0.18512701988220215,
      0.13289764523506165
    ],
    [
      -0.021527113392949104,
      0.13238108158111572,
      -0.190116286277771,
      -0.05895429104566574,
      0.10000842064619064,
      0.26482445001602173,
      -0.06578192859888077,
      0.0167955681681633,
      0.008775798603892326,
      -0.07982491701841354,
      -0.2503514587879181,
      0.09264109283685684,
      0.07260645180940628,
      0.0002702342171687633,
      -0.03539225086569786,
      0.1741282045841217,
      0.26172539591789246
    ],
    [
      -0.04797973111271858,
      0.03584018722176552,
      0.28266626596450806,
      0.05606047064065933,
      0.08829126507043839,
      0.03133879601955414,
      0.13253243267536163,
      -0.11588955670595169,
      0.3760991394519806,
      0.0859995111823082,
      0.35973405838012695,
      -0.14530903100967407,
      -0.23572854697704315,
      -0.10545143485069275,
      -0.13233257830142975,
      0.08793853223323822,
      -0.042035214602947235
    ],
    [
      0.049948740750551224,
      -0.13697274029254913,
      0.20820917189121246,
      0.1962771713733673,
      -0.11528333276510239,
      0.08879435807466507,
      -0.15262606739997864,
      0.10141335427761078,
      -0.1390136033296585,
      -0.3240682780742645,
      0.31070879101753235,
      -0.28869926929473877,
      0.2754291296005249,
      0.05821795016527176,
      -0.14524047076702118,
      -0.040914375334978104,
      0.027384065091609955
    ],
    [
      0.06278444081544876,
      -0.12786653637886047,
      0.018912477418780327,
      0.028360094875097275,
      0.3327597975730896,
      0.21602149307727814,
      -0.14662814140319824,
      0.03944110497832298,
      -0.10803909599781036,
      0.2324196696281433,
      -0.27288755774497986,
      0.18894363939762115,
      -0.10600978881120682,
      0.0691477581858635,
      0.0556783452630043,
      -0.14424459636211395,
      0.07596880942583084
    ],
    [
      0.11533962935209274,
      -0.06353580206632614,
      0.29996350407600403,
      -0.19474169611930847,
      0.1927172839641571,
      -0.03714710846543312,
      -0.051561594009399414,
      0.14271219074726105,
      0.256007581949234,
      -0.1410493701696396,
      0.046192869544029236,
      -0.0013620600802823901,
      -0.1512126475572586,
      -0.06784053891897202,
      -0.10202141106128693,
      -0.049950819462537766,
      0.14506705105304718
    ],
    [
      -0.05545790493488312,
      -0.025417791679501534,
      0.15642835199832916,
      -0.04908739775419235,
      -0.13118092715740204,
      0.21162186563014984,
      0.20483006536960602,
      -0.08858180046081543,
      0.24745506048202515,
      0.008560724556446075,
      0.0001172218399005942,
      -0.07468173652887344,
      -0.13498517870903015,
      -0.03012141026556492,
      -0.14458055794239044,
      -0.03369720280170441,
      -0.05072399601340294
    ],
    [
      0.27097782492637634,
      0.043797798454761505,
      0.13197700679302216,
      0.18009498715400696,
      -0.16220061480998993,
      -0.07834120839834213,
      0.020717676728963852,
      0.06760954856872559,
      -0.06515414267778397,
      0.027098003774881363,
      -0.002890587318688631,
      -0.12210769206285477,
      -0.1679358184337616,
      0.08249189704656601,
      -0.02309136465191841,
      0.023972714319825172,
      -0.0054595451802015305
    ],
    [
      -0.15661565959453583,
      -0.17741519212722778,
      -0.048270221799612045,
      0.057356636971235275,
      -0.03321760892868042,
      0.21726733446121216,
      0.1588393896818161,
      0.20503287017345428,
      0.17459659278392792,
      -0.03194024786353111,
      0.035605017095804214,
      0.017335454002022743,
      -0.08749394863843918,
      -0.19183696806430817,
      -0.1896214634180069,
      0.07512372732162476,
      0.05220169946551323
    ],
    [
      0.1982385516166687,
      0.019310152158141136,
      -0.2333833873271942,
      -0.1468319594860077,
      0.2795051634311676,
      0.19267550110816956,
      0.22084388136863708,
      0.00386493606492877,
      -0.30945467948913574,
      0.06697674095630646,
      0.044870540499687195,
      -0.040330708026885986,
      0.1616257131099701,
      -0.14142103493213654,
      0.1402217596769333,
      0.06758412718772888,
      -0.2270089089870453
    ],
    [
      0.1811302751302719,
      -0.17253541946411133,
      -0.09289166331291199,
      -0.17836324870586395,
      0.2220727801322937,
      0.10809127986431122,
      0.12526895105838776,
      0.038151565939188004,
      0.24633556604385376,
      0.12449471652507782,
      -0.24367445707321167,
      0.15620028972625732,
      -0.12260447442531586,
      0.15365758538246155,
      -0.19463662803173065,
      0.05134500563144684,
      -0.17251558601856232
    ],
    [
      -0.15110209584236145,
      0.10656408220529556,
      0.21301841735839844,
      0.06685322523117065,
      -0.37684452533721924,
      0.1092519462108612,
      -0.10255367308855057,
      -0.03667913004755974,
      0.01923762448132038,
      0.25382980704307556,
      -0.17675043642520905,
      -0.16537025570869446,
      0.20006215572357178,
      0.03900790214538574,
      -0.08026284724473953,
      0.07247082144021988,
      0.06351804733276367
    ],
    [
      0.19291043281555176,
      0.16284418106079102,
      -0.162981778383255,
      -0.098403200507164,
      0.30128878355026245,
      -0.046425845474004745,
      -0.09153866767883301,
      -0.17648719251155853,
      -0.0878714993596077,
      0.04004211351275444,
      -0.12053754180669785,
      0.01024923287332058,
      0.20617106556892395,
      -0.1741933524608612,
      0.15277227759361267,
      0.02644747868180275,
      0.02163214609026909
    ],
    [
      0.059866853058338165,
      -0.15506504476070404,
      0.09039023518562317,
      -0.17297965288162231,
      0.2722746729850769,
      0.0915776863694191,
      0.030369337648153305,
      -0.04554089531302452,
      0.23988130688667297,
      0.002738610841333866,
      -0.21589255332946777,
      -0.1969822496175766,
      -0.01708943210542202,
      -0.020693883299827576,
      0.06212655454874039,
      -0.27742183208465576,
      -0.03794333338737488
    ],
    [
      0.11993502080440521,
      0.14915722608566284,
      -0.11805187910795212,
      -0.18928007781505585,
      0.2980358898639679,
      0.03394428268074989,
      0.0064943404868245125,
      0.06820529699325562,
      -0.2652309536933899,
      -0.19399742782115936,
      -0.057046886533498764,
      -0.16480329632759094,
      -0.05187031254172325,
      0.0766553059220314,
      0.17983153462409973,
      -0.0663297176361084,
      -0.16355350613594055
    ],
    [
      0.14395169913768768,
      0.12445893883705139,
      -0.2272404283285141,
      0.061570629477500916,
      0.019499218091368675,
      -0.03269794210791588,
      -0.1490025818347931,
      -0.05358915030956268,
      -0.2223329246044159,
      0.08025684207677841,
      0.007914436981081963,
      -0.134908989071846,
      0.13592278957366943,
      0.11072977632284164,
      -0.1354759782552719,
      0.04142337664961815,
      0.09689199924468994
    ],
    [
      -0.17671769857406616,
      0.020389162003993988,
      -0.35881006717681885,
      -0.07487595826387405,
      -0.006695589981973171,
      0.0011594191892072558,
      0.15110725164413452,
      -0.049510207027196884,
      -0.23135794699192047,
      0.1373063623905182,
      -0.32810601592063904,
      0.015532312914729118,
      -0.11670494824647903,
      0.09591879695653915,
      -0.015254194848239422,
      -0.09668236970901489,
      -0.05917073413729668
    ],
    [
      -0.07551731914281845,
      -0.16328345239162445,
      0.016613800078630447,
      0.13865315914154053,
      -0.08748459070920944,
      -0.16906975209712982,
      -0.05887182429432869,
      -0.15345732867717743,
      -0.19689461588859558,
      0.04292817413806915,
      0.22271029651165009,
      0.08556017279624939,
      -0.13477766513824463,
      0.16949117183685303,
      -0.12999986112117767,
      -0.07149519771337509,
      0.2549244165420532
    ],
    [
      -0.344074547290802,
      0.15557923913002014,
      0.055687204003334045,
      0.018569979816675186,
      0.06455519050359726,
      0.10329969972372055,
      0.03302916884422302,
      0.04831899330019951,
      0.21192894876003265,
      0.016147399321198463,
      -0.14002001285552979,
      -0.06417392939329147,
      -0.005453089252114296,
      0.0592254102230072,
      0.14758293330669403,
      0.0011911714682355523,
      0.16696104407310486
    ],
    [
      0.1941552609205246,
      0.15546169877052307,
      0.0022920165210962296,
      0.042476166039705276,
      -0.01977529376745224,
      -0.11254917830228806,
      -0.19500119984149933,
      -0.0023368916008621454,
      -0.20083355903625488,
      0.14495669305324554,
      0.1261407881975174,
      -0.08493117243051529,
      0.0182839035987854,
      0.03473616763949394,
      0.0674559697508812,
      -0.2526947855949402,
      -0.1770656257867813
    ],
    [
      -0.0704171434044838,
      -0.16150933504104614,
      0.08564276993274689,
      -0.19420158863067627,
      -0.12156187742948532,
      0.04657650738954544,
      -0.018802663311362267,
      0.013061325065791607,
      0.20386724174022675,
      -0.08845027536153793,
      -0.1127634197473526,
      -0.07036220282316208,
      -0.14092907309532166,
      0.02215941622853279,
      0.024505682289600372,
      -0.05625021830201149,
      -0.04359249770641327
    ],
    [
      -0.13487853109836578,
      -0.21452881395816803,
      -0.15004107356071472,
      0.06759236752986908,
      -0.024675283581018448,
      0.23574881255626678,
      0.1100526675581932,
      0.08421525359153748,
      -0.20531775057315826,
      0.07089743763208389,
      0.025215180590748787,
      0.019870396703481674,
      -0.13356810808181763,
      -0.15830452740192413,
      0.14115259051322937,
      0.019218627363443375,
      0.04458670690655708
    ],
    [
      0.29163193702697754,
      0.2577338218688965,
      0.0841611847281456,
      -0.0729835107922554,
      -0.048373978585004807,
      0.057958025485277176,
      0.03156734257936478,
      0.13902269303798676,
      0.024074114859104156,
      -0.17546740174293518,
      0.3621976375579834,
      -0.1899687647819519,
      0.0851445272564888,
      -0.01673865132033825,
      0.10062021762132645,
      -0.13517218828201294,
      -0.11420069634914398
    ],
    [
      -0.3457809090614319,
      -0.04591416195034981,
      -0.3231362998485565,
      -0.3197854161262512,
      0.006703604478389025,
      -0.09803207963705063,
      0.13507457077503204,
      -0.04535258561372757,
      0.1187160462141037,
      0.15968859195709229,
      0.1312824934720993,
      -0.06449106335639954,
      0.2055360972881317,
      -0.0060595013201236725,
      -0.02570868469774723,
      -0.03443692997097969,
      0.33561843633651733
    ],
    [
      0.25177982449531555,
      -0.057797472923994064,
      -0.16210752725601196,
      0.08934829384088516,
      0.17981907725334167,
      -0.027732403948903084,
      -0.03824439272284508,
      -0.09428893029689789,
      0.12917836010456085,
      0.10902455449104309,
      0.1824832409620285,
      -0.0016752217197790742,
      0.12385620176792145,
      0.07530231028795242,
      0.02479490078985691,
      -0.02063353732228279,
      -0.1815156638622284
    ],
    [
      -0.027334723621606827,
      0.020804425701498985,
      -0.012729999609291553,
      -0.12606069445610046,
      -0.005241948179900646,
      0.0030559771694242954,
      -0.025365501642227173,
      0.00810177531093359,
      0.008260685950517654,
      0.33227774500846863,
      -0.2801615297794342,
      -0.20254847407341003,
      0.1618541181087494,
      0.005164116621017456,
      -0.07631433755159378,
      0.018176626414060593,
      -0.38624095916748047
    ],
    [
      0.03145300969481468,
      0.12372803688049316,
      -0.22372861206531525,
      -0.05870183929800987,
      -0.2520877420902252,
      -0.016958946362137794,
      -0.028377532958984375,
      0.04522679001092911,
      -0.20623548328876495,
      -0.2124631404876709,
      0.02343127131462097,
      0.18889084458351135,
      -0.04526159167289734,
      -0.011488061398267746,
      -0.06877435743808746,
      -0.009156354703009129,
      0.33098921179771423
    ],
    [
      -0.023221690207719803,
      0.001348392921499908,
      0.07515083998441696,
      -0.019902950152754784,
      0.05540965497493744,
      -0.15588104724884033,
      -0.039225757122039795,
      0.00047952678869478405,
      -0.1311524659395218,
      -0.1773320883512497,
      -0.2149057686328888,
      -0.19324733316898346,
      0.04783514514565468,
      0.12576927244663239,
      0.0923038125038147,
      0.187164306640625,
      0.2832971215248108
    ],
    [
      -0.15233802795410156,
      -0.20511862635612488,
      0.14324240386486053,
      0.0865311324596405,
      -0.3974830210208893,
      -0.12474168837070465,
      0.18183504045009613,
      0.08286218345165253,
      0.11410460621118546,
      -0.16345390677452087,
      0.0029901182278990746,
      0.05187626928091049,
      -0.23957706987857819,
      0.0732405036687851,
      0.05308593809604645,
      0.10283470898866653,
      -0.21576076745986938
    ],
    [
      -0.2786113917827606,
      -0.07825392484664917,
      -0.14239175617694855,
      0.07221472263336182,
      -0.0680859163403511,
      -0.1546555757522583,
      0.06190827861428261,
      0.21403083205223083,
      0.08378738909959793,
      0.04682037606835365,
      0.19138188660144806,
      0.22486133873462677,
      0.12640932202339172,
      -0.15116648375988007,
      -0.04863054305315018,
      -0.01995599828660488,
      -0.05867903679609299
    ],
    [
      0.29586657881736755,
      -0.21877998113632202,
      0.05790167301893234,
      -0.012860696762800217,
      -0.0826987698674202,
      0.03700628504157066,
      -0.22933638095855713,
      -0.15915493667125702,
      -0.08165281265974045,
      0.23757866024971008,
      0.02981230989098549,
      -0.21227113902568817,
      -0.09953392297029495,
      0.03317825496196747,
      0.1617560088634491,
      -0.08942387998104095,
      0.10646816343069077
    ],
    [
      0.2645503878593445,
      0.17501699924468994,
      -0.21964135766029358,
      -0.041021693497896194,
      0.22024857997894287,
      0.04515949636697769,
      -0.1760578155517578,
      -0.08251934498548508,
      0.25562846660614014,
      -0.11190039664506912,
      -0.14388015866279602,
      -0.10575391352176666,
      -0.03431689366698265,
      -0.16548775136470795,
      0.18926410377025604,
      0.1472182422876358,
      -0.03992956504225731
    ],
    [
      -0.07515287399291992,
      -0.20270486176013947,
      0.038462575525045395,
      -0.07133952528238297,
      -0.31800568103790283,
      0.1629481017589569,
      -0.0023527892772108316,
      -0.0025515006855130196,
      0.20328164100646973,
      0.05562053620815277,
      -0.11148139834403992,
      -0.02213750220835209,
      -0.11406400799751282,
      0.09905704855918884,
      0.1397537887096405,
      0.2152799814939499,
      -0.13736847043037415
    ],
    [
      0.050388436764478683,
      0.030673645436763763,
      -0.09389887005090714,
      -0.13424982130527496,
      0.12274733930826187,
      0.04193946346640587,
      -0.0031924995128065348,
      -0.08732279390096664,
      0.1402142196893692,
      -0.19443508982658386,
      0.07661563158035278,
      0.2720348834991455,
      -0.002981789642944932,
      -0.00169705122243613,
      -0.03474748879671097,
      0.057050932198762894,
      -0.09123220294713974
    ],
    [
      -0.1628699153661728,
      0.09213928878307343,
      -0.09866373986005783,
      -0.08054604381322861,
      -0.07724834978580475,
      0.13465780019760132,
      0.00856556836515665,
      -0.14623872935771942,
      0.21135419607162476,
      0.256663978099823,
      0.13662897050380707,
      0.07538411021232605,
      0.2672809362411499,
      -0.09753970056772232,
      0.04068351536989212,
      0.2624863088130951,
      0.20233087241649628
    ],
    [
      0.00675701629370451,
      -0.2326958328485489,
      0.05945299565792084,
      -0.026648560538887978,
      -0.1707954704761505,
      -0.003993801306933165,
      -0.1335500031709671,
      0.17920935153961182,
      0.22742992639541626,
      0.024897631257772446,
      0.19683630764484406,
      0.02523697540163994,
      0.05024189129471779,
      0.03126321732997894,
      -0.16160699725151062,
      -0.1910874992609024,
      -0.08397674560546875
    ],
    [
      0.0943278968334198,
      -0.07240256667137146,
      0.013672822155058384,
      0.0188895370811224,
      0.08681620657444,
      -0.08296646177768707,
      0.04895108565688133,
      -0.12221322953701019,
      -0.23965562880039215,
      0.1970030814409256,
      0.019857896491885185,
      -0.09994364529848099,
      0.20283690094947815,
      0.0559459887444973,
      0.007494430989027023,
      0.14791496098041534,
      -0.17533768713474274
    ],
    [
      0.13303226232528687,
      -0.09686240553855896,
      -0.08199945092201233,
      0.08727337419986725,
      -0.030095893889665604,
      -0.0018506022170186043,
      0.2356467843055725,
      -0.19382049143314362,
      -0.0963587686419487,
      -0.16866284608840942,
      0.0964779332280159,
      -0.028685573488473892,
      0.00532040698453784,
      0.010701224207878113,
      -0.09752137213945389,
      -0.019872566685080528,
      0.16527535021305084
    ],
    [
      0.022779390215873718,
      -0.08547153323888779,
      0.002307901391759515,
      0.10274960100650787,
      -0.10569531470537186,
      -0.08409802615642548,
      -0.06486331671476364,
      0.09229579567909241,
      -0.2225978672504425,
      -0.07741416990756989,
      0.2091716080904007,
      -0.17028984427452087,
      0.11331473290920258,
      -0.10651659965515137,
      -0.1345493346452713,
      0.22795169055461884,
      0.06584178656339645
    ],
    [
      -0.20439931750297546,
      0.06853517889976501,
      0.13296887278556824,
      -0.1678810864686966,
      0.1947038322687149,
      -0.2005029320716858,
      -0.11693693697452545,
      -0.04225247725844383,
      0.20380142331123352,
      0.09702999144792557,
      -0.17605525255203247,
      0.07068277895450592,
      0.23024483025074005,
      -0.07842017710208893,
      -0.0004576785722747445,
      -0.2454271912574768,
      -0.14399752020835876
    ],
    [
      -0.164329394698143,
      0.2944685220718384,
      -0.1610429883003235,
      -0.03831540048122406,
      0.03255073353648186,
      0.2130308598279953,
      -0.1152157410979271,
      0.03470461443066597,
      -0.15112973749637604,
      0.2761348783969879,
      -0.23677273094654083,
      -0.029730627313256264,
      0.26486536860466003,
      -0.09841056168079376,
      -0.06571420282125473,
      -0.12047605216503143,
      -0.10298392176628113
    ],
    [
      0.1488901972770691,
      0.17262618243694305,
      -0.07176873832941055,
      -0.06705621629953384,
      0.22372344136238098,
      -0.11201530694961548,
      -0.10428229719400406,
      -0.14336185157299042,
      -0.20894020795822144,
      -0.16677652299404144,
      0.08821024745702744,
      -0.029438361525535583,
      0.15336649119853973,
      0.20888978242874146,
      -0.1552140712738037,
      0.11779777705669403,
      -0.1309209167957306
    ],
    [
      -0.05350995808839798,
      -0.0860958844423294,
      -0.08199930191040039,
      0.07471895217895508,
      -0.2935795783996582,
      -0.020845167338848114,
      0.11346491426229477,
      -0.17798656225204468,
      0.10991357266902924,
      0.0658860132098198,
      0.11434569954872131,
      0.20909172296524048,
      0.014917183667421341,
      -0.0952141284942627,
      -0.09084433317184448,
      0.21420450508594513,
      -0.2012282758951187
    ],
    [
      -0.08196671307086945,
      0.19596488773822784,
      -0.21336805820465088,
      -0.18825827538967133,
      -0.029837913811206818,
      -0.033631451427936554,
      -0.04204753413796425,
      -0.1550823450088501,
      -0.3547789454460144,
      0.006744302809238434,
      0.09874346107244492,
      0.07876326888799667,
      0.008050819858908653,
      -0.01746305450797081,
      0.020428450778126717,
      -0.006238971836864948,
      -0.008617554791271687
    ],
    [
      -0.015528876334428787,
      -0.1323334127664566,
      -0.04050612449645996,
      -0.09232759475708008,
      -0.12209297716617584,
      -0.03346062824130058,
      0.07160311192274094,
      -0.10112851858139038,
      0.20196083188056946,
      0.15559187531471252,
      0.1590573638677597,
      0.07248339802026749,
      -0.051479775458574295,
      -0.04918902739882469,
      -0.12698708474636078,
      0.17258629202842712,
      -0.03811148181557655
    ],
    [
      -0.13219141960144043,
      -0.18967509269714355,
      -0.15070125460624695,
      -0.028801806271076202,
      -0.07844303548336029,
      -0.11894356459379196,
      0.109042227268219,
      0.2310999482870102,
      0.023811878636479378,
      -0.20332561433315277,
      0.12234188616275787,
      0.1483789086341858,
      -0.10467833280563354,
      0.190029576420784,
      0.1582326740026474,
      -0.11795827746391296,
      -0.01286862138658762
    ],
    [
      -0.12335653603076935,
      -0.11109616607427597,
      0.05445602536201477,
      -0.14313922822475433,
      -0.06662194430828094,
      0.018948065117001534,
      0.10311058163642883,
      -0.08194862306118011,
      0.14581294357776642,
      0.1503945291042328,
      0.1915823370218277,
      -0.12541727721691132,
      0.07331286370754242,
      0.13316279649734497,
      -0.25131016969680786,
      -0.060090962797403336,
      -0.09212255477905273
    ],
    [
      -0.08261231333017349,
      -0.17010566592216492,
      -0.15597008168697357,
      -0.17131957411766052,
      -0.04222434014081955,
      0.04953312873840332,
      -0.08649693429470062,
      -0.15385785698890686,
      -0.2557748556137085,
      -0.2690473794937134,
      -0.03082197718322277,
      -0.014291176572442055,
      -0.12074173241853714,
      0.11013789474964142,
      0.006053213030099869,
      0.12158443033695221,
      0.03647005558013916
    ],
    [
      -0.3421534299850464,
      -0.262580543756485,
      0.02091643400490284,
      -0.05375497788190842,
      -0.22716966271400452,
      -0.017438773065805435,
      -0.030292291194200516,
      0.21262769401073456,
      0.20350244641304016,
      -0.16715089976787567,
      0.21929985284805298,
      0.014323621988296509,
      0.07788309454917908,
      0.11382825672626495,
      -0.1060449481010437,
      -0.03224581107497215,
      -0.018662916496396065
    ],
    [
      0.30855563282966614,
      0.23440498113632202,
      0.13824062049388885,
      0.01592210680246353,
      0.001558479736559093,
      -0.15500901639461517,
      0.11765960603952408,
      -0.11120229959487915,
      -0.03440980240702629,
      -0.04836317524313927,
      0.05043433606624603,
      -0.06355426460504532,
      0.07065637409687042,
      -0.025370797142386436,
      0.11132960021495819,
      -0.07960343360900879,
      -0.00799146294593811
    ],
    [
      0.014967598952353,
      -0.31421685218811035,
      0.022758258506655693,
      0.12183204293251038,
      0.2218439280986786,
      0.04361698031425476,
      0.10410400480031967,
      0.027885423973202705,
      0.14708749949932098,
      0.15831245481967926,
      0.03016000986099243,
      0.12633895874023438,
      -0.1265544444322586,
      -0.11778797209262848,
      0.1459478735923767,
      0.13769301772117615,
      0.27482742071151733
    ],
    [
      -0.19919542968273163,
      -0.1711791604757309,
      0.10120731592178345,
      0.16998517513275146,
      0.20981979370117188,
      0.41487133502960205,
      -0.020509103313088417,
      -0.0387268140912056,
      -0.13273486495018005,
      -0.011906051076948643,
      0.022181933745741844,
      1.4090649528952781e-05,
      -0.1421460062265396,
      -0.21682500839233398,
      0.1463204026222229,
      -0.12142040580511093,
      0.1415187567472458
    ],
    [
      0.11630971729755402,
      -0.15001851320266724,
      -0.02217002771794796,
      -0.0501466728746891,
      -0.20621737837791443,
      -0.24480746686458588,
      0.059302136301994324,
      0.30525070428848267,
      -0.05092528089880943,
      0.15288221836090088,
      -0.08494345098733902,
      0.007018187548965216,
      0.006432517431676388,
      -0.08588159829378128,
      0.005244627129286528,
      0.11812593042850494,
      0.033875565975904465
    ],
    [
      -0.10814188420772552,
      0.028397543355822563,
      0.05230157822370529,
      0.12055427581071854,
      -0.17185084521770477,
      -0.14031289517879486,
      -0.028595881536602974,
      0.05214177072048187,
      -0.15242770314216614,
      -0.02494179457426071,
      0.02613966166973114,
      -0.09400080144405365,
      -0.087673120200634,
      -0.2596486508846283,
      0.05691293999552727,
      0.037700191140174866,
      0.13848695158958435
    ],
    [
      0.1991850733757019,
      -0.09597349911928177,
      -0.07294024527072906,
      0.0652732327580452,
      0.002458117436617613,
      -0.05257021635770798,
      -0.13320504128932953,
      0.09820282459259033,
      0.10393207520246506,
      -0.08016259223222733,
      0.06246061995625496,
      0.09000853449106216,
      -0.12277572602033615,
      0.07750559598207474,
      -0.11277296394109726,
      0.3012649714946747,
      0.19262394309043884
    ],
    [
      -0.030667351558804512,
      -0.2048906683921814,
      0.17448580265045166,
      -0.1301344782114029,
      -0.11002981662750244,
      -0.019512897357344627,
      0.012795605696737766,
      0.08812355250120163,
      -0.05067771300673485,
      0.07396683841943741,
      0.21016672253608704,
      0.08779790997505188,
      0.024046486243605614,
      -0.10917692631483078,
      0.017826076596975327,
      0.08357059210538864,
      -0.007043402176350355
    ],
    [
      -0.1707504689693451,
      -0.11754582077264786,
      -0.1450432538986206,
      0.1026206985116005,
      0.21859322488307953,
      -0.129278764128685,
      -0.06565108895301819,
      -0.16906021535396576,
      0.09476359933614731,
      0.2834753692150116,
      0.05065711960196495,
      -0.10379450768232346,
      0.13941821455955505,
      -0.06321202963590622,
      -0.003673719009384513,
      0.21037305891513824,
      -0.14924609661102295
    ],
    [
      -0.08702725172042847,
      -0.15630735456943512,
      0.294475257396698,
      0.046225517988204956,
      -0.07755737006664276,
      -0.031584884971380234,
      -0.21427291631698608,
      0.010439300909638405,
      -0.23212149739265442,
      0.10669812560081482,
      -0.19026929140090942,
      -0.040765631943941116,
      -0.010697303339838982,
      0.13565562665462494,
      0.05059549957513809,
      0.12524975836277008,
      -0.003133955644443631
    ],
    [
      -0.03116546757519245,
      -0.126998171210289,
      -0.1355658918619156,
      -0.01783822849392891,
      -0.44809114933013916,
      -0.00451517291367054,
      0.066138356924057,
      0.12104956060647964,
      0.07116211950778961,
      0.036211393773555756,
      0.02600938268005848,
      -0.020563507452607155,
      -0.2912222743034363,
      0.017843997105956078,
      -0.1977439969778061,
      0.22519759833812714,
      0.18215759098529816
    ],
    [
      -0.15982572734355927,
      -0.01798342913389206,
      0.10499976575374603,
      0.07005094736814499,
      -0.05982010439038277,
      -0.054434776306152344,
      -0.045797545462846756,
      -0.0057896822690963745,
      -0.006884966045618057,
      -0.063604436814785,
      0.09882895648479462,
      -0.16945049166679382,
      -0.15660110116004944,
      -0.09206271171569824,
      -0.1416936069726944,
      -0.11764393746852875,
      0.12482484430074692
    ],
    [
      -0.18126942217350006,
      0.19441917538642883,
      0.22777289152145386,
      0.17356878519058228,
      0.5109283924102783,
      0.24816012382507324,
      -0.07234378159046173,
      -0.13578298687934875,
      -0.06459779292345047,
      -0.052104465663433075,
      -0.11774437129497528,
      0.29149752855300903,
      0.20029780268669128,
      -0.1448650062084198,
      -0.09549283981323242,
      -0.21807919442653656,
      -0.018240787088871002
    ],
    [
      0.002320234663784504,
      -0.040188927203416824,
      0.054369598627090454,
      0.0017348317196592689,
      0.22976936399936676,
      -0.1140560582280159,
      -0.06006511300802231,
      -0.006189629435539246,
      -0.12713566422462463,
      0.06866222620010376,
      0.16149930655956268,
      0.21432612836360931,
      -0.39504411816596985,
      0.008339065127074718,
      -0.031541503965854645,
      -0.40137138962745667,
      0.5186368227005005
    ],
    [
      -0.05702032893896103,
      -0.12025714665651321,
      -0.06158162280917168,
      0.033625293523073196,
      -0.12092556804418564,
      0.026821160688996315,
      -0.04452838376164436,
      0.06178293004631996,
      0.06351140141487122,
      0.15760348737239838,
      0.018602095544338226,
      -0.13789768517017365,
      0.25371548533439636,
      0.029404280707240105,
      -0.057062841951847076,
      0.5383075475692749,
      -0.29770591855049133
    ],
    [
      0.10438843816518784,
      0.04437083750963211,
      0.000267803727183491,
      0.048890840262174606,
      0.15965598821640015,
      0.024990400299429893,
      -0.02682589739561081,
      0.037870265543460846,
      -0.14362254738807678,
      -0.058909375220537186,
      0.004254613071680069,
      -0.09211262315511703,
      -0.19119136035442352,
      0.14229504764080048,
      -0.210905522108078,
      0.17010745406150818,
      0.03181877359747887
    ],
    [
      -0.2934105694293976,
      0.09174661338329315,
      -0.054821982979774475,
      0.038128167390823364,
      0.0006524559576064348,
      -0.19116032123565674,
      0.0800645649433136,
      -0.024988047778606415,
      0.06258571892976761,
      0.10428906232118607,
      0.0196647010743618,
      -0.08022216707468033,
      0.25127315521240234,
      0.15615274012088776,
      -0.047610457986593246,
      -0.245152547955513,
      0.1329457014799118
    ],
    [
      -0.054509155452251434,
      -0.16600516438484192,
      0.1230689063668251,
      -0.0035526698920875788,
      0.18279039859771729,
      -0.1094978004693985,
      0.12642663717269897,
      0.04187077656388283,
      -0.2097991555929184,
      0.19615547358989716,
      -0.0036458626855164766,
      -0.09171254187822342,
      0.19745099544525146,
      0.08090566098690033,
      -0.25452736020088196,
      -0.03552330285310745,
      0.16190020740032196
    ],
    [
      0.020571162924170494,
      -0.17519037425518036,
      0.13205164670944214,
      -0.06633902341127396,
      -0.19364944100379944,
      -0.0354604609310627,
      0.07131051272153854,
      0.02602078951895237,
      0.01661381870508194,
      -0.1885267198085785,
      0.01712287962436676,
      -0.07654871046543121,
      -0.21027401089668274,
      0.09726651757955551,
      -0.08905096352100372,
      0.1242147907614708,
      -0.18105900287628174
    ],
    [
      0.057931698858737946,
      0.09226492792367935,
      0.11289869248867035,
      -0.04705025255680084,
      0.19740578532218933,
      0.10838888585567474,
      -0.12807849049568176,
      0.002489296020939946,
      -0.16748803853988647,
      0.15188197791576385,
      -0.030575543642044067,
      -0.20905748009681702,
      -0.013296269811689854,
      0.0008838575449772179,
      -0.10863891988992691,
      -0.018891355022788048,
      -0.08471095561981201
    ],
    [
      0.17006716132164001,
      -0.06867048889398575,
      -0.06320275366306305,
      0.0766557902097702,
      0.2383643090724945,
      0.014951885677874088,
      -0.11661851406097412,
      0.00785612128674984,
      -0.1103980615735054,
      -0.19245940446853638,
      0.08184143900871277,
      0.05249546840786934,
      -0.01061341818422079,
      0.12855634093284607,
      -0.012266702018678188,
      -0.026217196136713028,
      0.08066607266664505
    ],
    [
      0.09643753618001938,
      0.10317475348711014,
      0.1297897845506668,
      0.029464883729815483,
      0.46580687165260315,
      0.07710467278957367,
      0.006251228507608175,
      -0.04109998047351837,
      0.013569487258791924,
      0.20485351979732513,
      0.32121336460113525,
      -0.030268218368291855,
      0.145904541015625,
      -0.13043569028377533,
      0.07200190424919128,
      -0.15026777982711792,
      0.034624602645635605
    ],
    [
      0.007447618525475264,
      0.07494090497493744,
      -0.17441534996032715,
      0.060600291937589645,
      -0.10020333528518677,
      0.0802532359957695,
      -0.024836689233779907,
      0.037335269153118134,
      -0.11241364479064941,
      0.06865687668323517,
      0.10125868767499924,
      -0.08822064846754074,
      0.012610867619514465,
      0.037729766219854355,
      -0.23855943977832794,
      0.22354981303215027,
      0.2706686854362488
    ],
    [
      0.08182085305452347,
      -0.18078461289405823,
      -0.127308651804924,
      -0.19428931176662445,
      -0.37174785137176514,
      -0.13466545939445496,
      -0.15300382673740387,
      -0.15057328343391418,
      0.3127725124359131,
      0.10405746102333069,
      -0.055467333644628525,
      -0.3154745101928711,
      0.08994536101818085,
      0.17892087996006012,
      0.03735367953777313,
      0.209843710064888,
      0.16298843920230865
    ],
    [
      0.1466386765241623,
      -0.034063395112752914,
      -0.18867066502571106,
      -0.2910386025905609,
      0.2689841091632843,
      -0.1933552771806717,
      -0.042321041226387024,
      0.17338982224464417,
      -0.15950898826122284,
      -0.0917818620800972,
      0.18757948279380798,
      0.27789387106895447,
      0.07670789957046509,
      0.11261506378650665,
      -0.1344960480928421,
      -0.09358969330787659,
      0.2234858274459839
    ],
    [
      -0.2677357494831085,
      0.09778114408254623,
      0.16473646461963654,
      0.05318598076701164,
      0.1970512866973877,
      -0.039834827184677124,
      0.15738101303577423,
      0.05768178403377533,
      0.17552798986434937,
      -0.0180547833442688,
      0.2211393266916275,
      -0.13941852748394012,
      0.2756619453430176,
      0.04159163683652878,
      -0.018045343458652496,
      -0.003677717177197337,
      0.10398434102535248
    ],
    [
      0.1573965847492218,
      0.15291664004325867,
      -0.07371420413255692,
      0.001834820955991745,
      0.16550026834011078,
      -0.01086653396487236,
      0.11740534752607346,
      -0.023352554067969322,
      -0.318550705909729,
      0.02296425588428974,
      -0.11944639682769775,
      -0.27386474609375,
      0.03094225935637951,
      -0.06527179479598999,
      0.10491662472486496,
      0.007728027645498514,
      -0.04619859531521797
    ],
    [
      -0.08869187533855438,
      0.21775215864181519,
      0.0919027030467987,
      -0.17469999194145203,
      0.26119205355644226,
      0.24997840821743011,
      0.041834596544504166,
      -0.10338138788938522,
      0.158095583319664,
      -0.015091627836227417,
      -0.188271626830101,
      -0.21640942990779877,
      -0.05840730667114258,
      0.0048349229618906975,
      0.07590113580226898,
      -0.08170763403177261,
      -0.09344794601202011
    ],
    [
      -0.1273244172334671,
      -0.1241849735379219,
      -0.0033472669310867786,
      -0.1537019908428192,
      -0.13099399209022522,
      -0.23602987825870514,
      0.03277688845992088,
      -0.07207810878753662,
      0.17810846865177155,
      -0.13370324671268463,
      0.17716601490974426,
      0.07730811089277267,
      -0.00034633089671842754,
      -0.06408721208572388,
      -0.12240660935640335,
      0.17482613027095795,
      0.008358492515981197
    ],
    [
      -0.1979013830423355,
      0.07550710439682007,
      -0.13878962397575378,
      -0.059276994317770004,
      -0.180431067943573,
      -0.3291182816028595,
      -0.18081438541412354,
      -0.0028282362036406994,
      0.1945718228816986,
      -0.24776607751846313,
      -0.021001994609832764,
      0.07611621171236038,
      -0.06109808012843132,
      0.02468767575919628,
      0.10884175449609756,
      -0.04407597705721855,
      -0.017546584829688072
    ],
    [
      -0.0928209125995636,
      0.09448114782571793,
      -0.10888348519802094,
      0.11350876837968826,
      0.164894238114357,
      0.2584373652935028,
      -0.04032900556921959,
      0.017552003264427185,
      0.14884766936302185,
      0.06777417659759521,
      0.05192137137055397,
      -0.16221579909324646,
      0.13215820491313934,
      -0.0571957528591156,
      0.02918245829641819,
      -0.15118181705474854,
      -0.005937990266829729
    ],
    [
      0.14922870695590973,
      0.2069203108549118,
      0.09561817348003387,
      0.1557249128818512,
      -0.23124881088733673,
      -0.06915589421987534,
      0.008112801238894463,
      -0.019131867215037346,
      0.1101202741265297,
      -0.1728048473596573,
      -0.1518993377685547,
      0.15950709581375122,
      0.09837399423122406,
      0.014764556661248207,
      -0.13342224061489105,
      0.16332530975341797,
      -0.0622321180999279
    ],
    [
      -0.0421857014298439,
      -0.07747829705476761,
      -0.09412616491317749,
      0.1696125864982605,
      -0.217939093708992,
      0.14018231630325317,
      0.18448512256145477,
      0.13873885571956635,
      -0.03407055512070656,
      0.17217743396759033,
      0.1576492190361023,
      0.09596915543079376,
      0.04329603537917137,
      -0.16012714803218842,
      -0.12234130501747131,
      -0.23495733737945557,
      -0.21008147299289703
    ],
    [
      0.055414460599422455,
      -0.13765375316143036,
      0.0038452520966529846,
      0.1279236376285553,
      0.19815008342266083,
      -0.07398289442062378,
      0.0792127177119255,
      0.004580482840538025,
      0.18476231396198273,
      -0.0754711851477623,
      0.031058600172400475,
      -0.11773595958948135,
      0.2524854838848114,
      0.08988487720489502,
      -0.07911573350429535,
      0.02840544283390045,
      -0.3703896105289459
    ],
    [
      -0.1508936583995819,
      -0.06241275370121002,
      -0.001720860251225531,
      -0.12150616198778152,
      0.291748970746994,
      -0.047636501491069794,
      0.20321860909461975,
      -0.05941837653517723,
      -0.0008439074736088514,
      0.020443106070160866,
      0.0372331365942955,
      0.134272038936615,
      -0.299167275428772,
      -0.001322812750004232,
      -0.008523407392203808,
      0.06341395527124405,
      0.5753517150878906
    ],
    [
      -0.11823668330907822,
      -0.1515784114599228,
      -0.30257341265678406,
      -0.05914159119129181,
      -0.18598559498786926,
      0.026142768561840057,
      0.14432761073112488,
      -0.29931068420410156,
      -0.08416341990232468,
      0.10791314393281937,
      0.14630338549613953,
      0.0644824281334877,
      0.08934244513511658,
      -0.07564569264650345,
      0.14056839048862457,
      0.06290813535451889,
      0.08103914558887482
    ],
    [
      -0.24673214554786682,
      -0.09008079022169113,
      0.13065201044082642,
      0.09729380905628204,
      -0.2792944610118866,
      -0.07176598906517029,
      0.11378603428602219,
      0.08836568146944046,
      0.11061608791351318,
      -0.03202178701758385,
      -0.06468124687671661,
      -0.12932755053043365,
      0.0971202403306961,
      -0.019836144521832466,
      0.0878651887178421,
      -0.1756366640329361,
      0.14997559785842896
    ],
    [
      0.2194775640964508,
      -0.13813944160938263,
      -0.2097371220588684,
      -0.04910952225327492,
      0.3272534906864166,
      -0.01622065342962742,
      0.0470772311091423,
      -0.04986027628183365,
      -0.2541244626045227,
      0.061395321041345596,
      -0.22950948774814606,
      -0.3911137282848358,
      0.18411673605442047,
      0.07952644675970078,
      0.004328865557909012,
      -0.06835285574197769,
      0.11576881259679794
    ],
    [
      0.08523107320070267,
      0.041410233825445175,
      -0.11124671995639801,
      -0.0010697920806705952,
      0.01782040111720562,
      -0.05753763020038605,
      0.12841345369815826,
      -0.01881227269768715,
      -0.008771750144660473,
      -0.28977909684181213,
      0.2067854255437851,
      0.46896928548812866,
      -0.25844520330429077,
      -0.017176417633891106,
      0.0046476516872644424,
      -0.08768243342638016,
      0.08767228573560715
    ],
    [
      0.16085591912269592,
      0.06367973238229752,
      -0.012438282370567322,
      -0.22482755780220032,
      0.18655212223529816,
      -0.07940882444381714,
      -0.08669828623533249,
      0.13964147865772247,
      -0.10571560263633728,
      0.08991791307926178,
      0.16642354428768158,
      0.07466983050107956,
      0.2692253291606903,
      -0.11016818881034851,
      -0.10229695588350296,
      0.10879822075366974,
      -0.030015738680958748
    ],
    [
      -0.034813106060028076,
      -0.11783023923635483,
      0.010428051464259624,
      -0.1489550918340683,
      -0.25318026542663574,
      0.02203294262290001,
      -0.12044478207826614,
      0.1073351800441742,
      0.046465493738651276,
      0.07622968405485153,
      0.1284039467573166,
      0.024466536939144135,
      -0.19907627999782562,
      -0.01785990223288536,
      -0.0575953833758831,
      -0.01972988434135914,
      0.0834980309009552
    ],
    [
      -0.20693038403987885,
      -0.29791662096977234,
      0.01094457134604454,
      0.08749445527791977,
      -0.24286462366580963,
      -0.025302685797214508,
      -0.14515644311904907,
      -0.19061590731143951,
      0.1238638237118721,
      0.04966820031404495,
      0.14965316653251648,
      -0.1384706050157547,
      0.2884300947189331,
      0.18063975870609283,
      -0.0014950375771149993,
      -0.0430600568652153,
      -0.31663957238197327
    ],
    [
      -0.3475532531738281,
      -0.2035619467496872,
      -0.25875410437583923,
      -0.2950523793697357,
      -0.26162466406822205,
      0.20351973176002502,
      0.22011855244636536,
      -0.148237943649292,
      -0.0786123275756836,
      -0.038301486521959305,
      0.07943182438611984,
      -0.15837563574314117,
      -0.12599264085292816,
      0.10576131939888,
      -0.1678919941186905,
      -0.009829872287809849,
      0.23739215731620789
    ],
    [
      0.036783114075660706,
      0.20854021608829498,
      -0.011544219218194485,
      0.008143427781760693,
      0.11664912104606628,
      0.07578461617231369,
      0.09270098060369492,
      0.06854677945375443,
      -0.07262758165597916,
      -0.14177870750427246,
      0.06978445500135422,
      -0.18098323047161102,
      0.09451279789209366,
      0.22136053442955017,
      -0.1299401968717575,
      0.13326337933540344,
      -0.17554055154323578
    ],
    [
      0.10595937818288803,
      -0.10318515449762344,
      0.2949570119380951,
      0.1718820035457611,
      -0.19315184652805328,
      -0.152216374874115,
      -0.08054699748754501,
      0.07939258962869644,
      0.10541285574436188,
      0.025031667202711105,
      -0.0802951455116272,
      -0.06707289069890976,
      0.012676937505602837,
      0.05492483079433441,
      -0.01623767986893654,
      -0.0122660668566823,
      0.1918773204088211
    ],
    [
      0.06944339722394943,
      0.007221726700663567,
      -0.288006454706192,
      -0.283216655254364,
      0.021244453266263008,
      0.008400967344641685,
      -0.08243880420923233,
      -0.047025613486766815,
      -0.058801934123039246,
      -0.09690336138010025,
      0.14992360770702362,
      0.029453419148921967,
      -0.2918231785297394,
      0.12683013081550598,
      -0.1234409362077713,
      -0.02702268213033676,
      0.3713490068912506
    ],
    [
      0.1280631572008133,
      -0.051630426198244095,
      0.08881299197673798,
      0.010693380609154701,
      0.28076982498168945,
      -0.13576523959636688,
      -0.09808354079723358,
      -0.07352571934461594,
      -0.14180880784988403,
      0.046465061604976654,
      0.10247399657964706,
      -0.11821635812520981,
      0.46092861890792847,
      0.19033698737621307,
      -0.027237897738814354,
      -0.06214682385325432,
      -0.15231171250343323
    ],
    [
      0.12405484169721603,
      -0.06979482620954514,
      -0.047571975737810135,
      -0.001528367167338729,
      0.23279082775115967,
      -0.1232285127043724,
      -0.041045043617486954,
      0.052409395575523376,
      -0.1960829347372055,
      0.052360016852617264,
      -0.04045746102929115,
      -0.14011181890964508,
      -0.0444590300321579,
      0.14330586791038513,
      0.028997592628002167,
      -0.03848141059279442,
      -0.1729307472705841
    ],
    [
      -0.22338885068893433,
      -0.22496333718299866,
      0.1533716917037964,
      0.0010912632569670677,
      -0.14878784120082855,
      -0.06778459995985031,
      0.20075960457324982,
      -0.07530484348535538,
      -0.11225532740354538,
      0.20747776329517365,
      -0.09787606447935104,
      0.21667204797267914,
      -0.026842759922146797,
      -0.07885755598545074,
      -0.14238090813159943,
      0.24713270366191864,
      -0.17322278022766113
    ],
    [
      -0.18239152431488037,
      -0.08384579420089722,
      0.004301885608583689,
      -0.10861507803201675,
      -0.4043410122394562,
      0.0242476686835289,
      0.09122996032238007,
      -0.19498363137245178,
      0.047774992883205414,
      -0.05690007284283638,
      0.056557245552539825,
      0.2504032254219055,
      0.03679777681827545,
      0.06720920652151108,
      0.11118432134389877,
      0.10408106446266174,
      0.0720161497592926
    ],
    [
      -0.26312056183815,
      -0.07366441935300827,
      0.07926871627569199,
      0.07282844185829163,
      0.1826588213443756,
      -0.010463091544806957,
      -0.0314868688583374,
      -0.08428744971752167,
      0.21648000180721283,
      -0.271444708108902,
      -0.07810448855161667,
      -0.05228694900870323,
      -0.5227524638175964,
      0.14484168589115143,
      -0.08909416198730469,
      0.18000218272209167,
      0.10482118278741837
    ],
    [
      0.08519894629716873,
      -0.11668165028095245,
      0.18396411836147308,
      0.13667936623096466,
      0.11529684066772461,
      0.042607951909303665,
      -0.14376752078533173,
      -0.07942047715187073,
      0.15231499075889587,
      -0.12231022864580154,
      -0.01306224800646305,
      0.011877791956067085,
      -0.06623959541320801,
      -0.15425720810890198,
      0.11913367360830307,
      -0.11315519362688065,
      -0.11083827912807465
    ],
    [
      0.06840195506811142,
      -0.0741945132613182,
      -0.11408045142889023,
      -0.21983009576797485,
      0.18361954391002655,
      -0.037826281040906906,
      0.10268416255712509,
      -0.054202839732170105,
      -0.12064110487699509,
      -0.11304701119661331,
      0.1564621925354004,
      -0.02542712166905403,
      0.1304822713136673,
      0.1699008047580719,
      -0.016817208379507065,
      -0.07601508498191833,
      0.013170151971280575
    ],
    [
      -0.030840210616588593,
      -0.1594701111316681,
      0.2509743571281433,
      0.14220982789993286,
      0.002471033949404955,
      0.01657034084200859,
      -0.1069200411438942,
      0.21268121898174286,
      0.07892677187919617,
      -0.07416404783725739,
      0.036783963441848755,
      0.14748874306678772,
      -0.19921284914016724,
      0.04824253171682358,
      -0.14753051102161407,
      0.18796348571777344,
      -0.055352892726659775
    ],
    [
      0.027985339984297752,
      0.09462763369083405,
      0.040602948516607285,
      -0.24396394193172455,
      0.019961750134825706,
      0.08072978258132935,
      0.04553142562508583,
      -0.006377886049449444,
      0.0784011110663414,
      -0.12200919538736343,
      -0.10501513630151749,
      0.13159506022930145,
      0.07272443920373917,
      -0.1407451033592224,
      -0.03535488620400429,
      0.007401529233902693,
      0.10550393909215927
    ],
    [
      -0.22037111222743988,
      0.2296414077281952,
      -0.19938145577907562,
      -0.08491446822881699,
      0.13732123374938965,
      0.04227805510163307,
      0.015223215334117413,
      0.014658602885901928,
      -0.0551057867705822,
      0.05419197678565979,
      -0.59527587890625,
      0.013871198520064354,
      0.14923886954784393,
      0.03472580760717392,
      0.13384123146533966,
      0.16135017573833466,
      -0.16258011758327484
    ],
    [
      -0.25071462988853455,
      -0.1858326494693756,
      0.13563744723796844,
      -0.10920094698667526,
      -0.1541999876499176,
      -0.08913491666316986,
      0.006157997064292431,
      0.10520798712968826,
      -0.2663317620754242,
      -0.23544472455978394,
      0.5797776579856873,
      -0.009746971540153027,
      0.10953423380851746,
      0.09385208040475845,
      0.11519058048725128,
      0.17032986879348755,
      -0.14504070580005646
    ],
    [
      0.14049561321735382,
      0.035269081592559814,
      0.0502614863216877,
      -0.03834834322333336,
      -0.2440739870071411,
      0.13969066739082336,
      -0.004492449574172497,
      -0.025025904178619385,
      0.3131076693534851,
      0.005343507509678602,
      -0.21443887054920197,
      0.010469232685863972,
      0.006447228603065014,
      -0.08411917835474014,
      -0.0928451269865036,
      0.23036187887191772,
      -0.06764757633209229
    ],
    [
      0.0942661464214325,
      -0.01701032742857933,
      -0.011950874701142311,
      0.11216314882040024,
      -0.14733850955963135,
      0.15016502141952515,
      0.014825799502432346,
      -0.015367881394922733,
      -0.062486063688993454,
      -0.1974942833185196,
      0.4658769965171814,
      0.07951977849006653,
      -0.048745594918727875,
      -0.13726277649402618,
      -0.062380414456129074,
      -0.015724631026387215,
      -0.005532169248908758
    ],
    [
      -0.022281913086771965,
      0.040596071630716324,
      0.10773716121912003,
      -0.21807697415351868,
      0.33033543825149536,
      0.07073058933019638,
      -0.038957394659519196,
      -0.20061428844928741,
      0.23638950288295746,
      0.057651087641716,
      0.12962976098060608,
      -0.012600967660546303,
      -0.3553793728351593,
      0.11940772086381912,
      0.1074274405837059,
      0.10901430994272232,
      -0.08503064513206482
    ],
    [
      0.20468518137931824,
      0.08450821787118912,
      -0.2883262038230896,
      0.13648708164691925,
      -0.13743780553340912,
      0.2074713557958603,
      -0.16690029203891754,
      -0.1954858899116516,
      -0.33773013949394226,
      -0.0020983926951885223,
      -0.16683168709278107,
      0.05820724368095398,
      0.41631391644477844,
      0.2170468121767044,
      0.062225811183452606,
      0.16175293922424316,
      -0.18158887326717377
    ],
    [
      0.1250220537185669,
      0.330031156539917,
      -0.05852620676159859,
      -0.028874250128865242,
      0.2135833352804184,
      -0.0921076312661171,
      0.1808706521987915,
      0.0061201718635857105,
      0.035988543182611465,
      -0.04871862009167671,
      -0.08298453688621521,
      -0.1326025277376175,
      0.06160782650113106,
      -0.02589641511440277,
      -0.13238056004047394,
      -0.03338395804166794,
      -0.05370824784040451
    ],
    [
      -0.03715328499674797,
      0.05328037962317467,
      -0.1516558974981308,
      0.07728075981140137,
      -0.08161164820194244,
      0.14899016916751862,
      -0.11928584426641464,
      0.01065506786108017,
      -0.2840832471847534,
      -0.0750211849808693,
      0.26496317982673645,
      -0.04318242892622948,
      0.03518545255064964,
      -0.0062356614507734776,
      -0.1820635199546814,
      0.23635903000831604,
      -0.03446450084447861
    ],
    [
      0.10818614065647125,
      -0.1896035373210907,
      -0.25216206908226013,
      -0.09688304364681244,
      0.343898743391037,
      0.08817515522241592,
      -0.06581477075815201,
      -0.2103830873966217,
      0.07951254397630692,
      -0.1324089765548706,
      0.00632581626996398,
      0.08672338724136353,
      -0.10105783492326736,
      0.19747136533260345,
      0.1765492707490921,
      -0.46816954016685486,
      -0.12108097225427628
    ],
    [
      -0.1620520055294037,
      -0.023363810032606125,
      -0.11299875378608704,
      -0.05224386602640152,
      -0.06899568438529968,
      -0.09446384012699127,
      -0.018242724239826202,
      0.13169747591018677,
      0.059334151446819305,
      -0.1336473971605301,
      0.061929378658533096,
      0.29437315464019775,
      0.05099865421652794,
      0.15363392233848572,
      0.04962649196386337,
      0.29809242486953735,
      -0.08806218951940536
    ]
  ],
  "sigmanet.nn.02.bias": [
    0.017947928979992867,
    -0.04915750399231911,
    -0.003569538937881589,
    0.06488446146249771,
    -0.0890129879117012,
    -0.007073624525219202,
    0.057334981858730316,
    -0.03701373189687729,
    -0.034526269882917404,
    -0.04236853867769241,
    -0.007766383234411478,
    -0.0670475885272026,
    -0.007112998049706221,
    -0.03666900098323822,
    0.006530930288136005,
    -0.018742147833108902,
    -0.05663647875189781,
    0.11145637184381485,
    0.05281563103199005,
    0.0055345529690384865,
    -0.03372008726000786,
    0.09672579914331436,
    0.023594122380018234,
    -0.01756989024579525,
    -0.038057804107666016,
    0.023051273077726364,
    -0.023543698713183403,
    -0.03217420354485512,
    0.014032348059117794,
    0.012549891136586666,
    -0.03965753689408302,
    0.000593326985836029,
    -0.05253659933805466,
    -0.006872457452118397,
    -0.0267895869910717,
    -0.11571259796619415,
    -0.01422776561230421,
    0.004442417528480291,
    0.018546851351857185,
    0.031184719875454903,
    -0.04381326958537102,
    0.011500729247927666,
    -0.018494199961423874,
    0.020062217488884926,
    0.060258157551288605,
    -0.04627779498696327,
    0.06396016478538513,
    -0.051187120378017426,
    -0.003935677465051413,
    0.005974972620606422,
    0.018781185150146484,
    -0.02541155181825161,
    -0.07894936203956604,
    0.036046016961336136,
    0.03648737445473671,
    -0.018604034557938576,
    -0.0017056487267836928,
    0.02891257405281067,
    -0.022017456591129303,
    -0.05680609494447708,
    -0.03969581425189972,
    -0.056088726967573166,
    0.054566096514463425,
    -0.08645635843276978,
    0.012920432724058628,
    0.05370699241757393,
    0.05808649957180023,
    -0.05649038776755333,
    -0.029251744970679283,
    0.005770680494606495,
    0.01935223676264286,
    0.015288803726434708,
    0.06377962231636047,
    0.04793667793273926,
    -0.019199427217245102,
    0.031909093260765076,
    -0.036588575690984726,
    -0.0054626972414553165,
    -0.0413508303463459,
    0.051966339349746704,
    -0.06264480948448181,
    -0.028537755832076073,
    -0.052188433706760406,
    0.03271148353815079,
    0.03304532542824745,
    0.039295744150877,
    -0.0971335917711258,
    0.02033117786049843,
    -0.03520726412534714,
    -0.056509483605623245,
    0.06008360534906387,
    -0.05616285279393196,
    0.03944827616214752,
    -0.0099243288859725,
    -0.03470033407211304,
    0.007889623753726482,
    -0.07096769660711288,
    0.01050285343080759,
    0.03425806015729904,
    0.03256383165717125,
    -0.06530974805355072,
    -0.024311598390340805,
    0.02410753071308136,
    -0.0777486264705658,
    0.047250937670469284,
    -0.0034666270948946476,
    0.029786068946123123,
    -0.029675791040062904,
    0.035415567457675934,
    0.04863239452242851,
    0.0036025033332407475,
    -0.0694737359881401,
    0.020352233201265335,
    0.053600043058395386,
    0.04265664145350456,
    -0.049661848694086075,
    0.0018253813032060862,
    -0.015078738331794739,
    0.04577125236392021,
    -0.0812763199210167,
    0.02776244282722473,
    -0.005831874907016754,
    -0.026576677337288857,
    0.026738477870821953,
    0.04175810143351555,
    0.002932692179456353,
    -0.021258005872368813,
    0.06226261332631111
  ],
  "sigmanet.nn.02.parametrizations.weight.original": [
    [
      0.02004372887313366,
      -0.017361965030431747,
      -0.004946833476424217,
      -0.010610192082822323,
      0.015278059989213943,
      -0.0013606402790173888,
      0.0007821838371455669,
      -0.01069620344787836,
      0.014060419984161854,
      0.03180348500609398,
      -0.02476622723042965,
      0.007835528813302517,
      0.018506638705730438,
      -0.002883672481402755,
      -0.04426584392786026,
      0.014201574958860874,
      0.0007783999899402261,
      -0.02159780077636242,
      0.0065744053572416306,
      -0.01818210817873478,
      0.007987497374415398,
      0.02355160377919674,
      0.01759554073214531,
      0.0021684193052351475,
      -0.009795919060707092,
      0.0047388263046741486,
      -0.018359260633587837,
      -0.025152841582894325,
      0.02517864480614662,
      -0.007775749545544386,
      0.0002661621547304094,
      -0.04357196390628815,
      0.009262312203645706,
      -0.028249546885490417,
      0.01531775388866663,
      0.001272127265110612,
      -0.02773158997297287,
      0.004208604339510202,
      0.012905034236609936,
      -0.03102703019976616,
      0.005599923897534609,
      -0.0003548729291651398,
      0.0003007484774570912,
      0.0049442630261182785,
      0.013553556986153126,
      -0.03261883556842804,
      -0.006367448717355728,
      0.007759254891425371,
      0.016749784350395203,
      -0.030445866286754608,
      0.01818121410906315,
      -4.1361940930073615e-06,
      -0.01141718216240406,
      0.005029015708714724,
      -0.018536368384957314,
      0.011288050562143326,
      0.012339150533080101,
      -0.007937761954963207,
      0.01680094376206398,
      -0.020977845415472984,
      0.023954670876264572,
      -0.033822257071733475,
      -0.028024522587656975,
      0.03043750301003456,
      0.010532512329518795,
      -8.456886462226976e-06,
      0.02991657704114914,
      -0.025803808122873306,
      0.01457411888986826,
      0.001030213781632483,
      -0.012041819281876087,
      0.007861706428229809,
      -0.0019157608039677143,
      -0.004192070569843054,
      0.006014678627252579,
      -0.004885716829448938,
      -0.009870529174804688,
      0.012899856083095074,
      -0.01144465897232294,
      -0.0067943367175757885,
      0.020923206582665443,
      -0.0026423551607877016,
      -0.013421307317912579,
      0.01631150394678116,
      -0.046691928058862686,
      0.022652888670563698,
      0.01878482475876808,
      0.0005938126123510301,
      -0.043368853628635406,
      0.008829920552670956,
      -0.006480185780674219,
      0.023379556834697723,
      -0.00040091335540637374,
      -0.009471593424677849,
      -0.011304731480777264,
      0.006826210301369429,
      -0.024161627516150475,
      0.03611770644783974,
      0.01509777456521988,
      -0.017485080286860466,
      -0.017174987122416496,
      0.02617175318300724,
      0.013510895892977715,
      -0.0019502020440995693,
      0.04096146672964096,
      -0.04360887408256531,
      0.021708296611905098,
      -0.0326155424118042,
      -0.0009367074817419052,
      0.0017698763404041529,
      -0.0056657916866242886,
      -0.0062942360527813435,
      0.032438311725854874,
      -0.0335492379963398,
      0.0262166578322649,
      -0.015230096876621246,
      0.0068464381620287895,
      0.017595337703824043,
      -0.03023707866668701,
      0.00046837719855830073,
      -0.03933476284146309,
      0.045640815049409866,
      -0.01913110539317131,
      0.007787830196321011,
      -0.011047146283090115,
      -0.010988087393343449,
      -0.00412290683016181,
      0.02216673642396927
    ],
    [
      -0.034948356449604034,
      0.00048251834232360125,
      -0.0049580917693674564,
      0.011272941716015339,
      -0.04550300911068916,
      -0.005476255901157856,
      0.007275786250829697,
      -0.0016552258748561144,
      -0.00535418838262558,
      -0.035207994282245636,
      0.007956358604133129,
      -0.0015020637074485421,
      -0.04909214749932289,
      0.028190217912197113,
      0.020967990159988403,
      -0.004109552595764399,
      -0.01132993120700121,
      0.00015529507072642446,
      0.0037022994365543127,
      0.03323686867952347,
      -0.003923793323338032,
      -0.052248429507017136,
      -0.0027070932555943727,
      -0.0002016588841797784,
      0.010596546344459057,
      -0.0010283973533660173,
      0.028259681537747383,
      0.0014688302762806416,
      -0.007748562842607498,
      0.001992935547605157,
      -0.0005272345151752234,
      0.05802970752120018,
      0.0031543313525617123,
      0.03108173981308937,
      -0.0001129975717049092,
      0.0007284414605237544,
      -0.004727588500827551,
      -0.005606271326541901,
      -0.03344956412911415,
      0.0455893836915493,
      0.007082189433276653,
      -0.00011861502571264282,
      -0.015691010281443596,
      -0.012586385011672974,
      -0.015100971795618534,
      0.023295802995562553,
      0.017790794372558594,
      -0.025480620563030243,
      -0.035162121057510376,
      0.05134044587612152,
      0.0006367022870108485,
      0.00959262065589428,
      -0.016125913709402084,
      -0.015148328617215157,
      0.03817024454474449,
      -0.01986992172896862,
      -0.016734778881072998,
      -0.0005269919638521969,
      -0.022119911387562752,
      0.014614760875701904,
      0.0011593950912356377,
      0.007627530489116907,
      -9.197190956911072e-05,
      0.0004477214242797345,
      -0.037491410970687866,
      0.024232294410467148,
      -0.02590455487370491,
      0.025514177978038788,
      -0.025928672403097153,
      -0.0006135502480901778,
      0.008156796917319298,
      -0.0008091062190942466,
      0.025240236893296242,
      -0.005389451514929533,
      -0.054384589195251465,
      0.03003016859292984,
      0.017581289634108543,
      0.00102058460470289,
      0.0018996475264430046,
      0.0045888954773545265,
      -0.005032040178775787,
      -0.0038496656343340874,
      0.004919308703392744,
      -0.011128313839435577,
      0.038996219635009766,
      -0.009881711564958096,
      -0.008002555929124355,
      0.008051981218159199,
      0.005248400382697582,
      -0.0014398241182789207,
      0.008393611758947372,
      -0.043560467660427094,
      -0.00047265339526347816,
      0.0006810944178141654,
      -0.003791279625147581,
      -0.006221388000994921,
      0.04987182840704918,
      -0.04991494491696358,
      -6.714527262374759e-05,
      0.0035361717455089092,
      0.011724943295121193,
      -0.020107058808207512,
      -0.017049841582775116,
      0.000750528706703335,
      -0.020070578902959824,
      0.07398824393749237,
      -0.009417476132512093,
      0.01918334886431694,
      0.008824357762932777,
      0.00016215178766287863,
      -0.007553407922387123,
      0.0006701966631226242,
      -0.031111236661672592,
      0.04442181438207626,
      -0.04861467704176903,
      0.03245151787996292,
      -0.008961975574493408,
      -0.0017874635523185134,
      -0.0025947687681764364,
      0.03583706542849541,
      -0.010399874299764633,
      -0.03528955206274986,
      0.0048634763807058334,
      0.00011445528798503801,
      -0.005278606433421373,
      -0.0012992953415960073,
      0.02335689775645733,
      0.0001930674334289506
    ],
    [
      -0.0618315264582634,
      -0.000997678143903613,
      -0.011035618372261524,
      0.04108857363462448,
      0.01587471179664135,
      -0.03027127869427204,
      -0.013377283699810505,
      -0.0005036427755840123,
      -0.015334997326135635,
      0.01711590215563774,
      -0.019399555400013924,
      0.019113080576062202,
      0.014035731554031372,
      0.002392495982348919,
      0.029292726889252663,
      -0.0699114128947258,
      -0.00014538846153300256,
      -0.013161511160433292,
      0.0038595981895923615,
      0.026734882965683937,
      -0.015372750349342823,
      0.008688285946846008,
      0.0032275845296680927,
      -0.025605399161577225,
      -0.034929461777210236,
      0.02558324486017227,
      -0.039956383407115936,
      -0.0034779415000230074,
      0.005247196182608604,
      -0.03243308514356613,
      -0.0011026402935385704,
      -0.029760735109448433,
      0.0022250970359891653,
      0.008622260764241219,
      -0.002840729895979166,
      0.018060501664876938,
      -0.012596716172993183,
      0.027988767251372337,
      0.033992037177085876,
      0.0069814762100577354,
      0.006887553725391626,
      -0.04411422833800316,
      -0.0011637239949777722,
      0.005470293574035168,
      0.033572372049093246,
      0.016417967155575752,
      -0.042156703770160675,
      -0.00657877279445529,
      0.0021380516700446606,
      0.007881424389779568,
      0.03851395845413208,
      0.0007829607930034399,
      0.007255678065121174,
      0.011944876983761787,
      -0.03223000466823578,
      0.0015060239238664508,
      0.009782928042113781,
      -0.02370619960129261,
      0.019781315699219704,
      -0.010154228657484055,
      0.00868325773626566,
      0.034808095544576645,
      0.020508360117673874,
      0.01760254241526127,
      -0.006809445563703775,
      0.031534843146800995,
      0.001650374149903655,
      0.01748117245733738,
      -0.0030207752715796232,
      0.0018696613842621446,
      0.01112300157546997,
      0.030055316165089607,
      -0.0069598364643752575,
      0.0034586391411721706,
      0.007872693240642548,
      -0.019620122388005257,
      0.018849119544029236,
      0.002489066682755947,
      -0.005362920928746462,
      -0.00639465032145381,
      -0.018871542066335678,
      0.0027380562387406826,
      -0.01001323014497757,
      -6.700446829199791e-05,
      -0.007467674091458321,
      0.005580647382885218,
      0.021217864006757736,
      0.011524848639965057,
      -0.02588634192943573,
      0.00583336316049099,
      -0.033311568200588226,
      0.010522278025746346,
      0.013082745485007763,
      -0.002059654099866748,
      0.003611139953136444,
      -0.0031282941345125437,
      0.04289677366614342,
      -0.006285376381129026,
      0.013242690823972225,
      0.006338886450976133,
      0.03618957847356796,
      -0.02174161933362484,
      -0.0097811846062541,
      0.009971760213375092,
      -0.00047284879838116467,
      0.03720082342624664,
      0.0016840430907905102,
      -0.020601948723196983,
      -0.01622725836932659,
      0.02931239828467369,
      -0.00657251663506031,
      0.00010304313764208928,
      0.0007285577594302595,
      0.005214537028223276,
      0.023753302171826363,
      0.008743446320295334,
      0.007076858077198267,
      -0.03001374937593937,
      0.02205503359436989,
      -0.014340967871248722,
      -0.004220311995595694,
      0.0008516733068972826,
      -0.03548133373260498,
      -0.019019154831767082,
      -0.016307052224874496,
      -0.0023761801421642303,
      0.027694890275597572,
      0.026220785453915596
    ],
    [
      0.032339438796043396,
      -6.561607733601704e-05,
      0.019608141854405403,
      -0.05539939925074577,
      -0.005352286156266928,
      0.018441976979374886,
      0.029293455183506012,
      0.00010593990737106651,
      0.03140778839588165,
      -0.015369436703622341,
      0.006747221574187279,
      0.000251671823207289,
      -0.012625365518033504,
      -0.00014676072169095278,
      -0.02484060451388359,
      0.045761216431856155,
      -0.00037487223744392395,
      0.020976612344384193,
      -0.0011709709651768208,
      -0.03936358541250229,
      0.005713268648833036,
      -0.0001753925025695935,
      -0.0027946082409471273,
      0.015490871854126453,
      0.026889855042099953,
      -0.035360220819711685,
      0.03616296872496605,
      0.013404619880020618,
      0.00021546732750721276,
      0.016207730397582054,
      -0.00988795980811119,
      0.0018694894388318062,
      -0.012523124925792217,
      -0.007007260341197252,
      0.007736042607575655,
      -4.2885742004727945e-05,
      0.017685875296592712,
      -0.033349476754665375,
      -0.031263697892427444,
      -0.009367955848574638,
      -0.0018903937889263034,
      0.028363093733787537,
      0.0013741814764216542,
      -0.013771982863545418,
      -0.03129466250538826,
      -0.007400245871394873,
      0.018844516947865486,
      -0.0028090437408536673,
      0.0004855146980844438,
      -0.024366067722439766,
      -0.011058050207793713,
      -0.003836731193587184,
      -0.008464649319648743,
      -0.002987317042425275,
      0.05191398411989212,
      -0.000645818654447794,
      -0.01163118053227663,
      0.025979962199926376,
      -0.025545431300997734,
      0.006279285065829754,
      -0.006892113015055656,
      -0.030671674758195877,
      -0.033408842980861664,
      -0.0349157378077507,
      0.03254951536655426,
      -0.04821745678782463,
      -0.017532607540488243,
      -0.01666504144668579,
      0.0024258289486169815,
      -0.023848429322242737,
      -0.010171760804951191,
      -0.054989397525787354,
      -0.001516810734756291,
      -1.0369221854489297e-05,
      0.0029138538520783186,
      0.01979229971766472,
      -0.03524503484368324,
      -0.003916191402822733,
      0.003863625694066286,
      0.0027925376780331135,
      0.015506759285926819,
      -0.015541117638349533,
      0.021447598934173584,
      -0.004641175270080566,
      0.008906880393624306,
      -0.011746036820113659,
      -0.01686699688434601,
      -0.024157684296369553,
      0.04538116976618767,
      0.0014825128018856049,
      0.03718637675046921,
      -0.0036293920129537582,
      0.007075725123286247,
      -0.00037273738416843116,
      0.004369406029582024,
      0.0006706209387630224,
      -0.06034799665212631,
      -0.00028272951021790504,
      -0.010537183843553066,
      -0.032887477427721024,
      -0.021193550899624825,
      0.009675017558038235,
      0.0004108786233700812,
      -0.009911276400089264,
      0.009978337213397026,
      -0.046273067593574524,
      6.801471317885444e-05,
      0.02201996184885502,
      0.015029074624180794,
      -0.007468720432370901,
      -0.014500580728054047,
      -0.0024290112778544426,
      0.007550891023129225,
      -0.013809701427817345,
      -0.007525102235376835,
      0.0068088979460299015,
      -0.018521318212151527,
      0.017178168520331383,
      -0.0277000330388546,
      0.016293223947286606,
      0.002893857192248106,
      -0.00045956933172419667,
      -4.0594743040855974e-05,
      -0.0035626657772809267,
      0.03473847359418869,
      0.0012838538968935609,
      -0.04140844568610191,
      -0.014157824218273163
    ],
    [
      -0.01171167567372322,
      -0.0011405732948333025,
      -0.011350998654961586,
      0.03290785849094391,
      0.003340818453580141,
      -0.0007045715465210378,
      -0.026236655190587044,
      0.006020551547408104,
      0.01406156923621893,
      -0.003053191816434264,
      0.0034161636140197515,
      -0.0353979654610157,
      -0.022139934822916985,
      0.02593553438782692,
      0.0008438662043772638,
      0.01781059056520462,
      0.033277735114097595,
      0.010004169307649136,
      0.01799473911523819,
      -0.01978668011724949,
      0.02106507308781147,
      -0.010068805888295174,
      -0.026746489107608795,
      -0.0006413663504645228,
      -0.022358261048793793,
      0.00598509144037962,
      0.02458334155380726,
      -0.0073985992930829525,
      -0.003093286417424679,
      -0.018999559804797173,
      -0.00016894412692636251,
      -0.004099034238606691,
      -0.00017764056974556297,
      0.025758493691682816,
      0.007644616533070803,
      0.001553002162836492,
      -0.008711912669241428,
      0.010066171176731586,
      0.024805981665849686,
      0.02638412080705166,
      0.024317318573594093,
      -0.02340560220181942,
      -0.023050444200634956,
      -0.021710243076086044,
      -0.010865237563848495,
      0.024711010977625847,
      0.034106843173503876,
      -0.01581433415412903,
      0.0034073241986334324,
      0.0314117930829525,
      -0.016029568389058113,
      -0.004811153747141361,
      -0.03376686945557594,
      0.001246922300197184,
      0.01394196692854166,
      -0.010419784113764763,
      0.009394987486302853,
      -0.003913047723472118,
      0.005349139682948589,
      -0.006498515605926514,
      -0.010859995149075985,
      0.009751865640282631,
      0.0029665459878742695,
      -0.02756340615451336,
      -0.00826159119606018,
      0.005141885951161385,
      -0.06379032135009766,
      -0.0017583934823051095,
      -0.01180923730134964,
      0.0007450181292369962,
      0.016397159546613693,
      -0.024159442633390427,
      -0.005276685114949942,
      -0.0006290393066592515,
      -0.0251960176974535,
      0.013878407888114452,
      0.008720890618860722,
      -0.017133930698037148,
      0.018494782969355583,
      0.020553186535835266,
      -0.04565215855836868,
      0.011240865103900433,
      0.012843277305364609,
      0.010332002304494381,
      0.03936981409788132,
      -0.01906505785882473,
      0.018931899219751358,
      0.008246291428804398,
      -0.021229710429906845,
      0.019859036430716515,
      0.03402496129274368,
      -0.010488027706742287,
      0.022779034450650215,
      0.023300113156437874,
      -0.018354391679167747,
      0.011588044464588165,
      0.01510169543325901,
      -0.02176794968545437,
      -0.0377875380218029,
      0.014654252678155899,
      0.017604906111955643,
      -0.04252022132277489,
      0.019299251958727837,
      -0.02132110670208931,
      -0.03915005549788475,
      0.029392946511507034,
      -0.006221983581781387,
      0.019138218834996223,
      0.006064764689654112,
      0.006284220609813929,
      -0.02777007967233658,
      -0.005896457005292177,
      -0.0009394368971697986,
      0.031723592430353165,
      -0.0014721708139404655,
      0.018614158034324646,
      -0.008586579002439976,
      0.00012215718743391335,
      0.024323897436261177,
      -0.0050592138431966305,
      0.022966453805565834,
      -0.005711635109037161,
      0.034866783767938614,
      0.0015658746706321836,
      0.007446094416081905,
      0.0036294220481067896,
      0.01011198852211237,
      -0.006874586455523968
    ],
    [
      0.01686808466911316,
      -0.0019226539880037308,
      0.015045598149299622,
      -0.0470280759036541,
      -0.00814689602702856,
      0.024013575166463852,
      0.034180935472249985,
      -0.005222102627158165,
      6.177907926030457e-05,
      0.03578464686870575,
      -0.01915411464869976,
      0.024338973686099052,
      -0.0013954562600702047,
      -0.0073746503330767155,
      0.005229519680142403,
      -0.03041890449821949,
      -0.03391594439744949,
      -0.008436041884124279,
      -0.009308296255767345,
      0.025956638157367706,
      -0.0031678529921919107,
      0.011187618598341942,
      -0.016949264332652092,
      0.01978619210422039,
      0.03243870660662651,
      -0.0007180050597526133,
      -0.01544097624719143,
      0.01084947306662798,
      0.010949804447591305,
      0.018209438771009445,
      0.008574035950005054,
      0.0006263073300942779,
      0.005422726273536682,
      -0.036799635738134384,
      -0.00016293348744511604,
      -0.0017212239326909184,
      -0.0012689984869211912,
      2.0801064238185063e-05,
      0.008311737328767776,
      -0.011247341521084309,
      -0.011578073725104332,
      0.025511352345347404,
      0.0035693279933184385,
      -0.008513149805366993,
      0.020294947549700737,
      -0.04438690468668938,
      -0.035429492592811584,
      0.0022403837647289038,
      -0.012671450152993202,
      -0.009339888580143452,
      -0.012684730812907219,
      0.007365925703197718,
      0.028986820951104164,
      -0.013330130837857723,
      0.012037524953484535,
      0.012525048106908798,
      -0.027710653841495514,
      -0.00023471630993299186,
      -0.021078523248434067,
      0.00017227421631105244,
      0.015462198294699192,
      -0.03123641572892666,
      -0.02350839041173458,
      0.025476887822151184,
      0.0162946917116642,
      -0.0005846068961545825,
      0.0567636638879776,
      -0.0064662848599255085,
      -0.0011591828661039472,
      0.006764476653188467,
      -0.012754962779581547,
      0.013184954412281513,
      -0.007792606949806213,
      -0.00804330874234438,
      0.03250648081302643,
      -0.005751521792262793,
      -0.00665519991889596,
      0.024334941059350967,
      -0.0056655448861420155,
      -0.0009214753517881036,
      0.02383049950003624,
      -0.0023385791573673487,
      0.010633024387061596,
      0.009574605152010918,
      -0.004174699075520039,
      0.012404619716107845,
      -0.01924259029328823,
      0.002609517890959978,
      0.04009392485022545,
      -0.03194348141551018,
      -0.020120250061154366,
      0.011971835047006607,
      -0.002932185074314475,
      -0.03481896594166756,
      0.00879285391420126,
      -0.0065604825504124165,
      0.000816910935100168,
      0.03600757196545601,
      0.034019894897937775,
      -0.03483400121331215,
      -0.009145176038146019,
      0.020600134506821632,
      0.0019215375650674105,
      0.031271468847990036,
      0.029396215453743935,
      -0.036434631794691086,
      0.010812027379870415,
      -0.03537333384156227,
      0.0006611529970541596,
      -0.007544349879026413,
      0.014782091602683067,
      0.0336468480527401,
      0.0050089857541024685,
      -0.040524840354919434,
      0.02290738932788372,
      -0.027638239786028862,
      -0.008115983568131924,
      -0.00496675306931138,
      -0.0244451891630888,
      0.019568951800465584,
      -0.01789223402738571,
      -0.014794480986893177,
      -0.0032218927517533302,
      0.03481953963637352,
      -0.005789025686681271,
      -0.009747473523020744,
      -0.0005176059785299003,
      0.0020868994761258364
    ],
    [
      -0.044541146606206894,
      0.00011927719606319442,
      0.004377512261271477,
      -0.0012818671530112624,
      -0.01078013889491558,
      0.0012954159174114466,
      0.00012977795267943293,
      6.164085061755031e-05,
      -0.0038604175206273794,
      -0.0009064798941835761,
      0.026634415611624718,
      0.012670356780290604,
      0.018752295523881912,
      -0.020338019356131554,
      -0.004852898418903351,
      0.024385757744312286,
      -3.426224066060968e-05,
      -0.0008217215654440224,
      0.021762674674391747,
      -0.0005683713243342936,
      -0.003631790867075324,
      0.0102916294708848,
      -0.00014242695760913193,
      -0.0020192754454910755,
      0.06368733942508698,
      0.027828846126794815,
      -0.028548547998070717,
      0.021630143746733665,
      0.054096296429634094,
      0.012058302760124207,
      0.00011043069389415905,
      -0.029574206098914146,
      2.371316440985538e-05,
      -0.0017083438578993082,
      0.006598189938813448,
      0.0009683679672889411,
      0.020480193197727203,
      -6.564328214153647e-05,
      0.01992015168070793,
      -0.012076917104423046,
      -0.012690304778516293,
      -0.024069014936685562,
      0.0004228792677167803,
      -0.0019551971927285194,
      0.005129100754857063,
      0.010725189000368118,
      -0.012050526216626167,
      0.005982626229524612,
      -0.008539104834198952,
      -0.001705162925645709,
      -0.02387610264122486,
      0.04553791508078575,
      0.0012258797651156783,
      -0.018857257440686226,
      -0.0009143053321167827,
      0.003676772816106677,
      -0.010329761542379856,
      -0.019779402762651443,
      -0.0006879342254251242,
      -0.014934670180082321,
      0.0017155613750219345,
      -0.0011455124476924539,
      -0.02757694385945797,
      0.011658303439617157,
      0.026593055576086044,
      0.007251963019371033,
      0.083002470433712,
      0.0015568820526823401,
      -0.009421279653906822,
      -0.016282271593809128,
      0.025958558544516563,
      0.025241302326321602,
      0.01646202616393566,
      -0.05180399864912033,
      0.062033746391534805,
      -0.001999522093683481,
      0.07892429828643799,
      -0.038151565939188004,
      -0.012790372595191002,
      -0.0025196752976626158,
      -0.006345072295516729,
      0.03307615965604782,
      0.019562914967536926,
      0.00649399496614933,
      0.005489429924637079,
      0.0038485287223011255,
      -0.02490127459168434,
      -0.04428063705563545,
      0.010495279915630817,
      -0.0001083967144950293,
      0.0004760262672789395,
      -0.00041096899076364934,
      -0.0022586877457797527,
      -0.03430932015180588,
      0.00022205617278814316,
      -0.05761078745126724,
      0.03288593143224716,
      0.029597744345664978,
      -0.008128413930535316,
      0.027671009302139282,
      -0.011886478401720524,
      0.0348997637629509,
      -0.0003700641100294888,
      -3.588600884540938e-05,
      0.010027658194303513,
      -0.0009813554352149367,
      -0.001812503207474947,
      -0.030050063505768776,
      0.025742139667272568,
      -0.012122212909162045,
      0.04171398654580116,
      0.00689614238217473,
      -0.00015390418411698192,
      -0.019612960517406464,
      0.03846143186092377,
      -4.4458349293563515e-05,
      -0.0005255545838735998,
      -0.0013068547705188394,
      0.0018374234205111861,
      -0.004395029041916132,
      -0.011455469764769077,
      -0.0032090069726109505,
      -0.005203967913985252,
      0.033272840082645416,
      -0.035178981721401215,
      -0.02932913601398468,
      0.03615327179431915,
      0.016335271298885345
    ],
    [
      0.02421271987259388,
      0.004951459355652332,
      -0.006804247386753559,
      -0.0001530638983240351,
      -0.00027361910906620324,
      0.010918257758021355,
      -0.017991162836551666,
      0.015927638858556747,
      0.010239742696285248,
      0.009652993641793728,
      -0.0023541573900729418,
      -0.02646920084953308,
      -0.007440674584358931,
      0.01307741180062294,
      0.04189712181687355,
      -0.011502505280077457,
      -0.010981284081935883,
      -0.01828053779900074,
      0.006242252420634031,
      -0.045029543340206146,
      -0.024760838598012924,
      -0.00983646884560585,
      -0.027328699827194214,
      -0.00026318212621845305,
      -0.04872995987534523,
      0.002014331053942442,
      0.01394871436059475,
      0.010950760915875435,
      -0.03277217969298363,
      -0.00437978096306324,
      -9.153232531389222e-05,
      0.007461744360625744,
      0.0006686370470561087,
      0.025701994076371193,
      -0.000429346167948097,
      5.497873280546628e-05,
      0.009495574980974197,
      -0.015736421570181847,
      -0.007149422075599432,
      0.00048782097292132676,
      0.010786846280097961,
      0.007467667572200298,
      0.027851518243551254,
      -0.006031844764947891,
      0.016980329528450966,
      -0.02088208496570587,
      0.020513733848929405,
      -0.0033423746936023235,
      0.028790242969989777,
      0.03312470018863678,
      -0.0009930261876434088,
      -0.006704769562929869,
      -0.01328242663294077,
      0.02407468669116497,
      0.007632023189216852,
      0.003639703616499901,
      -0.008403947576880455,
      0.03611641004681587,
      0.006565489340573549,
      0.020693449303507805,
      -0.018159925937652588,
      0.016882192343473434,
      0.020012810826301575,
      -0.04063582792878151,
      0.009180719964206219,
      -0.002100723097100854,
      -0.05464475601911545,
      0.014628699980676174,
      0.0031829841900616884,
      0.008160424418747425,
      0.005836368538439274,
      -0.023326806724071503,
      -0.019493069499731064,
      -0.002499859780073166,
      -0.04094374552369118,
      -0.014881611801683903,
      0.005803137551993132,
      -0.013778520748019218,
      0.002898629754781723,
      -0.011541889049112797,
      -0.018061598762869835,
      -0.018268289044499397,
      -0.007932710461318493,
      0.013011166825890541,
      0.013942690566182137,
      -0.036934398114681244,
      0.025705231353640556,
      0.03151838853955269,
      0.009006849490106106,
      -0.007020553573966026,
      -0.001565044978633523,
      -0.014220157638192177,
      0.009026351384818554,
      0.022214889526367188,
      -0.011019966565072536,
      0.03489760681986809,
      0.008839244022965431,
      -0.0034725344739854336,
      -0.0008490267209708691,
      -0.005418561398983002,
      0.05465478077530861,
      -0.05994563549757004,
      -0.005171263124793768,
      -0.01771051622927189,
      -0.034602969884872437,
      -0.0020231560338288546,
      -0.003324874909594655,
      0.01720864698290825,
      0.006141060031950474,
      0.006495934445410967,
      -0.030343713238835335,
      0.0002482143754605204,
      -0.01891854964196682,
      0.025805991142988205,
      -0.02571391686797142,
      0.034235887229442596,
      -0.005856705363839865,
      0.004642119165509939,
      0.036949243396520615,
      -0.004355814773589373,
      0.021212471649050713,
      0.015586678870022297,
      0.05305048078298569,
      0.006839083507657051,
      0.020155608654022217,
      0.019664233550429344,
      0.0036939240526407957,
      -0.013391276821494102
    ],
    [
      -0.002371571958065033,
      0.0004478773334994912,
      0.02930433489382267,
      -0.01549184788018465,
      -0.008474059402942657,
      0.027943894267082214,
      0.001359618385322392,
      -0.01237595546990633,
      -0.018942352384328842,
      0.017190003767609596,
      -0.01668955385684967,
      0.0002555496175773442,
      -0.004898854531347752,
      0.02912943810224533,
      0.026823563501238823,
      0.011746197007596493,
      0.03144574537873268,
      -0.023636016994714737,
      -0.000935989199206233,
      -0.0036973704118281603,
      -0.03735373914241791,
      0.00573394913226366,
      -0.021656233817338943,
      0.00822571199387312,
      -0.002579349558800459,
      -0.01957426778972149,
      0.00042139043216593564,
      0.048190634697675705,
      -0.033090557903051376,
      0.03616873547434807,
      0.0044043827801942825,
      -0.009571789763867855,
      -0.007220074068754911,
      0.001513021532446146,
      0.0004811977851204574,
      -0.026503682136535645,
      0.021354224532842636,
      -0.006450442131608725,
      -0.001040323288179934,
      -0.018662771210074425,
      0.04559708386659622,
      -0.06507067382335663,
      0.01741807907819748,
      0.004063222091645002,
      0.0022268076427280903,
