{
  "variables_constraints" : [
    [0.25083619356155396, 6.063742637634277],
    [1.0162051916122437, 17.12476921081543],
    [1.3881916999816895, 11.116363525390625],
    [2.9984130859375, 12.268080711364746],
    [1.0012540817260742, 16.923582077026367],
    [0.0006757095208243654, 1.9817758629832742],
    [1.00416898727417, 11.880327224731445],
    [3.0287370681762695, 16.335662841796875],
    [-12.48209072822195, 2.297783510789424]
  ],
  "sigmanet.sigma": [
    2.0
  ],
  "sigmanet.nn.00.bias": [
    -0.40140220522880554,
    0.35766327381134033,
    -0.3051069378852844,
    -0.12634162604808807,
    -0.20200154185295105,
    -0.3477630615234375,
    0.18473686277866364,
    0.17433321475982666,
    -0.029012199491262436,
    -0.4202049970626831,
    0.22106587886810303,
    0.38809725642204285,
    0.1886538416147232,
    -0.00884285755455494,
    0.03609432652592659,
    -0.18795017898082733,
    0.017550291493535042,
    0.02562810853123665,
    0.44983920454978943,
    -0.1828642338514328,
    0.08454390615224838,
    -0.05671146884560585,
    0.1392299085855484,
    -0.06964587420225143,
    -0.034563541412353516,
    -0.019702332094311714,
    -0.15228722989559174,
    -0.14018437266349792,
    -0.02611105516552925,
    0.4043399691581726,
    0.15503990650177002,
    -0.14531582593917847,
    0.29615533351898193,
    0.19364218413829803,
    0.0873679667711258,
    -0.30244210362434387,
    -0.29963868856430054,
    -0.16946643590927124,
    -0.13631002604961395,
    0.16448812186717987,
    0.22826088964939117,
    0.30038267374038696,
    -0.07543394714593887,
    0.08005804568529129,
    -0.035720013082027435,
    0.04153316468000412,
    -0.07112911343574524,
    -0.32009056210517883,
    -0.29036444425582886,
    -0.3233630955219269,
    -0.2528562545776367,
    0.01680435799062252,
    0.309073269367218,
    -0.5108599662780762,
    -0.3509337604045868,
    0.3766130208969116,
    0.39867734909057617,
    -0.19939520955085754,
    -0.4357006847858429,
    0.09690967947244644,
    0.3938615620136261,
    -0.2596644461154938,
    0.2899792790412903,
    0.1987278163433075,
    -0.19647879898548126,
    -0.3443324565887451,
    0.12975981831550598,
    -0.3052539825439453,
    0.023649029433727264,
    0.08555541187524796,
    0.06500415503978729,
    -0.09528631716966629,
    0.10903048515319824,
    -0.14690710604190826,
    0.29602816700935364,
    0.07130804657936096,
    -0.09396420419216156,
    0.1892707198858261,
    0.0814061090350151,
    0.4887889623641968,
    0.14702464640140533,
    -0.3030303716659546,
    -0.18406514823436737,
    -0.22498719394207,
    0.00476547097787261,
    -0.05551036074757576,
    -0.24077650904655457,
    0.07172305136919022,
    -0.5584709644317627,
    -0.3681134283542633,
    -0.03213084861636162,
    -0.3066118657588959,
    -0.15354636311531067,
    0.3291507363319397,
    0.32598310708999634,
    -0.22183945775032043,
    0.26835107803344727,
    -0.10331588238477707,
    -0.07448837161064148,
    0.3402899205684662,
    -0.03394029662013054,
    0.07863117754459381,
    -0.017739582806825638,
    0.19845077395439148,
    -0.17221908271312714,
    0.07731704413890839,
    0.08973432332277298,
    0.15367433428764343,
    -0.40482500195503235,
    0.09764573723077774,
    0.12113718688488007,
    0.32598090171813965,
    -0.09503912180662155,
    -0.31077373027801514,
    -0.08972086012363434,
    -0.31562674045562744,
    -0.23696564137935638,
    0.32025405764579773,
    0.060727447271347046,
    0.1983938068151474,
    0.12294092774391174,
    0.3472616374492645,
    0.4451831579208374,
    -0.39998677372932434,
    0.11217312514781952,
    0.16434288024902344,
    0.3186572790145874,
    -0.03220021724700928
  ],
  "sigmanet.nn.00.parametrizations.weight.original": [
    [
      -0.04845480993390083,
      -0.3030987083911896,
      0.22951051592826843,
      -0.15073631703853607,
      -0.1807321012020111,
      0.20759204030036926,
      -0.20162832736968994,
      -0.011743678711354733,
      -0.275039404630661
    ],
    [
      0.1305585354566574,
      0.04172947257757187,
      -0.03156570717692375,
      -0.20230735838413239,
      0.009189160540699959,
      0.31743499636650085,
      -0.2544298470020294,
      -0.022578531876206398,
      -0.3122820556163788
    ],
    [
      -0.36563190817832947,
      0.23031191527843475,
      0.23874250054359436,
      0.018052976578474045,
      0.27451595664024353,
      -0.3339426815509796,
      0.16529987752437592,
      -0.15645483136177063,
      -0.0743999108672142
    ],
    [
      0.14043235778808594,
      -0.07951369136571884,
      -0.2686653435230255,
      0.08657626062631607,
      0.2234899252653122,
      -0.46282508969306946,
      0.012564367614686489,
      -0.24563446640968323,
      0.20038190484046936
    ],
    [
      -0.22739140689373016,
      -0.16792333126068115,
      0.2489255666732788,
      0.03179492801427841,
      0.06961224228143692,
      -0.15682514011859894,
      0.0038522433023899794,
      0.07402904331684113,
      -0.15871861577033997
    ],
    [
      0.5969535112380981,
      0.4723457098007202,
      -0.06337488442659378,
      -0.01843387261033058,
      -0.29261672496795654,
      -0.045435406267642975,
      -0.184152752161026,
      -0.022531427443027496,
      -0.09598018229007721
    ],
    [
      0.08415105193853378,
      -0.10848304629325867,
      -0.16249980032444,
      0.07733102887868881,
      -0.3073999583721161,
      0.1314246654510498,
      -0.16064909100532532,
      -0.24186475574970245,
      0.14547257125377655
    ],
    [
      -0.5918849110603333,
      0.057123661041259766,
      -0.005053417291492224,
      -0.3065161108970642,
      -0.159383624792099,
      -0.0778127908706665,
      -0.03699256107211113,
      0.03445465490221977,
      -0.02125607430934906
    ],
    [
      0.20728570222854614,
      -0.15607480704784393,
      0.23171967267990112,
      0.02151857316493988,
      0.04196353629231453,
      0.26240772008895874,
      -0.30545052886009216,
      0.19057221710681915,
      0.1528027355670929
    ],
    [
      0.29190123081207275,
      -0.38488492369651794,
      0.0690733790397644,
      0.30003517866134644,
      -0.1513109654188156,
      0.3298616409301758,
      0.07349289953708649,
      0.27233773469924927,
      0.007801418658345938
    ],
    [
      -0.2505247890949249,
      -0.0683523491024971,
      -0.2372717261314392,
      0.23247778415679932,
      0.1472579538822174,
      -0.3899628818035126,
      0.3125099241733551,
      -0.29594144225120544,
      0.15512347221374512
    ],
    [
      -0.11131074279546738,
      0.26565128564834595,
      0.14662635326385498,
      0.24835091829299927,
      -0.22312216460704803,
      0.3207244277000427,
      0.23885667324066162,
      0.04713323339819908,
      -0.25034230947494507
    ],
    [
      -0.06589607894420624,
      0.15313775837421417,
      -0.279622882604599,
      0.2812606394290924,
      0.32994401454925537,
      0.25164246559143066,
      0.1211988627910614,
      -0.051409196108579636,
      -0.26111578941345215
    ],
    [
      -0.04898155853152275,
      -0.2844819724559784,
      0.2390274852514267,
      -0.3107380270957947,
      0.007112272549420595,
      0.33244821429252625,
      -0.1981448531150818,
      0.05370231717824936,
      -0.29153579473495483
    ],
    [
      -0.24336612224578857,
      0.3573853671550751,
      -0.05179154872894287,
      -0.03549773618578911,
      0.24384386837482452,
      -0.29255229234695435,
      0.30634984374046326,
      -0.26873093843460083,
      0.13593067228794098
    ],
    [
      0.37646204233169556,
      0.28459230065345764,
      -0.13425984978675842,
      -0.26690369844436646,
      0.24073706567287445,
      -0.5719584822654724,
      -0.23805974423885345,
      -0.0833386555314064,
      -0.3250332176685333
    ],
    [
      -0.1684957891702652,
      -0.3795631229877472,
      -0.1404200941324234,
      -0.1224103793501854,
      -0.18999052047729492,
      0.2980009913444519,
      -0.1574592888355255,
      0.289017915725708,
      -0.10697883367538452
    ],
    [
      -0.266733855009079,
      -0.13193248212337494,
      -0.08200880140066147,
      -0.02219369448721409,
      -0.3289431929588318,
      -0.11026087403297424,
      0.3193173408508301,
      0.2919777035713196,
      0.25845447182655334
    ],
    [
      -0.020824529230594635,
      -0.19228360056877136,
      0.05778779834508896,
      -0.11767925322055817,
      0.15554553270339966,
      0.32634443044662476,
      -0.2419317662715912,
      0.2458689659833908,
      0.16830147802829742
    ],
    [
      -0.16659724712371826,
      -0.029095586389303207,
      0.2967262268066406,
      0.29266631603240967,
      -0.036478057503700256,
      -0.043353449553251266,
      0.32922571897506714,
      -0.2667100727558136,
      0.1732146143913269
    ],
    [
      0.01122227031737566,
      -0.18167951703071594,
      -0.29841235280036926,
      0.10000213980674744,
      -0.0943303108215332,
      0.21977393329143524,
      -0.012220845557749271,
      0.3134709894657135,
      0.06681302934885025
    ],
    [
      0.07979638874530792,
      0.04730653017759323,
      0.2594558596611023,
      0.30224111676216125,
      0.35613664984703064,
      -0.3686038553714752,
      -0.03293038532137871,
      -0.3395519256591797,
      0.04558948427438736
    ],
    [
      0.1551930457353592,
      -0.22246912121772766,
      0.063801109790802,
      -0.35990744829177856,
      -0.3633940815925598,
      -0.12674425542354584,
      0.33179229497909546,
      0.24285882711410522,
      0.34123608469963074
    ],
    [
      -0.283982515335083,
      -0.27636924386024475,
      -0.2681054174900055,
      -0.24652782082557678,
      -0.21169030666351318,
      -0.24331305921077728,
      0.07173648476600647,
      -0.012024462223052979,
      0.23143386840820312
    ],
    [
      0.009383875876665115,
      -0.18044094741344452,
      -0.2761059105396271,
      0.23190869390964508,
      -0.06650814414024353,
      -0.2969576418399811,
      0.2639243006706238,
      0.3307626247406006,
      0.33949631452560425
    ],
    [
      -0.07478208094835281,
      -0.040493547916412354,
      0.05625678598880768,
      -0.0861029326915741,
      0.3289204239845276,
      0.006586478557437658,
      -0.2700633108615875,
      -0.08350344002246857,
      -0.015160003677010536
    ],
    [
      0.22777335345745087,
      0.21522200107574463,
      0.33930474519729614,
      -0.210824117064476,
      -0.15032005310058594,
      -0.1936510056257248,
      0.04997330904006958,
      0.2816115617752075,
      -0.0829598605632782
    ],
    [
      -0.38894110918045044,
      0.06635329872369766,
      -0.23308438062667847,
      0.2542816400527954,
      -0.020071933045983315,
      -0.0809406191110611,
      0.12161620706319809,
      -0.22668857872486115,
      0.15128926932811737
    ],
    [
      -0.14666101336479187,
      -0.04123467579483986,
      -0.09157905727624893,
      -0.015525694005191326,
      0.30156588554382324,
      0.3220759928226471,
      -0.0007382184267044067,
      -0.15439999103546143,
      0.3651113212108612
    ],
    [
      -0.24345694482326508,
      -0.28509414196014404,
      -0.21712365746498108,
      0.04593130201101303,
      0.12578871846199036,
      0.2210036814212799,
      0.20983465015888214,
      -0.023369066417217255,
      -0.3718147873878479
    ],
    [
      -0.5251425504684448,
      0.20034490525722504,
      -0.1336919218301773,
      -0.07754150778055191,
      0.009953771717846394,
      0.3638569414615631,
      0.1319461166858673,
      -0.20177730917930603,
      0.3851262927055359
    ],
    [
      0.2091388702392578,
      -0.013925264589488506,
      -0.16996993124485016,
      -0.20231984555721283,
      0.1111847460269928,
      -0.39809396862983704,
      0.1354747712612152,
      -0.11808847635984421,
      -0.31174784898757935
    ],
    [
      -0.29334697127342224,
      -0.19871878623962402,
      0.33331796526908875,
      -0.30409395694732666,
      -0.2956624925136566,
      -0.22976592183113098,
      0.27525368332862854,
      -0.041565824300050735,
      -0.2628634572029114
    ],
    [
      -0.30593809485435486,
      -0.35349828004837036,
      -0.23723243176937103,
      0.2739856243133545,
      0.18822869658470154,
      0.1830936223268509,
      0.296212375164032,
      0.20617158710956573,
      -0.2591705620288849
    ],
    [
      0.19111137092113495,
      0.31820401549339294,
      -0.30097532272338867,
      0.3275991380214691,
      -0.13498085737228394,
      0.177481010556221,
      -0.03095988556742668,
      -0.018089381977915764,
      -0.003998356405645609
    ],
    [
      0.23084141314029694,
      -0.19984318315982819,
      0.32841870188713074,
      -0.03741065412759781,
      -0.16637225449085236,
      -0.08565137535333633,
      0.2287353128194809,
      0.12145514041185379,
      -0.09744071960449219
    ],
    [
      -0.2828221619129181,
      0.2551284432411194,
      0.07688634842634201,
      -0.06629714369773865,
      0.018056252971291542,
      -0.3378884792327881,
      -0.16323450207710266,
      0.3273274600505829,
      -0.27502819895744324
    ],
    [
      0.13955357670783997,
      0.13342101871967316,
      -0.1388338804244995,
      0.09925740957260132,
      0.007054273039102554,
      0.5033314824104309,
      -0.26795291900634766,
      -0.1786489486694336,
      0.2764728367328644
    ],
    [
      -0.003269870299845934,
      0.0259076040238142,
      0.2034289389848709,
      -0.34819915890693665,
      -0.018096378073096275,
      -0.044016070663928986,
      0.39905884861946106,
      0.06817454844713211,
      -0.22519348561763763
    ],
    [
      0.08871377259492874,
      -0.20794302225112915,
      -0.010302507318556309,
      0.27490755915641785,
      -0.23132537305355072,
      0.20663917064666748,
      -0.022921247407794,
      -0.12060572952032089,
      -0.15739674866199493
    ],
    [
      -0.22766946256160736,
      0.013946614228188992,
      -0.3307248651981354,
      -0.04761393368244171,
      -0.21762332320213318,
      -0.019039452075958252,
      0.16698776185512543,
      0.14167021214962006,
      -0.15546651184558868
    ],
    [
      0.23841746151447296,
      -0.2843219041824341,
      0.16172759234905243,
      0.2646258771419525,
      -0.023404724895954132,
      0.5176365971565247,
      0.17028626799583435,
      0.04875285550951958,
      0.203873872756958
    ],
    [
      0.0334281399846077,
      -0.004148365464061499,
      0.2730012536048889,
      -0.21409447491168976,
      0.17628462612628937,
      -0.3659011125564575,
      0.1339610368013382,
      0.22265084087848663,
      -0.37398675084114075
    ],
    [
      -0.19997060298919678,
      0.09761420637369156,
      0.29294639825820923,
      -0.20433861017227173,
      -0.0758519396185875,
      0.6942975521087646,
      -0.09848662465810776,
      0.2431066632270813,
      -0.10358453541994095
    ],
    [
      0.13791950047016144,
      0.13597115874290466,
      0.24363435804843903,
      0.29538074135780334,
      -0.2767564058303833,
      0.3555379807949066,
      0.2840844392776489,
      0.2884574234485626,
      -0.25262901186943054
    ],
    [
      -0.5731022357940674,
      0.051287610083818436,
      0.17988893389701843,
      0.11556895077228546,
      -0.296356201171875,
      -0.22659872472286224,
      -0.07231875509023666,
      -0.28338220715522766,
      0.014743160456418991
    ],
    [
      0.12245006114244461,
      -0.35902512073516846,
      -0.10477178543806076,
      0.0909021720290184,
      0.1039191335439682,
      0.16628512740135193,
      0.23887889087200165,
      0.03429621085524559,
      0.12656281888484955
    ],
    [
      -0.1976570188999176,
      0.2107013314962387,
      0.13444048166275024,
      0.18712066113948822,
      0.3264675736427307,
      0.058810412883758545,
      0.16423991322517395,
      -0.26771050691604614,
      0.13895247876644135
    ],
    [
      0.1181924119591713,
      0.21869321167469025,
      0.06260352581739426,
      -0.25108328461647034,
      0.21963539719581604,
      -0.28471893072128296,
      -0.14295941591262817,
      0.05709044262766838,
      0.13722418248653412
    ],
    [
      -0.17773430049419403,
      0.3483307659626007,
      -0.029843831434845924,
      0.23835749924182892,
      0.07741154730319977,
      0.10228228569030762,
      -0.11261813342571259,
      -0.03712356463074684,
      -0.16008691489696503
    ],
    [
      -0.11901907622814178,
      0.3298407793045044,
      0.21478895843029022,
      0.1497885137796402,
      -0.06579834222793579,
      0.316706120967865,
      0.045005496591329575,
      -0.12038351595401764,
      -0.2854832708835602
    ],
    [
      0.08335737138986588,
      0.24721363186836243,
      -0.2703498303890228,
      -0.19806891679763794,
      0.04215218499302864,
      0.2628454566001892,
      0.16516129672527313,
      -0.27201640605926514,
      -0.26288944482803345
    ],
    [
      0.2380918711423874,
      0.24739141762256622,
      -0.2999672293663025,
      0.19336004555225372,
      0.3899225890636444,
      0.3833896815776825,
      -0.008479117415845394,
      -0.26393118500709534,
      -0.24000856280326843
    ],
    [
      -0.4270670711994171,
      -0.22727534174919128,
      0.27024590969085693,
      -0.1705351173877716,
      -0.07190492004156113,
      -0.27426135540008545,
      -0.11134819686412811,
      -0.004411323461681604,
      -0.03519809618592262
    ],
    [
      0.2578846514225006,
      0.007022670470178127,
      -0.07270842790603638,
      0.011690562590956688,
      0.23172211647033691,
      -0.5829434990882874,
      0.034488532692193985,
      0.042973749339580536,
      -0.09044632315635681
    ],
    [
      0.03819248452782631,
      -0.02528063766658306,
      -0.27924293279647827,
      -0.0842902734875679,
      0.07841870933771133,
      -0.39300334453582764,
      -0.005276981741189957,
      -0.1109595075249672,
      0.15679959952831268
    ],
    [
      -0.03983401879668236,
      -0.343201220035553,
      -0.2505442500114441,
      -0.14952866733074188,
      0.11188463121652603,
      0.117450051009655,
      0.2921834886074066,
      0.20538724958896637,
      0.02453681267797947
    ],
    [
      0.2471897006034851,
      -0.2330234795808792,
      -0.08534785360097885,
      -0.07180523872375488,
      -0.35401493310928345,
      -0.21477802097797394,
      -0.05997064337134361,
      -0.018928591161966324,
      -0.16753242909908295
    ],
    [
      0.43051671981811523,
      0.04694919288158417,
      0.08047626167535782,
      0.11062604188919067,
      0.08828809857368469,
      -0.3016318380832672,
      -0.39491701126098633,
      0.11901190876960754,
      0.06576274335384369
    ],
    [
      0.27373969554901123,
      -0.13135120272636414,
      -0.24730302393436432,
      0.0940912738442421,
      -0.017592566087841988,
      0.39749059081077576,
      0.2915252447128296,
      0.1174873560667038,
      0.03386247903108597
    ],
    [
      0.06226124241948128,
      0.27147331833839417,
      0.05321112275123596,
      -0.0012672337470576167,
      0.2562532126903534,
      0.0212726853787899,
      0.018810708075761795,
      0.08766739815473557,
      0.17006517946720123
    ],
    [
      -0.2345290631055832,
      -0.33314216136932373,
      -0.08926253765821457,
      0.25510984659194946,
      -0.12978610396385193,
      0.11689016968011856,
      0.024678338319063187,
      0.35859987139701843,
      0.15009444952011108
    ],
    [
      -0.2543712556362152,
      -0.23855093121528625,
      0.23550276458263397,
      0.020754732191562653,
      -0.0904621109366417,
      -0.2491966038942337,
      -0.12794332206249237,
      0.14444862306118011,
      0.021897047758102417
    ],
    [
      0.46434563398361206,
      0.34019914269447327,
      0.11072433739900589,
      -0.05656097084283829,
      -0.3635269105434418,
      -0.03258046135306358,
      -0.2997746765613556,
      0.284153550863266,
      0.27065178751945496
    ],
    [
      0.4334271252155304,
      0.3966696262359619,
      0.29636868834495544,
      -0.1303679198026657,
      0.09502164274454117,
      0.20088644325733185,
      -0.48114141821861267,
      -0.09508274495601654,
      -0.07898923009634018
    ],
    [
      0.13765786588191986,
      -0.21250276267528534,
      -0.05410056188702583,
      -0.1925227791070938,
      -0.1434193104505539,
      0.28237324953079224,
      0.3220911920070648,
      0.27440500259399414,
      -0.0658719539642334
    ],
    [
      0.25926363468170166,
      0.22933068871498108,
      0.26209452748298645,
      -0.17129889130592346,
      0.37930065393447876,
      -0.5273844599723816,
      0.05511575564742088,
      -0.13992083072662354,
      -0.12840595841407776
    ],
    [
      -0.027837950736284256,
      -0.12435388565063477,
      0.2726749777793884,
      -0.13494275510311127,
      0.10637286305427551,
      -0.12435918301343918,
      0.20153659582138062,
      0.30002307891845703,
      0.13135764002799988
    ],
    [
      -0.12443085014820099,
      0.21586886048316956,
      -0.3429144024848938,
      0.05196021869778633,
      0.014551030471920967,
      -0.19185176491737366,
      0.18034659326076508,
      -0.20102328062057495,
      -0.1952761560678482
    ],
    [
      0.07155509293079376,
      0.16075533628463745,
      0.28381478786468506,
      0.06459065526723862,
      0.15323862433433533,
      -0.006569651421159506,
      0.24679633975028992,
      -0.16459359228610992,
      0.03790891915559769
    ],
    [
      0.43716734647750854,
      0.24847392737865448,
      -0.07735507935285568,
      0.29975414276123047,
      0.2829734683036804,
      0.29840824007987976,
      0.08162922412157059,
      -0.15416014194488525,
      -0.04400826245546341
    ],
    [
      -0.11114925146102905,
      -0.03425048291683197,
      0.10666901618242264,
      0.24968144297599792,
      -0.40827441215515137,
      -0.013583743944764137,
      -0.18402248620986938,
      -0.029221387580037117,
      0.051938533782958984
    ],
    [
      -0.023883745074272156,
      0.18670430779457092,
      0.2321598380804062,
      -0.055177100002765656,
      0.24411815404891968,
      0.04003859683871269,
      -0.29950350522994995,
      0.19646738469600677,
      -0.01591213047504425
    ],
    [
      -0.11584249138832092,
      -0.2949802577495575,
      0.31864413619041443,
      -0.0532609224319458,
      -0.35354742407798767,
      0.2992519438266754,
      0.008266658522188663,
      -0.10842523723840714,
      0.017896249890327454
    ],
    [
      -0.0008456124342046678,
      0.1739102005958557,
      0.3051002621650696,
      0.05450725182890892,
      -0.34566089510917664,
      0.32051095366477966,
      -0.01883944310247898,
      -0.03627448529005051,
      -0.268013596534729
    ],
    [
      -0.31833818554878235,
      -0.15108299255371094,
      0.3107130527496338,
      0.16961732506752014,
      0.23843832314014435,
      0.317615807056427,
      0.23024201393127441,
      -0.10490725189447403,
      -0.22950176894664764
    ],
    [
      -0.39154085516929626,
      -0.14340375363826752,
      -0.23953327536582947,
      -0.1869785189628601,
      -0.2850978970527649,
      -0.06975042819976807,
      -0.2703264355659485,
      -0.1463904231786728,
      -0.17445486783981323
    ],
    [
      0.17103497684001923,
      -0.025693733245134354,
      -0.2552076280117035,
      -0.1763635128736496,
      0.09095127135515213,
      0.34882453083992004,
      -0.03570009395480156,
      -0.3135971128940582,
      -0.26012375950813293
    ],
    [
      0.1523345559835434,
      -0.12708713114261627,
      0.16285835206508636,
      0.22035512328147888,
      -0.3328206539154053,
      -0.5623488426208496,
      0.012048634700477123,
      -0.2568259835243225,
      0.048151645809412
    ],
    [
      0.443325400352478,
      0.15224944055080414,
      -0.08708817511796951,
      -0.28987061977386475,
      0.18941396474838257,
      -0.204718217253685,
      0.06841333955526352,
      0.1269373744726181,
      -0.13286399841308594
    ],
    [
      -0.2199534922838211,
      0.35053250193595886,
      -0.15504209697246552,
      0.10866831988096237,
      0.2090795487165451,
      -0.0978105366230011,
      -0.17621518671512604,
      0.20349042117595673,
      0.06357262283563614
    ],
    [
      0.12652277946472168,
      -0.2660384476184845,
      -0.09892257302999496,
      -0.22859160602092743,
      -0.2968784272670746,
      -0.1958739012479782,
      -0.03870786726474762,
      -0.258585661649704,
      -0.08420488238334656
    ],
    [
      0.134380504488945,
      -0.17699308693408966,
      -0.05166735127568245,
      0.2272333800792694,
      0.3203789293766022,
      -0.0353606641292572,
      0.15385907888412476,
      -0.18195563554763794,
      -0.34094926714897156
    ],
    [
      0.128644660115242,
      -0.30032551288604736,
      0.039277635514736176,
      0.21037574112415314,
      0.32666388154029846,
      0.11701590567827225,
      -0.04739440605044365,
      0.18267863988876343,
      0.38484683632850647
    ],
    [
      0.07608604431152344,
      0.13958537578582764,
      0.11396192759275436,
      -0.07210909575223923,
      -0.27239474654197693,
      -0.04712241142988205,
      -0.2010737955570221,
      -0.17933425307273865,
      -0.03153441473841667
    ],
    [
      0.02800665609538555,
      0.2754983603954315,
      -0.1623833179473877,
      0.2201824188232422,
      -0.3785393238067627,
      0.29726478457450867,
      0.1443699151277542,
      0.1564001441001892,
      0.2050938606262207
    ],
    [
      0.018494626507163048,
      0.2890583574771881,
      0.1759873479604721,
      -0.2556140422821045,
      -0.026613853871822357,
      0.375939279794693,
      -0.06330650299787521,
      0.2620929181575775,
      0.043231189250946045
    ],
    [
      0.33176881074905396,
      -0.3066293001174927,
      -0.1268330067396164,
      0.2489854395389557,
      -0.294406920671463,
      0.07144050300121307,
      0.09633998572826385,
      0.2640100419521332,
      0.24950480461120605
    ],
    [
      -0.0038911637384444475,
      0.0990576222538948,
      0.21458008885383606,
      0.26764917373657227,
      -0.3442090153694153,
      0.2586873173713684,
      -0.3000583052635193,
      0.19662481546401978,
      -0.054120976477861404
    ],
    [
      0.09979248046875,
      0.027441781014204025,
      0.28141340613365173,
      -0.3377861976623535,
      0.2736887037754059,
      -0.02007368393242359,
      -0.11862422525882721,
      0.09487532079219818,
      -0.3104396164417267
    ],
    [
      0.25175169110298157,
      0.13674232363700867,
      -0.32362988591194153,
      -0.2334473729133606,
      0.17804205417633057,
      -0.12167420983314514,
      -0.027690278366208076,
      -0.2719929814338684,
      0.1998969167470932
    ],
    [
      0.1385277509689331,
      -0.05856261029839516,
      0.005974558647722006,
      -0.23783430457115173,
      -0.09766855835914612,
      -0.03601681813597679,
      0.3176961839199066,
      -0.31148770451545715,
      -0.3917575180530548
    ],
    [
      -0.11392886191606522,
      -0.2639888823032379,
      0.012676107697188854,
      -0.13517116010189056,
      0.1719159185886383,
      -0.20622356235980988,
      0.22219477593898773,
      0.19892823696136475,
      0.3396475315093994
    ],
    [
      -0.06725671142339706,
      -0.31925132870674133,
      -0.12460929900407791,
      -0.2604481875896454,
      0.2790432274341583,
      -0.1609666496515274,
      -0.2519386410713196,
      -0.07452601939439774,
      0.17122672498226166
    ],
    [
      -0.4311926066875458,
      0.35231396555900574,
      -0.12548880279064178,
      0.2865375280380249,
      0.03935171663761139,
      -0.1521739810705185,
      -0.060480691492557526,
      0.0682203620672226,
      -0.16724608838558197
    ],
    [
      -0.43815043568611145,
      -0.16682644188404083,
      0.013164667412638664,
      -0.20452019572257996,
      0.19542790949344635,
      0.6558165550231934,
      -0.09749110043048859,
      0.20452120900154114,
      -0.2002851665019989
    ],
    [
      -0.34823310375213623,
      0.2047898918390274,
      -0.28170934319496155,
      -0.03583177924156189,
      0.036528851836919785,
      -0.17956069111824036,
      -0.23503847420215607,
      -0.10696450620889664,
      -0.1788187325000763
    ],
    [
      0.11069145798683167,
      0.3345754146575928,
      -0.32358723878860474,
      -0.3002883195877075,
      -0.054215677082538605,
      -0.04100090265274048,
      -0.26261627674102783,
      -0.29011744260787964,
      -0.053183745592832565
    ],
    [
      0.1101473942399025,
      0.019578278064727783,
      -0.31235891580581665,
      -0.2978994846343994,
      0.18563513457775116,
      0.06322380900382996,
      0.22273443639278412,
      -0.23131026327610016,
      0.13032573461532593
    ],
    [
      0.17305904626846313,
      -0.10583457350730896,
      0.20485611259937286,
      -0.07963339984416962,
      -0.19727203249931335,
      0.1038191020488739,
      0.22131618857383728,
      0.11418678611516953,
      -0.25019145011901855
    ],
    [
      -0.44582489132881165,
      0.17585082352161407,
      -0.31413471698760986,
      0.03152259811758995,
      -0.0014113889774307609,
      -0.4095081388950348,
      0.12023414671421051,
      -0.021013379096984863,
      0.16109807789325714
    ],
    [
      0.4240051507949829,
      0.20013445615768433,
      0.06587968021631241,
      -0.010863544419407845,
      -0.29433879256248474,
      -0.10388161242008209,
      0.010447943583130836,
      0.2323908656835556,
      0.16781947016716003
    ],
    [
      -0.3778631091117859,
      -0.032337725162506104,
      0.34826594591140747,
      -0.2765125334262848,
      -0.28293660283088684,
      0.1151176318526268,
      -0.38714098930358887,
      0.20656690001487732,
      -0.05236240103840828
    ],
    [
      0.5088784098625183,
      -0.11517450213432312,
      0.13084878027439117,
      0.08006637543439865,
      0.2923866808414459,
      0.09809872508049011,
      0.07448258250951767,
      -0.11346042901277542,
      -0.11085574328899384
    ],
    [
      0.11266437917947769,
      -0.20916597545146942,
      -0.18428336083889008,
      0.321493923664093,
      0.03284776955842972,
      -0.4568864405155182,
      -0.1043114885687828,
      -0.3046990633010864,
      -0.01920395903289318
    ],
    [
      -0.25842583179473877,
      0.15646424889564514,
      0.07019170373678207,
      0.16138803958892822,
      0.163618803024292,
      0.19781705737113953,
      -0.030803779140114784,
      0.11429702490568161,
      0.21033889055252075
    ],
    [
      0.1743766963481903,
      -0.11103873699903488,
      0.1280374974012375,
      -0.0424325168132782,
      -0.3536575138568878,
      0.31894451379776,
      0.3420734107494354,
      -0.05887686833739281,
      0.15311293303966522
    ],
    [
      0.18548384308815002,
      0.3093883693218231,
      0.18575282394886017,
      -0.19788537919521332,
      -0.11002938449382782,
      0.11687936633825302,
      -0.08071445673704147,
      0.24836432933807373,
      0.179697647690773
    ],
    [
      -0.1449156403541565,
      0.1460244357585907,
      -0.1184520572423935,
      0.08178891241550446,
      -0.024725373834371567,
      0.08060961961746216,
      0.05507174879312515,
      -0.3286442458629608,
      0.3436000645160675
    ],
    [
      0.29279544949531555,
      -0.21772052347660065,
      0.16358613967895508,
      -0.2049597054719925,
      -0.2751562297344208,
      0.2661474943161011,
      -0.3096454441547394,
      -0.09388300031423569,
      -0.22649985551834106
    ],
    [
      -0.312311589717865,
      0.21784964203834534,
      -0.14381343126296997,
      -0.29523831605911255,
      -0.24522189795970917,
      0.15187287330627441,
      -0.15886886417865753,
      0.1184353157877922,
      0.04569617286324501
    ],
    [
      0.20701663196086884,
      -0.32682159543037415,
      0.15233783423900604,
      -0.3031550347805023,
      0.08071735501289368,
      -0.31738775968551636,
      0.2502829432487488,
      -0.10432934015989304,
      0.1978106051683426
    ],
    [
      -0.023837072774767876,
      -0.22183911502361298,
      -0.25736701488494873,
      -0.14436593651771545,
      0.022161515429615974,
      0.3599644601345062,
      -0.2201719880104065,
      -0.26449066400527954,
      -0.10799763351678848
    ],
    [
      0.05744537338614464,
      0.3300209939479828,
      -0.1518140584230423,
      0.22046494483947754,
      -0.05110463872551918,
      0.13309799134731293,
      0.2025613784790039,
      -0.20320124924182892,
      -0.3156316578388214
    ],
    [
      0.08902467042207718,
      0.14438962936401367,
      -0.22307322919368744,
      0.1024177297949791,
      0.13639961183071136,
      0.05233252793550491,
      -0.054634008556604385,
      0.19221022725105286,
      -0.13089187443256378
    ],
    [
      0.08975369483232498,
      -0.07695988565683365,
      0.2796103358268738,
      0.09332200884819031,
      0.24395108222961426,
      -0.22633714973926544,
      0.28361085057258606,
      0.24690432846546173,
      0.24483250081539154
    ],
    [
      -0.02902842126786709,
      0.10562218725681305,
      0.03315350413322449,
      -0.10281829535961151,
      -0.11927229166030884,
      0.4104984700679779,
      0.08643463253974915,
      -0.22586578130722046,
      -0.04598730057477951
    ],
    [
      -0.22895491123199463,
      0.1212112084031105,
      0.15948741137981415,
      -0.09931469708681107,
      0.2429208904504776,
      -0.17172427475452423,
      0.20348522067070007,
      0.0348329171538353,
      0.089520163834095
    ],
    [
      -0.3799552917480469,
      -0.19322480261325836,
      -0.1387787014245987,
      0.20664763450622559,
      -0.06175614520907402,
      -0.3138915002346039,
      -0.11463186889886856,
      0.11396224796772003,
      -0.14777782559394836
    ],
    [
      -0.20877553522586823,
      0.0344974547624588,
      -0.19676454365253448,
      -0.21464569866657257,
      0.19683173298835754,
      0.5370983481407166,
      -0.04745757207274437,
      0.35955914855003357,
      -0.19353701174259186
    ],
    [
      0.11729522049427032,
      0.005390958860516548,
      -0.2807273864746094,
      0.2952582836151123,
      -0.06281361728906631,
      0.25834164023399353,
      -0.16160424053668976,
      -0.23649461567401886,
      0.2848080098628998
    ],
    [
      -0.13362951576709747,
      0.13749969005584717,
      0.2696651518344879,
      -0.07584336400032043,
      -0.16181069612503052,
      0.19872963428497314,
      0.2345896065235138,
      0.16654962301254272,
      0.17027023434638977
    ],
    [
      -0.23447369039058685,
      0.152626171708107,
      -0.18083393573760986,
      0.15467116236686707,
      -0.2932046949863434,
      0.4066488742828369,
      -0.15448440611362457,
      0.25075870752334595,
      0.08232040703296661
    ],
    [
      -0.1463572084903717,
      -0.22569715976715088,
      -0.002020625164732337,
      0.11209411919116974,
      -0.16057467460632324,
      -0.0946115180850029,
      0.22879129648208618,
      0.25045540928840637,
      0.13232183456420898
    ],
    [
      -0.23476199805736542,
      -0.2632623612880707,
      0.16532598435878754,
      -0.3011648654937744,
      0.42342305183410645,
      0.6080989241600037,
      -0.08717521280050278,
      -0.22472654283046722,
      0.09175851941108704
    ],
    [
      0.5061488747596741,
      0.20027627050876617,
      -0.1309317797422409,
      -0.21380354464054108,
      0.17615951597690582,
      -0.36385443806648254,
      -0.4048755168914795,
      -0.050964925438165665,
      -0.12166301906108856
    ],
    [
      0.14993737637996674,
      -0.0906037986278534,
      -0.2353833168745041,
      -0.2702043056488037,
      0.08731941878795624,
      -0.019432762637734413,
      0.013434537686407566,
      0.0807202160358429,
      -0.20608484745025635
    ],
    [
      -0.6091525554656982,
      0.04095924273133278,
      -0.1332968771457672,
      0.19553212821483612,
      -0.009412621147930622,
      0.20145276188850403,
      0.04404959827661514,
      -0.31272396445274353,
      -0.23383080959320068
    ]
  ],
  "sigmanet.nn.02.bias": [
    -0.016045616939663887,
    -0.003539106110110879,
    -0.05392875149846077,
    -0.10856197774410248,
    -0.13483357429504395,
    -0.03170131891965866,
    0.15413005650043488,
    -0.1283685266971588,
    0.04058605059981346,
    0.055260006338357925,
    -0.05984916165471077,
    0.0887322649359703,
    -0.047956764698028564,
    -0.015921575948596,
    0.056356459856033325,
    -0.029920583590865135,
    0.014080127701163292,
    -0.10862939804792404,
    -0.042644426226615906,
    0.020566776394844055,
    0.0625884160399437,
    -0.2046712338924408,
    -0.030765308067202568,
    0.029369881376624107,
    0.12163452059030533,
    -0.1361449807882309,
    -0.025576652958989143,
    0.1687842607498169,
    -0.23526602983474731,
    0.15603551268577576,
    -0.015909019857645035,
    0.04870210215449333,
    -0.025489797815680504,
    0.0667196661233902,
    -0.07304283231496811,
    -0.0630461722612381,
    -0.06352000683546066,
    0.013336961157619953,
    -0.06707456707954407,
    0.08278723806142807,
    -0.11701548099517822,
    -0.011435579508543015,
    -0.07489980012178421,
    0.08074714243412018,
    -0.04478975385427475,
    0.06176716089248657,
    -0.25338098406791687,
    0.0812581479549408,
    0.0763176679611206,
    -0.17416994273662567,
    -0.04446429759263992,
    -0.14610326290130615,
    0.07923652976751328,
    -0.14622609317302704,
    0.0044332765974104404,
    -0.03516317531466484,
    0.1521787792444229,
    -0.0754179060459137,
    0.14987778663635254,
    0.01159022655338049,
    0.04513818770647049,
    -0.0008306225063279271,
    0.052173420786857605,
    -0.030518611893057823,
    -0.040505196899175644,
    -0.0705871433019638,
    -0.009343154728412628,
    -0.047985587269067764,
    0.06055837124586105,
    -0.1440572291612625,
    0.06358649581670761,
    -0.058301545679569244,
    -0.029787376523017883,
    0.023986559361219406,
    -0.07971708476543427,
    -0.12623801827430725,
    0.0068230037577450275,
    -0.06897377967834473,
    -0.08162152767181396,
    -0.02108675055205822,
    -0.19767412543296814,
    0.29459378123283386,
    -0.061161741614341736,
    -0.0954732671380043,
    0.00655564246699214,
    0.20118318498134613,
    0.04610308259725571,
    0.002621968975290656,
    -0.053653866052627563,
    -0.03806577995419502,
    -0.053360465914011,
    -0.015768276527523994,
    -0.11066584289073944,
    0.04082529619336128,
    -0.01955716498196125,
    0.023238571360707283,
    -0.01579560525715351,
    -0.052649036049842834,
    0.1374567598104477,
    0.009895401075482368,
    -0.07805603742599487,
    -0.027429187670350075,
    -0.06442385166883469,
    0.11277429759502411,
    0.04759831726551056,
    -0.16906821727752686,
    -0.150803342461586,
    0.11384548246860504,
    -0.016613252460956573,
    -0.01847504824399948,
    0.08155874162912369,
    0.06865433603525162,
    -0.05063646659255028,
    0.13801106810569763,
    -0.14581403136253357,
    0.06397072225809097,
    0.07529469579458237,
    -0.13117338716983795,
    -0.05208386108279228,
    -0.047049716114997864,
    -0.13880249857902527,
    0.02156950905919075,
    -0.041164081543684006,
    -0.020247135311365128,
    -0.07423719018697739,
    0.028285710141062737,
    0.1201058104634285,
    -0.04627534747123718
  ],
  "sigmanet.nn.02.parametrizations.weight.original": [
    [
      -0.021147359162569046,
      0.029753543436527252,
      -0.02431425265967846,
      -0.017175722867250443,
      0.0078836465254426,
      0.018479619175195694,
      0.012839453294873238,
      -0.002906064735725522,
      0.02810687944293022,
      -0.012880746275186539,
      -0.02038639411330223,
      0.019872169941663742,
      -0.008250255137681961,
      -0.011994392611086369,
      0.006187611725181341,
      -0.015976067632436752,
      0.021200785413384438,
      -0.014528078958392143,
      0.01840917579829693,
      -0.008778095245361328,
      -0.031727924942970276,
      0.01651174947619438,
      -0.014495652168989182,
      0.01404580008238554,
      -0.014947779476642609,
      0.00200960342772305,
      -0.0065911742858588696,
      0.017243998125195503,
      0.014976376667618752,
      -0.020205069333314896,
      0.0139167420566082,
      -0.012757157906889915,
      0.025736572220921516,
      0.012859620153903961,
      -0.008874115534126759,
      0.024685386568307877,
      0.020473726093769073,
      0.0013727672630921006,
      0.016452500596642494,
      -0.005643102340400219,
      0.005728710442781448,
      -0.0169413760304451,
      0.019366148859262466,
      0.0033952335361391306,
      -0.00749139254912734,
      0.023493852466344833,
      0.0034658010117709637,
      -0.020263010635972023,
      -0.01794799230992794,
      -0.011033043265342712,
      0.01756502501666546,
      -0.0043147895485162735,
      -0.05504656210541725,
      0.03143271803855896,
      -0.0028377396520227194,
      -0.00903235748410225,
      0.017530107870697975,
      0.022261418402194977,
      -0.025204241275787354,
      0.011646958068013191,
      -0.028481442481279373,
      0.0163791012018919,
      -0.005300352815538645,
      0.027278438210487366,
      0.007422568276524544,
      0.040627848356962204,
      0.020296575501561165,
      0.004384662955999374,
      -0.0264500230550766,
      0.014702703803777695,
      -0.028486745432019234,
      0.02575823664665222,
      0.012122014537453651,
      8.784493547864258e-05,
      -0.01004153024405241,
      -0.022052856162190437,
      0.01754298061132431,
      0.020928489044308662,
      -0.01166166178882122,
      -0.006328423973172903,
      0.02312050573527813,
      -0.026739848777651787,
      -0.018897386267781258,
      0.003364925505593419,
      -0.01175637636333704,
      -0.012005487456917763,
      0.0035588801838457584,
      0.00011722088675014675,
      0.003757971106097102,
      0.023592788726091385,
      0.0036806899588555098,
      0.01016806811094284,
      -0.017212888225913048,
      -0.01824183762073517,
      -0.013269669376313686,
      -0.013129670172929764,
      -0.009516632184386253,
      -0.027012798935174942,
      -0.01569153182208538,
      -0.008384184911847115,
      -0.04111754149198532,
      -0.004679293837398291,
      0.0025026858784258366,
      0.026710491627454758,
      -0.022650081664323807,
      0.00016747578047215939,
      0.009895000606775284,
      0.024741295725107193,
      -0.005699803587049246,
      -0.006011257413774729,
      0.02171838842332363,
      0.010048618540167809,
      -0.013786261901259422,
      0.012338181957602501,
      0.018596142530441284,
      0.013509610667824745,
      0.014483359642326832,
      -0.022391270846128464,
      -0.026540817692875862,
      0.014430745504796505,
      -0.02423298917710781,
      0.02868659421801567,
      -0.007941105403006077,
      0.006992993410676718,
      0.028409123420715332,
      -0.01670176349580288,
      0.017401887103915215,
      -0.005465885624289513
    ],
    [
      0.01948609948158264,
      -0.016428280621767044,
      0.018732039257884026,
      0.008538586087524891,
      -0.03685927391052246,
      0.011830070987343788,
      -0.027523742988705635,
      -0.013919571414589882,
      -0.027642851695418358,
      0.017816057428717613,
      0.0329410545527935,
      -0.0038132215850055218,
      -0.01896696723997593,
      -0.012030349113047123,
      -0.0036148589570075274,
      -0.014151389710605145,
      -0.027569295838475227,
      0.011488433927297592,
      0.013755845837295055,
      -0.0032288217917084694,
      0.0717543214559555,
      -0.0213018748909235,
      -0.0015703830868005753,
      -0.021808458492159843,
      0.00807434506714344,
      -0.000729780993424356,
      -0.01770615391433239,
      -0.0022445160429924726,
      0.005051808897405863,
      -0.0032608576584607363,
      0.015293299220502377,
      -0.004596675280481577,
      -0.005976783577352762,
      0.03384384512901306,
      0.014467673376202583,
      -0.020555712282657623,
      0.006530230399221182,
      0.0006651764851994812,
      -0.03479002043604851,
      0.028701096773147583,
      -0.017576253041625023,
      -0.011715290136635303,
      0.00721900025382638,
      -0.003991986624896526,
      0.011668830178678036,
      0.004468497354537249,
      0.05618873983621597,
      -0.02092454954981804,
      0.009552939794957638,
      0.0052859107963740826,
      0.014053764753043652,
      -1.281209279113682e-05,
      0.05647620931267738,
      -0.0417809933423996,
      0.00199491111561656,
      0.004432717803865671,
      -0.00583640206605196,
      0.015828536823391914,
      0.023724354803562164,
      -0.03526747226715088,
      0.013080512173473835,
      -0.009735510684549809,
      -0.0010469767730683088,
      -0.009920194745063782,
      -0.006008967757225037,
      0.009611537680029869,
      2.3528813471784815e-05,
      -0.0011683618649840355,
      0.030637027695775032,
      -0.005916486959904432,
      0.03184587135910988,
      -0.04087242856621742,
      -0.018143190070986748,
      0.005551596637815237,
      -0.016465889289975166,
      0.028721841052174568,
      -0.01220761053264141,
      0.008276034146547318,
      -0.0028709587641060352,
      0.007320879492908716,
      0.015123069286346436,
      0.010776357725262642,
      0.0721430853009224,
      -0.000658279110211879,
      -0.01855112425982952,
      -0.016723453998565674,
      -0.02544892206788063,
      0.006810732185840607,
      0.0013471703277900815,
      0.018445907160639763,
      -0.018794260919094086,
      -0.010483053512871265,
      0.017936520278453827,
      0.029386498034000397,
      0.0033345522824674845,
      0.015923822298645973,
      -0.019750360399484634,
      0.026789620518684387,
      -0.012424762360751629,
      -0.024158956483006477,
      0.02449054829776287,
      -0.018721798434853554,
      0.010481697507202625,
      -0.02873755246400833,
      0.003667842596769333,
      0.002772885374724865,
      -0.048185355961322784,
      -0.021149015054106712,
      0.006081322208046913,
      0.0013566657435148954,
      4.1750114178285e-05,
      -0.018051262944936752,
      0.009995212778449059,
      -0.01574743539094925,
      0.0264882855117321,
      0.010649962350726128,
      -0.0004906837712042034,
      0.02386544458568096,
      0.012291152961552143,
      -0.021098002791404724,
      -0.011834480799734592,
      -0.005276788491755724,
      -0.003656290238723159,
      -0.0013633935013785958,
      0.022983796894550323,
      -0.003501600818708539,
      -0.0012741715181618929,
      -0.014049602672457695
    ],
    [
      0.014697316102683544,
      -0.04781976342201233,
      0.0011255526915192604,
      0.026117950677871704,
      -0.00810380931943655,
      0.017704937607049942,
      -0.018844105303287506,
      -0.0005787773407064378,
      0.010815390385687351,
      -0.002712743356823921,
      0.030344055965542793,
      0.021250423043966293,
      -0.014093388803303242,
      0.0139610031619668,
      0.013766438700258732,
      0.023812225088477135,
      0.0025077674072235823,
      -0.01686510629951954,
      -0.03562431037425995,
      0.014472904615104198,
      -0.004977883771061897,
      -0.021652737632393837,
      0.003509931731969118,
      0.010187282226979733,
      -0.0041333152912557125,
      0.03282855451107025,
      0.03750966861844063,
      -0.02984190359711647,
      0.015197773464024067,
      0.01711023971438408,
      0.009904944337904453,
      -0.015012129209935665,
      0.004733404144644737,
      0.026457933709025383,
      0.005011830013245344,
      0.004018707200884819,
      0.018116706982254982,
      0.008981279097497463,
      -0.011068087071180344,
      0.010652896948158741,
      0.015711253508925438,
      -0.027394983917474747,
      0.012033570557832718,
      0.0056688967160880566,
      0.008126328699290752,
      -0.013373938389122486,
      0.022173423320055008,
      -0.006760578602552414,
      0.0034978315234184265,
      0.007329365238547325,
      0.008909253403544426,
      0.00365317496471107,
      0.023490415886044502,
      -0.07751470059156418,
      -0.016356099396944046,
      0.0028739802073687315,
      -0.004554337821900845,
      0.0028923084028065205,
      0.03428121656179428,
      -0.025389013811945915,
      0.04364125430583954,
      -0.03509065508842468,
      -0.004590726923197508,
      0.0033427905291318893,
      -0.023736124858260155,
      -0.02893119305372238,
      0.006784196011722088,
      -0.012369515374302864,
      -0.010437595658004284,
      -0.00659643579274416,
      0.03505752608180046,
      -0.05983271077275276,
      0.00834026001393795,
      0.0009597635944373906,
      -0.0016609918093308806,
      0.004394149873405695,
      0.03448162600398064,
      0.00617025513201952,
      -0.0009643726516515017,
      -0.05329960212111473,
      -0.009799311868846416,
      -2.4060502255451865e-05,
      -0.010956699028611183,
      -0.008338999934494495,
      -0.01372469961643219,
      0.016433538869023323,
      0.004092804621905088,
      -0.009208227507770061,
      -0.01665981486439705,
      -0.020833846181631088,
      -0.012649786658585072,
      -0.020438900217413902,
      0.00546006765216589,
      0.005816462449729443,
      -0.005718114320188761,
      0.005158388055860996,
      0.0001918235793709755,
      -0.00479945307597518,
      0.01248087827116251,
      -0.021894853562116623,
      0.003756800899282098,
      0.012851794250309467,
      0.02874780260026455,
      -0.019585682079195976,
      0.025403784587979317,
      0.01655685529112816,
      -0.08150552213191986,
      -0.016720164567232132,
      -0.01291111670434475,
      -0.005716600455343723,
      -0.009412772953510284,
      -0.004931692034006119,
      0.011317596770823002,
      -0.008230309933423996,
      0.02205195277929306,
      -0.0005338037735782564,
      -0.02815045230090618,
      0.025651345029473305,
      0.02784160152077675,
      -0.01000071968883276,
      -0.023747289553284645,
      -0.002273445250466466,
      0.029146434739232063,
      0.003854013280943036,
      -0.002734223147854209,
      0.013546650297939777,
      -0.01075268816202879,
      -0.008594509214162827
    ],
    [
      0.005354301072657108,
      -0.009072072803974152,
      0.0353969968855381,
      0.013451263308525085,
      -0.011735121719539165,
      -0.027556559070944786,
      0.012027790769934654,
      -0.019063759595155716,
      -0.006222838535904884,
      0.013609160669147968,
      0.007802779786288738,
      -0.00928397849202156,
      -0.015536872670054436,
      -0.008601845242083073,
      0.01283303089439869,
      0.02772967331111431,
      0.006034203339368105,
      -0.03923561051487923,
      -0.048088520765304565,
      -0.006180493161082268,
      0.06359580159187317,
      0.015379293821752071,
      -0.02133914642035961,
      -0.003235594602301717,
      -0.0021100975573062897,
      0.0161794014275074,
      0.021325036883354187,
      -0.029506850987672806,
      0.009286726824939251,
      0.014018625020980835,
      0.00983539130538702,
      0.02558179572224617,
      -0.043709415942430496,
      0.01442193053662777,
      -2.26641604967881e-05,
      -0.013958836905658245,
      -0.01421556156128645,
      -0.021675195544958115,
      -0.018337666988372803,
      0.003085229778662324,
      0.010039770044386387,
      0.013141999021172523,
      -0.023884830996394157,
      -0.004787586163729429,
      -0.02882315404713154,
      0.01878289505839348,
      0.017831958830356598,
      -0.02208600752055645,
      -0.001452227821573615,
      0.0025472696870565414,
      0.03554259613156319,
      -0.003909250255674124,
      0.0317135751247406,
      -0.010555950924754143,
      0.021899288520216942,
      0.018822722136974335,
      -0.01938592828810215,
      -0.0002666501677595079,
      0.07798200845718384,
      -0.04098847880959511,
      -0.006883815862238407,
      0.009077147580683231,
      -0.002699495293200016,
      -0.00210449006408453,
      0.04808957129716873,
      -0.002442825585603714,
      -0.023650966584682465,
      0.005403807386755943,
      0.03063942864537239,
      -0.022716587409377098,
      0.007593058981001377,
      -0.013551940210163593,
      -0.02613121271133423,
      0.004951552487909794,
      -0.011991553008556366,
      0.005400278605520725,
      0.019086316227912903,
      0.02749648690223694,
      -0.026229048147797585,
      -0.015383416786789894,
      -0.013089176267385483,
      -0.007658545859158039,
      0.024261387065052986,
      0.022926174104213715,
      -0.016636433079838753,
      0.004380063619464636,
      0.02256987802684307,
      -0.0012394227087497711,
      -0.0034330205526202917,
      -0.004588995594531298,
      0.004085746128112078,
      0.009132013656198978,
      -0.003835168667137623,
      -0.010737148113548756,
      0.0025769127532839775,
      -0.0025813512038439512,
      -0.019011948257684708,
      0.025560254231095314,
      -0.015619898214936256,
      -0.0044117216020822525,
      -0.008339001797139645,
      -0.010753237642347813,
      0.0064039332792162895,
      0.006552938371896744,
      0.0001415131555404514,
      -0.02226785197854042,
      0.014653061516582966,
      -0.026639027521014214,
      0.007683951407670975,
      0.010650869458913803,
      -0.005176792852580547,
      -0.02696172334253788,
      0.015853123739361763,
      0.03315659612417221,
      0.005364453420042992,
      -0.0012401386629790068,
      -0.01574626937508583,
      -0.014979460276663303,
      -0.021899541839957237,
      0.005444541573524475,
      0.011812707409262657,
      0.014401757158339024,
      0.018201669678092003,
      -0.007475282531231642,
      -0.0008672080002725124,
      0.027401940897107124,
      -0.012043776921927929,
      0.017948033288121223
    ],
    [
      -0.00010605390707496554,
      -0.03438234701752663,
      0.03361736238002777,
      0.021303748711943626,
      -0.0054252599366009235,
      0.008063898421823978,
      -0.004868069663643837,
      -0.011027525179088116,
      -0.01862967014312744,
      0.0049563078209757805,
      0.006679123733192682,
      0.0012049681972712278,
      -0.018523190170526505,
      0.018718577921390533,
      0.017740396782755852,
      0.0107267452403903,
      -0.01348260510712862,
      -0.0070085711777210236,
      -0.034042421728372574,
      0.013418003916740417,
      0.017145784571766853,
      0.023071695119142532,
      0.004010163713246584,
      -0.01843167282640934,
      0.00011844006803585216,
      -0.005449958145618439,
      -0.016584603115916252,
      -0.017979076132178307,
      -0.009180311113595963,
      -0.004055713769048452,
      -0.008033732883632183,
      0.010522102005779743,
      -0.02474069967865944,
      0.010909936390817165,
      -0.0027252649888396263,
      -0.009656024165451527,
      -0.027790846303105354,
      0.012191706337034702,
      -0.007123147137463093,
      0.026879649609327316,
      -0.03028232231736183,
      -0.02398688532412052,
      -0.0430469736456871,
      0.02917683869600296,
      -0.022340862080454826,
      -0.012851741164922714,
      0.018421554937958717,
      -0.014539521187543869,
      -0.010668753646314144,
      0.00986530538648367,
      -0.006011021789163351,
      0.015491616912186146,
      0.03424506634473801,
      -0.008532846346497536,
      0.016863320022821426,
      0.029613224789500237,
      -0.0059900167398154736,
      -0.006047089118510485,
      0.07136663794517517,
      -0.06669151782989502,
      0.005046938080340624,
      0.006748673971742392,
      -0.04174148663878441,
      0.012463798746466637,
      0.011010733433067799,
      -0.005667279940098524,
      0.014003226533532143,
      0.009938551113009453,
      0.03284476697444916,
      0.007933564484119415,
      0.011643178761005402,
      0.003415175713598728,
      -0.03444390371441841,
      0.006799178663641214,
      0.010617239400744438,
      -0.0143830431625247,
      -0.004489125683903694,
      -0.01084830891340971,
      0.014941916801035404,
      0.022651469334959984,
      -0.010416138917207718,
      0.00026142405113205314,
      0.02006208337843418,
      0.004688138607889414,
      0.010303922928869724,
      -0.012767971493303776,
      -0.031012222170829773,
      -0.02046867646276951,
      0.011038684286177158,
      -0.0022390352096408606,
      0.01755772903561592,
      -0.018635988235473633,
      0.017652155831456184,
      0.010669926181435585,
      -0.005807219073176384,
      0.006861645728349686,
      0.01753196120262146,
      -0.010251807048916817,
      0.019944285973906517,
      0.0036564546171575785,
      0.03548889234662056,
      0.0028555572498589754,
      -0.009811529889702797,
      0.020007623359560966,
      0.028223231434822083,
      -0.014774373732507229,
      -0.024785086512565613,
      0.0014968677423894405,
      -0.00012714954209513962,
      -0.012991153635084629,
      -0.02234342135488987,
      -0.006994381546974182,
      0.006365681998431683,
      0.017676211893558502,
      0.0031809136271476746,
      -0.002265185583382845,
      0.009258435107767582,
      0.007298002950847149,
      0.002557543572038412,
      -0.027933431789278984,
      -0.01397658884525299,
      0.01322868000715971,
      0.02601609192788601,
      -0.04919052496552467,
      -0.017633143812417984,
      0.015188422054052353,
      -0.03399428725242615,
      0.02432006224989891
    ],
    [
      -0.01283716969192028,
      -0.021828636527061462,
      0.00017583215958438814,
      0.016263414174318314,
      -0.013776306994259357,
      -0.015553874894976616,
      -0.019248927012085915,
      0.019650131464004517,
      -0.026270246133208275,
      0.01143593993037939,
      0.0055056121200323105,
      0.022839251905679703,
      -0.009804251603782177,
      -0.014339054003357887,
      -0.006708241067826748,
      0.023928875103592873,
      -0.008034838363528252,
      -0.005796938668936491,
      -0.0020407382398843765,
      0.019879097118973732,
      0.002608387963846326,
      -0.014411023817956448,
      0.0229857936501503,
      -0.021442100405693054,
      0.01135756354779005,
      0.0159943625330925,
      -0.0010451169218868017,
      -0.008702963590621948,
      0.00015905189502518624,
      0.011941397562623024,
      -0.026494180783629417,
      0.016747644171118736,
      -0.00844638142734766,
      0.0026008428540080786,
      0.016453059390187263,
      -0.027220603078603745,
      0.011970391497015953,
      -0.008047274313867092,
      -0.02731447108089924,
      0.00552184646949172,
      0.014517618343234062,
      -0.010006828233599663,
      -0.011265812441706657,
      -0.018694931641221046,
      0.023741746321320534,
      -0.026338210329413414,
      0.02165357768535614,
      -0.014792114496231079,
      -0.015485080890357494,
      0.012180330231785774,
      0.02034178003668785,
      -0.008213409222662449,
      0.04821210354566574,
      -0.04772818833589554,
      -0.0010890327394008636,
      -0.037158165127038956,
      -0.007916267029941082,
      0.02422863245010376,
      0.02264142967760563,
      -0.038422841578722,
      0.020600348711013794,
      -0.0035115345381200314,
      -0.02461066283285618,
      -0.008489790372550488,
      -0.02400575950741768,
      -0.022186048328876495,
      -0.010902546346187592,
      -0.0012886185431852937,
      0.03211313113570213,
      0.01421724446117878,
      0.03831739351153374,
      -0.02992938831448555,
      -0.0070446087047457695,
      -0.00032550032483413815,
      0.018291475251317024,
      0.020535103976726532,
      0.0028645889833569527,
      0.00011764578084694222,
      0.004438329488039017,
      -0.04402204230427742,
      0.00012763381528202444,
      0.002556298626586795,
      0.0014301128685474396,
      -0.02022404968738556,
      -0.01896444708108902,
      0.007908936589956284,
      0.015473132953047752,
      -0.007463046815246344,
      -0.03142842650413513,
      0.010468256659805775,
      -0.00401352858170867,
      -0.025691259652376175,
      -0.014420985244214535,
      0.004302665125578642,
      0.021808167919516563,
      0.029914850369095802,
      0.019731564447283745,
      -0.012553158216178417,
      -0.02185879647731781,
      0.010374844074249268,
      0.010131241753697395,
      -0.004506420809775591,
      0.030017048120498657,
      -0.06055201590061188,
      0.013022330589592457,
      0.0015564612112939358,
      -0.037775810807943344,
      -0.024841196835041046,
      -0.009473534300923347,
      0.025260457769036293,
      -0.005396517459303141,
      -0.006187010556459427,
      -0.0024010136257857084,
      0.01574976183474064,
      -0.0035750146489590406,
      -0.022274473682045937,
      -0.02149929292500019,
      -0.015459848567843437,
      0.02210843935608864,
      -0.0018634400330483913,
      0.027389373630285263,
      0.013310465030372143,
      0.007351202424615622,
      -0.0111826928332448,
      -0.0175237525254488,
      0.006121013779193163,
      -0.0068516903556883335,
      0.0060826633125543594
    ],
    [
      0.0009184114751406014,
      0.011764870025217533,
      -0.010446631349623203,
      -0.014137789607048035,
      0.02872576378285885,
      2.136942021024879e-05,
      -0.009871323592960835,
      0.014788520522415638,
      0.014711912721395493,
      -0.0061134835705161095,
      0.0031102315988391638,
      0.006861761678010225,
      0.012333414517343044,
      -0.029600776731967926,
      0.025672217831015587,
      0.0017006696434691548,
      -0.011494852602481842,
      0.0033226036466658115,
      0.02264048531651497,
      -0.003604716854169965,
      0.02906859666109085,
      -0.007999135181307793,
      -9.130063699558377e-05,
      0.03082851693034172,
      -0.002838283544406295,
      0.004412007983773947,
      -0.05163084343075752,
      0.02006528154015541,
      -0.03260762616991997,
      -0.050871893763542175,
      0.01424618810415268,
      -0.029805822297930717,
      0.012407037429511547,
      -0.007394055835902691,
      0.000485127791762352,
      0.031209561973810196,
      -0.01106580812484026,
      0.0010042336070910096,
      -0.0029628591146320105,
      0.0018844855949282646,
      -0.0241005327552557,
      -0.004619767889380455,
      0.021034691482782364,
      -0.0019057946046814322,
      -0.01509473193436861,
      -0.00018729115254245698,
      -0.0007868714164942503,
      -0.028170477598905563,
      0.009676432237029076,
      -0.030362829566001892,
      -0.0017590223578736186,
      -0.010473668575286865,
      -0.03559066727757454,
      -0.007557984441518784,
      0.01645159348845482,
      0.050025053322315216,
      0.005568083841353655,
      -8.102257197606377e-06,
      0.015106306411325932,
      0.007838143967092037,
      -0.016879869624972343,
      -0.004084831569343805,
      0.04300561174750328,
      0.028498291969299316,
      0.00206597032956779,
      0.0095640504732728,
      0.013679618015885353,
      0.03150288015604019,
      -0.02394728548824787,
      0.02030188962817192,
      -0.015162868425250053,
      0.014011376537382603,
      -0.01479287352412939,
      0.013982837088406086,
      -0.002113478956744075,
      -0.01750938408076763,
      -0.0033247212413698435,
      -0.005150120239704847,
      0.04728355258703232,
      0.055683739483356476,
      0.017875900492072105,
      -0.018811386078596115,
      -0.0030554921831935644,
      -0.006129182409495115,
      2.751525789790321e-05,
      0.0011455370113253593,
      -0.012386077083647251,
      0.007573697250336409,
      0.008069885894656181,
      -0.00021869975898880512,
      0.0150144686922431,
      0.008295928128063679,
      -0.00372810079716146,
      0.00577716575935483,
      -0.08397139608860016,
      -0.029156554490327835,
      0.0013508882839232683,
      -0.0009692787425592542,
      8.167375926859677e-05,
      0.02120446227490902,
      -0.004053775686770678,
      0.033901799470186234,
      -0.007318428717553616,
      0.0737035870552063,
      -0.003972590435296297,
      -0.024918528273701668,
      0.03678186610341072,
      0.013508185744285583,
      -0.0014339224435389042,
      -0.016715625301003456,
      0.009089508093893528,
      0.009631321765482426,
      -0.01008849497884512,
      -0.025875244289636612,
      -0.0022890933323651552,
      0.030472969636321068,
      -0.005072803236544132,
      0.00021626611123792827,
      -0.017293469980359077,
      -0.049009449779987335,
      -0.0192010048776865,
      -6.0314167058095336e-05,
      -0.002291159238666296,
      0.0012135017896071076,
      0.021976452320814133,
      0.000735191279090941,
      0.00010832215775735676,
      -0.09064016491174698
    ],
    [
      -0.012699602171778679,
      0.0350501574575901,
      -0.023162173107266426,
      -0.01207498088479042,
      0.015696879476308823,
      -0.0063597457483410835,
      0.014602039940655231,
      0.021067708730697632,
      -0.004951213952153921,
      0.02753000520169735,
      -0.010312089696526527,
      0.006308221723884344,
      0.02055869624018669,
      0.014175498858094215,
      -0.030053045600652695,
      -0.008360931649804115,
      0.01342117041349411,
      0.024150248616933823,
      0.031122317537665367,
      0.010900318622589111,
      -0.016989003866910934,
      0.028836147859692574,
      -0.009174845181405544,
      0.001782305771484971,
      0.007169169839471579,
      -0.0027941721491515636,
      -0.023907670751214027,
      0.008474932052195072,
      0.02483033761382103,
      -0.012850700877606869,
      0.02386380173265934,
      -0.022946510463953018,
      0.020780684426426888,
      -0.002611845964565873,
      -0.004340299405157566,
      0.019431080669164658,
      -0.0016739611746743321,
      -0.0016502045327797532,
      0.019575893878936768,
      -0.0008451824542135,
      -0.00011875732889166102,
      0.019746866077184677,
      -0.011997075751423836,
      -0.00759137375280261,
      0.0143261244520545,
      0.022910889238119125,
      -0.016417838633060455,
      0.04940956458449364,
      0.0009832768701016903,
      -0.024203898385167122,
      0.012547553516924381,
      -0.0016866257647052407,
      -0.04758284240961075,
      0.029730593785643578,
      -0.012375404126942158,
      -0.05734662711620331,
      -0.010427621193230152,
      -0.012836025096476078,
      -0.04802112653851509,
      0.06710585206747055,
      -0.01396116055548191,
      -0.018929729238152504,
      0.027694998309016228,
      0.004484881181269884,
      -0.017355676740407944,
      0.049116507172584534,
      -0.0048588975332677364,
      0.006280109751969576,
      0.007126250769942999,
      0.01096926536411047,
      -0.02212553285062313,
      0.02665651962161064,
      0.019742174074053764,
      0.020763741806149483,
      0.012552396394312382,
      0.009275740943849087,
      -0.01662036031484604,
      -0.009989701211452484,
      -0.010173073038458824,
      -0.011116278357803822,
      0.008446541614830494,
      0.003783362451940775,
      -0.005825446452945471,
      -0.013246296904981136,
      -0.0038637833204120398,
      0.004230161663144827,
      0.010011999867856503,
      -0.01401152927428484,
      -0.020380323752760887,
      0.004458170384168625,
      0.01370211225003004,
      0.01626061648130417,
      0.01053127832710743,
      0.014624525792896748,
      0.04116223379969597,
      0.004649958107620478,
      0.016114020720124245,
      -0.030188513919711113,
      0.006052571348845959,
      -0.014946120791137218,
      -0.012696939520537853,
      -0.007122097536921501,
      0.004552965052425861,
      -0.0037710380274802446,
      -0.02598189190030098,
      0.015512204729020596,
      0.03417062759399414,
      0.004732068628072739,
      0.01197186391800642,
      0.015264813788235188,
      0.00737129058688879,
      0.009397213347256184,
      0.027773436158895493,
      -0.017162036150693893,
      0.00720777316018939,
      0.00014884200936648995,
      0.009611804038286209,
      -0.005649462807923555,
      0.005683639086782932,
      0.032321471720933914,
      0.005806705914437771,
      -0.006019359454512596,
      -0.013674581423401833,
      0.02201167121529579,
      0.01753721758723259,
      -0.011159787885844707,
      0.006582255009561777,
      -0.01837061531841755
    ],
    [
      -0.016401492059230804,
      0.038140326738357544,
      0.01725887507200241,
      -0.01044692937284708,
      -0.015238523483276367,
      -0.01796167716383934,
      -0.019575446844100952,
      0.025746982544660568,
      0.01247005071491003,
      -0.0018217492615804076,
      -0.04275193065404892,
      0.010297159664332867,
      0.005009431391954422,
      0.006251225247979164,
      -0.0010919076157733798,
      -0.006287946831434965,
      -0.0022155970800668,
      0.004097093362361193,
      0.008695396594703197,
      -0.016595007851719856,
      -0.0160823967307806,
      -0.0056786201894283295,
      -0.0023206768091768026,
      0.034229688346385956,
      -0.015222910791635513,
      -0.008418953977525234,
      -0.044802337884902954,
      -0.005218450911343098,
      -0.014500834047794342,
      -0.014997489750385284,
      -0.013311662711203098,
      -0.024236366152763367,
      -0.01828884705901146,
      0.009583055041730404,
      -0.0071289679035544395,
      0.03490801900625229,
      -0.0066773309372365475,
      -0.010101777501404285,
      0.013566696085035801,
      0.028158484026789665,
      -0.01920497603714466,
      0.019374491646885872,
      0.03222763538360596,
      0.006877649575471878,
      0.009797116741538048,
      0.026548366993665695,
      -0.028299905359745026,
      -0.013790267519652843,
      0.0005357412155717611,
      -0.0027485124301165342,
      -0.004597796127200127,
      -0.009265237487852573,
      -0.044577788561582565,
      0.02592778392136097,
      0.002541937865316868,
      -0.007051703054457903,
      -0.0028512380085885525,
      0.01661679707467556,
      -0.037164658308029175,
      0.006048769690096378,
      -0.013215937651693821,
      -0.0077470578253269196,
      -0.00500706909224391,
      -0.00930086337029934,
      -0.017017701640725136,
      0.049393247812986374,
      0.008695578202605247,
      0.023626133799552917,
      -0.024384835734963417,
      0.006475261878222227,
      -0.03157391771674156,
      0.04701446369290352,
      0.008163472637534142,
      -0.004274097271263599,
      0.026731612160801888,
      0.006125464104115963,
      0.013762366026639938,
      0.025068014860153198,
      0.012388734146952629,
      0.023476537317037582,
      -0.015985483303666115,
      -0.02050856687128544,
      -0.0075020515359938145,
      -0.005391477607190609,
      0.004201881587505341,
      -0.01183279324322939,
      0.01778142899274826,
      0.02333575114607811,
      0.02472585439682007,
      0.014604738913476467,
      -0.018061451613903046,
      -0.01539197564125061,
      0.0038175706285983324,
      0.00940276775509119,
      0.02948589436709881,
      -0.015421492047607899,
      -0.02462112344801426,
      0.0031011735554784536,
      0.016820833086967468,
      0.03568883240222931,
      -0.019025642424821854,
      0.007568820845335722,
      -0.00873764231801033,
      0.06685036420822144,
      -0.008684113621711731,
      -0.008854732848703861,
      0.01381422858685255,
      -0.015335813164710999,
      0.016241783276200294,
      0.018756931647658348,
      0.019560471177101135,
      0.0015714277978986502,
      0.004313671961426735,
      -0.024698199704289436,
      0.01213046070188284,
      -0.008175862021744251,
      0.007161160930991173,
      0.005458950996398926,
      -0.003091973252594471,
      -0.019933441653847694,
      0.014398330822587013,
      0.009427313692867756,
      -0.012427586130797863,
      0.017183983698487282,
      -0.011603088118135929,
      -0.011366263963282108,
      -0.012779171578586102,
      -0.01788647659122944
    ],
    [
      -0.005894877947866917,
      -0.013561236672103405,
      0.025210900232195854,
      0.014622379094362259,
      0.02594483643770218,
      -0.00010230409679934382,
      0.027897752821445465,
      0.002449717838317156,
      -0.002460433868691325,
      0.00787618663161993,
      -0.013663223013281822,
      -0.005514205899089575,
      -0.01565433479845524,
      0.014035135507583618,
      0.011686228215694427,
      0.010011501610279083,
      0.010442894883453846,
      -0.006208350881934166,
      -0.022545859217643738,
      0.006953731644898653,
      0.003446123795583844,
      -0.010410789400339127,
      -0.011250701732933521,
      -0.02259090542793274,
      0.0034305499866604805,
      0.017229391261935234,
      0.05446600541472435,
      -0.007974178530275822,
      0.02442350424826145,
      -0.003097117180004716,
      8.978462574305013e-05,
      -0.010304762981832027,
      -0.013073403388261795,
      0.024140946567058563,
      0.02693142741918564,
      -0.03140897676348686,
      -0.01720217615365982,
      -0.007107970770448446,
      -0.009520155377686024,
      -0.027672143653035164,
      -0.011430633254349232,
      -0.01886872947216034,
      0.014510827139019966,
      -0.00011163811723235995,
      -0.007859839126467705,
      0.009098201058804989,
      -0.008836619555950165,
      -0.013327925466001034,
      -0.006210428196936846,
      0.022819967940449715,
      0.026839306578040123,
      0.012355769984424114,
      0.009786265902221203,
      -0.029976075515151024,
      0.02164185419678688,
      0.007724778726696968,
      -0.02051992155611515,
      0.03148598223924637,
      0.022867150604724884,
      -0.06455301493406296,
      0.02496040053665638,
      0.01684340462088585,
      -0.030558621510863304,
      -0.017667800188064575,
      0.018207088112831116,
      -0.061334870755672455,
      0.009349459782242775,
      -0.005131990183144808,
      0.04126807674765587,
      0.012703693471848965,
      0.02766967937350273,
      -0.051887910813093185,
      -0.007168917916715145,
      0.019285595044493675,
      -0.00789418164640665,
      -0.012352760881185532,
      -0.009266654960811138,
      0.016505828127264977,
      -0.0003558412136044353,
      -0.008896359242498875,
      -0.009920087642967701,
      0.03154122084379196,
      -0.012688850983977318,
      0.019962536171078682,
      -0.00795710552483797,
      0.0038425149396061897,
      0.01428266428411007,
      0.004590380005538464,
      -0.016573097556829453,
      -0.02558915875852108,
      0.031837280839681625,
      -0.018460588529706,
      0.0017315481090918183,
      0.006089385598897934,
      0.0038389377295970917,
      0.017592038959264755,
      6.454315735027194e-05,
      0.0013046181993559003,
      0.027584999799728394,
      0.014526303857564926,
      0.004492211155593395,
      -0.01189997885376215,
      -0.0028273563366383314,
      -0.04661080613732338,
      0.0208269152790308,
      0.013817410916090012,
      -0.023613426834344864,
      -0.024854637682437897,
      -0.013251019641757011,
      -0.02238868921995163,
      -0.008199839852750301,
      -0.030203664675354958,
      0.022716866806149483,
      -0.009055656380951405,
      0.003474236000329256,
      -0.018645983189344406,
      0.00012092619726900011,
      0.007672944571822882,
      0.016640663146972656,
      -0.022730916738510132,
      0.00719778798520565,
      -0.029884381219744682,
      0.013654549606144428,
      0.003309672698378563,
      0.00045375985791906714,
      -0.002451262203976512,
      -0.008880025707185268,
      0.011505400761961937
    ],
    [
      -0.02780439332127571,
      0.02713787369430065,
      0.011518807150423527,
      -0.02328251488506794,
      -0.0006552120321430266,
      0.019961126148700714,
      0.01349983736872673,
      -0.01248188503086567,
      -0.006438063457608223,
      0.011065962724387646,
      0.010982359759509563,
      -0.002357226563617587,
      0.014703781343996525,
      0.0050438945181667805,
      0.02140091359615326,
      -0.023235391825437546,
      0.0012753716437146068,
      0.007619351614266634,
      -0.0011786851100623608,
      0.0010001177433878183,
      -0.02966258116066456,
      0.012949779629707336,
      -0.01831604167819023,
      0.003931690473109484,
      0.018930090591311455,
      -0.005659034010022879,
      -0.003874697955325246,
      0.023226210847496986,
      -0.022619443014264107,
      -0.01195700652897358,
      -0.010651655495166779,
      -0.027684379369020462,
      0.011105186305940151,
      0.0074111297726631165,
      0.022792287170886993,
      0.006949572823941708,
      0.019530724734067917,
      -0.002373096300289035,
      0.0221912432461977,
      -0.001762773608788848,
      -0.003985962830483913,
      -0.011112036183476448,
      0.042546797543764114,
      0.011651525273919106,
      -0.00255450326949358,
      0.015340774320065975,
      -0.025941265746951103,
      0.00266550132073462,
      0.004063769709318876,
      -0.010259845294058323,
      0.005423950031399727,
      -0.0034219000954180956,
      -0.044577013701200485,
      0.036343179643154144,
      -0.014848091639578342,
      -0.023097461089491844,
      0.022902347147464752,
      -0.017528528347611427,
      -0.028586959466338158,
      0.0613858662545681,
      -0.027731189504265785,
      0.016721762716770172,
      0.030929556116461754,
      0.0008738536271266639,
      0.02222462184727192,
      0.04114270955324173,
      0.022263722494244576,
      0.010501477867364883,
      -0.029306232929229736,
      0.017751509323716164,
      -0.01731758937239647,
      0.03220565989613533,
      0.00047316047130152583,
      -0.021380243822932243,
      -0.01678277924656868,
      -0.006801876705139875,
      -0.007746678311377764,
      -0.008065285161137581,
      -0.02331392839550972,
      0.01078580878674984,
      -0.008417749777436256,
      0.0077947406098246574,
      -0.017126841470599174,
      0.00014208408538252115,
      0.0033780019730329514,
      -0.023523135110735893,
      0.025591518729925156,
      -0.005942807998508215,
      0.00959150679409504,
      0.02542058192193508,
      0.010495473630726337,
      -0.009462953545153141,
      0.003596061607822776,
      -0.011108290404081345,
      0.019144531339406967,
      -0.014255099929869175,
      -0.011875083670020103,
      -0.0219965148717165,
      -0.01424072403460741,
      0.030008021742105484,
      -0.016828538849949837,
      0.012051684781908989,
      -0.021136505529284477,
      0.03570609539747238,
      0.005030469503253698,
      0.007241384591907263,
      0.035164106637239456,
      -0.01979883201420307,
      0.02327607572078705,
      -0.019734060391783714,
      -0.008388892747461796,
      0.007872817106544971,
      -0.0046087587252259254,
      -0.013728348538279533,
      -0.022041941061615944,
      -0.022423991933465004,
      0.006319887936115265,
      -0.005471203941851854,
      -0.021562591195106506,
      -0.006229722872376442,
      -0.01627127081155777,
      0.025893498212099075,
      -0.010030061937868595,
      0.03020354174077511,
      0.018295681104063988,
      -0.02371682971715927,
      0.007468176074326038,
      0.0016150764422491193
    ],
    [
      0.030937407165765762,
      -0.03705848008394241,
      0.001243789680302143,
      0.015485100448131561,
      -0.029976986348628998,
      -0.011051886714994907,
      -0.017963102087378502,
      -0.01100948266685009,
      -0.024894390255212784,
      -0.006679037120193243,
      -0.015492947772145271,
      -0.014090519398450851,
      0.01706165075302124,
      -0.01400487869977951,
      -2.6955496650771238e-05,
      0.024902157485485077,
      -0.00739031657576561,
      -0.024635745212435722,
      0.011967836879193783,
      0.028667228296399117,
      0.037647802382707596,
      -0.006403449922800064,
      -0.009426568634808064,
      0.0029173600487411022,
      -0.019704272970557213,
      0.020935434848070145,
      -0.0018533751135692,
      -0.021656962111592293,
      0.012959830462932587,
      0.020518582314252853,
      0.009738926775753498,
      0.0236488226801157,
      0.02645835466682911,
      0.01200433075428009,
      0.01788291707634926,
      -0.01940741576254368,
      0.013046360574662685,
      0.017812451347708702,
      -0.0382426455616951,
      -0.015589619986712933,
      -0.028846533969044685,
      0.021986842155456543,
      -0.021755872294306755,
      -0.014637621119618416,
      0.0025017845910042524,
      0.00034770689671859145,
      -0.007670801132917404,
      -0.030108937993645668,
      0.00411995267495513,
      0.012974299490451813,
      0.0063468473963439465,
      0.009285878390073776,
      0.036187220364809036,
      -0.029429694637656212,
      -0.006791612133383751,
      0.012805924750864506,
      -0.0016473782015964389,
      -0.02068878337740898,
      0.03412828966975212,
      0.007916941307485104,
      0.016718344762921333,
      -0.00217493181116879,
      0.019909819588065147,
      0.020676996558904648,
      0.018100479617714882,
      -0.03427133336663246,
      0.011307194828987122,
      -0.01772165670990944,
      0.010929505340754986,
      0.0018488899804651737,
      0.0351780503988266,
      0.00407821498811245,
      -0.005831205751746893,
      0.012149074114859104,
      -0.016902603209018707,
      -0.01805814355611801,
      -0.011134092696011066,
      -0.0013022327329963446,
      -0.01558984536677599,
      -0.03826575726270676,
      0.0028734866064041853,
      0.03186880797147751,
      0.027103740721940994,
      -0.017586272209882736,
      0.009685248136520386,
      0.010017786175012589,
      0.0175074003636837,
      -0.002347562462091446,
      -0.002618428086861968,
      0.005680708680301905,
      0.02278144098818302,
      0.014719508588314056,
      0.008746867068111897,
      0.011903289705514908,
      -0.030014894902706146,
      -0.00010502012446522713,
      0.010346186347305775,
      0.0268812645226717,
      0.01988827809691429,
      0.015390319749712944,
      0.02272532880306244,
      0.019127048552036285,
      0.0016755213728174567,
      0.011471474543213844,
      0.014064223505556583,
      0.0010084642563015223,
      -0.042505696415901184,
      -0.007343597710132599,
      0.0010916800238192081,
      0.022939158603549004,
      0.008667344227433205,
      -0.03012963756918907,
      -0.026938101276755333,
      0.008375231176614761,
      0.01910337060689926,
      0.017951756715774536,
      0.012305738404393196,
      0.02692265808582306,
      0.029230859130620956,
      -0.014211648143827915,
      -0.0012870290083810687,
      -0.011693676002323627,
      -0.0008397586061619222,
      0.020470231771469116,
      -4.5317392505239695e-05,
      -0.01113551389425993,
      -0.002068278146907687,
      -0.011882508173584938
    ],
    [
      -0.014339548535645008,
      0.04237300902605057,
      0.0016720788553357124,
      -0.005529248155653477,
      0.02265135385096073,
      0.018361501395702362,
      -0.010924024507403374,
      0.01941927894949913,
      0.021388983353972435,
      -0.014320416375994682,
      -0.0042020161636173725,
      0.022080276161432266,
      0.009618650190532207,
      -0.0003540278703439981,
      -0.002718205563724041,
      -0.01969594694674015,
      -0.004784839227795601,
      0.00021893206576351076,
      0.0086140725761652,
      -0.036975253373384476,
      0.040010273456573486,
      0.01172966044396162,
      -0.026788175106048584,
      -0.02365790121257305,
      -0.004438901320099831,
      0.004911748226732016,
      -0.04251701757311821,
      0.01976272277534008,
      -0.01950490102171898,
      -0.030317779630422592,
      -0.0017773588187992573,
      0.016396908089518547,
      0.012261399999260902,
      -0.01934894546866417,
      -0.008949470706284046,
      0.02953295037150383,
      0.00043933442793786526,
      -0.010454578325152397,
      -0.00966207217425108,
      0.00037732900818809867,
      -0.03241490572690964,
      -0.021221939474344254,
      0.02745349146425724,
      -0.005043859127908945,
      -5.096731911180541e-05,
      0.0018641065107658505,
      -0.021660609170794487,
      -0.018057845532894135,
      0.0030095672700554132,
      -0.012751954607665539,
      -0.015331348404288292,
      -0.005191347096115351,
      -0.03183310478925705,
      0.015566624701023102,
      0.017817646265029907,
      -0.0032624443992972374,
      -0.0018627101089805365,
      -0.041516177356243134,
      -0.022343846037983894,
      -0.0055648270063102245,
      -0.0011082814307883382,
      -0.02528829500079155,
      0.010056521743535995,
      0.012942349538207054,
      -0.01624719426035881,
      -0.01313407439738512,
      0.028404342010617256,
      -0.029504677280783653,
      -0.031114643439650536,
      0.015777934342622757,
      -0.034863799810409546,
      0.009434145875275135,
      -0.016416192054748535,
      0.027213959023356438,
      0.0014384296955540776,
      -0.005014358088374138,
      -0.0011714627034962177,
      0.03154418244957924,
      -0.010848816484212875,
      -0.009534000419080257,
      0.004276894498616457,
      -0.012802544049918652,
      0.030941899865865707,
      0.001646544085815549,
      -0.0075855921022593975,
      0.011794938705861568,
      -0.0030555659905076027,
      -0.01440205704420805,
      -0.009909103624522686,
      -0.027855774387717247,
      -0.009438528679311275,
      0.021058278158307076,
      -0.014091625809669495,
      -0.03505824878811836,
      -0.01840336248278618,
      -0.018370524048805237,
      -0.007775499951094389,
      -0.014005330391228199,
      -0.017165562137961388,
      -0.01550891250371933,
      -0.024925831705331802,
      -0.011804437264800072,
      0.0006188238621689379,
      0.057157933712005615,
      0.02876000665128231,
      0.01851099170744419,
      0.008876323699951172,
      0.0044224257580935955,
      0.010071814991533756,
      0.025638215243816376,
      0.027546091005206108,
      0.0027579949237406254,
      -0.006096620112657547,
      0.0073710219003260136,
      -0.01590963825583458,
      -0.021103180944919586,
      0.0076529826037585735,
      -0.016644511371850967,
      -0.0008519840775988996,
      -0.022051723673939705,
      -0.01221404131501913,
      0.022505884990096092,
      -0.04325050115585327,
      0.017592282965779305,
      0.012340064160525799,
      -0.011660830117762089,
      0.0009289845474995673,
      -0.01763000711798668
    ],
    [
      0.02943604812026024,
      -0.027795759961009026,
      0.031396616250276566,
      0.013347584754228592,
      -0.012915058061480522,
      -0.018556002527475357,
      -0.0037167479749768972,
      -0.01619740203022957,
      -0.02770594134926796,
      -0.0064807916060090065,
      0.021946927532553673,
      -0.009160676039755344,
      0.0075655728578567505,
      0.009442603215575218,
      0.020083382725715637,
      -0.009352236054837704,
      -0.0037314887158572674,
      0.017019355669617653,
      -0.03824518620967865,
      -0.00014611439837608486,
      -0.03884571045637131,
      -0.005373979918658733,
      0.01738174818456173,
      -0.0024441462010145187,
      -0.0039873854257166386,
      -0.011607237160205841,
      0.039705514907836914,
      -0.006208449136465788,
      -0.013684299774467945,
      0.024813367053866386,
      9.827667963691056e-05,
      0.033427488058805466,
      -0.00787199754267931,
      0.0034174476750195026,
      -0.028455715626478195,
      -0.015475761145353317,
      0.008078017272055149,
      0.008328639902174473,
      -0.010110166855156422,
      0.022761095315217972,
      0.02305026538670063,
      -0.028944363817572594,
      -0.03828340023756027,
      -0.01081811636686325,
      0.021976415067911148,
      -0.021178748458623886,
      0.012115799821913242,
      0.02062598057091236,
      0.005559047218412161,
      0.007776088546961546,
      0.019706040620803833,
      0.008024463430047035,
      -0.012449221685528755,
      -0.03261014074087143,
      0.0040616318583488464,
      0.021474281325936317,
      0.0034567497204989195,
      -0.005362662486732006,
      0.01822994463145733,
      0.005109831225126982,
      0.0070386966690421104,
      -0.008492980152368546,
      -0.02205277606844902,
      -0.007620788179337978,
      0.009029208682477474,
      -0.04423009604215622,
      -0.005215688142925501,
      -0.003484395332634449,
      0.002762824296951294,
      0.021249569952487946,
      0.01003969181329012,
      -0.04540984332561493,
      -0.014209319837391376,
      -0.022995784878730774,
      0.010892754420638084,
      -0.019394399598240852,
      0.007748529780656099,
      -0.015305332839488983,
      0.04098137468099594,
      -0.004900882486253977,
      0.011619535274803638,
      -0.009182472713291645,
      0.003948032855987549,
      -0.0001878920738818124,
      -0.010795976966619492,
      -0.005378226283937693,
      -0.009190860204398632,
      0.014702786691486835,
      0.009236373007297516,
      -0.009843144565820694,
      -0.009162094444036484,
      0.0015140241011977196,
      0.013995257206261158,
      0.01606530137360096,
      0.007963855750858784,
      0.01680954173207283,
      -0.02102985605597496,
      -0.013100995682179928,
      0.023150132969021797,
      -0.010699032805860043,
      0.024893635883927345,
      0.02011055126786232,
      0.02301913872361183,
      -0.037297822535037994,
      0.01545805111527443,
      0.02254260703921318,
      -0.015470041893422604,
      0.018427172675728798,
      -0.0191494170576334,
      0.031602270901203156,
      -0.009700750932097435,
      -0.01884053461253643,
      0.021824782714247704,
      0.0226921234279871,
      -0.016467474400997162,
      -0.024910369887948036,
      -0.014538911171257496,
      -0.019367286935448647,
      -0.010441537946462631,
      0.002300971420481801,
      0.003996400628238916,
      0.014944037422537804,
      0.008230693638324738,
      0.010661422275006771,
      -0.013771428726613522,
      0.021461104974150658,
      -0.010118533857166767,
      0.03999935835599899
    ],
    [
      -0.0009364191791974008,
      -0.023156706243753433,
      -0.006940491963177919,
      -0.004034329205751419,
      0.024101128801703453,
      0.019139587879180908,
      0.005367659032344818,
      0.009511207230389118,
      -0.033307045698165894,
      0.022180035710334778,
      0.02430112473666668,
      -0.019620416685938835,
      -0.011049216613173485,
      0.014378833584487438,
      0.023177875205874443,
      -0.006577727384865284,
      -0.029055917635560036,
      0.019307337701320648,
      0.010156732052564621,
      -0.003352891420945525,
      0.03796224668622017,
      0.012969768606126308,
      -0.017681937664747238,
      -0.02122531831264496,
      0.02444438263773918,
      0.01517663337290287,
      0.030574001371860504,
      0.01073402725160122,
      -0.011678692884743214,
      -0.02012011408805847,
      0.006565846037119627,
      -0.004539427813142538,
      -0.0063744704239070415,
      0.003535804571583867,
      0.020083552226424217,
      -0.010980295948684216,
      0.00013397334259934723,
      0.027074601501226425,
      -0.022587047889828682,
      0.0016794316470623016,
      0.0016883270582184196,
      -0.022427286952733994,
      0.010208290070295334,
      0.010849344544112682,
      0.000760710914619267,
      0.003759251208975911,
      -0.021033387631177902,
      -0.054037272930145264,
      -0.010511969216167927,
      0.01712869666516781,
      9.657446935307235e-05,
      -0.0017841135850176215,
      0.04659365862607956,
      -0.030659232288599014,
      0.015270497649908066,
      0.05579839274287224,
      0.005122835747897625,
      -0.013022957369685173,
      0.046348877251148224,
      -0.03983553871512413,
      -0.0019023908535018563,
      0.010559813119471073,
      -0.01348460465669632,
      0.01798057183623314,
      0.022542273625731468,
      0.008529553189873695,
      0.014347494579851627,
      -0.02053854987025261,
      -0.00542172696441412,
      -0.017767567187547684,
      0.027800852432847023,
      -0.004880367778241634,
      -0.039304252713918686,
      -0.00013470831618178636,
      0.00931521225720644,
      0.0045415619388222694,
      0.029862787574529648,
      -0.02718661166727543,
      -0.008851028978824615,
      0.004454345442354679,
      0.004312535282224417,
      -0.005961417220532894,
      0.004716245457530022,
      0.014689894393086433,
      -0.017536070197820663,
      0.004882732406258583,
      -0.01480670552700758,
      -0.021840212866663933,
      0.032912079244852066,
      -0.013682616874575615,
      -0.020217731595039368,
      -0.02294359914958477,
      0.021765321493148804,
      -0.021427759900689125,
      0.001683119568042457,
      0.004547570366412401,
      0.014357677660882473,
      -0.001897516311146319,
      0.01643732562661171,
      -0.010436538606882095,
      -0.010109004564583302,
      -0.004659479949623346,
      0.005913670174777508,
      0.0020596059039235115,
      -0.001251076813787222,
      0.004359065555036068,
      -0.06762336194515228,
      0.016694314777851105,
      0.010344510897994041,
      -0.002432950772345066,
      -0.008997494354844093,
      -0.008548798970878124,
      0.009799212217330933,
      0.020171180367469788,
      0.026995759457349777,
      -0.026430584490299225,
      -0.025678759440779686,
      0.011947637423872948,
      0.011387631297111511,
      -0.011779640801250935,
      0.016788527369499207,
      -0.01269670482724905,
      0.009617486968636513,
      -0.033748991787433624,
      0.011735405772924423,
      0.0024923637975007296,
      -0.009637686423957348,
      0.03292668238282204
    ],
    [
      0.006121370475739241,
      -0.028997497633099556,
      0.003385745221748948,
      -0.00020138939726166427,
      -0.010552192106842995,
      -0.006229492370039225,
      0.015415356494486332,
      0.013372850604355335,
      -0.000684318772982806,
      0.025625260546803474,
      0.02709808386862278,
      -1.3368980035011191e-05,
      0.003376316512003541,
      0.01687273010611534,
      -0.028871119022369385,
      0.029409179463982582,
      0.0020099899265915155,
      0.0068479725159704685,
      0.009913300164043903,
      0.01029212586581707,
      -0.011272868141531944,
      -3.471462332527153e-05,
      0.036245621740818024,
      0.00015410484047606587,
      0.0003034562396351248,
      -0.002137048402801156,
      0.09767317026853561,
      -0.01775304228067398,
      0.0073524159379303455,
      0.051760487258434296,
      0.000169750492204912,
      0.06245025247335434,
      0.0007444447837769985,
      0.03939307853579521,
      -0.001128127332776785,
      0.026786325499415398,
      0.007978569716215134,
      -0.029869409278035164,
      0.011238633655011654,
      0.003663039533421397,
      0.010647440329194069,
      0.005758934188634157,
      0.004080746788531542,
      -0.0067970710806548595,
      0.007683569099754095,
      0.014397860504686832,
      0.018476661294698715,
      0.013198936358094215,
      -0.0068777333945035934,
      -0.0008936210069805384,
      0.009099367074668407,
      0.006814558524638414,
      0.05593863129615784,
      0.005337083712220192,
      0.0003393338993191719,
      -0.04204406961798668,
      -0.028883343562483788,
      0.006450274493545294,
      -0.06946642696857452,
      0.029966823756694794,
      0.029437996447086334,
      -0.0024927929043769836,
      -0.04884568229317665,
      -0.022768935188651085,
      -0.025408882647752762,
      0.02811632864177227,
      -0.046351633965969086,
      -0.005426952149719,
      0.039555300027132034,
      -0.0033418219536542892,
      -0.005811559502035379,
      0.010808457620441914,
      0.022720295935869217,
      -0.01220879890024662,
      6.913256129337242e-06,
      0.0036036150995641947,
      0.010277239605784416,
      0.024451585486531258,
      -0.011566043831408024,
      -0.05443630740046501,
      0.02622903510928154,
      -0.037606947124004364,
      0.0019160816445946693,
      -0.003365796757861972,
      0.00017959521210286766,
      0.011153181083500385,
      -0.00881295744329691,
      -0.0059554786421358585,
      -0.022437987849116325,
      -0.010850735940039158,
      -0.006906280759721994,
      0.01901993900537491,
      0.009299995377659798,
      -0.0002763395896181464,
      0.02513333596289158,
      -0.000174722692463547,
      -0.027996035292744637,
      0.0032335349824279547,
      0.0018588067032396793,
      0.00823415070772171,
      7.752011151751503e-05,
      -0.0020438204519450665,
      -0.0015544394263997674,
      -0.004767398349940777,
      -0.00324349757283926,
      -3.681723683257587e-05,
      -0.014236897230148315,
      0.021504133939743042,
      0.0038169058971107006,
      0.05508870631456375,
      0.005870291031897068,
      0.002247016178444028,
      0.017142869532108307,
      0.011439098976552486,
      -0.02630697563290596,
      -0.0019065906526520848,
      0.014188583008944988,
      0.01855599693953991,
      -0.006188673432916403,
      0.004345710389316082,
      0.009055228903889656,
      -0.017750846222043037,
      -0.0007503091474063694,
      3.978875247412361e-05,
      -0.020073411986231804,
      -0.022004062309861183,
      0.012248416431248188,
      0.06868723034858704
    ],
    [
      -0.00637227576225996,
      0.01608528569340706,
      -0.02988150157034397,
      -0.010120484046638012,
      -0.019650259986519814,
      -0.02158035896718502,
      -0.00701539870351553,
      0.009713329374790192,
      0.026165254414081573,
      -0.005374286323785782,
      0.008018006570637226,
      -0.015391042456030846,
      0.033332645893096924,
      -0.014809289947152138,
      -8.229021477745846e-05,
      -0.034361544996500015,
      0.025415673851966858,
      -0.02436288446187973,
      -0.004600019194185734,
      0.008774050511419773,
      -0.025599727407097816,
      0.006200815085321665,
      -0.002038193168118596,
      0.014738783240318298,
      0.006523371674120426,
      -0.003728102659806609,
      -0.04241611436009407,
      -0.010027425363659859,
      -3.4995539408555487e-06,
      -0.02692331001162529,
      0.016862347722053528,
      -0.024420129135251045,
      0.014315557666122913,
      0.009894273243844509,
      -0.015220128931105137,
      -0.014339176937937737,
      -7.251745410030708e-05,
      0.008428684435784817,
      0.012523068115115166,
      0.0001237534888787195,
      -0.009377550333738327,
      0.023417383432388306,
      0.025039274245500565,
      6.703990220557898e-05,
      0.009585019201040268,
      0.025390123948454857,
      -0.015510153025388718,
      0.0298492219299078,
      0.019035862758755684,
      -0.014933522790670395,
      -0.02010151371359825,
      -0.0035307910293340683,
      -0.051391396671533585,
      0.01819206401705742,
