{"metadata": {"version": 1, "features": ["TrackChi2PerDoF", "TrackGhostProb", "InMuon", "IsMuon", "LogMuonChi2", "MuonCatBoost", "RichDLLe", "RichDLLmu", "RichDLLk", "RichDLLp", "usedRich1Gas", "usedRich2Gas", "ElectronShowerDLL", "EcalPIDmu", "HcalPIDmu"]}, "_stack.Linear_0.weight": [[-0.260632187128067, 0.06955116987228394, 0.5005724430084229, 0.09081912040710449, 0.0685400441288948, 0.05918151140213013, 0.08832820504903793, -0.29373252391815186, 0.11562806367874146, 0.13184843957424164, -0.03597170487046242, -0.1349964737892151, 0.09956509619951248, 0.050372082740068436, 0.14014334976673126], [0.15907983481884003, 0.8124299645423889, 0.5451197624206543, 0.7216916084289551, 0.2024492472410202, -0.04286305606365204, 0.003383791074156761, -0.3044270873069763, 0.23510827124118805, 0.01797635480761528, 0.5066185593605042, -0.40056943893432617, 0.012134891003370285, -0.2988324761390686, -0.21732257306575775], [-0.2583383619785309, 0.7598235011100769, 0.6594377160072327, -0.11387040466070175, 0.1878727227449417, -0.1081162840127945, -0.296533465385437, 0.3508647680282593, -0.09510380774736404, -0.10254709422588348, -0.06422228366136551, 0.04731142520904541, 0.26111382246017456, -0.9027231931686401, -0.4120357632637024], [-0.14533059298992157, -0.6325690746307373, -0.3861543536186218, -0.20942462980747223, -0.107499860227108, 0.10726911574602127, -0.22381940484046936, 0.13699907064437866, 0.19188761711120605, 0.20136658847332, -0.13875935971736908, -0.4398641884326935, 0.03746664524078369, 0.23964309692382812, 0.07601873576641083], [-0.37475284934043884, -0.4013284742832184, 0.09483300149440765, -0.4191596210002899, -0.03632216528058052, -0.19123347103595734, 0.7994823455810547, 0.22455987334251404, -0.17255285382270813, 0.0043350327759981155, -0.42836108803749084, 0.34077733755111694, 0.753649890422821, -0.3524051904678345, 0.5974136590957642], [0.015135599300265312, -0.6584391593933105, -0.7327815890312195, -0.22071829438209534, -0.09640596807003021, 0.2221592217683792, -0.12313445657491684, -0.038611505180597305, -0.17106473445892334, -0.206457257270813, 0.16777189075946808, -0.00782778114080429, -0.24313804507255554, 0.395406037569046, 0.24222594499588013], [-0.007515239994972944, -0.7090410590171814, -0.18139854073524475, -0.15968842804431915, -0.22157742083072662, 0.18211717903614044, 0.019436828792095184, 0.1947510838508606, -0.1654503345489502, 0.03132598102092743, 0.5350680947303772, -0.004046979825943708, 0.03135331720113754, -0.30501365661621094, -0.02041257731616497], [-0.36899834871292114, -0.5003030300140381, -0.48349446058273315, -0.27854639291763306, -0.20309826731681824, 0.02232694998383522, -0.27268320322036743, 0.32635167241096497, -0.19008474051952362, 0.132762610912323, 0.1846684366464615, -0.5464037656784058, 0.13832423090934753, -0.05561062693595886, -0.3237815797328949], [0.029837362468242645, 0.900490403175354, 0.37408751249313354, 0.4667527973651886, 0.19552643597126007, -0.07194973528385162, -0.4656755328178406, -0.3563188314437866, 0.028043033555150032, 0.2207142859697342, 0.48619380593299866, -0.06864950060844421, -0.13766716420650482, -0.48547980189323425, 0.12336956709623337], [0.34649768471717834, -0.3797467052936554, -0.14136585593223572, 0.15052884817123413, 0.0534871481359005, 0.15273870527744293, 0.5642618536949158, 0.025805596262216568, -0.10988569259643555, 0.05649152398109436, 0.300847589969635, -0.021525902673602104, 0.15591959655284882, -0.4479111135005951, 0.051739729940891266], [0.25387459993362427, 0.8931481242179871, 0.4201635420322418, 0.016194693744182587, -0.16777361929416656, 0.04968377202749252, -0.20482037961483002, 0.042705923318862915, 0.056591954082250595, -0.2004958689212799, -0.43708357214927673, -0.18477143347263336, 0.13106629252433777, -0.08188782632350922, 0.21833652257919312], [0.21029505133628845, -0.08230780065059662, -0.4015578031539917, -0.1462261974811554, -0.09935512393712997, -0.14781147241592407, -0.07353433221578598, 0.5269263982772827, 0.26574528217315674, -0.1383364200592041, 0.04365445300936699, -0.14701591432094574, 0.028271416202187538, 0.25537803769111633, 0.09264065325260162], [-0.129434272646904, -0.7174041867256165, -0.498759001493454, -0.31087860465049744, 0.09220080077648163, -0.25966301560401917, -0.5356049537658691, 0.022072602063417435, -0.12438609451055527, -0.05722051113843918, 0.0013201411347836256, 0.12054188549518585, -0.3733135461807251, 0.5783058404922485, -0.4218473732471466], [-0.2576763331890106, -1.2251118421554565, -0.7121014595031738, 0.07775158435106277, 0.18720251321792603, 0.21836429834365845, -0.07501393556594849, 0.2833051383495331, -0.12461771070957184, -0.016038093715906143, 0.009169068187475204, -0.2412485033273697, -0.04475035145878792, 0.5297448039054871, 0.2592372000217438], [-0.001556840492412448, 0.4787455201148987, 0.028140008449554443, 0.30598533153533936, -0.27433037757873535, -0.03465891629457474, 0.17240609228610992, -0.32144877314567566, -0.18899057805538177, 0.2151782363653183, 0.12643083930015564, 0.626925528049469, -0.06057398021221161, 0.10335934907197952, 0.11360076814889908], [-0.04226135089993477, 0.3370567560195923, 0.502217173576355, 0.19231313467025757, -0.08772045373916626, -0.027337223291397095, 0.3423362672328949, 0.13289691507816315, 0.09047985076904297, 0.046894099563360214, 0.22584518790245056, 0.3088024854660034, 0.16712062060832977, -0.5107675790786743, 0.540440559387207], [-0.03935898095369339, -0.6451464295387268, -0.05769063159823418, -0.2605058252811432, 0.060776419937610626, 0.18202412128448486, -0.4741879105567932, 0.0978037565946579, 0.2553045451641083, -0.03480324149131775, 0.11400285363197327, 0.3144896626472473, -0.1583584100008011, -0.35287049412727356, -0.31972619891166687], [0.26241016387939453, 0.892488956451416, 0.6649904847145081, 0.27432981133461, 0.13321250677108765, -0.0010954744648188353, -0.11597352474927902, -0.017532970756292343, -0.06902121007442474, 0.1055154874920845, -0.226260244846344, 0.0620567724108696, 0.09015007317066193, 0.09530419111251831, 0.2839382588863373], [0.39653635025024414, 0.9242035150527954, 0.5447689890861511, 0.373330682516098, 0.1371864229440689, -0.1463034451007843, -0.034047290682792664, 0.05123569443821907, -0.2086295336484909, 0.11370811611413956, -0.05949155613780022, -0.4285058081150055, -0.12843641638755798, -0.10291735827922821, 0.07126934826374054], [-0.07231243699789047, 0.8242469429969788, 0.5082619190216064, -0.23211239278316498, 0.3726235032081604, 0.0424300879240036, 0.08690181374549866, 0.09626790881156921, 0.01201067678630352, -0.19447597861289978, -0.3546423614025116, 0.05363324284553528, 0.03937923163175583, -0.25962212681770325, -0.3107598125934601], [-0.24041426181793213, 0.2536909580230713, 0.6165878772735596, -0.09124057739973068, 0.4176428020000458, -0.4103240668773651, 0.304693341255188, -0.16422949731349945, -0.005492647178471088, -0.003952805418521166, 0.17568741738796234, 0.10465327650308609, 0.052813030779361725, -0.20867691934108734, -0.335631400346756], [-0.012995666824281216, -1.0569111108779907, -0.08378253132104874, -0.1053699478507042, 0.25519636273384094, 0.2488626390695572, 0.7080941200256348, -0.20375162363052368, 0.08950751274824142, -0.2440524697303772, 0.34178268909454346, 0.14965428411960602, 0.14105385541915894, -0.03680572286248207, 0.36854612827301025], [-0.05281786620616913, 0.3309685289859772, 0.29115021228790283, 0.2997574210166931, -0.10260724276304245, -0.16506753861904144, 0.45723143219947815, -0.3596971929073334, 0.265832781791687, -0.02654867060482502, 0.045539069920778275, -0.42039254307746887, -0.11515608429908752, 0.07217524200677872, -0.4144333004951477], [-0.30501794815063477, 0.5635073184967041, 0.49055254459381104, 0.0008197667775675654, 0.09579639881849289, -0.040271833539009094, -0.16924047470092773, -0.20487681031227112, 0.009290632791817188, -0.0659741461277008, -0.47231823205947876, -0.21533989906311035, -0.17305144667625427, -0.2049817591905594, 0.11591999232769012], [0.23706947267055511, -0.9223864674568176, -0.37174370884895325, -0.23895350098609924, 0.18616653978824615, 0.07892028987407684, 0.4896405041217804, -0.06899464130401611, -0.11186669766902924, -0.07610410451889038, 0.16753554344177246, -0.34856629371643066, 0.14186319708824158, 1.0810626745224, 0.6037282943725586], [0.014530622400343418, 0.6670699119567871, 0.6151436567306519, 0.5783994793891907, 0.022807467728853226, -0.1573977917432785, -0.5294620394706726, 0.05596652999520302, 0.031191358342766762, -0.04094632342457771, 0.08233461529016495, -0.08920758217573166, -0.04670858383178711, -0.5801226496696472, -0.4970778524875641], [-0.08364810049533844, -0.6015360951423645, -0.17965064942836761, -0.22482562065124512, 0.03682471811771393, 0.32012587785720825, 0.29372403025627136, 0.1625424176454544, -0.18583333492279053, 0.0556466318666935, 0.4044077396392822, 0.24371501803398132, -0.10903610289096832, -0.1982864886522293, -0.24914038181304932], [0.07260572910308838, -0.635388195514679, -0.6518344879150391, 0.45363548398017883, -0.14111101627349854, 0.23743845522403717, 0.09982988983392715, 0.1607147753238678, 0.00023569684708490968, -0.17406055331230164, 0.3338751494884491, -0.013726362027227879, 0.19910235702991486, 0.18997594714164734, 0.31563618779182434], [0.4891246259212494, 1.155576467514038, 0.5260439515113831, 0.6054473519325256, -0.09932326525449753, 0.03733091428875923, -0.6475417017936707, 0.16854801774024963, -0.09983986616134644, -0.08425720781087875, 0.0741170272231102, -0.31301528215408325, -0.5480636954307556, -0.13976329565048218, -0.7923679947853088], [0.15563347935676575, 0.9958758354187012, 0.6191685199737549, 0.5896340608596802, 0.010908913798630238, 0.42945849895477295, 0.11806777864694595, -0.012427473440766335, -0.21679873764514923, 0.17410621047019958, -0.16951796412467957, -0.329913467168808, -0.0019511624705046415, 0.2158224731683731, 0.17266520857810974], [-0.4451847970485687, -0.41429731249809265, -0.47245532274246216, -0.1786479949951172, -0.20035803318023682, -0.08450524508953094, 0.07843299955129623, 0.35413506627082825, 0.1831599473953247, -0.11083336919546127, 0.09712003171443939, -0.20113244652748108, -0.05235936865210533, -0.05734629184007645, 0.19722279906272888], [0.003685767762362957, 0.5197036862373352, 0.29182252287864685, -0.2585609555244446, 0.12457913905382156, 0.11505681276321411, -0.1513471007347107, -0.27147987484931946, -0.13817569613456726, -0.03554915636777878, -0.03654363006353378, -0.1343437284231186, 0.10297243297100067, -0.3045458197593689, -0.09397166967391968], [-0.4401281774044037, -0.1922684907913208, -0.32164978981018066, -0.23034249246120453, -0.18305432796478271, -0.29321053624153137, 0.18530063331127167, 0.2846672534942627, 0.12087855488061905, 0.22762198746204376, -0.42126691341400146, -0.49409767985343933, 0.10977549850940704, 0.002657162956893444, -0.2351636439561844]], "_stack.Linear_0.bias": [0.06216471642255783, 0.49071523547172546, -0.29320842027664185, -0.34751880168914795, -0.03185313940048218, 0.21197114884853363, -0.04989368095993996, -0.18872272968292236, 0.059095349162817, 0.5271223187446594, 0.09192319959402084, -0.24436016380786896, -0.17547479271888733, 0.08323286473751068, 0.03606264293193817, 0.4800266623497009, 0.1058795154094696, 0.3190944492816925, -0.19150365889072418, 0.052847813814878464, -0.2857378423213959, 0.20097357034683228, -0.03656485676765442, -0.271554559469223, 0.3428209722042084, -0.14388923346996307, -0.19934780895709991, 0.3934212923049927, 0.18039549887180328, -0.07544004172086716, -0.06489838659763336, -0.3104173541069031, -0.384284645318985], "_stack.Linear_2.weight": [[-0.07142847031354904, -0.10496605932712555, -0.04425925388932228, 0.11817334592342377, -0.1851184368133545, 0.17147928476333618, 0.22280332446098328, -0.010299240238964558, 0.01116192527115345, 0.22076092660427094, -0.07540800422430038, -0.016598882153630257, 0.14456424117088318, 0.02909272536635399, -0.03756463900208473, 0.10665726661682129, 0.23990567028522491, -0.23250152170658112, 0.057045355439186096, -0.0705249235033989, -0.18383952975273132, 0.11687410622835159, -0.07351484149694443, -0.08300122618675232, -0.0875219777226448, -0.2274109423160553, 0.0796646848320961, 0.23422843217849731, 0.23356664180755615, 0.1391301155090332, 0.14951570332050323, -0.1185842975974083, 0.001496042124927044], [0.022057659924030304, 0.1685177981853485, 0.01686188206076622, -0.0929664596915245, 0.20360688865184784, -0.14470882713794708, 0.0077811614610254765, 0.034124474972486496, -0.15430106222629547, 0.02912861667573452, -0.03809904679656029, 0.06051430478692055, -0.023974614217877388, -0.14242689311504364, -0.2206653505563736, 0.1676109880208969, 0.09082913398742676, 0.13191455602645874, 0.03919825702905655, -0.021296005696058273, 0.2043248564004898, 0.10073325037956238, 0.40523821115493774, 0.11543140560388565, -0.10544978827238083, 0.11597921699285507, 0.14270296692848206, 0.01103229634463787, 0.1660192757844925, -0.04737268388271332, 0.004406155087053776, 0.19559159874916077, -0.28247982263565063], [-0.020110605284571648, -0.0724337249994278, 0.16343574225902557, 0.022923551499843597, -0.15677383542060852, -0.08041780441999435, 0.19321945309638977, 0.16358816623687744, 0.08809126913547516, 0.1301022619009018, -0.08964853733778, -0.14213652908802032, -0.026349110528826714, 0.06314505636692047, 0.1976332813501358, -0.0001045089156832546, 0.11625034362077713, -0.21872618794441223, -0.23684383928775787, -0.02234465628862381, -0.4548032879829407, 0.02535230852663517, 0.05561596155166626, -0.011234103702008724, -0.17078985273838043, 0.296866238117218, 0.15156477689743042, -0.009613566100597382, 0.19737331569194794, -0.17990224063396454, 0.03643021732568741, -0.0965319499373436, 0.16707561910152435], [0.1236787885427475, 0.001598118687979877, -0.0057665202766656876, -0.14393581449985504, -0.15226873755455017, 0.12017713487148285, 0.04205116629600525, -0.02176547423005104, -0.06293266266584396, -0.2859157919883728, -0.08140646666288376, 0.07921575754880905, 0.13426178693771362, -0.01802365854382515, -0.1049388200044632, 0.026324760168790817, 0.24385912716388702, 0.06268774718046188, -0.032225366681814194, -0.05606766790151596, 0.04737156629562378, -0.06249747797846794, 0.10273716598749161, 0.09245160967111588, -0.02376267872750759, 0.29084208607673645, 0.08237946778535843, -0.21054615080356598, 0.2475384920835495, 0.027151653543114662, 0.06712309271097183, -0.12868362665176392, -0.04664454609155655], [0.23463353514671326, 0.15679728984832764, 0.16852036118507385, 0.10319432616233826, 0.15017877519130707, -0.03090495429933071, -0.1859273463487625, 0.05981612205505371, 0.07322914898395538, 0.004975783638656139, 0.06959293782711029, -0.06339554488658905, -0.17469708621501923, -0.027434062212705612, -0.14606621861457825, 0.12461751699447632, -0.007469427306205034, 0.2614712119102478, 0.1256372481584549, 0.16613121330738068, 0.1707424521446228, -0.05822250247001648, 0.406398743391037, -0.014534003101289272, 0.015024598687887192, 0.11707993596792221, -0.14030401408672333, -0.10574351996183395, 0.11199678480625153, 0.187256321310997, 0.058125413954257965, -0.07136669754981995, 0.08715268969535828], [-0.038710422813892365, -0.24791225790977478, -0.14166110754013062, 0.013534327037632465, 0.025642884895205498, 0.06199697405099869, 0.10409920662641525, 0.04561915248632431, 0.11472347378730774, 0.16774296760559082, -0.041923314332962036, 0.2310078889131546, 0.01981121301651001, -0.047495413571596146, 0.022696439176797867, 0.08559367805719376, 0.16059191524982452, -0.15606741607189178, 0.024574048817157745, -0.11884290724992752, -0.18438410758972168, 0.006607209797948599, -0.14180973172187805, -0.04418954253196716, 0.04025060310959816, 0.006748131010681391, 0.1913342922925949, 0.06869228184223175, 0.21912606060504913, -0.004382299724966288, 0.19948045909404755, 0.048094846308231354, 0.010147255845367908], [-0.05786522477865219, 0.0253982525318861, 0.0050555323250591755, -0.09236935526132584, 0.14907345175743103, -0.09771393239498138, -0.057291798293590546, -0.20531737804412842, 0.1766955852508545, 0.14321443438529968, -0.09529530256986618, -0.1256435662508011, -0.08978496491909027, -0.049506865441799164, 0.020634276792407036, 0.0939386785030365, 0.02274082414805889, 0.061758991330862045, 0.15635961294174194, 0.09059476852416992, 0.32139965891838074, 0.10281407833099365, 0.3725396990776062, 0.016863606870174408, -0.06601466983556747, 0.09949464350938797, -0.020585978403687477, -0.01708000898361206, 0.17892253398895264, -0.0772855281829834, -0.13600055873394012, 0.17743095755577087, 0.07846087962388992], [-0.037038568407297134, 0.18610265851020813, 0.07681814581155777, -0.015226660296320915, -0.2536579966545105, 0.017916008830070496, -0.20399253070354462, 0.08227187395095825, 0.1964365392923355, -0.295658141374588, 0.0579458624124527, 0.16146229207515717, 0.2034125030040741, -0.027996130287647247, -0.10253501683473587, -0.05281606316566467, -0.03782754763960838, 0.025420458987355232, 0.09272870421409607, 0.062342569231987, -0.05268130823969841, -0.2795982360839844, 0.16952456533908844, -0.05845864489674568, -0.10970072448253632, 0.19354569911956787, -0.10478828847408295, -0.029618781059980392, 0.17010784149169922, 0.09469857811927795, -0.12817725539207458, 0.2089913934469223, -0.10482056438922882], [0.29741349816322327, -0.10364636033773422, -0.01371061708778143, -0.07015886902809143, -0.1918853521347046, -0.046106573194265366, 0.06691858172416687, 0.18633180856704712, -0.28124144673347473, -0.05446498841047287, 0.06555153429508209, 0.02987608313560486, -0.055334534496068954, -0.1250346601009369, 0.1204669252038002, -0.09892717003822327, 0.005893078166991472, 0.12104247510433197, -0.07054953277111053, -0.04247543588280678, -0.20931868255138397, 0.04962911084294319, -0.20406964421272278, -0.10742854326963425, 0.05799229443073273, 0.02306799776852131, 0.12368069589138031, 0.13584138453006744, -0.0443914569914341, 0.16742615401744843, 0.11292576044797897, 0.1437372863292694, -0.1438286453485489], [-0.030419019982218742, 0.13231892883777618, -0.06944698095321655, 0.22360950708389282, -0.1977938860654831, 0.018634527921676636, -0.3320474922657013, -0.22725117206573486, 0.1292584091424942, 0.0908007025718689, -0.7888082265853882, 0.10108152031898499, 0.1090436801314354, 0.2495141625404358, 0.0747152715921402, 0.037523217499256134, 0.11797960847616196, -0.003250312991440296, -0.3095138669013977, -0.193598672747612, -0.5026507377624512, 0.1606796532869339, 0.07164107263088226, 0.15763361752033234, 0.1064763069152832, -0.0604742057621479, 0.6594667434692383, -0.039845675230026245, 0.024251284077763557, -0.09537418186664581, 0.30252376198768616, -0.30473434925079346, -0.1085595190525055], [0.10377073287963867, 0.12838219106197357, 0.0344022773206234, -0.16989648342132568, 0.02043006755411625, -0.0860012024641037, 0.08160561323165894, -0.05615060031414032, 0.022069381549954414, 0.09247550368309021, 0.13224342465400696, -0.027751915156841278, 0.10252244025468826, -0.1479565054178238, -0.18709653615951538, 0.16987344622612, 0.14025351405143738, 0.14122600853443146, 0.18213817477226257, 0.15652118623256683, 0.1775311678647995, -0.06427179276943207, 0.24242118000984192, 0.025707613676786423, -0.058224886655807495, 0.18310151994228363, -0.1316576898097992, 0.020461201667785645, -0.13265052437782288, 0.2404499053955078, -0.002725006313994527, 0.16747908294200897, -0.00033196614822372794], [-0.022811807692050934, 0.17384661734104156, -0.0037105102092027664, -0.11797717958688736, 0.09233803302049637, 0.027909941971302032, -0.13031555712223053, -0.2163817584514618, 0.03310766443610191, -0.05688871070742607, 0.14083710312843323, -0.138023242354393, -0.18039895594120026, 0.04628982022404671, -0.12808558344841003, 0.19353634119033813, -0.03452097252011299, 0.051406994462013245, 0.19893816113471985, -0.05160273239016533, -0.044667113572359085, -0.3655163645744324, 0.06006302684545517, 0.16503265500068665, 0.04623618721961975, 0.14609438180923462, -0.15011683106422424, -0.14067856967449188, 0.14123675227165222, 0.21646852791309357, -0.10890066623687744, 0.12133918702602386, 0.03981044888496399], [-0.07618191838264465, 0.13513131439685822, 0.09674078226089478, -0.07073945552110672, 0.1057652160525322, -0.11351341009140015, 0.08825676888227463, 0.011691618710756302, 0.13258790969848633, -0.0050649153999984264, 0.16503259539604187, 0.15206487476825714, 0.09551139175891876, -0.17696502804756165, 0.09823574870824814, 0.07409410923719406, -0.04480252042412758, 0.021462390199303627, 0.16150523722171783, 0.01665528118610382, 0.30720046162605286, 0.021730758249759674, 0.3956759572029114, -0.10482025891542435, -0.08972293138504028, 0.285641610622406, -0.06239572539925575, 0.07011742144823074, -0.1358434408903122, 0.16444861888885498, 0.13345210254192352, 0.20029529929161072, -0.1301184743642807], [-0.19648206233978271, -0.031113678589463234, -0.07055302709341049, 0.20392997562885284, 0.03528086096048355, 0.11367297917604446, 0.08877188712358475, 0.014107812196016312, -0.22665128111839294, 0.09720411896705627, -0.08897166699171066, 0.19238801300525665, -0.07976243644952774, 0.07978492975234985, -0.02073838748037815, 0.08764822781085968, 0.008766948245465755, -0.16442300379276276, 0.08679859340190887, 0.1394033282995224, -0.3335765600204468, 0.04509742930531502, -0.26099804043769836, 0.06100868433713913, 0.1437366008758545, 0.12788982689380646, -0.19314293563365936, -0.13100162148475647, 0.06788945943117142, -0.1199471652507782, -0.008620238862931728, 0.016610056161880493, 0.2087136059999466], [-0.10929322242736816, -0.1432216465473175, 0.1327332705259323, 0.08304043859243393, 0.14841802418231964, 0.06646529585123062, -0.18927551805973053, -0.10040038824081421, 0.17123517394065857, 0.13939693570137024, -0.09882141649723053, 0.022210242226719856, -0.15602365136146545, 0.03935359790921211, -0.33016374707221985, -0.023431474342942238, 0.17647117376327515, 0.06102636829018593, -0.05939263105392456, -0.10179701447486877, 0.09723710268735886, 0.0998697504401207, 0.046202775090932846, -0.1825060099363327, -0.02436242438852787, -0.24183128774166107, 0.13100993633270264, 0.015258785337209702, -0.033008743077516556, -0.11371991783380508, -0.2502029240131378, -0.069976806640625, -0.11525886505842209], [-0.10093016177415848, -0.20321328938007355, 0.013947660103440285, 0.08169076591730118, -0.12520916759967804, -0.005798436235636473, 0.07572626322507858, 0.16424128413200378, -0.06239203363656998, 0.03418172150850296, 0.09447868913412094, -0.09880515933036804, 0.2108110636472702, -0.004194429609924555, 0.12226995825767517, 0.06063569709658623, 0.20504282414913177, -0.0012656277976930141, -0.10013531148433685, -0.02463732659816742, -0.07246244698762894, 0.0662396177649498, -0.12496598809957504, 0.019698671996593475, -0.08992314338684082, -0.10915318876504898, -0.0670376718044281, 0.18572957813739777, 0.07945219427347183, -0.10050355643033981, -0.11999546736478806, -0.06426165252923965, 0.23594777286052704], [0.05461226403713226, 0.005678416229784489, 0.027802249416708946, -0.026548117399215698, 0.12024183571338654, 0.11129105091094971, 0.06100017949938774, -0.19146952033042908, 0.015317284502089024, -0.007439242210239172, 0.12972025573253632, -0.0016728454502299428, 0.10351118445396423, -0.11163543164730072, -0.08208612352609634, 0.22807346284389496, -0.1609317660331726, 0.29305022954940796, 0.1509629338979721, 0.06245846673846245, 0.18099439144134521, -0.18508316576480865, 0.06112915650010109, -0.12880884110927582, -0.1460663080215454, 0.18788282573223114, 0.1028427928686142, -0.06132609769701958, -0.02066609263420105, -0.1759265512228012, -0.17860229313373566, 0.050478965044021606, 0.11016200482845306], [0.04193161427974701, 0.2669028341770172, -0.17298801243305206, -0.1977718323469162, 0.04791984334588051, 0.1327325999736786, 0.07256006449460983, 0.21888284385204315, 0.23884838819503784, 0.044210657477378845, 0.09948816150426865, -0.3581402897834778, -0.13221289217472076, 0.21285952627658844, 0.2648569941520691, 0.007335874252021313, 0.25596874952316284, 0.01744363084435463, -0.07706743478775024, -0.04499093070626259, -0.3555527329444885, 0.01373578142374754, -0.03517508879303932, -0.14659976959228516, 0.025713039562106133, -0.00988726131618023, -0.128887340426445, 0.09902804344892502, -0.08708808571100235, 0.019701963290572166, -0.0676678940653801, -0.025001347064971924, -0.5088977217674255], [-0.2399846613407135, -0.31020548939704895, 0.12329104542732239, 0.12652143836021423, 0.021229103207588196, -0.05849231034517288, -0.04028737172484398, 0.30529654026031494, -0.015906138345599174, 0.00899419840425253, 0.029655545949935913, 0.20028845965862274, 0.26090672612190247, 0.1885257363319397, -0.1928659826517105, 0.11397703737020493, 0.06830833852291107, -0.13042736053466797, -0.13922558724880219, -0.007063621189445257, -0.23963366448879242, -0.17201893031597137, -0.13662664592266083, -0.06656573712825775, 0.02854248508810997, 0.13799072802066803, -0.014483839273452759, 0.058705225586891174, -0.15145957469940186, -0.3663550615310669, 0.19894586503505707, -0.12178120017051697, 0.2887353301048279]], "_stack.Linear_2.bias": [0.15593378245830536, -0.003333906177431345, 0.03162021189928055, -0.17094817757606506, -0.042949505150318146, 0.20150640606880188, -0.12291542440652847, -0.037243932485580444, -0.0038613546639680862, -0.11154241859912872, -0.10433109849691391, -0.07042030990123749, -0.15696178376674652, 0.028410958126187325, 0.02984391711652279, 0.24660775065422058, 0.03200836107134819, 0.16142874956130981, -0.1274801790714264], "_stack.Linear_4.weight": [[-0.10539425164461136, 0.2866366505622864, -0.4540022313594818, 0.05953989177942276, 0.18267224729061127, -0.29864609241485596, 0.2842058837413788, 0.4313986897468567, -0.28027111291885376, -0.37901049852371216, -0.0211071465164423, 0.25211501121520996, 0.28634336590766907, -0.011475306004285812, 0.1774519383907318, 0.0644458755850792, 0.13804252445697784, -0.33274203538894653, -0.3675139546394348], [-0.0588715597987175, 0.16876685619354248, -0.6330044865608215, 0.08066503703594208, 0.2876874804496765, 0.10029464960098267, 0.2468399703502655, 0.4142177999019623, -0.43866318464279175, -0.2552497386932373, 0.1338803917169571, 0.40153768658638, -0.0312240831553936, -0.18543870747089386, 0.20589283108711243, -0.016873138025403023, -0.10263396799564362, -0.3119737505912781, -0.4919697940349579], [-0.19584031403064728, 0.19842301309108734, -0.43060603737831116, 0.13745605945587158, 0.2890608608722687, -0.2006506323814392, 0.31009039282798767, 0.19367662072181702, -0.1608460396528244, -0.22559460997581482, 0.001314874622039497, 0.315429151058197, 0.29708728194236755, -0.106580950319767, 0.3056012988090515, 0.046818461269140244, -0.051677681505680084, -0.2863382399082184, -0.47700366377830505], [-0.051928624510765076, -0.008400573395192623, -0.636519193649292, 0.3052864372730255, 0.21420717239379883, -0.20327681303024292, 0.27046123147010803, 0.16403760015964508, -0.19728147983551025, -0.21491241455078125, -0.03323811665177345, 0.31560125946998596, 0.17509962618350983, 0.1776425540447235, 0.037409212440252304, -0.1460772305727005, 0.15581242740154266, -0.21268342435359955, -0.3643665313720703], [-0.1861761510372162, 0.3701716661453247, -0.6320601105690002, 0.321327269077301, 0.016100678592920303, 0.1195862665772438, 0.003245603758841753, 0.3874739110469818, -0.1559181660413742, -0.016526347026228905, 0.29814329743385315, 0.2666347324848175, 0.2583051323890686, -0.18918117880821228, 0.3912907540798187, -0.2739454209804535, 0.15534284710884094, -0.26593393087387085, -0.6258909106254578]], "_stack.Linear_4.bias": [0.021818511188030243, -0.031726181507110596, -0.0835842564702034, -0.03624945506453514, 0.1368120014667511], "_stack.Linear_6.weight": [[-0.5133573412895203, -0.7095563411712646, -0.35465914011001587, -0.5042113065719604, -0.6484906673431396]], "_stack.Linear_6.bias": [5.110725402832031]}