{"metadata": {"version": 1, "features": ["TrackGhostProb", "TrackChi2PerDoF", "RichDLLbt", "RichDLLp", "RichDLLk", "RichDLLe", "RichDLLmu", "BremPIDe"]}, "_stack.Linear_0.weight": [[1.0907055139541626, -0.10278095304965973, -0.10936152935028076, 0.2741474509239197, 0.09847701340913773, -0.10072757303714752, -0.3181363642215729, -0.05222121998667717], [-1.644491195678711, 0.4232543110847473, -0.3625853955745697, 0.031038939952850342, -0.276324063539505, 0.1043960452079773, -0.2722427248954773, 0.10672671347856522], [-4.289127349853516, 0.0828292965888977, 0.022126389667391777, -0.025800291448831558, 0.006193730514496565, -0.05001881346106529, 0.013577265664935112, -0.03406267613172531], [1.5171220302581787, 0.24637047946453094, 0.14314888417720795, -0.14510208368301392, 0.04807014390826225, -0.015481142327189445, 0.0010820123134180903, 0.018178096041083336], [1.1360336542129517, -0.1351461261510849, -0.07344435900449753, -0.13136495649814606, 0.20317283272743225, -0.44932204484939575, -0.28258493542671204, 0.20709674060344696], [-3.136855363845825, 0.26129505038261414, -0.03454417362809181, -0.2663925290107727, 0.05854586884379387, -0.017305059358477592, 0.1923801600933075, 0.1036142110824585], [-1.9192390441894531, 0.39998140931129456, 0.2198866754770279, 0.022049617022275925, 0.03937850147485733, -0.16424784064292908, 0.058628104627132416, -0.05843581631779671], [0.9356041550636292, -0.7356641888618469, -0.14893734455108643, -0.17113080620765686, 0.07434546202421188, 0.025590596720576286, -0.08307179808616638, -0.022585170343518257], [1.3943471908569336, -0.44976305961608887, -0.23508204519748688, 0.23938846588134766, -0.13569292426109314, -0.09438429772853851, 0.40797194838523865, -0.17333267629146576], [-1.618027687072754, 0.39203208684921265, -0.08252530544996262, 0.32901445031166077, 0.1487298458814621, 0.3554559648036957, 0.253158301115036, -0.17381638288497925], [0.5577290654182434, -0.5896388292312622, 0.07914161682128906, 0.11116737127304077, 0.22329285740852356, 0.0509413443505764, 0.23673707246780396, -0.018328974023461342], [-2.817863941192627, 0.19034051895141602, 0.0462525375187397, -0.0699232816696167, 0.3219490349292755, 0.07531911879777908, -0.4355606436729431, 0.054436877369880676], [-2.411937952041626, -0.24945320188999176, 0.22704225778579712, 0.03982111066579819, -0.266513854265213, -0.05527337267994881, -0.13841144740581512, 0.006567791104316711], [-0.015635931864380836, 0.004551252815872431, 0.11675304919481277, -0.26501333713531494, -0.21634738147258759, 0.5542550086975098, -0.08616574108600616, 1.1155956983566284], [-2.1275367736816406, -0.09632183611392975, -0.2625325620174408, 0.30446112155914307, -0.04875841736793518, -0.1874769926071167, 0.10424749553203583, -0.4836730360984802], [-1.645410180091858, -0.1937786191701889, 0.1046857014298439, -0.22033479809761047, 0.190188929438591, -0.6573765873908997, -0.04205187410116196, -0.15429534018039703], [-2.6453778743743896, -0.09979879856109619, 0.0774526596069336, 0.1819813996553421, -0.12586838006973267, -0.003299692878499627, -0.23584097623825073, 0.056468140333890915], [-0.285641074180603, 0.20124097168445587, 0.22672386467456818, 0.13406744599342346, 0.022817786782979965, 0.6789383888244629, -0.5688889622688293, 0.2829382121562958], [0.1672084629535675, -0.7223128080368042, -0.04773959517478943, 0.05054231733083725, -0.006630737334489822, 0.6759865880012512, -0.058973509818315506, 0.42330604791641235]], "_stack.Linear_0.bias": [0.6252412796020508, 0.33930060267448425, 0.4201810956001282, 0.19706302881240845, 0.09014085680246353, 0.25498107075691223, 0.13224495947360992, 0.9776182770729065, 0.6348671317100525, 0.5709326267242432, 0.8015625476837158, 0.6791961789131165, 0.2186623513698578, -0.0073424349538981915, -0.012466154992580414, -0.31511348485946655, 0.4025959074497223, -0.35673069953918457, -0.7092170715332031], "_stack.Linear_2.weight": [[0.2805056571960449, -0.32784608006477356, -1.669724941253662, 0.5057888627052307, 0.40678584575653076, -0.712135374546051, -0.28439465165138245, 0.5462431311607361, 0.579455554485321, -0.2832053303718567, 0.3480841815471649, -0.525097131729126, -0.4212838411331177, 0.3191012740135193, -0.551673173904419, -0.6279349327087402, -0.5141792893409729, 0.4445432722568512, -0.7815347909927368]], "_stack.Linear_2.bias": [-0.06333859264850616]}