{"metadata": {"version": 1, "features": ["TrackChi2PerDoF", "TrackGhostProb", "InEcal", "ElectronShowerEoP", "ElectronShowerDLL", "ElectronHypoEoP", "HcalPIDe", "BremPIDe", "RichDLLe", "RichDLLmu", "RichDLLk", "RichDLLp", "usedRich1Gas", "usedRich2Gas", "InMuon", "LogMuonChi2"]}, "_stack.Linear_0.weight": [[-0.05997346714138985, -0.19243651628494263, 1.1986427307128906, 0.030329888686537743, -0.11962518095970154, 0.22820031642913818, 0.002859528874978423, 0.31650277972221375, 0.22928376495838165, -0.42269185185432434, 0.41313961148262024, -0.03350723162293434, 0.651004433631897, 0.1741875261068344, 0.3030935227870941, 0.058934420347213745], [0.25543996691703796, 0.9826692342758179, 0.4885946810245514, 0.26783090829849243, -0.034035686403512955, 0.22510062158107758, -0.40194836258888245, -0.4399760365486145, -0.01854020357131958, -0.04952114820480347, -0.029731960967183113, -0.005330987274646759, -0.5233489274978638, -0.5377777814865112, 0.10760296881198883, -0.02076769433915615], [-0.32409533858299255, -0.1366669088602066, 0.28906169533729553, -0.14004214107990265, 0.14985203742980957, -0.03473656624555588, -0.3919230103492737, 0.042502544820308685, -0.6193965673446655, 0.3740234076976776, -0.15677103400230408, 0.13943246006965637, -0.6531484723091125, 0.207083597779274, 0.20120403170585632, 0.005899643525481224], [0.2543223798274994, 0.19728389382362366, -0.5115988254547119, 0.14255937933921814, 0.4025067687034607, 0.22746823728084564, 0.20804114639759064, 0.46631693840026855, 0.14582706987857819, -0.12974965572357178, -0.03065490908920765, 0.01899832859635353, 0.3441491425037384, 0.0876082330942154, 0.4006340801715851, 0.293693870306015], [-0.24031579494476318, -0.7721595764160156, -0.5723663568496704, -0.047670453786849976, 0.0018181755440309644, 0.3887683153152466, 0.2518303692340851, -0.49572449922561646, 0.28146469593048096, 0.0266957338899374, -0.05682088062167168, -0.024621203541755676, -0.1633491963148117, 0.012301885522902012, 0.08795060962438583, 0.1575973629951477], [0.17106275260448456, 0.03174680471420288, 1.1883864402770996, -0.7553419470787048, -0.11864738166332245, -0.6278777718544006, 0.17213734984397888, -0.5224699974060059, -0.006226892117410898, 0.024045133963227272, -0.17776831984519958, 0.11839521676301956, -0.29749974608421326, 0.08395810425281525, 0.013923204503953457, 0.1339513510465622], [-0.0043351780623197556, 0.07403388619422913, 0.16817475855350494, -0.1726996749639511, -0.24458977580070496, -1.2887191772460938, -0.5770787000656128, -0.5086642503738403, -0.38920289278030396, -0.13731640577316284, -0.002787732519209385, -0.08351200073957443, -0.1479167938232422, 0.11206788569688797, -0.2394869476556778, -0.16509957611560822], [0.015015719458460808, 0.3033978044986725, 0.6187903881072998, 0.020672399550676346, 0.0048670293763279915, 0.2146245837211609, 0.009871968068182468, 0.06735411286354065, -0.1073264554142952, 0.2326202094554901, -0.039895810186862946, 0.2934705913066864, -0.036704253405332565, 0.18390938639640808, 0.40366578102111816, 0.03279491886496544], [-0.5057491064071655, 0.02201251871883869, 0.12358267605304718, 0.44851139187812805, -0.15381354093551636, 0.16393516957759857, -0.09919776022434235, -0.31587812304496765, -0.9936074018478394, -0.40688151121139526, -0.12338508665561676, 0.1267692893743515, 0.12276768684387207, -0.12771302461624146, 0.046581901609897614, 0.11117085814476013], [0.02583821304142475, -0.38441401720046997, -0.768720805644989, -0.3514178395271301, 0.2506844997406006, 0.43964362144470215, 0.7749209403991699, 0.19390274584293365, 0.42254191637039185, -0.2065332531929016, 0.044598888605833054, -0.15829341113567352, 0.14225059747695923, -0.006994296330958605, 0.07924911379814148, 0.042856667190790176], [-0.32714349031448364, 0.7311276197433472, 0.5805180668830872, 0.2780112028121948, -0.20570994913578033, 0.2631847858428955, -0.14814652502536774, -0.33122894167900085, -0.42443108558654785, 0.15281350910663605, 0.06946125626564026, -0.18058748543262482, -0.7583882212638855, 0.04115527868270874, 0.30035167932510376, -0.17458467185497284], [0.21857750415802002, -0.1822766661643982, 1.1196190118789673, 0.09436319768428802, -0.241363987326622, -0.08122842013835907, 0.1156167984008789, -0.18295037746429443, -0.6183081865310669, -0.3607344627380371, 0.09657593071460724, -0.07264011353254318, 0.18959388136863708, 0.35293686389923096, 0.12486261874437332, 0.33730071783065796], [0.3282756209373474, 0.47793224453926086, -0.1665736734867096, 0.3977543115615845, -0.39276278018951416, 0.5454649925231934, -0.2712300717830658, -0.0249182041734457, 0.14673331379890442, -0.00827364157885313, -0.10972825437784195, 0.09387636184692383, 0.10146640241146088, 0.003335881046950817, 0.4429546892642975, 0.347106397151947], [-0.0861242488026619, 0.05339135229587555, 0.48546433448791504, -0.369712769985199, 0.1268872767686844, 0.4217216968536377, 0.1730521023273468, -0.1287785917520523, -0.26696357131004333, -0.2831096351146698, 0.04478516802191734, 0.08548391610383987, -0.4946283996105194, -0.5534891486167908, 0.5307105183601379, -0.013015038333833218], [0.1978282481431961, 0.641680121421814, 0.3008561432361603, 1.1104764938354492, 0.3162200152873993, 0.3845386207103729, 0.1359226107597351, 0.4522700607776642, 0.02915855310857296, -0.08245719224214554, 0.06680241227149963, 0.04567170888185501, 0.6693637371063232, 0.005845851264894009, -0.5671160817146301, -0.17632734775543213], [0.3290003836154938, 0.48269397020339966, -0.5683950185775757, -0.03272812440991402, -0.37327390909194946, -0.2048962563276291, 0.14356622099876404, 0.10316073149442673, 0.1547914445400238, 0.23143531382083893, -0.14697207510471344, 0.14520713686943054, -0.2672255039215088, -0.25059646368026733, 0.036133840680122375, 0.42433416843414307], [-0.27607735991477966, -0.3479078412055969, 0.5696872472763062, 0.15614143013954163, -0.22125275433063507, 0.18190103769302368, 0.06445128470659256, 0.06704737991094589, -0.7338900566101074, 0.21296118199825287, -0.02504749968647957, 0.07387109100818634, -0.09144794195890427, -0.3093692362308502, -0.1564350426197052, 0.26101768016815186], [0.22197727859020233, 0.33262914419174194, 1.2629982233047485, -0.7608128786087036, -0.10225769132375717, -0.8764408826828003, -0.33847054839134216, -0.3185109496116638, -0.021964674815535545, -0.12065166980028152, 0.061860550194978714, -0.1577945351600647, 0.1414910852909088, 0.2722342908382416, -0.04870675131678581, 0.17233969271183014], [0.24407260119915009, -0.2477685660123825, 0.9003777503967285, -1.317411184310913, -0.49130111932754517, -0.17538313567638397, 0.3245408833026886, 0.1863149106502533, 0.3411884903907776, 0.007699883542954922, 0.17907583713531494, 0.25965970754623413, -0.5075860023498535, 0.5305644869804382, 0.6953181028366089, 0.11325892806053162], [-0.3101038932800293, -0.7051729559898376, 0.17688147723674774, -0.7263100147247314, -0.41819727420806885, -0.03188313916325569, 0.3309493362903595, 0.15562915802001953, -0.39021992683410645, 0.23298774659633636, 0.30948296189308167, 0.13423839211463928, -0.38320493698120117, 0.25141167640686035, -0.4318213164806366, -0.100223608314991], [0.17778347432613373, 0.3308914005756378, 0.9512163996696472, 1.3859012126922607, 0.19639751315116882, 0.2328849732875824, 0.524857759475708, 0.5583162903785706, 0.1871444135904312, -0.014494181610643864, -0.21305158734321594, 0.182864248752594, 0.2502134144306183, -0.0700037032365799, -0.34850239753723145, -0.16313983500003815], [0.09803774952888489, 0.30706870555877686, 0.30882519483566284, 0.1051587238907814, 0.13056927919387817, 0.41442573070526123, -0.42606407403945923, -0.5053151249885559, 0.20639321208000183, 0.09306708723306656, 0.05924423784017563, -0.2116568684577942, 0.36737364530563354, -0.21861134469509125, 0.5272464752197266, 0.21766912937164307], [0.2164616882801056, 0.1708499938249588, -0.6172741055488586, 0.3430856466293335, 0.2566611170768738, 0.07481537014245987, -0.41028836369514465, -0.04965884983539581, 0.21861512959003448, -0.07630391418933868, 0.32988324761390686, 0.08086013048887253, 0.10289183259010315, 0.07765138149261475, 0.05226036533713341, 0.3502946197986603], [0.20955035090446472, -0.5496301054954529, -0.7891974449157715, -0.23299506306648254, 0.14187514781951904, 0.47036460041999817, 0.14473584294319153, -0.058360956609249115, 0.7893544435501099, 0.08500151336193085, -0.047331079840660095, -0.17865237593650818, -0.23810821771621704, 0.22215402126312256, 0.47949716448783875, 0.03933142125606537], [-0.285112589597702, 0.6393461227416992, 0.4236195683479309, 0.18188001215457916, -0.015818582847714424, -0.04016625136137009, 0.2682057321071625, -0.014587819576263428, -0.4962461590766907, -0.3698360323905945, -0.08022145926952362, -0.03541754558682442, -0.49543407559394836, 0.5288612842559814, -0.053470976650714874, -0.17251570522785187], [-0.32543909549713135, -1.1193441152572632, -0.01270370464771986, 0.442937433719635, -0.06911321729421616, 0.06939246505498886, 0.8818750977516174, 0.025007521733641624, 0.5850620865821838, 0.05658841133117676, 0.0347948782145977, 0.10885520279407501, 0.24458806216716766, 0.49984627962112427, 0.13099579513072968, -0.10985887050628662], [-0.028895821422338486, 0.004397098906338215, -0.1323925405740738, 0.23565673828125, 0.02812071144580841, -0.24335403740406036, 0.6327980160713196, 0.6215731501579285, -0.07717368006706238, -0.1418124884366989, -0.1013089120388031, 0.15163379907608032, 0.03512657806277275, 0.18703386187553406, -0.7260841727256775, 0.2639147639274597], [0.2099076211452484, 0.6321541666984558, 0.97797691822052, -0.06898010522127151, -0.16587714850902557, 0.04086196422576904, -0.016307292506098747, 0.06948976963758469, -0.22615855932235718, -0.0004379468155093491, -0.11771649122238159, 0.020592521876096725, -0.13033469021320343, 0.23658233880996704, 0.6342593431472778, -0.2754429578781128], [0.16643288731575012, -0.11952710896730423, 0.9479532241821289, -0.685947060585022, -0.18622736632823944, -0.3435001075267792, 0.11328113824129105, 0.25086456537246704, -0.3022007346153259, 0.03373011574149132, -0.1206856518983841, 0.12100721895694733, -0.2119765728712082, 0.10143111646175385, 0.15400905907154083, -0.1793150007724762], [-0.07686376571655273, -0.1008669063448906, -0.4469548165798187, 0.36702629923820496, -0.08908111602067947, 0.15196938812732697, 0.27473390102386475, 0.31667402386665344, 0.3038822412490845, -0.09445060789585114, 0.06564002484083176, 0.310967355966568, 0.3863973915576935, 0.31708723306655884, -0.1576693207025528, 0.24072974920272827], [0.37460562586784363, -0.1821896880865097, -0.37893247604370117, 0.3119317293167114, 0.259782075881958, 0.5545924305915833, 0.09369087964296341, 0.3132064938545227, 0.581458568572998, 0.030542276799678802, 0.08072738349437714, -0.06926048547029495, 0.5054786205291748, 0.08366592228412628, 0.31490710377693176, 0.4362725019454956], [0.13680586218833923, 0.11520878225564957, 1.0281578302383423, -0.10132396221160889, 0.05789565667510033, -1.6184524297714233, -0.07875842601060867, -0.08746161311864853, 0.05263596028089523, 0.13105297088623047, 0.03698302060365677, -0.05672643706202507, 0.5256167054176331, 0.39456531405448914, 0.08121324330568314, -0.15661583840847015]], "_stack.Linear_0.bias": [-0.22243933379650116, 0.12729132175445557, 0.5538496375083923, -0.18105068802833557, -0.5738518238067627, 0.596407949924469, 0.6798268556594849, -0.08566512167453766, 0.4830529987812042, -0.3524153232574463, 0.8366941809654236, 0.5748704671859741, -0.39539891481399536, 0.16397877037525177, 0.3420146405696869, -0.045272745192050934, 0.06734875589609146, 0.844413161277771, 0.3613892197608948, -0.12433556467294693, -0.9162809252738953, 0.1411692202091217, 0.35004329681396484, -0.5593681931495667, 0.4001435935497284, 0.045961104333400726, 0.33431512117385864, 0.6144230961799622, 0.5367327928543091, 0.3228479027748108, -0.03242017701268196, 0.39033180475234985], "_stack.Linear_2.weight": [[-0.37855613231658936, 0.11155258119106293, 0.08285468071699142, 0.2451002448797226, 0.19817139208316803, 0.022881578654050827, 0.09056888520717621, 0.046463608741760254, -0.22692221403121948, 0.16830801963806152, 0.0025934225413948298, -0.09778600186109543, 0.09310703724622726, -0.5587174892425537, -0.23371011018753052, 0.18262100219726562, -0.4853297472000122, -0.08351901173591614, 0.37574076652526855, 0.17257440090179443, -0.00678085396066308, 0.1512976586818695, 0.0959116518497467, 0.21758991479873657, 0.017782339826226234, 0.20291322469711304, -0.4033489525318146, -0.028689851984381676, 0.04098866879940033, -0.09781059622764587, 0.12614360451698303, -0.29479533433914185], [0.03842218965291977, 0.11951425671577454, 0.0364665761590004, 0.26541823148727417, -0.05777408927679062, 0.004393754526972771, 0.012760385870933533, 0.07770195603370667, 0.14213772118091583, 0.15509678423404694, -0.0788823589682579, 0.11966042965650558, -0.09067150950431824, -0.13642220199108124, 0.5231162309646606, 0.13356134295463562, -0.24829351902008057, -0.18387483060359955, -0.2898067831993103, -0.21130257844924927, 0.0889740139245987, 0.05219672620296478, 0.12854796648025513, 0.23164699971675873, -0.03802742063999176, -0.05318687856197357, 0.1546606719493866, -0.24046793580055237, 0.07978806644678116, 0.10780977457761765, 0.1973738968372345, -0.30105865001678467], [-0.04592403396964073, 0.27766215801239014, -0.11544177681207657, 0.06682050973176956, -0.026910830289125443, -0.3978543281555176, -0.17460334300994873, 0.16562753915786743, 0.13154004514217377, -0.08147146552801132, 0.07714922726154327, -0.2671976387500763, 0.18798619508743286, 0.1313314139842987, 0.18751201033592224, -0.3263816833496094, 0.2068154513835907, -0.5256350636482239, -0.3848652243614197, 0.1358780562877655, 0.10722575336694717, 0.18687140941619873, -0.02217499352991581, 0.06350760161876678, 0.2971077561378479, 0.16648569703102112, -0.2038864940404892, 0.06632976233959198, -0.05061206594109535, 0.07948513329029083, 0.09730995446443558, -1.1977452039718628], [0.02797408401966095, -0.016506480053067207, 0.44954678416252136, 0.17940732836723328, 0.08295650035142899, -0.13679930567741394, -0.1855897307395935, 0.04686162620782852, -0.10442235320806503, 0.13720177114009857, 0.14173655211925507, -0.15125751495361328, -0.2263520061969757, -0.036413323134183884, 0.06882566213607788, -0.167771115899086, -0.5557786822319031, -0.048299919813871384, 0.26450252532958984, -0.30380430817604065, -0.15402895212173462, -0.09353406727313995, -0.054264262318611145, 0.1461304873228073, 0.013435037806630135, 0.211503803730011, 0.014260162599384785, -0.1622990220785141, -0.27173206210136414, 0.1431993693113327, 0.16069439053535461, -0.2752114534378052], [-0.1734633594751358, -0.08032737672328949, -0.16571001708507538, 0.1791927069425583, 0.20607508718967438, -0.09685021638870239, -0.226470947265625, -0.15962062776088715, 0.14819671213626862, 0.1810702085494995, -0.06609050929546356, 0.005436422303318977, 0.22015602886676788, -0.12173065543174744, 0.3322300910949707, 0.10488814115524292, -0.37088337540626526, 0.07413773238658905, 0.04612422734498978, -0.13863565027713776, 0.13840530812740326, 0.01294501218944788, 0.2772744297981262, 0.11911610513925552, -0.00909254141151905, 0.1940363049507141, 0.14235234260559082, -0.1850896030664444, -0.13313066959381104, 0.1561342179775238, 0.2923164963722229, -0.4791208505630493], [-0.16650360822677612, 0.0008741020574234426, 0.07206389307975769, 0.20561456680297852, 0.1264398992061615, -0.13846299052238464, -0.16171815991401672, -0.25653573870658875, -0.04489898681640625, 0.10671649128198624, -0.23319704830646515, -0.02070218324661255, 0.21254102885723114, -0.3581962287425995, 0.4680907130241394, -0.048957884311676025, -0.13419391214847565, 0.04024432227015495, -0.22349998354911804, 0.21896567940711975, 0.24153181910514832, 0.08343098312616348, -0.07398293912410736, 0.12531249225139618, -0.06259818375110626, 0.4277932345867157, 0.10648360848426819, -0.15325117111206055, -0.16150027513504028, 0.10392549633979797, 0.28327566385269165, -0.18503525853157043], [0.1839909851551056, 0.02822687104344368, 0.1656021773815155, 0.1580527424812317, 0.11432997137308121, -0.06702501326799393, -0.19774597883224487, 0.12224239110946655, -0.0995500385761261, 0.26574862003326416, -0.11755547672510147, -0.13050010800361633, -0.21132856607437134, 0.04781103879213333, 0.2398449331521988, -0.00885543879121542, -0.08518703281879425, -0.47951540350914, -0.17240306735038757, -0.45877569913864136, -0.10531017929315567, -0.20928016304969788, -0.1557169109582901, 0.13382872939109802, 0.14933069050312042, 0.33330288529396057, 0.19551728665828705, 0.2142551690340042, 0.003136916784569621, 0.04653475806117058, -0.08011908084154129, -0.735033392906189], [-0.009937913157045841, -0.2998327612876892, 0.09317038208246231, -0.2628525495529175, 0.23020952939987183, 0.08312220871448517, 0.21911850571632385, -0.18732163310050964, 0.012248113751411438, -0.07610572129487991, -0.3046478033065796, -0.13017012178897858, -0.0830107033252716, 0.2977806627750397, 0.4645965099334717, 0.1257910430431366, 0.43576696515083313, 0.07097956538200378, -0.08986907452344894, -0.12977878749370575, -0.07290411740541458, 0.020670559257268906, 0.16545772552490234, 0.1620822548866272, -0.2983039617538452, -0.3261702060699463, 0.21531793475151062, -0.27148929238319397, 0.0597105398774147, -0.029188696295022964, -0.013635674491524696, 0.5134953856468201], [-0.39878609776496887, -0.06312371790409088, -0.12316381186246872, 0.22329117357730865, -0.1521262675523758, 0.09139364957809448, -0.005849869456142187, -0.3112647533416748, -0.4424166977405548, 0.1878529191017151, 0.07292577624320984, -0.20077966153621674, 0.09178236126899719, -0.2885831892490387, 0.3054367005825043, -0.07183442264795303, -0.5296630859375, 0.09454808384180069, 0.3745217025279999, -0.2471880316734314, 0.1156567931175232, 0.13449691236019135, -0.02472935989499092, 0.17660261690616608, -0.13592256605625153, 0.47582581639289856, -0.012413677759468555, -0.1942722499370575, 0.2711092233657837, -0.24951522052288055, 0.16966612637043, -0.2996527850627899], [-0.4139503836631775, 0.3888787031173706, 0.029791589826345444, 0.009407609701156616, -0.05670757219195366, -0.13128992915153503, -0.09397490322589874, 0.20860517024993896, -0.03974864259362221, -0.06444019824266434, -0.21310575306415558, -0.21786661446094513, 0.035380471497774124, -0.27120068669319153, -0.17426137626171112, -0.00086865050252527, -0.10048928111791611, -0.08332733809947968, -0.38457342982292175, -0.6519531011581421, 0.23831389844417572, -6.3996358221629634e-06, -0.34681054949760437, -0.06229851022362709, 0.20155097544193268, 0.21761208772659302, 0.04839586839079857, 0.13516508042812347, -0.09603102505207062, 0.21701176464557648, 0.23856566846370697, -0.4724290668964386], [0.09614221751689911, -0.0951375961303711, 0.13271790742874146, 0.023168304935097694, -0.13109391927719116, 0.21479693055152893, 0.14756520092487335, -0.08585268259048462, 0.04550136625766754, -0.17860037088394165, 0.104808010160923, 0.24664367735385895, 0.004110492765903473, 0.29558369517326355, -0.5579817295074463, -0.022395286709070206, 0.3200699985027313, 0.11387530714273453, 0.24358496069908142, 0.1012544110417366, -0.1905839890241623, 0.12450704723596573, 0.011269228532910347, -0.12312636524438858, 0.17620857059955597, -0.32835596799850464, -0.011322150006890297, 0.10602974891662598, 0.19750890135765076, 0.035916414111852646, -0.14205382764339447, 0.36723458766937256], [0.2765404284000397, 0.08265818655490875, 0.22896334528923035, -0.14087527990341187, 0.002695815172046423, 0.06821733713150024, 0.10509204119443893, 0.22920672595500946, 0.03261907026171684, 0.03230516240000725, 0.23364539444446564, 0.28682371973991394, -0.07464425265789032, 0.2171332836151123, -0.4169921875, -0.015118438750505447, 0.21181252598762512, 0.046570949256420135, 0.3478069603443146, 0.2365407794713974, -0.1384858936071396, 0.08770143240690231, -0.07676274329423904, -0.13346342742443085, 0.11439426243305206, -0.1806943565607071, 0.12529641389846802, 0.2377927452325821, 0.32700347900390625, -0.05685872957110405, -0.103263720870018, 0.3936654329299927], [0.3968757092952728, 0.23533207178115845, 0.11357130110263824, -0.20697423815727234, 0.027330307289958, 0.08166059851646423, 0.13149449229240417, 0.3197784423828125, 0.23906390368938446, 0.1533549726009369, 0.28876975178718567, 0.2906261682510376, 0.24792134761810303, 0.08851376175880432, -0.2882688641548157, -0.027629733085632324, 0.268594890832901, 0.18501374125480652, 0.155836284160614, 0.10252559185028076, -0.17469143867492676, 0.12054720520973206, -0.09246940910816193, 0.151466965675354, 0.09856560826301575, -0.06021088361740112, -0.03014286980032921, 0.24714791774749756, 0.1526886522769928, 0.05963323637843132, -0.12798954546451569, 0.44451218843460083], [0.11777956038713455, -0.03427116572856903, -0.08939608186483383, -0.08856989443302155, -0.18707244098186493, 0.02862379141151905, 0.1691884994506836, 0.17638570070266724, 0.03533978387713432, -0.2211720198392868, 0.08747624605894089, 0.04335898533463478, -0.14099858701229095, 0.4167119860649109, -0.2329329550266266, 0.08609136193990707, 0.1682230681180954, 0.019156137481331825, 0.08808697015047073, 0.09248337149620056, 0.04453025758266449, 0.06025556102395058, -0.03748924285173416, -0.006444478873163462, -0.06537223607301712, -0.23966212570667267, 0.2538924515247345, 0.24543437361717224, 0.061627261340618134, -0.11215133965015411, -0.2423793524503708, 0.3345581293106079], [0.16783899068832397, 0.04150594025850296, 0.11668020486831665, 0.13437572121620178, -0.011762668378651142, -0.13960407674312592, -0.044827114790678024, -0.21495608985424042, 0.1559605747461319, 0.17074176669120789, -0.15302520990371704, -0.045418452471494675, 0.3294428884983063, -0.13527193665504456, 0.3745368719100952, 0.09304105490446091, -0.07972315698862076, -0.09314702451229095, 0.002162389922887087, -0.12270251661539078, 0.02216944843530655, -0.19187326729297638, 0.11487757414579391, 0.17231735587120056, 0.091939277946949, 0.34745875000953674, -0.12674455344676971, 0.04177175462245941, -0.1619585156440735, 0.16523444652557373, 0.0841282308101654, -0.48037946224212646], [-0.07286907732486725, 0.06835382431745529, 0.0743895173072815, -0.38763555884361267, 0.11559300869703293, 0.1960071474313736, 0.1897963136434555, 0.13026206195354462, -0.16964402794837952, -0.046335846185684204, 0.14241020381450653, 0.213601216673851, -0.10295351594686508, 0.3060773015022278, -0.1868716925382614, 0.04290463775396347, 0.3295755684375763, 0.1062006950378418, 0.19219253957271576, 0.35201865434646606, -0.26599371433258057, -0.10637766122817993, -0.22079092264175415, 0.08659663051366806, -0.14716225862503052, 0.05322052538394928, 0.15820865333080292, 0.25680601596832275, 0.2504945397377014, -0.04650087654590607, -0.2817227244377136, 0.1829352229833603], [-0.0836508572101593, 0.12282706052064896, 0.17217692732810974, -0.23152630031108856, -0.08997634798288345, 0.008450677618384361, -0.07980388402938843, 0.11604136973619461, 0.08638014644384384, 0.09903626888990402, 0.2517682611942291, 0.007302455138415098, 0.11314547061920166, 0.5455889105796814, -0.12026648223400116, 0.15889328718185425, 0.2726460099220276, -0.03209565952420235, 0.062436170876026154, 0.057313743978738785, -0.2639750838279724, -0.023595554754137993, -0.2983390986919403, -0.0047136773355305195, -0.1184784397482872, -0.3262999653816223, 0.026360109448432922, 0.13427868485450745, -0.10587523132562637, -0.05511566624045372, -0.08521831780672073, 0.10733187198638916], [-0.11069107055664062, -0.3937464952468872, 0.2708594799041748, 0.28000855445861816, 0.153437077999115, 0.015847697854042053, -0.182301327586174, -0.04662666842341423, 0.17570778727531433, -0.18156281113624573, -0.7149701714515686, 0.02490764483809471, 0.0437818244099617, -0.04633789137005806, 0.2950459122657776, 0.19493530690670013, 0.2565160095691681, 0.0344669409096241, 0.03835320472717285, -0.027943022549152374, -0.1963406801223755, -0.3494347929954529, -0.03765891119837761, 0.1604929268360138, -0.14522181451320648, 0.337077260017395, 0.2397138625383377, 0.019922949373722076, -0.6147924661636353, 0.0953352078795433, -0.01482629869133234, -0.18184620141983032], [0.2956257462501526, 0.17013241350650787, -0.0008125132299028337, 0.05716070905327797, -0.1305438131093979, 0.2866154909133911, 0.18241117894649506, 0.069340281188488, -0.0244285985827446, -0.12502489984035492, 0.25034910440444946, 0.17459821701049805, 0.09928528964519501, 0.368118017911911, -0.18951819837093353, -0.15049906075000763, 0.5367018580436707, 0.2286362200975418, 0.05737577751278877, -0.0030438131652772427, -0.09071825444698334, -0.00434832600876689, 0.037865329533815384, -0.0695391520857811, 0.05249599367380142, -0.008636869490146637, -0.016404040157794952, 0.38592174649238586, 0.3040534257888794, 0.021230731159448624, -0.1135268434882164, 0.42860883474349976]], "_stack.Linear_2.bias": [-0.42731761932373047, -0.36868077516555786, -0.332474946975708, -0.19842222332954407, -0.010139835998415947, -0.28942716121673584, -0.20474672317504883, 0.5324745774269104, -0.44670727849006653, -0.24357353150844574, 0.39207810163497925, 0.45969876646995544, 0.3173006474971771, 0.41171032190322876, 0.012542792595922947, 0.4026448428630829, 0.39173635840415955, 0.08812869340181351, 0.37041378021240234], "_stack.Linear_4.weight": [[-0.22207608819007874, -0.20508834719657898, 0.6227678656578064, -0.5691400170326233, 0.004530380479991436, 0.11328419297933578, -0.6438717842102051, 0.03597302362322807, -0.3247257471084595, -0.5306342840194702, 0.22793756425380707, 0.2641980051994324, 0.25953370332717896, 0.10079887509346008, 0.07563503086566925, 0.22113162279129028, 0.22951148450374603, -0.1997401863336563, -0.09541528671979904], [0.4151206314563751, 0.40889477729797363, -0.6311785578727722, 0.332560658454895, 0.2994394898414612, 0.3365004062652588, 0.7214536070823669, 0.3889276385307312, 0.23734156787395477, 0.3393975496292114, 0.08189955353736877, -0.29724809527397156, 0.2299170345067978, 0.23972585797309875, -0.04268264025449753, -0.079866424202919, -0.2254895567893982, 0.44989845156669617, -0.08054880797863007], [0.1254633069038391, 0.1672242283821106, -0.9616272449493408, 0.3210868835449219, 0.3842231035232544, 0.29058510065078735, 0.6475079655647278, 0.13931705057621002, 0.30272790789604187, 0.3835940659046173, -0.12408314645290375, 0.18019573390483856, 0.03457903489470482, -0.0332300141453743, 0.2459743469953537, -0.1954009085893631, -0.07115057110786438, 0.5347810387611389, 0.1329619437456131], [-0.1619449257850647, -0.05151309818029404, 0.4811367690563202, -0.271773099899292, 0.022201059386134148, -0.20045927166938782, -0.7658242583274841, -0.3924931585788727, -0.4576677978038788, -0.3956271708011627, 0.32195383310317993, 0.09178801625967026, 0.007992752827703953, -0.06434562802314758, -0.22858595848083496, -0.052846938371658325, -0.017606886103749275, -0.07446041703224182, 0.3660022020339966], [-0.2522919774055481, -0.13654659688472748, 0.8125998973846436, -0.7068124413490295, -0.05059361085295677, -0.1731472760438919, -0.7843077778816223, 0.21110448241233826, -0.2818186581134796, -0.2523309886455536, 0.12489375472068787, 0.3376055657863617, 0.20987315475940704, 0.16647517681121826, -0.027890214696526527, 0.17181527614593506, 0.1740199476480484, -0.17828115820884705, 0.2957497835159302], [0.07727895677089691, -0.0790076032280922, -0.3309020698070526, 0.6900760531425476, -0.06331860274076462, 0.3377409279346466, 0.39735281467437744, 0.15175777673721313, 0.32985201478004456, 0.7127267718315125, 0.04010229557752609, -0.2669461667537689, -0.2215232253074646, 0.04251957684755325, -0.28028160333633423, 0.008233024738729, 0.1632387489080429, 0.1863950788974762, -0.045078493654727936]], "_stack.Linear_4.bias": [0.2799399495124817, -0.12063542008399963, -0.2884686589241028, 0.4219660460948944, 0.5201464295387268, 0.18915961682796478], "_stack.Linear_6.weight": [[-0.36358577013015747, 0.22657974064350128, 0.4351392984390259, -0.5561411380767822, -0.513693630695343, 0.8243694305419922]], "_stack.Linear_6.bias": [-0.5063705444335938]}