{"metadata": {"version": 1, "features": ["TrackChi2PerDoF", "TrackGhostProb", "RichDLLe", "RichDLLmu", "RichDLLk", "RichDLLp", "usedRich1Gas", "usedRich2Gas", "EcalPIDe", "InHcal", "HcalEoP", "InMuon", "IsMuon", "LogMuonChi2"]}, "_stack.Linear_0.weight": [[0.2950904071331024, -1.1867215633392334, -0.1898428201675415, -0.14518770575523376, 0.4338780641555786, -0.019728077575564384, -0.4671578109264374, 0.605904221534729, -0.14447888731956482, -0.27252963185310364, 0.47157663106918335, 0.04370229318737984, 0.4054018259048462, 0.2481684386730194], [-0.6383689641952515, -9.224757194519043, -0.2711333632469177, -0.04367734491825104, 0.0014249797677621245, 0.06948412209749222, -0.1502750962972641, -1.1468303203582764, 0.05852670595049858, 0.09322138130664825, -0.14131800830364227, -0.1912088841199875, -0.012194865383207798, 0.013804404996335506], [0.015453596599400043, 1.2482270002365112, 0.6630613207817078, -0.09926152229309082, -0.02570679783821106, -0.017940308898687363, 0.10169629752635956, -0.1348043531179428, -0.35950329899787903, -0.6989818811416626, 0.40732190012931824, 0.14978563785552979, -5.438606262207031, -0.04752704128623009], [-0.09992678463459015, 0.6542567610740662, -0.10653147846460342, 0.280831515789032, -0.15850849449634552, 0.24173857271671295, -0.08738912642002106, 0.17120201885700226, -0.2738568186759949, 0.8914351463317871, 0.056967005133628845, 0.1887761652469635, 1.2582851648330688, 0.35334858298301697], [-0.16220147907733917, -1.6843153238296509, 0.3380417227745056, 0.11021833121776581, -0.22986914217472076, 0.2425077110528946, 0.43435582518577576, -0.165286585688591, -0.03980551287531853, 0.9147469401359558, 0.13100363314151764, -0.1620761603116989, -1.0126489400863647, -0.15880362689495087], [0.5659800171852112, -3.16548228263855, 0.9883604049682617, -0.38406670093536377, -0.07556221634149551, 0.123094841837883, 0.24676477909088135, 0.41152477264404297, 0.11329776048660278, 0.0038862493820488453, -0.559833288192749, 0.6788278818130493, -0.34809061884880066, 0.12908266484737396], [-0.4983098804950714, 0.8825434446334839, 0.21273931860923767, -0.8779382109642029, 0.1464463323354721, -0.13807758688926697, -0.39130234718322754, -0.4945300221443176, -0.025368832051753998, 0.17541693150997162, -0.4067944288253784, 0.33928120136260986, -0.20043595135211945, 0.15652026236057281], [-0.06739535927772522, -18.78885841369629, -0.0016442780615761876, 0.0009960804600268602, 0.006927215028554201, -0.0054437448270618916, 0.1269751340150833, -0.028354743495583534, 0.006412857677787542, 0.1032378077507019, -0.03235173597931862, 0.0995013415813446, 0.276631236076355, -0.02510104328393936], [0.04964584484696388, -0.24902893602848053, -0.007128919009119272, 0.04021618887782097, 0.011039230972528458, 0.13441339135169983, 0.5245714783668518, 0.6061785221099854, 0.24450995028018951, 0.43145525455474854, -0.15713216364383698, 0.35822007060050964, -1.0300967693328857, -0.395391047000885], [-0.15169595181941986, -3.179244041442871, -0.535538375377655, 0.19549071788787842, 0.02863161452114582, -0.0700327679514885, 0.8970823287963867, 0.9966669678688049, -0.4896183907985687, -0.2746540904045105, 0.17208519577980042, -0.37264811992645264, -0.08417926728725433, -0.39415132999420166], [-0.006757491268217564, -0.010618235915899277, -0.1042727380990982, 0.06298645585775375, -0.10349816828966141, -0.001031098305247724, -0.9277380108833313, -0.30073511600494385, 0.04997406154870987, -0.9045147895812988, -0.1998184621334076, -0.19865620136260986, 0.33354616165161133, 0.42976126074790955], [0.10659658908843994, 2.934983015060425, 0.21846476197242737, -0.13113021850585938, 0.32466378808021545, 0.08917286992073059, -0.9644821286201477, -0.9885900616645813, 0.06852877885103226, 0.913692831993103, 0.17970559000968933, 0.3265244662761688, 0.6834139823913574, 0.06268250197172165], [-0.04174213483929634, -5.689858913421631, -0.14894334971904755, 0.03827514126896858, 0.16993215680122375, -0.04475283995270729, 0.3355139493942261, -0.4108467996120453, -0.29618164896965027, -0.10719906538724899, 0.2508276402950287, -0.3551082909107208, 0.06690353900194168, 0.1475706398487091], [-0.023640532046556473, 0.611383318901062, -0.9552080035209656, -0.3514932096004486, -0.10846873372793198, 0.009488760493695736, 0.5706770420074463, 0.38468143343925476, -0.0063200839795172215, -0.015189601108431816, 0.3248995840549469, 0.10944066941738129, 0.32334017753601074, -0.039777010679244995], [-0.05771476775407791, -1.2345021963119507, 0.12098851799964905, -0.22660450637340546, 0.1207844689488411, 0.13031376898288727, -0.37011823058128357, 0.7280808687210083, -0.05586723983287811, -0.6574970483779907, 0.34307995438575745, 0.39831623435020447, 0.0815339982509613, 0.2827686369419098], [-0.11398191750049591, -0.45680731534957886, -0.28850653767585754, -0.2636570632457733, -0.012341382913291454, 0.015390107408165932, -0.013021511025726795, 0.186368927359581, -0.18675285577774048, -0.24982643127441406, -0.16218651831150055, 0.4437342882156372, -0.35701218247413635, 0.4773028790950775], [-0.7175279855728149, -8.56174373626709, -0.13378819823265076, 0.19814296066761017, 0.0636051669716835, -0.026622120290994644, -0.22881631553173065, 0.17413444817066193, -0.24724255502223969, -0.5054731369018555, 0.3646136522293091, 0.1941443383693695, -0.07353556156158447, 0.3248392641544342], [0.45862123370170593, 0.9328306317329407, -0.40716955065727234, 0.040184129029512405, -0.04204043745994568, 0.05987701565027237, 0.29030337929725647, 0.3816376328468323, -0.2364545613527298, 0.5555795431137085, 0.08853798359632492, 0.6263120770454407, 0.7521092295646667, 0.3482588231563568], [-0.5562337636947632, -4.347989082336426, -0.15034219622612, 0.7453732490539551, -0.025587961077690125, 0.027549082413315773, 0.4463452100753784, -0.26631978154182434, 0.16484187543392181, -0.04151882231235504, -0.08597669005393982, -1.5360182523727417, -0.040508583188056946, -0.17189788818359375], [0.5778040289878845, 1.0149897336959839, 0.8160319328308105, -0.1208668127655983, -0.25740131735801697, 0.09102247655391693, 0.45427069067955017, 0.7540661692619324, 0.11567437648773193, 0.5852201581001282, 0.24069571495056152, 0.09449747949838638, -0.3130616545677185, 0.1021333783864975], [0.2180134505033493, 0.626270592212677, 0.5032007098197937, -0.117219477891922, 0.047396183013916016, -0.11620724946260452, 0.24594619870185852, 0.4624231159687042, 0.7638792991638184, 0.12016379088163376, -0.4191187024116516, -0.6089732646942139, 0.4487006366252899, 0.10059822350740433], [0.028770938515663147, -2.9581778049468994, 0.13669049739837646, -0.06529352813959122, -0.08159876614809036, -0.049055445939302444, 0.5872459411621094, 0.5364968776702881, 0.0706842765212059, -0.6069106459617615, -0.06374631822109222, 0.21985840797424316, -0.2947383224964142, -0.0242309533059597], [-0.30266010761260986, -2.6039416790008545, 0.634878396987915, -0.1510329246520996, -0.03137301653623581, 0.04024145379662514, 0.5613797903060913, 0.36382848024368286, 0.18840281665325165, 1.103898048400879, 1.1836618185043335, 1.1917446851730347, 0.650018036365509, 0.07242317497730255], [0.003414297476410866, -0.3842793405056, 0.41361987590789795, 0.15414658188819885, 0.2087419331073761, -0.2350439876317978, 0.7624050378799438, 1.1842073202133179, 0.18832412362098694, 0.11201679706573486, 0.2716597020626068, -0.36014285683631897, 0.1414054036140442, 0.061081163585186005], [-0.6399601101875305, -0.8995547294616699, 1.0054237842559814, 0.009701176546514034, -0.21412618458271027, -0.03056676685810089, 0.261932373046875, 0.5165767669677734, 0.014874614775180817, 0.9563809633255005, -2.1390421390533447, 0.044452257454395294, 1.0734610557556152, -0.7256059646606445], [-0.01689080521464348, -3.528195381164551, -0.36187416315078735, 0.18612177670001984, -0.031657956540584564, -0.19421619176864624, 0.094086654484272, -0.5854265689849854, 0.35972386598587036, -0.9008749723434448, 0.46477454900741577, -0.14408312737941742, 0.9184568524360657, -0.09740949422121048], [-0.2757584750652313, 0.3981800079345703, -0.860611617565155, 0.5126954913139343, -0.09141679108142853, -0.022334614768624306, -0.05228438228368759, 0.32293376326560974, -0.1252089887857437, -0.472526878118515, 0.3391377329826355, -0.1467359960079193, -0.7726262807846069, 0.10316334664821625], [-0.006620827130973339, -3.004467010498047, -0.30148953199386597, -0.0395563542842865, -0.0032346555963158607, 0.13270524144172668, -1.2219520807266235, -0.7951405644416809, -0.03881033509969711, 0.07490995526313782, 0.22518864274024963, -0.03972581401467323, 0.14186593890190125, 0.08416156470775604], [0.01803647354245186, 0.7859972715377808, 1.6446071863174438, 0.5592042803764343, -0.15279410779476166, -0.004972146824002266, 1.6225858926773071, 0.46862998604774475, 0.7966485619544983, -0.22335894405841827, -1.933036208152771, -0.2895008623600006, -0.8092836141586304, -0.023897960782051086], [-0.2718770503997803, -0.3992047905921936, -0.19062285125255585, -0.02329391799867153, -0.06997102499008179, 0.11319924890995026, 0.141897514462471, 0.061396822333335876, -0.15838979184627533, 0.5415721535682678, -0.17551380395889282, 0.6809842586517334, 0.6612008213996887, 0.05915452539920807], [-0.21016570925712585, -0.23274606466293335, 0.07521898299455643, -0.277415931224823, 0.08670616894960403, -0.1962074637413025, 0.08073047548532486, 0.28720778226852417, 0.45231470465660095, -0.0214968491345644, 0.3013547360897064, 0.35645589232444763, -1.4181602001190186, 0.10051808506250381]], "_stack.Linear_0.bias": [-0.18715056777000427, -0.07427262514829636, -0.5640645027160645, 0.11772603541612625, 0.3293381929397583, 0.2315203696489334, 0.1381445974111557, 0.34921762347221375, 0.054357901215553284, 0.2611350417137146, 0.016321439296007156, 0.15728679299354553, -0.04945678263902664, 0.025219203904271126, -0.04726139083504677, -0.36145132780075073, -0.050034258514642715, 0.10436396300792694, -0.1212921068072319, 0.42328378558158875, 0.4152129590511322, 0.7949134707450867, 0.7561119794845581, 0.14164213836193085, 0.3353395462036133, 0.9804558753967285, -0.5506936311721802, -0.2779003083705902, -0.19164887070655823, 0.6541184782981873, -0.61649489402771], "_stack.Linear_2.weight": [[0.06619688123464584, 0.15913206338882446, 0.023731430992484093, 0.1740266978740692, -0.19338206946849823, -0.07131558656692505, -0.09267323464155197, -0.1809050738811493, 0.9371064305305481, 0.546452522277832, -0.2174426168203354, -0.28435972332954407, -0.5195179581642151, 0.060469985008239746, 0.13637158274650574, -0.3440169095993042, -0.3823988735675812, -0.049477916210889816, 0.4906691610813141, 0.1624544858932495, -0.014883103780448437, -0.06095680966973305, -0.0686391070485115, -0.019775353372097015, 0.060269102454185486, 0.015461841598153114, 0.00704700592905283, -0.4190885126590729, 0.16587267816066742, 0.04143909737467766, 0.2287895828485489], [-0.28905731439590454, -0.2327938675880432, 0.26072511076927185, 0.2694851756095886, -0.2801468074321747, 0.06569982320070267, 0.00047336224815808237, -0.5144059658050537, 0.1975676566362381, 0.11986866593360901, 0.18384811282157898, 0.007765770889818668, 0.023321324959397316, 0.3429855704307556, 0.05459527671337128, 0.17519712448120117, 0.06235938146710396, 0.2614784240722656, -0.47793951630592346, 0.16087055206298828, -0.05930156260728836, 0.0728330910205841, 0.22984950244426727, -0.012993734329938889, -0.10374089330434799, -0.043853286653757095, 0.16043661534786224, -0.44003793597221375, -0.069025918841362, 0.37064898014068604, 0.27865979075431824], [-0.002976828720420599, 0.29430022835731506, -0.20809510350227356, 0.06613680720329285, 0.07416287809610367, 0.07657787203788757, -0.20655915141105652, 1.3571710586547852, -0.19605979323387146, 0.09631983190774918, -0.4465904235839844, 0.008441939949989319, 0.06050627678632736, 0.09839509427547455, 0.13214965164661407, -0.0336284339427948, -0.10117550194263458, 0.19564250111579895, -0.0347488597035408, 0.1423717439174652, -0.005891290493309498, -0.14464496076107025, -0.23091019690036774, 0.3122533857822418, 0.4322602450847626, -0.24378585815429688, -0.09315916150808334, 0.20066119730472565, -0.12898792326450348, 0.04379123076796532, -0.0032936856150627136], [0.1777927577495575, 0.33017557859420776, -0.3208654224872589, -0.1832764446735382, 0.17595486342906952, 0.28015488386154175, -0.09181220084428787, 1.4543362855911255, -0.13549460470676422, -0.16549991071224213, -0.03712362051010132, -0.18640589714050293, 0.37011438608169556, -0.057282570749521255, -0.20831972360610962, 0.08003994077444077, 0.3616236448287964, -0.10035161674022675, -0.13533984124660492, 0.11124370247125626, 0.22907167673110962, -0.03000698983669281, 0.022904999554157257, 0.21147078275680542, 0.025191234424710274, -0.0715780183672905, -0.09097613394260406, 0.32060718536376953, 0.02109517902135849, -0.10434821248054504, -0.2624264359474182], [0.0260489359498024, -0.09847591817378998, 0.03162608668208122, -0.05619754269719124, -0.04358835145831108, -0.11047428101301193, -0.023137904703617096, 0.055465348064899445, -0.05507384240627289, -0.05272803455591202, -0.11980313807725906, -0.18900324404239655, -0.1694936752319336, -0.0609414242208004, 0.128187894821167, 0.03467923775315285, -0.05649438500404358, -0.13793709874153137, -0.16873355209827423, 0.09782145172357559, -0.04280742257833481, -0.15766273438930511, -0.11007829755544662, 0.007686716970056295, -0.021368127316236496, -0.18973486125469208, -0.12838385999202728, 0.04528826102614403, 0.07097594439983368, -0.03283759951591492, 0.000754325301386416], [-0.25971317291259766, -0.2988341748714447, 0.24285854399204254, 0.25689148902893066, -0.1305188238620758, 0.01877499185502529, -0.04777124151587486, -0.6564183831214905, 0.010587652213871479, -0.01352850254625082, 0.2275177240371704, 0.1188717782497406, 0.39281561970710754, 0.26420295238494873, -0.1177004724740982, 0.16050076484680176, 0.186320498585701, 0.11648101359605789, -0.49051764607429504, -0.05733037367463112, 0.004901279229670763, 0.15859417617321014, 0.26598674058914185, -0.14577358961105347, 0.07411035895347595, 0.021207595244050026, 0.11096327006816864, -0.34360793232917786, 0.06759393960237503, 0.19098901748657227, 0.287375271320343], [0.03357383981347084, 0.2667616307735443, -0.09308721125125885, -0.03620387613773346, -0.09936022758483887, 0.06291137635707855, 0.19831956923007965, 1.504469633102417, 0.014135087840259075, 0.07602784782648087, -0.14285321533679962, 0.13732711970806122, 0.026061424985527992, -0.13487474620342255, 0.0938941091299057, -0.2066277414560318, 0.3976379334926605, -0.12622642517089844, 0.651512861251831, 0.16579122841358185, 0.1438746154308319, -0.06745205819606781, -0.04125354066491127, -0.1020631268620491, 0.0951235368847847, -0.08715701103210449, 0.055208370089530945, 0.4400175213813782, 0.16776633262634277, -0.09075210243463516, -0.001356062013655901], [0.4574977159500122, -1.335907220840454, -0.35374146699905396, -0.08063747733831406, 0.1086532324552536, 0.09675438702106476, -0.40571996569633484, -0.6142759919166565, 1.1696404218673706, 0.15078239142894745, 0.048414453864097595, -0.7426112294197083, -0.5019662976264954, 0.23619301617145538, -0.6360777020454407, -0.1785145401954651, -0.5733612179756165, 0.21712110936641693, 0.512129008769989, 0.2807671129703522, 0.07268516719341278, -0.13818703591823578, -0.020314374938607216, -0.11114033311605453, 0.058595072478055954, 0.25219595432281494, 0.034748632460832596, -0.577796459197998, 0.09585719555616379, -0.18221504986286163, 0.2548915147781372], [-0.08223558962345123, 0.4656975567340851, -0.39883187413215637, -0.11860953271389008, 0.11895802617073059, 0.3923890292644501, -0.2946302592754364, 0.7674153447151184, -0.04879836365580559, 0.4346434772014618, 0.11751269549131393, -0.3679082691669464, 0.2051551640033722, -0.2908741235733032, 0.15614837408065796, -0.14570476114749908, 0.38218680024147034, -0.22694140672683716, 0.4490174651145935, 0.053302958607673645, 0.15031494200229645, 0.24487437307834625, 0.13156887888908386, -0.2037442922592163, -0.05688422545790672, 0.27393442392349243, -0.2827686071395874, 0.24948857724666595, -0.20889253914356232, 0.0950101986527443, -0.29693368077278137], [0.18359358608722687, 0.3050960302352905, -0.3321881890296936, -0.07033425569534302, 0.22415001690387726, 0.21169079840183258, 0.17853465676307678, 0.8455798029899597, -0.1285594403743744, -0.26790931820869446, -0.12933209538459778, 0.17050227522850037, -0.07012440264225006, 0.029455561190843582, 0.15858782827854156, -0.1227913349866867, 0.2036784291267395, -0.1829744577407837, -0.7348798513412476, 0.2688518464565277, 0.38844719529151917, 0.16855421662330627, 0.04472869634628296, 0.26824286580085754, 0.08272905647754669, -0.06152260676026344, -0.40014365315437317, 0.007922666147351265, 0.010104093700647354, -0.23607982695102692, -0.08276360481977463], [-0.11048553138971329, 0.796998918056488, -0.011610951274633408, -0.12026558071374893, 0.08581613004207611, 0.00499227037653327, 0.11167500913143158, -0.12496256083250046, 0.6949191689491272, -0.43198710680007935, 0.06565435230731964, 0.24062617123126984, -0.0947299376130104, -0.12285872548818588, -0.15598377585411072, -0.0912090614438057, -0.24073398113250732, -0.1789335012435913, -0.5652989745140076, 0.1249120905995369, 0.02066456340253353, 0.0570446141064167, 0.05766093730926514, -0.038414113223552704, -0.23315440118312836, -0.10546693205833435, -0.0025343475863337517, -0.22364701330661774, 0.28988516330718994, 0.1423773467540741, 0.2804413437843323], [-0.25056517124176025, -0.13509775698184967, 0.0999777615070343, 0.20847374200820923, -0.34998074173927307, 0.00638179387897253, 0.26776978373527527, -0.08980131149291992, 0.2425978034734726, -0.041072674095630646, 0.1195276752114296, 0.2739127278327942, 0.2844061851501465, 0.25504231452941895, -0.06788598746061325, -0.07339417189359665, 0.21322403848171234, 0.24871473014354706, -0.07652101665735245, 0.05493972450494766, -0.04523710161447525, -0.10874900221824646, 0.6035349369049072, 0.09653887152671814, -0.04707680270075798, 0.1352059543132782, -0.11284881085157394, -0.5167407989501953, 0.21281933784484863, 0.2973192036151886, 0.09229730814695358]], "_stack.Linear_2.bias": [0.15993015468120575, 0.406661719083786, -0.22620560228824615, 0.03958745673298836, 0.04325557127594948, 0.1862758845090866, 0.21848028898239136, 0.4164707064628601, 0.12387685477733612, 0.258470356464386, -0.17279811203479767, 0.634463369846344], "_stack.Linear_4.weight": [[0.03568122163414955, -0.21261020004749298, 0.7807915210723877, 0.7318034768104553, -0.13072888553142548, -0.18517044186592102, 0.40118005871772766, 0.0742824375629425, 1.7303446531295776, 0.5646173357963562, 0.8251021504402161, 0.4051492512226105], [-0.25028520822525024, 0.3262077271938324, -0.6689299941062927, -0.7415531873703003, 0.20334936678409576, 0.2335743010044098, 0.0076006436720490456, -0.3249523639678955, -1.2355331182479858, -0.138796865940094, -0.5194405913352966, 0.38961654901504517]], "_stack.Linear_4.bias": [-0.04285871237516403, 0.33064380288124084], "_stack.Linear_6.weight": [[-0.5220057368278503, 0.9155463576316833]], "_stack.Linear_6.bias": [0.24755994975566864]}