{"metadata": {"version": 1, "features": ["TrackChi2PerDoF", "TrackGhostProb", "RichDLLe", "RichDLLmu", "RichDLLk", "RichDLLp", "usedRich1Gas", "usedRich2Gas", "EcalPIDe", "InHcal", "HcalEoP", "InMuon", "IsMuon", "LogMuonChi2"]}, "_stack.Linear_0.weight": [[-2.1263134479522705, 0.6215481758117676, 0.21854491531848907, 0.08597967773675919, 0.1602899134159088, 0.20360171794891357, -0.039901189506053925, -0.2763475179672241, -0.1314842402935028, -0.16170568764209747, 0.1540655493736267, 0.08333504945039749, -0.134356290102005, 0.22918488085269928], [0.10423355549573898, 0.8820940852165222, -0.016120081767439842, 0.07053273171186447, 0.19412636756896973, -0.025476627051830292, 0.62385493516922, -0.0035072730388492346, 0.2473670244216919, 0.3401806652545929, -0.1419447362422943, 0.13479724526405334, 0.3158279061317444, -0.1618192195892334], [0.23564255237579346, -0.9563392400741577, 1.174679160118103, -0.2697679102420807, 0.12861573696136475, -0.19943742454051971, 0.48313620686531067, 0.45483389496803284, 0.42847687005996704, 0.06592483073472977, -0.9899520874023438, -0.013888319954276085, 0.6926276683807373, -0.17674455046653748], [0.5499356389045715, 1.0194118022918701, -0.1625642627477646, 0.10935219377279282, -0.25912395119667053, 0.2229229360818863, -0.007306583225727081, 0.10038268566131592, 0.030698221176862717, 0.23156589269638062, 0.09588208049535751, -0.1564836949110031, -0.891469419002533, -0.10547815263271332], [0.5872913002967834, 0.23403067886829376, 0.3260634243488312, -0.27326008677482605, 0.06006485968828201, -0.16621729731559753, 0.4945652484893799, -0.7283045649528503, -0.2859906256198883, 0.7919667959213257, 0.10765059292316437, 0.4888206720352173, 0.24373385310173035, 0.07277657091617584], [-0.03840114548802376, -2.769526958465576, 0.034473877400159836, -0.1317046880722046, -0.10218880325555801, 0.19146111607551575, -0.7234621644020081, -0.2849143445491791, 0.0752607136964798, -0.1673443615436554, 0.007390968035906553, 0.049108296632766724, 0.3992686867713928, 0.09457386285066605], [-0.7165552377700806, 0.8638193011283875, -0.1043795794248581, -0.2047041654586792, -0.10731677711009979, 0.09827787429094315, 0.1203383207321167, -0.20299191772937775, -0.1841445118188858, 0.5126885771751404, 0.20668670535087585, 0.4456075131893158, -0.24097439646720886, 0.13256056606769562], [0.8266007900238037, -1.034720540046692, 0.11250545084476471, -0.012723585590720177, 0.27076438069343567, 0.0009669088758528233, 0.0509464368224144, 0.2083275020122528, -0.07832695543766022, -0.047200243920087814, 0.28169897198677063, 0.044074855744838715, -0.044367242604494095, 0.2683565318584442], [0.36083289980888367, -0.3327004611492157, 0.2793961465358734, -0.037361014634370804, -0.09612344950437546, -0.05937900394201279, -0.09255501627922058, 0.33985450863838196, 0.11667273193597794, -0.021673530340194702, 0.3804367184638977, 0.3309827744960785, 0.7366785407066345, 0.46208909153938293], [0.1762680560350418, -0.40381085872650146, -0.2755816578865051, 0.44016969203948975, 0.04681125283241272, -0.06400614231824875, -0.18786141276359558, 0.3411174416542053, -0.2455940544605255, -0.6005063056945801, 0.378587931394577, -0.28133976459503174, 0.1074611097574234, -0.2672843337059021], [0.6180752515792847, 0.5424613356590271, -0.09408590942621231, -0.1929766684770584, -0.09095308929681778, -0.13693036139011383, -0.17222699522972107, 0.05189977213740349, -0.07754500955343246, 0.22738586366176605, 0.2236376404762268, 0.15535449981689453, 0.07293475419282913, 0.36349111795425415], [0.02490970864892006, -1.0319759845733643, 0.10986130684614182, 0.01865256577730179, 0.17564216256141663, 0.0007352085667662323, 0.08466541022062302, 0.5510758757591248, -0.1063578799366951, -0.1622357815504074, 0.010883521288633347, 0.36852702498435974, 0.342711865901947, 0.1892620474100113], [-0.09532275050878525, -6.763711452484131, -0.19341880083084106, 0.0039601982571184635, 0.2245195358991623, -0.17260897159576416, -0.19279520213603973, -0.8024250864982605, -0.04034261032938957, -0.004536595195531845, -0.0730116069316864, 0.22831317782402039, -0.2755301296710968, -0.08737392723560333], [-0.14102858304977417, -1.085080862045288, 0.0037730117328464985, -0.12497936189174652, 0.16521336138248444, 0.018028298392891884, -0.08062957227230072, -0.1298581063747406, -0.168888121843338, 0.06017884612083435, 0.18303948640823364, -0.07271187007427216, 0.008069460280239582, -0.037721797823905945], [-0.21717126667499542, 0.514708399772644, -0.27601584792137146, -0.025373145937919617, -0.07673871517181396, 0.10688929259777069, 0.15622498095035553, 0.18864938616752625, -0.09068576246500015, 0.41652533411979675, -0.12271330505609512, 0.5111929178237915, 0.4683440923690796, 0.12914380431175232], [-0.0168678667396307, 0.9276265501976013, -0.2722293734550476, 0.1003066822886467, -0.09867304563522339, -0.21853835880756378, 0.08643578737974167, 0.07889092713594437, -0.23220042884349823, -0.03568492829799652, 0.358368456363678, -0.47340166568756104, 0.09377001971006393, 0.2959446609020233], [1.7971994876861572, -0.32749471068382263, 0.10493859648704529, 0.025560231879353523, 0.2586035132408142, -0.10898508131504059, 0.19451606273651123, 0.12827695906162262, -0.16058595478534698, 0.11876266449689865, 0.13619348406791687, 0.012069382704794407, -0.06604494899511337, 0.0733998715877533], [-0.6970924735069275, 0.3917970061302185, 0.04316506162285805, 0.11014794558286667, 0.24656586349010468, 0.14989446103572845, 0.33488038182258606, -0.07521425932645798, 0.2539696991443634, -0.47239065170288086, -0.1674395352602005, -0.3292850852012634, -0.582697331905365, -0.21086642146110535], [0.2999066114425659, -0.11140073090791702, 1.4929221868515015, 0.3103279769420624, -0.11850746721029282, -0.040941271930933, 0.4971579909324646, 0.1114514023065567, 0.3466571867465973, 0.22481778264045715, -0.22317300736904144, 0.43350523710250854, 0.33540627360343933, -0.1092691719532013], [0.046336088329553604, 0.4063107669353485, 0.06541965156793594, -0.08245144784450531, -0.29795029759407043, -0.1639837622642517, 0.5516670942306519, 0.050753187388181686, -0.19784623384475708, 0.3124310374259949, -0.07172548025846481, 0.3823738992214203, -0.5022509694099426, 0.11461338400840759], [-0.07316740602254868, -0.924629271030426, 0.8024078011512756, 0.0701768696308136, 0.23037558794021606, -0.32280829548835754, 0.7679232358932495, 0.763578474521637, 0.050921231508255005, -0.42328622937202454, 0.15507559478282928, 0.019941825419664383, -0.08159743249416351, 0.0637265220284462]], "_stack.Linear_0.bias": [0.26139092445373535, 0.2511579096317291, 0.33551666140556335, -0.3709861636161804, 0.30405259132385254, 0.030148282647132874, 0.05457121878862381, 0.19287468492984772, 0.5338538289070129, 0.4158579707145691, 0.5939527153968811, -0.18048609793186188, 0.3375208377838135, 0.038823604583740234, 0.13165971636772156, 0.03647208586335182, 0.019313717260956764, -0.19227878749370575, 0.2224198430776596, -0.07635728269815445, -0.14550887048244476], "_stack.Linear_2.weight": [[0.28259414434432983, 0.24034766852855682, 0.09399167448282242, -0.4562813639640808, 0.22304411232471466, -0.15009185671806335, 0.2273467630147934, -0.24701182544231415, 0.10733559727668762, 0.188127800822258, 0.15621310472488403, -0.17959599196910858, -0.07584972679615021, -0.060328409075737, 0.09276077896356583, -0.19410942494869232, 0.0177716463804245, 0.052748896181583405, -0.036079153418540955, 0.017866011708974838, 0.08016181737184525], [-0.03463638201355934, 0.2712893784046173, 0.2537868916988373, -0.23119032382965088, -0.12790368497371674, -0.10962092876434326, 0.0412096343934536, -0.15115386247634888, 0.2716001868247986, 0.4024287760257721, 0.2801287770271301, -0.08866006880998611, -0.058087196201086044, 0.01527788583189249, 0.32223349809646606, 0.12871086597442627, -0.1589248925447464, 0.2887524962425232, -0.0332811065018177, -0.14833496510982513, -0.1531822234392166], [0.3061993420124054, 0.13535812497138977, -0.06967878341674805, -0.4724787771701813, 0.29404863715171814, 0.1785837858915329, 0.11974819749593735, -0.12161903828382492, 0.060254741460084915, 0.49263137578964233, 0.1445954293012619, -0.13310380280017853, -0.001521397614851594, -0.09616921097040176, -0.1818089634180069, -0.0837240070104599, -0.36720165610313416, 0.25490114092826843, -0.040000997483730316, 0.07352422177791595, 0.06689911335706711], [-0.02529347874224186, 0.17073115706443787, -0.38396164774894714, 0.1472076028585434, -0.20166325569152832, 0.2967459559440613, -0.18819963932037354, 0.03408154845237732, -0.008914672769606113, -0.11971500515937805, 0.1719031184911728, -0.019020535051822662, 0.28871408104896545, -0.06552467495203018, 0.10254558175802231, 0.02369752712547779, 0.26050814986228943, -0.08829665929079056, -0.42803362011909485, -0.19903548061847687, 0.3097321391105652], [0.04491312801837921, -0.22781723737716675, -0.1861252337694168, -0.0726691484451294, -0.09999142587184906, -0.15262287855148315, -0.24775516986846924, 0.07540462911128998, 0.050915125757455826, -0.4411810338497162, 0.0510980598628521, 0.10232099890708923, -0.1986117959022522, -0.008248083293437958, -0.054391276091337204, -0.3080216944217682, 0.16896380484104156, 0.07990213483572006, -0.09111489355564117, 0.15701568126678467, 0.3942035138607025], [0.03328923508524895, 0.14750130474567413, -0.20701920986175537, 0.30642467737197876, 0.16746088862419128, 0.06035032123327255, -0.2250424325466156, 0.21498291194438934, 0.11963782459497452, 0.007249568589031696, -0.039531297981739044, 0.12997376918792725, 0.1272091269493103, -0.11138136684894562, -0.07155465334653854, -0.14480800926685333, 0.2210705727338791, -0.08283468335866928, 0.0755554586648941, 0.21390512585639954, 0.07175875455141068], [0.22459889948368073, 0.03458820655941963, 0.0859733521938324, -0.42194169759750366, 0.34530380368232727, -0.048689037561416626, 0.29922932386398315, -0.16349506378173828, -0.1028599813580513, 0.1836475282907486, 0.24096189439296722, -0.003887040773406625, 0.13269856572151184, 0.22923937439918518, 0.02775532193481922, 0.11388253420591354, -0.16812051832675934, -0.09522414952516556, 0.1600157916545868, 0.08285209536552429, -0.08040466159582138], [-0.26620060205459595, -0.010819690302014351, -0.0075932638719677925, -0.29608258605003357, 0.02958151139318943, 0.24685367941856384, -0.1694420725107193, 0.3017895221710205, -0.16036419570446014, -0.2969970703125, -0.1361720710992813, 0.10614457726478577, 0.26114124059677124, 0.16148215532302856, 0.043621454387903214, -0.03562791645526886, -0.05971258878707886, 0.062037620693445206, 0.00708429142832756, 0.34908345341682434, 0.36132267117500305], [0.011841760948300362, 0.22471560537815094, -0.18881608545780182, -0.30185985565185547, 0.10438230633735657, 0.23991551995277405, -0.2423742413520813, 0.29058170318603516, 0.1469140201807022, -0.31880703568458557, 0.18401268124580383, 0.09010031819343567, 0.24084405601024628, -0.0709073543548584, 0.12025191634893417, -0.034249573945999146, 0.3147198259830475, -0.06025979295372963, -0.09552087634801865, -0.047598641365766525, 0.20668166875839233], [-0.17387990653514862, 0.118681401014328, 0.48533591628074646, 0.3770069479942322, 0.07392113655805588, -0.25052112340927124, 0.07353761047124863, 0.15971964597702026, -0.17024587094783783, 0.34340259432792664, 0.07919919490814209, -0.16408298909664154, -0.28015920519828796, -0.17985989153385162, -0.08011108636856079, 0.15737317502498627, 0.22872388362884521, 0.06964097172021866, 0.4744526445865631, -0.32100290060043335, -0.3097241520881653], [0.2521621584892273, 0.09437482059001923, 0.34097203612327576, -0.001948883873410523, -0.05053286626935005, -0.11749447882175446, 0.215348020195961, -0.23348788917064667, 0.22339767217636108, 0.20482514798641205, 0.15031631290912628, -0.0479293130338192, -0.04406376928091049, -0.08453234285116196, -0.13627658784389496, -0.09068217128515244, -0.06989172846078873, 0.15627333521842957, 0.2962554395198822, -0.13441026210784912, 0.10466653853654861], [-0.08030395954847336, 0.08996187150478363, 0.3658088147640228, -0.2706979215145111, -0.09562452137470245, 0.041101425886154175, -0.11656251549720764, 0.08997605741024017, 0.4031350314617157, 0.4231814444065094, -0.07308618724346161, 0.22789345681667328, 0.7164407968521118, 0.06424619257450104, 0.29349201917648315, -0.17906399071216583, 0.12166520208120346, -0.03511305898427963, 0.26485368609428406, 0.16529154777526855, 0.16187267005443573], [0.2573745846748352, -0.12365344166755676, 0.5178841948509216, 0.31691455841064453, -0.4378888010978699, 0.09773073345422745, 0.05755353718996048, 0.0033995432313531637, 0.0001964340335689485, -0.36456775665283203, -0.09316276758909225, 0.20350928604602814, 0.07971002161502838, 0.0670916959643364, 0.10564073920249939, -0.18007154762744904, -0.3270311653614044, -0.16907043755054474, 0.033920884132385254, 0.265350341796875, 0.20765912532806396], [-0.7733310461044312, -0.0016959928907454014, -0.0018019817071035504, 0.11031562089920044, 0.413684606552124, -0.09633331000804901, -0.09901247173547745, 0.03036971390247345, -0.1784973442554474, -0.2512563169002533, 0.20790746808052063, -0.08794640749692917, -0.009474214166402817, -0.10686583817005157, -0.07169348001480103, 0.08375628292560577, 0.20033252239227295, -0.25381502509117126, -0.021863281726837158, 0.3029854893684387, -0.02512391284108162], [-0.25621047616004944, 0.21710224449634552, -0.10529931634664536, -0.24786528944969177, 0.0308535099029541, -0.20519857108592987, -0.04472412168979645, -0.2061769664287567, -0.02753647044301033, 0.5052486062049866, 0.2845548987388611, -0.18784765899181366, 0.18950435519218445, 0.04499521106481552, -0.1149493008852005, 0.04523777216672897, 0.03013511560857296, 0.395785391330719, -0.17499256134033203, 0.13005179166793823, -0.32893434166908264], [-0.19921228289604187, 0.27916964888572693, -0.5660448670387268, 0.07282427698373795, -0.04226595535874367, -0.26370424032211304, 0.2079557478427887, 0.10201108455657959, -0.026812221854925156, -0.4489192068576813, -0.21705077588558197, 0.049574289470911026, -1.1107290983200073, -0.13443788886070251, 0.30137553811073303, 0.09012704342603683, 0.11838392168283463, -0.1776864379644394, -0.05113877356052399, 0.06186104938387871, -0.720967173576355]], "_stack.Linear_2.bias": [0.42316678166389465, 0.3929431736469269, 0.15824227035045624, -0.03435295820236206, -0.12246225029230118, -0.3296109735965729, -0.016615822911262512, -0.1808689832687378, 0.3186626434326172, 0.10937724262475967, 0.585169792175293, 0.9930582046508789, 0.09118837118148804, -0.3879406452178955, 0.6049201488494873, 0.1285727173089981], "_stack.Linear_4.weight": [[0.2337178736925125, 0.32213979959487915, 0.05104154720902443, -0.29786911606788635, -0.2495032399892807, -0.29096031188964844, 0.07037276029586792, -0.14588001370429993, 0.13390862941741943, 0.32824844121932983, 0.36195969581604004, -0.06269942224025726, 0.14364220201969147, -0.2700859606266022, 0.42835909128189087, 0.59990394115448], [0.04658645763993263, 0.021436523646116257, -0.48554369807243347, 0.36284300684928894, 0.1259554624557495, 0.20136071741580963, -0.315211683511734, 0.1432497501373291, 0.23528198897838593, -0.6844385266304016, 0.14899148046970367, 0.288268506526947, -0.4652596712112427, -0.2499084621667862, -0.80776047706604, -0.7394644021987915], [0.07542024552822113, 0.028593113645911217, 0.30796778202056885, -0.038932640105485916, 0.07168309390544891, -0.09909267723560333, 0.035405516624450684, -0.4703708291053772, -0.030844973400235176, 0.23704081773757935, 0.27777791023254395, 0.19300712645053864, 0.7125691771507263, -0.12492137402296066, 0.3924870491027832, 0.3382188379764557], [0.29186058044433594, 0.15023605525493622, 0.21165555715560913, -0.41864290833473206, -0.01445982325822115, -0.03072083182632923, 0.07265704870223999, -0.4652790427207947, 0.0679042860865593, 0.2751123011112213, 0.5298672914505005, 0.26375892758369446, 0.6187397241592407, 0.17115497589111328, 0.1788027137517929, 0.38233882188796997], [0.21830740571022034, -0.01207836251705885, -0.21923668682575226, 0.13969360291957855, -0.1940024048089981, 0.11274375766515732, 0.274507075548172, 0.2570992112159729, -0.08537150919437408, -0.49304696917533875, 0.023289943113923073, 0.16226722300052643, -0.6132668256759644, -0.08651464432477951, -0.3934287428855896, -0.4653751850128174]], "_stack.Linear_4.bias": [0.4089544713497162, 0.07872532308101654, 0.4234321713447571, 0.06927859038114548, -0.0008069502655416727], "_stack.Linear_6.weight": [[-0.4628486931324005, 0.6890255808830261, -0.635482132434845, -0.3532228171825409, 0.2704891562461853]], "_stack.Linear_6.bias": [-0.3489803075790405]}