{
  "mean": [
    6.711412439589935,
    -2.404922559819596,
    6.737014924444704,
    -2.4085864189710575,
    2.5401574381800662,
    -1.0687830697752345,
    6.119420991770476,
    2.862838700976121
  ],
  "std": [
    1.468789689933511,
    1.2239999090894385,
    1.4734116926019447,
    1.225672308631583,
    2.513732147988882,
    0.6511378746522785,
    1.9288550375302482,
    1.0115692675248078
  ],
  "weights1": [
    [
    0.6385245,-0.309246,-0.14532658,-0.35616034,0.5093453,0.11568295,-0.6042094,-0.66455066],
    [
    2.2457767,-0.33207604,-1.1466901,0.021368248,-0.13481492,-0.38841066,-0.08689523,-0.02184677],
    [
    0.007496296,-0.016052242,0.019167138,0.041369535,-0.20771982,2.179482,-0.035711113,0.15784396],
    [
    0.25659266,-0.11540535,-0.3104191,-0.030123748,-0.4090993,0.28466025,-0.21126923,0.5378277],
    [
    -0.085972354,-0.1758228,0.14577703,-0.1972712,-1.3853911,-1.6816611,-0.03732954,1.1814435],
    [
    0.65665394,0.18061508,-1.7225069,0.2959348,0.4303503,0.68982184,-0.0377984,0.8594507],
    [
    -0.045525428,0.24599822,-0.04841616,0.20620377,-0.76666576,1.3778061,0.13267782,-0.2416165],
    [
    -0.041717455,0.20518473,0.16884755,0.032497488,0.7821268,-0.030229157,-0.07614642,-0.1396576],
    [
    -0.5555079,0.1279733,0.46303496,0.061325796,0.36739922,0.34270203,0.07491218,0.1748836],
    [
    -0.15020521,-0.04209857,0.5653095,-0.11865646,-0.6769129,-0.8338798,-0.5119792,0.28996116],
    [
    0.95194,-0.02163979,-0.34524137,0.11394305,-0.09949752,-0.11635377,-1.0121224,0.59359986],
    [
    -0.23684707,-0.1775403,0.7696775,-0.14277714,-0.46463713,-1.0952886,0.026055515,0.6633775],
    [
    0.8091732,0.024755696,0.94143736,-0.007265471,-0.8215323,-0.46538532,0.6738491,0.65716416],
    [
    0.006085601,-0.20326948,0.3818371,-0.21404296,-1.2649329,-2.3302827,0.03057011,0.92132914],
    [
    1.1957006,-0.56388885,-1.161613,0.2193677,-0.9991839,0.5692848,-0.16121602,-1.3170942],
    [
    -0.266219,0.37312144,-0.24284828,0.23543371,-0.13924953,0.11513979,0.07802513,1.378963],
    [
    -0.075319335,0.19125636,0.18986322,0.5129379,-0.359193,0.1134405,0.6560517,-1.1459038],
    [
    -0.78239435,0.7120103,-0.1310264,1.0559988,-0.0108352965,0.3114026,0.1836051,-1.0947921],
    [
    -0.53353214,0.7400585,-0.5048583,0.5480417,0.31658533,0.22603717,0.86739016,0.28112948],
    [
    -0.027002977,-0.053427827,0.2425876,-0.112368785,-1.6886523,-0.6584285,0.15130593,0.2594267],
    [
    -0.30616438,-0.1964043,-0.5179145,0.03938312,0.45701954,-0.8103899,0.8895077,0.09388461],
    [
    0.18470885,-0.5114261,0.06604156,0.35765767,-0.18195114,0.047098696,-0.56146395,1.2713051],
    [
    -0.5612493,0.49214628,0.8879496,0.006928313,0.28167215,-0.4767051,0.06542635,-0.1406138],
    [
    -0.38190174,0.040980328,0.011020731,-0.09499829,-2.3267152,-0.6932196,-0.17973478,0.5174012],
    [
    0.96151435,-0.041012283,-1.7686691,0.3808335,0.0029833824,0.4946081,0.20973149,-0.26911715],
    [
    -0.52697027,0.10179476,1.1719565,-0.059660695,0.06885217,0.2230799,-1.3276955,1.0024878],
    [
    -0.9925365,0.14946434,0.9158494,-0.18836267,-0.032840047,0.36566457,0.04584192,-0.2710165],
    [
    0.6594059,-0.3085261,0.76324147,-0.31144047,-0.5884014,-0.7609915,0.10846449,-0.14942186],
    [
    0.2883593,0.036830224,-1.0774187,-0.11060798,-0.15664473,-0.33562136,0.12984656,0.2942976],
    [
    -0.7083556,0.106429845,-0.3508281,0.061460026,0.14594392,0.19463353,1.4538612,-0.42428264],
    [
    1.3289282,-0.30015495,-0.91720814,0.04676409,-0.42138338,-0.6117936,-0.061268624,1.0424243],
    [
    -0.18666248,-0.2936901,-0.039670877,0.022712842,0.532875,0.35441223,0.07769765,-2.456411]
  ],
  "bias1": [
    0.26280826,
    -1.2097422,
    -2.9073405,
    -1.0322258,
    1.2256169,
    -0.4697643,
    -2.1587577,
    0.44704852,
    0.8590263,
    0.97096723,
    1.3190244,
    0.7553449,
    0.389722,
    0.7866527,
    0.64566785,
    -0.7857116,
    1.0173148,
    -0.22883527,
    -1.2893599,
    0.07821553,
    0.2973899,
    -0.33762428,
    0.26173678,
    1.0257556,
    0.15220374,
    -0.3988282,
    -0.32375008,
    1.2946074,
    1.457531,
    -0.46333474,
    -1.8760282,
    -0.10645058
  ],
  "weights2": [
    0.7006485,
    -0.8718218,
    1.7649041,
    -0.931671,
    -0.7466576,
    0.7764064,
    0.9845013,
    -0.50149035,
    -0.7019607,
    -0.70331854,
    -0.64783835,
    -0.7849995,
    0.51818633,
    1.3285066,
    0.5426452,
    -0.47293186,
    -0.44183797,
    -0.23532295,
    -0.49117878,
    -0.84610945,
    -0.33801422,
    -0.35395926,
    -0.42689282,
    0.7039005,
    -0.9572162,
    0.513164,
    -0.60731214,
    -0.75144506,
    -0.95309365,
    0.87163544,
    1.3838706,
    -0.34423903
  ],
  "bias2": 3.003965
}