{
    "num_node": 16,
    "num_input": 4,
    "mean": [
        780.3266543473073,
        337.74502439942114,
        0.17660135027823107,
        0.03559760534438675
    ],
    "std": [
        588.4393325579424,
        347.78965147393916,
        0.11837960353826046,
        0.036137641314229856
    ],
    "weights1": [
        [
            5.017594337463379,
            -1.6999731063842773,
            -4.249399185180664,
            4.357233047485352
        ],
        [
            1.22514009475708,
            -0.05698777362704277,
            -1.1352696418762207,
            0.6623992323875427
        ],
        [
            1.548034906387329,
            -0.2121642380952835,
            -1.4482817649841309,
            0.989736795425415
        ],
        [
            3.9155750274658203,
            -0.0032642288133502007,
            -3.0847129821777344,
            1.3976473808288574
        ],
        [
            -0.5753445029258728,
            1.8032187223434448,
            0.5293937921524048,
            -1.3216915130615234
        ],
        [
            0.3664938509464264,
            1.765816330909729,
            -0.34926965832710266,
            -1.1527619361877441
        ],
        [
            -1.9841289520263672,
            -1.9456206560134888,
            1.437685251235962,
            1.862837314605713
        ],
        [
            6.362653732299805,
            1.377545714378357,
            -5.328189373016357,
            -0.9246142506599426
        ],
        [
            4.472602367401123,
            -0.07329937070608139,
            -3.6034841537475586,
            0.3073467016220093
        ],
        [
            1.612686038017273,
            -0.3173043727874756,
            -1.462651252746582,
            1.044886589050293
        ],
        [
            4.179500579833984,
            0.34084057807922363,
            -3.1764414310455322,
            -0.7793272137641907
        ],
        [
            -0.15433816611766815,
            -6.106842041015625,
            0.1709304004907608,
            5.614779472351074
        ],
        [
            4.56641149520874,
            0.15780295431613922,
            -3.7869417667388916,
            -0.2850930392742157
        ],
        [
            1.4558327198028564,
            0.06120609864592552,
            -1.0132721662521362,
            0.4150354862213135
        ],
        [
            2.5633223056793213,
            -0.11045373976230621,
            -2.373420476913452,
            1.3754866123199463
        ],
        [
            0.29713988304138184,
            -3.1125714778900146,
            -0.17141097784042358,
            2.780672788619995
        ]
    ],
    "bias1": [
        1.9358336925506592,
        0.4949256181716919,
        0.6356547474861145,
        1.535343050956726,
        0.38005897402763367,
        0.530200719833374,
        -0.3524537682533264,
        0.18754993379116058,
        0.6098048686981201,
        0.6025018692016602,
        0.8821976780891418,
        -0.17447204887866974,
        0.1124347448348999,
        0.6936121582984924,
        1.035212755203247,
        1.2616097927093506
    ],
    "weights2": [
        4.4265899658203125,
        -0.7389451861381531,
        -1.756372332572937,
        -3.2180745601654053,
        -1.395720362663269,
        -4.343693733215332,
        -2.2820637226104736,
        4.260663032531738,
        -4.105357646942139,
        -0.8080188632011414,
        3.727612257003784,
        5.517873287200928,
        -4.299167156219482,
        -1.5394550561904907,
        -1.8916281461715698,
        -5.225252151489258
    ],
    "bias2": 6.313780784606934
}