{"metadata": {"version": 1, "features": ["Chi2", "nVPHits", "Eta"]}, "_stack.Linear_0.weight": [[0.10285995155572891, -0.8777040839195251, 0.12387692183256149], [-0.2630741596221924, -0.06691712141036987, -0.16671185195446014], [-0.5421798229217529, -0.09534398466348648, -0.48929062485694885], [0.1306287795305252, 0.6908318996429443, 0.049823567271232605], [-0.2782636284828186, 0.9706617593765259, 0.14059466123580933], [0.013974929228425026, 1.2018351554870605, -1.5338585376739502], [-0.4912688732147217, -0.5203590393066406, -0.2780286371707916], [-0.0065569267608225346, -0.08472922444343567, -0.4916349947452545]], "_stack.Linear_0.bias": [2.3595309257507324, 0.008370215073227882, -0.35782748460769653, -0.90959632396698, -0.9810307025909424, -0.21004140377044678, -0.3153853416442871, 2.9223265647888184], "_stack.Linear_2.weight": [[-1.6645272970199585, 0.23378148674964905, 0.1475614309310913, 0.777851402759552, 0.42701640725135803, 0.8938690423965454, 0.21205124258995056, -0.40317919850349426], [-1.2316994667053223, 0.32152119278907776, -0.007645775564014912, 0.6512136459350586, -0.33927983045578003, 0.05679507926106453, -0.13317249715328217, -0.30510377883911133], [-0.07374054938554764, -0.13086634874343872, 0.19373317062854767, -0.21346315741539001, 0.10885339975357056, -0.0348813496530056, -0.05462939664721489, -0.3182673156261444], [-3.265888214111328, -0.10313940793275833, -0.32740160822868347, 0.025886327028274536, 0.9240333437919617, -0.04044651612639427, -0.1736713945865631, -0.16090057790279388], [0.18976929783821106, -0.08710746467113495, -0.13969101011753082, 0.2688276767730713, 0.30249661207199097, -0.7159939408302307, -0.07638846337795258, -2.533921957015991], [-1.624313473701477, 0.30183175206184387, -0.05222386494278908, 0.28704288601875305, 0.7593066692352295, -0.8141227960586548, -0.20622827112674713, -0.26934847235679626], [-0.7842254042625427, 0.15638992190361023, -0.012579485774040222, 0.40084514021873474, 0.7578454613685608, 0.3916122019290924, 0.3184369206428528, -0.8456860780715942], [1.3180090188980103, 0.005828108172863722, -0.2647566497325897, -0.4537183940410614, -0.1691356897354126, -1.887067198753357, 0.08503349870443344, 0.45169055461883545]], "_stack.Linear_2.bias": [0.06820102035999298, -2.2016351222991943, -0.014036284759640694, -0.6386538743972778, -0.1441548615694046, -0.6725574135780334, -2.662891149520874, 0.963140606880188], "_stack.Linear_4.weight": [[0.9041568636894226, -0.6695583462715149, -0.24621781706809998, 1.0500285625457764, 2.3313732147216797, -1.5176632404327393, -1.2009714841842651, -1.2507596015930176]], "_stack.Linear_4.bias": [0.2935914099216461], "PiecewiseLinearTransform_6.quantiles": [0.0, 0.12764040642976762, 0.13004573577642442, 0.13192802464962006, 0.1345922108888626, 0.13646841779351235, 0.13822736734151841, 0.1400860591828823, 0.14222408497333527, 0.14441033032536504, 0.14692778259515762, 0.14922807621955872, 0.1518839923143387, 0.1548566825389862, 0.15704411375522614, 0.15977166950702668, 0.1635286638736725, 0.16773137801885607, 0.17175194782018666, 0.17749817985296246, 0.18356551349163056, 0.18805639615654945, 0.19302616971731187, 0.19865080389380457, 0.20442173838615418, 0.20883684381842615, 0.2150024099946022, 0.22100857838988308, 0.2263764774799347, 0.23124542343616483, 0.23400509983301163, 0.23829748934507372, 0.2430505884885788, 0.24671600604057312, 0.2511338826417923, 0.2556958439946175, 0.26033564591407776, 0.26579745560884477, 0.2713306882381439, 0.2761661562919617, 0.28199002265930173, 0.28741348898410796, 0.29252770125865935, 0.29677566558122637, 0.30144474291801454, 0.30629296213388446, 0.3120911408662796, 0.31678003299236296, 0.32148451542854306, 0.3266129124164581, 0.33259394168853756, 0.3372002018690109, 0.34385952854156493, 0.3501182247996331, 0.3563969550132752, 0.3634939298033714, 0.3710552937984467, 0.3762786989808083, 0.3822495206594467, 0.3867179110646248, 0.3933203506469727, 0.397147552728653, 0.4005428478717804, 0.40361648911237713, 0.40587494111061095, 0.40873060256242755, 0.41116277599334716, 0.41390144884586333, 0.41646772241592406, 0.41871113860607145, 0.420725017786026, 0.42257512712478634, 0.4246232521533966, 0.4266488149762153, 0.42879348897933967, 0.4305706858634949, 0.43240174651145935, 0.43433379292488095, 0.43588039803504947, 0.43776675534248355, 0.4397247588634491, 0.44160906064510347, 0.4432967985868454, 0.4455274725556373, 0.4474792640209198, 0.44959430843591686, 0.45177093875408175, 0.45393409878015517, 0.45611590933799745, 0.45834857171773913, 0.4605538207292557, 0.4630944628119469, 0.4656121475696564, 0.46767925029993057, 0.47064866876602174, 0.4735866776108743, 0.4764069190025329, 0.4795948604941368, 0.4823083379268646, 0.48555587977170944, 0.4885009229183197, 0.49250272303819653, 0.49562355601787567, 0.49933447068929676, 0.5038613634109499, 0.5078309255838395, 0.5121928853988648, 0.5169897508621216, 0.5212704424858094, 0.525992980837822, 0.5305697643756867, 0.5356527327299119, 0.5401394329071046, 0.5453286910057067, 0.5505783782005309, 0.5556980735063553, 0.5615230460166931, 0.5662115116119384, 0.5708461761474609, 0.5756617752313613, 0.5804628849029542, 0.5854029421806335, 0.5896236634254457, 0.5945010383129119, 0.5997827363014221, 0.6084668099880218, 0.6236418931484222, 0.6357000186443329, 0.646627495765686, 0.6589461760520936, 0.670449013710022, 0.6835752540826798, 0.6974093966484068, 0.7074033558368683, 0.7165006294250488, 0.725614504814148, 0.7337274894714356, 0.7422347512245181, 0.7506616723537445, 0.7587742531299592, 0.7665389394760133, 0.7740568821430206, 0.780485044002533, 0.7880732469558717, 0.7941617941856385, 0.8001834547519684, 0.8053931310176847, 0.8104327256679534, 0.8160943760871888, 0.8211396423578259, 0.8268112301826477, 0.8309954748153686, 0.8352333650588989, 0.8398877522945403, 0.844491528749466, 0.8486174821853638, 0.8520940589904785, 0.8555722252130509, 0.8581843299865723, 0.8605391490459442, 0.8625456523895264, 0.8649802514314652, 0.8671745443344117, 0.8704217472076414, 0.8750007643699645, 0.8801941752433777, 0.885081568241119, 0.8893825012445449, 0.8936536345481872, 0.8977054264545441, 0.9029840147495269, 0.9078883287906647, 0.9128219571113587, 0.9166786694526672, 0.9203568530082702, 0.9238386064767838, 0.9281269445419311, 0.9318581639528274, 0.9351141579151154, 0.9395366269350054, 0.9439684391021729, 0.9484145615100861, 0.9524646272659301, 0.9565377203226089, 0.9595225930213929, 0.9624774199724198, 0.9653690700531006, 0.9696888765096665, 0.976113495826721, 0.9809161629676819, 0.9840819001197816, 0.986533959031105, 0.988925826072693, 0.9902243674993515, 0.9914478642940523, 0.9930804085731506, 0.9943623542785645, 0.9953060010671615, 0.9964634692668914, 0.9979804606437683, 1.0]}