{"metadata": {"version": 1, "features": ["Chi2", "NDOF", "LogPt", "Eta", "FitVeloChi2", "FitTChi2", "FitTNDOF", "FitMatchChi2"]}, "_stack.Linear_0.weight": [[-0.5060918927192688, 0.18135486543178558, 0.5533119440078735, 0.4924502372741699, 0.3394012749195099, 0.3118650019168854, 0.11033832281827927, -2.3959197998046875], [0.11217731982469559, -0.1560308039188385, -0.6893842816352844, 0.026326792314648628, -0.263045072555542, -0.20240384340286255, 0.09858153760433197, -0.057658225297927856], [-0.13476449251174927, 0.8513836860656738, -2.382535457611084, 0.7937091588973999, -0.5103649497032166, 0.11015097796916962, -0.43705275654792786, 0.07080686092376709], [0.03603580594062805, 0.14766879379749298, -2.3052546977996826, -0.38040274381637573, 0.18996921181678772, -0.08887264132499695, 1.0185521841049194, -0.07218161225318909], [-0.05584592744708061, 0.1859651356935501, 3.122745990753174, -0.19198186695575714, 0.03578513488173485, 0.049587588757276535, 0.42044082283973694, -0.17071712017059326], [0.26079845428466797, 0.24604061245918274, -2.119811534881592, -0.35951974987983704, -0.20120535790920258, -0.20502658188343048, 0.3601587414741516, 0.26098912954330444], [0.13606399297714233, 0.09594295918941498, 2.609611749649048, -0.9806751012802124, 0.17255407571792603, 0.06835789978504181, -2.034576892852783, -0.2502526640892029], [0.05647686496376991, -0.7182825803756714, -0.1081666573882103, 2.8927958011627197, 0.21031682193279266, -0.05305799841880798, 0.747852623462677, -0.11892051994800568], [-0.03877951577305794, 0.1737993061542511, 1.7014788389205933, -0.4031771719455719, 0.012550249695777893, -0.11383897811174393, 0.4691268801689148, -0.7637759447097778], [-0.09932993352413177, -0.3101753890514374, -0.5751189589500427, 0.011108682490885258, -0.15724310278892517, 0.32091307640075684, -0.28419479727745056, -0.08107501268386841], [-0.7880212068557739, 0.03740803152322769, 0.27901965379714966, -0.31745344400405884, 0.7917669415473938, 0.6615238785743713, 0.48518988490104675, -4.433417320251465], [-0.02374296635389328, 0.11187189817428589, -0.13827276229858398, 2.130897045135498, 0.07144927233457565, 0.018476059660315514, -0.26380810141563416, 0.04067996144294739], [0.3341502845287323, -1.6300907135009766, 1.1501123905181885, 0.6723873019218445, 0.4433062970638275, -0.33822113275527954, 1.6417769193649292, -0.09832718968391418]], "_stack.Linear_0.bias": [-2.2293882369995117, 0.31402426958084106, 4.915078639984131, 5.698734760284424, -5.346080780029297, -0.9335477352142334, -1.2319992780685425, 0.9741621017456055, -1.2108054161071777, -0.09401105344295502, -1.3755757808685303, -8.877267837524414, 1.635116696357727], "_stack.Linear_2.weight": [[-0.5189271569252014, -0.06419798731803894, 0.7865979671478271, -0.02711660787463188, -0.7096353769302368, -0.08516380935907364, -0.1733107715845108, -0.34632179141044617, 0.14489556849002838, 0.23739810287952423, -8.148849487304688, -0.45216071605682373, 0.25697416067123413], [0.24378082156181335, 0.162931427359581, -0.22248272597789764, -0.22051115334033966, 0.8761506080627441, -0.013413144275546074, -0.05415402725338936, 0.09994298964738846, 0.5143717527389526, 0.05782364681363106, -0.6618114113807678, 0.4763658940792084, -0.1359855830669403], [-0.09987710416316986, 0.022950567305088043, -0.032054632902145386, 0.3141106963157654, 0.4905342161655426, -0.7244023084640503, -0.042697973549366, -0.05404747650027275, -0.351955771446228, -0.29034915566444397, -0.3966907262802124, 0.4293372333049774, -0.416615754365921], [-0.29941001534461975, 0.22949211299419403, -0.1613963544368744, -0.1364881992340088, -0.01183632854372263, 0.006038267631083727, -0.47575661540031433, 0.5671367645263672, 0.06835944950580597, 0.04173658788204193, -2.1903419494628906, -5.265525817871094, 0.46031278371810913], [0.5301988124847412, -0.35591891407966614, 0.3274792730808258, 0.7123569250106812, -1.6699475049972534, -0.912517249584198, -0.8176468014717102, 0.06500823050737381, 0.34734368324279785, 0.35197001695632935, 3.3298304080963135, 3.7978756427764893, -2.066969871520996], [2.4093523025512695, -0.1354650855064392, -3.339742422103882, -2.6775929927825928, 0.07905973494052887, -0.28897958993911743, -0.48023170232772827, -3.1009271144866943, 0.13580092787742615, 0.5798458456993103, 6.8531951904296875, -1.076816201210022, 1.0046950578689575], [-0.05608297511935234, 0.21793396770954132, 0.09246984124183655, -0.11191481351852417, -0.37519869208335876, -0.20188702642917633, -0.05764007940888405, -0.0022905864752829075, -0.8853046894073486, -0.01914740726351738, 0.13427689671516418, 0.06506408751010895, 0.050174955278635025], [-0.0811321809887886, -0.04484853893518448, 0.11276470124721527, -0.2986353635787964, -0.34715986251831055, -0.03816637024283409, -0.27384668588638306, 0.024382250383496284, -0.24123741686344147, -0.032732874155044556, 0.07375659048557281, -0.13499492406845093, 0.09754844754934311], [-0.200040802359581, 0.17528842389583588, 0.42859792709350586, -0.04753774031996727, -0.49525222182273865, -0.07477763295173645, -0.09695027768611908, 0.04950251057744026, 0.23372671008110046, 0.027106566354632378, 0.05787058547139168, 0.42421871423721313, -0.1939498335123062], [-0.6766940951347351, -0.1132025346159935, -0.25314193964004517, -0.6041358709335327, 0.21071860194206238, -1.1117136478424072, -0.06496058404445648, 0.07937105000019073, 0.6348842978477478, 0.051356054842472076, -0.04180707037448883, 0.9954482316970825, -0.32917362451553345], [0.972356915473938, -0.15849047899246216, -0.08623384684324265, 0.138776496052742, 0.03914503753185272, -0.15619374811649323, 0.4269108176231384, -5.037639141082764, 0.09150901436805725, -0.02552838623523712, 2.233837127685547, -2.1561663150787354, -2.8192765712738037], [-9.32310962677002, 0.009341595694422722, 0.797264039516449, -1.0963165760040283, -0.7527111172676086, -0.4417971670627594, 1.6864111423492432, 0.46669062972068787, -0.1177273690700531, -0.058100320398807526, -12.012020111083984, -0.6044285893440247, -0.4827575385570526], [0.254635214805603, 0.10190222412347794, 0.3955191671848297, -0.7933765053749084, 0.21999303996562958, 0.372250497341156, -0.00833562109619379, 0.3216952681541443, 0.2156049758195877, -0.07775738090276718, 1.9214216470718384, 0.2565406262874603, -0.33768200874328613]], "_stack.Linear_2.bias": [5.22319221496582, -2.6407899856567383, -0.7064324617385864, 1.934121012687683, -2.4410362243652344, 2.925206184387207, 0.04393324628472328, -0.07898680865764618, 5.629560470581055, -3.722602367401123, -0.9456384181976318, 0.4536721706390381, -5.996551513671875], "_stack.Linear_4.weight": [[-0.21300698816776276, 0.26205721497535706, 0.09489616006612778, -0.26148778200149536, 0.39951980113983154, 0.1511722058057785, -0.017764687538146973, 0.13544349372386932, -0.2595086693763733, 0.07558585703372955, 0.10962478816509247, -0.12345238029956818, 0.1650802344083786]], "_stack.Linear_4.bias": [-1.5328294038772583], "PiecewiseLinearTransform_6.quantiles": [0.0, 0.006432199872500512, 0.01278224322765395, 0.019052122547977487, 0.02524381070629829, 0.03135926096575352, 0.03740040697979034, 0.04336916279216592, 0.049267422836947405, 0.05509706193851195, 0.06085993531154671, 0.06655787856104882, 0.07219270768232544, 0.07776621906099371, 0.08328018947298077, 0.08873637608452375, 0.0941365164521698, 0.09948232852277605, 0.10477551063350962, 0.11001774151184764, 0.11521068027557721, 0.12035596643279547, 0.12545521988190955, 0.13051004091163657, 0.1355220102010036, 0.1404926888193478, 0.14542361822631622, 0.150316320271866, 0.15517229719626424, 0.15999303163008805, 0.1647799865942245, 0.16953460549987068, 0.1742583121485337, 0.17895251073203067, 0.1836185858324886, 0.18825790242234464, 0.19287180586434582, 0.19746162191154926, 0.202028656707322, 0.20657419678534114, 0.21109950906959374, 0.21560584087437684, 0.22009441990429754, 0.22456645425427288, 0.2290231324095299, 0.23346562324560569, 0.23789507602834725, 0.2423126204139117, 0.24671936644876602, 0.25111640456968726, 0.2555048056037625, 0.2598856207683887, 0.264259881671273, 0.2686286003104324, 0.2729927690741939, 0.27735336074119454, 0.28171132848038133, 0.2860676058510113, 0.2904231068026515, 0.2947787256751789, 0.2991353371987805, 0.3034937964939533, 0.30785493907150435, 0.3122195808325507, 0.31658851806851923, 0.32096252746114706, 0.3253423660824811, 0.32972877139487844, 0.3341224612510059, 0.3385241338938406, 0.34293446795666954, 0.3473541224630896, 0.35178373682700786, 0.35622393085264126, 0.36067530473451676, 0.36513843905747134, 0.36961389479665197, 0.3741022133175156, 0.3786039163758292, 0.3831195061176697, 0.3876494650794241, 0.39219425618778936, 0.3967543227597724, 0.4013300885026902, 0.40592195751416965, 0.41053031428214776, 0.4151555236848714, 0.41979793099089757, 0.4244578618590932, 0.42913562233863517, 0.43383149886901046, 0.43854575828001596, 0.44327864779175863, 0.44803039501465536, 0.45280120794943307, 0.4575912749871287, 0.46240076490908916, 0.46722982688697134, 0.47207859048274214, 0.4769471656486785, 0.4818356427273673, 0.4867440924517054, 0.4916725659448998, 0.4966210947204673, 0.5015896906822348, 0.5065783461243393, 0.5115870337312275, 0.5166157065776564, 0.5216642981286929, 0.5267327222397137, 0.5318208731564058, 0.5369286255147662, 0.5420558343411015, 0.5472023350520288, 0.5523679434544748, 0.5575524557456765, 0.5627556485131806, 0.567977278734844, 0.5732170837788337, 0.5784747814036264, 0.583750069758009, 0.5890426273810784, 0.5943521132022412, 0.5996781665412145, 0.6050204071080251, 0.6103784350030097, 0.6157518307168152, 0.6211401551303984, 0.6265429495150262, 0.6319597355322754, 0.6373900152340327, 0.6428332710624951, 0.6482889658501693, 0.653756542819872, 0.6592354255847303, 0.6647250181481807, 0.6702247049039702, 0.6757338506361555, 0.6812518005191035, 0.6867778801174909, 0.6923113953863045, 0.697851632670841, 0.7033978587067075, 0.7089493206198204, 0.7145052459264067, 0.7200648425330032, 0.7256272987364565, 0.7311917832239235, 0.736757445072871, 0.7423234137510757, 0.7478887991166243, 0.7534526914179136, 0.7590141612936504, 0.7645722597728515, 0.7701260182748435, 0.7756744486092633, 0.7812165429760576, 0.7867512739654831, 0.7922775945581065, 0.7977944381248047, 0.8033007184267642, 0.808795329615482, 0.8142771462327646, 0.8197450232107288, 0.8251977958718015, 0.8306342799287193, 0.8360532714845288, 0.8414535470325868, 0.84683386345656, 0.8521929580304252, 0.857529548418469, 0.8628423326752881, 0.8681299892457892, 0.8733911769651891, 0.8786245350590144, 0.8838286831431018, 0.8890022212235981, 0.8941437296969599, 0.8992517693499539, 0.9043248813596567, 0.9093615872934551, 0.9143603891090457, 0.9193197691544353, 0.9242381901679404, 0.9291140952781878, 0.933945908004114, 0.9387320322549658, 0.9434708523302998, 0.9481607329199827, 0.9528000191041912, 0.9573870363534118, 0.9619200905284413, 0.9663974678803863, 0.9708174350506634, 0.9751782390709993, 0.9794781073634307, 0.9837152477403039, 0.9878878484042759, 0.9919940779483132, 0.9960320853556924, 1.0]}