{"metadata": {"version": 1, "features": ["Chi2", "NDOF", "LogPt", "Eta", "FitVeloChi2", "FitTChi2", "FitTNDOF", "FitMatchChi2"]}, "_stack.Linear_0.weight": [[0.005642326548695564, 0.0026274281553924084, 0.6958804130554199, 2.942565679550171, -0.062118835747241974, 0.015279172919690609, -0.218461811542511, 0.21871045231819153], [0.006990890018641949, 1.0730828046798706, -3.1948068141937256, 0.9296013116836548, -0.3338097631931305, 0.03968407213687897, -1.633740782737732, 0.17474649846553802], [-0.18113887310028076, 0.14116905629634857, -0.40065276622772217, -0.23660552501678467, -0.1760481297969818, -0.010568040423095226, -0.5541664361953735, 0.027639778330922127], [-0.1692384034395218, 0.4973028004169464, 2.0105278491973877, -5.1426167488098145, -0.2612517178058624, 0.11194580793380737, 0.4551565945148468, 0.06469979882240295], [-0.22916610538959503, -0.16275224089622498, -0.24700669944286346, -0.33112430572509766, -0.20638342201709747, 0.30391380190849304, 0.15776202082633972, 0.17135761678218842], [-0.3927144408226013, 0.8618141412734985, -3.314321279525757, -1.7365739345550537, -0.30137279629707336, 0.18399091064929962, 1.695261001586914, 0.38743096590042114], [-0.15679992735385895, 0.02229931950569153, 2.4053406715393066, 0.05353135988116264, 0.16129545867443085, 0.18545861542224884, -0.43906059861183167, 0.16668857634067535], [-0.22117063403129578, -2.0245516300201416, 1.657218337059021, 0.3952946066856384, 0.7146004438400269, 0.22773124277591705, 2.4406018257141113, 0.249092236161232], [0.17983368039131165, 0.2195364087820053, -0.3997057378292084, 1.4194066524505615, -0.28763508796691895, 0.7397739887237549, -2.422543525695801, -0.010507243685424328], [0.033703677356243134, 0.2416888326406479, 2.6142921447753906, 2.2198500633239746, -0.07390175014734268, -0.08345511555671692, -0.29224923253059387, -0.4544622302055359], [-0.12507294118404388, 0.09121906757354736, 2.3755276203155518, -1.0664945840835571, 0.27699026465415955, 0.04971668869256973, 1.0247540473937988, 0.09195785969495773], [0.04730008915066719, -0.003967757802456617, 1.997300624847412, -1.3010557889938354, -0.02720126137137413, 0.2541840970516205, -3.8379693031311035, -0.0159707423299551], [0.057166729122400284, -1.0711925029754639, 0.825353741645813, -1.6659603118896484, 0.7196148633956909, 0.03624953329563141, 0.8991569876670837, 0.032188642770051956]], "_stack.Linear_0.bias": [-10.470541954040527, 4.701612949371338, 0.9188346862792969, 1.6196867227554321, -0.01948065310716629, 2.817089319229126, -12.38998794555664, 5.26005744934082, -7.591851234436035, -8.525601387023926, -9.642744064331055, 10.691269874572754, 0.19077366590499878], "_stack.Linear_2.weight": [[-0.40730157494544983, 0.0628921315073967, 0.027899274602532387, 0.15370948612689972, 0.016613315790891647, -0.0662844330072403, -1.2441661357879639, 0.37552469968795776, -0.6062232851982117, -0.09986409544944763, -0.5191277861595154, 2.223719596862793, 0.08088129013776779], [-0.7790536880493164, 0.10710421949625015, -0.16596710681915283, 0.0009342961711809039, 0.1985412985086441, -0.13682416081428528, -4.2638840675354, -0.05484703183174133, -0.14322569966316223, -0.2600117325782776, -0.2889329493045807, 0.4270941913127899, -0.1531330645084381], [-0.03779585286974907, -0.10794398188591003, -0.12477298080921173, 0.28746819496154785, -0.0017979169497266412, -16.278038024902344, 2.397725820541382, -0.09157253056764603, -0.0368206724524498, -0.07555166631937027, -0.26204732060432434, -0.12252844870090485, 0.17607256770133972], [-0.9020119905471802, 0.36539697647094727, 0.010027150623500347, -1.2311688661575317, -0.05342186242341995, 0.8369569182395935, 5.1096086502075195, 1.9221855401992798, 0.12315033376216888, -0.024591568857431412, -0.6626985669136047, -1.1788384914398193, -0.9603517651557922], [-0.28327876329421997, -0.18044376373291016, -0.0039628613740205765, 0.14070641994476318, 0.10044338554143906, -0.09767383337020874, 0.7150737047195435, 0.18522027134895325, -0.10801094025373459, 0.7746448516845703, -0.21925538778305054, -0.49309563636779785, -0.2720398008823395], [-0.3602108955383301, 0.08172554522752762, 0.20454303920269012, -0.26244404911994934, -0.0666956827044487, 0.554566502571106, 0.057802870869636536, 0.7762815356254578, 0.05543038249015808, -0.011491559445858002, -0.7621040344238281, -0.24341225624084473, -0.4103699326515198], [-0.9568450450897217, 0.2133871465921402, -0.16842935979366302, 2.0434131622314453, -0.006051004398614168, -0.9868459701538086, -1.4905056953430176, -0.7440811991691589, -0.2589324712753296, -0.8209982514381409, -1.152633547782898, 0.2506605386734009, 0.748471200466156], [-0.767693281173706, 0.06217655912041664, 0.20183835923671722, 0.9420017600059509, 0.03479810431599617, -0.002277435502037406, 2.444397211074829, -0.14244374632835388, -0.03165715932846069, -0.7795231342315674, 0.43343716859817505, 0.08337327837944031, 0.008305063471198082], [0.47706493735313416, -0.19042563438415527, -0.013925700448453426, 0.1794583797454834, 0.13739310204982758, -0.01857094280421734, 0.9550071954727173, -0.2563134729862213, 0.059553664177656174, 0.7152739763259888, 0.5377342104911804, -0.5756935477256775, -0.45911598205566406], [-0.20252971351146698, -0.24926027655601501, 0.15146629512310028, 0.05851813033223152, -0.11754794418811798, 0.0032134451903402805, -0.14268605411052704, 0.043129853904247284, 0.07801518589258194, 1.1157816648483276, 0.04772770404815674, -0.6395787596702576, 0.13067469000816345], [-0.34345337748527527, -0.026285255327820778, -0.07886748760938644, -0.20031556487083435, 0.03665765002369881, 0.2556668221950531, -0.25809264183044434, -0.011608008295297623, 0.08216056227684021, -0.2936590015888214, -0.03741440549492836, -0.19787143170833588, -0.21276338398456573], [0.06009636074304581, 0.3867839574813843, 0.14546731114387512, 0.06361691653728485, 0.10060129314661026, 0.21653038263320923, -1.930633306503296, -0.7323228716850281, 0.02471690997481346, 0.33899039030075073, -1.1246925592422485, -0.37271955609321594, -0.05379090458154678], [-0.28499042987823486, -0.6663800477981567, -0.03517400473356247, -0.5616335868835449, -0.1801142543554306, 0.14989981055259705, 1.4766570329666138, 0.009853951632976532, 0.04519706964492798, -0.3863421082496643, 0.05259948968887329, -0.18929584324359894, -0.16121956706047058]], "_stack.Linear_2.bias": [3.592731475830078, 8.165002822875977, -8.060302734375, -2.220201015472412, -7.113861560821533, 6.80214262008667, 1.1880435943603516, -7.589012622833252, -5.581451416015625, -5.695772171020508, 0.12791739404201508, 5.155455112457275, 8.011418342590332], "_stack.Linear_4.weight": [[-0.14742639660835266, 0.5599804520606995, -0.6246086359024048, -0.14162474870681763, 0.19822610914707184, -0.17742063105106354, -0.25188711285591125, 0.3074621260166168, 0.19985322654247284, 0.14164431393146515, 0.0015541811008006334, -0.16270865499973297, -0.15335600078105927]], "_stack.Linear_4.bias": [-1.9009820222854614], "PiecewiseLinearTransform_6.quantiles": [0.0, 0.0006061272541992367, 0.0009648338800761849, 0.0012541323574259877, 0.001509367189370096, 0.001744014077121392, 0.001967027568258345, 0.0021789147602394223, 0.002384310770779848, 0.0025862566879950462, 0.002785626002587378, 0.002984100993257016, 0.0031760575342923403, 0.0033706081304699185, 0.0035601706579327587, 0.003754778574220836, 0.003950475815683603, 0.004157792462036015, 0.004359330520033836, 0.00456027964130044, 0.004772822093218564, 0.00498394862189889, 0.005198194747790694, 0.005407965386286378, 0.005627127412706613, 0.005851967399939895, 0.006082054045051336, 0.0063017538907006385, 0.0065339295975863935, 0.0067684659771621225, 0.006996259996667505, 0.007236181734129786, 0.007466364648193121, 0.00771703346259892, 0.007962233223021031, 0.008219692334532736, 0.008483954079449177, 0.008750069923698903, 0.009012192010879517, 0.00928500596806407, 0.009542323015630245, 0.009816465053707361, 0.010084379516541958, 0.010370661694556475, 0.010655486956238747, 0.01092877040617168, 0.011223958626389504, 0.01152701546996832, 0.011828108333051205, 0.012145553110167384, 0.012453907635062933, 0.0127670642118901, 0.013075323648750784, 0.01340057094208896, 0.013725396439433098, 0.014062829930335283, 0.014406265683472159, 0.014742058468982567, 0.015076386272907256, 0.015441171515733002, 0.015789896249771118, 0.01614824352040887, 0.01655171180516481, 0.0169350455403328, 0.01732809075713158, 0.01774048462510109, 0.018149053260684014, 0.018555126469582323, 0.01897929181158543, 0.0194043648801744, 0.019842968136072156, 0.020305194452404973, 0.020775059372186662, 0.021252445142716167, 0.021762090899050235, 0.02228631405159831, 0.02279950585961342, 0.023316266149282457, 0.023858833983540537, 0.02440329519659281, 0.024965899363160134, 0.02552209017053247, 0.02611109317094086, 0.026692539915442473, 0.02732613511383534, 0.027956083584576838, 0.028623576290905478, 0.029272979125380516, 0.029961220845580103, 0.03065292477980256, 0.0313796379417181, 0.032117683820426464, 0.0328778110742569, 0.03366848957538605, 0.03447915701568127, 0.035324831828475, 0.036160408467054365, 0.03704238177835942, 0.03793314576148987, 0.03889843636006117, 0.03985592722892761, 0.040839964903891086, 0.041860361993312833, 0.04293321508169174, 0.04400913855433464, 0.0451122260093689, 0.04625193129479885, 0.0474248177036643, 0.048631467789411555, 0.04991528664529323, 0.05120375327765943, 0.052456110164523145, 0.05385767358541489, 0.05522852467745542, 0.05660987246036527, 0.0580907378718257, 0.059610190153121946, 0.06114104048162694, 0.06275938773155212, 0.0644218663573265, 0.06610167980194091, 0.06786284840106964, 0.06967782133817671, 0.07164912453293801, 0.07359146010875701, 0.07563769631087777, 0.07773878690600397, 0.0799045869708061, 0.08213656651973722, 0.08439885030686858, 0.08679006054997443, 0.08929403352737426, 0.09185276877880101, 0.09448753069341186, 0.0971290245652199, 0.10003280721604825, 0.1029252736568452, 0.10577708216011525, 0.1090093959569931, 0.11227843931317324, 0.11550185978412619, 0.11896231204271314, 0.12240877395868284, 0.12618336713314054, 0.1299973726272583, 0.13358590319752695, 0.13778005772829055, 0.1420607241988182, 0.14655771374702456, 0.15148563456535338, 0.15630016624927517, 0.1613343878090382, 0.16646163105964673, 0.171905705690384, 0.17728411436080926, 0.18302369654178624, 0.1890204813480377, 0.19522150793671608, 0.2013877346515658, 0.208204243451357, 0.21538447082042694, 0.2225082649588585, 0.23015260738134385, 0.23816020333766968, 0.2461370522975921, 0.2547748777270317, 0.26390684509277335, 0.27324792909622175, 0.28373147273063665, 0.2938227862119675, 0.30452780067920654, 0.31598275190591824, 0.32776771283149697, 0.34000133931636756, 0.3523285349607472, 0.3659185796976091, 0.3799720344543456, 0.3948133127689362, 0.41007462167739867, 0.4264005162119867, 0.44354071974754333, 0.4617621209025383, 0.4805495200157165, 0.5005228470563893, 0.5223058958053589, 0.5445293802022935, 0.5671256036758434, 0.5896048140525818, 0.6145920047760007, 0.6385746116638181, 0.6648137593269356, 0.692010550737381, 0.7191351661682128, 0.7470827316045761, 0.774157190799713, 0.8033195561170579, 0.8331730184555057, 0.8660953651666643, 0.900906369924545, 0.9389254753589634, 1.0]}