{"metadata": {"version": 1, "features": ["Chi2", "NDOF", "LogPt", "Eta", "FitVeloChi2", "nUTHits", "nUTOutliers"]}, "_stack.Linear_0.weight": [[0.07185714691877365, -0.5282456278800964, 0.4463690519332886, 1.333736538887024, -0.09143168479204178, 0.4661582112312317, -0.02304893732070923], [-0.24467791616916656, 0.12158362567424774, 0.6637664437294006, 0.8783684372901917, 0.21577239036560059, 0.5919478535652161, -3.2303998470306396], [-0.11019115149974823, 0.6203499436378479, 0.07575920969247818, -0.5949984192848206, -0.16045401990413666, 0.9095723628997803, -0.8241378664970398], [0.24965673685073853, -0.1749398559331894, 0.48376598954200745, 0.9396357536315918, -0.1393265277147293, -0.9060332775115967, 1.28396475315094], [-0.37582656741142273, -0.3620692491531372, -0.08931363373994827, 0.30873817205429077, 0.037843991070985794, 0.1451556384563446, -0.27705052495002747], [0.001379823312163353, -0.0029438913334161043, 0.42740994691848755, 0.09169881045818329, -0.001606298959814012, -1.7957009077072144, -0.09105820953845978], [-0.2800314724445343, -0.18624906241893768, 0.187842458486557, -0.20683778822422028, 0.19107693433761597, -0.19775427877902985, -0.12427105754613876], [0.00804391410201788, -0.34684494137763977, -0.003773964010179043, -0.038097210228443146, -0.03395495191216469, -0.0755566880106926, 0.29797860980033875], [-0.025905201211571693, -0.025548622012138367, 0.4542074501514435, -1.6097220182418823, 0.01946672797203064, 0.1898791640996933, -1.2122557163238525], [-0.1763228327035904, -0.3645481467247009, -0.14632369577884674, 0.12623995542526245, -0.34984448552131653, -0.36717942357063293, 0.04795331135392189], [-0.27228716015815735, -0.33112722635269165, -0.14562450349330902, -0.060852598398923874, -0.34345829486846924, -0.25237736105918884, 0.024782318621873856], [-0.35640978813171387, -0.05312458053231239, -0.2440526783466339, -0.2620190680027008, 0.14855174720287323, -0.2909153401851654, -0.2864344120025635]], "_stack.Linear_0.bias": [-0.6798487305641174, -2.382540225982666, -1.0886330604553223, -1.1152318716049194, -0.18256253004074097, 3.6949846744537354, -0.04577261582016945, 0.28825244307518005, 4.5842742919921875, -0.02691134624183178, 0.16719339787960052, -0.2081386148929596], "_stack.Linear_2.weight": [[-0.5600987076759338, 0.22446785867214203, -0.6090865731239319, 0.2081717550754547, -0.22348839044570923, 0.9479695558547974, -0.2195010632276535, 0.1774788349866867, 0.3700011670589447, -0.24265071749687195, 0.004254173953086138, 0.22747266292572021], [-0.597749650478363, -0.37275412678718567, -0.10020893067121506, -0.30442014336586, 0.11959365755319595, 1.2436349391937256, -0.09884604811668396, -0.14659851789474487, 1.118024468421936, 0.11981169879436493, -0.21063920855522156, 0.0465422198176384], [-0.0033178715966641903, -0.11860790103673935, -0.16485561430454254, -0.09579355269670486, 0.22754138708114624, -0.20693743228912354, -0.20563580095767975, -0.08906179666519165, 0.005021887831389904, 0.0785808116197586, 0.008662586100399494, -0.06949150562286377], [-0.9741781949996948, -1.4398589134216309, -2.2487831115722656, -0.009832968935370445, -0.2809991240501404, -0.42832016944885254, -0.2348632514476776, -0.05275733768939972, -0.9801152944564819, 0.2530350685119629, -0.2513076663017273, -0.012507385574281216], [0.07816286385059357, 0.7108384370803833, 0.14203456044197083, -0.04622861370444298, -0.19395872950553894, -1.2871551513671875, -0.13952307403087616, 0.14947198331356049, -0.8225185871124268, 0.122714102268219, 0.2596419155597687, 0.26842615008354187], [-0.26271313428878784, -0.19095291197299957, -0.11935758590698242, -0.18408842384815216, 0.2769837975502014, -0.02549544908106327, -0.19148992002010345, -0.12845738232135773, -0.15945391356945038, 0.11777638643980026, -0.25179722905158997, -0.269161581993103], [0.05706294625997543, 0.7310928106307983, -0.10498702526092529, -0.6575366258621216, 0.07158524543046951, -3.819594144821167, -0.00963742658495903, -0.06107834354043007, 0.2023332715034485, -0.030953966081142426, 0.1453476846218109, -0.1960136890411377], [0.6437105536460876, -0.021662162616848946, -0.886883556842804, -0.7684235572814941, 0.2835323214530945, -0.02519933134317398, -0.04801255464553833, 0.14386284351348877, 0.0782339870929718, 0.11415888369083405, 0.06734927743673325, 0.18196052312850952], [-0.7679041624069214, -0.038679275661706924, 0.6451586484909058, 0.24728061258792877, -0.2686890661716461, 1.325864315032959, -0.2641315460205078, -0.2068134844303131, -0.46919769048690796, 0.23888978362083435, -0.05746104568243027, 0.16580089926719666], [0.5422946810722351, -0.06058302894234657, -0.3991720378398895, 0.005795804318040609, 0.11011067032814026, -1.5889161825180054, -0.24141189455986023, 0.17753982543945312, 0.8228410482406616, -0.26857316493988037, 0.030203010886907578, 0.24643419682979584], [-0.16322045028209686, -0.19847826659679413, 0.20675790309906006, 0.08330412209033966, 0.2870227098464966, -2.313408851623535, 0.2233901470899582, -0.03598242625594139, 1.3265714645385742, -0.2690200209617615, -0.15577757358551025, -0.06174216419458389], [-0.4644019305706024, 0.5180999636650085, 0.13128569722175598, 0.5296793580055237, 0.1963595300912857, 0.3298124074935913, -0.07673061639070511, 0.04215366765856743, -0.9519684314727783, 0.14844617247581482, -0.11486579477787018, -0.08704548329114914]], "_stack.Linear_2.bias": [1.3800442218780518, 1.233486533164978, -0.2005256861448288, 0.04557526856660843, -1.3441624641418457, -0.09051897376775742, -0.5471234321594238, 0.5407105684280396, 1.1133532524108887, 0.8281289339065552, 0.12006853520870209, -1.5982080698013306], "_stack.Linear_4.weight": [[-0.40514498949050903, 0.8479662537574768, 0.006233010441064835, 0.38924917578697205, 0.46830782294273376, 0.19549208879470825, 0.34525787830352783, -0.6087980270385742, -0.5092992186546326, -0.41923990845680237, 0.7746317982673645, 0.6373218894004822]], "_stack.Linear_4.bias": [-1.8829118013381958], "PiecewiseLinearTransform_6.quantiles": [0.0, 0.002214017168077784, 0.00436307387422758, 0.006449295317823442, 0.008474792145749246, 0.0104416604523987, 0.012351981779675341, 0.014207823116992535, 0.01601123690127347, 0.017764261016951173, 0.01946891879596849, 0.0211272190177781, 0.02274115590934251, 0.024312709145134052, 0.025843843847134892, 0.02733651058483702, 0.028792645375242256, 0.03021416968286225, 0.03160299041971847, 0.03296099994534223, 0.034290076066774665, 0.03559208203856673, 0.03686886656277922, 0.03812226378898275, 0.039354093314257765, 0.04056616018319455, 0.04176025488789319, 0.04293815336796364, 0.04410161701052564, 0.045252392650208785, 0.0463922125691525, 0.04752279449700602, 0.04864584161092843, 0.049763042535588616, 0.050876071343165324, 0.051986587553347105, 0.05309623613333235, 0.054206647497829274, 0.055319437509055915, 0.05643620747674015, 0.05755854415811968, 0.058688019757942037, 0.05982619192846458, 0.06097460376945448, 0.06213478382818877, 0.06330824609945428, 0.06449649002554768, 0.06570100049627547, 0.066923247848954, 0.0681646878684094, 0.06942676178697767, 0.07071089628450461, 0.07201850348834588, 0.07335098097336692, 0.07470971176194306, 0.0760960643239594, 0.07751139257681092, 0.07895703588540237, 0.08043431906214839, 0.08194455236697341, 0.0834890315073117, 0.08506903763810736, 0.0866858373618143, 0.08834068272839629, 0.0900348112353269, 0.09176944582758956, 0.09354579489767749, 0.09536505228559376, 0.09722839727885127, 0.09913699461247273, 0.10109199446899071, 0.10309453247844758, 0.10514572971839554, 0.10724669271389665, 0.10939851343752277, 0.11160226930935559, 0.11385902319698661, 0.11616982341551721, 0.11853570372755856, 0.12095768334323168, 0.12343676692016738, 0.12597394456350633, 0.12857019182589904, 0.13122646970750582, 0.13394372465599683, 0.13672288856655201, 0.13956487878186122, 0.14247059809212406, 0.14544093473505, 0.1484767623958583, 0.15157894020727813, 0.15474831274954842, 0.15798571005041795, 0.1612919475851453, 0.16466782627649895, 0.16811413249475712, 0.17163163805770792, 0.17522110023064927, 0.1788832617263889, 0.18261885070524442, 0.18642858077504318, 0.19031315099112245, 0.19427324585632927, 0.19830953532102052, 0.20242267478306294, 0.20661330508783307, 0.2108820525282173, 0.2152295288446118, 0.21965633122492262, 0.2241630423045656, 0.22875023016646645, 0.23341844834106068, 0.23816823580629362, 0.24300011698762045, 0.24791460175800617, 0.2529121854379256, 0.2579933487953634, 0.26315855804581406, 0.2684082648522819, 0.2737429063252811, 0.2791629050228356, 0.28466866895047915, 0.29026059156125544, 0.2959390517557179, 0.3017044138819298, 0.3075570277354643, 0.31349722855940426, 0.31952533704434255, 0.3256416593283817, 0.33184648699713415, 0.33814009708372217, 0.3445227520687778, 0.350994699880443, 0.3575561738943695, 0.36420739293371884, 0.3709485612691625, 0.3777798686188816, 0.3847014901485672, 0.39171358647142024, 0.3988163036481514, 0.4060097731869812, 0.4132941120436401, 0.42066942262136814, 0.42813579277091546, 0.4356932957905419, 0.4433419904260171, 0.4510819208706206, 0.45891311676514174, 0.46683559319787965, 0.47484935070464335, 0.4829543752687517, 0.49115063832103323, 0.49943809673982653, 0.5078166928509799, 0.5162863544278514, 0.5248469946913091, 0.5334985123097308, 0.5422407913990039, 0.5510737015225261, 0.5599970976912045, 0.5690108203634564, 0.5781146954452085, 0.5873085342898978, 0.5965921336984708, 0.6059652759193838, 0.6154277286486031, 0.6249792450296048, 0.6346195636533749, 0.644348408558409, 0.6541654892307127, 0.6640705006038015, 0.6740631230587004, 0.6841430224239446, 0.694309849975579, 0.7045632424371582, 0.7149028219797467, 0.7253281962219191, 0.7358389582297594, 0.7464346865168616, 0.7571149450443296, 0.7678792832207771, 0.7787272359023275, 0.7896583233926142, 0.8006720514427804, 0.8117679112514791, 0.8229453794648729, 0.8342039181766346, 0.8455429749279467, 0.8569619827075015, 0.8684603599515011, 0.8800375105436574, 0.8916928238151923, 0.9034256745448374, 0.915235422958834, 0.9271214147309335, 0.9390829809823968, 0.9511194382819952, 0.9632300886460091, 0.9754142195382293, 0.9876711038699562, 1.0]}